constant half3 weights_0[16*27] = {
{-2.670166,-2.670166,-2.670166},
{-0.324378,-0.324378,-0.324378},
{-2.017930,-2.017930,-2.017930},
{-3.808551,-3.808551,-3.808551},
{0.047766,0.047766,0.047766},
{-2.007418,-2.007418,-2.007418},
{-2.531357,-2.531357,-2.531357},
{-0.124788,-0.124788,-0.124788},
{-5.171835,-5.171835,-5.171835},
{-0.357909,-0.357909,-0.357909},
{1.123010,1.123010,1.123010},
{0.629207,0.629207,0.629207},
{-0.932600,-0.932600,-0.932600},
{-0.383432,-0.383432,-0.383432},
{-1.145039,-1.145039,-1.145039},
{0.144642,0.144642,0.144642},
{0.926484,0.926484,0.926484},
{-0.493554,-0.493554,-0.493554},
{-0.465010,-0.465010,-0.465010},
{-4.526494,-4.526494,-4.526494},
{-3.967978,-3.967978,-3.967978},
{4.378361,4.378361,4.378361},
{2.284198,2.284198,2.284198},
{2.183609,2.183609,2.183609},
{3.970887,3.970887,3.970887},
{1.532328,1.532328,1.532328},
{0.372445,0.372445,0.372445},
{49.625866,49.625866,49.625866},
{23.106131,23.106131,23.106131},
{6.325211,6.325211,6.325211},
{-2.596995,-2.596995,-2.596995},
{-5.970784,-5.970784,-5.970784},
{4.369581,4.369581,4.369581},
{-40.396709,-40.396709,-40.396709},
{-19.325459,-19.325459,-19.325459},
{-10.748119,-10.748119,-10.748119},
{2.564021,2.564021,2.564021},
{2.291034,2.291034,2.291034},
{1.129094,1.129094,1.129094},
{-0.666367,-0.666367,-0.666367},
{-3.128791,-3.128791,-3.128791},
{-3.271355,-3.271355,-3.271355},
{-0.127984,-0.127984,-0.127984},
{-0.265991,-0.265991,-0.265991},
{0.537711,0.537711,0.537711},
{-12.996924,-12.996924,-12.996924},
{-17.620163,-17.620163,-17.620163},
{-8.819316,-8.819316,-8.819316},
{-8.262090,-8.262090,-8.262090},
{-16.944136,-16.944136,-16.944136},
{-7.493670,-7.493670,-7.493670},
{-6.545531,-6.545531,-6.545531},
{-12.369450,-12.369450,-12.369450},
{-7.776480,-7.776480,-7.776480},
{11.781117,11.781117,11.781117},
{-1.695240,-1.695240,-1.695240},
{-11.488712,-11.488712,-11.488712},
{12.055495,12.055495,12.055495},
{-2.542422,-2.542422,-2.542422},
{-11.255063,-11.255063,-11.255063},
{8.608841,8.608841,8.608841},
{-0.909145,-0.909145,-0.909145},
{-8.073516,-8.073516,-8.073516},
{-18.667870,-18.667870,-18.667870},
{-18.014688,-18.014688,-18.014688},
{-1.954294,-1.954294,-1.954294},
{-20.102530,-20.102530,-20.102530},
{-14.156482,-14.156482,-14.156482},
{0.861026,0.861026,0.861026},
{-18.891611,-18.891611,-18.891611},
{-13.348256,-13.348256,-13.348256},
{5.326387,5.326387,5.326387},
{-0.094078,-0.094078,-0.094078},
{-3.019294,-3.019294,-3.019294},
{-2.986798,-2.986798,-2.986798},
{-1.419726,-1.419726,-1.419726},
{-3.685563,-3.685563,-3.685563},
{-2.459697,-2.459697,-2.459697},
{5.791809,5.791809,5.791809},
{5.441686,5.441686,5.441686},
{4.356175,4.356175,4.356175},
{11.775795,11.775795,11.775795},
{19.365011,19.365011,19.365011},
{15.824323,15.824323,15.824323},
{14.037797,14.037797,14.037797},
{21.786665,21.786665,21.786665},
{12.964021,12.964021,12.964021},
{9.656399,9.656399,9.656399},
{14.325549,14.325549,14.325549},
{9.940527,9.940527,9.940527},
{-0.150537,-0.150537,-0.150537},
{-0.319613,-0.319613,-0.319613},
{0.008869,0.008869,0.008869},
{-0.218941,-0.218941,-0.218941},
{-0.284225,-0.284225,-0.284225},
{-0.084029,-0.084029,-0.084029},
{0.188781,0.188781,0.188781},
{0.111345,0.111345,0.111345},
{0.151632,0.151632,0.151632},
{15.637391,15.637391,15.637391},
{-8.231089,-8.231089,-8.231089},
{-13.049395,-13.049395,-13.049395},
{15.753212,15.753212,15.753212},
{-3.722135,-3.722135,-3.722135},
{-14.658067,-14.658067,-14.658067},
{14.105407,14.105407,14.105407},
{-5.225628,-5.225628,-5.225628},
{-10.600433,-10.600433,-10.600433},
{13.678356,13.678356,13.678356},
{25.606693,25.606693,25.606693},
{18.850471,18.850471,18.850471},
{14.647307,14.647307,14.647307},
{26.046654,26.046654,26.046654},
{20.602192,20.602192,20.602192},
{15.156543,15.156543,15.156543},
{16.859833,16.859833,16.859833},
{6.368613,6.368613,6.368613},
{-11.085950,-11.085950,-11.085950},
{-4.664309,-4.664309,-4.664309},
{12.167107,12.167107,12.167107},
{-6.338654,-6.338654,-6.338654},
{-3.965513,-3.965513,-3.965513},
{9.815016,9.815016,9.815016},
{-5.631944,-5.631944,-5.631944},
{-1.764198,-1.764198,-1.764198},
{7.056385,7.056385,7.056385},
{0.326358,0.326358,0.326358},
{-0.195151,-0.195151,-0.195151},
{-0.661109,-0.661109,-0.661109},
{2.774374,2.774374,2.774374},
{2.155192,2.155192,2.155192},
{0.938135,0.938135,0.938135},
{-1.379633,-1.379633,-1.379633},
{-2.657813,-2.657813,-2.657813},
{-1.914156,-1.914156,-1.914156},
{7.485312,7.485312,7.485312},
{-1.208082,-1.208082,-1.208082},
{-7.831600,-7.831600,-7.831600},
{7.639800,7.639800,7.639800},
{-2.955477,-2.955477,-2.955477},
{-7.464698,-7.464698,-7.464698},
{9.781292,9.781292,9.781292},
{2.717268,2.717268,2.717268},
{-8.629155,-8.629155,-8.629155}
};
