constant float3 weights_layer_0_row_major[16*27] = {
{-2.670166,0.022158,1.896030},
{-0.324378,2.941674,2.194006},
{-2.017930,1.382225,0.874711},
{-3.808551,0.028285,2.702285},
{0.047766,5.302950,3.783895},
{-2.007418,2.978799,1.941840},
{-2.531357,1.644904,4.685912},
{-0.124788,6.657647,5.552206},
{-5.171835,0.114510,-0.553116},
{-0.357909,1.109913,0.276886},
{1.123010,2.254966,1.564594},
{0.629207,2.170579,0.988278},
{-0.932600,-0.038771,-0.972212},
{-0.383432,0.113733,-0.594687},
{-1.145039,-0.122980,-1.190236},
{0.144642,1.388470,0.323860},
{0.926484,1.950250,0.990478},
{-0.493554,0.964328,-0.150081},
{-0.465010,-3.452290,-1.674745},
{-4.526494,-7.673936,-5.426020},
{-3.967978,-6.494084,-3.186276},
{4.378361,2.452695,2.681855},
{2.284198,0.710285,1.546441},
{2.183609,1.678062,3.583137},
{3.970887,2.629905,2.287176},
{1.532328,0.941785,1.352817},
{0.372445,0.774671,2.181167},
{49.625866,19.954325,-1.364784},
{23.106131,-5.513948,-25.322577},
{6.325211,-20.964190,-53.475613},
{-2.596995,-5.371120,-0.456656},
{-5.970784,-10.069910,-0.185835},
{4.369581,5.799367,14.402629},
{-40.396709,-18.272354,0.628226},
{-19.325459,1.653052,28.709433},
{-10.748119,12.840120,51.955757},
{2.564021,3.190962,2.436405},
{2.291034,3.253926,3.219640},
{1.129094,2.390159,2.881190},
{-0.666367,-1.056958,-0.360089},
{-3.128791,-3.827085,-2.281999},
{-3.271355,-3.924645,-2.466400},
{-0.127984,-0.300490,-0.005031},
{-0.265991,-0.890550,-0.342277},
{0.537711,-0.399126,-0.481818},
{-12.996924,-4.330382,13.303214},
{-17.620163,-4.178872,21.488522},
{-8.819316,0.235889,14.207016},
{-8.262090,-3.311631,11.138277},
{-16.944136,-4.199995,19.956358},
{-7.493670,-1.064608,9.538756},
{-6.545531,-0.976239,7.768033},
{-12.369450,-2.824957,14.771220},
{-7.776480,-0.590519,8.145076},
{11.781117,19.032404,13.047806},
{-1.695240,1.126509,2.981873},
{-11.488712,-20.307827,-13.309064},
{12.055495,20.490395,14.977955},
{-2.542422,-0.471183,2.921003},
{-11.255063,-23.591686,-14.013182},
{8.608841,13.295420,8.552450},
{-0.909145,0.087482,1.810695},
{-8.073516,-14.597374,-9.888307},
{-18.667870,-11.545330,2.030017},
{-18.014688,-2.351990,10.003311},
{-1.954294,15.779490,21.445158},
{-20.102530,-11.136114,1.132135},
{-14.156482,1.905642,11.469911},
{0.861026,14.935271,16.229664},
{-18.891611,-6.856392,5.882375},
{-13.348256,1.893906,5.657188},
{5.326387,12.207706,7.247047},
{-0.094078,-0.160007,1.302700},
{-3.019294,-3.386828,-1.474934},
{-2.986798,-3.240559,-1.542726},
{-1.419726,-3.418934,-3.205808},
{-3.685563,-5.505576,-4.701257},
{-2.459697,-3.430534,-2.388038},
{5.791809,4.978489,3.512633},
{5.441686,5.124139,4.264829},
{4.356175,4.899189,4.406401},
{11.775795,1.052275,-16.986610},
{19.365011,1.806340,-24.176970},
{15.824323,6.826472,-14.778286},
{14.037797,1.931016,-17.249765},
{21.786665,3.159126,-28.265402},
{12.964021,5.601161,-15.253553},
{9.656399,1.831346,-11.923324},
{14.325549,2.915879,-18.505848},
{9.940527,5.382409,-13.110627},
{-0.150537,-0.224643,-0.085444},
{-0.319613,-0.570174,-0.458993},
{0.008869,-0.231961,-0.272375},
{-0.218941,-0.202101,-0.158628},
{-0.284225,-0.362595,-0.330242},
{-0.084029,-0.135439,-0.200583},
{0.188781,0.214386,0.207434},
{0.111345,0.113548,0.141447},
{0.151632,0.188063,0.199020},
{15.637391,23.873943,20.638920},
{-8.231089,-7.467405,0.933563},
{-13.049395,-24.508709,-13.076339},
{15.753212,23.884527,15.952812},
{-3.722135,-0.528406,1.916891},
{-14.658067,-21.582525,-13.933863},
{14.105407,16.335697,14.505459},
{-5.225628,-2.320529,0.749950},
{-10.600433,-20.711163,-11.280402},
{13.678356,-1.254961,-20.042931},
{25.606693,1.122457,-30.792271},
{18.850471,6.417921,-17.366089},
{14.647307,1.157784,-19.481550},
{26.046654,3.110641,-25.940525},
{20.602192,7.142445,-21.233322},
{15.156543,5.187828,-17.447407},
{16.859833,4.357261,-26.047232},
{6.368613,4.820363,-14.861996},
{-11.085950,-14.702927,-8.329964},
{-4.664309,-7.127362,-0.941790},
{12.167107,21.211246,15.111716},
{-6.338654,-13.244039,-8.599244},
{-3.965513,-7.403420,-2.750643},
{9.815016,19.423382,12.005882},
{-5.631944,-10.669133,-8.249227},
{-1.764198,-4.645202,-0.423370},
{7.056385,15.264068,10.399442},
{0.326358,0.409037,0.598370},
{-0.195151,0.260156,0.720920},
{-0.661109,0.241683,1.287187},
{2.774374,2.767055,2.412079},
{2.155192,2.072675,1.817179},
{0.938135,0.882349,1.025773},
{-1.379633,-2.345046,-1.135812},
{-2.657813,-4.050443,-3.056165},
{-1.914156,-3.493272,-2.776043},
{7.485312,2.261936,2.973907},
{-1.208082,-14.341681,2.531478},
{-7.831600,-14.330430,0.640065},
{7.639800,-0.616357,-3.996846},
{-2.955477,-13.619627,0.452733},
{-7.464698,-8.168882,4.061343},
{9.781292,2.155824,-4.277053},
{2.717268,-6.972150,1.644656},
{-8.629155,-8.370653,-0.008847}
};
