constant half16 weights_8[256*512] = {
{0.001958,0.001958,0.001958,0.001958,0.001958,0.001958,0.001958,0.001958,0.001958,0.001958,0.001958,0.001958,0.001958,0.001958,0.001958,0.001958},
{0.008259,0.008259,0.008259,0.008259,0.008259,0.008259,0.008259,0.008259,0.008259,0.008259,0.008259,0.008259,0.008259,0.008259,0.008259,0.008259},
{-0.064767,-0.064767,-0.064767,-0.064767,-0.064767,-0.064767,-0.064767,-0.064767,-0.064767,-0.064767,-0.064767,-0.064767,-0.064767,-0.064767,-0.064767,-0.064767},
{0.022603,0.022603,0.022603,0.022603,0.022603,0.022603,0.022603,0.022603,0.022603,0.022603,0.022603,0.022603,0.022603,0.022603,0.022603,0.022603},
{0.021711,0.021711,0.021711,0.021711,0.021711,0.021711,0.021711,0.021711,0.021711,0.021711,0.021711,0.021711,0.021711,0.021711,0.021711,0.021711},
{-0.119834,-0.119834,-0.119834,-0.119834,-0.119834,-0.119834,-0.119834,-0.119834,-0.119834,-0.119834,-0.119834,-0.119834,-0.119834,-0.119834,-0.119834,-0.119834},
{-0.078767,-0.078767,-0.078767,-0.078767,-0.078767,-0.078767,-0.078767,-0.078767,-0.078767,-0.078767,-0.078767,-0.078767,-0.078767,-0.078767,-0.078767,-0.078767},
{0.022008,0.022008,0.022008,0.022008,0.022008,0.022008,0.022008,0.022008,0.022008,0.022008,0.022008,0.022008,0.022008,0.022008,0.022008,0.022008},
{0.117636,0.117636,0.117636,0.117636,0.117636,0.117636,0.117636,0.117636,0.117636,0.117636,0.117636,0.117636,0.117636,0.117636,0.117636,0.117636},
{-0.058663,-0.058663,-0.058663,-0.058663,-0.058663,-0.058663,-0.058663,-0.058663,-0.058663,-0.058663,-0.058663,-0.058663,-0.058663,-0.058663,-0.058663,-0.058663},
{0.044292,0.044292,0.044292,0.044292,0.044292,0.044292,0.044292,0.044292,0.044292,0.044292,0.044292,0.044292,0.044292,0.044292,0.044292,0.044292},
{0.067384,0.067384,0.067384,0.067384,0.067384,0.067384,0.067384,0.067384,0.067384,0.067384,0.067384,0.067384,0.067384,0.067384,0.067384,0.067384},
{0.075162,0.075162,0.075162,0.075162,0.075162,0.075162,0.075162,0.075162,0.075162,0.075162,0.075162,0.075162,0.075162,0.075162,0.075162,0.075162},
{-0.018945,-0.018945,-0.018945,-0.018945,-0.018945,-0.018945,-0.018945,-0.018945,-0.018945,-0.018945,-0.018945,-0.018945,-0.018945,-0.018945,-0.018945,-0.018945},
{-0.067280,-0.067280,-0.067280,-0.067280,-0.067280,-0.067280,-0.067280,-0.067280,-0.067280,-0.067280,-0.067280,-0.067280,-0.067280,-0.067280,-0.067280,-0.067280},
{-0.152912,-0.152912,-0.152912,-0.152912,-0.152912,-0.152912,-0.152912,-0.152912,-0.152912,-0.152912,-0.152912,-0.152912,-0.152912,-0.152912,-0.152912,-0.152912},
{-0.005514,-0.005514,-0.005514,-0.005514,-0.005514,-0.005514,-0.005514,-0.005514,-0.005514,-0.005514,-0.005514,-0.005514,-0.005514,-0.005514,-0.005514,-0.005514},
{-0.016200,-0.016200,-0.016200,-0.016200,-0.016200,-0.016200,-0.016200,-0.016200,-0.016200,-0.016200,-0.016200,-0.016200,-0.016200,-0.016200,-0.016200,-0.016200},
{0.034401,0.034401,0.034401,0.034401,0.034401,0.034401,0.034401,0.034401,0.034401,0.034401,0.034401,0.034401,0.034401,0.034401,0.034401,0.034401},
{-0.069759,-0.069759,-0.069759,-0.069759,-0.069759,-0.069759,-0.069759,-0.069759,-0.069759,-0.069759,-0.069759,-0.069759,-0.069759,-0.069759,-0.069759,-0.069759},
{0.032541,0.032541,0.032541,0.032541,0.032541,0.032541,0.032541,0.032541,0.032541,0.032541,0.032541,0.032541,0.032541,0.032541,0.032541,0.032541},
{0.072228,0.072228,0.072228,0.072228,0.072228,0.072228,0.072228,0.072228,0.072228,0.072228,0.072228,0.072228,0.072228,0.072228,0.072228,0.072228},
{0.009312,0.009312,0.009312,0.009312,0.009312,0.009312,0.009312,0.009312,0.009312,0.009312,0.009312,0.009312,0.009312,0.009312,0.009312,0.009312},
{-0.055938,-0.055938,-0.055938,-0.055938,-0.055938,-0.055938,-0.055938,-0.055938,-0.055938,-0.055938,-0.055938,-0.055938,-0.055938,-0.055938,-0.055938,-0.055938},
{-0.062679,-0.062679,-0.062679,-0.062679,-0.062679,-0.062679,-0.062679,-0.062679,-0.062679,-0.062679,-0.062679,-0.062679,-0.062679,-0.062679,-0.062679,-0.062679},
{0.006433,0.006433,0.006433,0.006433,0.006433,0.006433,0.006433,0.006433,0.006433,0.006433,0.006433,0.006433,0.006433,0.006433,0.006433,0.006433},
{-0.021797,-0.021797,-0.021797,-0.021797,-0.021797,-0.021797,-0.021797,-0.021797,-0.021797,-0.021797,-0.021797,-0.021797,-0.021797,-0.021797,-0.021797,-0.021797},
{-0.094694,-0.094694,-0.094694,-0.094694,-0.094694,-0.094694,-0.094694,-0.094694,-0.094694,-0.094694,-0.094694,-0.094694,-0.094694,-0.094694,-0.094694,-0.094694},
{-0.050287,-0.050287,-0.050287,-0.050287,-0.050287,-0.050287,-0.050287,-0.050287,-0.050287,-0.050287,-0.050287,-0.050287,-0.050287,-0.050287,-0.050287,-0.050287},
{-0.078007,-0.078007,-0.078007,-0.078007,-0.078007,-0.078007,-0.078007,-0.078007,-0.078007,-0.078007,-0.078007,-0.078007,-0.078007,-0.078007,-0.078007,-0.078007},
{0.039421,0.039421,0.039421,0.039421,0.039421,0.039421,0.039421,0.039421,0.039421,0.039421,0.039421,0.039421,0.039421,0.039421,0.039421,0.039421},
{0.140065,0.140065,0.140065,0.140065,0.140065,0.140065,0.140065,0.140065,0.140065,0.140065,0.140065,0.140065,0.140065,0.140065,0.140065,0.140065},
{0.025509,0.025509,0.025509,0.025509,0.025509,0.025509,0.025509,0.025509,0.025509,0.025509,0.025509,0.025509,0.025509,0.025509,0.025509,0.025509},
{-0.129558,-0.129558,-0.129558,-0.129558,-0.129558,-0.129558,-0.129558,-0.129558,-0.129558,-0.129558,-0.129558,-0.129558,-0.129558,-0.129558,-0.129558,-0.129558},
{0.102007,0.102007,0.102007,0.102007,0.102007,0.102007,0.102007,0.102007,0.102007,0.102007,0.102007,0.102007,0.102007,0.102007,0.102007,0.102007},
{0.050476,0.050476,0.050476,0.050476,0.050476,0.050476,0.050476,0.050476,0.050476,0.050476,0.050476,0.050476,0.050476,0.050476,0.050476,0.050476},
{-0.080839,-0.080839,-0.080839,-0.080839,-0.080839,-0.080839,-0.080839,-0.080839,-0.080839,-0.080839,-0.080839,-0.080839,-0.080839,-0.080839,-0.080839,-0.080839},
{-0.023996,-0.023996,-0.023996,-0.023996,-0.023996,-0.023996,-0.023996,-0.023996,-0.023996,-0.023996,-0.023996,-0.023996,-0.023996,-0.023996,-0.023996,-0.023996},
{-0.005782,-0.005782,-0.005782,-0.005782,-0.005782,-0.005782,-0.005782,-0.005782,-0.005782,-0.005782,-0.005782,-0.005782,-0.005782,-0.005782,-0.005782,-0.005782},
{-0.081374,-0.081374,-0.081374,-0.081374,-0.081374,-0.081374,-0.081374,-0.081374,-0.081374,-0.081374,-0.081374,-0.081374,-0.081374,-0.081374,-0.081374,-0.081374},
{0.049343,0.049343,0.049343,0.049343,0.049343,0.049343,0.049343,0.049343,0.049343,0.049343,0.049343,0.049343,0.049343,0.049343,0.049343,0.049343},
{-0.019399,-0.019399,-0.019399,-0.019399,-0.019399,-0.019399,-0.019399,-0.019399,-0.019399,-0.019399,-0.019399,-0.019399,-0.019399,-0.019399,-0.019399,-0.019399},
{0.037474,0.037474,0.037474,0.037474,0.037474,0.037474,0.037474,0.037474,0.037474,0.037474,0.037474,0.037474,0.037474,0.037474,0.037474,0.037474},
{-0.051857,-0.051857,-0.051857,-0.051857,-0.051857,-0.051857,-0.051857,-0.051857,-0.051857,-0.051857,-0.051857,-0.051857,-0.051857,-0.051857,-0.051857,-0.051857},
{-0.019737,-0.019737,-0.019737,-0.019737,-0.019737,-0.019737,-0.019737,-0.019737,-0.019737,-0.019737,-0.019737,-0.019737,-0.019737,-0.019737,-0.019737,-0.019737},
{0.015474,0.015474,0.015474,0.015474,0.015474,0.015474,0.015474,0.015474,0.015474,0.015474,0.015474,0.015474,0.015474,0.015474,0.015474,0.015474},
{0.051238,0.051238,0.051238,0.051238,0.051238,0.051238,0.051238,0.051238,0.051238,0.051238,0.051238,0.051238,0.051238,0.051238,0.051238,0.051238},
{0.012300,0.012300,0.012300,0.012300,0.012300,0.012300,0.012300,0.012300,0.012300,0.012300,0.012300,0.012300,0.012300,0.012300,0.012300,0.012300},
{-0.069212,-0.069212,-0.069212,-0.069212,-0.069212,-0.069212,-0.069212,-0.069212,-0.069212,-0.069212,-0.069212,-0.069212,-0.069212,-0.069212,-0.069212,-0.069212},
{0.073824,0.073824,0.073824,0.073824,0.073824,0.073824,0.073824,0.073824,0.073824,0.073824,0.073824,0.073824,0.073824,0.073824,0.073824,0.073824},
{0.040546,0.040546,0.040546,0.040546,0.040546,0.040546,0.040546,0.040546,0.040546,0.040546,0.040546,0.040546,0.040546,0.040546,0.040546,0.040546},
{-0.005463,-0.005463,-0.005463,-0.005463,-0.005463,-0.005463,-0.005463,-0.005463,-0.005463,-0.005463,-0.005463,-0.005463,-0.005463,-0.005463,-0.005463,-0.005463},
{-0.092711,-0.092711,-0.092711,-0.092711,-0.092711,-0.092711,-0.092711,-0.092711,-0.092711,-0.092711,-0.092711,-0.092711,-0.092711,-0.092711,-0.092711,-0.092711},
{-0.031718,-0.031718,-0.031718,-0.031718,-0.031718,-0.031718,-0.031718,-0.031718,-0.031718,-0.031718,-0.031718,-0.031718,-0.031718,-0.031718,-0.031718,-0.031718},
{-0.067222,-0.067222,-0.067222,-0.067222,-0.067222,-0.067222,-0.067222,-0.067222,-0.067222,-0.067222,-0.067222,-0.067222,-0.067222,-0.067222,-0.067222,-0.067222},
{0.048417,0.048417,0.048417,0.048417,0.048417,0.048417,0.048417,0.048417,0.048417,0.048417,0.048417,0.048417,0.048417,0.048417,0.048417,0.048417},
{0.080897,0.080897,0.080897,0.080897,0.080897,0.080897,0.080897,0.080897,0.080897,0.080897,0.080897,0.080897,0.080897,0.080897,0.080897,0.080897},
{-0.123994,-0.123994,-0.123994,-0.123994,-0.123994,-0.123994,-0.123994,-0.123994,-0.123994,-0.123994,-0.123994,-0.123994,-0.123994,-0.123994,-0.123994,-0.123994},
{-0.069935,-0.069935,-0.069935,-0.069935,-0.069935,-0.069935,-0.069935,-0.069935,-0.069935,-0.069935,-0.069935,-0.069935,-0.069935,-0.069935,-0.069935,-0.069935},
{0.145312,0.145312,0.145312,0.145312,0.145312,0.145312,0.145312,0.145312,0.145312,0.145312,0.145312,0.145312,0.145312,0.145312,0.145312,0.145312},
{-0.039627,-0.039627,-0.039627,-0.039627,-0.039627,-0.039627,-0.039627,-0.039627,-0.039627,-0.039627,-0.039627,-0.039627,-0.039627,-0.039627,-0.039627,-0.039627},
{-0.046013,-0.046013,-0.046013,-0.046013,-0.046013,-0.046013,-0.046013,-0.046013,-0.046013,-0.046013,-0.046013,-0.046013,-0.046013,-0.046013,-0.046013,-0.046013},
{-0.070032,-0.070032,-0.070032,-0.070032,-0.070032,-0.070032,-0.070032,-0.070032,-0.070032,-0.070032,-0.070032,-0.070032,-0.070032,-0.070032,-0.070032,-0.070032},
{0.025895,0.025895,0.025895,0.025895,0.025895,0.025895,0.025895,0.025895,0.025895,0.025895,0.025895,0.025895,0.025895,0.025895,0.025895,0.025895},
{0.000934,0.000934,0.000934,0.000934,0.000934,0.000934,0.000934,0.000934,0.000934,0.000934,0.000934,0.000934,0.000934,0.000934,0.000934,0.000934},
{0.002634,0.002634,0.002634,0.002634,0.002634,0.002634,0.002634,0.002634,0.002634,0.002634,0.002634,0.002634,0.002634,0.002634,0.002634,0.002634},
{0.082074,0.082074,0.082074,0.082074,0.082074,0.082074,0.082074,0.082074,0.082074,0.082074,0.082074,0.082074,0.082074,0.082074,0.082074,0.082074},
{0.038124,0.038124,0.038124,0.038124,0.038124,0.038124,0.038124,0.038124,0.038124,0.038124,0.038124,0.038124,0.038124,0.038124,0.038124,0.038124},
{-0.043102,-0.043102,-0.043102,-0.043102,-0.043102,-0.043102,-0.043102,-0.043102,-0.043102,-0.043102,-0.043102,-0.043102,-0.043102,-0.043102,-0.043102,-0.043102},
{-0.136934,-0.136934,-0.136934,-0.136934,-0.136934,-0.136934,-0.136934,-0.136934,-0.136934,-0.136934,-0.136934,-0.136934,-0.136934,-0.136934,-0.136934,-0.136934},
{0.036718,0.036718,0.036718,0.036718,0.036718,0.036718,0.036718,0.036718,0.036718,0.036718,0.036718,0.036718,0.036718,0.036718,0.036718,0.036718},
{-0.012545,-0.012545,-0.012545,-0.012545,-0.012545,-0.012545,-0.012545,-0.012545,-0.012545,-0.012545,-0.012545,-0.012545,-0.012545,-0.012545,-0.012545,-0.012545},
{-0.024683,-0.024683,-0.024683,-0.024683,-0.024683,-0.024683,-0.024683,-0.024683,-0.024683,-0.024683,-0.024683,-0.024683,-0.024683,-0.024683,-0.024683,-0.024683},
{0.115678,0.115678,0.115678,0.115678,0.115678,0.115678,0.115678,0.115678,0.115678,0.115678,0.115678,0.115678,0.115678,0.115678,0.115678,0.115678},
{-0.061651,-0.061651,-0.061651,-0.061651,-0.061651,-0.061651,-0.061651,-0.061651,-0.061651,-0.061651,-0.061651,-0.061651,-0.061651,-0.061651,-0.061651,-0.061651},
{-0.114439,-0.114439,-0.114439,-0.114439,-0.114439,-0.114439,-0.114439,-0.114439,-0.114439,-0.114439,-0.114439,-0.114439,-0.114439,-0.114439,-0.114439,-0.114439},
{0.042414,0.042414,0.042414,0.042414,0.042414,0.042414,0.042414,0.042414,0.042414,0.042414,0.042414,0.042414,0.042414,0.042414,0.042414,0.042414},
{-0.051868,-0.051868,-0.051868,-0.051868,-0.051868,-0.051868,-0.051868,-0.051868,-0.051868,-0.051868,-0.051868,-0.051868,-0.051868,-0.051868,-0.051868,-0.051868},
{0.029161,0.029161,0.029161,0.029161,0.029161,0.029161,0.029161,0.029161,0.029161,0.029161,0.029161,0.029161,0.029161,0.029161,0.029161,0.029161},
{0.034615,0.034615,0.034615,0.034615,0.034615,0.034615,0.034615,0.034615,0.034615,0.034615,0.034615,0.034615,0.034615,0.034615,0.034615,0.034615},
{-0.044546,-0.044546,-0.044546,-0.044546,-0.044546,-0.044546,-0.044546,-0.044546,-0.044546,-0.044546,-0.044546,-0.044546,-0.044546,-0.044546,-0.044546,-0.044546},
{0.060437,0.060437,0.060437,0.060437,0.060437,0.060437,0.060437,0.060437,0.060437,0.060437,0.060437,0.060437,0.060437,0.060437,0.060437,0.060437},
{0.017104,0.017104,0.017104,0.017104,0.017104,0.017104,0.017104,0.017104,0.017104,0.017104,0.017104,0.017104,0.017104,0.017104,0.017104,0.017104},
{-0.047296,-0.047296,-0.047296,-0.047296,-0.047296,-0.047296,-0.047296,-0.047296,-0.047296,-0.047296,-0.047296,-0.047296,-0.047296,-0.047296,-0.047296,-0.047296},
{-0.014796,-0.014796,-0.014796,-0.014796,-0.014796,-0.014796,-0.014796,-0.014796,-0.014796,-0.014796,-0.014796,-0.014796,-0.014796,-0.014796,-0.014796,-0.014796},
{0.006430,0.006430,0.006430,0.006430,0.006430,0.006430,0.006430,0.006430,0.006430,0.006430,0.006430,0.006430,0.006430,0.006430,0.006430,0.006430},
{0.028417,0.028417,0.028417,0.028417,0.028417,0.028417,0.028417,0.028417,0.028417,0.028417,0.028417,0.028417,0.028417,0.028417,0.028417,0.028417},
{-0.030193,-0.030193,-0.030193,-0.030193,-0.030193,-0.030193,-0.030193,-0.030193,-0.030193,-0.030193,-0.030193,-0.030193,-0.030193,-0.030193,-0.030193,-0.030193},
{-0.054077,-0.054077,-0.054077,-0.054077,-0.054077,-0.054077,-0.054077,-0.054077,-0.054077,-0.054077,-0.054077,-0.054077,-0.054077,-0.054077,-0.054077,-0.054077},
{0.051569,0.051569,0.051569,0.051569,0.051569,0.051569,0.051569,0.051569,0.051569,0.051569,0.051569,0.051569,0.051569,0.051569,0.051569,0.051569},
{0.020595,0.020595,0.020595,0.020595,0.020595,0.020595,0.020595,0.020595,0.020595,0.020595,0.020595,0.020595,0.020595,0.020595,0.020595,0.020595},
{0.122648,0.122648,0.122648,0.122648,0.122648,0.122648,0.122648,0.122648,0.122648,0.122648,0.122648,0.122648,0.122648,0.122648,0.122648,0.122648},
{0.004438,0.004438,0.004438,0.004438,0.004438,0.004438,0.004438,0.004438,0.004438,0.004438,0.004438,0.004438,0.004438,0.004438,0.004438,0.004438},
{-0.006484,-0.006484,-0.006484,-0.006484,-0.006484,-0.006484,-0.006484,-0.006484,-0.006484,-0.006484,-0.006484,-0.006484,-0.006484,-0.006484,-0.006484,-0.006484},
{0.012929,0.012929,0.012929,0.012929,0.012929,0.012929,0.012929,0.012929,0.012929,0.012929,0.012929,0.012929,0.012929,0.012929,0.012929,0.012929},
{-0.035089,-0.035089,-0.035089,-0.035089,-0.035089,-0.035089,-0.035089,-0.035089,-0.035089,-0.035089,-0.035089,-0.035089,-0.035089,-0.035089,-0.035089,-0.035089},
{-0.076870,-0.076870,-0.076870,-0.076870,-0.076870,-0.076870,-0.076870,-0.076870,-0.076870,-0.076870,-0.076870,-0.076870,-0.076870,-0.076870,-0.076870,-0.076870},
{0.054680,0.054680,0.054680,0.054680,0.054680,0.054680,0.054680,0.054680,0.054680,0.054680,0.054680,0.054680,0.054680,0.054680,0.054680,0.054680},
{0.027430,0.027430,0.027430,0.027430,0.027430,0.027430,0.027430,0.027430,0.027430,0.027430,0.027430,0.027430,0.027430,0.027430,0.027430,0.027430},
{0.142685,0.142685,0.142685,0.142685,0.142685,0.142685,0.142685,0.142685,0.142685,0.142685,0.142685,0.142685,0.142685,0.142685,0.142685,0.142685},
{-0.087030,-0.087030,-0.087030,-0.087030,-0.087030,-0.087030,-0.087030,-0.087030,-0.087030,-0.087030,-0.087030,-0.087030,-0.087030,-0.087030,-0.087030,-0.087030},
{0.000452,0.000452,0.000452,0.000452,0.000452,0.000452,0.000452,0.000452,0.000452,0.000452,0.000452,0.000452,0.000452,0.000452,0.000452,0.000452},
{-0.117942,-0.117942,-0.117942,-0.117942,-0.117942,-0.117942,-0.117942,-0.117942,-0.117942,-0.117942,-0.117942,-0.117942,-0.117942,-0.117942,-0.117942,-0.117942},
{-0.065837,-0.065837,-0.065837,-0.065837,-0.065837,-0.065837,-0.065837,-0.065837,-0.065837,-0.065837,-0.065837,-0.065837,-0.065837,-0.065837,-0.065837,-0.065837},
{-0.125642,-0.125642,-0.125642,-0.125642,-0.125642,-0.125642,-0.125642,-0.125642,-0.125642,-0.125642,-0.125642,-0.125642,-0.125642,-0.125642,-0.125642,-0.125642},
{-0.060732,-0.060732,-0.060732,-0.060732,-0.060732,-0.060732,-0.060732,-0.060732,-0.060732,-0.060732,-0.060732,-0.060732,-0.060732,-0.060732,-0.060732,-0.060732},
{0.060175,0.060175,0.060175,0.060175,0.060175,0.060175,0.060175,0.060175,0.060175,0.060175,0.060175,0.060175,0.060175,0.060175,0.060175,0.060175},
{-0.048084,-0.048084,-0.048084,-0.048084,-0.048084,-0.048084,-0.048084,-0.048084,-0.048084,-0.048084,-0.048084,-0.048084,-0.048084,-0.048084,-0.048084,-0.048084},
{-0.067752,-0.067752,-0.067752,-0.067752,-0.067752,-0.067752,-0.067752,-0.067752,-0.067752,-0.067752,-0.067752,-0.067752,-0.067752,-0.067752,-0.067752,-0.067752},
{0.009679,0.009679,0.009679,0.009679,0.009679,0.009679,0.009679,0.009679,0.009679,0.009679,0.009679,0.009679,0.009679,0.009679,0.009679,0.009679},
{-0.078332,-0.078332,-0.078332,-0.078332,-0.078332,-0.078332,-0.078332,-0.078332,-0.078332,-0.078332,-0.078332,-0.078332,-0.078332,-0.078332,-0.078332,-0.078332},
{0.039834,0.039834,0.039834,0.039834,0.039834,0.039834,0.039834,0.039834,0.039834,0.039834,0.039834,0.039834,0.039834,0.039834,0.039834,0.039834},
{-0.011101,-0.011101,-0.011101,-0.011101,-0.011101,-0.011101,-0.011101,-0.011101,-0.011101,-0.011101,-0.011101,-0.011101,-0.011101,-0.011101,-0.011101,-0.011101},
{0.063378,0.063378,0.063378,0.063378,0.063378,0.063378,0.063378,0.063378,0.063378,0.063378,0.063378,0.063378,0.063378,0.063378,0.063378,0.063378},
{0.042233,0.042233,0.042233,0.042233,0.042233,0.042233,0.042233,0.042233,0.042233,0.042233,0.042233,0.042233,0.042233,0.042233,0.042233,0.042233},
{-0.023615,-0.023615,-0.023615,-0.023615,-0.023615,-0.023615,-0.023615,-0.023615,-0.023615,-0.023615,-0.023615,-0.023615,-0.023615,-0.023615,-0.023615,-0.023615},
{0.048614,0.048614,0.048614,0.048614,0.048614,0.048614,0.048614,0.048614,0.048614,0.048614,0.048614,0.048614,0.048614,0.048614,0.048614,0.048614},
{-0.010921,-0.010921,-0.010921,-0.010921,-0.010921,-0.010921,-0.010921,-0.010921,-0.010921,-0.010921,-0.010921,-0.010921,-0.010921,-0.010921,-0.010921,-0.010921},
{0.096489,0.096489,0.096489,0.096489,0.096489,0.096489,0.096489,0.096489,0.096489,0.096489,0.096489,0.096489,0.096489,0.096489,0.096489,0.096489},
{-0.087945,-0.087945,-0.087945,-0.087945,-0.087945,-0.087945,-0.087945,-0.087945,-0.087945,-0.087945,-0.087945,-0.087945,-0.087945,-0.087945,-0.087945,-0.087945},
{0.137714,0.137714,0.137714,0.137714,0.137714,0.137714,0.137714,0.137714,0.137714,0.137714,0.137714,0.137714,0.137714,0.137714,0.137714,0.137714},
{0.087783,0.087783,0.087783,0.087783,0.087783,0.087783,0.087783,0.087783,0.087783,0.087783,0.087783,0.087783,0.087783,0.087783,0.087783,0.087783},
{0.078964,0.078964,0.078964,0.078964,0.078964,0.078964,0.078964,0.078964,0.078964,0.078964,0.078964,0.078964,0.078964,0.078964,0.078964,0.078964},
{0.018554,0.018554,0.018554,0.018554,0.018554,0.018554,0.018554,0.018554,0.018554,0.018554,0.018554,0.018554,0.018554,0.018554,0.018554,0.018554},
{0.056880,0.056880,0.056880,0.056880,0.056880,0.056880,0.056880,0.056880,0.056880,0.056880,0.056880,0.056880,0.056880,0.056880,0.056880,0.056880},
{-0.105552,-0.105552,-0.105552,-0.105552,-0.105552,-0.105552,-0.105552,-0.105552,-0.105552,-0.105552,-0.105552,-0.105552,-0.105552,-0.105552,-0.105552,-0.105552},
{-0.038892,-0.038892,-0.038892,-0.038892,-0.038892,-0.038892,-0.038892,-0.038892,-0.038892,-0.038892,-0.038892,-0.038892,-0.038892,-0.038892,-0.038892,-0.038892},
{0.019801,0.019801,0.019801,0.019801,0.019801,0.019801,0.019801,0.019801,0.019801,0.019801,0.019801,0.019801,0.019801,0.019801,0.019801,0.019801},
{0.036766,0.036766,0.036766,0.036766,0.036766,0.036766,0.036766,0.036766,0.036766,0.036766,0.036766,0.036766,0.036766,0.036766,0.036766,0.036766},
{0.056304,0.056304,0.056304,0.056304,0.056304,0.056304,0.056304,0.056304,0.056304,0.056304,0.056304,0.056304,0.056304,0.056304,0.056304,0.056304},
{-0.054114,-0.054114,-0.054114,-0.054114,-0.054114,-0.054114,-0.054114,-0.054114,-0.054114,-0.054114,-0.054114,-0.054114,-0.054114,-0.054114,-0.054114,-0.054114},
{-0.007750,-0.007750,-0.007750,-0.007750,-0.007750,-0.007750,-0.007750,-0.007750,-0.007750,-0.007750,-0.007750,-0.007750,-0.007750,-0.007750,-0.007750,-0.007750},
{-0.027137,-0.027137,-0.027137,-0.027137,-0.027137,-0.027137,-0.027137,-0.027137,-0.027137,-0.027137,-0.027137,-0.027137,-0.027137,-0.027137,-0.027137,-0.027137},
{-0.024422,-0.024422,-0.024422,-0.024422,-0.024422,-0.024422,-0.024422,-0.024422,-0.024422,-0.024422,-0.024422,-0.024422,-0.024422,-0.024422,-0.024422,-0.024422},
{-0.008986,-0.008986,-0.008986,-0.008986,-0.008986,-0.008986,-0.008986,-0.008986,-0.008986,-0.008986,-0.008986,-0.008986,-0.008986,-0.008986,-0.008986,-0.008986},
{-0.051562,-0.051562,-0.051562,-0.051562,-0.051562,-0.051562,-0.051562,-0.051562,-0.051562,-0.051562,-0.051562,-0.051562,-0.051562,-0.051562,-0.051562,-0.051562},
{-0.094799,-0.094799,-0.094799,-0.094799,-0.094799,-0.094799,-0.094799,-0.094799,-0.094799,-0.094799,-0.094799,-0.094799,-0.094799,-0.094799,-0.094799,-0.094799},
{-0.077496,-0.077496,-0.077496,-0.077496,-0.077496,-0.077496,-0.077496,-0.077496,-0.077496,-0.077496,-0.077496,-0.077496,-0.077496,-0.077496,-0.077496,-0.077496},
{0.065599,0.065599,0.065599,0.065599,0.065599,0.065599,0.065599,0.065599,0.065599,0.065599,0.065599,0.065599,0.065599,0.065599,0.065599,0.065599},
{-0.008000,-0.008000,-0.008000,-0.008000,-0.008000,-0.008000,-0.008000,-0.008000,-0.008000,-0.008000,-0.008000,-0.008000,-0.008000,-0.008000,-0.008000,-0.008000},
{-0.026826,-0.026826,-0.026826,-0.026826,-0.026826,-0.026826,-0.026826,-0.026826,-0.026826,-0.026826,-0.026826,-0.026826,-0.026826,-0.026826,-0.026826,-0.026826},
{0.005925,0.005925,0.005925,0.005925,0.005925,0.005925,0.005925,0.005925,0.005925,0.005925,0.005925,0.005925,0.005925,0.005925,0.005925,0.005925},
{-0.018068,-0.018068,-0.018068,-0.018068,-0.018068,-0.018068,-0.018068,-0.018068,-0.018068,-0.018068,-0.018068,-0.018068,-0.018068,-0.018068,-0.018068,-0.018068},
{0.092075,0.092075,0.092075,0.092075,0.092075,0.092075,0.092075,0.092075,0.092075,0.092075,0.092075,0.092075,0.092075,0.092075,0.092075,0.092075},
{0.021808,0.021808,0.021808,0.021808,0.021808,0.021808,0.021808,0.021808,0.021808,0.021808,0.021808,0.021808,0.021808,0.021808,0.021808,0.021808},
{-0.062317,-0.062317,-0.062317,-0.062317,-0.062317,-0.062317,-0.062317,-0.062317,-0.062317,-0.062317,-0.062317,-0.062317,-0.062317,-0.062317,-0.062317,-0.062317},
{-0.047646,-0.047646,-0.047646,-0.047646,-0.047646,-0.047646,-0.047646,-0.047646,-0.047646,-0.047646,-0.047646,-0.047646,-0.047646,-0.047646,-0.047646,-0.047646},
{-0.026577,-0.026577,-0.026577,-0.026577,-0.026577,-0.026577,-0.026577,-0.026577,-0.026577,-0.026577,-0.026577,-0.026577,-0.026577,-0.026577,-0.026577,-0.026577},
{-0.022534,-0.022534,-0.022534,-0.022534,-0.022534,-0.022534,-0.022534,-0.022534,-0.022534,-0.022534,-0.022534,-0.022534,-0.022534,-0.022534,-0.022534,-0.022534},
{-0.036523,-0.036523,-0.036523,-0.036523,-0.036523,-0.036523,-0.036523,-0.036523,-0.036523,-0.036523,-0.036523,-0.036523,-0.036523,-0.036523,-0.036523,-0.036523},
{-0.012623,-0.012623,-0.012623,-0.012623,-0.012623,-0.012623,-0.012623,-0.012623,-0.012623,-0.012623,-0.012623,-0.012623,-0.012623,-0.012623,-0.012623,-0.012623},
{-0.016745,-0.016745,-0.016745,-0.016745,-0.016745,-0.016745,-0.016745,-0.016745,-0.016745,-0.016745,-0.016745,-0.016745,-0.016745,-0.016745,-0.016745,-0.016745},
{0.093481,0.093481,0.093481,0.093481,0.093481,0.093481,0.093481,0.093481,0.093481,0.093481,0.093481,0.093481,0.093481,0.093481,0.093481,0.093481},
{0.000588,0.000588,0.000588,0.000588,0.000588,0.000588,0.000588,0.000588,0.000588,0.000588,0.000588,0.000588,0.000588,0.000588,0.000588,0.000588},
{-0.038918,-0.038918,-0.038918,-0.038918,-0.038918,-0.038918,-0.038918,-0.038918,-0.038918,-0.038918,-0.038918,-0.038918,-0.038918,-0.038918,-0.038918,-0.038918},
{-0.030579,-0.030579,-0.030579,-0.030579,-0.030579,-0.030579,-0.030579,-0.030579,-0.030579,-0.030579,-0.030579,-0.030579,-0.030579,-0.030579,-0.030579,-0.030579},
{0.014458,0.014458,0.014458,0.014458,0.014458,0.014458,0.014458,0.014458,0.014458,0.014458,0.014458,0.014458,0.014458,0.014458,0.014458,0.014458},
{-0.064247,-0.064247,-0.064247,-0.064247,-0.064247,-0.064247,-0.064247,-0.064247,-0.064247,-0.064247,-0.064247,-0.064247,-0.064247,-0.064247,-0.064247,-0.064247},
{0.109604,0.109604,0.109604,0.109604,0.109604,0.109604,0.109604,0.109604,0.109604,0.109604,0.109604,0.109604,0.109604,0.109604,0.109604,0.109604},
{0.019531,0.019531,0.019531,0.019531,0.019531,0.019531,0.019531,0.019531,0.019531,0.019531,0.019531,0.019531,0.019531,0.019531,0.019531,0.019531},
{0.012466,0.012466,0.012466,0.012466,0.012466,0.012466,0.012466,0.012466,0.012466,0.012466,0.012466,0.012466,0.012466,0.012466,0.012466,0.012466},
{-0.003685,-0.003685,-0.003685,-0.003685,-0.003685,-0.003685,-0.003685,-0.003685,-0.003685,-0.003685,-0.003685,-0.003685,-0.003685,-0.003685,-0.003685,-0.003685},
{-0.065836,-0.065836,-0.065836,-0.065836,-0.065836,-0.065836,-0.065836,-0.065836,-0.065836,-0.065836,-0.065836,-0.065836,-0.065836,-0.065836,-0.065836,-0.065836},
{-0.015890,-0.015890,-0.015890,-0.015890,-0.015890,-0.015890,-0.015890,-0.015890,-0.015890,-0.015890,-0.015890,-0.015890,-0.015890,-0.015890,-0.015890,-0.015890},
{0.043991,0.043991,0.043991,0.043991,0.043991,0.043991,0.043991,0.043991,0.043991,0.043991,0.043991,0.043991,0.043991,0.043991,0.043991,0.043991},
{-0.084959,-0.084959,-0.084959,-0.084959,-0.084959,-0.084959,-0.084959,-0.084959,-0.084959,-0.084959,-0.084959,-0.084959,-0.084959,-0.084959,-0.084959,-0.084959},
{0.086116,0.086116,0.086116,0.086116,0.086116,0.086116,0.086116,0.086116,0.086116,0.086116,0.086116,0.086116,0.086116,0.086116,0.086116,0.086116},
{-0.052595,-0.052595,-0.052595,-0.052595,-0.052595,-0.052595,-0.052595,-0.052595,-0.052595,-0.052595,-0.052595,-0.052595,-0.052595,-0.052595,-0.052595,-0.052595},
{0.030764,0.030764,0.030764,0.030764,0.030764,0.030764,0.030764,0.030764,0.030764,0.030764,0.030764,0.030764,0.030764,0.030764,0.030764,0.030764},
{-0.035559,-0.035559,-0.035559,-0.035559,-0.035559,-0.035559,-0.035559,-0.035559,-0.035559,-0.035559,-0.035559,-0.035559,-0.035559,-0.035559,-0.035559,-0.035559},
{0.088166,0.088166,0.088166,0.088166,0.088166,0.088166,0.088166,0.088166,0.088166,0.088166,0.088166,0.088166,0.088166,0.088166,0.088166,0.088166},
{0.008719,0.008719,0.008719,0.008719,0.008719,0.008719,0.008719,0.008719,0.008719,0.008719,0.008719,0.008719,0.008719,0.008719,0.008719,0.008719},
{-0.033124,-0.033124,-0.033124,-0.033124,-0.033124,-0.033124,-0.033124,-0.033124,-0.033124,-0.033124,-0.033124,-0.033124,-0.033124,-0.033124,-0.033124,-0.033124},
{-0.138134,-0.138134,-0.138134,-0.138134,-0.138134,-0.138134,-0.138134,-0.138134,-0.138134,-0.138134,-0.138134,-0.138134,-0.138134,-0.138134,-0.138134,-0.138134},
{-0.084292,-0.084292,-0.084292,-0.084292,-0.084292,-0.084292,-0.084292,-0.084292,-0.084292,-0.084292,-0.084292,-0.084292,-0.084292,-0.084292,-0.084292,-0.084292},
{-0.079319,-0.079319,-0.079319,-0.079319,-0.079319,-0.079319,-0.079319,-0.079319,-0.079319,-0.079319,-0.079319,-0.079319,-0.079319,-0.079319,-0.079319,-0.079319},
{0.021099,0.021099,0.021099,0.021099,0.021099,0.021099,0.021099,0.021099,0.021099,0.021099,0.021099,0.021099,0.021099,0.021099,0.021099,0.021099},
{-0.063619,-0.063619,-0.063619,-0.063619,-0.063619,-0.063619,-0.063619,-0.063619,-0.063619,-0.063619,-0.063619,-0.063619,-0.063619,-0.063619,-0.063619,-0.063619},
{-0.008142,-0.008142,-0.008142,-0.008142,-0.008142,-0.008142,-0.008142,-0.008142,-0.008142,-0.008142,-0.008142,-0.008142,-0.008142,-0.008142,-0.008142,-0.008142},
{-0.012831,-0.012831,-0.012831,-0.012831,-0.012831,-0.012831,-0.012831,-0.012831,-0.012831,-0.012831,-0.012831,-0.012831,-0.012831,-0.012831,-0.012831,-0.012831},
{-0.020795,-0.020795,-0.020795,-0.020795,-0.020795,-0.020795,-0.020795,-0.020795,-0.020795,-0.020795,-0.020795,-0.020795,-0.020795,-0.020795,-0.020795,-0.020795},
{0.049042,0.049042,0.049042,0.049042,0.049042,0.049042,0.049042,0.049042,0.049042,0.049042,0.049042,0.049042,0.049042,0.049042,0.049042,0.049042},
{0.004544,0.004544,0.004544,0.004544,0.004544,0.004544,0.004544,0.004544,0.004544,0.004544,0.004544,0.004544,0.004544,0.004544,0.004544,0.004544},
{0.006279,0.006279,0.006279,0.006279,0.006279,0.006279,0.006279,0.006279,0.006279,0.006279,0.006279,0.006279,0.006279,0.006279,0.006279,0.006279},
{0.012378,0.012378,0.012378,0.012378,0.012378,0.012378,0.012378,0.012378,0.012378,0.012378,0.012378,0.012378,0.012378,0.012378,0.012378,0.012378},
{-0.036111,-0.036111,-0.036111,-0.036111,-0.036111,-0.036111,-0.036111,-0.036111,-0.036111,-0.036111,-0.036111,-0.036111,-0.036111,-0.036111,-0.036111,-0.036111},
{-0.090123,-0.090123,-0.090123,-0.090123,-0.090123,-0.090123,-0.090123,-0.090123,-0.090123,-0.090123,-0.090123,-0.090123,-0.090123,-0.090123,-0.090123,-0.090123},
{0.044405,0.044405,0.044405,0.044405,0.044405,0.044405,0.044405,0.044405,0.044405,0.044405,0.044405,0.044405,0.044405,0.044405,0.044405,0.044405},
{-0.023080,-0.023080,-0.023080,-0.023080,-0.023080,-0.023080,-0.023080,-0.023080,-0.023080,-0.023080,-0.023080,-0.023080,-0.023080,-0.023080,-0.023080,-0.023080},
{0.025711,0.025711,0.025711,0.025711,0.025711,0.025711,0.025711,0.025711,0.025711,0.025711,0.025711,0.025711,0.025711,0.025711,0.025711,0.025711},
{0.004096,0.004096,0.004096,0.004096,0.004096,0.004096,0.004096,0.004096,0.004096,0.004096,0.004096,0.004096,0.004096,0.004096,0.004096,0.004096},
{0.080553,0.080553,0.080553,0.080553,0.080553,0.080553,0.080553,0.080553,0.080553,0.080553,0.080553,0.080553,0.080553,0.080553,0.080553,0.080553},
{-0.016205,-0.016205,-0.016205,-0.016205,-0.016205,-0.016205,-0.016205,-0.016205,-0.016205,-0.016205,-0.016205,-0.016205,-0.016205,-0.016205,-0.016205,-0.016205},
{0.115006,0.115006,0.115006,0.115006,0.115006,0.115006,0.115006,0.115006,0.115006,0.115006,0.115006,0.115006,0.115006,0.115006,0.115006,0.115006},
{0.083339,0.083339,0.083339,0.083339,0.083339,0.083339,0.083339,0.083339,0.083339,0.083339,0.083339,0.083339,0.083339,0.083339,0.083339,0.083339},
{-0.042992,-0.042992,-0.042992,-0.042992,-0.042992,-0.042992,-0.042992,-0.042992,-0.042992,-0.042992,-0.042992,-0.042992,-0.042992,-0.042992,-0.042992,-0.042992},
{0.036998,0.036998,0.036998,0.036998,0.036998,0.036998,0.036998,0.036998,0.036998,0.036998,0.036998,0.036998,0.036998,0.036998,0.036998,0.036998},
{-0.014412,-0.014412,-0.014412,-0.014412,-0.014412,-0.014412,-0.014412,-0.014412,-0.014412,-0.014412,-0.014412,-0.014412,-0.014412,-0.014412,-0.014412,-0.014412},
{-0.046962,-0.046962,-0.046962,-0.046962,-0.046962,-0.046962,-0.046962,-0.046962,-0.046962,-0.046962,-0.046962,-0.046962,-0.046962,-0.046962,-0.046962,-0.046962},
{0.063814,0.063814,0.063814,0.063814,0.063814,0.063814,0.063814,0.063814,0.063814,0.063814,0.063814,0.063814,0.063814,0.063814,0.063814,0.063814},
{-0.019260,-0.019260,-0.019260,-0.019260,-0.019260,-0.019260,-0.019260,-0.019260,-0.019260,-0.019260,-0.019260,-0.019260,-0.019260,-0.019260,-0.019260,-0.019260},
{0.014467,0.014467,0.014467,0.014467,0.014467,0.014467,0.014467,0.014467,0.014467,0.014467,0.014467,0.014467,0.014467,0.014467,0.014467,0.014467},
{-0.026694,-0.026694,-0.026694,-0.026694,-0.026694,-0.026694,-0.026694,-0.026694,-0.026694,-0.026694,-0.026694,-0.026694,-0.026694,-0.026694,-0.026694,-0.026694},
{-0.027643,-0.027643,-0.027643,-0.027643,-0.027643,-0.027643,-0.027643,-0.027643,-0.027643,-0.027643,-0.027643,-0.027643,-0.027643,-0.027643,-0.027643,-0.027643},
{-0.040066,-0.040066,-0.040066,-0.040066,-0.040066,-0.040066,-0.040066,-0.040066,-0.040066,-0.040066,-0.040066,-0.040066,-0.040066,-0.040066,-0.040066,-0.040066},
{0.011947,0.011947,0.011947,0.011947,0.011947,0.011947,0.011947,0.011947,0.011947,0.011947,0.011947,0.011947,0.011947,0.011947,0.011947,0.011947},
{0.009519,0.009519,0.009519,0.009519,0.009519,0.009519,0.009519,0.009519,0.009519,0.009519,0.009519,0.009519,0.009519,0.009519,0.009519,0.009519},
{0.021086,0.021086,0.021086,0.021086,0.021086,0.021086,0.021086,0.021086,0.021086,0.021086,0.021086,0.021086,0.021086,0.021086,0.021086,0.021086},
{0.121212,0.121212,0.121212,0.121212,0.121212,0.121212,0.121212,0.121212,0.121212,0.121212,0.121212,0.121212,0.121212,0.121212,0.121212,0.121212},
{-0.059896,-0.059896,-0.059896,-0.059896,-0.059896,-0.059896,-0.059896,-0.059896,-0.059896,-0.059896,-0.059896,-0.059896,-0.059896,-0.059896,-0.059896,-0.059896},
{0.011028,0.011028,0.011028,0.011028,0.011028,0.011028,0.011028,0.011028,0.011028,0.011028,0.011028,0.011028,0.011028,0.011028,0.011028,0.011028},
{-0.059697,-0.059697,-0.059697,-0.059697,-0.059697,-0.059697,-0.059697,-0.059697,-0.059697,-0.059697,-0.059697,-0.059697,-0.059697,-0.059697,-0.059697,-0.059697},
{0.014700,0.014700,0.014700,0.014700,0.014700,0.014700,0.014700,0.014700,0.014700,0.014700,0.014700,0.014700,0.014700,0.014700,0.014700,0.014700},
{0.066465,0.066465,0.066465,0.066465,0.066465,0.066465,0.066465,0.066465,0.066465,0.066465,0.066465,0.066465,0.066465,0.066465,0.066465,0.066465},
{-0.032981,-0.032981,-0.032981,-0.032981,-0.032981,-0.032981,-0.032981,-0.032981,-0.032981,-0.032981,-0.032981,-0.032981,-0.032981,-0.032981,-0.032981,-0.032981},
{-0.030577,-0.030577,-0.030577,-0.030577,-0.030577,-0.030577,-0.030577,-0.030577,-0.030577,-0.030577,-0.030577,-0.030577,-0.030577,-0.030577,-0.030577,-0.030577},
{0.044041,0.044041,0.044041,0.044041,0.044041,0.044041,0.044041,0.044041,0.044041,0.044041,0.044041,0.044041,0.044041,0.044041,0.044041,0.044041},
{0.078380,0.078380,0.078380,0.078380,0.078380,0.078380,0.078380,0.078380,0.078380,0.078380,0.078380,0.078380,0.078380,0.078380,0.078380,0.078380},
{0.089104,0.089104,0.089104,0.089104,0.089104,0.089104,0.089104,0.089104,0.089104,0.089104,0.089104,0.089104,0.089104,0.089104,0.089104,0.089104},
{0.024121,0.024121,0.024121,0.024121,0.024121,0.024121,0.024121,0.024121,0.024121,0.024121,0.024121,0.024121,0.024121,0.024121,0.024121,0.024121},
{-0.017174,-0.017174,-0.017174,-0.017174,-0.017174,-0.017174,-0.017174,-0.017174,-0.017174,-0.017174,-0.017174,-0.017174,-0.017174,-0.017174,-0.017174,-0.017174},
{-0.011628,-0.011628,-0.011628,-0.011628,-0.011628,-0.011628,-0.011628,-0.011628,-0.011628,-0.011628,-0.011628,-0.011628,-0.011628,-0.011628,-0.011628,-0.011628},
{-0.033773,-0.033773,-0.033773,-0.033773,-0.033773,-0.033773,-0.033773,-0.033773,-0.033773,-0.033773,-0.033773,-0.033773,-0.033773,-0.033773,-0.033773,-0.033773},
{-0.019458,-0.019458,-0.019458,-0.019458,-0.019458,-0.019458,-0.019458,-0.019458,-0.019458,-0.019458,-0.019458,-0.019458,-0.019458,-0.019458,-0.019458,-0.019458},
{0.128403,0.128403,0.128403,0.128403,0.128403,0.128403,0.128403,0.128403,0.128403,0.128403,0.128403,0.128403,0.128403,0.128403,0.128403,0.128403},
{-0.189025,-0.189025,-0.189025,-0.189025,-0.189025,-0.189025,-0.189025,-0.189025,-0.189025,-0.189025,-0.189025,-0.189025,-0.189025,-0.189025,-0.189025,-0.189025},
{0.099963,0.099963,0.099963,0.099963,0.099963,0.099963,0.099963,0.099963,0.099963,0.099963,0.099963,0.099963,0.099963,0.099963,0.099963,0.099963},
{-0.070148,-0.070148,-0.070148,-0.070148,-0.070148,-0.070148,-0.070148,-0.070148,-0.070148,-0.070148,-0.070148,-0.070148,-0.070148,-0.070148,-0.070148,-0.070148},
{-0.024721,-0.024721,-0.024721,-0.024721,-0.024721,-0.024721,-0.024721,-0.024721,-0.024721,-0.024721,-0.024721,-0.024721,-0.024721,-0.024721,-0.024721,-0.024721},
{-0.008733,-0.008733,-0.008733,-0.008733,-0.008733,-0.008733,-0.008733,-0.008733,-0.008733,-0.008733,-0.008733,-0.008733,-0.008733,-0.008733,-0.008733,-0.008733},
{0.100088,0.100088,0.100088,0.100088,0.100088,0.100088,0.100088,0.100088,0.100088,0.100088,0.100088,0.100088,0.100088,0.100088,0.100088,0.100088},
{0.090926,0.090926,0.090926,0.090926,0.090926,0.090926,0.090926,0.090926,0.090926,0.090926,0.090926,0.090926,0.090926,0.090926,0.090926,0.090926},
{-0.070948,-0.070948,-0.070948,-0.070948,-0.070948,-0.070948,-0.070948,-0.070948,-0.070948,-0.070948,-0.070948,-0.070948,-0.070948,-0.070948,-0.070948,-0.070948},
{0.000483,0.000483,0.000483,0.000483,0.000483,0.000483,0.000483,0.000483,0.000483,0.000483,0.000483,0.000483,0.000483,0.000483,0.000483,0.000483},
{0.181624,0.181624,0.181624,0.181624,0.181624,0.181624,0.181624,0.181624,0.181624,0.181624,0.181624,0.181624,0.181624,0.181624,0.181624,0.181624},
{-0.092272,-0.092272,-0.092272,-0.092272,-0.092272,-0.092272,-0.092272,-0.092272,-0.092272,-0.092272,-0.092272,-0.092272,-0.092272,-0.092272,-0.092272,-0.092272},
{0.062284,0.062284,0.062284,0.062284,0.062284,0.062284,0.062284,0.062284,0.062284,0.062284,0.062284,0.062284,0.062284,0.062284,0.062284,0.062284},
{-0.077918,-0.077918,-0.077918,-0.077918,-0.077918,-0.077918,-0.077918,-0.077918,-0.077918,-0.077918,-0.077918,-0.077918,-0.077918,-0.077918,-0.077918,-0.077918},
{0.021015,0.021015,0.021015,0.021015,0.021015,0.021015,0.021015,0.021015,0.021015,0.021015,0.021015,0.021015,0.021015,0.021015,0.021015,0.021015},
{0.062245,0.062245,0.062245,0.062245,0.062245,0.062245,0.062245,0.062245,0.062245,0.062245,0.062245,0.062245,0.062245,0.062245,0.062245,0.062245},
{-0.029661,-0.029661,-0.029661,-0.029661,-0.029661,-0.029661,-0.029661,-0.029661,-0.029661,-0.029661,-0.029661,-0.029661,-0.029661,-0.029661,-0.029661,-0.029661},
{0.042111,0.042111,0.042111,0.042111,0.042111,0.042111,0.042111,0.042111,0.042111,0.042111,0.042111,0.042111,0.042111,0.042111,0.042111,0.042111},
{-0.068492,-0.068492,-0.068492,-0.068492,-0.068492,-0.068492,-0.068492,-0.068492,-0.068492,-0.068492,-0.068492,-0.068492,-0.068492,-0.068492,-0.068492,-0.068492},
{0.039024,0.039024,0.039024,0.039024,0.039024,0.039024,0.039024,0.039024,0.039024,0.039024,0.039024,0.039024,0.039024,0.039024,0.039024,0.039024},
{-0.108097,-0.108097,-0.108097,-0.108097,-0.108097,-0.108097,-0.108097,-0.108097,-0.108097,-0.108097,-0.108097,-0.108097,-0.108097,-0.108097,-0.108097,-0.108097},
{0.108722,0.108722,0.108722,0.108722,0.108722,0.108722,0.108722,0.108722,0.108722,0.108722,0.108722,0.108722,0.108722,0.108722,0.108722,0.108722},
{0.094998,0.094998,0.094998,0.094998,0.094998,0.094998,0.094998,0.094998,0.094998,0.094998,0.094998,0.094998,0.094998,0.094998,0.094998,0.094998},
{-0.042729,-0.042729,-0.042729,-0.042729,-0.042729,-0.042729,-0.042729,-0.042729,-0.042729,-0.042729,-0.042729,-0.042729,-0.042729,-0.042729,-0.042729,-0.042729},
{-0.025616,-0.025616,-0.025616,-0.025616,-0.025616,-0.025616,-0.025616,-0.025616,-0.025616,-0.025616,-0.025616,-0.025616,-0.025616,-0.025616,-0.025616,-0.025616},
{-0.001802,-0.001802,-0.001802,-0.001802,-0.001802,-0.001802,-0.001802,-0.001802,-0.001802,-0.001802,-0.001802,-0.001802,-0.001802,-0.001802,-0.001802,-0.001802},
{-0.030123,-0.030123,-0.030123,-0.030123,-0.030123,-0.030123,-0.030123,-0.030123,-0.030123,-0.030123,-0.030123,-0.030123,-0.030123,-0.030123,-0.030123,-0.030123},
{-0.153752,-0.153752,-0.153752,-0.153752,-0.153752,-0.153752,-0.153752,-0.153752,-0.153752,-0.153752,-0.153752,-0.153752,-0.153752,-0.153752,-0.153752,-0.153752},
{0.036889,0.036889,0.036889,0.036889,0.036889,0.036889,0.036889,0.036889,0.036889,0.036889,0.036889,0.036889,0.036889,0.036889,0.036889,0.036889},
{0.048173,0.048173,0.048173,0.048173,0.048173,0.048173,0.048173,0.048173,0.048173,0.048173,0.048173,0.048173,0.048173,0.048173,0.048173,0.048173},
{-0.070107,-0.070107,-0.070107,-0.070107,-0.070107,-0.070107,-0.070107,-0.070107,-0.070107,-0.070107,-0.070107,-0.070107,-0.070107,-0.070107,-0.070107,-0.070107},
{-0.002539,-0.002539,-0.002539,-0.002539,-0.002539,-0.002539,-0.002539,-0.002539,-0.002539,-0.002539,-0.002539,-0.002539,-0.002539,-0.002539,-0.002539,-0.002539},
{0.125802,0.125802,0.125802,0.125802,0.125802,0.125802,0.125802,0.125802,0.125802,0.125802,0.125802,0.125802,0.125802,0.125802,0.125802,0.125802},
{0.050767,0.050767,0.050767,0.050767,0.050767,0.050767,0.050767,0.050767,0.050767,0.050767,0.050767,0.050767,0.050767,0.050767,0.050767,0.050767},
{-0.054567,-0.054567,-0.054567,-0.054567,-0.054567,-0.054567,-0.054567,-0.054567,-0.054567,-0.054567,-0.054567,-0.054567,-0.054567,-0.054567,-0.054567,-0.054567},
{-0.094775,-0.094775,-0.094775,-0.094775,-0.094775,-0.094775,-0.094775,-0.094775,-0.094775,-0.094775,-0.094775,-0.094775,-0.094775,-0.094775,-0.094775,-0.094775},
{-0.109779,-0.109779,-0.109779,-0.109779,-0.109779,-0.109779,-0.109779,-0.109779,-0.109779,-0.109779,-0.109779,-0.109779,-0.109779,-0.109779,-0.109779,-0.109779},
{0.015761,0.015761,0.015761,0.015761,0.015761,0.015761,0.015761,0.015761,0.015761,0.015761,0.015761,0.015761,0.015761,0.015761,0.015761,0.015761},
{-0.069324,-0.069324,-0.069324,-0.069324,-0.069324,-0.069324,-0.069324,-0.069324,-0.069324,-0.069324,-0.069324,-0.069324,-0.069324,-0.069324,-0.069324,-0.069324},
{-0.032317,-0.032317,-0.032317,-0.032317,-0.032317,-0.032317,-0.032317,-0.032317,-0.032317,-0.032317,-0.032317,-0.032317,-0.032317,-0.032317,-0.032317,-0.032317},
{0.005343,0.005343,0.005343,0.005343,0.005343,0.005343,0.005343,0.005343,0.005343,0.005343,0.005343,0.005343,0.005343,0.005343,0.005343,0.005343},
{-0.064929,-0.064929,-0.064929,-0.064929,-0.064929,-0.064929,-0.064929,-0.064929,-0.064929,-0.064929,-0.064929,-0.064929,-0.064929,-0.064929,-0.064929,-0.064929},
{-0.025099,-0.025099,-0.025099,-0.025099,-0.025099,-0.025099,-0.025099,-0.025099,-0.025099,-0.025099,-0.025099,-0.025099,-0.025099,-0.025099,-0.025099,-0.025099},
{0.030479,0.030479,0.030479,0.030479,0.030479,0.030479,0.030479,0.030479,0.030479,0.030479,0.030479,0.030479,0.030479,0.030479,0.030479,0.030479},
{0.002361,0.002361,0.002361,0.002361,0.002361,0.002361,0.002361,0.002361,0.002361,0.002361,0.002361,0.002361,0.002361,0.002361,0.002361,0.002361},
{-0.012517,-0.012517,-0.012517,-0.012517,-0.012517,-0.012517,-0.012517,-0.012517,-0.012517,-0.012517,-0.012517,-0.012517,-0.012517,-0.012517,-0.012517,-0.012517},
{0.015556,0.015556,0.015556,0.015556,0.015556,0.015556,0.015556,0.015556,0.015556,0.015556,0.015556,0.015556,0.015556,0.015556,0.015556,0.015556},
{-0.073549,-0.073549,-0.073549,-0.073549,-0.073549,-0.073549,-0.073549,-0.073549,-0.073549,-0.073549,-0.073549,-0.073549,-0.073549,-0.073549,-0.073549,-0.073549},
{-0.079610,-0.079610,-0.079610,-0.079610,-0.079610,-0.079610,-0.079610,-0.079610,-0.079610,-0.079610,-0.079610,-0.079610,-0.079610,-0.079610,-0.079610,-0.079610},
{0.006477,0.006477,0.006477,0.006477,0.006477,0.006477,0.006477,0.006477,0.006477,0.006477,0.006477,0.006477,0.006477,0.006477,0.006477,0.006477},
{0.152023,0.152023,0.152023,0.152023,0.152023,0.152023,0.152023,0.152023,0.152023,0.152023,0.152023,0.152023,0.152023,0.152023,0.152023,0.152023},
{-0.014501,-0.014501,-0.014501,-0.014501,-0.014501,-0.014501,-0.014501,-0.014501,-0.014501,-0.014501,-0.014501,-0.014501,-0.014501,-0.014501,-0.014501,-0.014501},
{-0.015014,-0.015014,-0.015014,-0.015014,-0.015014,-0.015014,-0.015014,-0.015014,-0.015014,-0.015014,-0.015014,-0.015014,-0.015014,-0.015014,-0.015014,-0.015014},
{0.066774,0.066774,0.066774,0.066774,0.066774,0.066774,0.066774,0.066774,0.066774,0.066774,0.066774,0.066774,0.066774,0.066774,0.066774,0.066774},
{-0.134616,-0.134616,-0.134616,-0.134616,-0.134616,-0.134616,-0.134616,-0.134616,-0.134616,-0.134616,-0.134616,-0.134616,-0.134616,-0.134616,-0.134616,-0.134616},
{-0.026717,-0.026717,-0.026717,-0.026717,-0.026717,-0.026717,-0.026717,-0.026717,-0.026717,-0.026717,-0.026717,-0.026717,-0.026717,-0.026717,-0.026717,-0.026717},
{-0.005185,-0.005185,-0.005185,-0.005185,-0.005185,-0.005185,-0.005185,-0.005185,-0.005185,-0.005185,-0.005185,-0.005185,-0.005185,-0.005185,-0.005185,-0.005185},
{0.064596,0.064596,0.064596,0.064596,0.064596,0.064596,0.064596,0.064596,0.064596,0.064596,0.064596,0.064596,0.064596,0.064596,0.064596,0.064596},
{-0.025434,-0.025434,-0.025434,-0.025434,-0.025434,-0.025434,-0.025434,-0.025434,-0.025434,-0.025434,-0.025434,-0.025434,-0.025434,-0.025434,-0.025434,-0.025434},
{-0.071156,-0.071156,-0.071156,-0.071156,-0.071156,-0.071156,-0.071156,-0.071156,-0.071156,-0.071156,-0.071156,-0.071156,-0.071156,-0.071156,-0.071156,-0.071156},
{0.014876,0.014876,0.014876,0.014876,0.014876,0.014876,0.014876,0.014876,0.014876,0.014876,0.014876,0.014876,0.014876,0.014876,0.014876,0.014876},
{0.005837,0.005837,0.005837,0.005837,0.005837,0.005837,0.005837,0.005837,0.005837,0.005837,0.005837,0.005837,0.005837,0.005837,0.005837,0.005837},
{0.015451,0.015451,0.015451,0.015451,0.015451,0.015451,0.015451,0.015451,0.015451,0.015451,0.015451,0.015451,0.015451,0.015451,0.015451,0.015451},
{-0.017816,-0.017816,-0.017816,-0.017816,-0.017816,-0.017816,-0.017816,-0.017816,-0.017816,-0.017816,-0.017816,-0.017816,-0.017816,-0.017816,-0.017816,-0.017816},
{-0.082077,-0.082077,-0.082077,-0.082077,-0.082077,-0.082077,-0.082077,-0.082077,-0.082077,-0.082077,-0.082077,-0.082077,-0.082077,-0.082077,-0.082077,-0.082077},
{0.062317,0.062317,0.062317,0.062317,0.062317,0.062317,0.062317,0.062317,0.062317,0.062317,0.062317,0.062317,0.062317,0.062317,0.062317,0.062317},
{0.081361,0.081361,0.081361,0.081361,0.081361,0.081361,0.081361,0.081361,0.081361,0.081361,0.081361,0.081361,0.081361,0.081361,0.081361,0.081361},
{-0.008395,-0.008395,-0.008395,-0.008395,-0.008395,-0.008395,-0.008395,-0.008395,-0.008395,-0.008395,-0.008395,-0.008395,-0.008395,-0.008395,-0.008395,-0.008395},
{-0.051682,-0.051682,-0.051682,-0.051682,-0.051682,-0.051682,-0.051682,-0.051682,-0.051682,-0.051682,-0.051682,-0.051682,-0.051682,-0.051682,-0.051682,-0.051682},
{-0.021714,-0.021714,-0.021714,-0.021714,-0.021714,-0.021714,-0.021714,-0.021714,-0.021714,-0.021714,-0.021714,-0.021714,-0.021714,-0.021714,-0.021714,-0.021714},
{-0.119674,-0.119674,-0.119674,-0.119674,-0.119674,-0.119674,-0.119674,-0.119674,-0.119674,-0.119674,-0.119674,-0.119674,-0.119674,-0.119674,-0.119674,-0.119674},
{-0.038719,-0.038719,-0.038719,-0.038719,-0.038719,-0.038719,-0.038719,-0.038719,-0.038719,-0.038719,-0.038719,-0.038719,-0.038719,-0.038719,-0.038719,-0.038719},
{-0.169374,-0.169374,-0.169374,-0.169374,-0.169374,-0.169374,-0.169374,-0.169374,-0.169374,-0.169374,-0.169374,-0.169374,-0.169374,-0.169374,-0.169374,-0.169374},
{0.088586,0.088586,0.088586,0.088586,0.088586,0.088586,0.088586,0.088586,0.088586,0.088586,0.088586,0.088586,0.088586,0.088586,0.088586,0.088586},
{0.002480,0.002480,0.002480,0.002480,0.002480,0.002480,0.002480,0.002480,0.002480,0.002480,0.002480,0.002480,0.002480,0.002480,0.002480,0.002480},
{0.002625,0.002625,0.002625,0.002625,0.002625,0.002625,0.002625,0.002625,0.002625,0.002625,0.002625,0.002625,0.002625,0.002625,0.002625,0.002625},
{0.009842,0.009842,0.009842,0.009842,0.009842,0.009842,0.009842,0.009842,0.009842,0.009842,0.009842,0.009842,0.009842,0.009842,0.009842,0.009842},
{-0.002811,-0.002811,-0.002811,-0.002811,-0.002811,-0.002811,-0.002811,-0.002811,-0.002811,-0.002811,-0.002811,-0.002811,-0.002811,-0.002811,-0.002811,-0.002811},
{-0.077357,-0.077357,-0.077357,-0.077357,-0.077357,-0.077357,-0.077357,-0.077357,-0.077357,-0.077357,-0.077357,-0.077357,-0.077357,-0.077357,-0.077357,-0.077357},
{-0.009475,-0.009475,-0.009475,-0.009475,-0.009475,-0.009475,-0.009475,-0.009475,-0.009475,-0.009475,-0.009475,-0.009475,-0.009475,-0.009475,-0.009475,-0.009475},
{0.006169,0.006169,0.006169,0.006169,0.006169,0.006169,0.006169,0.006169,0.006169,0.006169,0.006169,0.006169,0.006169,0.006169,0.006169,0.006169},
{0.123771,0.123771,0.123771,0.123771,0.123771,0.123771,0.123771,0.123771,0.123771,0.123771,0.123771,0.123771,0.123771,0.123771,0.123771,0.123771},
{-0.071602,-0.071602,-0.071602,-0.071602,-0.071602,-0.071602,-0.071602,-0.071602,-0.071602,-0.071602,-0.071602,-0.071602,-0.071602,-0.071602,-0.071602,-0.071602},
{-0.080829,-0.080829,-0.080829,-0.080829,-0.080829,-0.080829,-0.080829,-0.080829,-0.080829,-0.080829,-0.080829,-0.080829,-0.080829,-0.080829,-0.080829,-0.080829},
{0.088670,0.088670,0.088670,0.088670,0.088670,0.088670,0.088670,0.088670,0.088670,0.088670,0.088670,0.088670,0.088670,0.088670,0.088670,0.088670},
{-0.059244,-0.059244,-0.059244,-0.059244,-0.059244,-0.059244,-0.059244,-0.059244,-0.059244,-0.059244,-0.059244,-0.059244,-0.059244,-0.059244,-0.059244,-0.059244},
{0.073576,0.073576,0.073576,0.073576,0.073576,0.073576,0.073576,0.073576,0.073576,0.073576,0.073576,0.073576,0.073576,0.073576,0.073576,0.073576},
{0.089198,0.089198,0.089198,0.089198,0.089198,0.089198,0.089198,0.089198,0.089198,0.089198,0.089198,0.089198,0.089198,0.089198,0.089198,0.089198},
{-0.000528,-0.000528,-0.000528,-0.000528,-0.000528,-0.000528,-0.000528,-0.000528,-0.000528,-0.000528,-0.000528,-0.000528,-0.000528,-0.000528,-0.000528,-0.000528},
{-0.053119,-0.053119,-0.053119,-0.053119,-0.053119,-0.053119,-0.053119,-0.053119,-0.053119,-0.053119,-0.053119,-0.053119,-0.053119,-0.053119,-0.053119,-0.053119},
{0.177192,0.177192,0.177192,0.177192,0.177192,0.177192,0.177192,0.177192,0.177192,0.177192,0.177192,0.177192,0.177192,0.177192,0.177192,0.177192},
{-0.048407,-0.048407,-0.048407,-0.048407,-0.048407,-0.048407,-0.048407,-0.048407,-0.048407,-0.048407,-0.048407,-0.048407,-0.048407,-0.048407,-0.048407,-0.048407},
{0.003555,0.003555,0.003555,0.003555,0.003555,0.003555,0.003555,0.003555,0.003555,0.003555,0.003555,0.003555,0.003555,0.003555,0.003555,0.003555},
{0.039915,0.039915,0.039915,0.039915,0.039915,0.039915,0.039915,0.039915,0.039915,0.039915,0.039915,0.039915,0.039915,0.039915,0.039915,0.039915},
{0.007863,0.007863,0.007863,0.007863,0.007863,0.007863,0.007863,0.007863,0.007863,0.007863,0.007863,0.007863,0.007863,0.007863,0.007863,0.007863},
{0.055769,0.055769,0.055769,0.055769,0.055769,0.055769,0.055769,0.055769,0.055769,0.055769,0.055769,0.055769,0.055769,0.055769,0.055769,0.055769},
{-0.056611,-0.056611,-0.056611,-0.056611,-0.056611,-0.056611,-0.056611,-0.056611,-0.056611,-0.056611,-0.056611,-0.056611,-0.056611,-0.056611,-0.056611,-0.056611},
{0.055460,0.055460,0.055460,0.055460,0.055460,0.055460,0.055460,0.055460,0.055460,0.055460,0.055460,0.055460,0.055460,0.055460,0.055460,0.055460},
{-0.096009,-0.096009,-0.096009,-0.096009,-0.096009,-0.096009,-0.096009,-0.096009,-0.096009,-0.096009,-0.096009,-0.096009,-0.096009,-0.096009,-0.096009,-0.096009},
{-0.027811,-0.027811,-0.027811,-0.027811,-0.027811,-0.027811,-0.027811,-0.027811,-0.027811,-0.027811,-0.027811,-0.027811,-0.027811,-0.027811,-0.027811,-0.027811},
{-0.067431,-0.067431,-0.067431,-0.067431,-0.067431,-0.067431,-0.067431,-0.067431,-0.067431,-0.067431,-0.067431,-0.067431,-0.067431,-0.067431,-0.067431,-0.067431},
{0.036206,0.036206,0.036206,0.036206,0.036206,0.036206,0.036206,0.036206,0.036206,0.036206,0.036206,0.036206,0.036206,0.036206,0.036206,0.036206},
{-0.017538,-0.017538,-0.017538,-0.017538,-0.017538,-0.017538,-0.017538,-0.017538,-0.017538,-0.017538,-0.017538,-0.017538,-0.017538,-0.017538,-0.017538,-0.017538},
{0.050221,0.050221,0.050221,0.050221,0.050221,0.050221,0.050221,0.050221,0.050221,0.050221,0.050221,0.050221,0.050221,0.050221,0.050221,0.050221},
{-0.034311,-0.034311,-0.034311,-0.034311,-0.034311,-0.034311,-0.034311,-0.034311,-0.034311,-0.034311,-0.034311,-0.034311,-0.034311,-0.034311,-0.034311,-0.034311},
{0.026836,0.026836,0.026836,0.026836,0.026836,0.026836,0.026836,0.026836,0.026836,0.026836,0.026836,0.026836,0.026836,0.026836,0.026836,0.026836},
{-0.020911,-0.020911,-0.020911,-0.020911,-0.020911,-0.020911,-0.020911,-0.020911,-0.020911,-0.020911,-0.020911,-0.020911,-0.020911,-0.020911,-0.020911,-0.020911},
{-0.042173,-0.042173,-0.042173,-0.042173,-0.042173,-0.042173,-0.042173,-0.042173,-0.042173,-0.042173,-0.042173,-0.042173,-0.042173,-0.042173,-0.042173,-0.042173},
{-0.031651,-0.031651,-0.031651,-0.031651,-0.031651,-0.031651,-0.031651,-0.031651,-0.031651,-0.031651,-0.031651,-0.031651,-0.031651,-0.031651,-0.031651,-0.031651},
{0.022630,0.022630,0.022630,0.022630,0.022630,0.022630,0.022630,0.022630,0.022630,0.022630,0.022630,0.022630,0.022630,0.022630,0.022630,0.022630},
{-0.077328,-0.077328,-0.077328,-0.077328,-0.077328,-0.077328,-0.077328,-0.077328,-0.077328,-0.077328,-0.077328,-0.077328,-0.077328,-0.077328,-0.077328,-0.077328},
{0.040691,0.040691,0.040691,0.040691,0.040691,0.040691,0.040691,0.040691,0.040691,0.040691,0.040691,0.040691,0.040691,0.040691,0.040691,0.040691},
{0.009828,0.009828,0.009828,0.009828,0.009828,0.009828,0.009828,0.009828,0.009828,0.009828,0.009828,0.009828,0.009828,0.009828,0.009828,0.009828},
{-0.013348,-0.013348,-0.013348,-0.013348,-0.013348,-0.013348,-0.013348,-0.013348,-0.013348,-0.013348,-0.013348,-0.013348,-0.013348,-0.013348,-0.013348,-0.013348},
{-0.029184,-0.029184,-0.029184,-0.029184,-0.029184,-0.029184,-0.029184,-0.029184,-0.029184,-0.029184,-0.029184,-0.029184,-0.029184,-0.029184,-0.029184,-0.029184},
{0.093145,0.093145,0.093145,0.093145,0.093145,0.093145,0.093145,0.093145,0.093145,0.093145,0.093145,0.093145,0.093145,0.093145,0.093145,0.093145},
{0.003937,0.003937,0.003937,0.003937,0.003937,0.003937,0.003937,0.003937,0.003937,0.003937,0.003937,0.003937,0.003937,0.003937,0.003937,0.003937},
{-0.037712,-0.037712,-0.037712,-0.037712,-0.037712,-0.037712,-0.037712,-0.037712,-0.037712,-0.037712,-0.037712,-0.037712,-0.037712,-0.037712,-0.037712,-0.037712},
{-0.001703,-0.001703,-0.001703,-0.001703,-0.001703,-0.001703,-0.001703,-0.001703,-0.001703,-0.001703,-0.001703,-0.001703,-0.001703,-0.001703,-0.001703,-0.001703},
{0.011107,0.011107,0.011107,0.011107,0.011107,0.011107,0.011107,0.011107,0.011107,0.011107,0.011107,0.011107,0.011107,0.011107,0.011107,0.011107},
{-0.126314,-0.126314,-0.126314,-0.126314,-0.126314,-0.126314,-0.126314,-0.126314,-0.126314,-0.126314,-0.126314,-0.126314,-0.126314,-0.126314,-0.126314,-0.126314},
{0.000504,0.000504,0.000504,0.000504,0.000504,0.000504,0.000504,0.000504,0.000504,0.000504,0.000504,0.000504,0.000504,0.000504,0.000504,0.000504},
{-0.082560,-0.082560,-0.082560,-0.082560,-0.082560,-0.082560,-0.082560,-0.082560,-0.082560,-0.082560,-0.082560,-0.082560,-0.082560,-0.082560,-0.082560,-0.082560},
{-0.010554,-0.010554,-0.010554,-0.010554,-0.010554,-0.010554,-0.010554,-0.010554,-0.010554,-0.010554,-0.010554,-0.010554,-0.010554,-0.010554,-0.010554,-0.010554},
{-0.065142,-0.065142,-0.065142,-0.065142,-0.065142,-0.065142,-0.065142,-0.065142,-0.065142,-0.065142,-0.065142,-0.065142,-0.065142,-0.065142,-0.065142,-0.065142},
{-0.060716,-0.060716,-0.060716,-0.060716,-0.060716,-0.060716,-0.060716,-0.060716,-0.060716,-0.060716,-0.060716,-0.060716,-0.060716,-0.060716,-0.060716,-0.060716},
{-0.042349,-0.042349,-0.042349,-0.042349,-0.042349,-0.042349,-0.042349,-0.042349,-0.042349,-0.042349,-0.042349,-0.042349,-0.042349,-0.042349,-0.042349,-0.042349},
{-0.058599,-0.058599,-0.058599,-0.058599,-0.058599,-0.058599,-0.058599,-0.058599,-0.058599,-0.058599,-0.058599,-0.058599,-0.058599,-0.058599,-0.058599,-0.058599},
{-0.004696,-0.004696,-0.004696,-0.004696,-0.004696,-0.004696,-0.004696,-0.004696,-0.004696,-0.004696,-0.004696,-0.004696,-0.004696,-0.004696,-0.004696,-0.004696},
{0.031492,0.031492,0.031492,0.031492,0.031492,0.031492,0.031492,0.031492,0.031492,0.031492,0.031492,0.031492,0.031492,0.031492,0.031492,0.031492},
{0.076297,0.076297,0.076297,0.076297,0.076297,0.076297,0.076297,0.076297,0.076297,0.076297,0.076297,0.076297,0.076297,0.076297,0.076297,0.076297},
{0.051569,0.051569,0.051569,0.051569,0.051569,0.051569,0.051569,0.051569,0.051569,0.051569,0.051569,0.051569,0.051569,0.051569,0.051569,0.051569},
{-0.003734,-0.003734,-0.003734,-0.003734,-0.003734,-0.003734,-0.003734,-0.003734,-0.003734,-0.003734,-0.003734,-0.003734,-0.003734,-0.003734,-0.003734,-0.003734},
{0.061416,0.061416,0.061416,0.061416,0.061416,0.061416,0.061416,0.061416,0.061416,0.061416,0.061416,0.061416,0.061416,0.061416,0.061416,0.061416},
{-0.001708,-0.001708,-0.001708,-0.001708,-0.001708,-0.001708,-0.001708,-0.001708,-0.001708,-0.001708,-0.001708,-0.001708,-0.001708,-0.001708,-0.001708,-0.001708},
{0.107644,0.107644,0.107644,0.107644,0.107644,0.107644,0.107644,0.107644,0.107644,0.107644,0.107644,0.107644,0.107644,0.107644,0.107644,0.107644},
{-0.024216,-0.024216,-0.024216,-0.024216,-0.024216,-0.024216,-0.024216,-0.024216,-0.024216,-0.024216,-0.024216,-0.024216,-0.024216,-0.024216,-0.024216,-0.024216},
{0.033053,0.033053,0.033053,0.033053,0.033053,0.033053,0.033053,0.033053,0.033053,0.033053,0.033053,0.033053,0.033053,0.033053,0.033053,0.033053},
{0.090287,0.090287,0.090287,0.090287,0.090287,0.090287,0.090287,0.090287,0.090287,0.090287,0.090287,0.090287,0.090287,0.090287,0.090287,0.090287},
{-0.006420,-0.006420,-0.006420,-0.006420,-0.006420,-0.006420,-0.006420,-0.006420,-0.006420,-0.006420,-0.006420,-0.006420,-0.006420,-0.006420,-0.006420,-0.006420},
{0.124515,0.124515,0.124515,0.124515,0.124515,0.124515,0.124515,0.124515,0.124515,0.124515,0.124515,0.124515,0.124515,0.124515,0.124515,0.124515},
{-0.056124,-0.056124,-0.056124,-0.056124,-0.056124,-0.056124,-0.056124,-0.056124,-0.056124,-0.056124,-0.056124,-0.056124,-0.056124,-0.056124,-0.056124,-0.056124},
{-0.060956,-0.060956,-0.060956,-0.060956,-0.060956,-0.060956,-0.060956,-0.060956,-0.060956,-0.060956,-0.060956,-0.060956,-0.060956,-0.060956,-0.060956,-0.060956},
{0.018748,0.018748,0.018748,0.018748,0.018748,0.018748,0.018748,0.018748,0.018748,0.018748,0.018748,0.018748,0.018748,0.018748,0.018748,0.018748},
{0.033493,0.033493,0.033493,0.033493,0.033493,0.033493,0.033493,0.033493,0.033493,0.033493,0.033493,0.033493,0.033493,0.033493,0.033493,0.033493},
{0.017038,0.017038,0.017038,0.017038,0.017038,0.017038,0.017038,0.017038,0.017038,0.017038,0.017038,0.017038,0.017038,0.017038,0.017038,0.017038},
{-0.009437,-0.009437,-0.009437,-0.009437,-0.009437,-0.009437,-0.009437,-0.009437,-0.009437,-0.009437,-0.009437,-0.009437,-0.009437,-0.009437,-0.009437,-0.009437},
{-0.029309,-0.029309,-0.029309,-0.029309,-0.029309,-0.029309,-0.029309,-0.029309,-0.029309,-0.029309,-0.029309,-0.029309,-0.029309,-0.029309,-0.029309,-0.029309},
{-0.025978,-0.025978,-0.025978,-0.025978,-0.025978,-0.025978,-0.025978,-0.025978,-0.025978,-0.025978,-0.025978,-0.025978,-0.025978,-0.025978,-0.025978,-0.025978},
{-0.020292,-0.020292,-0.020292,-0.020292,-0.020292,-0.020292,-0.020292,-0.020292,-0.020292,-0.020292,-0.020292,-0.020292,-0.020292,-0.020292,-0.020292,-0.020292},
{0.018601,0.018601,0.018601,0.018601,0.018601,0.018601,0.018601,0.018601,0.018601,0.018601,0.018601,0.018601,0.018601,0.018601,0.018601,0.018601},
{-0.043239,-0.043239,-0.043239,-0.043239,-0.043239,-0.043239,-0.043239,-0.043239,-0.043239,-0.043239,-0.043239,-0.043239,-0.043239,-0.043239,-0.043239,-0.043239},
{-0.038877,-0.038877,-0.038877,-0.038877,-0.038877,-0.038877,-0.038877,-0.038877,-0.038877,-0.038877,-0.038877,-0.038877,-0.038877,-0.038877,-0.038877,-0.038877},
{-0.039537,-0.039537,-0.039537,-0.039537,-0.039537,-0.039537,-0.039537,-0.039537,-0.039537,-0.039537,-0.039537,-0.039537,-0.039537,-0.039537,-0.039537,-0.039537},
{0.020353,0.020353,0.020353,0.020353,0.020353,0.020353,0.020353,0.020353,0.020353,0.020353,0.020353,0.020353,0.020353,0.020353,0.020353,0.020353},
{0.069144,0.069144,0.069144,0.069144,0.069144,0.069144,0.069144,0.069144,0.069144,0.069144,0.069144,0.069144,0.069144,0.069144,0.069144,0.069144},
{0.024671,0.024671,0.024671,0.024671,0.024671,0.024671,0.024671,0.024671,0.024671,0.024671,0.024671,0.024671,0.024671,0.024671,0.024671,0.024671},
{0.002193,0.002193,0.002193,0.002193,0.002193,0.002193,0.002193,0.002193,0.002193,0.002193,0.002193,0.002193,0.002193,0.002193,0.002193,0.002193},
{0.007084,0.007084,0.007084,0.007084,0.007084,0.007084,0.007084,0.007084,0.007084,0.007084,0.007084,0.007084,0.007084,0.007084,0.007084,0.007084},
{0.049660,0.049660,0.049660,0.049660,0.049660,0.049660,0.049660,0.049660,0.049660,0.049660,0.049660,0.049660,0.049660,0.049660,0.049660,0.049660},
{0.022622,0.022622,0.022622,0.022622,0.022622,0.022622,0.022622,0.022622,0.022622,0.022622,0.022622,0.022622,0.022622,0.022622,0.022622,0.022622},
{0.111477,0.111477,0.111477,0.111477,0.111477,0.111477,0.111477,0.111477,0.111477,0.111477,0.111477,0.111477,0.111477,0.111477,0.111477,0.111477},
{-0.071371,-0.071371,-0.071371,-0.071371,-0.071371,-0.071371,-0.071371,-0.071371,-0.071371,-0.071371,-0.071371,-0.071371,-0.071371,-0.071371,-0.071371,-0.071371},
{-0.091033,-0.091033,-0.091033,-0.091033,-0.091033,-0.091033,-0.091033,-0.091033,-0.091033,-0.091033,-0.091033,-0.091033,-0.091033,-0.091033,-0.091033,-0.091033},
{0.022511,0.022511,0.022511,0.022511,0.022511,0.022511,0.022511,0.022511,0.022511,0.022511,0.022511,0.022511,0.022511,0.022511,0.022511,0.022511},
{0.090502,0.090502,0.090502,0.090502,0.090502,0.090502,0.090502,0.090502,0.090502,0.090502,0.090502,0.090502,0.090502,0.090502,0.090502,0.090502},
{-0.002151,-0.002151,-0.002151,-0.002151,-0.002151,-0.002151,-0.002151,-0.002151,-0.002151,-0.002151,-0.002151,-0.002151,-0.002151,-0.002151,-0.002151,-0.002151},
{0.113981,0.113981,0.113981,0.113981,0.113981,0.113981,0.113981,0.113981,0.113981,0.113981,0.113981,0.113981,0.113981,0.113981,0.113981,0.113981},
{0.017382,0.017382,0.017382,0.017382,0.017382,0.017382,0.017382,0.017382,0.017382,0.017382,0.017382,0.017382,0.017382,0.017382,0.017382,0.017382},
{0.058917,0.058917,0.058917,0.058917,0.058917,0.058917,0.058917,0.058917,0.058917,0.058917,0.058917,0.058917,0.058917,0.058917,0.058917,0.058917},
{-0.027332,-0.027332,-0.027332,-0.027332,-0.027332,-0.027332,-0.027332,-0.027332,-0.027332,-0.027332,-0.027332,-0.027332,-0.027332,-0.027332,-0.027332,-0.027332},
{-0.058314,-0.058314,-0.058314,-0.058314,-0.058314,-0.058314,-0.058314,-0.058314,-0.058314,-0.058314,-0.058314,-0.058314,-0.058314,-0.058314,-0.058314,-0.058314},
{0.031790,0.031790,0.031790,0.031790,0.031790,0.031790,0.031790,0.031790,0.031790,0.031790,0.031790,0.031790,0.031790,0.031790,0.031790,0.031790},
{0.081834,0.081834,0.081834,0.081834,0.081834,0.081834,0.081834,0.081834,0.081834,0.081834,0.081834,0.081834,0.081834,0.081834,0.081834,0.081834},
{-0.131407,-0.131407,-0.131407,-0.131407,-0.131407,-0.131407,-0.131407,-0.131407,-0.131407,-0.131407,-0.131407,-0.131407,-0.131407,-0.131407,-0.131407,-0.131407},
{0.032711,0.032711,0.032711,0.032711,0.032711,0.032711,0.032711,0.032711,0.032711,0.032711,0.032711,0.032711,0.032711,0.032711,0.032711,0.032711},
{0.009450,0.009450,0.009450,0.009450,0.009450,0.009450,0.009450,0.009450,0.009450,0.009450,0.009450,0.009450,0.009450,0.009450,0.009450,0.009450},
{-0.079891,-0.079891,-0.079891,-0.079891,-0.079891,-0.079891,-0.079891,-0.079891,-0.079891,-0.079891,-0.079891,-0.079891,-0.079891,-0.079891,-0.079891,-0.079891},
{-0.150780,-0.150780,-0.150780,-0.150780,-0.150780,-0.150780,-0.150780,-0.150780,-0.150780,-0.150780,-0.150780,-0.150780,-0.150780,-0.150780,-0.150780,-0.150780},
{-0.043509,-0.043509,-0.043509,-0.043509,-0.043509,-0.043509,-0.043509,-0.043509,-0.043509,-0.043509,-0.043509,-0.043509,-0.043509,-0.043509,-0.043509,-0.043509},
{0.039613,0.039613,0.039613,0.039613,0.039613,0.039613,0.039613,0.039613,0.039613,0.039613,0.039613,0.039613,0.039613,0.039613,0.039613,0.039613},
{0.001352,0.001352,0.001352,0.001352,0.001352,0.001352,0.001352,0.001352,0.001352,0.001352,0.001352,0.001352,0.001352,0.001352,0.001352,0.001352},
{0.025214,0.025214,0.025214,0.025214,0.025214,0.025214,0.025214,0.025214,0.025214,0.025214,0.025214,0.025214,0.025214,0.025214,0.025214,0.025214},
{0.010616,0.010616,0.010616,0.010616,0.010616,0.010616,0.010616,0.010616,0.010616,0.010616,0.010616,0.010616,0.010616,0.010616,0.010616,0.010616},
{-0.110811,-0.110811,-0.110811,-0.110811,-0.110811,-0.110811,-0.110811,-0.110811,-0.110811,-0.110811,-0.110811,-0.110811,-0.110811,-0.110811,-0.110811,-0.110811},
{-0.054912,-0.054912,-0.054912,-0.054912,-0.054912,-0.054912,-0.054912,-0.054912,-0.054912,-0.054912,-0.054912,-0.054912,-0.054912,-0.054912,-0.054912,-0.054912},
{0.008891,0.008891,0.008891,0.008891,0.008891,0.008891,0.008891,0.008891,0.008891,0.008891,0.008891,0.008891,0.008891,0.008891,0.008891,0.008891},
{0.054903,0.054903,0.054903,0.054903,0.054903,0.054903,0.054903,0.054903,0.054903,0.054903,0.054903,0.054903,0.054903,0.054903,0.054903,0.054903},
{-0.076683,-0.076683,-0.076683,-0.076683,-0.076683,-0.076683,-0.076683,-0.076683,-0.076683,-0.076683,-0.076683,-0.076683,-0.076683,-0.076683,-0.076683,-0.076683},
{0.038820,0.038820,0.038820,0.038820,0.038820,0.038820,0.038820,0.038820,0.038820,0.038820,0.038820,0.038820,0.038820,0.038820,0.038820,0.038820},
{0.057874,0.057874,0.057874,0.057874,0.057874,0.057874,0.057874,0.057874,0.057874,0.057874,0.057874,0.057874,0.057874,0.057874,0.057874,0.057874},
{-0.013189,-0.013189,-0.013189,-0.013189,-0.013189,-0.013189,-0.013189,-0.013189,-0.013189,-0.013189,-0.013189,-0.013189,-0.013189,-0.013189,-0.013189,-0.013189},
{0.003579,0.003579,0.003579,0.003579,0.003579,0.003579,0.003579,0.003579,0.003579,0.003579,0.003579,0.003579,0.003579,0.003579,0.003579,0.003579},
{-0.013075,-0.013075,-0.013075,-0.013075,-0.013075,-0.013075,-0.013075,-0.013075,-0.013075,-0.013075,-0.013075,-0.013075,-0.013075,-0.013075,-0.013075,-0.013075},
{-0.095990,-0.095990,-0.095990,-0.095990,-0.095990,-0.095990,-0.095990,-0.095990,-0.095990,-0.095990,-0.095990,-0.095990,-0.095990,-0.095990,-0.095990,-0.095990},
{-0.078580,-0.078580,-0.078580,-0.078580,-0.078580,-0.078580,-0.078580,-0.078580,-0.078580,-0.078580,-0.078580,-0.078580,-0.078580,-0.078580,-0.078580,-0.078580},
{0.017102,0.017102,0.017102,0.017102,0.017102,0.017102,0.017102,0.017102,0.017102,0.017102,0.017102,0.017102,0.017102,0.017102,0.017102,0.017102},
{0.032502,0.032502,0.032502,0.032502,0.032502,0.032502,0.032502,0.032502,0.032502,0.032502,0.032502,0.032502,0.032502,0.032502,0.032502,0.032502},
{-0.097502,-0.097502,-0.097502,-0.097502,-0.097502,-0.097502,-0.097502,-0.097502,-0.097502,-0.097502,-0.097502,-0.097502,-0.097502,-0.097502,-0.097502,-0.097502},
{-0.024780,-0.024780,-0.024780,-0.024780,-0.024780,-0.024780,-0.024780,-0.024780,-0.024780,-0.024780,-0.024780,-0.024780,-0.024780,-0.024780,-0.024780,-0.024780},
{0.033332,0.033332,0.033332,0.033332,0.033332,0.033332,0.033332,0.033332,0.033332,0.033332,0.033332,0.033332,0.033332,0.033332,0.033332,0.033332},
{0.109934,0.109934,0.109934,0.109934,0.109934,0.109934,0.109934,0.109934,0.109934,0.109934,0.109934,0.109934,0.109934,0.109934,0.109934,0.109934},
{0.066618,0.066618,0.066618,0.066618,0.066618,0.066618,0.066618,0.066618,0.066618,0.066618,0.066618,0.066618,0.066618,0.066618,0.066618,0.066618},
{0.097791,0.097791,0.097791,0.097791,0.097791,0.097791,0.097791,0.097791,0.097791,0.097791,0.097791,0.097791,0.097791,0.097791,0.097791,0.097791},
{0.113716,0.113716,0.113716,0.113716,0.113716,0.113716,0.113716,0.113716,0.113716,0.113716,0.113716,0.113716,0.113716,0.113716,0.113716,0.113716},
{-0.028197,-0.028197,-0.028197,-0.028197,-0.028197,-0.028197,-0.028197,-0.028197,-0.028197,-0.028197,-0.028197,-0.028197,-0.028197,-0.028197,-0.028197,-0.028197},
{0.038174,0.038174,0.038174,0.038174,0.038174,0.038174,0.038174,0.038174,0.038174,0.038174,0.038174,0.038174,0.038174,0.038174,0.038174,0.038174},
{0.024694,0.024694,0.024694,0.024694,0.024694,0.024694,0.024694,0.024694,0.024694,0.024694,0.024694,0.024694,0.024694,0.024694,0.024694,0.024694},
{0.012973,0.012973,0.012973,0.012973,0.012973,0.012973,0.012973,0.012973,0.012973,0.012973,0.012973,0.012973,0.012973,0.012973,0.012973,0.012973},
{0.024788,0.024788,0.024788,0.024788,0.024788,0.024788,0.024788,0.024788,0.024788,0.024788,0.024788,0.024788,0.024788,0.024788,0.024788,0.024788},
{-0.174069,-0.174069,-0.174069,-0.174069,-0.174069,-0.174069,-0.174069,-0.174069,-0.174069,-0.174069,-0.174069,-0.174069,-0.174069,-0.174069,-0.174069,-0.174069},
{-0.002085,-0.002085,-0.002085,-0.002085,-0.002085,-0.002085,-0.002085,-0.002085,-0.002085,-0.002085,-0.002085,-0.002085,-0.002085,-0.002085,-0.002085,-0.002085},
{-0.016364,-0.016364,-0.016364,-0.016364,-0.016364,-0.016364,-0.016364,-0.016364,-0.016364,-0.016364,-0.016364,-0.016364,-0.016364,-0.016364,-0.016364,-0.016364},
{0.032615,0.032615,0.032615,0.032615,0.032615,0.032615,0.032615,0.032615,0.032615,0.032615,0.032615,0.032615,0.032615,0.032615,0.032615,0.032615},
{-0.021868,-0.021868,-0.021868,-0.021868,-0.021868,-0.021868,-0.021868,-0.021868,-0.021868,-0.021868,-0.021868,-0.021868,-0.021868,-0.021868,-0.021868,-0.021868},
{0.073618,0.073618,0.073618,0.073618,0.073618,0.073618,0.073618,0.073618,0.073618,0.073618,0.073618,0.073618,0.073618,0.073618,0.073618,0.073618},
{0.085659,0.085659,0.085659,0.085659,0.085659,0.085659,0.085659,0.085659,0.085659,0.085659,0.085659,0.085659,0.085659,0.085659,0.085659,0.085659},
{0.022235,0.022235,0.022235,0.022235,0.022235,0.022235,0.022235,0.022235,0.022235,0.022235,0.022235,0.022235,0.022235,0.022235,0.022235,0.022235},
{-0.004502,-0.004502,-0.004502,-0.004502,-0.004502,-0.004502,-0.004502,-0.004502,-0.004502,-0.004502,-0.004502,-0.004502,-0.004502,-0.004502,-0.004502,-0.004502},
{-0.018734,-0.018734,-0.018734,-0.018734,-0.018734,-0.018734,-0.018734,-0.018734,-0.018734,-0.018734,-0.018734,-0.018734,-0.018734,-0.018734,-0.018734,-0.018734},
{-0.035485,-0.035485,-0.035485,-0.035485,-0.035485,-0.035485,-0.035485,-0.035485,-0.035485,-0.035485,-0.035485,-0.035485,-0.035485,-0.035485,-0.035485,-0.035485},
{-0.056406,-0.056406,-0.056406,-0.056406,-0.056406,-0.056406,-0.056406,-0.056406,-0.056406,-0.056406,-0.056406,-0.056406,-0.056406,-0.056406,-0.056406,-0.056406},
{0.005808,0.005808,0.005808,0.005808,0.005808,0.005808,0.005808,0.005808,0.005808,0.005808,0.005808,0.005808,0.005808,0.005808,0.005808,0.005808},
{-0.028325,-0.028325,-0.028325,-0.028325,-0.028325,-0.028325,-0.028325,-0.028325,-0.028325,-0.028325,-0.028325,-0.028325,-0.028325,-0.028325,-0.028325,-0.028325},
{0.006762,0.006762,0.006762,0.006762,0.006762,0.006762,0.006762,0.006762,0.006762,0.006762,0.006762,0.006762,0.006762,0.006762,0.006762,0.006762},
{0.038440,0.038440,0.038440,0.038440,0.038440,0.038440,0.038440,0.038440,0.038440,0.038440,0.038440,0.038440,0.038440,0.038440,0.038440,0.038440},
{0.032616,0.032616,0.032616,0.032616,0.032616,0.032616,0.032616,0.032616,0.032616,0.032616,0.032616,0.032616,0.032616,0.032616,0.032616,0.032616},
{-0.048871,-0.048871,-0.048871,-0.048871,-0.048871,-0.048871,-0.048871,-0.048871,-0.048871,-0.048871,-0.048871,-0.048871,-0.048871,-0.048871,-0.048871,-0.048871},
{-0.024229,-0.024229,-0.024229,-0.024229,-0.024229,-0.024229,-0.024229,-0.024229,-0.024229,-0.024229,-0.024229,-0.024229,-0.024229,-0.024229,-0.024229,-0.024229},
{0.027535,0.027535,0.027535,0.027535,0.027535,0.027535,0.027535,0.027535,0.027535,0.027535,0.027535,0.027535,0.027535,0.027535,0.027535,0.027535},
{0.010531,0.010531,0.010531,0.010531,0.010531,0.010531,0.010531,0.010531,0.010531,0.010531,0.010531,0.010531,0.010531,0.010531,0.010531,0.010531},
{0.018843,0.018843,0.018843,0.018843,0.018843,0.018843,0.018843,0.018843,0.018843,0.018843,0.018843,0.018843,0.018843,0.018843,0.018843,0.018843},
{0.004190,0.004190,0.004190,0.004190,0.004190,0.004190,0.004190,0.004190,0.004190,0.004190,0.004190,0.004190,0.004190,0.004190,0.004190,0.004190},
{-0.026639,-0.026639,-0.026639,-0.026639,-0.026639,-0.026639,-0.026639,-0.026639,-0.026639,-0.026639,-0.026639,-0.026639,-0.026639,-0.026639,-0.026639,-0.026639},
{0.047588,0.047588,0.047588,0.047588,0.047588,0.047588,0.047588,0.047588,0.047588,0.047588,0.047588,0.047588,0.047588,0.047588,0.047588,0.047588},
{0.090223,0.090223,0.090223,0.090223,0.090223,0.090223,0.090223,0.090223,0.090223,0.090223,0.090223,0.090223,0.090223,0.090223,0.090223,0.090223},
{0.155492,0.155492,0.155492,0.155492,0.155492,0.155492,0.155492,0.155492,0.155492,0.155492,0.155492,0.155492,0.155492,0.155492,0.155492,0.155492},
{-0.023398,-0.023398,-0.023398,-0.023398,-0.023398,-0.023398,-0.023398,-0.023398,-0.023398,-0.023398,-0.023398,-0.023398,-0.023398,-0.023398,-0.023398,-0.023398},
{-0.104281,-0.104281,-0.104281,-0.104281,-0.104281,-0.104281,-0.104281,-0.104281,-0.104281,-0.104281,-0.104281,-0.104281,-0.104281,-0.104281,-0.104281,-0.104281},
{-0.012123,-0.012123,-0.012123,-0.012123,-0.012123,-0.012123,-0.012123,-0.012123,-0.012123,-0.012123,-0.012123,-0.012123,-0.012123,-0.012123,-0.012123,-0.012123},
{0.040179,0.040179,0.040179,0.040179,0.040179,0.040179,0.040179,0.040179,0.040179,0.040179,0.040179,0.040179,0.040179,0.040179,0.040179,0.040179},
{-0.033143,-0.033143,-0.033143,-0.033143,-0.033143,-0.033143,-0.033143,-0.033143,-0.033143,-0.033143,-0.033143,-0.033143,-0.033143,-0.033143,-0.033143,-0.033143},
{0.084347,0.084347,0.084347,0.084347,0.084347,0.084347,0.084347,0.084347,0.084347,0.084347,0.084347,0.084347,0.084347,0.084347,0.084347,0.084347},
{0.033967,0.033967,0.033967,0.033967,0.033967,0.033967,0.033967,0.033967,0.033967,0.033967,0.033967,0.033967,0.033967,0.033967,0.033967,0.033967},
{-0.058801,-0.058801,-0.058801,-0.058801,-0.058801,-0.058801,-0.058801,-0.058801,-0.058801,-0.058801,-0.058801,-0.058801,-0.058801,-0.058801,-0.058801,-0.058801},
{-0.064075,-0.064075,-0.064075,-0.064075,-0.064075,-0.064075,-0.064075,-0.064075,-0.064075,-0.064075,-0.064075,-0.064075,-0.064075,-0.064075,-0.064075,-0.064075},
{0.025321,0.025321,0.025321,0.025321,0.025321,0.025321,0.025321,0.025321,0.025321,0.025321,0.025321,0.025321,0.025321,0.025321,0.025321,0.025321},
{0.057148,0.057148,0.057148,0.057148,0.057148,0.057148,0.057148,0.057148,0.057148,0.057148,0.057148,0.057148,0.057148,0.057148,0.057148,0.057148},
{0.003935,0.003935,0.003935,0.003935,0.003935,0.003935,0.003935,0.003935,0.003935,0.003935,0.003935,0.003935,0.003935,0.003935,0.003935,0.003935},
{0.032303,0.032303,0.032303,0.032303,0.032303,0.032303,0.032303,0.032303,0.032303,0.032303,0.032303,0.032303,0.032303,0.032303,0.032303,0.032303},
{0.076436,0.076436,0.076436,0.076436,0.076436,0.076436,0.076436,0.076436,0.076436,0.076436,0.076436,0.076436,0.076436,0.076436,0.076436,0.076436},
{-0.014591,-0.014591,-0.014591,-0.014591,-0.014591,-0.014591,-0.014591,-0.014591,-0.014591,-0.014591,-0.014591,-0.014591,-0.014591,-0.014591,-0.014591,-0.014591},
{-0.044933,-0.044933,-0.044933,-0.044933,-0.044933,-0.044933,-0.044933,-0.044933,-0.044933,-0.044933,-0.044933,-0.044933,-0.044933,-0.044933,-0.044933,-0.044933},
{0.021676,0.021676,0.021676,0.021676,0.021676,0.021676,0.021676,0.021676,0.021676,0.021676,0.021676,0.021676,0.021676,0.021676,0.021676,0.021676},
{-0.046084,-0.046084,-0.046084,-0.046084,-0.046084,-0.046084,-0.046084,-0.046084,-0.046084,-0.046084,-0.046084,-0.046084,-0.046084,-0.046084,-0.046084,-0.046084},
{0.032105,0.032105,0.032105,0.032105,0.032105,0.032105,0.032105,0.032105,0.032105,0.032105,0.032105,0.032105,0.032105,0.032105,0.032105,0.032105},
{-0.077675,-0.077675,-0.077675,-0.077675,-0.077675,-0.077675,-0.077675,-0.077675,-0.077675,-0.077675,-0.077675,-0.077675,-0.077675,-0.077675,-0.077675,-0.077675},
{-0.194776,-0.194776,-0.194776,-0.194776,-0.194776,-0.194776,-0.194776,-0.194776,-0.194776,-0.194776,-0.194776,-0.194776,-0.194776,-0.194776,-0.194776,-0.194776},
{0.084989,0.084989,0.084989,0.084989,0.084989,0.084989,0.084989,0.084989,0.084989,0.084989,0.084989,0.084989,0.084989,0.084989,0.084989,0.084989},
{0.024298,0.024298,0.024298,0.024298,0.024298,0.024298,0.024298,0.024298,0.024298,0.024298,0.024298,0.024298,0.024298,0.024298,0.024298,0.024298},
{-0.018452,-0.018452,-0.018452,-0.018452,-0.018452,-0.018452,-0.018452,-0.018452,-0.018452,-0.018452,-0.018452,-0.018452,-0.018452,-0.018452,-0.018452,-0.018452},
{0.050672,0.050672,0.050672,0.050672,0.050672,0.050672,0.050672,0.050672,0.050672,0.050672,0.050672,0.050672,0.050672,0.050672,0.050672,0.050672},
{0.085839,0.085839,0.085839,0.085839,0.085839,0.085839,0.085839,0.085839,0.085839,0.085839,0.085839,0.085839,0.085839,0.085839,0.085839,0.085839},
{-0.088557,-0.088557,-0.088557,-0.088557,-0.088557,-0.088557,-0.088557,-0.088557,-0.088557,-0.088557,-0.088557,-0.088557,-0.088557,-0.088557,-0.088557,-0.088557},
{0.034801,0.034801,0.034801,0.034801,0.034801,0.034801,0.034801,0.034801,0.034801,0.034801,0.034801,0.034801,0.034801,0.034801,0.034801,0.034801},
{0.107359,0.107359,0.107359,0.107359,0.107359,0.107359,0.107359,0.107359,0.107359,0.107359,0.107359,0.107359,0.107359,0.107359,0.107359,0.107359},
{0.061492,0.061492,0.061492,0.061492,0.061492,0.061492,0.061492,0.061492,0.061492,0.061492,0.061492,0.061492,0.061492,0.061492,0.061492,0.061492},
{0.074943,0.074943,0.074943,0.074943,0.074943,0.074943,0.074943,0.074943,0.074943,0.074943,0.074943,0.074943,0.074943,0.074943,0.074943,0.074943},
{0.043785,0.043785,0.043785,0.043785,0.043785,0.043785,0.043785,0.043785,0.043785,0.043785,0.043785,0.043785,0.043785,0.043785,0.043785,0.043785},
{-0.058970,-0.058970,-0.058970,-0.058970,-0.058970,-0.058970,-0.058970,-0.058970,-0.058970,-0.058970,-0.058970,-0.058970,-0.058970,-0.058970,-0.058970,-0.058970},
{-0.120746,-0.120746,-0.120746,-0.120746,-0.120746,-0.120746,-0.120746,-0.120746,-0.120746,-0.120746,-0.120746,-0.120746,-0.120746,-0.120746,-0.120746,-0.120746},
{0.044456,0.044456,0.044456,0.044456,0.044456,0.044456,0.044456,0.044456,0.044456,0.044456,0.044456,0.044456,0.044456,0.044456,0.044456,0.044456},
{0.033194,0.033194,0.033194,0.033194,0.033194,0.033194,0.033194,0.033194,0.033194,0.033194,0.033194,0.033194,0.033194,0.033194,0.033194,0.033194},
{-0.095831,-0.095831,-0.095831,-0.095831,-0.095831,-0.095831,-0.095831,-0.095831,-0.095831,-0.095831,-0.095831,-0.095831,-0.095831,-0.095831,-0.095831,-0.095831},
{-0.095567,-0.095567,-0.095567,-0.095567,-0.095567,-0.095567,-0.095567,-0.095567,-0.095567,-0.095567,-0.095567,-0.095567,-0.095567,-0.095567,-0.095567,-0.095567},
{0.079270,0.079270,0.079270,0.079270,0.079270,0.079270,0.079270,0.079270,0.079270,0.079270,0.079270,0.079270,0.079270,0.079270,0.079270,0.079270},
{-0.110556,-0.110556,-0.110556,-0.110556,-0.110556,-0.110556,-0.110556,-0.110556,-0.110556,-0.110556,-0.110556,-0.110556,-0.110556,-0.110556,-0.110556,-0.110556},
{-0.001037,-0.001037,-0.001037,-0.001037,-0.001037,-0.001037,-0.001037,-0.001037,-0.001037,-0.001037,-0.001037,-0.001037,-0.001037,-0.001037,-0.001037,-0.001037},
{0.047213,0.047213,0.047213,0.047213,0.047213,0.047213,0.047213,0.047213,0.047213,0.047213,0.047213,0.047213,0.047213,0.047213,0.047213,0.047213},
{-0.040653,-0.040653,-0.040653,-0.040653,-0.040653,-0.040653,-0.040653,-0.040653,-0.040653,-0.040653,-0.040653,-0.040653,-0.040653,-0.040653,-0.040653,-0.040653},
{0.063021,0.063021,0.063021,0.063021,0.063021,0.063021,0.063021,0.063021,0.063021,0.063021,0.063021,0.063021,0.063021,0.063021,0.063021,0.063021},
{0.012315,0.012315,0.012315,0.012315,0.012315,0.012315,0.012315,0.012315,0.012315,0.012315,0.012315,0.012315,0.012315,0.012315,0.012315,0.012315},
{-0.025689,-0.025689,-0.025689,-0.025689,-0.025689,-0.025689,-0.025689,-0.025689,-0.025689,-0.025689,-0.025689,-0.025689,-0.025689,-0.025689,-0.025689,-0.025689},
{0.070190,0.070190,0.070190,0.070190,0.070190,0.070190,0.070190,0.070190,0.070190,0.070190,0.070190,0.070190,0.070190,0.070190,0.070190,0.070190},
{0.036294,0.036294,0.036294,0.036294,0.036294,0.036294,0.036294,0.036294,0.036294,0.036294,0.036294,0.036294,0.036294,0.036294,0.036294,0.036294},
{-0.050150,-0.050150,-0.050150,-0.050150,-0.050150,-0.050150,-0.050150,-0.050150,-0.050150,-0.050150,-0.050150,-0.050150,-0.050150,-0.050150,-0.050150,-0.050150},
{0.100559,0.100559,0.100559,0.100559,0.100559,0.100559,0.100559,0.100559,0.100559,0.100559,0.100559,0.100559,0.100559,0.100559,0.100559,0.100559},
{0.003881,0.003881,0.003881,0.003881,0.003881,0.003881,0.003881,0.003881,0.003881,0.003881,0.003881,0.003881,0.003881,0.003881,0.003881,0.003881},
{0.000056,0.000056,0.000056,0.000056,0.000056,0.000056,0.000056,0.000056,0.000056,0.000056,0.000056,0.000056,0.000056,0.000056,0.000056,0.000056},
{0.095856,0.095856,0.095856,0.095856,0.095856,0.095856,0.095856,0.095856,0.095856,0.095856,0.095856,0.095856,0.095856,0.095856,0.095856,0.095856},
{0.040508,0.040508,0.040508,0.040508,0.040508,0.040508,0.040508,0.040508,0.040508,0.040508,0.040508,0.040508,0.040508,0.040508,0.040508,0.040508},
{-0.116974,-0.116974,-0.116974,-0.116974,-0.116974,-0.116974,-0.116974,-0.116974,-0.116974,-0.116974,-0.116974,-0.116974,-0.116974,-0.116974,-0.116974,-0.116974},
{-0.019216,-0.019216,-0.019216,-0.019216,-0.019216,-0.019216,-0.019216,-0.019216,-0.019216,-0.019216,-0.019216,-0.019216,-0.019216,-0.019216,-0.019216,-0.019216},
{-0.022816,-0.022816,-0.022816,-0.022816,-0.022816,-0.022816,-0.022816,-0.022816,-0.022816,-0.022816,-0.022816,-0.022816,-0.022816,-0.022816,-0.022816,-0.022816},
{0.111496,0.111496,0.111496,0.111496,0.111496,0.111496,0.111496,0.111496,0.111496,0.111496,0.111496,0.111496,0.111496,0.111496,0.111496,0.111496},
{-0.056289,-0.056289,-0.056289,-0.056289,-0.056289,-0.056289,-0.056289,-0.056289,-0.056289,-0.056289,-0.056289,-0.056289,-0.056289,-0.056289,-0.056289,-0.056289},
{-0.028661,-0.028661,-0.028661,-0.028661,-0.028661,-0.028661,-0.028661,-0.028661,-0.028661,-0.028661,-0.028661,-0.028661,-0.028661,-0.028661,-0.028661,-0.028661},
{-0.063459,-0.063459,-0.063459,-0.063459,-0.063459,-0.063459,-0.063459,-0.063459,-0.063459,-0.063459,-0.063459,-0.063459,-0.063459,-0.063459,-0.063459,-0.063459},
{-0.084418,-0.084418,-0.084418,-0.084418,-0.084418,-0.084418,-0.084418,-0.084418,-0.084418,-0.084418,-0.084418,-0.084418,-0.084418,-0.084418,-0.084418,-0.084418},
{-0.015616,-0.015616,-0.015616,-0.015616,-0.015616,-0.015616,-0.015616,-0.015616,-0.015616,-0.015616,-0.015616,-0.015616,-0.015616,-0.015616,-0.015616,-0.015616},
{0.096876,0.096876,0.096876,0.096876,0.096876,0.096876,0.096876,0.096876,0.096876,0.096876,0.096876,0.096876,0.096876,0.096876,0.096876,0.096876},
{-0.043500,-0.043500,-0.043500,-0.043500,-0.043500,-0.043500,-0.043500,-0.043500,-0.043500,-0.043500,-0.043500,-0.043500,-0.043500,-0.043500,-0.043500,-0.043500},
{0.008230,0.008230,0.008230,0.008230,0.008230,0.008230,0.008230,0.008230,0.008230,0.008230,0.008230,0.008230,0.008230,0.008230,0.008230,0.008230},
{0.082688,0.082688,0.082688,0.082688,0.082688,0.082688,0.082688,0.082688,0.082688,0.082688,0.082688,0.082688,0.082688,0.082688,0.082688,0.082688},
{0.101079,0.101079,0.101079,0.101079,0.101079,0.101079,0.101079,0.101079,0.101079,0.101079,0.101079,0.101079,0.101079,0.101079,0.101079,0.101079},
{0.007611,0.007611,0.007611,0.007611,0.007611,0.007611,0.007611,0.007611,0.007611,0.007611,0.007611,0.007611,0.007611,0.007611,0.007611,0.007611},
{-0.010943,-0.010943,-0.010943,-0.010943,-0.010943,-0.010943,-0.010943,-0.010943,-0.010943,-0.010943,-0.010943,-0.010943,-0.010943,-0.010943,-0.010943,-0.010943},
{0.019866,0.019866,0.019866,0.019866,0.019866,0.019866,0.019866,0.019866,0.019866,0.019866,0.019866,0.019866,0.019866,0.019866,0.019866,0.019866},
{-0.041853,-0.041853,-0.041853,-0.041853,-0.041853,-0.041853,-0.041853,-0.041853,-0.041853,-0.041853,-0.041853,-0.041853,-0.041853,-0.041853,-0.041853,-0.041853},
{-0.027256,-0.027256,-0.027256,-0.027256,-0.027256,-0.027256,-0.027256,-0.027256,-0.027256,-0.027256,-0.027256,-0.027256,-0.027256,-0.027256,-0.027256,-0.027256},
{-0.050839,-0.050839,-0.050839,-0.050839,-0.050839,-0.050839,-0.050839,-0.050839,-0.050839,-0.050839,-0.050839,-0.050839,-0.050839,-0.050839,-0.050839,-0.050839},
{0.026687,0.026687,0.026687,0.026687,0.026687,0.026687,0.026687,0.026687,0.026687,0.026687,0.026687,0.026687,0.026687,0.026687,0.026687,0.026687},
{0.021403,0.021403,0.021403,0.021403,0.021403,0.021403,0.021403,0.021403,0.021403,0.021403,0.021403,0.021403,0.021403,0.021403,0.021403,0.021403},
{-0.083469,-0.083469,-0.083469,-0.083469,-0.083469,-0.083469,-0.083469,-0.083469,-0.083469,-0.083469,-0.083469,-0.083469,-0.083469,-0.083469,-0.083469,-0.083469},
{0.255678,0.255678,0.255678,0.255678,0.255678,0.255678,0.255678,0.255678,0.255678,0.255678,0.255678,0.255678,0.255678,0.255678,0.255678,0.255678},
{0.174440,0.174440,0.174440,0.174440,0.174440,0.174440,0.174440,0.174440,0.174440,0.174440,0.174440,0.174440,0.174440,0.174440,0.174440,0.174440},
{0.018711,0.018711,0.018711,0.018711,0.018711,0.018711,0.018711,0.018711,0.018711,0.018711,0.018711,0.018711,0.018711,0.018711,0.018711,0.018711},
{0.051707,0.051707,0.051707,0.051707,0.051707,0.051707,0.051707,0.051707,0.051707,0.051707,0.051707,0.051707,0.051707,0.051707,0.051707,0.051707},
{-0.123074,-0.123074,-0.123074,-0.123074,-0.123074,-0.123074,-0.123074,-0.123074,-0.123074,-0.123074,-0.123074,-0.123074,-0.123074,-0.123074,-0.123074,-0.123074},
{-0.009899,-0.009899,-0.009899,-0.009899,-0.009899,-0.009899,-0.009899,-0.009899,-0.009899,-0.009899,-0.009899,-0.009899,-0.009899,-0.009899,-0.009899,-0.009899},
{-0.067905,-0.067905,-0.067905,-0.067905,-0.067905,-0.067905,-0.067905,-0.067905,-0.067905,-0.067905,-0.067905,-0.067905,-0.067905,-0.067905,-0.067905,-0.067905},
{0.029856,0.029856,0.029856,0.029856,0.029856,0.029856,0.029856,0.029856,0.029856,0.029856,0.029856,0.029856,0.029856,0.029856,0.029856,0.029856},
{-0.059478,-0.059478,-0.059478,-0.059478,-0.059478,-0.059478,-0.059478,-0.059478,-0.059478,-0.059478,-0.059478,-0.059478,-0.059478,-0.059478,-0.059478,-0.059478},
{0.049137,0.049137,0.049137,0.049137,0.049137,0.049137,0.049137,0.049137,0.049137,0.049137,0.049137,0.049137,0.049137,0.049137,0.049137,0.049137},
{0.017162,0.017162,0.017162,0.017162,0.017162,0.017162,0.017162,0.017162,0.017162,0.017162,0.017162,0.017162,0.017162,0.017162,0.017162,0.017162},
{0.066472,0.066472,0.066472,0.066472,0.066472,0.066472,0.066472,0.066472,0.066472,0.066472,0.066472,0.066472,0.066472,0.066472,0.066472,0.066472},
{0.058140,0.058140,0.058140,0.058140,0.058140,0.058140,0.058140,0.058140,0.058140,0.058140,0.058140,0.058140,0.058140,0.058140,0.058140,0.058140},
{0.061841,0.061841,0.061841,0.061841,0.061841,0.061841,0.061841,0.061841,0.061841,0.061841,0.061841,0.061841,0.061841,0.061841,0.061841,0.061841},
{-0.021258,-0.021258,-0.021258,-0.021258,-0.021258,-0.021258,-0.021258,-0.021258,-0.021258,-0.021258,-0.021258,-0.021258,-0.021258,-0.021258,-0.021258,-0.021258},
{-0.036146,-0.036146,-0.036146,-0.036146,-0.036146,-0.036146,-0.036146,-0.036146,-0.036146,-0.036146,-0.036146,-0.036146,-0.036146,-0.036146,-0.036146,-0.036146},
{0.039361,0.039361,0.039361,0.039361,0.039361,0.039361,0.039361,0.039361,0.039361,0.039361,0.039361,0.039361,0.039361,0.039361,0.039361,0.039361},
{-0.003859,-0.003859,-0.003859,-0.003859,-0.003859,-0.003859,-0.003859,-0.003859,-0.003859,-0.003859,-0.003859,-0.003859,-0.003859,-0.003859,-0.003859,-0.003859},
{-0.034972,-0.034972,-0.034972,-0.034972,-0.034972,-0.034972,-0.034972,-0.034972,-0.034972,-0.034972,-0.034972,-0.034972,-0.034972,-0.034972,-0.034972,-0.034972},
{0.027392,0.027392,0.027392,0.027392,0.027392,0.027392,0.027392,0.027392,0.027392,0.027392,0.027392,0.027392,0.027392,0.027392,0.027392,0.027392},
{-0.013017,-0.013017,-0.013017,-0.013017,-0.013017,-0.013017,-0.013017,-0.013017,-0.013017,-0.013017,-0.013017,-0.013017,-0.013017,-0.013017,-0.013017,-0.013017},
{-0.052868,-0.052868,-0.052868,-0.052868,-0.052868,-0.052868,-0.052868,-0.052868,-0.052868,-0.052868,-0.052868,-0.052868,-0.052868,-0.052868,-0.052868,-0.052868},
{-0.040612,-0.040612,-0.040612,-0.040612,-0.040612,-0.040612,-0.040612,-0.040612,-0.040612,-0.040612,-0.040612,-0.040612,-0.040612,-0.040612,-0.040612,-0.040612},
{-0.026879,-0.026879,-0.026879,-0.026879,-0.026879,-0.026879,-0.026879,-0.026879,-0.026879,-0.026879,-0.026879,-0.026879,-0.026879,-0.026879,-0.026879,-0.026879},
{-0.100024,-0.100024,-0.100024,-0.100024,-0.100024,-0.100024,-0.100024,-0.100024,-0.100024,-0.100024,-0.100024,-0.100024,-0.100024,-0.100024,-0.100024,-0.100024},
{-0.026497,-0.026497,-0.026497,-0.026497,-0.026497,-0.026497,-0.026497,-0.026497,-0.026497,-0.026497,-0.026497,-0.026497,-0.026497,-0.026497,-0.026497,-0.026497},
{0.022411,0.022411,0.022411,0.022411,0.022411,0.022411,0.022411,0.022411,0.022411,0.022411,0.022411,0.022411,0.022411,0.022411,0.022411,0.022411},
{-0.054164,-0.054164,-0.054164,-0.054164,-0.054164,-0.054164,-0.054164,-0.054164,-0.054164,-0.054164,-0.054164,-0.054164,-0.054164,-0.054164,-0.054164,-0.054164},
{-0.059707,-0.059707,-0.059707,-0.059707,-0.059707,-0.059707,-0.059707,-0.059707,-0.059707,-0.059707,-0.059707,-0.059707,-0.059707,-0.059707,-0.059707,-0.059707},
{0.078041,0.078041,0.078041,0.078041,0.078041,0.078041,0.078041,0.078041,0.078041,0.078041,0.078041,0.078041,0.078041,0.078041,0.078041,0.078041},
{-0.054412,-0.054412,-0.054412,-0.054412,-0.054412,-0.054412,-0.054412,-0.054412,-0.054412,-0.054412,-0.054412,-0.054412,-0.054412,-0.054412,-0.054412,-0.054412},
{-0.019456,-0.019456,-0.019456,-0.019456,-0.019456,-0.019456,-0.019456,-0.019456,-0.019456,-0.019456,-0.019456,-0.019456,-0.019456,-0.019456,-0.019456,-0.019456},
{-0.021743,-0.021743,-0.021743,-0.021743,-0.021743,-0.021743,-0.021743,-0.021743,-0.021743,-0.021743,-0.021743,-0.021743,-0.021743,-0.021743,-0.021743,-0.021743},
{-0.014836,-0.014836,-0.014836,-0.014836,-0.014836,-0.014836,-0.014836,-0.014836,-0.014836,-0.014836,-0.014836,-0.014836,-0.014836,-0.014836,-0.014836,-0.014836},
{0.007895,0.007895,0.007895,0.007895,0.007895,0.007895,0.007895,0.007895,0.007895,0.007895,0.007895,0.007895,0.007895,0.007895,0.007895,0.007895},
{0.023301,0.023301,0.023301,0.023301,0.023301,0.023301,0.023301,0.023301,0.023301,0.023301,0.023301,0.023301,0.023301,0.023301,0.023301,0.023301},
{-0.043129,-0.043129,-0.043129,-0.043129,-0.043129,-0.043129,-0.043129,-0.043129,-0.043129,-0.043129,-0.043129,-0.043129,-0.043129,-0.043129,-0.043129,-0.043129},
{0.039814,0.039814,0.039814,0.039814,0.039814,0.039814,0.039814,0.039814,0.039814,0.039814,0.039814,0.039814,0.039814,0.039814,0.039814,0.039814},
{0.001062,0.001062,0.001062,0.001062,0.001062,0.001062,0.001062,0.001062,0.001062,0.001062,0.001062,0.001062,0.001062,0.001062,0.001062,0.001062},
{0.011457,0.011457,0.011457,0.011457,0.011457,0.011457,0.011457,0.011457,0.011457,0.011457,0.011457,0.011457,0.011457,0.011457,0.011457,0.011457},
{-0.041836,-0.041836,-0.041836,-0.041836,-0.041836,-0.041836,-0.041836,-0.041836,-0.041836,-0.041836,-0.041836,-0.041836,-0.041836,-0.041836,-0.041836,-0.041836},
{0.082205,0.082205,0.082205,0.082205,0.082205,0.082205,0.082205,0.082205,0.082205,0.082205,0.082205,0.082205,0.082205,0.082205,0.082205,0.082205},
{0.035558,0.035558,0.035558,0.035558,0.035558,0.035558,0.035558,0.035558,0.035558,0.035558,0.035558,0.035558,0.035558,0.035558,0.035558,0.035558},
{0.091394,0.091394,0.091394,0.091394,0.091394,0.091394,0.091394,0.091394,0.091394,0.091394,0.091394,0.091394,0.091394,0.091394,0.091394,0.091394},
{-0.112128,-0.112128,-0.112128,-0.112128,-0.112128,-0.112128,-0.112128,-0.112128,-0.112128,-0.112128,-0.112128,-0.112128,-0.112128,-0.112128,-0.112128,-0.112128},
{-0.019990,-0.019990,-0.019990,-0.019990,-0.019990,-0.019990,-0.019990,-0.019990,-0.019990,-0.019990,-0.019990,-0.019990,-0.019990,-0.019990,-0.019990,-0.019990},
{0.003825,0.003825,0.003825,0.003825,0.003825,0.003825,0.003825,0.003825,0.003825,0.003825,0.003825,0.003825,0.003825,0.003825,0.003825,0.003825},
{0.134529,0.134529,0.134529,0.134529,0.134529,0.134529,0.134529,0.134529,0.134529,0.134529,0.134529,0.134529,0.134529,0.134529,0.134529,0.134529},
{-0.123948,-0.123948,-0.123948,-0.123948,-0.123948,-0.123948,-0.123948,-0.123948,-0.123948,-0.123948,-0.123948,-0.123948,-0.123948,-0.123948,-0.123948,-0.123948},
{0.084343,0.084343,0.084343,0.084343,0.084343,0.084343,0.084343,0.084343,0.084343,0.084343,0.084343,0.084343,0.084343,0.084343,0.084343,0.084343},
{-0.038528,-0.038528,-0.038528,-0.038528,-0.038528,-0.038528,-0.038528,-0.038528,-0.038528,-0.038528,-0.038528,-0.038528,-0.038528,-0.038528,-0.038528,-0.038528},
{0.072175,0.072175,0.072175,0.072175,0.072175,0.072175,0.072175,0.072175,0.072175,0.072175,0.072175,0.072175,0.072175,0.072175,0.072175,0.072175},
{0.064844,0.064844,0.064844,0.064844,0.064844,0.064844,0.064844,0.064844,0.064844,0.064844,0.064844,0.064844,0.064844,0.064844,0.064844,0.064844},
{-0.028872,-0.028872,-0.028872,-0.028872,-0.028872,-0.028872,-0.028872,-0.028872,-0.028872,-0.028872,-0.028872,-0.028872,-0.028872,-0.028872,-0.028872,-0.028872},
{-0.030005,-0.030005,-0.030005,-0.030005,-0.030005,-0.030005,-0.030005,-0.030005,-0.030005,-0.030005,-0.030005,-0.030005,-0.030005,-0.030005,-0.030005,-0.030005},
{0.047318,0.047318,0.047318,0.047318,0.047318,0.047318,0.047318,0.047318,0.047318,0.047318,0.047318,0.047318,0.047318,0.047318,0.047318,0.047318},
{-0.058678,-0.058678,-0.058678,-0.058678,-0.058678,-0.058678,-0.058678,-0.058678,-0.058678,-0.058678,-0.058678,-0.058678,-0.058678,-0.058678,-0.058678,-0.058678},
{0.112872,0.112872,0.112872,0.112872,0.112872,0.112872,0.112872,0.112872,0.112872,0.112872,0.112872,0.112872,0.112872,0.112872,0.112872,0.112872},
{-0.160101,-0.160101,-0.160101,-0.160101,-0.160101,-0.160101,-0.160101,-0.160101,-0.160101,-0.160101,-0.160101,-0.160101,-0.160101,-0.160101,-0.160101,-0.160101},
{-0.064417,-0.064417,-0.064417,-0.064417,-0.064417,-0.064417,-0.064417,-0.064417,-0.064417,-0.064417,-0.064417,-0.064417,-0.064417,-0.064417,-0.064417,-0.064417},
{0.037797,0.037797,0.037797,0.037797,0.037797,0.037797,0.037797,0.037797,0.037797,0.037797,0.037797,0.037797,0.037797,0.037797,0.037797,0.037797},
{0.126583,0.126583,0.126583,0.126583,0.126583,0.126583,0.126583,0.126583,0.126583,0.126583,0.126583,0.126583,0.126583,0.126583,0.126583,0.126583},
{0.042316,0.042316,0.042316,0.042316,0.042316,0.042316,0.042316,0.042316,0.042316,0.042316,0.042316,0.042316,0.042316,0.042316,0.042316,0.042316},
{0.109709,0.109709,0.109709,0.109709,0.109709,0.109709,0.109709,0.109709,0.109709,0.109709,0.109709,0.109709,0.109709,0.109709,0.109709,0.109709},
{0.027178,0.027178,0.027178,0.027178,0.027178,0.027178,0.027178,0.027178,0.027178,0.027178,0.027178,0.027178,0.027178,0.027178,0.027178,0.027178},
{-0.103816,-0.103816,-0.103816,-0.103816,-0.103816,-0.103816,-0.103816,-0.103816,-0.103816,-0.103816,-0.103816,-0.103816,-0.103816,-0.103816,-0.103816,-0.103816},
{0.010908,0.010908,0.010908,0.010908,0.010908,0.010908,0.010908,0.010908,0.010908,0.010908,0.010908,0.010908,0.010908,0.010908,0.010908,0.010908},
{0.049131,0.049131,0.049131,0.049131,0.049131,0.049131,0.049131,0.049131,0.049131,0.049131,0.049131,0.049131,0.049131,0.049131,0.049131,0.049131},
{-0.054689,-0.054689,-0.054689,-0.054689,-0.054689,-0.054689,-0.054689,-0.054689,-0.054689,-0.054689,-0.054689,-0.054689,-0.054689,-0.054689,-0.054689,-0.054689},
{-0.081657,-0.081657,-0.081657,-0.081657,-0.081657,-0.081657,-0.081657,-0.081657,-0.081657,-0.081657,-0.081657,-0.081657,-0.081657,-0.081657,-0.081657,-0.081657},
{0.070495,0.070495,0.070495,0.070495,0.070495,0.070495,0.070495,0.070495,0.070495,0.070495,0.070495,0.070495,0.070495,0.070495,0.070495,0.070495},
{-0.007072,-0.007072,-0.007072,-0.007072,-0.007072,-0.007072,-0.007072,-0.007072,-0.007072,-0.007072,-0.007072,-0.007072,-0.007072,-0.007072,-0.007072,-0.007072},
{0.023577,0.023577,0.023577,0.023577,0.023577,0.023577,0.023577,0.023577,0.023577,0.023577,0.023577,0.023577,0.023577,0.023577,0.023577,0.023577},
{0.048084,0.048084,0.048084,0.048084,0.048084,0.048084,0.048084,0.048084,0.048084,0.048084,0.048084,0.048084,0.048084,0.048084,0.048084,0.048084},
{-0.081578,-0.081578,-0.081578,-0.081578,-0.081578,-0.081578,-0.081578,-0.081578,-0.081578,-0.081578,-0.081578,-0.081578,-0.081578,-0.081578,-0.081578,-0.081578},
{-0.108762,-0.108762,-0.108762,-0.108762,-0.108762,-0.108762,-0.108762,-0.108762,-0.108762,-0.108762,-0.108762,-0.108762,-0.108762,-0.108762,-0.108762,-0.108762},
{0.056392,0.056392,0.056392,0.056392,0.056392,0.056392,0.056392,0.056392,0.056392,0.056392,0.056392,0.056392,0.056392,0.056392,0.056392,0.056392},
{-0.005621,-0.005621,-0.005621,-0.005621,-0.005621,-0.005621,-0.005621,-0.005621,-0.005621,-0.005621,-0.005621,-0.005621,-0.005621,-0.005621,-0.005621,-0.005621},
{0.026133,0.026133,0.026133,0.026133,0.026133,0.026133,0.026133,0.026133,0.026133,0.026133,0.026133,0.026133,0.026133,0.026133,0.026133,0.026133},
{0.069356,0.069356,0.069356,0.069356,0.069356,0.069356,0.069356,0.069356,0.069356,0.069356,0.069356,0.069356,0.069356,0.069356,0.069356,0.069356},
{-0.105634,-0.105634,-0.105634,-0.105634,-0.105634,-0.105634,-0.105634,-0.105634,-0.105634,-0.105634,-0.105634,-0.105634,-0.105634,-0.105634,-0.105634,-0.105634},
{-0.106516,-0.106516,-0.106516,-0.106516,-0.106516,-0.106516,-0.106516,-0.106516,-0.106516,-0.106516,-0.106516,-0.106516,-0.106516,-0.106516,-0.106516,-0.106516},
{-0.087409,-0.087409,-0.087409,-0.087409,-0.087409,-0.087409,-0.087409,-0.087409,-0.087409,-0.087409,-0.087409,-0.087409,-0.087409,-0.087409,-0.087409,-0.087409},
{0.006671,0.006671,0.006671,0.006671,0.006671,0.006671,0.006671,0.006671,0.006671,0.006671,0.006671,0.006671,0.006671,0.006671,0.006671,0.006671},
{-0.062656,-0.062656,-0.062656,-0.062656,-0.062656,-0.062656,-0.062656,-0.062656,-0.062656,-0.062656,-0.062656,-0.062656,-0.062656,-0.062656,-0.062656,-0.062656},
{-0.096885,-0.096885,-0.096885,-0.096885,-0.096885,-0.096885,-0.096885,-0.096885,-0.096885,-0.096885,-0.096885,-0.096885,-0.096885,-0.096885,-0.096885,-0.096885},
{0.029802,0.029802,0.029802,0.029802,0.029802,0.029802,0.029802,0.029802,0.029802,0.029802,0.029802,0.029802,0.029802,0.029802,0.029802,0.029802},
{0.040820,0.040820,0.040820,0.040820,0.040820,0.040820,0.040820,0.040820,0.040820,0.040820,0.040820,0.040820,0.040820,0.040820,0.040820,0.040820},
{0.054303,0.054303,0.054303,0.054303,0.054303,0.054303,0.054303,0.054303,0.054303,0.054303,0.054303,0.054303,0.054303,0.054303,0.054303,0.054303},
{0.030491,0.030491,0.030491,0.030491,0.030491,0.030491,0.030491,0.030491,0.030491,0.030491,0.030491,0.030491,0.030491,0.030491,0.030491,0.030491},
{0.150109,0.150109,0.150109,0.150109,0.150109,0.150109,0.150109,0.150109,0.150109,0.150109,0.150109,0.150109,0.150109,0.150109,0.150109,0.150109},
{-0.069268,-0.069268,-0.069268,-0.069268,-0.069268,-0.069268,-0.069268,-0.069268,-0.069268,-0.069268,-0.069268,-0.069268,-0.069268,-0.069268,-0.069268,-0.069268},
{0.102839,0.102839,0.102839,0.102839,0.102839,0.102839,0.102839,0.102839,0.102839,0.102839,0.102839,0.102839,0.102839,0.102839,0.102839,0.102839},
{-0.022920,-0.022920,-0.022920,-0.022920,-0.022920,-0.022920,-0.022920,-0.022920,-0.022920,-0.022920,-0.022920,-0.022920,-0.022920,-0.022920,-0.022920,-0.022920},
{0.006842,0.006842,0.006842,0.006842,0.006842,0.006842,0.006842,0.006842,0.006842,0.006842,0.006842,0.006842,0.006842,0.006842,0.006842,0.006842},
{0.030890,0.030890,0.030890,0.030890,0.030890,0.030890,0.030890,0.030890,0.030890,0.030890,0.030890,0.030890,0.030890,0.030890,0.030890,0.030890},
{0.003834,0.003834,0.003834,0.003834,0.003834,0.003834,0.003834,0.003834,0.003834,0.003834,0.003834,0.003834,0.003834,0.003834,0.003834,0.003834},
{0.004541,0.004541,0.004541,0.004541,0.004541,0.004541,0.004541,0.004541,0.004541,0.004541,0.004541,0.004541,0.004541,0.004541,0.004541,0.004541},
{0.043841,0.043841,0.043841,0.043841,0.043841,0.043841,0.043841,0.043841,0.043841,0.043841,0.043841,0.043841,0.043841,0.043841,0.043841,0.043841},
{-0.062376,-0.062376,-0.062376,-0.062376,-0.062376,-0.062376,-0.062376,-0.062376,-0.062376,-0.062376,-0.062376,-0.062376,-0.062376,-0.062376,-0.062376,-0.062376},
{-0.106366,-0.106366,-0.106366,-0.106366,-0.106366,-0.106366,-0.106366,-0.106366,-0.106366,-0.106366,-0.106366,-0.106366,-0.106366,-0.106366,-0.106366,-0.106366},
{0.041275,0.041275,0.041275,0.041275,0.041275,0.041275,0.041275,0.041275,0.041275,0.041275,0.041275,0.041275,0.041275,0.041275,0.041275,0.041275},
{0.051109,0.051109,0.051109,0.051109,0.051109,0.051109,0.051109,0.051109,0.051109,0.051109,0.051109,0.051109,0.051109,0.051109,0.051109,0.051109},
{0.023270,0.023270,0.023270,0.023270,0.023270,0.023270,0.023270,0.023270,0.023270,0.023270,0.023270,0.023270,0.023270,0.023270,0.023270,0.023270},
{-0.001489,-0.001489,-0.001489,-0.001489,-0.001489,-0.001489,-0.001489,-0.001489,-0.001489,-0.001489,-0.001489,-0.001489,-0.001489,-0.001489,-0.001489,-0.001489},
{0.050697,0.050697,0.050697,0.050697,0.050697,0.050697,0.050697,0.050697,0.050697,0.050697,0.050697,0.050697,0.050697,0.050697,0.050697,0.050697},
{0.049037,0.049037,0.049037,0.049037,0.049037,0.049037,0.049037,0.049037,0.049037,0.049037,0.049037,0.049037,0.049037,0.049037,0.049037,0.049037},
