constant half16 weights_2[32*144] = {
{0.040458,0.040458,0.040458,0.040458,0.040458,0.040458,0.040458,0.040458,0.040458,0.040458,0.040458,0.040458,0.040458,0.040458,0.040458,0.040458},
{-0.062994,-0.062994,-0.062994,-0.062994,-0.062994,-0.062994,-0.062994,-0.062994,-0.062994,-0.062994,-0.062994,-0.062994,-0.062994,-0.062994,-0.062994,-0.062994},
{-0.008554,-0.008554,-0.008554,-0.008554,-0.008554,-0.008554,-0.008554,-0.008554,-0.008554,-0.008554,-0.008554,-0.008554,-0.008554,-0.008554,-0.008554,-0.008554},
{-0.066464,-0.066464,-0.066464,-0.066464,-0.066464,-0.066464,-0.066464,-0.066464,-0.066464,-0.066464,-0.066464,-0.066464,-0.066464,-0.066464,-0.066464,-0.066464},
{0.039423,0.039423,0.039423,0.039423,0.039423,0.039423,0.039423,0.039423,0.039423,0.039423,0.039423,0.039423,0.039423,0.039423,0.039423,0.039423},
{-0.005907,-0.005907,-0.005907,-0.005907,-0.005907,-0.005907,-0.005907,-0.005907,-0.005907,-0.005907,-0.005907,-0.005907,-0.005907,-0.005907,-0.005907,-0.005907},
{-0.000417,-0.000417,-0.000417,-0.000417,-0.000417,-0.000417,-0.000417,-0.000417,-0.000417,-0.000417,-0.000417,-0.000417,-0.000417,-0.000417,-0.000417,-0.000417},
{-0.227197,-0.227197,-0.227197,-0.227197,-0.227197,-0.227197,-0.227197,-0.227197,-0.227197,-0.227197,-0.227197,-0.227197,-0.227197,-0.227197,-0.227197,-0.227197},
{-0.043509,-0.043509,-0.043509,-0.043509,-0.043509,-0.043509,-0.043509,-0.043509,-0.043509,-0.043509,-0.043509,-0.043509,-0.043509,-0.043509,-0.043509,-0.043509},
{-0.046378,-0.046378,-0.046378,-0.046378,-0.046378,-0.046378,-0.046378,-0.046378,-0.046378,-0.046378,-0.046378,-0.046378,-0.046378,-0.046378,-0.046378,-0.046378},
{0.007781,0.007781,0.007781,0.007781,0.007781,0.007781,0.007781,0.007781,0.007781,0.007781,0.007781,0.007781,0.007781,0.007781,0.007781,0.007781},
{-0.032072,-0.032072,-0.032072,-0.032072,-0.032072,-0.032072,-0.032072,-0.032072,-0.032072,-0.032072,-0.032072,-0.032072,-0.032072,-0.032072,-0.032072,-0.032072},
{0.090186,0.090186,0.090186,0.090186,0.090186,0.090186,0.090186,0.090186,0.090186,0.090186,0.090186,0.090186,0.090186,0.090186,0.090186,0.090186},
{-0.016899,-0.016899,-0.016899,-0.016899,-0.016899,-0.016899,-0.016899,-0.016899,-0.016899,-0.016899,-0.016899,-0.016899,-0.016899,-0.016899,-0.016899,-0.016899},
{-0.003834,-0.003834,-0.003834,-0.003834,-0.003834,-0.003834,-0.003834,-0.003834,-0.003834,-0.003834,-0.003834,-0.003834,-0.003834,-0.003834,-0.003834,-0.003834},
{0.001091,0.001091,0.001091,0.001091,0.001091,0.001091,0.001091,0.001091,0.001091,0.001091,0.001091,0.001091,0.001091,0.001091,0.001091,0.001091},
{-0.054571,-0.054571,-0.054571,-0.054571,-0.054571,-0.054571,-0.054571,-0.054571,-0.054571,-0.054571,-0.054571,-0.054571,-0.054571,-0.054571,-0.054571,-0.054571},
{0.018542,0.018542,0.018542,0.018542,0.018542,0.018542,0.018542,0.018542,0.018542,0.018542,0.018542,0.018542,0.018542,0.018542,0.018542,0.018542},
{-0.006246,-0.006246,-0.006246,-0.006246,-0.006246,-0.006246,-0.006246,-0.006246,-0.006246,-0.006246,-0.006246,-0.006246,-0.006246,-0.006246,-0.006246,-0.006246},
{-0.027113,-0.027113,-0.027113,-0.027113,-0.027113,-0.027113,-0.027113,-0.027113,-0.027113,-0.027113,-0.027113,-0.027113,-0.027113,-0.027113,-0.027113,-0.027113},
{0.011187,0.011187,0.011187,0.011187,0.011187,0.011187,0.011187,0.011187,0.011187,0.011187,0.011187,0.011187,0.011187,0.011187,0.011187,0.011187},
{-0.128797,-0.128797,-0.128797,-0.128797,-0.128797,-0.128797,-0.128797,-0.128797,-0.128797,-0.128797,-0.128797,-0.128797,-0.128797,-0.128797,-0.128797,-0.128797},
{-0.172234,-0.172234,-0.172234,-0.172234,-0.172234,-0.172234,-0.172234,-0.172234,-0.172234,-0.172234,-0.172234,-0.172234,-0.172234,-0.172234,-0.172234,-0.172234},
{-0.011958,-0.011958,-0.011958,-0.011958,-0.011958,-0.011958,-0.011958,-0.011958,-0.011958,-0.011958,-0.011958,-0.011958,-0.011958,-0.011958,-0.011958,-0.011958},
{0.000486,0.000486,0.000486,0.000486,0.000486,0.000486,0.000486,0.000486,0.000486,0.000486,0.000486,0.000486,0.000486,0.000486,0.000486,0.000486},
{-0.051045,-0.051045,-0.051045,-0.051045,-0.051045,-0.051045,-0.051045,-0.051045,-0.051045,-0.051045,-0.051045,-0.051045,-0.051045,-0.051045,-0.051045,-0.051045},
{-0.014314,-0.014314,-0.014314,-0.014314,-0.014314,-0.014314,-0.014314,-0.014314,-0.014314,-0.014314,-0.014314,-0.014314,-0.014314,-0.014314,-0.014314,-0.014314},
{-0.039146,-0.039146,-0.039146,-0.039146,-0.039146,-0.039146,-0.039146,-0.039146,-0.039146,-0.039146,-0.039146,-0.039146,-0.039146,-0.039146,-0.039146,-0.039146},
{0.027073,0.027073,0.027073,0.027073,0.027073,0.027073,0.027073,0.027073,0.027073,0.027073,0.027073,0.027073,0.027073,0.027073,0.027073,0.027073},
{-0.013240,-0.013240,-0.013240,-0.013240,-0.013240,-0.013240,-0.013240,-0.013240,-0.013240,-0.013240,-0.013240,-0.013240,-0.013240,-0.013240,-0.013240,-0.013240},
{0.017225,0.017225,0.017225,0.017225,0.017225,0.017225,0.017225,0.017225,0.017225,0.017225,0.017225,0.017225,0.017225,0.017225,0.017225,0.017225},
{-0.077440,-0.077440,-0.077440,-0.077440,-0.077440,-0.077440,-0.077440,-0.077440,-0.077440,-0.077440,-0.077440,-0.077440,-0.077440,-0.077440,-0.077440,-0.077440},
{-0.011634,-0.011634,-0.011634,-0.011634,-0.011634,-0.011634,-0.011634,-0.011634,-0.011634,-0.011634,-0.011634,-0.011634,-0.011634,-0.011634,-0.011634,-0.011634},
{0.000083,0.000083,0.000083,0.000083,0.000083,0.000083,0.000083,0.000083,0.000083,0.000083,0.000083,0.000083,0.000083,0.000083,0.000083,0.000083},
{-0.048556,-0.048556,-0.048556,-0.048556,-0.048556,-0.048556,-0.048556,-0.048556,-0.048556,-0.048556,-0.048556,-0.048556,-0.048556,-0.048556,-0.048556,-0.048556},
{0.021575,0.021575,0.021575,0.021575,0.021575,0.021575,0.021575,0.021575,0.021575,0.021575,0.021575,0.021575,0.021575,0.021575,0.021575,0.021575},
{0.002803,0.002803,0.002803,0.002803,0.002803,0.002803,0.002803,0.002803,0.002803,0.002803,0.002803,0.002803,0.002803,0.002803,0.002803,0.002803},
{0.017086,0.017086,0.017086,0.017086,0.017086,0.017086,0.017086,0.017086,0.017086,0.017086,0.017086,0.017086,0.017086,0.017086,0.017086,0.017086},
{0.027126,0.027126,0.027126,0.027126,0.027126,0.027126,0.027126,0.027126,0.027126,0.027126,0.027126,0.027126,0.027126,0.027126,0.027126,0.027126},
{0.010033,0.010033,0.010033,0.010033,0.010033,0.010033,0.010033,0.010033,0.010033,0.010033,0.010033,0.010033,0.010033,0.010033,0.010033,0.010033},
{-0.009905,-0.009905,-0.009905,-0.009905,-0.009905,-0.009905,-0.009905,-0.009905,-0.009905,-0.009905,-0.009905,-0.009905,-0.009905,-0.009905,-0.009905,-0.009905},
{0.041922,0.041922,0.041922,0.041922,0.041922,0.041922,0.041922,0.041922,0.041922,0.041922,0.041922,0.041922,0.041922,0.041922,0.041922,0.041922},
{0.000251,0.000251,0.000251,0.000251,0.000251,0.000251,0.000251,0.000251,0.000251,0.000251,0.000251,0.000251,0.000251,0.000251,0.000251,0.000251},
{0.000163,0.000163,0.000163,0.000163,0.000163,0.000163,0.000163,0.000163,0.000163,0.000163,0.000163,0.000163,0.000163,0.000163,0.000163,0.000163},
{-0.005233,-0.005233,-0.005233,-0.005233,-0.005233,-0.005233,-0.005233,-0.005233,-0.005233,-0.005233,-0.005233,-0.005233,-0.005233,-0.005233,-0.005233,-0.005233},
{0.007013,0.007013,0.007013,0.007013,0.007013,0.007013,0.007013,0.007013,0.007013,0.007013,0.007013,0.007013,0.007013,0.007013,0.007013,0.007013},
{-0.014856,-0.014856,-0.014856,-0.014856,-0.014856,-0.014856,-0.014856,-0.014856,-0.014856,-0.014856,-0.014856,-0.014856,-0.014856,-0.014856,-0.014856,-0.014856},
{-0.172783,-0.172783,-0.172783,-0.172783,-0.172783,-0.172783,-0.172783,-0.172783,-0.172783,-0.172783,-0.172783,-0.172783,-0.172783,-0.172783,-0.172783,-0.172783},
{-0.058691,-0.058691,-0.058691,-0.058691,-0.058691,-0.058691,-0.058691,-0.058691,-0.058691,-0.058691,-0.058691,-0.058691,-0.058691,-0.058691,-0.058691,-0.058691},
{0.016382,0.016382,0.016382,0.016382,0.016382,0.016382,0.016382,0.016382,0.016382,0.016382,0.016382,0.016382,0.016382,0.016382,0.016382,0.016382},
{-0.032264,-0.032264,-0.032264,-0.032264,-0.032264,-0.032264,-0.032264,-0.032264,-0.032264,-0.032264,-0.032264,-0.032264,-0.032264,-0.032264,-0.032264,-0.032264},
{0.002193,0.002193,0.002193,0.002193,0.002193,0.002193,0.002193,0.002193,0.002193,0.002193,0.002193,0.002193,0.002193,0.002193,0.002193,0.002193},
{0.002759,0.002759,0.002759,0.002759,0.002759,0.002759,0.002759,0.002759,0.002759,0.002759,0.002759,0.002759,0.002759,0.002759,0.002759,0.002759},
{-0.003504,-0.003504,-0.003504,-0.003504,-0.003504,-0.003504,-0.003504,-0.003504,-0.003504,-0.003504,-0.003504,-0.003504,-0.003504,-0.003504,-0.003504,-0.003504},
{0.006771,0.006771,0.006771,0.006771,0.006771,0.006771,0.006771,0.006771,0.006771,0.006771,0.006771,0.006771,0.006771,0.006771,0.006771,0.006771},
{-0.014256,-0.014256,-0.014256,-0.014256,-0.014256,-0.014256,-0.014256,-0.014256,-0.014256,-0.014256,-0.014256,-0.014256,-0.014256,-0.014256,-0.014256,-0.014256},
{-0.003493,-0.003493,-0.003493,-0.003493,-0.003493,-0.003493,-0.003493,-0.003493,-0.003493,-0.003493,-0.003493,-0.003493,-0.003493,-0.003493,-0.003493,-0.003493},
{-0.102820,-0.102820,-0.102820,-0.102820,-0.102820,-0.102820,-0.102820,-0.102820,-0.102820,-0.102820,-0.102820,-0.102820,-0.102820,-0.102820,-0.102820,-0.102820},
{-0.028191,-0.028191,-0.028191,-0.028191,-0.028191,-0.028191,-0.028191,-0.028191,-0.028191,-0.028191,-0.028191,-0.028191,-0.028191,-0.028191,-0.028191,-0.028191},
{0.009030,0.009030,0.009030,0.009030,0.009030,0.009030,0.009030,0.009030,0.009030,0.009030,0.009030,0.009030,0.009030,0.009030,0.009030,0.009030},
{-0.001661,-0.001661,-0.001661,-0.001661,-0.001661,-0.001661,-0.001661,-0.001661,-0.001661,-0.001661,-0.001661,-0.001661,-0.001661,-0.001661,-0.001661,-0.001661},
{0.074935,0.074935,0.074935,0.074935,0.074935,0.074935,0.074935,0.074935,0.074935,0.074935,0.074935,0.074935,0.074935,0.074935,0.074935,0.074935},
{0.007295,0.007295,0.007295,0.007295,0.007295,0.007295,0.007295,0.007295,0.007295,0.007295,0.007295,0.007295,0.007295,0.007295,0.007295,0.007295},
{0.018364,0.018364,0.018364,0.018364,0.018364,0.018364,0.018364,0.018364,0.018364,0.018364,0.018364,0.018364,0.018364,0.018364,0.018364,0.018364},
{-0.015633,-0.015633,-0.015633,-0.015633,-0.015633,-0.015633,-0.015633,-0.015633,-0.015633,-0.015633,-0.015633,-0.015633,-0.015633,-0.015633,-0.015633,-0.015633},
{-0.023172,-0.023172,-0.023172,-0.023172,-0.023172,-0.023172,-0.023172,-0.023172,-0.023172,-0.023172,-0.023172,-0.023172,-0.023172,-0.023172,-0.023172,-0.023172},
{0.033136,0.033136,0.033136,0.033136,0.033136,0.033136,0.033136,0.033136,0.033136,0.033136,0.033136,0.033136,0.033136,0.033136,0.033136,0.033136},
{-0.019368,-0.019368,-0.019368,-0.019368,-0.019368,-0.019368,-0.019368,-0.019368,-0.019368,-0.019368,-0.019368,-0.019368,-0.019368,-0.019368,-0.019368,-0.019368},
{-0.009890,-0.009890,-0.009890,-0.009890,-0.009890,-0.009890,-0.009890,-0.009890,-0.009890,-0.009890,-0.009890,-0.009890,-0.009890,-0.009890,-0.009890,-0.009890},
{0.000885,0.000885,0.000885,0.000885,0.000885,0.000885,0.000885,0.000885,0.000885,0.000885,0.000885,0.000885,0.000885,0.000885,0.000885,0.000885},
{-0.046478,-0.046478,-0.046478,-0.046478,-0.046478,-0.046478,-0.046478,-0.046478,-0.046478,-0.046478,-0.046478,-0.046478,-0.046478,-0.046478,-0.046478,-0.046478},
{0.007534,0.007534,0.007534,0.007534,0.007534,0.007534,0.007534,0.007534,0.007534,0.007534,0.007534,0.007534,0.007534,0.007534,0.007534,0.007534},
{0.015318,0.015318,0.015318,0.015318,0.015318,0.015318,0.015318,0.015318,0.015318,0.015318,0.015318,0.015318,0.015318,0.015318,0.015318,0.015318},
{-0.011957,-0.011957,-0.011957,-0.011957,-0.011957,-0.011957,-0.011957,-0.011957,-0.011957,-0.011957,-0.011957,-0.011957,-0.011957,-0.011957,-0.011957,-0.011957},
{-0.016822,-0.016822,-0.016822,-0.016822,-0.016822,-0.016822,-0.016822,-0.016822,-0.016822,-0.016822,-0.016822,-0.016822,-0.016822,-0.016822,-0.016822,-0.016822},
{-0.245724,-0.245724,-0.245724,-0.245724,-0.245724,-0.245724,-0.245724,-0.245724,-0.245724,-0.245724,-0.245724,-0.245724,-0.245724,-0.245724,-0.245724,-0.245724},
{0.061523,0.061523,0.061523,0.061523,0.061523,0.061523,0.061523,0.061523,0.061523,0.061523,0.061523,0.061523,0.061523,0.061523,0.061523,0.061523},
{-0.030324,-0.030324,-0.030324,-0.030324,-0.030324,-0.030324,-0.030324,-0.030324,-0.030324,-0.030324,-0.030324,-0.030324,-0.030324,-0.030324,-0.030324,-0.030324},
{-0.000213,-0.000213,-0.000213,-0.000213,-0.000213,-0.000213,-0.000213,-0.000213,-0.000213,-0.000213,-0.000213,-0.000213,-0.000213,-0.000213,-0.000213,-0.000213},
{-0.079285,-0.079285,-0.079285,-0.079285,-0.079285,-0.079285,-0.079285,-0.079285,-0.079285,-0.079285,-0.079285,-0.079285,-0.079285,-0.079285,-0.079285,-0.079285},
{-0.010068,-0.010068,-0.010068,-0.010068,-0.010068,-0.010068,-0.010068,-0.010068,-0.010068,-0.010068,-0.010068,-0.010068,-0.010068,-0.010068,-0.010068,-0.010068},
{-0.060249,-0.060249,-0.060249,-0.060249,-0.060249,-0.060249,-0.060249,-0.060249,-0.060249,-0.060249,-0.060249,-0.060249,-0.060249,-0.060249,-0.060249,-0.060249},
{-0.053540,-0.053540,-0.053540,-0.053540,-0.053540,-0.053540,-0.053540,-0.053540,-0.053540,-0.053540,-0.053540,-0.053540,-0.053540,-0.053540,-0.053540,-0.053540},
{0.010549,0.010549,0.010549,0.010549,0.010549,0.010549,0.010549,0.010549,0.010549,0.010549,0.010549,0.010549,0.010549,0.010549,0.010549,0.010549},
{0.003057,0.003057,0.003057,0.003057,0.003057,0.003057,0.003057,0.003057,0.003057,0.003057,0.003057,0.003057,0.003057,0.003057,0.003057,0.003057},
{0.013738,0.013738,0.013738,0.013738,0.013738,0.013738,0.013738,0.013738,0.013738,0.013738,0.013738,0.013738,0.013738,0.013738,0.013738,0.013738},
{0.010091,0.010091,0.010091,0.010091,0.010091,0.010091,0.010091,0.010091,0.010091,0.010091,0.010091,0.010091,0.010091,0.010091,0.010091,0.010091},
{0.001220,0.001220,0.001220,0.001220,0.001220,0.001220,0.001220,0.001220,0.001220,0.001220,0.001220,0.001220,0.001220,0.001220,0.001220,0.001220},
{0.003064,0.003064,0.003064,0.003064,0.003064,0.003064,0.003064,0.003064,0.003064,0.003064,0.003064,0.003064,0.003064,0.003064,0.003064,0.003064},
{-0.017423,-0.017423,-0.017423,-0.017423,-0.017423,-0.017423,-0.017423,-0.017423,-0.017423,-0.017423,-0.017423,-0.017423,-0.017423,-0.017423,-0.017423,-0.017423},
{0.041657,0.041657,0.041657,0.041657,0.041657,0.041657,0.041657,0.041657,0.041657,0.041657,0.041657,0.041657,0.041657,0.041657,0.041657,0.041657},
{0.003856,0.003856,0.003856,0.003856,0.003856,0.003856,0.003856,0.003856,0.003856,0.003856,0.003856,0.003856,0.003856,0.003856,0.003856,0.003856},
{0.008135,0.008135,0.008135,0.008135,0.008135,0.008135,0.008135,0.008135,0.008135,0.008135,0.008135,0.008135,0.008135,0.008135,0.008135,0.008135},
{-0.069313,-0.069313,-0.069313,-0.069313,-0.069313,-0.069313,-0.069313,-0.069313,-0.069313,-0.069313,-0.069313,-0.069313,-0.069313,-0.069313,-0.069313,-0.069313},
{-0.032108,-0.032108,-0.032108,-0.032108,-0.032108,-0.032108,-0.032108,-0.032108,-0.032108,-0.032108,-0.032108,-0.032108,-0.032108,-0.032108,-0.032108,-0.032108},
{-0.006356,-0.006356,-0.006356,-0.006356,-0.006356,-0.006356,-0.006356,-0.006356,-0.006356,-0.006356,-0.006356,-0.006356,-0.006356,-0.006356,-0.006356,-0.006356},
{0.000195,0.000195,0.000195,0.000195,0.000195,0.000195,0.000195,0.000195,0.000195,0.000195,0.000195,0.000195,0.000195,0.000195,0.000195,0.000195},
{-0.009251,-0.009251,-0.009251,-0.009251,-0.009251,-0.009251,-0.009251,-0.009251,-0.009251,-0.009251,-0.009251,-0.009251,-0.009251,-0.009251,-0.009251,-0.009251},
{0.003160,0.003160,0.003160,0.003160,0.003160,0.003160,0.003160,0.003160,0.003160,0.003160,0.003160,0.003160,0.003160,0.003160,0.003160,0.003160},
{-0.019080,-0.019080,-0.019080,-0.019080,-0.019080,-0.019080,-0.019080,-0.019080,-0.019080,-0.019080,-0.019080,-0.019080,-0.019080,-0.019080,-0.019080,-0.019080},
{-0.048256,-0.048256,-0.048256,-0.048256,-0.048256,-0.048256,-0.048256,-0.048256,-0.048256,-0.048256,-0.048256,-0.048256,-0.048256,-0.048256,-0.048256,-0.048256},
{-0.017474,-0.017474,-0.017474,-0.017474,-0.017474,-0.017474,-0.017474,-0.017474,-0.017474,-0.017474,-0.017474,-0.017474,-0.017474,-0.017474,-0.017474,-0.017474},
{0.089547,0.089547,0.089547,0.089547,0.089547,0.089547,0.089547,0.089547,0.089547,0.089547,0.089547,0.089547,0.089547,0.089547,0.089547,0.089547},
{-0.120713,-0.120713,-0.120713,-0.120713,-0.120713,-0.120713,-0.120713,-0.120713,-0.120713,-0.120713,-0.120713,-0.120713,-0.120713,-0.120713,-0.120713,-0.120713},
{0.009110,0.009110,0.009110,0.009110,0.009110,0.009110,0.009110,0.009110,0.009110,0.009110,0.009110,0.009110,0.009110,0.009110,0.009110,0.009110},
{0.000610,0.000610,0.000610,0.000610,0.000610,0.000610,0.000610,0.000610,0.000610,0.000610,0.000610,0.000610,0.000610,0.000610,0.000610,0.000610},
{-0.078775,-0.078775,-0.078775,-0.078775,-0.078775,-0.078775,-0.078775,-0.078775,-0.078775,-0.078775,-0.078775,-0.078775,-0.078775,-0.078775,-0.078775,-0.078775},
{0.003187,0.003187,0.003187,0.003187,0.003187,0.003187,0.003187,0.003187,0.003187,0.003187,0.003187,0.003187,0.003187,0.003187,0.003187,0.003187},
{-0.044482,-0.044482,-0.044482,-0.044482,-0.044482,-0.044482,-0.044482,-0.044482,-0.044482,-0.044482,-0.044482,-0.044482,-0.044482,-0.044482,-0.044482,-0.044482},
{-0.035875,-0.035875,-0.035875,-0.035875,-0.035875,-0.035875,-0.035875,-0.035875,-0.035875,-0.035875,-0.035875,-0.035875,-0.035875,-0.035875,-0.035875,-0.035875},
{-0.012795,-0.012795,-0.012795,-0.012795,-0.012795,-0.012795,-0.012795,-0.012795,-0.012795,-0.012795,-0.012795,-0.012795,-0.012795,-0.012795,-0.012795,-0.012795},
{-0.002009,-0.002009,-0.002009,-0.002009,-0.002009,-0.002009,-0.002009,-0.002009,-0.002009,-0.002009,-0.002009,-0.002009,-0.002009,-0.002009,-0.002009,-0.002009},
{0.060327,0.060327,0.060327,0.060327,0.060327,0.060327,0.060327,0.060327,0.060327,0.060327,0.060327,0.060327,0.060327,0.060327,0.060327,0.060327},
{0.020211,0.020211,0.020211,0.020211,0.020211,0.020211,0.020211,0.020211,0.020211,0.020211,0.020211,0.020211,0.020211,0.020211,0.020211,0.020211},
{0.000742,0.000742,0.000742,0.000742,0.000742,0.000742,0.000742,0.000742,0.000742,0.000742,0.000742,0.000742,0.000742,0.000742,0.000742,0.000742},
{0.045823,0.045823,0.045823,0.045823,0.045823,0.045823,0.045823,0.045823,0.045823,0.045823,0.045823,0.045823,0.045823,0.045823,0.045823,0.045823},
{-0.002152,-0.002152,-0.002152,-0.002152,-0.002152,-0.002152,-0.002152,-0.002152,-0.002152,-0.002152,-0.002152,-0.002152,-0.002152,-0.002152,-0.002152,-0.002152},
{-0.017227,-0.017227,-0.017227,-0.017227,-0.017227,-0.017227,-0.017227,-0.017227,-0.017227,-0.017227,-0.017227,-0.017227,-0.017227,-0.017227,-0.017227,-0.017227},
{-0.036296,-0.036296,-0.036296,-0.036296,-0.036296,-0.036296,-0.036296,-0.036296,-0.036296,-0.036296,-0.036296,-0.036296,-0.036296,-0.036296,-0.036296,-0.036296},
{0.004490,0.004490,0.004490,0.004490,0.004490,0.004490,0.004490,0.004490,0.004490,0.004490,0.004490,0.004490,0.004490,0.004490,0.004490,0.004490},
{-0.006721,-0.006721,-0.006721,-0.006721,-0.006721,-0.006721,-0.006721,-0.006721,-0.006721,-0.006721,-0.006721,-0.006721,-0.006721,-0.006721,-0.006721,-0.006721},
{-0.017913,-0.017913,-0.017913,-0.017913,-0.017913,-0.017913,-0.017913,-0.017913,-0.017913,-0.017913,-0.017913,-0.017913,-0.017913,-0.017913,-0.017913,-0.017913},
{-0.150264,-0.150264,-0.150264,-0.150264,-0.150264,-0.150264,-0.150264,-0.150264,-0.150264,-0.150264,-0.150264,-0.150264,-0.150264,-0.150264,-0.150264,-0.150264},
{0.001863,0.001863,0.001863,0.001863,0.001863,0.001863,0.001863,0.001863,0.001863,0.001863,0.001863,0.001863,0.001863,0.001863,0.001863,0.001863},
{-0.017805,-0.017805,-0.017805,-0.017805,-0.017805,-0.017805,-0.017805,-0.017805,-0.017805,-0.017805,-0.017805,-0.017805,-0.017805,-0.017805,-0.017805,-0.017805},
{-0.000783,-0.000783,-0.000783,-0.000783,-0.000783,-0.000783,-0.000783,-0.000783,-0.000783,-0.000783,-0.000783,-0.000783,-0.000783,-0.000783,-0.000783,-0.000783},
{-0.010126,-0.010126,-0.010126,-0.010126,-0.010126,-0.010126,-0.010126,-0.010126,-0.010126,-0.010126,-0.010126,-0.010126,-0.010126,-0.010126,-0.010126,-0.010126},
{-0.008356,-0.008356,-0.008356,-0.008356,-0.008356,-0.008356,-0.008356,-0.008356,-0.008356,-0.008356,-0.008356,-0.008356,-0.008356,-0.008356,-0.008356,-0.008356},
{0.024019,0.024019,0.024019,0.024019,0.024019,0.024019,0.024019,0.024019,0.024019,0.024019,0.024019,0.024019,0.024019,0.024019,0.024019,0.024019},
{-0.000005,-0.000005,-0.000005,-0.000005,-0.000005,-0.000005,-0.000005,-0.000005,-0.000005,-0.000005,-0.000005,-0.000005,-0.000005,-0.000005,-0.000005,-0.000005},
{0.025657,0.025657,0.025657,0.025657,0.025657,0.025657,0.025657,0.025657,0.025657,0.025657,0.025657,0.025657,0.025657,0.025657,0.025657,0.025657},
{-0.011403,-0.011403,-0.011403,-0.011403,-0.011403,-0.011403,-0.011403,-0.011403,-0.011403,-0.011403,-0.011403,-0.011403,-0.011403,-0.011403,-0.011403,-0.011403},
{0.000522,0.000522,0.000522,0.000522,0.000522,0.000522,0.000522,0.000522,0.000522,0.000522,0.000522,0.000522,0.000522,0.000522,0.000522,0.000522},
{-0.046241,-0.046241,-0.046241,-0.046241,-0.046241,-0.046241,-0.046241,-0.046241,-0.046241,-0.046241,-0.046241,-0.046241,-0.046241,-0.046241,-0.046241,-0.046241},
{-0.001069,-0.001069,-0.001069,-0.001069,-0.001069,-0.001069,-0.001069,-0.001069,-0.001069,-0.001069,-0.001069,-0.001069,-0.001069,-0.001069,-0.001069,-0.001069},
{-0.022273,-0.022273,-0.022273,-0.022273,-0.022273,-0.022273,-0.022273,-0.022273,-0.022273,-0.022273,-0.022273,-0.022273,-0.022273,-0.022273,-0.022273,-0.022273},
{-0.017095,-0.017095,-0.017095,-0.017095,-0.017095,-0.017095,-0.017095,-0.017095,-0.017095,-0.017095,-0.017095,-0.017095,-0.017095,-0.017095,-0.017095,-0.017095},
{0.010137,0.010137,0.010137,0.010137,0.010137,0.010137,0.010137,0.010137,0.010137,0.010137,0.010137,0.010137,0.010137,0.010137,0.010137,0.010137},
{0.034998,0.034998,0.034998,0.034998,0.034998,0.034998,0.034998,0.034998,0.034998,0.034998,0.034998,0.034998,0.034998,0.034998,0.034998,0.034998},
{-0.012500,-0.012500,-0.012500,-0.012500,-0.012500,-0.012500,-0.012500,-0.012500,-0.012500,-0.012500,-0.012500,-0.012500,-0.012500,-0.012500,-0.012500,-0.012500},
{0.003576,0.003576,0.003576,0.003576,0.003576,0.003576,0.003576,0.003576,0.003576,0.003576,0.003576,0.003576,0.003576,0.003576,0.003576,0.003576},
{0.001074,0.001074,0.001074,0.001074,0.001074,0.001074,0.001074,0.001074,0.001074,0.001074,0.001074,0.001074,0.001074,0.001074,0.001074,0.001074},
{0.020914,0.020914,0.020914,0.020914,0.020914,0.020914,0.020914,0.020914,0.020914,0.020914,0.020914,0.020914,0.020914,0.020914,0.020914,0.020914},
{-0.025841,-0.025841,-0.025841,-0.025841,-0.025841,-0.025841,-0.025841,-0.025841,-0.025841,-0.025841,-0.025841,-0.025841,-0.025841,-0.025841,-0.025841,-0.025841},
{-0.006667,-0.006667,-0.006667,-0.006667,-0.006667,-0.006667,-0.006667,-0.006667,-0.006667,-0.006667,-0.006667,-0.006667,-0.006667,-0.006667,-0.006667,-0.006667},
{0.020902,0.020902,0.020902,0.020902,0.020902,0.020902,0.020902,0.020902,0.020902,0.020902,0.020902,0.020902,0.020902,0.020902,0.020902,0.020902},
{0.002684,0.002684,0.002684,0.002684,0.002684,0.002684,0.002684,0.002684,0.002684,0.002684,0.002684,0.002684,0.002684,0.002684,0.002684,0.002684},
{-0.016377,-0.016377,-0.016377,-0.016377,-0.016377,-0.016377,-0.016377,-0.016377,-0.016377,-0.016377,-0.016377,-0.016377,-0.016377,-0.016377,-0.016377,-0.016377},
{-0.048759,-0.048759,-0.048759,-0.048759,-0.048759,-0.048759,-0.048759,-0.048759,-0.048759,-0.048759,-0.048759,-0.048759,-0.048759,-0.048759,-0.048759,-0.048759},
{0.009701,0.009701,0.009701,0.009701,0.009701,0.009701,0.009701,0.009701,0.009701,0.009701,0.009701,0.009701,0.009701,0.009701,0.009701,0.009701},
{-0.002176,-0.002176,-0.002176,-0.002176,-0.002176,-0.002176,-0.002176,-0.002176,-0.002176,-0.002176,-0.002176,-0.002176,-0.002176,-0.002176,-0.002176,-0.002176},
{-0.003893,-0.003893,-0.003893,-0.003893,-0.003893,-0.003893,-0.003893,-0.003893,-0.003893,-0.003893,-0.003893,-0.003893,-0.003893,-0.003893,-0.003893,-0.003893},
{0.012289,0.012289,0.012289,0.012289,0.012289,0.012289,0.012289,0.012289,0.012289,0.012289,0.012289,0.012289,0.012289,0.012289,0.012289,0.012289},
{-0.009657,-0.009657,-0.009657,-0.009657,-0.009657,-0.009657,-0.009657,-0.009657,-0.009657,-0.009657,-0.009657,-0.009657,-0.009657,-0.009657,-0.009657,-0.009657},
{-0.065171,-0.065171,-0.065171,-0.065171,-0.065171,-0.065171,-0.065171,-0.065171,-0.065171,-0.065171,-0.065171,-0.065171,-0.065171,-0.065171,-0.065171,-0.065171},
{-0.018300,-0.018300,-0.018300,-0.018300,-0.018300,-0.018300,-0.018300,-0.018300,-0.018300,-0.018300,-0.018300,-0.018300,-0.018300,-0.018300,-0.018300,-0.018300},
{0.006183,0.006183,0.006183,0.006183,0.006183,0.006183,0.006183,0.006183,0.006183,0.006183,0.006183,0.006183,0.006183,0.006183,0.006183,0.006183},
{-0.007234,-0.007234,-0.007234,-0.007234,-0.007234,-0.007234,-0.007234,-0.007234,-0.007234,-0.007234,-0.007234,-0.007234,-0.007234,-0.007234,-0.007234,-0.007234},
{0.012935,0.012935,0.012935,0.012935,0.012935,0.012935,0.012935,0.012935,0.012935,0.012935,0.012935,0.012935,0.012935,0.012935,0.012935,0.012935},
{0.001969,0.001969,0.001969,0.001969,0.001969,0.001969,0.001969,0.001969,0.001969,0.001969,0.001969,0.001969,0.001969,0.001969,0.001969,0.001969},
{-0.017733,-0.017733,-0.017733,-0.017733,-0.017733,-0.017733,-0.017733,-0.017733,-0.017733,-0.017733,-0.017733,-0.017733,-0.017733,-0.017733,-0.017733,-0.017733},
{-0.006475,-0.006475,-0.006475,-0.006475,-0.006475,-0.006475,-0.006475,-0.006475,-0.006475,-0.006475,-0.006475,-0.006475,-0.006475,-0.006475,-0.006475,-0.006475},
{-0.005704,-0.005704,-0.005704,-0.005704,-0.005704,-0.005704,-0.005704,-0.005704,-0.005704,-0.005704,-0.005704,-0.005704,-0.005704,-0.005704,-0.005704,-0.005704},
{0.087615,0.087615,0.087615,0.087615,0.087615,0.087615,0.087615,0.087615,0.087615,0.087615,0.087615,0.087615,0.087615,0.087615,0.087615,0.087615},
{-0.039965,-0.039965,-0.039965,-0.039965,-0.039965,-0.039965,-0.039965,-0.039965,-0.039965,-0.039965,-0.039965,-0.039965,-0.039965,-0.039965,-0.039965,-0.039965},
{0.084860,0.084860,0.084860,0.084860,0.084860,0.084860,0.084860,0.084860,0.084860,0.084860,0.084860,0.084860,0.084860,0.084860,0.084860,0.084860},
{-0.001532,-0.001532,-0.001532,-0.001532,-0.001532,-0.001532,-0.001532,-0.001532,-0.001532,-0.001532,-0.001532,-0.001532,-0.001532,-0.001532,-0.001532,-0.001532},
{0.014539,0.014539,0.014539,0.014539,0.014539,0.014539,0.014539,0.014539,0.014539,0.014539,0.014539,0.014539,0.014539,0.014539,0.014539,0.014539},
{-0.000108,-0.000108,-0.000108,-0.000108,-0.000108,-0.000108,-0.000108,-0.000108,-0.000108,-0.000108,-0.000108,-0.000108,-0.000108,-0.000108,-0.000108,-0.000108},
{-0.051537,-0.051537,-0.051537,-0.051537,-0.051537,-0.051537,-0.051537,-0.051537,-0.051537,-0.051537,-0.051537,-0.051537,-0.051537,-0.051537,-0.051537,-0.051537},
{0.022456,0.022456,0.022456,0.022456,0.022456,0.022456,0.022456,0.022456,0.022456,0.022456,0.022456,0.022456,0.022456,0.022456,0.022456,0.022456},
{-0.013681,-0.013681,-0.013681,-0.013681,-0.013681,-0.013681,-0.013681,-0.013681,-0.013681,-0.013681,-0.013681,-0.013681,-0.013681,-0.013681,-0.013681,-0.013681},
{-0.032812,-0.032812,-0.032812,-0.032812,-0.032812,-0.032812,-0.032812,-0.032812,-0.032812,-0.032812,-0.032812,-0.032812,-0.032812,-0.032812,-0.032812,-0.032812},
{-0.002270,-0.002270,-0.002270,-0.002270,-0.002270,-0.002270,-0.002270,-0.002270,-0.002270,-0.002270,-0.002270,-0.002270,-0.002270,-0.002270,-0.002270,-0.002270},
{-0.185319,-0.185319,-0.185319,-0.185319,-0.185319,-0.185319,-0.185319,-0.185319,-0.185319,-0.185319,-0.185319,-0.185319,-0.185319,-0.185319,-0.185319,-0.185319},
{-0.010123,-0.010123,-0.010123,-0.010123,-0.010123,-0.010123,-0.010123,-0.010123,-0.010123,-0.010123,-0.010123,-0.010123,-0.010123,-0.010123,-0.010123,-0.010123},
{0.016593,0.016593,0.016593,0.016593,0.016593,0.016593,0.016593,0.016593,0.016593,0.016593,0.016593,0.016593,0.016593,0.016593,0.016593,0.016593},
{0.000254,0.000254,0.000254,0.000254,0.000254,0.000254,0.000254,0.000254,0.000254,0.000254,0.000254,0.000254,0.000254,0.000254,0.000254,0.000254},
{-0.006315,-0.006315,-0.006315,-0.006315,-0.006315,-0.006315,-0.006315,-0.006315,-0.006315,-0.006315,-0.006315,-0.006315,-0.006315,-0.006315,-0.006315,-0.006315},
{-0.014162,-0.014162,-0.014162,-0.014162,-0.014162,-0.014162,-0.014162,-0.014162,-0.014162,-0.014162,-0.014162,-0.014162,-0.014162,-0.014162,-0.014162,-0.014162},
{0.006924,0.006924,0.006924,0.006924,0.006924,0.006924,0.006924,0.006924,0.006924,0.006924,0.006924,0.006924,0.006924,0.006924,0.006924,0.006924},
{-0.025632,-0.025632,-0.025632,-0.025632,-0.025632,-0.025632,-0.025632,-0.025632,-0.025632,-0.025632,-0.025632,-0.025632,-0.025632,-0.025632,-0.025632,-0.025632},
{0.011033,0.011033,0.011033,0.011033,0.011033,0.011033,0.011033,0.011033,0.011033,0.011033,0.011033,0.011033,0.011033,0.011033,0.011033,0.011033},
{0.046426,0.046426,0.046426,0.046426,0.046426,0.046426,0.046426,0.046426,0.046426,0.046426,0.046426,0.046426,0.046426,0.046426,0.046426,0.046426},
{-0.123436,-0.123436,-0.123436,-0.123436,-0.123436,-0.123436,-0.123436,-0.123436,-0.123436,-0.123436,-0.123436,-0.123436,-0.123436,-0.123436,-0.123436,-0.123436},
{-0.007325,-0.007325,-0.007325,-0.007325,-0.007325,-0.007325,-0.007325,-0.007325,-0.007325,-0.007325,-0.007325,-0.007325,-0.007325,-0.007325,-0.007325,-0.007325},
{-0.000235,-0.000235,-0.000235,-0.000235,-0.000235,-0.000235,-0.000235,-0.000235,-0.000235,-0.000235,-0.000235,-0.000235,-0.000235,-0.000235,-0.000235,-0.000235},
{-0.143294,-0.143294,-0.143294,-0.143294,-0.143294,-0.143294,-0.143294,-0.143294,-0.143294,-0.143294,-0.143294,-0.143294,-0.143294,-0.143294,-0.143294,-0.143294},
{-0.028772,-0.028772,-0.028772,-0.028772,-0.028772,-0.028772,-0.028772,-0.028772,-0.028772,-0.028772,-0.028772,-0.028772,-0.028772,-0.028772,-0.028772,-0.028772},
{0.052550,0.052550,0.052550,0.052550,0.052550,0.052550,0.052550,0.052550,0.052550,0.052550,0.052550,0.052550,0.052550,0.052550,0.052550,0.052550},
{-0.061375,-0.061375,-0.061375,-0.061375,-0.061375,-0.061375,-0.061375,-0.061375,-0.061375,-0.061375,-0.061375,-0.061375,-0.061375,-0.061375,-0.061375,-0.061375},
{-0.006879,-0.006879,-0.006879,-0.006879,-0.006879,-0.006879,-0.006879,-0.006879,-0.006879,-0.006879,-0.006879,-0.006879,-0.006879,-0.006879,-0.006879,-0.006879},
{0.023373,0.023373,0.023373,0.023373,0.023373,0.023373,0.023373,0.023373,0.023373,0.023373,0.023373,0.023373,0.023373,0.023373,0.023373,0.023373},
{0.063847,0.063847,0.063847,0.063847,0.063847,0.063847,0.063847,0.063847,0.063847,0.063847,0.063847,0.063847,0.063847,0.063847,0.063847,0.063847},
{0.025207,0.025207,0.025207,0.025207,0.025207,0.025207,0.025207,0.025207,0.025207,0.025207,0.025207,0.025207,0.025207,0.025207,0.025207,0.025207},
{0.002049,0.002049,0.002049,0.002049,0.002049,0.002049,0.002049,0.002049,0.002049,0.002049,0.002049,0.002049,0.002049,0.002049,0.002049,0.002049},
{-0.011763,-0.011763,-0.011763,-0.011763,-0.011763,-0.011763,-0.011763,-0.011763,-0.011763,-0.011763,-0.011763,-0.011763,-0.011763,-0.011763,-0.011763,-0.011763},
{-0.034986,-0.034986,-0.034986,-0.034986,-0.034986,-0.034986,-0.034986,-0.034986,-0.034986,-0.034986,-0.034986,-0.034986,-0.034986,-0.034986,-0.034986,-0.034986},
{0.014208,0.014208,0.014208,0.014208,0.014208,0.014208,0.014208,0.014208,0.014208,0.014208,0.014208,0.014208,0.014208,0.014208,0.014208,0.014208},
{-0.014539,-0.014539,-0.014539,-0.014539,-0.014539,-0.014539,-0.014539,-0.014539,-0.014539,-0.014539,-0.014539,-0.014539,-0.014539,-0.014539,-0.014539,-0.014539},
{0.025711,0.025711,0.025711,0.025711,0.025711,0.025711,0.025711,0.025711,0.025711,0.025711,0.025711,0.025711,0.025711,0.025711,0.025711,0.025711},
{0.009060,0.009060,0.009060,0.009060,0.009060,0.009060,0.009060,0.009060,0.009060,0.009060,0.009060,0.009060,0.009060,0.009060,0.009060,0.009060},
{0.011710,0.011710,0.011710,0.011710,0.011710,0.011710,0.011710,0.011710,0.011710,0.011710,0.011710,0.011710,0.011710,0.011710,0.011710,0.011710},
{-0.077807,-0.077807,-0.077807,-0.077807,-0.077807,-0.077807,-0.077807,-0.077807,-0.077807,-0.077807,-0.077807,-0.077807,-0.077807,-0.077807,-0.077807,-0.077807},
{-0.000854,-0.000854,-0.000854,-0.000854,-0.000854,-0.000854,-0.000854,-0.000854,-0.000854,-0.000854,-0.000854,-0.000854,-0.000854,-0.000854,-0.000854,-0.000854},
{-0.006883,-0.006883,-0.006883,-0.006883,-0.006883,-0.006883,-0.006883,-0.006883,-0.006883,-0.006883,-0.006883,-0.006883,-0.006883,-0.006883,-0.006883,-0.006883},
{0.032178,0.032178,0.032178,0.032178,0.032178,0.032178,0.032178,0.032178,0.032178,0.032178,0.032178,0.032178,0.032178,0.032178,0.032178,0.032178},
{-0.000083,-0.000083,-0.000083,-0.000083,-0.000083,-0.000083,-0.000083,-0.000083,-0.000083,-0.000083,-0.000083,-0.000083,-0.000083,-0.000083,-0.000083,-0.000083},
{-0.008270,-0.008270,-0.008270,-0.008270,-0.008270,-0.008270,-0.008270,-0.008270,-0.008270,-0.008270,-0.008270,-0.008270,-0.008270,-0.008270,-0.008270,-0.008270},
{-0.017226,-0.017226,-0.017226,-0.017226,-0.017226,-0.017226,-0.017226,-0.017226,-0.017226,-0.017226,-0.017226,-0.017226,-0.017226,-0.017226,-0.017226,-0.017226},
{-0.041679,-0.041679,-0.041679,-0.041679,-0.041679,-0.041679,-0.041679,-0.041679,-0.041679,-0.041679,-0.041679,-0.041679,-0.041679,-0.041679,-0.041679,-0.041679},
{0.012803,0.012803,0.012803,0.012803,0.012803,0.012803,0.012803,0.012803,0.012803,0.012803,0.012803,0.012803,0.012803,0.012803,0.012803,0.012803},
{-0.013623,-0.013623,-0.013623,-0.013623,-0.013623,-0.013623,-0.013623,-0.013623,-0.013623,-0.013623,-0.013623,-0.013623,-0.013623,-0.013623,-0.013623,-0.013623},
{0.000801,0.000801,0.000801,0.000801,0.000801,0.000801,0.000801,0.000801,0.000801,0.000801,0.000801,0.000801,0.000801,0.000801,0.000801,0.000801},
{-0.054622,-0.054622,-0.054622,-0.054622,-0.054622,-0.054622,-0.054622,-0.054622,-0.054622,-0.054622,-0.054622,-0.054622,-0.054622,-0.054622,-0.054622,-0.054622},
{-0.007551,-0.007551,-0.007551,-0.007551,-0.007551,-0.007551,-0.007551,-0.007551,-0.007551,-0.007551,-0.007551,-0.007551,-0.007551,-0.007551,-0.007551,-0.007551},
{-0.006674,-0.006674,-0.006674,-0.006674,-0.006674,-0.006674,-0.006674,-0.006674,-0.006674,-0.006674,-0.006674,-0.006674,-0.006674,-0.006674,-0.006674,-0.006674},
{-0.007207,-0.007207,-0.007207,-0.007207,-0.007207,-0.007207,-0.007207,-0.007207,-0.007207,-0.007207,-0.007207,-0.007207,-0.007207,-0.007207,-0.007207,-0.007207},
{-0.003485,-0.003485,-0.003485,-0.003485,-0.003485,-0.003485,-0.003485,-0.003485,-0.003485,-0.003485,-0.003485,-0.003485,-0.003485,-0.003485,-0.003485,-0.003485},
{0.016043,0.016043,0.016043,0.016043,0.016043,0.016043,0.016043,0.016043,0.016043,0.016043,0.016043,0.016043,0.016043,0.016043,0.016043,0.016043},
{0.019960,0.019960,0.019960,0.019960,0.019960,0.019960,0.019960,0.019960,0.019960,0.019960,0.019960,0.019960,0.019960,0.019960,0.019960,0.019960},
{0.017850,0.017850,0.017850,0.017850,0.017850,0.017850,0.017850,0.017850,0.017850,0.017850,0.017850,0.017850,0.017850,0.017850,0.017850,0.017850},
{0.000618,0.000618,0.000618,0.000618,0.000618,0.000618,0.000618,0.000618,0.000618,0.000618,0.000618,0.000618,0.000618,0.000618,0.000618,0.000618},
{0.000432,0.000432,0.000432,0.000432,0.000432,0.000432,0.000432,0.000432,0.000432,0.000432,0.000432,0.000432,0.000432,0.000432,0.000432,0.000432},
{-0.001505,-0.001505,-0.001505,-0.001505,-0.001505,-0.001505,-0.001505,-0.001505,-0.001505,-0.001505,-0.001505,-0.001505,-0.001505,-0.001505,-0.001505,-0.001505},
{-0.003404,-0.003404,-0.003404,-0.003404,-0.003404,-0.003404,-0.003404,-0.003404,-0.003404,-0.003404,-0.003404,-0.003404,-0.003404,-0.003404,-0.003404,-0.003404},
{-0.014043,-0.014043,-0.014043,-0.014043,-0.014043,-0.014043,-0.014043,-0.014043,-0.014043,-0.014043,-0.014043,-0.014043,-0.014043,-0.014043,-0.014043,-0.014043},
{-0.026462,-0.026462,-0.026462,-0.026462,-0.026462,-0.026462,-0.026462,-0.026462,-0.026462,-0.026462,-0.026462,-0.026462,-0.026462,-0.026462,-0.026462,-0.026462},
{0.150779,0.150779,0.150779,0.150779,0.150779,0.150779,0.150779,0.150779,0.150779,0.150779,0.150779,0.150779,0.150779,0.150779,0.150779,0.150779},
{-0.002785,-0.002785,-0.002785,-0.002785,-0.002785,-0.002785,-0.002785,-0.002785,-0.002785,-0.002785,-0.002785,-0.002785,-0.002785,-0.002785,-0.002785,-0.002785},
{-0.010009,-0.010009,-0.010009,-0.010009,-0.010009,-0.010009,-0.010009,-0.010009,-0.010009,-0.010009,-0.010009,-0.010009,-0.010009,-0.010009,-0.010009,-0.010009},
{0.001337,0.001337,0.001337,0.001337,0.001337,0.001337,0.001337,0.001337,0.001337,0.001337,0.001337,0.001337,0.001337,0.001337,0.001337,0.001337},
{-0.058534,-0.058534,-0.058534,-0.058534,-0.058534,-0.058534,-0.058534,-0.058534,-0.058534,-0.058534,-0.058534,-0.058534,-0.058534,-0.058534,-0.058534,-0.058534},
{-0.009039,-0.009039,-0.009039,-0.009039,-0.009039,-0.009039,-0.009039,-0.009039,-0.009039,-0.009039,-0.009039,-0.009039,-0.009039,-0.009039,-0.009039,-0.009039},
{0.005546,0.005546,0.005546,0.005546,0.005546,0.005546,0.005546,0.005546,0.005546,0.005546,0.005546,0.005546,0.005546,0.005546,0.005546,0.005546},
{-0.010141,-0.010141,-0.010141,-0.010141,-0.010141,-0.010141,-0.010141,-0.010141,-0.010141,-0.010141,-0.010141,-0.010141,-0.010141,-0.010141,-0.010141,-0.010141},
{-0.044890,-0.044890,-0.044890,-0.044890,-0.044890,-0.044890,-0.044890,-0.044890,-0.044890,-0.044890,-0.044890,-0.044890,-0.044890,-0.044890,-0.044890,-0.044890},
{-0.140506,-0.140506,-0.140506,-0.140506,-0.140506,-0.140506,-0.140506,-0.140506,-0.140506,-0.140506,-0.140506,-0.140506,-0.140506,-0.140506,-0.140506,-0.140506},
{-0.121885,-0.121885,-0.121885,-0.121885,-0.121885,-0.121885,-0.121885,-0.121885,-0.121885,-0.121885,-0.121885,-0.121885,-0.121885,-0.121885,-0.121885,-0.121885},
{0.023843,0.023843,0.023843,0.023843,0.023843,0.023843,0.023843,0.023843,0.023843,0.023843,0.023843,0.023843,0.023843,0.023843,0.023843,0.023843},
{-0.000581,-0.000581,-0.000581,-0.000581,-0.000581,-0.000581,-0.000581,-0.000581,-0.000581,-0.000581,-0.000581,-0.000581,-0.000581,-0.000581,-0.000581,-0.000581},
{0.016768,0.016768,0.016768,0.016768,0.016768,0.016768,0.016768,0.016768,0.016768,0.016768,0.016768,0.016768,0.016768,0.016768,0.016768,0.016768},
{-0.012175,-0.012175,-0.012175,-0.012175,-0.012175,-0.012175,-0.012175,-0.012175,-0.012175,-0.012175,-0.012175,-0.012175,-0.012175,-0.012175,-0.012175,-0.012175},
{-0.040984,-0.040984,-0.040984,-0.040984,-0.040984,-0.040984,-0.040984,-0.040984,-0.040984,-0.040984,-0.040984,-0.040984,-0.040984,-0.040984,-0.040984,-0.040984},
{-0.001470,-0.001470,-0.001470,-0.001470,-0.001470,-0.001470,-0.001470,-0.001470,-0.001470,-0.001470,-0.001470,-0.001470,-0.001470,-0.001470,-0.001470,-0.001470},
{0.009059,0.009059,0.009059,0.009059,0.009059,0.009059,0.009059,0.009059,0.009059,0.009059,0.009059,0.009059,0.009059,0.009059,0.009059,0.009059},
{-0.082322,-0.082322,-0.082322,-0.082322,-0.082322,-0.082322,-0.082322,-0.082322,-0.082322,-0.082322,-0.082322,-0.082322,-0.082322,-0.082322,-0.082322,-0.082322},
{-0.101662,-0.101662,-0.101662,-0.101662,-0.101662,-0.101662,-0.101662,-0.101662,-0.101662,-0.101662,-0.101662,-0.101662,-0.101662,-0.101662,-0.101662,-0.101662},
{0.023066,0.023066,0.023066,0.023066,0.023066,0.023066,0.023066,0.023066,0.023066,0.023066,0.023066,0.023066,0.023066,0.023066,0.023066,0.023066},
{-0.001603,-0.001603,-0.001603,-0.001603,-0.001603,-0.001603,-0.001603,-0.001603,-0.001603,-0.001603,-0.001603,-0.001603,-0.001603,-0.001603,-0.001603,-0.001603},
{0.094249,0.094249,0.094249,0.094249,0.094249,0.094249,0.094249,0.094249,0.094249,0.094249,0.094249,0.094249,0.094249,0.094249,0.094249,0.094249},
{0.061874,0.061874,0.061874,0.061874,0.061874,0.061874,0.061874,0.061874,0.061874,0.061874,0.061874,0.061874,0.061874,0.061874,0.061874,0.061874},
{0.042944,0.042944,0.042944,0.042944,0.042944,0.042944,0.042944,0.042944,0.042944,0.042944,0.042944,0.042944,0.042944,0.042944,0.042944,0.042944},
{-0.013215,-0.013215,-0.013215,-0.013215,-0.013215,-0.013215,-0.013215,-0.013215,-0.013215,-0.013215,-0.013215,-0.013215,-0.013215,-0.013215,-0.013215,-0.013215},
{-0.004092,-0.004092,-0.004092,-0.004092,-0.004092,-0.004092,-0.004092,-0.004092,-0.004092,-0.004092,-0.004092,-0.004092,-0.004092,-0.004092,-0.004092,-0.004092},
{-0.098090,-0.098090,-0.098090,-0.098090,-0.098090,-0.098090,-0.098090,-0.098090,-0.098090,-0.098090,-0.098090,-0.098090,-0.098090,-0.098090,-0.098090,-0.098090},
{-0.001644,-0.001644,-0.001644,-0.001644,-0.001644,-0.001644,-0.001644,-0.001644,-0.001644,-0.001644,-0.001644,-0.001644,-0.001644,-0.001644,-0.001644,-0.001644},
{-0.015573,-0.015573,-0.015573,-0.015573,-0.015573,-0.015573,-0.015573,-0.015573,-0.015573,-0.015573,-0.015573,-0.015573,-0.015573,-0.015573,-0.015573,-0.015573},
{0.000159,0.000159,0.000159,0.000159,0.000159,0.000159,0.000159,0.000159,0.000159,0.000159,0.000159,0.000159,0.000159,0.000159,0.000159,0.000159},
{-0.094177,-0.094177,-0.094177,-0.094177,-0.094177,-0.094177,-0.094177,-0.094177,-0.094177,-0.094177,-0.094177,-0.094177,-0.094177,-0.094177,-0.094177,-0.094177},
{0.003960,0.003960,0.003960,0.003960,0.003960,0.003960,0.003960,0.003960,0.003960,0.003960,0.003960,0.003960,0.003960,0.003960,0.003960,0.003960},
{-0.018555,-0.018555,-0.018555,-0.018555,-0.018555,-0.018555,-0.018555,-0.018555,-0.018555,-0.018555,-0.018555,-0.018555,-0.018555,-0.018555,-0.018555,-0.018555},
{0.005161,0.005161,0.005161,0.005161,0.005161,0.005161,0.005161,0.005161,0.005161,0.005161,0.005161,0.005161,0.005161,0.005161,0.005161,0.005161},
{-0.002606,-0.002606,-0.002606,-0.002606,-0.002606,-0.002606,-0.002606,-0.002606,-0.002606,-0.002606,-0.002606,-0.002606,-0.002606,-0.002606,-0.002606,-0.002606},
{0.012710,0.012710,0.012710,0.012710,0.012710,0.012710,0.012710,0.012710,0.012710,0.012710,0.012710,0.012710,0.012710,0.012710,0.012710,0.012710},
{-0.024187,-0.024187,-0.024187,-0.024187,-0.024187,-0.024187,-0.024187,-0.024187,-0.024187,-0.024187,-0.024187,-0.024187,-0.024187,-0.024187,-0.024187,-0.024187},
{0.029802,0.029802,0.029802,0.029802,0.029802,0.029802,0.029802,0.029802,0.029802,0.029802,0.029802,0.029802,0.029802,0.029802,0.029802,0.029802},
{-0.002100,-0.002100,-0.002100,-0.002100,-0.002100,-0.002100,-0.002100,-0.002100,-0.002100,-0.002100,-0.002100,-0.002100,-0.002100,-0.002100,-0.002100,-0.002100},
{-0.036672,-0.036672,-0.036672,-0.036672,-0.036672,-0.036672,-0.036672,-0.036672,-0.036672,-0.036672,-0.036672,-0.036672,-0.036672,-0.036672,-0.036672,-0.036672},
{0.018725,0.018725,0.018725,0.018725,0.018725,0.018725,0.018725,0.018725,0.018725,0.018725,0.018725,0.018725,0.018725,0.018725,0.018725,0.018725},
{-0.014722,-0.014722,-0.014722,-0.014722,-0.014722,-0.014722,-0.014722,-0.014722,-0.014722,-0.014722,-0.014722,-0.014722,-0.014722,-0.014722,-0.014722,-0.014722},
{-0.018714,-0.018714,-0.018714,-0.018714,-0.018714,-0.018714,-0.018714,-0.018714,-0.018714,-0.018714,-0.018714,-0.018714,-0.018714,-0.018714,-0.018714,-0.018714},
{-0.021526,-0.021526,-0.021526,-0.021526,-0.021526,-0.021526,-0.021526,-0.021526,-0.021526,-0.021526,-0.021526,-0.021526,-0.021526,-0.021526,-0.021526,-0.021526},
{0.009450,0.009450,0.009450,0.009450,0.009450,0.009450,0.009450,0.009450,0.009450,0.009450,0.009450,0.009450,0.009450,0.009450,0.009450,0.009450},
{-0.238138,-0.238138,-0.238138,-0.238138,-0.238138,-0.238138,-0.238138,-0.238138,-0.238138,-0.238138,-0.238138,-0.238138,-0.238138,-0.238138,-0.238138,-0.238138},
{0.005588,0.005588,0.005588,0.005588,0.005588,0.005588,0.005588,0.005588,0.005588,0.005588,0.005588,0.005588,0.005588,0.005588,0.005588,0.005588},
{-0.000150,-0.000150,-0.000150,-0.000150,-0.000150,-0.000150,-0.000150,-0.000150,-0.000150,-0.000150,-0.000150,-0.000150,-0.000150,-0.000150,-0.000150,-0.000150},
{0.033916,0.033916,0.033916,0.033916,0.033916,0.033916,0.033916,0.033916,0.033916,0.033916,0.033916,0.033916,0.033916,0.033916,0.033916,0.033916},
{-0.023567,-0.023567,-0.023567,-0.023567,-0.023567,-0.023567,-0.023567,-0.023567,-0.023567,-0.023567,-0.023567,-0.023567,-0.023567,-0.023567,-0.023567,-0.023567},
{-0.064535,-0.064535,-0.064535,-0.064535,-0.064535,-0.064535,-0.064535,-0.064535,-0.064535,-0.064535,-0.064535,-0.064535,-0.064535,-0.064535,-0.064535,-0.064535},
{0.030027,0.030027,0.030027,0.030027,0.030027,0.030027,0.030027,0.030027,0.030027,0.030027,0.030027,0.030027,0.030027,0.030027,0.030027,0.030027},
{0.018257,0.018257,0.018257,0.018257,0.018257,0.018257,0.018257,0.018257,0.018257,0.018257,0.018257,0.018257,0.018257,0.018257,0.018257,0.018257},
{-0.054881,-0.054881,-0.054881,-0.054881,-0.054881,-0.054881,-0.054881,-0.054881,-0.054881,-0.054881,-0.054881,-0.054881,-0.054881,-0.054881,-0.054881,-0.054881},
{0.009352,0.009352,0.009352,0.009352,0.009352,0.009352,0.009352,0.009352,0.009352,0.009352,0.009352,0.009352,0.009352,0.009352,0.009352,0.009352},
{0.012394,0.012394,0.012394,0.012394,0.012394,0.012394,0.012394,0.012394,0.012394,0.012394,0.012394,0.012394,0.012394,0.012394,0.012394,0.012394},
{-0.001661,-0.001661,-0.001661,-0.001661,-0.001661,-0.001661,-0.001661,-0.001661,-0.001661,-0.001661,-0.001661,-0.001661,-0.001661,-0.001661,-0.001661,-0.001661},
{-0.078615,-0.078615,-0.078615,-0.078615,-0.078615,-0.078615,-0.078615,-0.078615,-0.078615,-0.078615,-0.078615,-0.078615,-0.078615,-0.078615,-0.078615,-0.078615},
{-0.020243,-0.020243,-0.020243,-0.020243,-0.020243,-0.020243,-0.020243,-0.020243,-0.020243,-0.020243,-0.020243,-0.020243,-0.020243,-0.020243,-0.020243,-0.020243}
};
