constant float16 weights_layer_4_row_major[128*288] = {
{0.012904,0.016834,0.011748,0.007134,0.002598,0.016850,0.004638,0.025417,0.023955,-0.008823,-0.018510,0.021296,-0.004066,-0.013960,0.010604,-0.007169},
{-0.000473,0.003940,-0.002937,0.011876,0.003253,-0.005622,0.000208,-0.011132,-0.003372,-0.000015,-0.016595,0.008637,0.019426,0.017279,-0.015492,0.026697},
{0.011687,-0.006423,0.013693,-0.011021,-0.060478,-0.027138,-0.007333,-0.031207,-0.023599,0.012743,-0.022498,-0.002668,0.029178,0.014691,0.007475,-0.015848},
{0.019849,0.004910,-0.000836,0.011624,-0.019858,-0.032771,-0.006022,-0.006048,-0.011287,-0.006682,0.002001,-0.005065,0.002110,0.021799,0.017661,-0.016979},
{-0.005082,-0.014213,0.001468,-0.001878,0.008608,0.002208,-0.009103,-0.010676,-0.009380,0.014493,0.008601,-0.010548,0.011458,0.001092,-0.003317,0.010745},
{0.010018,0.011901,-0.011925,0.014080,0.003094,0.001486,0.005924,0.005326,-0.002103,-0.001873,-0.003182,0.008357,0.023878,-0.011855,-0.013604,0.000011},
{0.003634,-0.002634,-0.000310,-0.011294,-0.005392,0.003622,-0.017805,-0.007200,-0.002321,0.002994,0.007249,-0.000364,-0.006082,0.000760,-0.004377,-0.011409},
{-0.013775,-0.046359,0.027486,0.015096,0.007512,0.096631,0.125962,0.120016,0.065955,-0.031484,-0.047245,0.049665,-0.178035,-0.293585,0.007070,0.006453},
{0.000932,-0.005982,0.028474,0.025815,-0.001433,-0.008113,0.011770,-0.010983,-0.003294,0.005410,-0.006269,0.012067,0.005178,0.002234,0.029836,0.018132},
{0.007856,0.011604,-0.005824,0.015751,0.004750,0.011050,0.004367,0.008874,0.008099,-0.014979,-0.002216,0.020569,-0.002126,0.015966,0.024581,0.008266},
{0.018619,-0.002149,-0.016485,-0.006842,0.002272,-0.022341,-0.009513,0.001020,0.000262,0.007895,0.005146,-0.014504,-0.000397,0.015020,-0.002685,-0.007400},
{0.011730,-0.007841,0.005714,0.018675,0.010277,-0.000414,-0.009066,0.003002,0.002960,0.008859,0.016997,0.012461,0.015811,0.007372,0.005236,0.019345},
{-0.007598,0.004497,-0.011664,0.003470,0.000354,0.021027,0.007963,-0.004371,-0.014800,-0.004201,-0.002526,-0.025203,-0.008641,0.027366,0.026430,-0.010394},
{-0.009534,0.005739,0.009303,0.024565,0.010544,0.001621,-0.010924,0.005597,-0.171260,-0.200072,-0.178984,-0.135905,0.042621,0.100089,-0.070697,0.351913},
{0.523351,0.002349,0.017978,-0.002045,-0.011154,-0.007284,0.003722,0.002137,-0.007603,-0.009763,0.004308,0.000757,-0.006225,-0.003002,0.014557,-0.000149},
{-0.001785,0.011201,0.011419,0.003481,-0.001236,-0.014519,0.011081,-0.001247,-0.006883,0.014393,-0.009676,0.000462,0.011898,0.007591,0.001953,0.000507},
{0.001069,0.004359,-0.011903,0.012319,0.025090,-0.013681,-0.016410,-0.019227,0.003509,-0.000469,-0.031799,0.008146,-0.005463,-0.021719,0.021165,0.017559},
{0.010373,-0.001626,0.000106,0.006656,-0.002503,0.015243,0.017132,0.016036,0.033972,-0.008366,-0.000485,0.027788,0.008643,0.024573,0.022853,0.009348},
{-0.023370,0.046539,0.064918,-0.034437,-0.039444,-0.024842,-0.016327,0.004390,-0.001076,-0.067302,-0.035004,0.033308,-0.021304,-0.042293,-0.057301,-0.042136},
{0.003430,-0.027087,0.025694,0.013140,-0.017325,-0.021849,0.048661,0.052537,-0.006435,0.020173,0.000276,0.009524,0.000580,0.001024,-0.009115,0.024981},
{0.053060,-0.050541,-0.015080,0.011471,-0.040985,0.087442,0.140168,-0.023754,-0.022001,-0.021785,-0.068626,-0.126968,-0.128927,-0.025260,-0.038751,-0.004432},
{0.016261,-0.013603,-0.014124,0.018125,0.026354,0.012485,-0.031140,-0.020589,-0.027152,-0.038108,-0.014715,-0.004556,0.024309,0.016699,0.044988,-0.046522},
{0.008044,0.099014,-0.064667,-0.031398,-0.012725,-0.031966,-0.062771,-0.078078,-0.001617,-0.014072,0.081798,0.000435,0.002875,0.024674,-0.021429,-0.000312},
{0.011732,-0.000375,0.012278,0.019831,-0.025251,-0.076445,-0.005183,-0.017119,-0.036168,-0.003873,-0.020958,-0.001965,0.052228,-0.024260,-0.028648,-0.017048},
{-0.071671,-0.104451,-0.093281,0.004114,0.020819,-0.008211,-0.022130,0.013031,0.039143,0.010016,0.015161,0.025419,0.068866,-0.105383,-0.102772,0.003031},
{-0.015083,-0.012661,0.032573,0.027684,0.081227,-0.010689,-0.142764,-0.233804,0.017027,0.007669,-0.007108,0.081925,0.130105,0.135115,-0.001106,0.094859},
{0.081955,-0.045589,-0.005992,-0.007376,-0.064179,-0.096430,-0.105874,0.035039,0.071633,0.037158,-0.028523,-0.010519,0.008959,-0.033177,-0.024792,-0.019415},
{0.037886,-0.024608,0.008518,0.020557,0.001261,-0.023838,0.018780,0.011027,0.014231,-0.045825,0.259054,0.344760,-0.101636,-0.007776,0.024216,-0.114202},
{-0.188798,-0.227407,-0.003803,-0.056730,-0.084995,-0.001524,-0.025451,-0.093713,-0.029440,-0.000675,-0.023751,0.056394,0.082612,0.008803,-0.009769,0.054461},
{0.060266,0.013359,0.023871,0.005239,0.035152,0.083308,0.093045,0.002038,0.028657,0.068925,-0.043412,-0.058420,-0.049526,0.038061,0.020001,0.054374},
{-0.019549,-0.001112,0.032572,-0.028215,0.009044,0.000801,0.094234,-0.195227,-0.301459,0.046060,-0.009708,-0.022765,0.088909,0.124122,0.128435,0.072800},
{0.068346,-0.003945,0.000002,0.027716,-0.015509,0.001558,-0.018748,-0.035998,0.030338,-0.150660,-0.180580,0.037620,-0.004689,-0.050935,0.080083,0.111313},
{0.075843,-0.045062,-0.004729,0.043859,-0.075291,-0.016916,-0.006688,-0.066787,-0.053350,-0.089433,0.014948,-0.006906,-0.002992,0.024640,-0.007715,-0.008589},
{0.041409,0.052783,0.015847,0.016307,-0.029399,0.020100,0.001347,0.017030,0.017330,0.004607,0.046398,0.055570,0.017724,-0.007904,0.042131,-0.000143},
{0.029576,0.001499,0.012593,0.033264,-0.019481,0.006783,0.012311,-0.087896,-0.027798,-0.036882,-0.024195,-0.016726,-0.020657,0.015369,-0.027727,-0.030719},
{0.031620,-0.012403,-0.034846,-0.017392,0.048519,0.047278,0.062167,0.018981,0.062600,0.022838,-0.008515,-0.013780,-0.036553,0.017954,-0.024512,-0.024334},
{-0.022200,0.009894,0.122489,-0.047204,0.008066,0.084347,-0.051574,0.026321,0.068715,0.013067,-0.050784,0.013248,0.005408,-0.046651,-0.051704,-0.013834},
{-0.016014,-0.043259,0.056454,0.024343,-0.095538,0.069471,-0.016058,-0.073430,0.088618,-0.003483,-0.080620,0.048107,0.017984,-0.065602,0.063550,0.030171},
{-0.058367,-0.004124,0.009734,-0.036636,-0.019744,-0.009498,0.089407,-0.050559,-0.008048,0.105672,-0.038196,-0.029242,0.034264,-0.013803,-0.032049,-0.013505},
{0.024132,-0.042926,-0.043105,0.022193,-0.041865,-0.029818,-0.016769,-0.031504,0.034600,-0.072909,0.045962,0.057751,-0.084392,-0.026777,0.077449,-0.056670},
{-0.058748,-0.014071,-0.052671,-0.125380,-0.005741,-0.073565,-0.083301,0.008161,0.007070,-0.011440,0.029125,-0.029896,0.005761,-0.029906,-0.007774,-0.008682},
{0.015153,0.004272,0.010209,0.104794,-0.007142,0.020890,0.011290,0.054344,0.040128,0.008525,0.021881,-0.024621,-0.079006,0.013587,-0.026143,-0.072016},
{0.002516,-0.027037,-0.075888,0.024539,-0.022030,0.032533,-0.048039,-0.024566,0.005458,-0.039030,-0.027985,0.010134,0.214241,-0.012397,-0.238909,0.303287},
{0.121611,-0.349464,0.352358,0.065358,-0.263573,0.063609,-0.019488,-0.023674,0.049163,-0.008393,-0.023106,0.053807,-0.028691,-0.022882,-0.046574,-0.007926},
{0.069172,-0.061144,-0.029370,0.083258,-0.018681,0.002864,0.062449,0.038517,0.020908,-0.008602,0.026743,0.007837,-0.043747,0.056108,-0.023311,-0.012759},
{-0.001895,-0.028580,0.040276,0.005448,-0.001973,0.061422,0.025021,-0.021080,0.034112,-0.122392,-0.039320,0.160514,-0.129049,-0.028203,0.223850,-0.102315},
{0.040012,0.233567,0.001343,-0.055375,-0.043592,0.076609,-0.014227,-0.126694,0.017992,-0.047324,-0.143656,0.070582,0.038112,-0.039039,0.060093,0.043065},
{-0.069361,0.024566,0.045061,-0.007507,-0.050313,-0.044586,0.073836,-0.081779,0.033718,0.052760,-0.066847,0.013159,0.090626,0.070857,-0.000505,-0.093988},
{0.113434,0.031722,-0.101464,0.135025,-0.009268,-0.107507,0.049975,-0.020315,0.027913,0.022172,-0.028010,0.016047,0.033692,-0.024014,0.008562,0.022053},
{-0.012700,0.012338,0.030196,0.020602,-0.042899,-0.003258,-0.009460,-0.000165,0.067092,0.004423,-0.058126,0.109413,0.012155,-0.105543,0.083449,-0.002450},
{-0.105279,0.023317,0.020176,-0.050811,0.013125,-0.031364,-0.119495,0.021137,-0.040991,-0.110462,-0.023685,0.027031,0.042038,-0.038195,0.057185,-0.022557},
{-0.014168,0.063827,0.044459,-0.005612,-0.036223,0.010877,-0.012170,-0.007776,-0.035637,-0.034790,-0.022656,0.005397,0.058587,0.000514,-0.013349,0.047838},
{0.040552,-0.056845,0.025960,0.012387,0.014325,0.092949,-0.000359,-0.064361,0.063586,0.039144,-0.153934,0.100714,0.020665,-0.070608,-0.011213,0.016340},
{0.031570,0.029965,0.040476,-0.016760,0.016594,0.035453,0.025969,0.024059,0.003703,0.004681,0.023547,0.049593,-0.056551,0.045904,0.010939,-0.008714},
{0.001869,-0.059920,-0.046390,-0.020014,-0.113899,-0.091751,0.053654,0.041506,0.043910,-0.004886,0.018932,-0.031265,0.066269,-0.011566,-0.010624,0.108537},
{0.055518,0.003094,0.008489,-0.044377,-0.026288,0.011240,-0.054189,-0.014088,-0.025276,-0.017357,0.017467,-0.036205,-0.057981,-0.050941,0.030966,0.010673},
{0.058953,0.064666,0.102410,0.110466,-0.015319,-0.027195,-0.039876,0.070271,0.043280,0.049481,0.100119,0.083750,0.103395,0.004805,-0.026213,0.004032},
{0.021605,-0.001039,0.023650,0.027725,0.052797,0.039721,-0.027880,-0.029622,-0.054989,0.031412,-0.075174,-0.065003,0.064009,-0.043923,-0.050499,0.037528},
{-0.005130,-0.021223,0.034431,-0.030052,-0.014736,0.056412,-0.003630,0.010990,-0.001863,-0.049889,-0.005105,0.003601,-0.081644,-0.062110,-0.006053,-0.038778},
{-0.050390,-0.031341,-0.035412,-0.016802,-0.014061,-0.044312,0.037100,-0.000855,0.007500,0.093511,-0.005271,-0.066705,-0.077078,0.011159,-0.045937,-0.046880},
{0.044134,-0.025118,-0.003641,0.002236,-0.025623,-0.037055,-0.000979,-0.087132,-0.031043,0.016017,0.027996,0.018343,0.104469,0.079776,0.088449,0.132445},
{0.098523,0.120959,0.086499,0.120532,0.079438,-0.009931,0.035983,0.015139,0.040063,0.089249,0.054053,-0.017227,0.025375,-0.011367,-0.012043,-0.004976},
{0.013348,-0.022821,-0.006784,0.015507,0.034353,0.023059,0.050288,-0.049923,-0.038079,0.020510,-0.059607,-0.046352,0.038417,-0.002757,-0.003868,0.057632},
{-0.021201,-0.069702,-0.037946,0.000041,-0.069727,-0.030951,0.011884,-0.056987,-0.022995,0.029149,-0.021997,-0.013046,-0.015150,-0.092432,-0.072085,0.067991},
{-0.004776,0.028726,0.049391,-0.045390,-0.042843,0.072085,-0.005287,-0.004076,0.046882,0.042791,0.043002,0.016882,0.006700,-0.005471,0.002751,-0.026315},
{0.006650,0.010908,-0.062968,-0.013259,0.033638,0.046650,0.004543,0.030668,0.042791,0.048768,0.031724,0.068748,0.083863,0.051644,0.089757,0.059027},
{-0.002930,0.007863,-0.024328,-0.027376,-0.051026,-0.063072,0.040032,-0.009106,-0.015932,0.015353,-0.106041,-0.059255,0.063645,-0.042581,0.028989,-0.059845},
{-0.041752,-0.040382,-0.054959,-0.059008,-0.031606,0.017633,-0.013133,0.022594,0.034974,0.016487,0.021584,0.006869,-0.043260,-0.021630,0.056247,0.001226},
{0.045821,0.066042,-0.001189,0.009636,0.058952,-0.017802,-0.003892,0.034470,-0.047026,0.012472,-0.036240,-0.071997,-0.082471,-0.000296,-0.078301,-0.070330},
{-0.037227,0.029202,0.052458,0.002399,-0.020099,-0.034964,-0.012363,-0.046869,-0.054018,-0.011631,-0.036762,-0.076655,0.061150,-0.009154,-0.052815,0.053730},
{-0.022917,-0.085258,0.025977,-0.032128,-0.040397,-0.018215,-0.007930,-0.035143,-0.002873,-0.002894,-0.001840,0.020152,0.072475,0.056874,0.042112,-0.080474},
{-0.057964,0.027671,-0.118092,-0.053388,0.084875,-0.040305,0.011865,-0.042020,-0.014868,-0.028973,-0.023128,-0.043368,-0.023746,-0.015890,0.022824,0.098264},
{-0.050558,-0.061655,-0.071388,-0.067712,-0.089916,-0.086629,-0.023877,-0.020375,-0.044964,0.040720,0.032592,-0.005276,0.012473,0.024545,0.013143,0.016237},
{0.065893,0.022029,-0.013952,-0.007798,0.012571,0.030077,0.009588,0.008754,0.018191,0.003115,0.009892,-0.005365,0.036365,0.023434,-0.018524,0.005376},
{0.024127,-0.010755,0.009227,0.017944,-0.053575,-0.021413,0.002974,0.039686,0.084548,0.078594,0.036792,0.056895,0.037680,-0.028950,-0.017207,0.006558},
{-0.029381,-0.001303,-0.004136,-0.015858,0.024394,-0.015984,0.012197,-0.002961,0.007237,-0.000939,-0.021217,-0.029803,-0.020874,-0.019980,-0.043770,-0.012057},
{0.004674,0.021393,-0.029448,-0.002876,-0.012266,-0.008326,0.027346,0.027622,-0.004865,-0.002493,0.008548,0.043456,-0.008432,0.007412,0.024562,0.012941},
{-0.026799,0.019558,0.005745,0.033489,0.009284,-0.028179,0.006936,0.000743,0.015031,0.043222,-0.013234,-0.018558,-0.010874,0.047785,0.053771,0.073880},
{0.033190,0.036060,0.075790,0.014819,-0.003942,-0.022497,0.014046,-0.013544,0.011536,-0.022908,-0.027450,0.006549,-0.024026,-0.007006,-0.016530,0.040846},
{0.038772,0.006389,0.009033,0.023005,0.004950,0.020010,0.031180,0.018958,0.009267,0.005765,-0.008262,0.003688,0.005240,-0.002543,0.014165,0.036215},
{0.057744,0.043083,0.020047,0.012000,0.034191,0.019285,0.010443,0.021390,0.029950,0.006476,0.043765,0.037046,0.035097,0.041168,0.021926,0.027953},
{0.015839,-0.007798,0.001223,0.036746,-0.008193,0.007066,-0.018635,0.006851,0.015690,-0.019723,-0.018153,0.008807,0.030489,0.023676,0.032931,0.016149},
{0.038050,0.034311,0.015037,0.031657,0.043157,0.032398,0.065604,0.087341,0.037439,0.063004,0.053920,0.036166,0.005927,-0.026651,0.015929,0.007220},
{0.012745,-0.017310,-0.015425,0.011305,-0.022100,-0.022030,-0.037464,-0.034858,-0.029009,-0.018741,-0.054039,-0.055799,-0.023719,-0.012125,0.003779,-0.016479},
{-0.012342,0.001325,-0.029147,0.012685,0.017092,-0.001914,-0.054767,0.004073,0.011531,0.010479,0.028494,0.009911,0.022384,0.011773,-0.016890,0.032740},
{0.050280,0.016583,-0.009969,0.010871,0.021962,-0.003697,0.001948,0.027030,-0.009642,0.023009,0.013591,0.031624,0.046436,0.029814,0.029095,0.016276},
{0.000033,-0.022891,0.006412,0.031684,0.031253,0.039733,0.036473,0.043478,0.038007,0.042081,0.000625,0.002813,0.006631,0.005682,0.008788,-0.005983},
{0.006181,-0.002039,-0.006973,-0.026738,-0.010421,-0.015013,-0.056470,-0.042772,-0.062316,-0.042338,-0.026794,-0.032737,-0.004133,0.031374,0.044178,0.000593},
{0.039336,0.042288,0.006248,0.020952,0.044097,0.014191,0.024554,0.002861,-0.006035,0.014358,0.003580,0.026973,0.036576,0.033898,-0.016912,0.001889},
{-0.050286,-0.060083,-0.054811,-0.070830,-0.032843,0.009727,-0.046178,-0.006735,-0.021574,0.026114,0.009077,0.032913,0.037616,0.061298,0.054450,0.053466},
{-0.033450,0.025523,0.013216,0.073446,0.170737,0.066892,-0.026417,-0.140698,-0.095175,-0.137590,-0.012391,0.068162,-0.068560,-0.002073,-0.000394,0.030683},
{-0.040240,-0.181215,0.024195,0.137791,-0.001220,-0.161028,0.044080,-0.107354,-0.047683,0.263145,0.036452,0.002148,0.028197,0.045874,-0.020246,-0.114339},
{0.003563,0.044437,0.053116,0.091658,-0.054362,0.022992,-0.090607,-0.033537,0.107945,-0.019740,-0.125478,-0.022078,-0.041149,0.063106,-0.025666,-0.076616},
{0.078304,0.039868,0.044102,-0.085504,-0.073057,0.067889,-0.081379,-0.127404,0.083202,-0.000578,-0.017126,0.058450,0.119360,-0.034815,-0.096670,-0.016699},
{-0.025002,-0.064096,-0.074415,0.149050,0.261612,-0.073473,-0.182879,-0.109592,0.043633,0.075020,-0.115914,-0.054310,0.016729,0.036850,-0.150548,0.088204},
{0.190626,-0.094882,0.003401,-0.009139,-0.059317,0.075933,-0.011419,-0.057348,0.000032,-0.002079,-0.033524,0.018319,0.002797,-0.127204,0.072943,-0.084617},
{-0.077382,0.245409,-0.072910,-0.103406,0.030967,0.061360,-0.071926,0.008675,-0.060061,0.117154,0.091700,-0.140523,0.091271,0.025534,0.031547,-0.029405},
{-0.318951,-0.024483,0.059500,0.056270,0.120358,0.024626,-0.057503,0.044589,0.015011,-0.136403,0.001216,0.063810,-0.024227,0.031774,-0.037323,-0.033170},
{-0.090754,-0.060775,0.022500,-0.122819,-0.079144,-0.064671,-0.048698,0.037721,0.019071,0.018225,0.021503,-0.085016,-0.028136,0.035013,0.018527,0.048702},
{-0.042386,0.083466,-0.061049,-0.092574,0.061120,-0.094008,-0.023512,0.097055,-0.043574,-0.013203,0.068675,-0.026880,-0.026099,0.026952,-0.095953,0.026389},
{-0.014768,-0.074178,-0.086583,0.050080,0.048471,-0.082364,-0.060384,-0.016351,0.091908,-0.008103,-0.047684,-0.065190,0.030301,0.115721,0.087640,0.053694},
{-0.007593,0.179531,0.179915,-0.093407,-0.085814,-0.052175,-0.082436,0.046907,0.116676,-0.119617,-0.076376,0.001973,-0.112017,0.060076,-0.026290,0.014893},
{-0.046877,-0.161795,-0.053376,0.001018,0.063840,0.015207,-0.060355,-0.003624,-0.081097,-0.027054,0.272918,0.059577,-0.131627,-0.001966,-0.076418,-0.112925},
{-0.038344,0.056339,0.091685,-0.028631,-0.013457,0.127172,-0.033453,-0.156418,-0.041178,0.000451,-0.029672,-0.000967,0.162564,-0.010917,-0.027522,0.104017},
{-0.060186,-0.024033,-0.042934,-0.057427,-0.052798,-0.049977,0.002608,-0.093754,-0.053911,-0.002898,0.088199,-0.035258,-0.116299,0.007706,0.019185,0.055514},
{-0.117840,-0.024129,0.177376,-0.003903,-0.076294,-0.045795,0.093661,0.040072,0.125244,0.006902,-0.099837,0.014698,0.020031,-0.015905,0.054395,0.018695},
{-0.093121,0.023059,0.089846,0.019580,0.053996,-0.055175,-0.106263,0.055774,0.241125,-0.063399,0.068490,0.020307,-0.093053,0.018625,0.002906,-0.055307},
{0.022550,0.075380,-0.002369,0.132555,-0.075519,-0.110449,-0.015396,0.116073,-0.013552,-0.114365,0.026206,-0.052236,0.014809,-0.185675,-0.024385,0.127425},
{0.016552,0.147074,0.056872,-0.048708,-0.042576,-0.006110,-0.022164,0.011999,0.069612,-0.063873,0.042615,0.123979,-0.116836,-0.015632,-0.130926,-0.067349},
{-0.233970,-0.297178,0.029801,0.010052,-0.131802,-0.061461,0.174319,-0.104805,0.056571,0.363064,-0.028433,0.035638,0.101483,-0.076910,-0.060669,0.014770},
{-0.017719,0.124386,0.247492,0.015667,0.066504,0.204323,-0.134295,-0.031621,0.099555,-0.140441,-0.193924,-0.115784,-0.168462,0.098377,0.009809,0.029882},
{-0.106801,-0.009825,0.134633,-0.063438,-0.052465,0.131500,-0.076471,-0.033067,0.133918,0.036978,-0.050358,-0.050637,0.109525,-0.017670,0.072705,-0.056561},
{0.031690,0.025583,-0.063723,0.048023,-0.025499,-0.232412,-0.186191,-0.103780,0.027294,-0.030648,-0.097651,-0.181730,0.145241,0.059486,-0.083017,0.141935},
{0.103423,-0.077946,-0.045685,-0.051438,0.055367,0.064988,-0.038605,-0.058559,-0.086169,0.051809,-0.027685,0.037985,-0.133391,-0.042719,0.164936,-0.208277},
{-0.126591,-0.034220,-0.109245,-0.108267,0.059546,-0.027289,0.121726,-0.054097,-0.096846,0.162166,-0.107595,-0.098113,-0.080533,-0.092268,-0.142136,-0.090023},
{0.028968,0.040846,-0.039086,0.147734,0.134071,-0.049566,-0.085700,0.087262,-0.079578,-0.182080,0.040084,0.017499,0.029504,0.097237,-0.012187,-0.144590},
{-0.152873,-0.088521,0.056395,-0.151841,-0.056284,-0.073134,-0.087932,0.066748,0.012166,0.074715,0.029359,0.083993,0.151528,-0.154509,0.082753,0.134210},
{-0.035469,0.059724,-0.045608,-0.044563,-0.019313,-0.029938,0.040791,0.059140,0.097812,-0.007150,0.096840,-0.050276,0.208634,0.381705,0.009101,0.023526},
{-0.031665,-0.125147,-0.080881,0.051878,-0.021074,0.077847,-0.017175,-0.308773,0.143916,-0.128584,-0.222377,-0.120448,-0.006165,-0.022275,0.140124,-0.023633},
{-0.213601,0.099387,0.011586,-0.065443,0.140953,0.106456,-0.018622,0.177659,0.177153,-0.058388,0.040862,0.043217,-0.004168,0.087972,0.111971,0.024151},
{0.093373,0.095003,0.038840,-0.017318,0.114687,0.007535,-0.003355,-0.160334,0.070572,-0.124121,-0.107124,0.076579,0.053981,0.118728,0.131271,-0.106651},
{-0.027794,0.050297,0.246614,-0.142644,-0.121524,0.014599,-0.182470,-0.167532,-0.071923,-0.092987,0.071059,-0.127557,-0.154943,0.000563,0.081127,0.073914},
{0.071108,-0.001031,-0.069341,-0.075543,-0.060802,0.052327,0.220606,-0.102674,-0.048951,-0.104068,-0.022969,-0.070483,-0.098896,-0.124777,0.135139,0.145842},
{-0.167336,-0.002233,0.124906,0.050131,-0.107951,0.059033,-0.078946,-0.155842,0.158981,0.016810,-0.126093,-0.095124,-0.021884,0.067703,0.084306,0.034166},
{0.012720,0.078961,0.044795,-0.122280,-0.121483,-0.042072,-0.111564,0.095594,0.070468,-0.127137,-0.021426,0.015035,-0.289817,-0.151577,0.008651,-0.043219},
{0.049138,-0.091599,-0.035661,0.084011,-0.103787,-0.128654,-0.108278,0.071954,-0.100988,-0.099800,-0.102498,-0.018347,-0.080923,-0.231898,-0.084287,0.023690},
{0.097074,0.087714,0.044893,0.026726,0.088424,0.038607,0.077744,0.100234,0.029968,-0.029591,0.054585,0.027284,-0.053780,-0.016350,-0.014480,0.006231},
{-0.051448,-0.013948,0.039570,0.015271,0.048946,0.023254,0.082657,0.117012,0.090741,0.051999,0.079006,-0.011446,-0.024986,-0.008286,0.027252,0.029561},
{0.001187,0.031017,0.047429,-0.020539,-0.027863,0.033211,0.020363,-0.002099,0.024984,0.015539,0.001570,-0.007903,-0.017852,-0.016586,0.001960,0.007879},
{0.028702,-0.024152,-0.044153,-0.026238,-0.029244,0.010235,0.095632,0.083497,0.059830,0.112878,0.093094,0.092753,0.044949,0.150769,0.123528,0.028944},
{-0.035543,-0.059321,-0.029504,-0.063528,-0.102895,-0.073856,-0.033267,0.002736,0.104986,0.096599,0.079529,0.098775,0.181638,0.232946,0.177468,0.171824},
{0.109820,-0.046087,-0.037104,0.043388,0.022423,-0.034947,-0.054456,-0.038693,-0.035736,0.128552,0.005793,0.000273,-0.004032,-0.058430,0.011469,0.049926},
{0.051663,0.037650,-0.115479,-0.130836,-0.138088,-0.122361,-0.173872,-0.149772,-0.192820,-0.173964,-0.184341,-0.163296,-0.017179,0.021727,0.085873,0.090403},
{0.047455,0.091329,0.038196,0.014882,0.133201,0.008129,0.009094,0.037396,-0.003881,-0.042877,-0.019475,-0.024045,-0.046742,-0.025855,-0.043769,-0.061423},
{-0.087763,-0.053783,-0.047278,-0.059819,-0.048002,0.005198,-0.028809,-0.011390,0.073500,0.034667,-0.025747,0.025282,0.008290,0.004734,0.000056,0.039731},
{0.007402,0.003009,0.004009,-0.011763,0.089988,0.104621,0.043149,0.021502,-0.019336,-0.022179,0.005832,-0.007303,-0.040986,0.059406,0.062191,0.011438},
{0.043139,0.006948,-0.052185,-0.008592,-0.023224,-0.025963,-0.068232,-0.101918,-0.033942,-0.093855,-0.004049,-0.119252,-0.116609,-0.114282,-0.165461,-0.224355},
{-0.220313,-0.172388,-0.120152,-0.141806,-0.016717,-0.037353,0.019965,-0.003052,-0.028252,0.011160,0.033147,-0.007513,-0.001594,-0.044364,0.015933,0.070357},
{-0.000413,0.019611,0.082410,0.020284,0.003681,0.058188,-0.028555,-0.034890,-0.018028,0.003188,0.031800,0.037584,0.059703,-0.032081,-0.021567,0.121813},
{0.081229,0.131209,0.145932,0.080180,0.105688,0.105159,0.112258,0.067845,-0.015698,-0.007114,-0.037225,-0.015213,0.035413,0.018268,0.030157,0.041286},
{0.023807,0.044908,0.019050,-0.005920,0.017872,-0.105299,-0.070793,-0.015600,-0.006529,0.001996,-0.103027,-0.112838,-0.121151,-0.161806,-0.157422,-0.137682},
{-0.125432,-0.152075,-0.122649,-0.020876,-0.015064,-0.028659,-0.019981,-0.064054,-0.098029,-0.097162,-0.033397,-0.002795,0.012697,-0.014485,-0.054632,-0.007707},
{0.021962,-0.032992,-0.021368,0.030411,-0.009147,0.056607,0.106209,0.077173,0.041737,-0.012277,-0.019999,0.036682,0.065052,0.091856,0.003817,-0.005865},
{-0.015927,0.053519,-0.040768,-0.019529,0.003631,0.046045,-0.001965,-0.047789,-0.076865,-0.032027,-0.067607,-0.042222,-0.025208,-0.049502,-0.066946,-0.075375},
{-0.051691,-0.099964,-0.023651,0.098224,0.085379,0.067033,0.034425,0.008697,0.030793,-0.155742,-0.164043,-0.117321,-0.035278,0.046819,0.035321,-0.053184},
{0.021883,-0.018591,0.029953,0.006988,0.043187,0.038185,0.097850,0.053285,-0.094420,0.019947,-0.057260,0.029262,0.050660,0.100650,0.129697,0.086927},
{0.123443,-0.005353,-0.051185,-0.057677,-0.039254,-0.062716,-0.051537,-0.036789,-0.014467,0.000835,0.068761,0.072298,0.031554,-0.033236,0.019198,-0.019777},
{0.026946,0.025143,-0.033485,0.027583,0.060800,0.046860,-0.018301,-0.044278,-0.051339,-0.047176,-0.036223,-0.014231,0.025415,0.049713,0.023932,-0.137760},
{-0.145912,-0.116884,-0.028577,0.051102,0.087919,0.032507,-0.012679,0.024970,0.012630,0.041691,0.087313,0.117367,0.052475,-0.074636,-0.017396,-0.012988},
{-0.004669,-0.013394,0.044408,0.018674,0.015824,0.012236,0.033715,-0.000288,0.013977,0.037651,0.014108,-0.004150,0.019567,0.041282,0.019449,-0.001459},
{-0.084125,-0.036555,-0.078898,0.016293,-0.052552,-0.004318,-0.076921,-0.040010,0.019725,0.014468,0.049864,0.028454,0.062677,0.062416,0.110288,0.057233},
{0.010414,-0.016379,-0.030078,-0.049145,-0.061651,-0.111911,-0.091689,-0.078010,0.034456,0.078619,0.075573,0.081814,0.067030,0.041101,-0.047460,-0.028975},
{-0.012510,0.009432,0.009215,-0.012422,-0.007726,0.035548,-0.047133,-0.076054,-0.044538,-0.055618,0.030508,-0.006212,-0.016624,0.031428,0.032333,-0.004970},
{0.024020,0.075149,0.068678,0.028782,0.009969,-0.005297,-0.055779,0.008314,-0.044832,0.092065,0.075186,0.112138,0.099116,0.089701,-0.003899,-0.102551},
{-0.118258,-0.184980,0.082732,0.012306,0.005623,-0.100186,-0.014391,-0.008556,-0.069898,-0.060542,-0.102288,0.036623,0.031183,0.026671,-0.026988,0.049275},
{0.099531,0.001787,0.021052,-0.020555,-0.024038,-0.073715,-0.060120,-0.026719,0.031171,-0.022125,0.075548,0.045920,0.005324,0.219990,0.218500,0.191617},
{0.045372,-0.098563,-0.070969,-0.118531,-0.120834,-0.148314,0.069662,0.091020,0.087673,0.079262,-0.052015,-0.049679,-0.056125,-0.088721,-0.091592,-0.116670},
{-0.185244,-0.088201,-0.030647,-0.015425,0.031892,0.074890,0.080152,0.019300,0.041213,0.052851,0.061920,0.028839,0.000280,0.021054,-0.038034,-0.071831},
{-0.033587,0.007077,-0.008213,-0.001322,0.061850,0.010443,0.066622,0.069883,-0.020719,0.010396,-0.017940,-0.067686,-0.098918,-0.003534,-0.053064,-0.065581},
{-0.023240,-0.007683,0.018525,-0.036231,-0.072774,-0.076208,-0.029683,0.050094,0.081737,0.067781,0.091337,0.076680,-0.042742,-0.036770,-0.063187,0.021100},
{-0.045662,-0.005544,0.003280,0.021373,-0.008498,-0.093310,-0.126650,-0.122193,0.025991,0.003762,0.064058,0.045732,0.003782,0.052787,-0.051739,-0.135681},
{-0.093023,0.010592,-0.013037,0.041280,0.064925,0.045251,0.082021,-0.037732,-0.028980,-0.052451,0.018302,-0.012145,-0.027324,-0.006731,0.023189,-0.040557},
{0.026177,-0.003635,0.029035,-0.000470,0.011441,0.030737,0.022278,0.023266,0.055836,-0.004618,0.013632,0.020828,0.003686,-0.003277,0.025371,0.003192},
{-0.005879,0.011879,0.008498,-0.004413,0.006071,0.010413,-0.021561,-0.015020,0.004492,-0.010264,-0.032710,-0.020467,-0.013909,-0.000239,-0.021407,-0.020618},
{-0.001129,-0.010559,-0.015093,-0.034530,-0.165407,-0.145991,-0.201194,-0.153463,0.052748,0.016350,-0.244374,0.103515,0.870118,-0.001608,0.041580,0.010411},
{0.003327,0.022961,-0.033657,0.002922,-0.043090,0.112988,0.005750,-0.002313,0.000245,0.010721,0.003692,-0.015890,-0.004301,-0.014387,-0.006680,-0.009195},
{0.000329,0.016855,-0.015016,-0.013519,-0.006879,-0.001365,0.004909,-0.001909,-0.010605,-0.007420,0.000148,0.008493,0.007139,-0.006134,0.001496,0.002505},
{-0.009257,0.016476,0.017879,0.026925,0.015764,0.011141,0.028532,0.028423,0.027854,0.005630,0.004337,0.009199,-0.015496,0.002344,-0.021246,-0.008353},
{-0.007397,-0.017180,-0.017387,0.003238,-0.004381,-0.004872,0.002836,-0.001063,0.001847,-0.003520,-0.001528,-0.014688,0.019214,0.010839,0.004658,-0.015762},
{0.002734,0.009195,0.014237,-0.009359,-0.051792,-0.001179,-0.019379,-0.002227,0.001839,-0.003105,-0.001382,0.022248,0.018063,-0.014335,0.020579,0.011756},
{0.027241,0.028698,-0.008471,0.024901,-0.000146,0.030194,-0.007164,0.004733,0.013691,0.028666,0.015072,0.020208,0.022178,0.013604,0.026231,0.011260},
{0.018450,0.000904,0.015384,-0.001458,-0.007893,0.012699,-0.006539,-0.005563,0.005264,-0.005560,0.005707,0.024327,-0.011989,0.014953,0.026890,-0.000465},
{0.019969,0.043887,-0.020186,-0.003861,0.008047,-0.003113,-0.007099,0.008767,-0.034891,0.001657,0.008455,0.002430,-0.005120,0.004491,-0.001949,0.012839},
{-0.001036,0.023667,0.011197,0.003881,-0.008794,-0.013956,0.000210,-0.003551,0.001223,-0.000252,-0.016892,-0.017113,-0.001323,0.010626,0.012400,0.009065},
{0.030279,0.015509,0.007235,0.003926,-0.013476,-0.009834,-0.007709,0.012735,0.060882,0.009447,-0.019004,-0.062564,0.014682,-0.079989,-0.124648,-0.011605},
{-0.002453,-0.000795,-0.002909,0.000368,0.007235,-0.003528,0.005767,0.019565,-0.071733,-0.042189,0.009590,-0.045462,-0.015302,0.067362,-0.010655,-0.007447},
{0.067023,0.005098,0.022104,0.025048,0.007828,-0.008132,-0.004932,0.030584,0.001328,-0.070531,0.016095,0.005430,0.017989,-0.002547,0.018139,0.019530},
{0.003219,0.020212,0.013396,-0.004041,-0.004231,0.001319,-0.005395,-0.008926,-0.020224,-0.003370,0.026914,0.012100,0.008295,0.011717,0.012097,0.004814},
{0.015112,0.036245,0.014359,0.004969,0.017382,-0.006757,-0.025674,-0.013455,-0.013925,-0.013482,-0.008411,0.011621,0.003598,-0.047115,0.001339,0.009123},
{-0.002827,0.021509,-0.011413,-0.007960,0.014108,0.011135,-0.019517,0.011695,0.012162,0.003387,0.002459,0.014465,0.008235,0.004688,0.011206,-0.036111},
{-0.020665,-0.012916,-0.060386,-0.048286,-0.039625,-0.071350,-0.047735,-0.036106,-0.064761,0.007589,0.023493,0.013213,-0.009228,-0.048414,-0.023127,-0.064562},
{-0.081332,-0.099195,-0.016493,0.005650,0.049240,0.025903,0.033783,0.038951,0.047418,0.089703,0.068030,-0.025588,-0.013793,0.003138,0.083525,0.084510},
{0.097678,0.031062,0.049288,0.056474,0.004029,0.013939,-0.001269,-0.007296,0.011407,0.026366,-0.000902,0.023572,0.030907,-0.004736,-0.005873,-0.015139},
{-0.031296,-0.008241,-0.008175,-0.002282,-0.008896,-0.015391,0.013266,-0.004906,-0.005659,-0.013886,-0.029944,-0.029237,0.007954,-0.019656,-0.019444,0.017888},
{0.037636,-0.008873,0.025583,0.022587,-0.019164,-0.006872,0.009373,-0.013179,0.008540,0.016083,0.052596,0.034808,0.037313,0.051477,0.038480,0.045433},
{0.042084,0.017888,0.000316,0.014062,-0.037842,-0.024498,-0.008094,-0.023695,-0.011810,-0.000143,0.016028,0.006452,0.045663,0.001382,-0.010443,-0.019833},
{-0.070540,-0.072159,-0.067238,0.006133,0.000416,-0.023355,0.043492,0.031181,0.021928,0.037044,0.069637,0.069602,-0.030541,0.001085,-0.003543,0.019841},
{0.111442,0.101705,0.045482,0.131457,0.118179,-0.001551,-0.003910,-0.012486,0.013615,0.026483,0.024806,0.036094,0.051151,0.042940,-0.013074,-0.021897},
{-0.036441,-0.080378,-0.102671,-0.068725,-0.087329,-0.128366,-0.058549,-0.029332,-0.016810,-0.017767,-0.040125,-0.014836,-0.031929,-0.054069,-0.047799,-0.056170},
{-0.002400,0.024979,-0.000984,0.051695,0.050316,0.064700,0.058072,0.123270,0.087808,0.030434,0.032357,0.023941,0.020907,0.016808,0.025039,0.021982},
{0.029376,0.057032,0.008463,0.036553,0.018221,0.018602,0.000656,-0.000855,0.041346,0.049161,0.001483,0.022024,0.007457,-0.016201,0.041324,0.054860},
{0.049915,0.010103,0.037159,0.001892,0.026175,0.038456,0.027866,-0.041631,-0.049105,-0.046671,-0.138695,-0.104426,-0.065044,0.047588,0.028229,0.028723},
{0.047543,0.053870,0.076643,0.118110,0.151175,0.147249,-0.027091,0.003234,0.011225,-0.001822,0.038479,0.012557,-0.016389,0.015174,0.010772,0.010773},
{0.002711,-0.019159,-0.037137,-0.039079,-0.063640,-0.060725,-0.067992,-0.064136,-0.011362,0.035745,0.028235,0.026501,0.059223,0.042238,0.011440,0.038332},
{0.026249,0.023744,0.011699,-0.008527,-0.052170,-0.020546,-0.045103,-0.071786,-0.059506,-0.067800,-0.009560,-0.004143,0.009647,-0.007570,0.023151,0.022178},
{0.023844,0.038314,0.052619,-0.017003,-0.043143,-0.061140,-0.054990,-0.094574,-0.112956,-0.107216,-0.126167,-0.100830,-0.033623,-0.031737,-0.049035,-0.067950},
{-0.067791,-0.082632,-0.063886,-0.067004,-0.100784,-0.001899,0.009746,-0.017375,-0.027948,-0.042122,-0.039475,-0.030749,-0.054666,-0.026924,-0.040200,-0.048582},
{-0.064954,-0.057054,-0.049556,-0.051580,-0.060684,-0.021175,-0.001621,0.019641,-0.012912,-0.026960,-0.041189,-0.058364,-0.044665,-0.052699,-0.048558,-0.023261},
{-0.022270,0.033290,0.000154,0.047631,0.106567,-0.010513,0.006149,-0.104959,-0.072242,-0.115289,-0.214625,-0.077508,-0.029636,0.156026,0.023359,0.011571},
{0.105685,-0.055279,0.185403,-0.058974,-0.082929,0.164259,-0.207680,-0.048103,-0.008205,-0.261292,0.023477,-0.097084,-0.025725,0.020164,-0.025699,-0.068462},
{0.019357,-0.048391,-0.019396,0.082271,0.062628,0.063276,-0.006995,0.039211,-0.029802,-0.069369,0.019547,-0.000629,-0.012735,0.052268,0.131255,0.031528},
{0.010741,-0.011114,-0.120962,-0.015642,-0.161838,-0.109215,-0.139877,-0.107473,-0.075165,-0.026229,0.214138,0.189486,0.008493,0.227085,0.045618,0.042353},
{0.100667,-0.031504,0.027144,-0.092975,-0.076852,-0.065000,-0.174210,-0.227391,0.002733,-0.035539,0.044203,0.093846,-0.047147,-0.129243,0.164965,0.036835},
{-0.014124,0.028455,-0.086870,-0.033783,-0.023532,-0.109554,0.030033,0.043805,-0.089090,0.030078,0.010162,-0.072650,-0.050669,-0.074301,-0.210755,-0.036638},
{-0.139490,-0.150938,0.071580,-0.112948,-0.167207,-0.076546,-0.268878,-0.206395,0.158221,-0.070158,0.124591,0.308077,0.021104,-0.028300,-0.024431,0.096521},
{0.012449,-0.080536,0.050547,0.076187,0.003732,0.083991,-0.028735,-0.121221,0.063766,-0.006945,-0.116238,0.063830,0.015920,-0.048163,-0.034635,-0.076286},
{-0.004027,-0.118043,-0.207746,0.000263,-0.053197,-0.125777,-0.002291,0.006538,0.041526,0.016834,0.080855,0.110294,-0.005853,-0.009835,0.018042,-0.013391},
{0.123440,-0.044866,-0.057392,0.112148,-0.127442,-0.037823,0.021893,-0.125922,0.010412,-0.055295,-0.051813,0.042989,-0.070817,0.003148,0.100337,-0.017047},
{0.078283,0.105013,-0.043836,-0.165619,-0.100050,-0.156534,-0.055812,0.040988,-0.013986,0.057186,0.022423,-0.123712,-0.149230,-0.035364,-0.226747,-0.021731},
{0.148818,-0.048277,0.120404,0.227473,-0.026817,-0.057922,0.014551,-0.029085,-0.056355,0.024739,-0.013219,-0.098634,0.000039,-0.032518,0.036230,0.054373},
{-0.076627,0.037430,0.027935,-0.040663,0.105415,0.048009,0.040506,0.027919,0.076124,0.035425,0.022275,0.032540,0.037090,-0.081110,-0.055726,-0.216986},
{-0.144702,-0.015376,0.030110,0.374416,0.177388,0.111728,0.221952,-0.024667,-0.042371,-0.077058,-0.003077,-0.018968,-0.002448,0.062651,0.005788,-0.012280},
{0.006964,0.050465,0.059213,-0.011050,-0.017050,-0.025539,-0.083117,-0.112231,-0.207269,-0.075945,0.013744,0.151443,0.144435,-0.066929,-0.140253,0.025798},
{0.057396,0.071751,0.009758,0.073061,0.163488,0.087765,-0.006737,0.003800,-0.129245,-0.077702,-0.144099,-0.130827,0.023904,0.020828,-0.002840,0.067149},
{0.101206,0.056322,0.069692,0.077130,0.075923,-0.008728,0.067023,-0.069528,0.134545,0.236555,-0.040483,-0.024280,-0.190887,-0.170160,0.182091,0.137088},
{0.006943,0.046170,0.040751,-0.128971,-0.088262,-0.219427,-0.128037,0.022112,0.134922,0.059333,-0.139014,-0.218533,-0.046810,-0.076450,-0.160906,-0.089319},
{0.011369,0.020098,0.025071,-0.000392,0.003535,-0.022159,-0.035489,-0.026701,-0.022123,-0.031482,-0.032932,-0.013784,-0.063832,-0.055647,-0.024976,-0.093350},
{-0.094469,-0.058639,-0.043831,-0.033652,-0.010121,-0.033242,-0.038518,-0.048373,-0.024376,-0.020812,-0.030123,0.024434,0.050424,0.038989,0.008292,0.017994},
{0.005386,-0.033908,-0.013404,0.000502,0.040756,0.069764,0.046736,0.060096,0.116637,0.038331,-0.035102,-0.015591,-0.003758,-0.048891,-0.054930,-0.044448},
{-0.051941,-0.073028,-0.063684,-0.052328,-0.033552,-0.041580,-0.017962,-0.009080,-0.008873,0.006067,0.012169,0.002301,0.004065,0.029278,0.022591,-0.013594},
{-0.016001,-0.033307,-0.017536,0.017991,0.016592,-0.004648,-0.022178,-0.026911,0.019210,0.026648,0.024112,-0.001266,0.039203,0.025795,0.003160,0.048727},
{0.039402,-0.025134,-0.066082,0.018514,-0.054389,-0.064902,-0.002199,0.003469,-0.001611,0.033429,-0.028232,-0.041833,-0.050647,-0.049946,-0.021838,-0.061007},
{-0.075563,-0.052034,-0.072018,-0.006037,0.008660,0.011559,0.007176,-0.008947,-0.004134,0.018984,0.000311,0.000185,-0.016423,-0.020940,-0.025300,-0.058658},
{-0.100423,-0.065834,-0.056962,-0.052850,-0.060495,0.016908,0.009579,0.006014,0.019581,0.029608,0.039186,0.006896,0.037511,0.032159,-0.033616,-0.037198},
{-0.044215,-0.030496,-0.048654,-0.057962,-0.035362,-0.013866,-0.026067,0.033497,0.027689,-0.002260,0.068565,0.018939,-0.006985,0.014554,0.016076,0.063280},
{-0.005805,0.012354,-0.001185,-0.011515,-0.005215,-0.014368,-0.035828,-0.003529,-0.020079,-0.011103,-0.032597,-0.030518,0.037645,0.008409,0.015864,0.043837},
{0.046455,0.036044,-0.041847,-0.038065,-0.039566,-0.032807,-0.055426,-0.031543,-0.014721,-0.023134,-0.027237,0.007343,0.024810,0.026977,0.020507,0.014307},
{-0.002663,0.009637,-0.005120,0.007975,0.033629,0.040477,0.051040,0.070567,0.118736,0.086208,0.076832,0.100312,0.079561,0.047528,0.003209,0.029042},
{0.050987,0.061736,0.073707,0.048430,0.051507,0.065979,0.018872,-0.027884,-0.025145,0.025132,0.018908,0.035631,0.034395,0.052168,0.052413,0.023718},
{-0.010274,0.002226,-0.002029,0.018991,-0.018059,0.031769,0.028066,-0.001658,-0.003887,-0.009131,-0.008412,0.009890,-0.011087,-0.001502,0.037883,0.031811},
{0.028640,-0.043082,-0.054722,-0.042307,-0.041047,-0.011402,-0.032028,-0.053664,-0.031619,0.004405,-0.010483,-0.008939,-0.001353,-0.003699,0.002432,0.026769},
{-0.021527,-0.004556,0.008361,0.042926,0.035370,0.038949,0.029458,0.023333,0.024257,0.045684,0.054582,0.046525,0.015808,0.003639,0.044672,-0.006470},
{0.049420,0.056743,0.043500,0.048165,0.052626,-0.033511,-0.021811,-0.032291,-0.028464,-0.017434,-0.030839,-0.024055,-0.023597,-0.033855,-0.000839,-0.007251},
{-0.004317,0.011786,-0.009219,0.009603,-0.008746,-0.004736,0.020480,0.025178,-0.006114,-0.024661,-0.004644,-0.022359,-0.056358,-0.032717,-0.065330,-0.049274},
{0.028426,0.032567,0.065166,0.018086,0.073428,-0.064750,0.071277,-0.118646,-0.076307,-0.027308,-0.023397,0.025920,0.039636,0.234087,0.206330,-0.046176},
{0.052911,0.220336,0.024231,0.006868,0.007859,-0.007970,-0.011518,-0.010346,0.001958,-0.045000,-0.050301,-0.004320,0.001138,0.032214,0.022121,0.090039},
{0.074689,-0.003741,0.177434,0.140575,0.052920,0.057370,0.026435,0.005944,0.057177,-0.019408,0.055564,-0.070469,-0.048657,-0.009914,-0.020862,0.024483},
{-0.067368,-0.071749,-0.020276,0.029440,0.048020,-0.082973,0.058666,0.093432,0.009318,0.038387,0.010511,0.110325,0.015090,-0.076376,0.122435,-0.005553},
{-0.022986,0.002920,0.025417,0.141054,0.034778,0.054008,0.121838,-0.150196,0.005212,0.009125,-0.031177,-0.007852,0.073178,0.028865,0.026731,0.096643},
{-0.105343,-0.027010,0.018082,0.028098,-0.031058,0.107822,0.038296,0.086318,0.029272,0.064581,0.017251,0.039740,0.003502,-0.031162,0.056963,0.042930},
{0.039514,0.161408,0.115067,0.004349,-0.002065,0.007550,0.038289,0.008677,0.015246,-0.025126,-0.094847,0.038012,-0.026399,-0.020058,0.008952,-0.100643},
{0.019465,0.036905,0.017846,0.187962,0.086617,0.008259,-0.008108,-0.007458,-0.015074,0.007877,-0.015953,0.026652,-0.018430,0.005701,-0.101764,-0.121761},
{-0.131809,-0.210045,-0.178812,-0.210897,-0.193474,-0.251083,-0.138199,0.006733,0.009729,-0.008851,0.017099,0.017841,-0.062331,-0.017708,0.073756,0.048169},
{0.027756,-0.007746,0.008226,0.027566,0.042336,0.035313,0.093817,-0.088560,-0.018937,-0.120419,-0.070163,-0.122481,-0.063210,0.132121,0.036600,-0.018256},
{-0.023008,-0.075484,-0.104299,-0.058412,-0.102788,-0.135408,-0.132189,-0.152242,-0.124699,-0.049239,-0.160097,0.013931,0.004454,0.016586,0.046313,0.029178},
{0.070791,0.003159,0.085848,0.281554,-0.007849,-0.026018,-0.039286,0.038712,0.015783,-0.049321,0.053224,0.008027,0.056524,-0.048515,-0.075268,-0.066888},
{-0.067267,-0.089815,-0.103764,0.014009,-0.077045,-0.069553,-0.014944,-0.015015,-0.011346,-0.034311,0.081385,0.009892,0.084665,0.065471,0.020220,-0.010354},
{-0.019133,-0.069165,-0.014269,-0.114740,-0.093361,-0.026569,-0.099222,-0.076698,0.055297,0.021561,0.017697,0.013358,-0.000003,-0.039588,0.014552,-0.014826},
{0.015479,-0.067153,-0.048993,-0.123192,-0.128871,-0.155734,-0.173729,-0.099990,-0.175471,-0.201687,0.005557,0.003935,0.012795,-0.068938,0.000359,-0.046197},
{-0.027604,-0.034232,-0.049860,-0.003781,0.027128,0.005666,-0.045564,-0.065332,0.020207,-0.003397,0.022069,0.004718,-0.000952,-0.018611,-0.014361,-0.063757},
{-0.057712,-0.024076,0.000235,-0.022355,0.024681,-0.000283,-0.006925,-0.068657,0.000059,0.129091,0.087681,0.007391,0.029075,0.117528,0.064712,0.120018},
{0.042924,0.004396,0.009674,0.041956,0.020772,0.026158,0.004733,0.039101,0.051993,-0.016533,0.052986,0.324236,0.072081,0.103904,0.159767,0.052581},
{0.050293,0.073646,0.016777,0.063283,-0.031418,0.037186,-0.016015,0.045032,-0.004483,-0.036109,0.033318,0.061540,0.003954,-0.019655,0.070073,0.042546},
{0.039353,-0.035065,0.053305,0.064695,0.007973,0.014845,-0.002343,-0.037721,-0.078219,0.066625,0.002306,-0.087709,-0.096288,-0.103030,-0.116811,-0.099475},
{-0.116238,-0.087152,-0.050785,-0.098837,-0.021336,-0.055361,-0.021704,-0.007109,-0.037147,0.027526,-0.076837,0.006195,0.023287,0.035375,-0.023700,-0.037448},
{0.029755,0.004769,0.035044,-0.008539,0.031786,0.038600,0.016538,0.008675,0.027874,0.062192,-0.086783,0.033238,0.018168,0.027253,-0.020302,0.047191},
{-0.024433,-0.045754,0.004927,0.057333,-0.020304,-0.008958,0.012864,0.006157,0.043142,0.050090,0.021953,0.076632,0.007723,-0.017517,-0.061094,-0.023600},
{0.030301,-0.004306,0.007302,0.018174,-0.038673,-0.051199,0.038664,0.007409,0.026457,0.065591,-0.016831,0.015150,-0.015470,0.000113,0.057343,-0.027636},
{-0.044837,0.038887,0.042542,-0.035399,0.119455,0.096033,0.023479,0.005135,0.106007,0.040131,0.088827,0.023789,0.181072,0.098055,0.108596,0.102733},
{0.214808,0.179051,0.133761,0.181677,0.168711,-0.011474,-0.031733,-0.050626,-0.009692,-0.021433,-0.030028,-0.005511,0.005559,-0.010317,0.032147,-0.014360},
{0.010421,-0.020052,-0.012042,0.008375,-0.025272,0.037905,-0.052774,-0.052959,-0.098663,-0.119333,-0.054912,-0.099975,-0.022150,-0.100053,-0.078458,-0.122142},
{-0.000804,-0.015357,-0.033857,-0.011958,-0.069238,-0.045618,-0.081291,0.006624,0.004542,-0.004073,-0.026168,0.011346,-0.007136,-0.059981,-0.021742,0.021681},
{0.059734,0.046346,0.015974,-0.016676,0.047448,-0.019625,0.121221,0.060871,0.067414,0.064349,-0.003987,-0.051630,-0.011032,0.055736,-0.009797,-0.070067},
{0.054012,-0.024749,-0.004697,-0.030243,0.046099,0.037573,0.048190,0.042230,0.041163,0.031409,0.018861,0.076671,0.006808,-0.081121,-0.085445,-0.112544},
{-0.089221,-0.071229,-0.109593,-0.092179,-0.074371,-0.080309,-0.011926,-0.006190,-0.032753,0.014763,0.006898,0.050396,0.023462,0.063705,0.025495,0.036463},
{0.053803,0.052844,0.032681,-0.001063,0.071371,0.050850,0.067460,0.002695,0.004997,0.025391,0.003175,0.002184,-0.001903,0.001723,-0.003933,0.018954},
{-0.025500,0.091864,0.022705,-0.002667,0.034935,0.026885,-0.000235,-0.011753,0.025165,0.037649,0.097369,0.095116,0.020279,0.126146,-0.009730,0.079966},
{0.068532,0.047882,0.091007,-0.047126,-0.038092,-0.059833,-0.054836,-0.027346,-0.086627,-0.060770,-0.076745,-0.068173,-0.077615,-0.101724,-0.078508,-0.077178},
{-0.097044,-0.091663,-0.101966,-0.105984,-0.096959,-0.059047,-0.003390,-0.011841,-0.059292,0.033351,0.029876,0.006531,-0.006031,-0.003521,0.024533,-0.032647},
{-0.008092,0.028372,0.033969,0.077845,0.021990,0.042252,0.016279,0.075541,0.069323,-0.030442,0.116930,0.025138,0.055595,-0.026896,0.059089,0.046881},
{0.033114,0.034028,-0.033824,0.087518,0.142584,-0.049307,0.087832,0.155617,0.025139,-0.007630,-0.043432,0.011740,0.008481,-0.058316,-0.012850,0.041166},
{-0.077759,-0.030198,0.002356,-0.058567,0.004469,0.010706,-0.088875,0.060329,0.037461,-0.102697,0.006495,0.031404,0.019458,-0.007939,0.003101,0.034073},
{0.023695,-0.038320,-0.025021,-0.020257,-0.001311,0.009143,-0.015598,-0.038565,-0.047243,-0.028397,-0.021145,0.003311,-0.006447,0.015142,0.014462,-0.021613},
{0.020141,0.037821,-0.055709,-0.019812,0.026488,-0.041695,-0.056635,-0.053444,-0.011345,-0.100705,-0.122334,-0.073999,-0.080430,-0.170636,-0.100479,-0.073742},
{-0.067828,-0.051127,-0.064802,-0.068967,-0.094435,-0.038173,-0.081546,-0.080060,0.020805,0.027508,0.041047,0.037742,-0.006866,-0.016711,-0.019492,-0.062363},
{0.038592,0.011120,0.004011,-0.003851,0.081697,0.030685,0.007568,0.111850,0.019663,0.024207,-0.002352,-0.049554,0.018568,0.038806,-0.027758,-0.012420},
{-0.023191,-0.049476,0.024015,0.067491,0.021253,0.011251,-0.031286,0.014389,0.078160,0.001966,-0.033358,0.034479,0.046836,0.001073,0.031420,0.049714},
{0.021937,0.023781,0.036903,0.045295,0.049175,-0.000953,-0.038444,0.030966,-0.013794,-0.062441,0.018928,0.004328,-0.066345,0.004653,-0.024357,-0.060064},
{-0.025687,-0.012658,-0.114691,-0.015080,-0.008875,-0.100261,0.039167,-0.057182,0.039036,-0.080163,-0.052195,0.175868,-0.033020,-0.045818,0.157430,0.004120},
{-0.010453,-0.004542,0.025781,0.017355,-0.010365,0.032223,0.008394,-0.014632,0.011194,0.013542,0.089977,0.045671,-0.034092,0.036790,0.002952,-0.040359},
{0.035348,-0.009710,-0.019081,0.023256,0.035434,-0.012986,-0.009377,0.047817,0.007740,0.017511,0.016438,0.008864,-0.004289,0.020698,0.017081,-0.006066},
{0.033137,0.002236,-0.070913,-0.019654,0.043244,0.025556,0.010105,0.011337,-0.026806,0.005834,-0.015238,-0.076942,-0.032999,0.004372,-0.006165,0.027435},
{-0.009739,-0.060623,0.028641,-0.010654,-0.016637,0.015133,0.021980,-0.018587,0.040543,0.009748,-0.037613,0.010859,-0.009085,-0.049514,-0.018984,-0.025799},
{0.041191,-0.017589,-0.032007,0.057485,-0.022122,-0.025707,0.013867,-0.036714,-0.011184,0.001070,0.009738,0.002017,0.003044,0.014135,0.000040,-0.007848},
{0.007027,0.015211,-0.084534,-0.050096,-0.013115,0.028636,-0.021714,0.048992,-0.042372,0.045164,0.008856,-0.033756,-0.025544,-0.051048,-0.185730,-0.069549},
{-0.074060,-0.213885,-0.030331,-0.095641,0.160579,-0.118337,-0.088716,0.427788,-0.134673,-0.061931,0.479154,-0.091963,-0.013391,0.015233,-0.054547,0.076592},
{0.087567,-0.059048,0.067804,0.079889,-0.045510,0.004023,-0.072374,-0.010286,0.075517,0.085234,0.004951,0.066926,0.131246,0.012308,0.014329,-0.001779},
{-0.040150,0.080336,0.090965,-0.042227,0.082216,0.128549,-0.017996,-0.026323,-0.020847,-0.061785,-0.038827,-0.012657,-0.007752,-0.046919,-0.003779,0.043029},
{0.048264,0.089394,0.041023,0.028227,0.069543,0.034087,0.007332,0.013225,0.025559,0.011589,0.038738,0.067985,0.045980,0.072272,0.067840,0.035984},
{0.058659,-0.007534,0.016033,0.073921,0.049275,0.000771,0.082071,0.026344,0.000453,0.112769,0.070845,0.031619,-0.023851,-0.009519,-0.036449,0.029982},
{-0.031257,-0.027147,0.041822,-0.007732,0.041407,-0.032979,0.005243,-0.004784,-0.009469,0.011021,-0.011387,-0.031315,-0.028523,0.041761,0.015633,-0.009299},
{-0.017464,0.122869,0.036573,-0.010571,-0.009844,0.000587,-0.020104,-0.055180,-0.026029,-0.021186,-0.054505,-0.021935,-0.028947,-0.027715,-0.011719,-0.017160},
{-0.067450,0.004771,-0.035688,-0.063555,-0.032367,-0.047793,-0.104780,-0.056520,-0.002795,-0.010968,-0.023135,-0.026308,-0.049349,0.000131,-0.016836,-0.021622},
{0.009631,-0.053138,-0.058502,0.019495,-0.026225,-0.040731,-0.004664,0.008138,0.001306,0.064914,-0.036505,0.018334,-0.012612,-0.041723,0.041913,-0.038754},
{-0.017303,-0.004485,-0.018791,0.008091,0.043004,0.069394,0.008455,0.032720,0.035948,0.030432,0.046892,0.006704,-0.052142,-0.064447,-0.053971,-0.011200},
{-0.111223,-0.005570,0.062731,0.090493,0.155204,0.000831,-0.032461,0.004035,0.014113,-0.059073,-0.006403,0.045077,0.013402,0.033273,0.082576,0.132124},
{0.091562,0.059273,0.127025,0.063537,0.017212,0.044437,-0.007390,0.005882,0.003134,0.017632,0.021170,-0.007635,0.029163,0.012738,-0.027608,-0.006526},
{-0.002508,0.045723,0.002729,-0.016235,0.023445,-0.010000,0.043344,0.035636,0.010491,0.009459,0.027616,0.036024,0.003704,0.068915,0.053613,0.034504},
{0.044546,0.050678,-0.074176,-0.048345,-0.034193,-0.045865,-0.043703,-0.051574,-0.025073,-0.028428,-0.098408,-0.011262,-0.035349,-0.004654,-0.005106,-0.034519},
{-0.038355,0.013276,0.009785,-0.022743,-0.079061,-0.162618,-0.125604,-0.096179,-0.166365,-0.163837,-0.067565,-0.164351,-0.145452,0.026294,0.050191,0.028283},
{-0.030873,-0.012461,-0.005150,0.045250,0.036927,0.056066,0.005278,0.016874,-0.002111,-0.023334,-0.036659,-0.016728,0.027201,-0.001141,-0.017128,0.019455},
{0.068435,0.074406,0.078986,0.098208,0.044240,0.039012,0.037299,0.029396,-0.010902,0.021889,0.010888,-0.002974,-0.002081,-0.000283,0.014373,0.017053},
{-0.004431,0.034669,-0.007812,-0.034408,0.000395,-0.024294,-0.031633,-0.016773,-0.049061,-0.056835,0.027900,0.008780,-0.008141,0.017547,-0.009934,0.014692},
{0.000370,-0.022837,0.016748,-0.017826,-0.010989,-0.023053,0.037447,0.010450,0.029507,0.011097,0.002505,0.011418,0.020210,-0.019762,-0.017123,0.045236},
{-0.013291,-0.041851,0.005097,-0.014853,-0.002959,-0.022186,-0.096457,-0.020329,-0.011657,-0.063984,-0.037889,0.009060,-0.055625,-0.041180,0.048081,0.089404},
{0.069165,0.100280,0.162301,0.160241,0.045310,0.069145,0.065119,0.098197,0.104637,0.028108,0.063365,0.093382,0.080139,0.021213,0.066690,0.067609},
{0.016671,0.030369,0.029965,0.056489,0.104131,0.043504,0.040918,0.065356,0.031060,0.015359,-0.009969,0.017685,0.014153,-0.045553,0.010840,0.017809},
{0.029750,-0.006405,-0.042021,0.006521,0.005944,-0.076336,-0.080137,-0.101256,-0.036815,-0.024826,-0.031221,0.029929,0.140134,0.115871,0.022460,0.228527},
{0.303853,0.045209,0.244002,0.281319,-0.035448,0.019791,0.034264,-0.037783,-0.073488,-0.082601,0.039165,0.079585,0.031226,0.019928,-0.001363,-0.010800},
{-0.002582,-0.084020,-0.092433,-0.011870,-0.030328,-0.045408,-0.009453,-0.003238,-0.008900,0.001075,-0.013085,0.007861,-0.024372,0.015042,0.016637,0.031785},
{-0.001269,-0.054275,0.040021,-0.073074,-0.121825,0.058314,-0.007809,-0.019449,-0.000054,0.016158,0.007099,0.041680,0.002820,-0.017769,-0.009547,-0.026678},
{0.034035,0.048501,0.025497,0.011325,0.018508,-0.098266,-0.054470,0.083105,-0.007559,0.138323,-0.035647,0.009617,0.038640,0.059818,0.019559,0.032410},
{0.046713,-0.014088,-0.036252,-0.002516,-0.011451,-0.023248,-0.004498,0.009434,0.012668,0.006820,0.013127,0.040522,0.050870,0.201790,0.190557,-0.003395},
{0.099920,0.075791,-0.106098,-0.061751,-0.008489,0.001855,-0.079846,-0.074608,-0.013271,-0.100419,-0.096189,0.039778,0.042464,0.054253,-0.063332,-0.099107},
{-0.100140,-0.038542,-0.086500,-0.106418,-0.000863,0.039851,-0.019754,-0.067522,-0.043136,-0.003443,-0.029778,-0.077782,-0.037840,0.094335,0.004123,0.010420},
{-0.000805,0.035360,0.022697,0.004519,0.021700,0.023754,0.001627,-0.003756,-0.007149,0.086209,0.117754,0.153505,0.018150,-0.055695,-0.016045,-0.030429},
{-0.081963,-0.083393,-0.129699,-0.195416,-0.138548,-0.129360,-0.268589,-0.265175,-0.060070,-0.099987,-0.132086,0.060840,0.076226,0.062005,0.005482,0.028596},
{0.056465,0.013674,0.020326,-0.034090,-0.023036,0.031558,0.041437,-0.032754,-0.052648,-0.064239,-0.006750,-0.050715,-0.098420,-0.094083,-0.159629,-0.190814},
{-0.119985,-0.375065,-0.338642,-0.106589,-0.234200,-0.291176,0.015937,0.008280,-0.030483,0.014391,0.012121,0.006334,-0.020674,0.005299,0.024822,-0.018450},
{0.005083,0.011919,0.039849,0.029575,0.009621,0.049162,0.049584,0.010114,-0.032414,0.032488,0.002067,0.024941,0.073524,0.074878,-0.021958,-0.012114},
{-0.000808,0.049872,0.036911,-0.045072,-0.022214,-0.033930,-0.142268,-0.061000,-0.038165,-0.158616,0.012830,0.007845,0.053885,0.012662,0.049874,0.030522},
{0.030372,0.038820,0.018102,-0.028077,-0.010161,-0.034071,-0.015984,0.004124,0.032306,-0.002553,-0.041643,0.021110,0.000033,-0.053981,-0.047915,-0.015351},
{-0.031662,-0.017427,-0.051633,0.015842,0.030319,0.033513,0.030258,0.048144,0.006192,0.014229,0.037096,0.001772,-0.030348,0.016250,-0.009809,-0.002725},
{0.000426,-0.026826,0.059208,-0.009007,-0.005099,0.014385,0.007059,0.034464,0.022821,-0.015162,0.028909,-0.005449,-0.026885,0.009779,-0.014969,-0.002580},
{-0.064580,0.001465,-0.015376,0.002388,0.058691,0.028089,-0.059803,-0.019100,-0.030078,-0.044259,0.000225,0.032608,-0.003082,0.004050,0.019964,0.008713},
{0.038860,0.026208,0.010474,0.003947,-0.021220,-0.007442,-0.040815,-0.059953,-0.013757,-0.032179,-0.041811,0.008103,-0.006020,-0.015941,-0.011505,-0.027320},
{-0.002439,0.000678,0.002454,0.032858,-0.012100,0.010653,0.015506,0.010837,0.019427,0.036291,0.016865,0.028325,0.028604,0.030785,-0.025608,-0.025355},
{0.007434,-0.014285,0.004375,-0.004366,-0.018034,-0.023318,-0.053755,-0.030879,-0.019165,-0.008604,0.010478,0.041939,-0.001930,0.003872,0.028443,-0.028504},
{-0.044425,-0.016541,0.022706,0.009566,0.013710,0.002707,0.025540,0.021684,0.019891,0.002670,-0.023882,0.022799,0.005488,-0.010266,-0.025926,-0.007400},
{0.007762,-0.021057,-0.001819,0.037227,-0.026560,-0.042644,-0.018150,0.025069,0.002865,0.071233,-0.006403,0.032981,0.003165,-0.037966,-0.016235,-0.026876},
{0.002046,0.003430,-0.021668,-0.058182,0.014595,0.034278,-0.027855,0.034393,0.046370,-0.007675,-0.019095,0.008572,-0.017139,-0.037789,-0.048354,-0.017159},
{-0.121761,-0.059184,-0.045997,-0.048117,-0.015633,-0.012922,-0.005581,0.000101,-0.012373,-0.025149,0.000627,-0.009144,-0.009119,-0.004709,-0.009153,-0.006039},
{0.000354,-0.001085,0.005046,0.004587,0.008507,0.010896,-0.000992,-0.016917,-0.013139,-0.015658,-0.011178,-0.048425,0.003742,-0.023797,-0.011796,-0.001320},
{-0.020179,0.012580,-0.023048,-0.008530,-0.012610,0.016281,-0.023280,-0.003844,-0.005479,-0.020590,0.036408,0.030562,0.027768,0.079279,0.077728,0.041738},
{0.066857,0.050960,0.010041,-0.010596,0.012301,-0.018552,-0.046358,-0.002421,-0.034502,-0.020106,-0.006775,-0.047413,-0.004245,0.008814,-0.039242,-0.003286},
{0.016307,-0.007576,0.005308,0.049719,-0.054809,0.038306,-0.020328,-0.005594,0.015105,0.007855,-0.024930,0.007609,-0.032020,-0.006047,-0.019761,-0.001267},
{-0.010836,-0.044480,-0.026973,-0.015447,0.003172,-0.012426,-0.045903,0.039634,0.017585,-0.001306,0.062826,0.042573,-0.028169,0.036190,0.029402,-0.073378},
{-0.065708,0.004568,-0.032918,0.020474,0.025036,-0.013805,0.012791,0.056222,-0.026163,0.007020,-0.004223,-0.011955,0.012388,0.005731,-0.027969,-0.001105},
{-0.009915,-0.006773,0.010930,-0.016601,0.011602,-0.002435,-0.017603,0.022411,0.008973,-0.008930,-0.005155,-0.026752,-0.043828,0.018167,0.001790,-0.000771},
{0.001436,0.033066,0.009755,-0.004960,-0.031961,-0.006931,-0.015126,-0.057416,-0.034542,0.005424,0.002028,-0.009137,-0.031661,-0.033642,-0.032610,-0.032048},
{-0.037632,-0.039937,-0.004571,-0.037658,-0.003164,-0.016949,-0.034211,-0.008501,-0.004553,-0.050888,-0.017498,0.008244,0.017750,0.012439,-0.021297,-0.024691},
{0.002134,-0.002408,-0.030789,-0.020741,-0.018861,0.017055,-0.001024,0.020002,0.021581,-0.017174,0.016815,0.022269,0.009918,-0.028563,0.018968,0.050829},
{0.053085,0.053974,0.025110,0.011920,0.065156,0.031554,0.034493,0.023001,-0.009856,-0.029577,-0.092612,0.003210,0.000388,-0.064038,0.002236,0.020598},
{-0.033307,-0.009261,-0.043006,-0.012735,-0.016263,-0.067912,-0.030738,-0.026035,-0.052746,-0.022766,-0.005942,-0.022251,-0.006298,-0.005645,0.023610,-0.010701},
{0.040544,-0.024398,0.025604,0.024216,-0.008777,0.007310,0.035277,-0.008825,-0.012075,0.038368,0.023915,-0.016157,-0.008454,-0.032672,-0.034875,-0.043320},
{-0.002410,0.000405,-0.019247,-0.018142,-0.025806,-0.040631,0.065415,0.098913,0.036950,0.077288,0.135323,0.134182,0.078519,0.062793,0.081279,-0.041615},
{-0.023541,0.018544,-0.004973,-0.029574,-0.034209,0.018005,-0.054458,-0.038161,-0.049012,-0.105527,-0.134169,-0.104661,-0.150133,-0.173559,-0.141072,-0.158164},
{-0.169755,-0.036752,-0.008252,0.020165,-0.020723,0.006549,0.042748,0.021082,0.023556,0.005748,-0.033100,0.005454,0.041254,-0.039197,0.000355,-0.000778},
{-0.028789,-0.008305,-0.007720,0.073308,0.035197,0.096872,0.001272,0.099869,0.092631,0.082663,0.099155,0.097255,0.027878,0.016874,-0.008116,-0.044222},
{0.000829,0.019542,-0.033110,0.011969,0.031625,-0.039811,-0.039533,0.008283,-0.002517,-0.020204,-0.008343,0.020817,0.008119,-0.000790,-0.094728,-0.147504},
{-0.035719,-0.074008,-0.108825,-0.102643,-0.034789,-0.021757,-0.052254,0.040653,0.037150,0.024453,0.005219,0.048180,0.060707,0.003754,0.043384,0.038952},
{0.028497,0.043643,-0.030541,0.009059,0.049228,0.058022,0.009826,0.024315,0.009151,-0.028042,-0.005474,0.090394,-0.008151,0.012372,0.028062,-0.006173},
{-0.000151,0.011918,0.000327,-0.006474,0.006434,-0.024575,0.030070,0.001921,0.040818,0.043942,0.046198,0.046547,0.055034,0.098616,0.025413,0.073429},
{0.066433,0.080538,0.079741,0.057707,-0.073976,-0.021697,-0.032867,-0.015217,-0.072406,-0.041532,-0.051662,-0.003318,-0.057258,0.011683,-0.012841,-0.011286},
{-0.018098,0.024672,-0.014489,0.003438,-0.006200,0.016221,-0.006173,0.020931,0.033907,0.016526,0.008944,-0.008977,0.022854,0.045758,0.012001,0.031843},
{0.087628,0.097024,0.063866,0.042933,-0.000502,0.075210,0.043046,0.018260,-0.024421,0.005570,0.008105,-0.024181,0.007227,-0.011288,-0.016054,0.016483},
{0.004611,-0.019552,0.030840,0.012358,-0.009099,-0.018600,-0.001501,-0.007162,-0.009877,0.029968,-0.126781,-0.163562,-0.170282,-0.103028,-0.166828,-0.187983},
{-0.135782,-0.151682,-0.157707,-0.006639,-0.027056,-0.073866,-0.018635,0.036532,-0.046839,-0.000328,-0.008649,-0.011733,0.005360,0.030726,0.051951,0.011269},
{0.007890,0.024119,-0.012783,0.016967,0.023394,-0.004171,-0.070599,0.018249,-0.002015,0.027333,-0.005064,0.009009,0.023437,0.027146,0.002194,-0.012458},
{-0.030500,0.021439,0.030859,0.017825,-0.001903,0.007232,0.035813,-0.039349,-0.086902,-0.104614,-0.047318,-0.058092,-0.077563,-0.054869,-0.104524,-0.103587},
{0.051163,0.031013,0.049085,0.005050,0.033552,0.013989,0.088295,-0.042704,-0.019843,-0.075973,-0.063022,0.026200,-0.070819,-0.087600,0.084239,0.015214},
{-0.026175,-0.106745,-0.028384,0.027010,0.063497,-0.107215,-0.068607,-0.045087,-0.065894,-0.051687,-0.094014,-0.049122,0.032595,0.047772,-0.093513,0.321429},
{0.315313,-0.076621,-0.078228,-0.042123,-0.059338,-0.065260,-0.039161,-0.048650,0.128417,0.126957,-0.075560,0.013737,0.043439,0.028090,-0.021770,-0.012985},
{0.022636,0.068399,-0.021299,-0.019769,-0.018417,0.071412,0.063407,0.072093,0.095394,0.039008,-0.025782,0.042224,0.100398,0.007724,0.010598,-0.007578},
{0.003994,-0.181811,0.014700,0.009158,0.052480,0.014932,0.006307,0.037424,-0.015221,0.107656,0.030292,-0.072163,0.096052,-0.043513,-0.095224,-0.072351},
{-0.007723,0.015051,0.057688,0.027958,0.043712,0.004349,0.017940,0.006651,0.008079,0.064078,-0.017442,0.021634,0.001030,-0.039189,0.026483,0.053690},
{-0.195467,0.026362,0.042935,0.027168,-0.001602,0.076580,-0.039457,-0.097550,-0.015200,0.030850,0.008011,-0.078550,0.081067,0.095285,0.052080,0.001756},
{-0.025439,-0.088238,-0.020959,-0.061110,-0.081834,0.034397,-0.024451,-0.017818,0.005345,-0.035069,-0.027336,0.009916,0.004589,-0.013897,-0.031081,-0.099675},
{-0.090771,-0.085052,-0.119733,-0.097663,-0.047406,-0.040679,0.036910,-0.070611,-0.084319,-0.123136,0.031838,0.296322,0.031515,-0.011347,0.262767,-0.021261},
{-0.008825,0.056723,0.044589,-0.014557,0.019467,-0.027966,0.025304,0.000294,-0.007317,0.005430,-0.044877,-0.011381,0.036422,-0.093139,-0.099917,0.113983},
{-0.018298,-0.003664,-0.044309,-0.058836,-0.038351,-0.063258,-0.066873,-0.025206,0.043544,0.179216,0.040649,-0.085038,-0.050176,0.058981,-0.070680,-0.028272},
{0.123094,-0.023732,0.068974,-0.080826,-0.009606,-0.051675,0.064190,-0.012629,0.003788,0.020395,-0.015377,0.038672,0.031818,-0.067658,-0.096854,-0.083399},
{-0.051421,0.015498,0.014052,-0.077804,0.273311,0.277922,0.029632,0.047659,-0.011660,0.016828,-0.029757,-0.042273,0.021304,-0.003108,0.082644,-0.042436},
{-0.069833,-0.015499,-0.114589,-0.068819,-0.038104,-0.047760,-0.033940,-0.101267,-0.016856,0.036769,0.065608,-0.014991,0.001836,-0.011062,-0.020895,-0.017191},
{-0.036422,0.001069,-0.047446,-0.022044,0.010932,-0.027292,-0.100874,-0.044076,-0.089549,0.046963,0.092566,0.031240,-0.045587,0.075411,0.040133,-0.048201},
{-0.012644,-0.038797,0.005282,-0.034668,-0.036941,-0.027784,0.065254,0.061721,-0.038613,0.028718,0.079626,-0.040934,-0.036347,-0.094867,-0.043619,-0.051608},
{-0.018598,0.273749,-0.015520,-0.075677,0.174426,-0.082793,-0.089634,0.009785,-0.024065,0.001440,-0.005122,0.033443,0.031847,0.050971,0.049806,-0.038611},
{-0.033576,0.069058,-0.093861,-0.033457,0.042756,-0.179899,-0.065434,0.108202,0.027029,-0.094612,0.074208,0.076530,-0.116545,-0.108456,-0.095611,-0.006934},
{0.045203,0.055746,0.058688,0.036604,0.022708,0.065631,0.035444,0.024694,0.056408,0.019617,-0.012543,0.000802,0.008450,0.035152,-0.003655,0.021344},
{0.003451,-0.004483,0.003054,0.020785,0.008567,0.018871,-0.001245,0.012560,-0.014999,0.001553,0.016577,0.011545,0.040798,-0.002163,0.019644,-0.007742},
{-0.003984,-0.027866,-0.011923,-0.022599,-0.062870,-0.103317,-0.109529,0.066599,-0.056206,-0.130780,0.058196,0.048014,-0.080344,-0.050142,-0.027520,-0.034533},
{0.024275,-0.049036,-0.014396,0.048143,0.039478,-0.053329,0.000146,-0.023978,-0.005586,-0.032948,-0.002543,0.004161,-0.013570,0.015251,-0.011881,-0.001385},
{0.025104,-0.000252,0.003170,-0.014154,0.018981,0.015478,-0.030115,-0.006927,0.011868,0.001104,0.020319,0.004955,0.006187,0.023198,0.015552,-0.008094},
{0.003994,-0.011974,0.004659,0.002720,-0.016387,0.005014,-0.015283,0.059001,0.010861,0.030590,0.004151,-0.018414,-0.008577,0.004908,0.001215,-0.006038},
{0.005453,-0.000940,-0.001108,0.022956,0.013132,0.012609,0.012293,0.007090,0.011190,0.009197,0.012470,0.032908,0.045350,0.014232,0.012902,-0.033679},
{-0.013911,-0.014612,-0.100583,-0.028341,0.016460,-0.038528,0.002685,0.065444,-0.071913,-0.040503,0.040149,-0.037541,-0.010774,0.041784,0.004956,0.017188},
{0.008507,0.015789,0.007823,0.012232,0.019020,-0.015264,0.017800,0.026039,0.015501,0.005819,0.012685,-0.000012,0.017403,-0.006110,0.000688,0.042556},
{-0.004309,0.006993,0.008175,-0.014593,0.017752,0.027026,0.017395,-0.008608,0.026782,0.006086,-0.014340,-0.024468,0.072136,-0.028067,-0.032888,0.075561},
{0.057548,0.002069,-0.032736,-0.015463,-0.017139,-0.006979,-0.023309,-0.023234,-0.000339,-0.024383,-0.017263,0.007342,-0.011024,-0.010079,-0.013971,0.003520},
{0.004102,0.015174,-0.015014,-0.013878,-0.000334,-0.007007,0.008591,0.019717,0.006115,0.004985,0.009672,0.000857,0.003247,0.017300,0.032081,0.026908},
{0.005063,0.031996,0.034117,-0.007533,0.008669,0.043833,-0.225428,-0.105430,-0.057108,-0.112450,-0.146468,-0.176883,1.124540,-0.032322,-0.288770,0.005424},
{0.012563,-0.006903,0.012574,0.005157,0.000496,0.017602,0.006239,0.000411,-0.159914,-0.092023,-0.152553,-0.030795,-0.038138,-0.133299,0.759607,-0.011786},
{-0.301339,0.006462,-0.026870,-0.017436,-0.000009,-0.016644,0.000039,-0.015919,-0.016557,0.012762,0.001594,0.013423,0.001118,0.004124,-0.004501,0.010268},
{-0.009858,0.000790,0.005098,-0.037022,-0.020909,0.019784,-0.010725,0.014452,0.020153,0.027986,-0.000764,0.001623,0.015070,0.037318,0.013754,0.025549},
{0.020321,0.032723,-0.011083,0.041974,0.037067,0.007010,-0.009712,-0.009551,-0.026512,0.007678,0.005154,-0.071367,-0.028553,-0.007012,0.050490,0.039794},
{0.029843,0.002379,0.028105,0.046666,-0.013267,0.002190,0.014377,-0.006856,-0.015988,-0.002302,0.011488,-0.019927,-0.022544,-0.016786,-0.018477,-0.004798},
{-0.012255,0.027228,0.063238,-0.118780,0.046624,0.117681,-0.054381,0.021494,-0.015787,0.012979,-0.021129,-0.068678,-0.013769,-0.006415,-0.071831,-0.044013},
{-0.004793,-0.038433,-0.008512,-0.044373,-0.065095,0.224651,0.013672,-0.283333,0.212541,0.025853,-0.178955,-0.027425,0.017048,0.057050,-0.038094,0.010988},
{0.068060,-0.010382,-0.035506,0.051542,0.018060,0.018591,-0.017220,0.005258,-0.031122,-0.048002,0.020418,-0.026374,-0.029923,-0.029876,0.011983,0.004343},
{-0.037446,-0.017320,-0.020821,0.014190,-0.021144,0.006632,-0.015888,0.057904,0.050614,-0.121863,0.085003,0.164444,-0.213819,-0.047726,0.061278,0.023316},
{-0.011379,-0.053807,-0.051498,-0.062866,-0.001598,0.020892,0.006121,-0.077896,-0.014848,-0.066528,-0.042826,0.039949,0.006105,-0.108314,0.102685,0.059700},
{0.032582,0.021325,-0.060421,-0.020756,0.066555,-0.031937,-0.090681,-0.006696,0.001107,0.041081,-0.039151,-0.041741,-0.015428,0.081257,-0.009270,-0.132733},
{0.102534,-0.002867,-0.183663,0.052432,0.050867,0.009796,0.131772,0.039067,-0.070470,-0.056893,-0.031928,-0.098333,-0.004869,-0.050297,0.011898,0.064265},
{-0.066076,0.021132,0.080929,-0.006337,0.061892,-0.003681,-0.021994,0.017402,-0.057087,-0.038348,0.025524,-0.027769,-0.022216,0.040648,-0.020400,-0.006855},
{-0.036563,0.008343,-0.052135,-0.092476,-0.043859,-0.039244,-0.032712,0.001611,-0.025022,-0.014068,0.082768,-0.040613,-0.043572,0.086427,-0.002164,-0.001488},
{0.021358,-0.059443,-0.119692,0.205465,0.001620,-0.214027,0.166390,0.002339,-0.174281,0.016245,0.014208,0.014351,0.026457,-0.033449,-0.028880,0.035039},
{0.036734,-0.006200,0.031695,0.021315,-0.038200,0.036506,0.004654,-0.053749,-0.026109,0.018430,-0.012008,0.024743,0.020030,0.049490,0.068187,0.058604},
{-0.022073,-0.014288,-0.017658,-0.084564,0.017142,0.001171,-0.009406,-0.027504,-0.053249,-0.044688,-0.022972,-0.041171,-0.042670,0.001597,0.026420,0.044308},
{-0.063696,0.026399,0.099753,-0.036783,-0.012343,0.085455,0.043596,-0.011018,0.013792,0.011092,-0.039429,-0.012864,0.003449,-0.024649,-0.015711,0.003469},
{-0.006535,0.024482,-0.063574,0.027196,0.065392,-0.092234,-0.037132,0.019167,-0.017490,-0.028907,-0.031100,0.014136,-0.008181,-0.022832,0.018466,-0.009371},
{-0.030151,0.015327,0.025943,-0.009030,0.040363,-0.104602,-0.022267,0.053352,-0.059664,-0.097236,-0.071167,-0.020631,0.015757,-0.135256,-0.071407,0.055155},
{0.047530,0.047780,0.125755,-0.057902,0.012273,-0.012852,-0.164361,-0.046108,0.107466,-0.136037,-0.020117,0.071121,-0.018099,-0.021418,-0.020206,0.029577},
{0.016810,-0.029285,0.060481,0.023211,-0.023309,0.015235,-0.002829,0.014594,-0.135115,0.071868,0.101480,-0.091050,0.022723,-0.022442,-0.020107,0.014594},
{-0.021432,-0.113358,0.044244,0.102802,-0.057092,0.031105,0.056932,-0.011033,-0.016964,-0.004160,-0.046895,-0.064768,-0.009495,0.016518,0.004273,0.022143},
{0.088468,0.049756,-0.005705,0.083291,0.080717,-0.032370,0.101129,0.022161,-0.006537,-0.010272,0.020694,0.043465,-0.031275,0.059874,0.030748,-0.035689},
{0.030971,-0.004205,-0.002456,0.000980,-0.038958,0.001704,-0.025781,-0.135847,0.030260,0.055820,-0.163669,0.016549,-0.006797,-0.023818,0.017117,0.009341},
{0.003358,0.014932,0.030663,-0.016535,0.003081,-0.060861,-0.090399,0.033301,0.010447,-0.110230,0.035438,0.045242,-0.106410,-0.003214,-0.080689,-0.049789},
{0.027936,0.042426,-0.051262,0.024510,0.054196,-0.023595,0.011833,0.013865,-0.048076,-0.003118,0.045429,-0.015222,0.047884,-0.018824,-0.039229,-0.018204},
{-0.024646,-0.036779,-0.032054,0.006424,-0.038646,0.006584,0.022190,-0.017355,-0.028231,-0.049656,-0.086304,0.052127,-0.003740,-0.128304,0.046562,0.074842},
{-0.027836,0.026736,0.009382,0.001453,0.026723,0.004583,-0.036469,-0.006896,0.033486,0.047517,0.025406,-0.004911,-0.052477,0.001625,0.029882,-0.112345},
{-0.020807,0.008956,-0.122097,0.018446,0.033693,-0.018590,0.008845,0.007933,-0.076454,-0.009143,-0.000804,-0.061346,-0.010727,0.047531,0.146684,-0.136825},
{-0.029743,0.212466,-0.159797,-0.051460,0.225650,0.095308,-0.035829,-0.154309,0.200484,0.049931,-0.183823,0.179348,0.033394,-0.202053,-0.013517,-0.058875},
{-0.029541,-0.052511,-0.006463,-0.096857,0.011990,0.042196,-0.059138,-0.034230,0.061723,0.033703,-0.024783,0.007989,0.079965,-0.057235,-0.009311,0.082451},
{0.089313,-0.010693,-0.061169,0.109270,0.046622,-0.131958,0.119131,0.040401,-0.120496,0.041445,-0.037211,-0.106554,0.075077,0.031841,-0.127540,0.100228},
{0.062456,-0.088293,0.053951,0.013482,0.025903,-0.028708,0.025987,-0.042197,-0.052256,-0.002887,-0.024642,-0.007455,0.042721,0.012415,0.019223,0.038415},
{-0.032762,-0.005249,-0.032167,-0.049811,0.017213,-0.061898,-0.057916,0.063483,-0.019527,-0.120618,0.092543,-0.018141,-0.156351,0.067152,0.050570,-0.023886},
{0.050868,0.059798,-0.012725,-0.020012,-0.031656,-0.003368,0.068792,-0.010217,-0.011421,0.057707,0.006071,-0.052246,0.042351,0.034408,-0.047381,-0.010663},
{0.033743,0.003874,-0.043443,-0.001399,0.028986,-0.036247,-0.057302,-0.025555,0.004677,0.009842,0.051134,-0.037225,0.002519,0.049451,-0.034831,-0.018792},
{0.047929,-0.000257,-0.036572,0.044024,-0.013612,-0.023641,-0.001241,-0.048040,0.017221,0.041085,-0.021151,-0.077558,-0.037022,0.062986,-0.012797,-0.083600},
{0.060822,0.080997,-0.025211,0.001915,-0.031068,0.005022,0.017166,0.044585,0.035032,-0.027653,0.038535,0.043107,-0.032894,0.007698,0.016450,-0.052403},
{0.016800,0.041005,-0.060991,0.015495,0.052525,-0.084592,-0.018272,0.051741,-0.116315,-0.000069,0.090663,-0.110243,-0.046377,0.070070,0.020071,-0.010269},
{-0.007827,-0.009303,0.038115,0.029186,-0.001994,0.029703,0.078466,-0.066316,-0.078013,-0.017818,-0.039171,-0.091043,-0.004248,-0.058774,-0.007415,0.033538},
{0.045825,0.090855,0.017840,-0.067149,0.664184,-0.144566,0.061760,-0.031847,0.032173,-0.017116,-0.056244,0.025511,-0.048555,0.196541,0.050893,0.018342},
{0.001147,-0.137991,-0.020020,-0.025903,0.029674,-0.127045,0.016722,-0.091447,-0.096207,0.068119,-0.049238,0.005721,0.055048,0.037307,-0.080038,0.022337},
{-0.055682,-0.073780,0.057062,-0.039653,0.085997,0.029187,0.070969,0.021213,-0.085268,-0.024190,0.051062,-0.019431,0.057650,0.027046,-0.053548,-0.062391},
{-0.013310,-0.035127,-0.025507,-0.033605,-0.042205,0.033599,0.004906,-0.080240,-0.007524,-0.015611,0.074590,0.074311,0.019983,0.004103,0.004452,0.005493},
{-0.064101,-0.014086,-0.016482,-0.221160,-0.031213,0.000632,-0.191000,-0.078636,0.026898,0.046904,-0.048736,-0.043675,0.097426,0.023768,-0.065307,-0.001408},
{-0.008086,-0.009070,-0.014120,0.018896,-0.038776,0.010667,-0.018372,-0.015601,-0.030551,0.065073,0.038692,-0.008047,0.017855,-0.091946,-0.088781,-0.124592},
{-0.023251,-0.005200,-0.078702,-0.015876,-0.019439,-0.008691,-0.082703,0.068384,-0.008623,-0.034180,0.033227,-0.081179,0.098331,0.048594,0.033313,0.137702},
{-0.031716,0.145790,0.141114,0.240270,0.212320,0.008235,-0.025028,-0.013991,0.001826,-0.078802,0.015166,0.007800,-0.015022,-0.006221,-0.039720,-0.077096},
{-0.072194,-0.195574,0.749718,-0.218885,-0.074447,-0.074353,-0.004825,0.014890,-0.014444,-0.026114,0.060998,0.016625,0.056290,-0.011974,-0.051920,0.022948},
{0.032433,0.045461,0.005747,-0.039268,0.297506,-0.019969,0.023154,-0.003481,-0.006959,0.013663,0.066535,0.038716,-0.109289,0.126939,-0.067617,0.084517},
{-0.040633,-0.026194,-0.054805,0.019940,0.034464,-0.088807,-0.017138,0.022205,0.138726,0.092661,-0.009418,-0.031404,0.020101,0.051636,-0.043548,0.125606},
{-0.052740,-0.004130,0.003640,-0.074481,0.008157,-0.050095,0.067602,-0.069960,-0.210389,-0.093033,-0.051329,-0.214223,-0.041446,-0.009506,-0.010529,0.018846},
{-0.003570,-0.072123,-0.015460,0.051656,0.083889,0.058533,0.052161,0.007047,0.028991,-0.043389,0.087293,0.015962,-0.006377,-0.042328,-0.029303,-0.108645},
{-0.058904,-0.038337,0.009152,0.000242,-0.000354,-0.006147,-0.093933,-0.067208,0.037926,-0.007634,0.020890,0.007111,-0.067329,0.007999,0.028093,0.001335},
{0.024192,0.039013,0.007622,-0.059642,0.019532,-0.035340,-0.072253,-0.067507,-0.210366,-0.053210,-0.006015,-0.058987,-0.058529,-0.031604,0.077077,-0.036458},
{-0.015537,-0.031783,-0.020106,-0.012245,-0.077288,-0.027531,0.038815,0.062154,0.040010,0.020586,0.064916,-0.004420,0.025208,-0.016591,0.018157,0.043644},
{0.001079,0.044867,0.006419,-0.018233,-0.026047,0.024463,-0.100339,0.035393,0.017265,-0.205254,0.106273,-0.023322,-0.196359,-0.017368,0.029013,-0.077874},
{-0.020819,-0.007003,0.079691,0.051772,0.019546,-0.088904,0.002374,0.035298,0.033900,-0.085148,0.020116,0.238220,-0.033203,-0.118150,-0.004114,0.065304},
{0.035603,0.017265,0.058275,0.003695,0.000849,0.050709,0.033240,0.030836,0.021049,0.001202,-0.004255,-0.046854,-0.019661,-0.022289,-0.039715,0.005516},
{-0.008194,-0.041666,0.054881,-0.071929,-0.005831,0.038575,-0.066476,0.027847,0.044538,-0.082069,0.030432,-0.036321,-0.075419,-0.063421,-0.028207,-0.067398},
{-0.096078,-0.025754,-0.061295,-0.084803,-0.007097,-0.012656,-0.024673,0.000529,0.002346,-0.004786,0.007789,0.008548,0.035135,0.004935,0.013306,0.004684},
{0.009961,0.013465,0.006505,0.024516,0.025302,0.005855,-0.008484,-0.039351,-0.060494,-0.003134,-0.041977,-0.037610,-0.011466,-0.050672,-0.032801,-0.020965},
{0.005670,0.014417,-0.025630,-0.012932,0.019786,-0.026870,0.025304,0.023101,0.048578,-0.031749,-0.011480,0.015723,-0.061545,-0.009783,0.015741,-0.053030},
{0.016266,0.013150,0.015824,0.000845,-0.005924,0.033434,0.048712,0.017886,0.098459,0.049658,0.045346,-0.030806,0.030342,0.029763,-0.054505,0.027571},
{0.016635,-0.088106,-0.007297,0.024255,-0.032959,0.046312,0.031771,-0.007108,0.044475,0.051659,-0.006649,0.010143,0.023574,0.004059,0.002117,0.015528},
{0.003965,0.001818,0.008035,-0.013794,-0.013352,0.000042,-0.013759,0.009722,-0.001102,-0.031829,0.001399,-0.027015,-0.058378,-0.028394,-0.019443,-0.086987},
{-0.015336,0.021277,-0.096007,0.024519,-0.001040,-0.064851,0.057603,0.016386,0.105555,-0.009101,0.014569,0.083602,-0.017902,0.005648,0.093500,-0.008001},
{0.031074,0.009406,0.043005,0.031040,0.021546,0.060087,0.045373,0.005171,0.044977,0.084016,-0.054941,-0.008179,0.058187,-0.058147,-0.001417,0.065210},
{-0.054800,0.018379,0.020764,-0.033267,-0.015815,0.027162,-0.006733,-0.030638,0.012606,-0.033572,-0.014247,-0.010687,-0.051236,0.002420,-0.040563,-0.099759},
{-0.008820,0.000366,-0.107849,-0.045784,-0.004390,-0.032686,0.062101,-0.003256,-0.031780,0.028309,-0.016991,-0.075776,0.046009,-0.014414,-0.048735,-0.047430},
{-0.020416,-0.096302,-0.070225,-0.043442,-0.104492,-0.068654,-0.009961,0.040760,-0.012320,-0.035150,0.042150,-0.029839,-0.040923,0.056345,-0.027400,-0.027908},
{-0.014722,-0.037275,-0.039845,-0.047017,-0.028361,-0.003068,-0.010387,-0.001551,-0.016023,0.036585,-0.032313,-0.021403,0.037216,-0.043014,-0.010250,0.073360},
{-0.029908,0.033159,-0.023352,0.029303,0.012579,-0.085135,-0.012930,-0.005317,-0.088209,-0.012437,-0.013362,-0.056404,-0.033736,-0.023249,-0.062393,-0.020598},
{0.007212,-0.058801,-0.055043,0.002393,0.051915,0.013243,0.032696,0.045608,0.023584,0.028045,0.050165,0.048050,-0.032291,0.021396,0.047424,-0.003060},
{0.043845,0.045356,0.014310,0.047838,0.084220,0.035086,0.053649,0.025975,0.018698,0.019822,0.033963,0.014219,0.074500,0.052221,0.033151,0.167315},
{0.038569,0.026463,0.155321,0.052289,0.059289,0.215230,0.101575,-0.000325,-0.003632,-0.001345,-0.018841,-0.047677,0.001018,-0.008488,-0.051911,-0.019037},
{0.088143,-0.005045,-0.062380,0.178693,-0.045491,-0.103692,0.092870,0.035952,-0.083858,-0.006587,-0.010261,-0.028745,-0.041698,-0.025798,-0.038527,-0.034787},
{0.036646,-0.046570,-0.078037,-0.008742,0.112282,-0.167013,0.081573,0.165247,-0.111552,0.026879,0.138847,0.010746,-0.006210,0.036748,-0.019807,0.030946},
{0.073379,0.037342,-0.030871,0.035198,0.043629,-0.023136,-0.018960,0.012199,-0.012473,-0.020799,0.047970,-0.009719,-0.046459,0.014816,-0.012544,0.019407},
{-0.032608,-0.004842,0.001565,0.016346,-0.028865,-0.025967,0.041882,-0.001715,-0.064759,0.052730,0.023092,-0.114137,0.072689,0.097618,-0.064081,0.012718},
{0.083748,-0.063872,0.085001,0.020600,-0.064304,0.025446,0.032553,-0.059097,0.028187,-0.005253,0.043928,0.015626,-0.024796,-0.009779,0.005661,-0.006833},
{-0.017111,-0.024253,-0.028207,0.019719,-0.043041,-0.046774,0.029938,0.022769,-0.000329,0.021090,-0.033623,-0.006695,0.023413,-0.112630,0.013239,0.043443},
{-0.064190,-0.032142,0.041682,-0.034838,-0.032654,0.010667,-0.048674,-0.007278,0.016029,-0.017206,0.033876,0.036217,-0.107589,-0.023479,0.079838,-0.135046},
{0.068831,0.148886,-0.103120,0.008678,0.126917,-0.028131,-0.004410,0.028999,-0.071148,-0.002966,0.038906,-0.015742,0.025607,0.058345,0.023271,-0.051132},
{-0.067550,0.032987,-0.059142,-0.032963,0.044632,-0.037205,-0.054622,0.018199,-0.039542,-0.016891,-0.076558,-0.023670,0.009486,0.002572,-0.014954,-0.011490},
{-0.008450,-0.025431,0.048708,-0.023252,0.023607,0.057817,-0.011816,0.014488,0.034291,0.088605,0.044578,-0.113253,0.068825,0.023517,-0.123164,0.100404},
{0.021558,-0.102077,-0.008233,-0.026691,-0.012250,-0.050847,0.016504,0.018671,-0.045131,0.021507,0.052133,-0.004899,0.005103,0.020296,0.000215,0.025102},
{0.056075,0.016290,0.008546,0.056496,0.045738,-0.011754,-0.066637,0.028253,-0.053419,-0.063355,0.016754,-0.042964,-0.065522,-0.002956,-0.014054,0.073861},
{-0.051842,0.031484,0.096589,-0.042151,0.002231,0.110860,0.062686,0.013218,-0.054814,0.069499,-0.032673,-0.071730,0.077542,-0.037716,-0.056826,0.008906},
{-0.016380,-0.027118,0.011583,0.006359,-0.058533,0.037021,0.044866,-0.050854,-0.007119,-0.004945,-0.002561,-0.005951,-0.003179,0.010638,0.008152,-0.009010},
{-0.001943,-0.009732,0.031645,0.002712,-0.004637,0.002787,-0.034469,0.026181,-0.111839,-0.028316,0.045119,0.056922,-0.056543,0.087420,-0.031358,-0.088772},
{0.040460,-0.122290,-0.070390,0.006317,0.080331,-0.007493,0.029226,0.099567,-0.075448,0.114474,-0.027895,-0.072847,0.008652,-0.032158,0.004808,-0.053332},
{-0.019711,0.012963,-0.032616,-0.042060,-0.009185,-0.063643,-0.025934,-0.024375,-0.080809,-0.059892,-0.041296,-0.035465,-0.000225,-0.084594,0.031019,0.039388},
{-0.045145,0.009910,-0.012312,-0.048936,0.045752,-0.055887,-0.071872,0.058466,-0.015560,-0.010917,0.004583,-0.058008,-0.014593,-0.036678,-0.079170,-0.084444},
{0.060970,0.045561,0.100040,-0.181855,-0.145285,-0.081888,-0.057048,-0.055052,-0.007690,-0.052353,-0.143784,-0.057187,-0.228067,-0.143633,0.142493,-0.150058},
{-0.028433,0.100132,0.043687,0.067988,0.016049,-0.015042,0.275554,-0.023151,-0.122888,0.117475,-0.067100,-0.014462,0.041002,0.074302,-0.000702,0.108513},
{0.104759,0.009279,0.012844,0.029157,-0.000025,-0.017864,-0.030749,0.044790,0.118623,-0.025645,0.020316,0.048684,-0.006959,-0.008828,-0.109954,-0.060501},
{0.048568,-0.031972,-0.090560,0.119171,0.014761,-0.074662,0.143771,0.009887,0.035032,0.129940,-0.086166,0.063097,0.065937,-0.039501,0.198668,0.005443},
{-0.136334,-0.052449,-0.077349,-0.287574,-0.143950,0.054193,0.018772,0.067031,0.109688,0.004678,-0.257331,0.268212,0.259984,-0.308021,0.006657,0.167883},
{-0.149674,-0.041259,0.164841,0.082598,-0.222218,0.045767,0.058305,0.010555,-0.041762,-0.022155,-0.047210,0.113975,-0.026849,-0.180172,0.170826,-0.010491},
{-0.156248,0.026568,-0.019673,-0.101362,-0.146189,0.048679,-0.227684,-0.028879,0.263801,-0.116973,0.038358,0.102615,0.132494,0.092640,-0.006779,0.211372},
{0.139909,0.007059,0.013506,-0.148065,-0.131436,0.010145,-0.011882,0.041761,0.016568,-0.052110,0.022479,0.006824,-0.076235,-0.039967,-0.032651,-0.020637},
{-0.018037,-0.029294,0.011402,-0.121440,0.083164,0.110977,-0.049593,-0.011741,-0.079866,-0.102119,0.062901,0.000401,-0.030566,0.074921,0.070444,0.032494},
{-0.010355,0.098611,0.105429,-0.093181,0.150776,0.065965,-0.141414,0.010822,-0.088399,-0.002408,-0.039791,-0.044449,0.041684,0.051434,0.050668,0.057963},
{0.163592,0.111212,-0.085290,-0.001914,0.030437,-0.164879,0.031028,0.129685,-0.125363,-0.032336,0.134608,-0.153760,-0.055152,0.118193,-0.285875,-0.032606},
{0.274441,-0.106639,-0.034576,0.133134,-0.000662,-0.071240,-0.014756,-0.047975,-0.084884,-0.092924,0.011153,-0.004147,-0.000832,0.003652,0.069240,0.042423},
{0.032284,0.103852,0.072361,0.076115,0.051908,0.078889,0.029500,-0.019936,-0.003285,0.079363,-0.022997,-0.083839,0.045707,0.011472,-0.001689,0.011121},
{-0.069334,-0.012846,-0.010325,-0.197591,0.020364,-0.096952,-0.055674,0.109100,0.002381,-0.005695,0.017236,-0.033409,-0.040150,0.015175,-0.025515,0.012545},
{0.045275,0.055402,-0.116717,-0.065694,-0.045612,-0.110091,-0.176656,-0.023812,-0.044590,-0.086940,-0.089644,-0.236645,-0.113918,0.175612,-0.226564,-0.152234},
{0.238720,0.135121,-0.074849,0.079695,0.089268,0.142899,-0.032361,-0.153680,0.002223,0.131031,-0.108420,-0.034379,-0.050379,-0.133507,-0.040225,0.112051},
{-0.027952,0.077046,0.088310,0.010669,0.076162,-0.011586,0.071356,0.108984,-0.124921,-0.176310,0.047118,-0.025093,-0.172004,0.013774,0.011907,0.168283},
{0.111695,-0.161687,-0.065508,-0.019458,0.030991,-0.116448,0.021692,-0.027043,-0.209349,-0.176149,0.310754,-0.030868,-0.329213,0.135344,0.112366,-0.141151},
{-0.011139,0.007972,0.013765,0.040920,0.060344,0.002678,-0.017072,0.008303,0.036910,-0.023693,-0.013804,-0.003188,-0.002742,0.049879,0.024976,0.048030},
{0.014238,0.017689,0.012399,-0.010272,-0.013970,-0.015256,-0.009088,-0.024426,-0.002063,0.020662,-0.020744,-0.028081,0.044430,0.043826,0.046776,0.067040},
{0.066313,0.049777,0.035550,0.029797,0.021225,0.025030,0.008866,0.002045,-0.044123,-0.084980,-0.035342,-0.121607,-0.103406,0.076276,0.045263,0.050854},
{0.012306,0.015971,-0.038799,-0.000655,-0.010566,-0.024324,0.002789,-0.005472,0.012687,-0.010494,-0.010866,-0.013157,0.000930,-0.008527,-0.001345,-0.008948},
{0.019251,0.005925,-0.029329,0.000684,0.005320,-0.040472,0.014219,-0.014268,-0.026003,-0.027823,-0.006479,-0.005486,-0.005528,0.003822,0.005429,-0.002698},
{-0.032272,0.017484,-0.022974,-0.010081,-0.011474,-0.033789,-0.000147,0.006230,0.011150,0.061456,-0.001872,-0.009828,-0.006983,0.003611,0.036249,-0.000519},
{-0.013564,0.025293,0.013049,0.002971,0.001852,-0.001727,0.005524,-0.001649,0.018564,0.027914,-0.008665,-0.000630,-0.009379,-0.025439,-0.044347,-0.036075},
{-0.079704,-0.071546,-0.051187,-0.020061,-0.027221,0.031646,-0.023724,-0.015060,-0.015908,-0.088494,-0.084581,-0.019374,-0.071989,-0.072505,0.007684,0.042843},
{0.024097,0.044086,0.083978,0.043439,-0.011237,0.017831,0.010708,-0.015524,-0.002606,0.012535,0.056056,0.071876,0.036660,0.036851,0.044358,0.032385},
{-0.005882,-0.022602,-0.042250,0.006905,-0.023618,-0.027063,-0.011412,-0.024291,0.011937,-0.019529,0.003233,0.019595,0.005838,0.036803,0.012876,0.013696},
{0.043873,0.026967,-0.001599,0.022925,0.061728,0.015684,0.025841,0.037154,0.013509,0.006525,0.019190,-0.027268,-0.027440,-0.016091,-0.011059,-0.032267},
{-0.034990,0.006656,-0.005894,-0.037906,-0.003878,-0.000912,-0.022924,-0.001622,-0.010737,-0.021088,-0.027310,-0.001982,-0.038704,-0.006648,0.009478,-0.004141},
{-0.001389,0.011958,0.037109,0.024921,0.030332,0.051329,0.028270,-0.051388,-0.042507,-0.083173,-0.175372,-0.162611,-0.079720,-0.123332,-0.115497,-0.024300},
{0.005733,0.007860,0.026062,0.020701,0.039967,0.010650,0.005976,-0.000758,-0.001978,-0.041604,-0.024414,-0.061083,-0.122855,-0.108127,-0.089438,-0.112187},
{-0.102549,-0.004917,0.012194,-0.018082,0.017447,0.000440,0.029171,0.008013,0.020670,0.002268,-0.012120,-0.016515,0.020954,0.002223,-0.000403,-0.019225},
{-0.003331,0.005064,-0.011949,-0.000220,-0.033488,-0.010794,-0.014552,-0.019514,-0.006415,-0.014461,-0.003757,-0.002402,-0.024812,0.019481,-0.018268,0.006337},
{0.010584,0.035382,0.003291,0.035580,0.060803,0.003561,0.000732,-0.003922,0.003553,-0.046189,-0.046804,-0.011069,-0.011403,-0.031735,-0.032688,-0.002849},
{-0.018417,-0.022120,-0.004385,0.010841,-0.003634,-0.004986,-0.011701,0.012551,-0.005059,-0.003733,0.033369,0.016456,0.044716,0.007182,0.025059,0.047143},
{0.012155,0.059787,0.092503,-0.004778,-0.032195,-0.001547,-0.002896,0.009521,-0.005954,-0.000111,0.044214,0.053370,-0.045308,0.000553,-0.002669,-0.079909},
{-0.045394,-0.016011,0.006220,-0.032092,-0.065235,-0.005176,0.018038,-0.081084,0.000060,0.016476,-0.038945,-0.035304,-0.032246,0.033755,-0.052892,-0.008277},
{0.056411,-0.068501,-0.059852,-0.082661,0.028225,-0.142352,-0.316412,0.081833,0.019052,-0.139505,0.126449,0.127917,0.052173,0.063483,0.091251,0.044885},
{0.009263,-0.015599,0.049161,0.004735,0.036031,0.053322,-0.011173,-0.034614,-0.027219,0.000538,0.022751,0.004290,0.002631,0.019882,0.033095,-0.034282},
{-0.011653,0.111946,-0.031838,-0.036005,0.078774,-0.103062,-0.087894,-0.054848,-0.003801,-0.017011,0.021330,0.033435,0.052245,0.016167,0.026116,-0.038955},
{-0.002199,-0.045034,-0.044790,-0.072070,-0.047629,-0.056545,-0.038617,0.038342,0.003711,0.033379,0.012155,0.066376,0.051894,-0.013404,0.048053,0.035540},
{-0.078012,-0.085942,-0.067803,-0.016298,0.027924,0.023474,-0.041528,-0.027826,0.001373,0.014291,-0.011824,-0.047015,0.074501,-0.115535,-0.387856,0.132011},
{0.030802,-0.104772,0.168969,0.121002,0.048994,-0.026548,0.008059,-0.025649,-0.003546,0.043424,0.046914,-0.010430,-0.004050,0.002480,-0.037405,0.088573},
{0.130722,-0.082625,-0.007156,0.049365,-0.050630,0.006181,0.002254,-0.025287,0.046578,0.023231,-0.028232,-0.033147,-0.002110,-0.067367,-0.063250,-0.005672},
{-0.004103,-0.062416,-0.010025,0.026155,0.004696,0.027908,0.077026,0.063048,0.060544,0.006331,0.138523,0.119482,-0.037346,0.015440,0.077283,-0.124469},
{-0.141293,-0.083270,0.014987,-0.025104,-0.031558,-0.032261,-0.047204,-0.085503,-0.067473,-0.078848,-0.067571,0.032881,0.037521,-0.018012,0.040676,0.037037},
{0.060811,0.059518,0.029404,0.040949,-0.001008,0.119923,0.123350,-0.021991,0.048312,0.089711,-0.096736,-0.064134,-0.031031,0.053580,0.096648,0.159704},
{0.015775,-0.006695,0.009868,-0.052039,0.006502,0.017894,-0.024104,0.099020,0.390240,-0.139745,-0.090088,0.129899,-0.210613,-0.233306,-0.048621,-0.001394},
{0.034305,0.029558,-0.005937,-0.018717,0.030420,-0.008974,-0.013618,-0.001773,-0.084240,0.110435,0.301573,-0.140797,-0.058412,0.113949,-0.149750,-0.131808},
{-0.008554,0.054363,-0.009347,-0.031618,-0.003708,-0.057522,-0.000105,-0.041560,-0.005649,-0.047652,-0.031992,0.028351,0.019924,-0.031595,0.009824,-0.027938},
{0.011088,0.031710,0.044342,-0.006623,-0.027979,0.056443,0.035125,0.000484,-0.014300,0.051552,0.030077,-0.003500,-0.026027,0.019093,0.073385,-0.017754},
{-0.005764,0.043698,0.005572,-0.029561,-0.011581,0.017914,0.062923,-0.118943,-0.027440,0.042430,0.009228,-0.096185,-0.107202,-0.042129,-0.006420,-0.015390},
{0.044806,0.032614,-0.003577,0.006631,0.019016,-0.024497,-0.018418,-0.003692,0.033098,0.019733,0.025393,0.026753,0.002302,-0.020014,-0.044463,-0.055544},
{0.018998,0.001305,-0.026525,0.124201,0.064940,-0.024473,0.084122,-0.034030,-0.054446,-0.031273,0.149360,0.066062,-0.079541,0.027325,-0.118018,0.015207},
{-0.031589,-0.059585,-0.040459,-0.010329,0.041923,-0.072818,-0.102893,-0.011320,-0.019762,-0.066370,-0.006842,0.012182,-0.017831,0.030582,0.031937,0.193516},
{-0.060478,0.293974,0.127424,-0.125795,-0.026795,-0.008549,-0.001231,0.003011,-0.048625,0.032630,-0.033539,0.027327,0.030607,0.052041,0.051344,0.013103},
{0.014135,0.003050,-0.064211,-0.008654,-0.016593,-0.038035,0.020099,0.005158,-0.060491,0.004613,-0.032447,0.011279,0.058466,0.042965,0.020447,-0.044260},
{-0.028445,-0.004205,-0.004466,-0.051525,-0.017104,-0.020661,0.013103,-0.016270,-0.054019,-0.025494,-0.058692,-0.036590,-0.058310,-0.020782,-0.004392,-0.023000},
{0.010769,-0.059977,-0.038282,-0.039618,-0.085256,-0.155725,-0.004458,-0.035138,0.046694,0.133939,0.026865,-0.051754,-0.080609,-0.034708,-0.129431,-0.006574},
{-0.039199,-0.032001,0.041542,-0.019364,0.023472,-0.017412,0.014712,0.022128,0.022497,0.016103,0.050682,0.045727,0.039816,-0.103331,-0.165436,0.028711},
{-0.140476,0.033877,-0.053648,0.028707,0.185894,-0.141603,-0.052146,0.117958,-0.187030,-0.048052,0.135741,-0.082821,0.056219,0.119012,-0.053913,0.021238},
{-0.043122,-0.047594,-0.004572,-0.049328,0.102969,-0.013440,-0.044086,-0.089027,0.123505,0.088524,0.003124,0.414842,0.030494,0.174074,0.212253,-0.125262},
{-0.060519,0.039954,0.058418,0.005813,0.073984,0.111533,-0.026831,0.032320,0.065450,0.093297,0.090211,0.000821,0.128420,0.074104,-0.067404,0.061443},
{-0.050112,-0.130537,-0.052088,-0.025088,0.041904,0.040963,-0.048628,0.069865,-0.037601,-0.061566,0.038426,0.011326,-0.011012,-0.017936,0.002971,-0.065696},
{0.022296,0.027118,0.076853,0.000232,0.043062,0.086512,0.013322,0.029223,0.078674,-0.036380,0.050257,0.037502,-0.036966,0.018761,-0.002707,-0.024202},
{0.019829,-0.129051,0.031364,-0.026487,-0.046556,0.026180,-0.023598,-0.028505,0.077080,-0.073304,-0.014409,0.060920,-0.031534,0.029536,0.018084,0.015574},
{0.063038,0.011182,0.026049,-0.030520,0.019141,0.015655,0.026005,0.073333,-0.044421,0.021935,0.006896,-0.041192,0.037748,-0.014290,0.010742,0.013310},
{-0.042988,-0.045005,-0.059680,0.070419,-0.069581,0.075575,0.080812,-0.021947,0.111840,-0.011860,0.038146,-0.001245,-0.050679,0.048718,-0.000416,-0.027707},
{-0.046857,-0.002573,0.010985,-0.021142,-0.067735,-0.001218,-0.029615,-0.040600,0.012095,0.004878,-0.007227,0.013789,-0.061378,-0.027942,-0.017037,-0.016826},
{-0.101317,0.032200,-0.116179,-0.081073,-0.025195,-0.033898,0.082761,0.003672,-0.038325,-0.058003,-0.013236,-0.039294,-0.248440,0.008513,-0.000641,-0.011552},
{0.137189,0.033793,0.074278,0.079036,0.017725,-0.006547,-0.014334,0.004764,-0.023310,-0.016886,-0.065589,-0.010144,-0.022014,-0.044854,0.006127,-0.066980},
{-0.025023,-0.060750,-0.086021,-0.006252,-0.011946,-0.049759,-0.094521,-0.039600,-0.084790,0.002438,-0.020915,-0.020883,-0.003326,-0.039691,-0.018193,-0.004642},
{-0.005144,-0.017390,-0.008765,-0.014654,-0.023607,0.003068,0.012954,0.004234,-0.059439,-0.043947,-0.057948,0.036631,0.027222,0.028171,0.025571,0.065572},
{0.035142,0.077499,0.093360,0.136237,0.058487,0.076436,0.086663,0.002527,0.007671,0.051972,-0.015507,0.070591,0.055692,-0.004015,-0.019703,0.054004},
{0.012155,-0.000851,0.008831,0.005903,0.021098,0.013816,-0.009345,-0.034359,-0.058509,-0.073147,-0.081437,-0.095530,-0.075065,-0.067290,-0.055361,0.002426},
{-0.022929,-0.053698,-0.043070,-0.040657,-0.030188,-0.036182,-0.031011,0.027126,-0.009885,-0.028370,-0.005050,-0.019432,0.052703,0.052181,-0.014790,0.036954},
{-0.055084,-0.037383,-0.058219,-0.019200,-0.045711,-0.048612,0.018782,-0.016252,0.050687,0.072535,-0.012627,-0.028589,-0.030818,-0.064383,-0.044491,-0.010147},
{-0.067330,-0.033054,-0.070567,0.009878,0.003561,-0.028630,-0.065032,-0.101263,-0.005786,-0.083394,-0.104625,-0.082055,-0.003775,-0.014908,-0.023291,0.026210},
{0.025350,0.014613,-0.009786,-0.017328,-0.010616,0.006889,-0.007096,-0.043291,0.048776,0.121898,0.076288,-0.019443,0.074239,0.032488,0.002026,0.022825},
{0.058571,-0.021779,0.038937,0.022474,0.011925,0.018292,0.010548,0.081732,0.088607,0.019663,0.025652,0.120435,0.135318,0.010402,0.084262,0.175970},
{-0.069494,-0.085464,-0.089682,-0.085061,-0.071684,-0.083997,-0.132125,-0.124053,-0.115131,-0.025602,-0.008883,0.009626,-0.024269,0.030871,0.026561,-0.022861},
{0.026482,0.001979,0.029130,-0.013671,-0.051229,-0.033896,0.012592,0.020401,-0.054305,-0.027287,-0.002952,0.063592,0.014190,-0.041524,0.026575,0.044217},
{0.023863,0.016501,0.055043,0.019599,-0.040708,-0.048621,-0.031475,-0.007297,-0.047647,-0.055370,-0.003868,0.013386,-0.022203,0.073850,0.142412,0.126049},
{0.156309,0.231306,0.173237,0.046216,0.084874,0.039721,-0.025496,0.002093,-0.034088,0.032543,0.087288,-0.001214,0.015092,0.005938,-0.056866,0.007594},
{0.022744,0.001997,-0.043408,-0.004380,0.012061,-0.031186,0.021023,0.024471,0.037748,0.065562,0.026463,0.028376,0.023863,-0.003149,0.032182,0.012049},
{-0.018151,0.011612,-0.002596,-0.026293,0.005903,-0.015486,-0.044101,-0.010709,-0.005055,-0.084340,-0.064721,-0.038259,-0.045592,-0.002149,-0.051724,-0.091758},
{-0.030635,-0.080337,-0.120551,-0.008986,-0.046826,-0.018450,-0.077546,-0.045917,-0.024284,-0.073666,-0.028850,-0.002502,0.017281,0.060087,0.032569,0.104456},
{0.167823,0.010083,0.111682,0.132638,0.018233,-0.038945,-0.008625,-0.050134,-0.036086,-0.003334,-0.013427,-0.002313,0.029058,0.000431,-0.030163,-0.026350},
{-0.033813,0.032054,0.049138,-0.004233,0.028131,0.036281,-0.008824,-0.008046,0.005823,-0.010699,0.011486,-0.005749,-0.029122,-0.017246,-0.007169,-0.050232},
{0.047630,0.059808,0.062461,0.020894,-0.002072,-0.020751,0.037593,0.023033,-0.006542,-0.017863,-0.037455,0.005614,-0.013752,-0.017622,0.018834,-0.021726},
{0.025148,0.028200,0.008293,-0.009036,0.031092,-0.023839,-0.019366,-0.015578,-0.021042,0.021265,0.018193,-0.046126,-0.053824,-0.067716,-0.007455,0.096500},
{0.106008,0.008495,0.037288,0.027046,0.070362,0.139709,0.109109,-0.011423,-0.015422,-0.043500,-0.140905,-0.456224,-0.461787,-0.033222,0.010530,-0.025658},
{0.092898,0.230208,0.088826,0.064955,0.038200,-0.029829,-0.005843,0.038359,0.023809,-0.004103,-0.014634,0.005615,-0.021553,-0.007962,0.000475,-0.001761},
{0.013914,-0.038103,0.041466,0.027173,-0.040607,0.022564,0.004008,-0.033337,-0.003604,0.010300,0.012043,-0.008009,0.060923,0.023077,-0.001548,0.006760},
{0.006001,0.014485,0.013703,-0.019296,-0.015501,-0.000205,0.002398,0.006760,0.006944,0.051303,0.036368,0.016270,0.029514,0.050427,0.019342,0.019511},
{-0.019700,-0.055819,-0.064885,0.000207,0.013850,0.015325,-0.011505,0.018565,0.040483,0.006513,-0.017180,0.018703,0.093187,0.058763,0.053671,-0.053453},
{-0.127851,-0.113896,-0.031403,-0.050304,-0.031044,-0.008867,-0.023032,-0.003454,-0.029989,-0.002824,0.007810,-0.004290,0.029433,0.053818,0.006900,-0.029628},
{-0.015215,0.001067,-0.000355,0.051829,-0.023908,0.012207,0.008370,-0.022251,-0.013047,-0.012081,-0.031115,0.042486,-0.005987,0.048465,0.077920,-0.015371},
{0.016724,0.030816,0.013372,-0.009595,0.027276,0.055277,0.008174,0.045661,0.003019,-0.007070,-0.027026,0.002616,-0.002631,-0.015796,-0.002296,0.027732},
{-0.012204,-0.018685,0.037596,-0.037737,-0.005201,-0.026487,-0.047392,-0.000183,-0.008943,0.012291,-0.023997,-0.020698,-0.011170,-0.014861,-0.035744,-0.011897},
{0.052221,-0.011178,0.004772,0.029102,0.013216,0.006010,0.000455,0.031627,-0.014239,-0.027175,-0.024198,-0.065510,-0.088565,0.014536,-0.002800,-0.007705},
{-0.008345,-0.048675,-0.048175,0.010243,0.030488,0.056487,-0.193790,-0.296761,-0.234510,-0.135220,0.027259,0.009694,0.031275,0.207375,0.164735,-0.001417},
{-0.029072,-0.021368,0.010192,-0.032940,0.022830,0.015220,0.011324,0.051696,-0.129157,-0.207183,-0.183392,-0.081260,0.028732,-0.032409,0.006740,0.150707},
{0.133413,-0.009030,-0.038684,-0.056529,-0.021901,-0.040266,-0.049510,0.007669,0.019439,0.037921,0.021697,0.005031,0.016115,0.010898,-0.010359,-0.023966},
{-0.017396,-0.014802,-0.001719,0.015500,-0.004747,-0.004935,0.020305,0.007919,-0.012911,0.027627,-0.001351,0.016058,-0.005852,-0.028252,-0.044229,-0.017467},
{-0.022965,0.042028,-0.023374,0.025182,0.114728,0.003731,0.003094,-0.012244,-0.016913,-0.038212,-0.016149,0.003876,-0.012110,-0.008521,0.026824,0.034466},
{0.018896,0.003614,-0.030390,-0.002849,-0.047504,-0.047978,-0.036501,-0.005743,0.011275,-0.023876,-0.015334,-0.022913,-0.046856,0.008815,0.023784,0.017217},
{-0.093421,-0.082134,-0.081650,-0.107049,-0.145213,-0.142363,-0.091458,-0.139778,-0.115594,-0.046185,0.072817,0.019931,-0.040377,0.078056,-0.009914,-0.017291},
{0.024830,-0.004945,-0.011917,0.035286,-0.006160,-0.012863,0.065833,-0.013571,-0.039005,0.041508,0.001047,-0.031816,-0.082048,-0.047588,-0.116219,-0.187054},
{-0.104052,-0.063034,-0.118808,-0.078039,0.075258,0.050383,0.030519,-0.021228,0.022446,0.010461,0.000927,0.036342,0.013727,0.026246,0.049909,-0.003499},
{-0.034019,-0.012665,-0.015700,-0.009436,0.015736,-0.016384,-0.053496,-0.080496,-0.046816,-0.033549,-0.098627,-0.056518,-0.014878,-0.079548,-0.046958,0.000115},
{0.014284,-0.016812,-0.008315,0.035209,-0.006760,0.008460,0.034519,0.033273,0.063192,0.061918,0.034061,0.038854,0.067849,0.069171,0.041563,0.056245},
{0.072243,-0.029219,-0.030045,-0.011994,-0.052152,-0.071806,-0.003247,-0.001861,0.009509,0.034960,-0.015781,-0.051351,-0.044394,-0.071937,-0.068953,-0.117781},
{-0.117659,-0.071144,-0.095551,0.008550,0.040822,0.057941,0.047619,0.031736,0.037429,0.036536,0.041943,0.069411,0.035949,-0.015746,-0.039126,0.002479},
{-0.058185,-0.038800,-0.000194,-0.058037,-0.043751,-0.018818,0.000711,-0.041066,-0.039683,-0.007365,-0.042493,0.006123,0.029739,0.004025,-0.053206,0.010232},
{-0.081774,-0.057960,-0.021898,-0.099031,-0.056722,-0.047795,-0.046901,-0.006753,0.180499,0.130184,0.040382,0.247800,0.086530,0.047686,0.242119,0.098496},
{0.036400,0.104108,0.056279,0.042451,0.139334,0.117953,0.069728,0.095997,0.117641,0.004664,0.048282,0.007769,-0.001020,0.022492,0.024118,0.041836},
{0.055433,0.054842,-0.030682,-0.052417,0.005368,-0.032573,-0.078086,-0.027017,-0.039438,-0.089875,-0.022010,0.022442,-0.020819,0.012519,0.023362,-0.042216},
{0.014417,-0.006258,-0.008965,-0.012657,-0.015742,-0.015873,-0.036825,-0.012938,-0.009216,-0.056951,-0.015613,-0.027504,-0.059764,-0.031871,-0.096433,-0.034356},
{-0.033674,-0.118239,-0.077182,-0.034797,-0.081750,-0.076894,0.037484,0.062829,0.004043,0.001969,0.030051,-0.030021,0.029596,0.029861,-0.001732,0.029399},
{0.040455,-0.015183,0.040000,0.022728,-0.018671,0.008219,0.031050,0.044960,-0.003870,0.035223,-0.016577,-0.023632,0.049440,-0.022124,-0.042731,0.007930},
{-0.025371,0.023444,-0.012804,0.021822,-0.044343,-0.017225,-0.067730,-0.029239,0.028345,-0.062202,0.004744,0.016143,0.006631,0.025058,0.001411,-0.007006},
{0.004256,0.026147,0.008558,-0.022357,-0.077686,-0.069211,-0.024879,-0.073307,-0.066672,-0.065757,-0.084239,-0.098384,0.067906,0.104117,0.097207,0.127981},
{0.080566,0.186158,0.118849,0.113263,0.200832,-0.002691,-0.064144,-0.010044,-0.093606,-0.144958,-0.058933,-0.043544,-0.065734,-0.048295,0.023774,0.011505},
{0.000363,-0.003370,0.021840,-0.012406,0.010590,-0.024571,-0.008365,0.043850,-0.002567,0.015330,0.020629,-0.033036,-0.014665,0.008012,-0.002801,-0.019185},
{-0.017020,0.030973,-0.037755,-0.005261,0.057010,-0.027288,-0.024346,-0.057775,-0.114106,-0.043548,-0.073791,-0.197789,-0.106887,-0.126174,-0.114806,-0.089408},
{-0.214470,-0.153033,-0.005792,-0.008322,-0.034028,-0.010324,-0.076777,-0.041911,-0.023627,-0.101619,-0.081484,-0.050833,-0.060406,0.158013,-0.064926,0.007668},
{0.015680,-0.051455,0.080759,0.078845,-0.011798,0.035627,0.015922,-0.011882,0.010994,-0.029809,-0.015151,0.001780,-0.071444,0.001179,0.016263,0.004214},
{0.007140,0.028190,0.028963,0.004113,0.028882,-0.010094,-0.060699,-0.073386,-0.039406,-0.040489,-0.042804,-0.050829,0.004051,-0.008712,-0.063806,0.047226},
{0.073373,0.012834,0.042159,0.031949,-0.043322,-0.031565,0.024533,0.020435,-0.101254,-0.178394,-0.189180,-0.180960,-0.200443,-0.256035,-0.137966,-0.210718},
{-0.187017,0.017810,-0.024699,0.027310,-0.023660,-0.055507,0.043374,0.023600,-0.012803,0.077777,0.099171,-0.055257,-0.041646,0.040269,-0.051590,0.114519},
{-0.076865,-0.119470,0.049125,0.120926,0.109568,0.111409,0.130199,0.119865,0.126688,0.098760,0.102146,0.091809,0.052788,-0.018940,-0.031674,-0.026138},
{-0.084426,0.001203,0.014775,0.007636,0.036177,0.015370,-0.039043,0.017059,-0.027201,-0.036973,0.035084,-0.041763,-0.020598,0.050191,-0.058796,-0.033546},
{-0.051112,-0.075946,0.042234,-0.047545,-0.025868,-0.040888,-0.011402,0.000072,-0.089308,0.035349,-0.008759,0.074129,0.045659,-0.028145,0.058000,-0.038167},
{0.062471,0.025382,-0.002807,0.028817,0.048766,0.074063,-0.005465,-0.007457,-0.014274,-0.033619,-0.014403,-0.053702,0.015604,0.063916,0.009556,0.066161},
{0.081079,-0.107556,0.009753,-0.076761,0.000695,-0.041363,-0.077042,-0.016070,-0.054551,-0.007115,0.018087,0.071597,0.048187,0.013408,0.078075,0.106994},
{0.066865,0.081392,0.101063,0.118807,-0.021457,-0.012126,-0.002469,-0.035497,-0.042226,-0.006242,-0.022045,-0.013221,0.047674,0.095392,0.064773,-0.025274},
{0.018361,0.031475,-0.053833,0.067871,-0.075548,-0.115499,-0.005841,-0.021438,0.026234,-0.021311,0.032149,0.022190,-0.006475,0.021480,-0.016366,-0.203188},
{-0.288436,-0.180924,-0.217634,-0.315461,-0.210822,-0.237749,-0.244492,-0.146243,-0.015443,-0.032240,-0.002542,0.009017,0.049209,0.007839,-0.000838,0.018052},
{-0.003072,0.081811,-0.010379,0.118796,0.041392,-0.044463,0.056186,0.014232,0.028753,0.099145,0.043650,0.069562,0.102753,0.053804,0.127134,0.091188},
{0.059044,0.121976,0.060158,0.047647,0.035741,0.171612,0.014190,0.093657,0.090969,0.063930,0.213554,0.021759,-0.018019,0.052460,0.114698,-0.002716},
{0.016180,-0.061493,0.036650,0.021995,0.016509,-0.035224,-0.024694,0.000656,-0.053652,-0.098027,-0.073238,0.003600,-0.009854,0.014836,0.060984,0.040366},
{0.062903,0.074210,0.114189,0.044528,0.071955,0.094953,0.107563,0.054368,0.111441,-0.044418,0.068595,0.066983,-0.028848,0.089502,0.051196,0.008764},
{0.025806,0.007370,0.016770,0.053670,0.071647,-0.046439,0.028359,0.071434,0.023007,-0.075761,-0.125638,-0.071871,-0.106151,-0.253320,-0.152378,-0.079001},
{-0.208806,-0.159320,-0.051824,0.013601,0.015404,-0.009609,-0.044497,-0.000073,-0.032345,-0.076479,0.035585,-0.022932,-0.019241,0.014862,-0.002553,0.051671},
{-0.080501,-0.072996,-0.026836,-0.013877,-0.017406,-0.060722,-0.071314,0.051940,0.005296,-0.102720,-0.034790,0.090881,-0.017643,0.031693,0.068735,0.074237},
{0.012658,-0.016298,0.034145,0.036241,-0.021102,-0.008659,0.002881,-0.039604,0.010023,0.027947,-0.051395,-0.041505,0.038906,-0.014820,-0.034497,0.011533},
{-0.041620,-0.053814,-0.019879,0.020389,-0.046199,-0.079676,0.059746,0.099148,0.002023,-0.003751,0.016316,0.022512,-0.022018,0.050548,0.085501,-0.022432},
{0.010201,0.062628,0.074605,0.063549,0.014879,-0.012116,0.031039,-0.011316,0.117283,-0.039039,-0.070365,0.019377,-0.046030,-0.074499,-0.019720,0.005244},
{-0.056020,-0.080489,-0.056875,0.012372,-0.050504,-0.029301,0.138677,0.024101,-0.076768,-0.020169,0.083297,0.010296,-0.054166,0.052761,0.048901,-0.076071},
{-0.018175,0.112180,-0.059187,0.007052,0.087827,-0.013106,0.010918,0.008091,-0.058616,0.081190,0.049654,-0.164281,-0.011305,0.075867,0.035303,-0.011797},
{0.010229,0.041981,-0.015875,-0.030205,-0.012858,-0.000716,-0.005310,0.000749,-0.000822,-0.027902,0.010196,0.000426,-0.044625,0.068348,0.082180,0.004032},
{0.027677,0.048723,0.055177,-0.003344,-0.011662,0.062139,0.013790,-0.012787,0.026123,0.020236,0.038967,-0.039273,-0.032101,0.050367,-0.087442,-0.070378},
{0.005642,-0.023087,0.003819,0.037708,-0.084328,0.023200,0.306657,-0.107835,-0.051045,0.059541,0.112496,-0.000558,-0.043426,-0.007349,0.018851,0.034131},
{-0.066950,-0.076414,-0.007782,-0.010974,-0.031302,-0.004196,-0.027292,-0.057936,-0.030694,-0.028722,-0.067862,-0.048630,-0.057023,-0.037660,-0.005667,0.003632},
{0.011990,-0.014004,0.019795,0.039010,-0.011981,0.044507,0.017033,0.002219,-0.001709,0.032641,0.021508,-0.032612,-0.025027,0.047737,0.015334,0.018787},
{-0.037670,-0.014655,0.112988,0.192121,-0.053921,0.025845,0.339498,0.013630,0.037224,-0.051748,-0.049091,0.066215,-0.038119,-0.107017,0.063974,0.072159},
