constant float16 weights_layer_10_row_major[125*512] = {
{0.023393,0.043861,-0.079350,0.067800,-0.008475,0.064693,-0.039436,-0.003046,-0.021712,-0.028164,-0.010203,-0.024195,0.093200,0.031254,0.047028,0.014447},
{-0.009920,0.038221,0.005591,-0.061752,0.037799,-0.068956,0.122574,0.007977,0.018258,0.063508,-0.039348,-0.037538,-0.018877,-0.024260,0.128430,0.002406},
{0.011005,0.015439,-0.018559,0.085912,0.037895,0.054160,0.025393,-0.003083,-0.022557,-0.014102,0.023798,-0.020372,-0.044385,0.016637,-0.014995,-0.003084},
{0.024097,0.007267,-0.049344,-0.055422,-0.007849,0.036932,0.029497,0.008735,0.031817,-0.037289,0.005601,-0.013854,-0.042972,-0.041616,-0.000208,0.008256},
{-0.010665,0.016400,0.007940,0.061380,-0.031725,0.025875,0.067983,0.015235,0.022711,-0.149396,-0.021551,-0.015610,0.001173,-0.081045,0.003393,-0.064235},
{-0.010479,-0.003044,-0.016119,-0.043845,0.028763,-0.007311,-0.007766,0.009700,-0.007368,0.011475,-0.054804,0.048875,-0.050955,0.091650,-0.001200,-0.024301},
{-0.000896,0.036310,0.084544,0.001778,-0.004312,0.058867,-0.045135,-0.066755,0.074023,-0.060676,0.019907,0.093737,-0.029653,-0.015836,-0.166809,0.046290},
{-0.080562,0.039674,0.075725,0.071623,0.011787,-0.027848,-0.051371,0.023295,0.057554,0.000393,-0.002826,0.031175,-0.067555,0.035267,0.040949,-0.075337},
{0.023936,0.000391,0.005332,0.037344,-0.002154,-0.071278,-0.025041,0.042642,0.017748,0.022029,-0.017789,0.032943,-0.010759,0.006780,0.032406,-0.004773},
{0.010774,0.009824,-0.131523,-0.027493,-0.009454,0.007161,-0.001277,-0.003110,0.008259,-0.047796,0.071030,-0.019872,0.011339,0.083166,0.012338,-0.022848},
{-0.042989,-0.035339,-0.081720,-0.062740,0.026442,-0.012716,0.007985,0.008903,-0.126555,0.008537,0.001220,-0.043906,-0.111981,0.025859,0.022772,0.013817},
{0.005197,-0.048143,-0.023884,0.039073,-0.050538,-0.005664,0.049381,0.001744,-0.056986,-0.036307,-0.020906,0.011828,0.018772,-0.011550,0.027837,0.049621},
{-0.067896,0.000921,-0.007468,-0.034705,-0.024215,-0.053786,-0.032756,0.024925,-0.051931,0.022293,-0.022558,0.040070,0.011888,-0.012705,-0.043906,0.059683},
{0.030363,-0.013524,0.026040,0.000854,0.033819,0.021755,-0.012752,-0.096506,0.033394,0.009262,-0.059340,-0.018709,-0.023461,-0.044027,0.036236,0.010573},
{-0.050535,0.030846,-0.030187,-0.014952,-0.083357,-0.017839,-0.076323,0.082117,0.013926,0.030204,0.018501,-0.019931,0.093363,-0.002979,-0.008069,-0.053565},
{0.015911,0.022962,-0.000414,0.003915,0.089204,-0.046409,-0.002204,-0.014648,0.005631,0.014439,-0.026923,-0.029862,0.024375,-0.009992,0.037098,-0.001731},
{0.021937,0.059136,-0.022613,-0.000114,-0.008263,-0.025836,-0.010981,-0.007169,-0.024033,0.002892,0.054025,-0.033428,0.043604,-0.021309,-0.028103,0.014513},
{-0.012857,-0.001067,0.030661,-0.001459,-0.010609,-0.076255,0.008716,0.014610,0.005493,0.010079,-0.004408,-0.007312,-0.101967,0.049164,-0.013950,0.020170},
{-0.030418,0.009395,-0.110655,0.049842,0.011776,0.018445,-0.006126,-0.084852,0.020827,-0.028617,0.021061,0.047487,0.008225,0.066166,-0.018448,-0.015900},
{-0.031355,0.010463,0.039469,0.005857,-0.045315,0.091868,0.067311,0.039791,0.064234,0.017863,0.019802,0.007067,-0.010628,-0.014769,0.014861,-0.018628},
{0.085376,-0.053737,0.034245,0.012720,0.011595,-0.021753,-0.014351,0.003068,-0.014607,0.048782,0.009960,0.027271,-0.046511,0.000583,-0.001075,-0.001826},
{-0.083527,-0.000868,0.020292,0.060369,-0.027251,0.007294,0.008368,0.037560,0.014924,0.039400,0.036941,0.020773,0.001570,-0.015717,0.068108,0.020664},
{0.037870,-0.035122,0.005865,0.004360,-0.003283,-0.038754,-0.093908,0.121513,0.059973,-0.127444,-0.039104,-0.029173,-0.057213,-0.026654,-0.031808,0.019951},
{0.083795,0.031541,0.029101,-0.018354,0.029734,-0.017244,0.048082,0.009835,0.065017,-0.044983,0.085900,0.013299,-0.032201,0.026409,0.107185,-0.056612},
{0.053230,0.004327,0.020934,0.050599,-0.012022,0.039996,0.025143,-0.057257,0.052517,0.077075,-0.063230,-0.010232,0.008266,0.033070,0.009049,-0.014148},
{-0.047567,-0.010971,-0.004917,-0.023027,0.076649,-0.020298,-0.011763,-0.007660,0.034598,-0.000184,-0.001408,0.054159,-0.031468,-0.018457,0.017137,-0.059387},
{-0.035244,0.003975,-0.000320,0.020389,-0.026633,0.030046,0.063504,0.005516,-0.048902,0.015754,0.009887,0.048774,-0.044608,0.014576,0.052287,-0.082854},
{-0.000947,-0.012944,-0.012761,0.034385,-0.025643,0.015672,-0.013231,0.009393,-0.067059,-0.019737,0.011301,-0.022816,0.058495,-0.011968,-0.015259,-0.029395},
{-0.049337,0.024280,-0.063274,0.108027,0.002758,0.015294,-0.021055,0.059290,0.008379,-0.027932,0.052778,0.025348,-0.038708,-0.017532,-0.031339,0.019424},
{-0.070797,-0.009615,0.047104,0.027351,0.002142,-0.012114,-0.050315,0.037886,-0.082500,-0.004210,-0.017059,0.101991,-0.028394,-0.044731,0.007809,0.000451},
{0.101158,0.009759,0.073341,-0.012235,-0.057085,-0.052087,-0.052666,-0.042961,-0.017332,-0.027993,0.011825,-0.011400,-0.024160,-0.045212,-0.092555,-0.015873},
{0.044327,-0.058427,0.012757,0.031459,-0.003611,0.029880,0.016314,-0.019415,-0.013656,-0.016190,0.003644,-0.010048,0.048748,-0.007668,-0.039125,0.024783},
{-0.013901,-0.013999,0.069431,0.031604,-0.109919,-0.054262,-0.019914,-0.006724,-0.074795,0.042203,-0.068796,-0.017384,-0.104172,-0.022187,-0.018804,0.111199},
{-0.018486,-0.058067,0.010680,0.005656,0.006215,0.000343,-0.022055,-0.034417,0.010682,-0.029053,0.002422,-0.019640,0.014499,0.022094,-0.034677,-0.042381},
{-0.027580,0.006472,-0.013118,-0.008511,-0.064538,0.042768,-0.063956,0.051974,-0.034508,-0.020262,0.025830,-0.015273,0.109005,-0.026460,-0.038053,-0.023146},
{-0.017469,-0.012403,-0.017393,-0.031484,-0.015272,0.059143,0.054652,0.033640,-0.006003,0.017873,0.013189,-0.032482,0.047545,0.026717,0.034069,-0.039335},
{0.008947,0.029928,0.045308,-0.042107,-0.022702,-0.055384,-0.041177,0.045653,0.037694,0.065884,-0.053663,0.033016,-0.101086,0.003650,-0.004279,-0.141139},
{-0.050055,-0.044553,-0.023846,-0.048428,-0.007313,-0.014242,0.021588,-0.017426,-0.001134,-0.042137,0.077905,0.004698,0.027152,0.010429,0.008026,-0.022080},
{-0.128566,0.049178,-0.039880,0.008963,0.010707,-0.085263,-0.009516,0.004359,-0.000559,0.021913,0.005357,0.034407,0.039267,-0.002105,0.009346,-0.002477},
{0.009289,0.076543,-0.017294,0.054523,-0.006182,0.037501,-0.094722,-0.043062,-0.065101,-0.088176,0.047229,-0.000678,-0.038105,0.010256,-0.034247,-0.000810},
{-0.005242,0.014216,0.045248,0.075691,0.041966,-0.008698,0.029316,-0.065751,-0.025604,0.051898,0.026422,0.007408,-0.020090,-0.098247,-0.024361,-0.040536},
{0.011063,0.034126,-0.024030,-0.011532,0.025732,-0.020664,0.000422,-0.046383,0.035570,-0.056542,0.031413,0.019418,-0.055988,0.060734,0.003615,0.034825},
{0.007551,-0.041109,-0.054850,0.032129,0.016478,-0.026878,0.059413,0.012672,0.083634,0.060953,0.002127,-0.009040,-0.003607,-0.029857,-0.009365,-0.025100},
{-0.000354,0.014007,-0.041566,-0.032650,-0.051882,-0.005151,0.030139,0.062039,0.070238,-0.001345,-0.067479,-0.041557,0.050631,-0.012595,0.008905,-0.019229},
{0.014405,0.018312,-0.049726,0.019719,-0.072909,0.014038,0.012317,0.033166,-0.036720,0.022629,-0.026935,0.036882,-0.042045,0.097080,0.094279,0.071176},
{-0.116646,0.037409,-0.023397,-0.014023,-0.016774,0.000629,0.002634,0.027945,0.166088,0.044008,-0.013746,0.017655,0.054902,-0.110067,0.001695,-0.046572},
{-0.077973,-0.014044,0.049230,0.078091,-0.100091,-0.042520,-0.022682,-0.041867,0.040688,-0.000195,0.107511,0.031717,0.046951,0.039667,-0.000709,0.083524},
{0.042695,-0.006992,-0.017128,-0.005175,0.004747,-0.021648,0.022460,-0.018326,-0.012597,-0.034996,-0.007192,-0.084985,-0.035542,-0.015638,-0.006175,-0.040051},
{-0.093678,-0.011658,0.036542,0.026502,0.011798,0.134715,0.032338,-0.000924,0.055431,-0.055793,-0.093397,0.039054,-0.041286,0.157110,-0.024532,-0.010248},
{-0.049686,-0.026617,0.050514,0.043805,0.060054,-0.013074,0.019506,0.003867,-0.015437,0.018951,-0.005077,0.033937,0.048963,0.025589,-0.007870,0.009452},
{0.011861,-0.033551,-0.004250,-0.006597,0.004001,-0.116561,0.017927,0.034591,0.040310,-0.046329,-0.042006,-0.007816,-0.077359,0.044240,-0.003535,0.047408},
{-0.024770,0.023356,0.012647,0.034815,-0.037395,0.068435,0.103504,0.032445,0.017520,-0.032700,-0.007159,0.048239,0.003289,0.035792,-0.091622,0.003047},
{0.036193,0.039929,-0.001462,0.049135,0.024283,-0.010267,-0.050473,0.011776,-0.003683,0.046850,0.024478,-0.090374,-0.025741,0.031094,-0.084392,0.020218},
{-0.040077,-0.010740,0.024008,-0.014743,0.010217,-0.020068,0.005063,-0.005398,-0.008604,0.037156,-0.040399,0.001999,0.023841,-0.039024,0.021737,-0.005144},
{0.054913,0.087737,0.089043,-0.002881,-0.075732,-0.129254,-0.024299,-0.077362,-0.016741,-0.016533,-0.044098,0.040775,-0.034896,-0.038748,-0.040593,-0.000558},
{-0.096469,0.013263,0.032521,-0.044308,-0.068170,0.044496,0.011592,-0.048530,0.044826,-0.004391,-0.050421,-0.001232,0.003619,0.005242,0.060349,0.023085},
{-0.039653,-0.021200,-0.050254,0.114343,-0.070519,-0.024340,0.125787,0.084648,-0.068991,-0.000967,0.058599,-0.000091,-0.010901,0.103763,0.023803,0.017885},
{0.033423,0.008393,0.172573,-0.059372,-0.018797,0.046569,0.031975,0.025457,0.044167,-0.008091,-0.008817,0.061630,0.078718,-0.008655,-0.062632,0.001475},
{-0.018128,0.042352,0.020031,-0.008781,0.026100,-0.008259,0.000626,-0.005607,-0.035081,0.031256,-0.079838,0.013033,-0.024239,-0.023662,-0.031843,0.021500},
{-0.034907,-0.050090,-0.019150,-0.043588,0.009408,-0.002024,0.019912,0.037019,-0.004117,-0.005626,0.040976,0.055538,-0.008919,-0.019985,0.036933,0.018322},
{-0.091077,0.003480,0.038166,0.017277,0.050477,-0.032513,-0.034047,-0.060539,0.012302,0.026061,0.099217,0.012720,0.005589,-0.030407,0.021347,0.023017},
{-0.011670,-0.043990,-0.013663,0.034346,-0.032187,-0.011083,0.007389,-0.066030,0.019220,0.013462,-0.022878,0.008554,-0.017559,-0.024781,0.020747,-0.032939},
{-0.097500,0.085844,-0.016355,0.002498,0.042732,-0.016922,-0.019375,-0.100766,0.034909,0.059723,-0.001091,-0.028251,0.082851,0.069813,-0.024438,-0.002728},
{-0.010919,-0.024835,-0.016667,-0.030217,-0.038178,0.078740,0.040432,0.053222,-0.026838,0.084016,0.055004,0.000699,0.032726,0.002408,0.035806,-0.002965},
{0.004866,-0.048028,-0.027941,-0.002886,0.000338,0.029707,0.014867,-0.002715,0.025855,0.007042,-0.060102,-0.005822,-0.038800,-0.002675,0.002095,0.013244},
{-0.013522,-0.059752,0.004506,0.006016,0.044114,0.045625,0.002978,0.023884,0.018089,-0.011641,-0.025485,0.017231,-0.005999,0.003484,0.000561,0.038167},
{0.001643,-0.019484,-0.005282,-0.034935,0.007552,0.034380,0.010423,0.008813,0.018275,0.068976,0.000569,0.000456,-0.008143,-0.014157,0.000167,-0.008139},
{-0.002927,0.007195,-0.008611,-0.008127,-0.002323,0.012515,-0.001379,0.006743,0.007191,0.038656,0.025735,0.003759,0.005829,0.018750,-0.033807,0.001545},
{0.011903,-0.003897,-0.033944,-0.011071,0.036077,-0.017970,-0.017259,0.006299,-0.003513,-0.061599,0.001342,-0.013194,-0.037904,0.011600,0.006568,0.021418},
{-0.001050,-0.019997,0.020440,0.005584,0.013494,-0.016227,-0.006266,-0.019762,0.010811,0.015744,0.009628,-0.006720,-0.007834,0.023098,-0.005153,-0.005103},
{0.024149,-0.000495,0.003276,0.005317,-0.037479,0.016907,0.001952,-0.008802,-0.017841,-0.038474,0.015162,0.009456,-0.091980,0.007813,-0.023795,-0.049166},
{-0.011130,-0.007455,0.017252,-0.014293,-0.002904,0.001427,-0.018393,-0.004048,0.007550,-0.027800,-0.028314,-0.017368,0.018490,0.000534,0.021422,-0.020072},
{-0.004089,0.004777,0.014288,0.023236,0.015493,-0.015624,0.019529,-0.086980,-0.005653,0.017197,-0.012842,-0.012998,-0.003703,-0.008786,-0.020614,-0.044677},
{0.008697,-0.016575,-0.028351,0.048129,0.018812,0.005199,0.012500,-0.002692,0.011529,-0.002722,-0.006754,-0.036502,0.022375,0.015713,-0.013029,0.005577},
{-0.003945,-0.005094,0.024568,-0.000430,0.014158,0.004508,0.007479,-0.003560,0.013615,0.002153,-0.019528,0.014871,-0.047701,0.011685,0.004279,-0.019610},
{-0.040745,0.026240,0.054511,0.012248,-0.002455,0.002473,-0.016616,0.003093,-0.057086,-0.000441,0.019305,-0.004357,-0.029088,-0.008315,0.015128,-0.028766},
{0.000561,0.000215,0.047854,0.018499,-0.009495,-0.054030,-0.004669,0.009454,-0.015807,-0.002667,-0.000186,0.009711,0.008459,-0.055569,0.011633,-0.031985},
{-0.033431,0.027866,-0.020501,-0.012043,-0.007692,-0.018491,-0.019390,0.028310,0.025916,-0.017775,-0.000331,-0.067913,-0.028186,0.002546,-0.000683,-0.018501},
{-0.024454,0.001078,-0.019875,0.017955,0.009858,-0.020648,0.001680,-0.012031,0.043214,-0.015665,0.025067,0.008923,-0.038386,-0.007165,-0.027817,0.014317},
{0.002792,0.012163,-0.008678,-0.019038,-0.001942,0.013859,-0.067687,-0.081650,0.005175,0.024257,-0.012730,-0.033546,0.026630,-0.013810,-0.006740,-0.005353},
{0.003266,-0.027693,-0.005044,-0.016939,0.003282,0.027618,-0.014811,0.008163,0.014747,-0.001631,0.009421,0.051224,0.022862,-0.029137,-0.001195,-0.004968},
{0.014314,-0.007445,0.009117,-0.001110,0.001497,0.030396,-0.001694,-0.025956,-0.003341,-0.002861,0.031509,-0.031971,0.019222,0.001605,-0.016774,0.013067},
{-0.001334,0.003604,-0.000420,-0.027649,-0.063540,-0.031037,0.003840,-0.001440,0.000398,0.009352,-0.027870,0.029569,0.002264,0.023297,0.016058,-0.020009},
{0.004290,0.078638,-0.010531,0.007204,0.001272,-0.028515,0.059410,-0.011077,-0.000893,-0.005477,0.002167,0.013505,-0.001355,0.002333,-0.005093,0.015168},
{-0.005108,-0.014303,0.006647,0.009009,-0.002644,-0.019564,0.017970,0.040132,-0.015221,0.030697,0.003081,-0.009183,-0.011790,-0.005579,0.001087,-0.012804},
{0.022683,-0.011375,-0.009208,0.024847,-0.000956,-0.004545,-0.066054,0.005148,0.002078,-0.002202,0.003894,0.004653,-0.008825,-0.010331,0.017805,-0.046443},
{-0.021187,-0.050850,-0.002720,-0.004942,0.038890,-0.043512,-0.001813,0.011723,-0.024357,0.051207,0.002805,0.012047,-0.028893,0.014392,-0.016258,-0.021447},
{-0.000187,-0.014102,0.001388,-0.018095,0.015329,-0.011166,0.017389,0.008909,-0.001262,-0.001451,0.013826,0.014516,0.012283,0.032332,-0.023287,-0.031253},
{0.011960,0.007740,-0.014029,0.025031,0.013703,-0.014687,-0.011992,0.001999,-0.015642,-0.043937,0.026886,0.016631,-0.027931,0.004935,-0.003028,0.004882},
{-0.012430,0.011671,-0.054453,0.013592,0.018395,0.001910,0.008279,0.021240,0.003892,-0.001097,0.013894,0.109804,-0.018183,0.010756,0.000638,0.013768},
{0.023720,0.029978,-0.000965,-0.016360,-0.014844,-0.116961,0.007390,0.010060,-0.011600,-0.013930,-0.030816,0.001957,-0.014989,0.023997,0.018308,-0.020789},
{0.004506,0.004666,0.021630,0.011715,-0.028754,-0.007497,-0.016981,0.013922,-0.002187,0.008180,0.004276,-0.019441,-0.003556,0.006111,-0.042926,0.009869},
{0.019889,-0.014577,-0.014971,-0.009221,-0.005205,-0.001921,0.003385,0.000552,-0.008327,0.000293,0.034272,-0.000661,-0.002414,-0.005016,-0.005575,-0.006495},
{0.023027,0.003265,-0.007112,0.035196,0.028671,-0.003732,0.031375,-0.025635,0.078827,0.022335,0.018171,0.003535,0.019608,0.007173,-0.007340,-0.015997},
{-0.019663,0.043757,-0.010661,-0.036731,-0.020798,-0.033274,0.001900,-0.018443,0.002163,0.001161,-0.014287,-0.007240,-0.006608,-0.006720,-0.046463,-0.055925},
{-0.010193,-0.000651,-0.000272,0.018506,-0.020066,0.003842,0.004281,-0.026307,0.008470,0.019224,0.035169,-0.005895,0.087106,0.005777,-0.012543,0.019330},
{-0.015858,-0.026358,0.028522,-0.003860,-0.015202,-0.001283,-0.017381,0.004040,-0.000143,0.010364,-0.096261,0.004599,0.046092,0.020131,0.061555,-0.008850},
{0.007014,-0.000920,-0.003593,0.016347,-0.025334,0.009946,0.001510,-0.000181,-0.007642,-0.013207,-0.013263,0.006801,-0.002485,-0.004814,0.037704,0.003559},
{0.016231,-0.017716,0.004227,-0.029686,0.019331,0.003382,0.038135,0.014781,0.020077,0.008794,-0.009192,0.022374,-0.047752,-0.039987,0.007617,-0.013555},
{-0.021120,0.001642,0.011603,-0.017993,0.000355,0.014018,0.000870,-0.001438,0.009258,-0.025789,0.005184,0.005469,-0.024926,-0.002355,-0.007469,0.002286},
{0.018022,0.008013,0.005748,0.019525,-0.071686,-0.001387,-0.010683,-0.001309,0.002942,-0.032989,-0.002440,-0.010636,-0.043152,0.023892,0.009771,0.011134},
{-0.016849,-0.006385,0.013036,-0.000063,0.023758,-0.015749,-0.015890,-0.018328,0.000294,0.000016,-0.020269,0.013943,0.006263,0.018538,-0.006313,-0.006226},
{-0.006540,0.023913,-0.018590,-0.002802,0.020437,-0.010374,-0.015695,0.005053,-0.011957,-0.014108,0.009067,0.049806,-0.040462,-0.012392,-0.005291,-0.028746},
{0.005249,0.001232,-0.006643,0.019926,0.001092,0.004783,-0.045359,-0.017740,0.028597,-0.000777,-0.014525,0.015956,-0.011121,0.006054,0.019544,-0.019112},
{0.001296,0.015072,-0.005953,-0.008233,-0.003208,-0.038549,0.011485,-0.008619,0.013737,0.016822,-0.020028,0.013807,-0.008989,0.040141,-0.074273,-0.018664},
{0.002846,-0.014279,-0.035815,0.052327,-0.005968,0.010288,-0.005460,0.003048,-0.001621,0.004211,-0.035379,-0.032410,0.014918,0.000696,0.013325,-0.011797},
{0.020372,0.013983,0.028674,0.003087,0.005663,0.000936,0.010983,0.024177,0.012640,0.007735,-0.019679,0.004449,-0.020546,0.000018,0.006570,-0.038980},
{-0.003719,0.011112,0.029728,0.000408,0.009041,0.003820,0.007619,-0.013338,-0.033177,-0.005346,-0.007017,-0.002469,-0.028036,-0.034085,-0.011458,-0.017051},
{0.010289,0.007174,0.010269,0.004465,0.005337,-0.035172,0.000772,0.021430,-0.005428,-0.001434,-0.000328,0.020084,0.021897,-0.082919,-0.010010,0.017845},
{-0.015932,0.024045,-0.006669,-0.015284,-0.007816,-0.027316,-0.016391,-0.000429,0.038035,-0.016292,-0.001854,-0.030017,-0.010404,0.043095,0.002364,-0.000151},
{0.008416,-0.003006,-0.007371,0.014612,-0.002217,0.001657,0.011160,-0.001665,0.051239,-0.000112,0.036430,0.008333,-0.037222,-0.009477,0.029185,0.001512},
{0.000661,-0.009707,0.004388,-0.000250,0.016816,0.001419,-0.044220,-0.095610,0.001251,-0.058126,-0.005717,-0.034367,-0.026839,-0.033811,-0.003808,0.001307},
{0.010614,0.004801,-0.004937,-0.006948,0.006713,-0.001839,-0.022758,-0.006403,0.004783,0.000101,-0.002212,-0.033514,0.031173,-0.030769,-0.016949,-0.007765},
{0.003213,0.008960,0.015182,0.006436,0.023350,-0.010533,-0.007540,-0.022428,-0.013498,0.005388,0.024790,-0.030302,-0.004429,-0.013164,-0.006369,-0.000065},
{0.014478,0.007222,0.053132,-0.025953,-0.130486,-0.075207,0.016892,-0.004534,0.045234,0.012260,-0.016865,-0.006703,0.008681,-0.015311,0.020696,-0.017080},
{0.009596,0.013874,-0.004542,0.014238,-0.014055,-0.069789,-0.005101,-0.020616,-0.034240,0.001724,0.005381,0.010091,-0.004408,-0.002541,-0.008198,0.014837},
{0.002235,-0.020354,-0.021401,-0.006533,0.009334,-0.016592,0.004374,0.016957,-0.006004,0.010881,-0.001194,-0.022024,0.010319,-0.014918,-0.011029,-0.001896},
{0.002088,-0.010260,0.004007,-0.021129,-0.017322,-0.010064,-0.026052,0.003566,-0.000575,0.000848,0.008115,-0.012400,-0.012700,-0.000991,0.017171,-0.021404},
{-0.016824,-0.009477,0.003572,0.004214,0.032065,-0.036370,0.034834,-0.009267,0.006768,0.013465,-0.005473,0.017969,-0.063879,0.065180,0.010753,-0.031886},
{-0.009083,-0.009874,0.006337,0.003528,-0.016892,-0.062130,0.022347,0.038140,-0.006440,-0.003360,0.025163,-0.005956,0.002236,0.082325,-0.017477,-0.004632},
{0.001764,0.015324,-0.001014,0.012591,0.015807,-0.002989,0.007198,-0.010319,-0.002355,-0.065407,0.004797,0.012381,0.004278,0.009321,0.001444,0.001755},
{-0.020397,-0.011138,0.006893,-0.034729,0.010679,0.008151,0.002776,0.001844,0.003840,-0.008030,0.009777,-0.016218,0.012859,0.004247,0.023463,0.013852},
{-0.002993,0.059301,-0.002027,-0.008693,0.007031,-0.050398,-0.002704,0.026414,-0.014595,-0.009557,-0.003368,-0.020125,-0.005744,0.009979,-0.007703,0.003738},
{0.038374,-0.007994,-0.025339,0.003109,-0.007327,0.015032,0.002730,0.004083,0.000909,0.008730,0.003684,0.015762,0.013663,0.015950,-0.047354,-0.002768},
{0.046698,-0.005377,-0.031928,-0.006989,-0.011636,0.005540,-0.001838,-0.003219,-0.012803,0.009281,-0.033238,0.002055,0.001971,0.012686,-0.000609,-0.015979},
{0.016740,0.043105,0.018521,0.023754,0.026831,-0.006760,0.024685,-0.009623,-0.023796,0.004138,0.010372,-0.012907,0.006033,0.019381,-0.018230,0.003978},
{0.001178,-0.048526,0.002585,0.005734,-0.025658,0.000048,-0.004725,0.001464,-0.009943,0.012509,-0.022302,-0.006944,0.003731,0.028915,-0.006043,-0.087178},
{0.002873,0.007416,-0.001199,0.002502,-0.003418,-0.008567,-0.015922,-0.017106,-0.021933,-0.020171,0.008508,-0.017234,0.018444,0.010693,-0.009308,-0.005602},
{-0.110064,0.011581,-0.105955,-0.040952,-0.041811,-0.036178,0.002018,-0.012074,0.048814,0.009591,0.027996,-0.021260,0.052320,-0.044243,-0.059600,-0.013251},
{-0.153482,-0.057087,-0.000923,0.030288,0.025379,0.067713,-0.035719,-0.026613,-0.036789,-0.024858,-0.086148,0.010320,-0.025978,-0.015583,-0.027503,-0.061497},
{0.037447,-0.055535,-0.059451,-0.112601,0.114084,0.019493,-0.117794,-0.001662,-0.008024,-0.083259,-0.063288,0.043781,0.016102,-0.000739,-0.003131,-0.100303},
{-0.092578,-0.021825,-0.016271,-0.040693,-0.038003,-0.010590,-0.070298,0.037776,-0.004234,-0.200252,-0.045980,0.015296,-0.131697,-0.031734,-0.019327,-0.114349},
{-0.011574,-0.009747,-0.109095,-0.000962,-0.017697,-0.096087,-0.075326,0.000945,-0.021891,0.015062,0.017955,0.008061,-0.070155,-0.085273,0.034486,-0.009669},
{0.011293,-0.145703,0.002674,-0.068830,0.004830,0.033257,-0.071971,-0.001325,-0.024121,0.010325,-0.045192,-0.028111,0.003234,0.032857,-0.026190,-0.007792},
{-0.009290,0.015626,0.001064,0.020816,-0.204584,-0.023661,-0.011540,-0.011481,-0.038912,-0.038768,0.036345,0.003126,-0.104107,-0.063906,-0.057088,0.089926},
{0.017311,-0.116937,-0.005097,-0.147801,-0.016996,-0.012101,0.035223,-0.052842,0.008949,0.003113,-0.044939,-0.023389,-0.020328,-0.063603,0.047212,-0.022408},
{-0.069130,0.064077,0.012584,0.009700,-0.004550,-0.040725,-0.036766,-0.049683,-0.033918,0.037452,-0.076909,-0.031075,-0.048828,-0.173604,-0.057295,-0.002822},
{0.004649,-0.053936,-0.140799,-0.077028,-0.036228,0.005722,0.014790,-0.001284,-0.030432,0.004948,-0.017636,-0.067743,-0.011743,0.054963,0.003874,0.003655},
{0.005697,0.017321,-0.073995,-0.038164,0.146928,-0.006249,-0.051034,0.015667,0.061828,-0.044820,-0.036856,-0.016953,-0.021411,-0.077888,-0.022060,-0.040088},
{-0.013208,0.000184,0.006084,0.001870,-0.019951,0.020341,-0.018894,-0.072147,-0.046128,-0.083925,0.031921,-0.018560,-0.077126,-0.156473,-0.009603,-0.070190},
{-0.009785,-0.024852,0.057998,-0.040863,-0.035655,-0.083031,0.043546,0.021457,-0.008371,0.025239,-0.059908,0.041986,-0.009028,0.103184,-0.015458,-0.064291},
{-0.053825,0.052348,-0.019414,-0.015366,0.001198,-0.025136,-0.142564,0.042473,0.017874,0.001578,0.029351,-0.044273,-0.021999,-0.000967,-0.034695,-0.033180},
{0.000263,0.024343,-0.050893,0.020915,-0.009215,-0.051855,-0.015052,-0.034456,0.128870,-0.078381,0.041856,0.023050,-0.109161,0.000874,-0.015794,0.008844},
{-0.023178,-0.065991,-0.052771,-0.001662,-0.043766,0.012570,-0.042106,-0.114744,-0.017436,0.052729,-0.029555,-0.023797,-0.090078,-0.106373,-0.018485,-0.025954},
{-0.067793,-0.011056,-0.087271,-0.080654,0.003440,-0.095490,-0.069254,0.093533,0.013864,-0.059798,0.004186,-0.089730,-0.016538,0.018996,0.063241,0.005018},
{-0.007913,-0.001782,0.042045,-0.071107,0.003654,0.016931,0.030660,-0.054125,-0.064365,-0.030231,-0.083576,-0.047762,-0.051583,0.111679,-0.017261,-0.112056},
{-0.025909,-0.041291,0.026575,-0.021936,-0.130883,-0.014090,0.043501,0.018131,0.012379,-0.107722,-0.018178,-0.025582,0.007343,0.042574,0.041175,-0.013004},
{0.003311,-0.116053,-0.013590,-0.007862,-0.036089,-0.059570,-0.010179,-0.016360,0.031924,0.063164,0.014770,0.016863,-0.011057,0.030028,-0.017831,0.052033},
{0.006390,0.024502,-0.038076,0.056764,-0.001066,-0.069207,0.041866,0.034904,-0.015040,0.043582,-0.020017,-0.089277,0.021297,0.015761,-0.045633,-0.032547},
{0.019022,-0.011764,0.034146,-0.004635,-0.061792,-0.055769,-0.075058,-0.002840,-0.008794,0.020456,0.027571,0.053755,-0.015215,0.032417,-0.007072,0.005332},
{-0.021512,-0.093852,0.016488,-0.029349,0.003242,-0.060088,-0.045365,0.152191,-0.179652,-0.070293,-0.006543,-0.028237,-0.056369,-0.056169,-0.027249,-0.087665},
{0.011923,-0.056062,-0.032225,-0.051591,0.043941,-0.071852,0.002470,0.021593,-0.041394,0.029548,-0.019904,-0.077752,0.036543,-0.057491,0.044719,-0.181448},
{-0.102287,-0.009803,-0.025252,-0.014896,0.019294,-0.087153,-0.095778,0.003639,-0.050276,-0.055633,-0.008056,0.021569,0.026590,0.037243,-0.026847,-0.020987},
{-0.138098,0.011152,-0.151834,-0.018179,0.005273,0.019318,0.004891,-0.095959,0.034199,0.008270,0.032648,-0.065764,-0.001030,-0.018289,-0.023077,-0.042663},
{-0.021428,-0.222575,-0.033244,-0.050996,-0.047484,0.013795,0.014133,-0.001893,-0.042940,-0.053373,0.004931,-0.063111,-0.012073,0.015799,0.029481,-0.055890},
{-0.085431,-0.062088,0.057786,0.015520,0.012166,-0.006179,-0.008043,0.035564,0.004658,0.062928,0.049382,-0.018153,0.014024,-0.016270,-0.102929,-0.043931},
{-0.051757,0.013681,-0.109145,0.094280,-0.024199,-0.073643,-0.075757,0.010664,-0.063944,0.028977,-0.099564,0.038884,-0.001409,-0.052483,0.051925,-0.003497},
{-0.062436,-0.046935,0.035995,0.093918,0.053628,-0.021217,0.004596,-0.070582,-0.123352,-0.125713,-0.008784,-0.109231,0.017707,0.027194,-0.077643,0.001383},
{-0.065206,0.040265,-0.031170,-0.010031,0.020866,0.001596,-0.006621,-0.049491,0.017453,0.040849,0.038120,0.066842,-0.010698,0.030094,-0.119045,0.017897},
{-0.010333,0.030754,-0.006700,0.007263,0.067820,-0.014333,-0.038191,-0.019603,-0.026273,-0.032295,-0.011108,-0.050153,0.024481,0.036327,-0.060906,0.058881},
{0.001638,-0.054451,0.088276,0.042150,-0.068773,0.016310,0.005232,0.076737,0.045993,-0.005766,-0.056410,0.000931,-0.035844,-0.114259,0.030366,-0.029608},
{-0.181484,0.089154,0.028529,0.140699,0.062897,0.111337,0.059687,0.072973,-0.038959,0.018803,-0.098242,0.063771,-0.078853,0.008892,-0.042433,0.030059},
{-0.040140,0.014456,-0.030745,-0.044834,-0.068262,-0.014466,-0.123445,0.079616,-0.070685,-0.019949,0.010967,-0.054038,0.007578,-0.111375,0.000781,0.048131},
{0.084913,0.006567,-0.111292,-0.052366,0.132485,-0.109025,-0.018764,-0.033342,-0.018651,0.089534,0.099242,0.009563,0.100930,-0.010732,-0.020983,-0.066613},
{-0.011283,0.087540,-0.024052,0.094113,-0.028454,-0.010061,0.015396,0.083205,-0.046484,-0.030359,0.183420,0.109494,0.014428,-0.082550,-0.096253,0.008715},
{0.013592,-0.025764,0.117983,-0.038311,0.072424,-0.008510,0.068142,-0.035936,0.098075,-0.028985,0.015568,-0.043324,-0.003013,0.032678,-0.036068,-0.019009},
{0.011242,-0.049546,-0.058351,-0.025940,-0.091636,-0.006013,-0.004991,0.025502,0.079281,-0.116523,-0.113097,0.031936,0.003121,-0.074677,-0.126489,0.079873},
{-0.020156,0.085251,0.033098,0.064385,0.161300,0.073291,-0.031656,0.119269,0.184469,0.093630,0.097382,0.054232,0.000954,-0.034871,-0.062249,0.017999},
{-0.017325,0.046899,0.195625,-0.033451,0.025941,-0.006877,0.077371,-0.091030,-0.080268,-0.007501,-0.048620,0.089491,-0.079095,0.057981,0.043648,-0.034662},
{0.037822,0.019070,-0.047614,-0.129619,0.018194,0.066266,0.023811,-0.010255,0.025643,0.100336,0.100371,-0.000027,-0.013390,-0.043544,-0.117707,0.017200},
{-0.144465,-0.018936,0.043272,-0.089666,-0.062614,-0.053304,-0.009326,0.085343,0.119097,-0.002615,-0.089410,-0.028121,-0.034579,0.078502,0.062958,-0.019412},
{-0.088343,0.014887,-0.038127,-0.044049,-0.079697,-0.051707,0.010280,-0.014372,0.017588,-0.001778,-0.005677,-0.033528,-0.036628,0.027771,0.093786,0.018161},
{-0.020795,-0.037968,-0.005582,0.091636,-0.090850,-0.060156,-0.076182,-0.006160,0.045004,0.038590,0.150985,-0.072827,-0.071684,0.029197,0.003887,-0.040833},
{-0.035447,-0.029387,-0.076346,-0.039221,-0.035034,0.177054,0.074601,-0.037164,-0.102162,-0.016312,-0.081239,0.074784,-0.022178,-0.050035,-0.038994,-0.105051},
{-0.010925,0.114729,-0.124958,-0.141291,-0.040943,-0.055731,-0.146548,0.032379,0.059316,0.039360,0.105082,0.053599,-0.020351,0.070195,-0.037200,-0.012605},
{0.001198,0.002692,0.137785,-0.080955,-0.065271,-0.008732,0.022205,-0.029655,-0.162526,0.114642,0.084631,-0.108685,-0.092040,-0.070233,-0.070373,-0.043607},
{-0.026711,0.002390,-0.047141,-0.074177,-0.046166,0.139946,-0.011920,-0.128904,-0.102071,-0.033119,0.045304,-0.008979,-0.037402,-0.043185,-0.060555,-0.066575},
{-0.055655,-0.010187,-0.096404,0.050501,-0.134240,0.079848,0.071305,0.048352,-0.007437,-0.021450,0.033838,0.001816,-0.112718,0.117488,0.072295,0.028268},
{0.010291,-0.044474,0.047066,0.014729,0.135443,-0.072503,-0.074462,0.000731,-0.092204,0.008074,-0.014399,0.054047,0.097183,-0.079223,0.031349,-0.035805},
{-0.087912,0.038382,-0.086707,0.010384,-0.023295,-0.015730,-0.028225,-0.062892,-0.108818,-0.040075,-0.045719,0.015412,-0.012955,-0.001731,0.055105,-0.059112},
{0.052980,0.092938,-0.006286,0.050733,-0.119075,-0.115641,-0.080478,0.002911,-0.004135,0.147402,-0.010371,0.053782,-0.068769,-0.113792,-0.092281,-0.048161},
{-0.002730,-0.146843,0.149576,-0.093323,-0.091372,-0.055680,-0.020412,-0.069934,-0.090555,0.141098,0.151142,0.011745,-0.073213,0.015687,-0.010644,-0.033880},
{0.010236,-0.059811,-0.040074,-0.026041,0.012478,-0.051577,-0.089767,-0.091672,0.030925,-0.024162,0.013641,0.013741,-0.018946,0.037819,-0.021962,-0.059272},
{-0.160791,-0.091407,-0.029135,0.022125,0.022317,0.083963,-0.030430,0.088890,0.019989,0.062474,0.012297,0.099985,-0.032695,0.043661,-0.013903,0.010169},
{0.100121,-0.117413,-0.044723,0.023189,0.005556,0.087264,-0.095772,0.034363,0.152824,0.063648,0.055849,-0.093716,0.043636,0.055378,-0.074312,0.025213},
{0.045025,0.113856,0.039949,-0.033725,0.085958,0.030902,0.078506,-0.003851,-0.120748,-0.061216,0.119990,-0.036083,0.024526,0.036588,0.135446,-0.071261},
{0.010407,0.000275,-0.072852,-0.054081,-0.093554,-0.035652,-0.181295,-0.093395,-0.032874,-0.001566,0.067508,-0.006670,0.087787,-0.065425,-0.065155,0.081720},
{-0.038932,0.138017,-0.086860,-0.046433,-0.080460,0.028869,-0.062156,-0.080840,0.010169,-0.021550,0.026809,-0.052153,0.006978,-0.066742,0.036743,-0.056487},
{0.009174,0.037921,-0.055429,0.087826,-0.060304,0.021223,0.012038,0.021875,-0.037045,-0.023559,-0.056645,-0.056330,0.094196,-0.075390,-0.045924,0.019573},
{0.097835,0.013329,-0.062400,-0.019185,-0.066685,-0.028822,-0.124483,0.026997,-0.035633,-0.092816,0.082138,0.058958,0.106462,0.031293,-0.109753,0.118148},
{-0.102581,0.030295,0.027005,0.015717,-0.029835,-0.023407,0.032720,-0.009984,0.069002,-0.007212,0.111150,0.012139,-0.022068,-0.008585,0.065409,0.075916},
{-0.004508,0.063979,0.002790,-0.025985,0.076521,-0.058169,0.102267,-0.032132,-0.003099,-0.060500,0.122835,0.019986,0.049216,0.020110,0.071351,0.079392},
{0.044496,0.019671,-0.115297,-0.038466,-0.000939,-0.059152,-0.062105,0.052945,0.071086,-0.010965,-0.088149,-0.032118,0.001669,-0.071473,0.026050,-0.055029},
{-0.123513,0.121840,0.021898,-0.063453,-0.031942,0.127542,0.008922,-0.045828,0.046911,-0.119631,0.053667,-0.038723,0.093579,0.181529,-0.090876,-0.114114},
{0.014622,0.095697,0.024864,-0.102393,-0.021311,-0.034053,-0.113965,-0.030108,-0.053778,-0.022054,0.112515,0.156324,-0.010881,-0.094650,-0.032051,0.005307},
{0.061697,-0.162333,-0.036966,0.124400,0.048841,-0.135830,0.031432,0.121656,0.073281,-0.017441,-0.051451,-0.127455,0.050536,0.106803,-0.025030,0.055462},
{-0.098949,-0.051327,-0.040606,0.127864,0.009323,0.123155,0.031677,0.000162,0.018213,-0.011346,0.016453,0.123144,0.058383,0.020189,-0.018946,-0.070320},
{-0.008548,-0.039654,0.154157,0.006303,0.029219,0.031816,0.042396,0.129145,-0.037937,0.164279,0.010527,0.007154,-0.003326,0.095757,0.039227,-0.084109},
{-0.062420,-0.003939,0.101878,0.099290,0.029915,-0.025241,-0.138367,-0.006618,0.009287,0.049969,-0.070515,0.003420,0.000361,0.108665,0.082378,0.075406},
{-0.006597,0.025255,-0.104375,0.044739,-0.070118,0.085155,-0.027381,0.053075,-0.057962,-0.001401,0.050464,0.001289,0.024267,-0.050676,-0.040047,-0.023358},
{0.069331,-0.004279,0.035273,-0.030234,-0.006686,-0.000839,-0.003563,-0.084647,0.023243,-0.004848,0.035476,0.101664,-0.059249,0.076054,-0.007499,0.086656},
{-0.062789,0.038822,-0.002173,-0.064062,-0.018846,0.042310,-0.031459,0.121784,-0.028766,0.011549,-0.079355,-0.050909,0.020100,0.075440,-0.121440,-0.032779},
{0.093078,-0.069437,0.036534,0.064708,0.025848,-0.020008,-0.027617,-0.021157,0.005959,0.020367,-0.014303,0.043354,0.040023,0.061832,0.040894,-0.029513},
{0.029077,0.064542,-0.028763,0.052367,-0.006601,-0.083271,0.006763,0.059922,0.068548,-0.058818,-0.043920,-0.041526,0.108655,0.016803,-0.070922,0.117384},
{-0.030482,-0.037663,-0.037529,-0.067049,-0.058886,0.047264,-0.072540,0.031129,0.015925,0.074709,0.027335,-0.016608,-0.018662,0.070244,0.030812,0.014299},
{-0.084580,0.012417,0.091302,-0.049485,0.080027,-0.070308,-0.116131,-0.011353,0.023811,-0.011004,0.112373,-0.057879,-0.011758,0.027774,0.043648,-0.084062},
{-0.007986,-0.068917,-0.022658,0.083546,0.102538,-0.099056,-0.059443,-0.027893,-0.119742,0.054029,-0.064433,-0.041692,0.001264,0.046337,0.034085,0.067891},
{0.023380,0.015672,0.161767,-0.012645,0.002580,0.027097,-0.019415,-0.071764,-0.100330,-0.124395,0.029458,0.024023,0.010438,-0.016426,-0.004535,-0.011313},
{-0.060188,0.016133,-0.031872,-0.134213,0.100036,-0.074480,-0.108322,-0.033357,-0.072199,-0.050326,0.106631,0.007363,0.003618,-0.051562,-0.149563,-0.019574},
{0.039378,0.033714,-0.031107,-0.050472,0.090195,0.025662,-0.053149,0.007622,0.042568,-0.033456,-0.016085,-0.050320,-0.020191,0.015023,-0.036639,-0.004857},
{-0.015106,-0.014068,-0.003348,0.141188,-0.045851,0.063520,0.016779,-0.029224,0.023065,-0.034094,0.036839,-0.011794,0.035148,0.016689,-0.062906,0.031029},
{0.073737,-0.084755,-0.129231,-0.074013,0.001943,0.001083,-0.039912,-0.137634,-0.064115,-0.067183,0.059676,0.086156,0.113432,0.028601,0.036119,-0.042876},
{0.007362,-0.034325,-0.043144,0.098974,0.104558,-0.049084,0.057812,0.078014,0.045209,0.018062,-0.022261,0.005828,0.042826,0.077081,-0.031654,0.005537},
{0.156843,-0.032545,0.192680,-0.014700,0.077003,0.034656,-0.027723,-0.055912,0.029165,0.038596,0.011736,-0.026118,-0.093897,-0.055103,0.063286,-0.045257},
{0.027697,-0.071090,-0.081117,-0.067439,-0.052991,0.037109,-0.033574,-0.021518,-0.053514,-0.044622,0.027477,-0.110579,0.029624,0.043220,0.045859,-0.061334},
{0.021971,0.143167,-0.052795,0.016560,-0.067963,0.043514,0.160232,-0.025451,0.055055,0.015049,-0.028344,-0.082246,-0.016664,0.059732,0.068354,0.027331},
{-0.007970,-0.108105,0.016210,-0.064715,-0.062966,0.079837,-0.004696,-0.074781,-0.016994,-0.027531,-0.032044,-0.057730,-0.025525,-0.026575,0.048630,-0.042299},
{-0.027361,0.039254,0.016640,0.065560,-0.067456,-0.004612,-0.030409,0.099496,-0.018835,-0.074762,-0.001812,-0.007171,-0.144735,-0.084426,0.086411,0.042629},
{0.031039,-0.073615,-0.054825,0.019919,-0.072305,0.062379,0.081119,0.079663,0.008739,-0.134820,0.071462,-0.048990,-0.043087,0.069866,-0.042735,0.000588},
{0.018336,0.054157,-0.033381,0.060597,-0.007654,-0.023513,0.000039,0.052443,-0.064780,-0.028774,-0.089395,0.013912,-0.081598,-0.070760,-0.050913,0.010642},
{-0.075121,0.003025,-0.144874,-0.123343,-0.023489,0.015295,0.040096,-0.006684,-0.165728,-0.050087,-0.040484,0.019692,-0.012796,-0.019171,-0.067671,0.000356},
{0.010232,0.027802,-0.015767,0.010552,-0.089629,0.085556,-0.041357,-0.047704,0.141087,0.094298,0.090098,0.120842,-0.021805,-0.054483,0.012176,0.036491},
{-0.063278,-0.116663,0.028958,0.009525,0.012467,-0.011485,-0.005668,-0.017266,-0.015740,-0.004859,0.038498,-0.058595,-0.013026,0.119790,0.078073,0.054294},
{0.059991,0.041384,0.064843,-0.075114,0.002827,0.078089,-0.055989,-0.053923,-0.034712,-0.019610,0.040947,0.005241,-0.100296,0.033355,-0.053529,0.104069},
{0.071443,-0.128010,0.098947,0.053186,0.071361,0.086688,0.036894,0.011126,-0.022479,0.037724,0.086777,0.115322,-0.050507,0.025943,-0.065874,0.052111},
{-0.021211,-0.041911,0.004758,0.109207,0.001132,0.026686,-0.010728,0.053334,-0.089231,-0.043331,-0.095874,0.043828,-0.033452,0.020693,0.030554,-0.000893},
{0.071992,0.052830,-0.131662,0.098310,0.058060,0.053079,0.036335,0.078674,0.007692,-0.060978,0.065044,0.061262,-0.113840,0.016001,0.050774,-0.001622},
{0.047772,-0.100473,0.075124,0.089330,0.105409,0.025931,0.080274,-0.069991,-0.090880,-0.038228,-0.054892,-0.007811,0.037880,0.016865,0.104047,0.021838},
{-0.048215,-0.087451,-0.054818,0.010844,0.042743,0.031979,-0.018742,0.043877,0.009738,-0.027058,0.136729,0.082103,0.089361,0.064186,0.024827,-0.010726},
{0.029162,0.086843,-0.026421,0.012323,0.148197,0.062982,-0.069464,-0.075580,-0.011350,-0.050380,-0.080306,-0.047651,0.009821,-0.078423,0.043093,0.050392},
{0.083347,0.020367,-0.017080,0.091829,0.128818,0.084005,0.071011,-0.041625,0.054720,0.005967,-0.029981,0.195864,0.137595,0.028690,0.040422,-0.013548},
{-0.132308,-0.043353,0.028566,0.094317,0.032883,-0.030969,-0.003348,0.077876,0.097609,0.014920,0.001786,0.024083,-0.058532,0.027857,-0.028551,0.098427},
{0.113368,-0.059730,-0.027886,0.006001,-0.007757,0.026679,0.062132,-0.037634,-0.106283,-0.027944,0.098150,0.093315,0.071877,0.047817,-0.045849,-0.088497},
{-0.043780,-0.039838,0.004875,0.033333,-0.023314,-0.087333,0.023863,-0.087610,-0.029870,0.027131,-0.075132,0.021801,-0.020504,-0.025920,-0.006646,0.047996},
{-0.008413,0.069399,0.005384,0.025804,-0.129791,0.026930,-0.114992,-0.026429,-0.099580,-0.039709,-0.045309,-0.044394,0.022621,-0.029964,0.016882,0.124916},
{0.044098,0.086806,-0.040236,-0.057942,0.059481,0.002031,-0.054217,0.004812,-0.012049,-0.067643,0.005961,0.045134,-0.078525,-0.033653,0.005278,-0.070335},
{-0.012002,-0.015207,0.001305,0.107937,-0.120995,-0.056164,0.000794,0.072977,-0.109263,0.106525,-0.007764,-0.063049,0.032984,0.097749,-0.141052,-0.000196},
{-0.098409,-0.002651,0.106496,0.066504,0.001757,-0.041126,0.051567,0.015166,-0.079660,0.023611,-0.001592,-0.088750,0.123769,-0.095172,0.056550,-0.087144},
{-0.041823,-0.030148,-0.091252,-0.092931,0.016635,-0.077393,0.008051,-0.003285,0.028371,-0.124340,-0.038650,0.100578,0.019542,0.039791,-0.027671,0.053495},
{0.057275,-0.007501,-0.052817,0.039341,0.065189,0.037183,0.056183,0.093772,-0.061554,-0.028023,-0.033216,-0.007905,-0.062298,0.052875,0.064714,0.018107},
{-0.135673,0.005759,-0.001031,0.069950,-0.104384,-0.024984,-0.054547,0.035906,0.056501,-0.073570,0.015523,0.047467,-0.111585,0.002842,0.059514,-0.025301},
{0.074835,-0.008788,-0.015010,0.097204,-0.073838,-0.124374,-0.078004,-0.024173,-0.080601,0.075784,0.102386,-0.087374,-0.000692,0.005092,-0.003617,0.002283},
{-0.161660,-0.041551,-0.060571,0.109845,0.006250,-0.150716,-0.077851,0.055827,-0.068376,0.059173,-0.050768,-0.049445,0.001132,0.046451,-0.081099,-0.047151},
{0.089311,-0.011714,-0.035810,0.052435,-0.043509,0.058616,0.000239,0.006259,0.035180,0.048720,-0.020058,-0.035662,-0.008149,-0.069520,-0.023971,-0.129649},
{-0.065168,0.018721,-0.013481,0.047816,0.026197,-0.108056,0.073813,-0.040630,-0.091587,0.089200,0.022344,0.077457,0.047904,0.030162,0.031550,0.022591},
{-0.019696,0.008721,-0.076768,-0.082319,0.002778,0.058122,-0.023293,-0.091799,-0.037236,0.066301,0.114352,-0.069390,-0.040130,-0.106577,-0.085641,-0.007613},
{-0.067955,0.024514,-0.040301,-0.040831,-0.069226,-0.005510,-0.042448,0.067232,0.033285,-0.021654,-0.068557,-0.002368,0.019464,0.024384,0.039465,-0.060172},
{-0.024913,-0.000581,-0.000005,-0.083620,-0.004703,0.004269,0.094787,0.006654,-0.004207,-0.103393,0.026199,-0.001827,-0.075419,0.049087,-0.007749,-0.094114},
{0.038277,-0.005825,0.085698,0.050811,-0.075892,-0.018414,-0.057861,0.069117,0.068849,0.007694,0.002694,0.018690,-0.094259,0.044053,0.072591,0.041550},
{0.099140,-0.119291,0.051654,0.012189,0.033393,0.013449,-0.104588,-0.040330,0.139932,0.009775,-0.044815,-0.038273,-0.118685,-0.035559,0.014231,0.073393},
{-0.036391,0.002956,0.080380,0.050780,-0.075243,-0.112275,-0.091679,-0.005286,-0.066781,0.054415,0.055384,-0.009910,0.037182,0.015296,0.038128,0.037034},
{0.073584,-0.138826,0.193238,0.031237,0.076200,0.054566,0.030408,0.070933,0.107607,-0.056862,-0.007227,0.016033,0.010880,0.082932,0.043177,0.030449},
{0.033745,-0.010678,0.055482,-0.098941,-0.045111,-0.016270,-0.005724,0.132981,0.100614,0.254999,0.104631,-0.116621,0.095923,0.082960,-0.010931,0.038299},
{0.026899,-0.028158,0.035924,0.069145,0.049775,0.000586,0.018799,0.044557,0.005800,0.002966,-0.047358,0.031833,0.073856,0.080352,0.020753,0.079575},
{-0.078475,-0.056521,0.037707,-0.093333,-0.105307,0.044282,0.027268,0.247635,0.038732,0.126226,0.169170,-0.039123,0.105698,-0.060155,0.007112,0.087301},
{-0.017072,-0.056713,-0.013383,-0.035688,0.066237,-0.026159,0.025042,-0.056536,0.068957,0.107241,0.014086,-0.100104,-0.026125,-0.072192,-0.155129,-0.041226},
{0.068412,0.054801,-0.079105,-0.074259,-0.026928,0.052462,0.006983,0.081866,0.070621,-0.048665,0.002877,-0.122365,-0.045957,0.008145,0.002764,-0.020073},
{-0.068513,0.091139,0.113750,0.042982,0.126007,-0.095404,-0.020196,0.027390,0.166956,0.057459,-0.149441,-0.017809,-0.004515,0.044001,-0.001361,0.127999},
{-0.097627,0.059186,0.053579,-0.022513,-0.045496,-0.041288,0.096907,0.149629,0.042650,0.086252,-0.018697,0.017154,0.059720,-0.001162,0.081481,-0.010083},
{0.098639,0.007037,-0.185475,0.037074,0.039896,-0.050066,0.046745,-0.032420,0.017090,-0.029900,-0.012956,-0.061507,0.012138,0.006352,0.032658,0.187113},
{-0.022751,-0.001568,-0.045139,-0.130079,0.049817,0.023746,0.054497,-0.022680,0.022995,-0.070539,0.104233,0.005424,0.006033,0.045568,0.007719,0.003255},
{0.136839,-0.019957,0.105818,0.055428,0.015700,0.045691,0.017485,-0.164646,-0.136503,-0.057047,0.074937,0.022158,-0.115319,-0.005266,0.075363,0.035843},
{-0.047342,0.058982,0.034839,-0.018409,-0.027944,-0.062364,0.004797,-0.237115,-0.079535,0.034911,-0.012274,0.082511,0.005922,-0.048739,0.109346,-0.066840},
{-0.064048,-0.005654,-0.016139,-0.015573,0.068091,0.015145,0.084791,-0.053264,-0.001535,-0.071597,-0.000569,-0.024641,-0.028484,0.096540,0.007848,-0.022805},
{-0.015433,-0.055469,0.048856,0.060770,-0.070115,-0.047579,0.025942,-0.036521,-0.057394,-0.131178,-0.035389,-0.129128,0.023442,0.064572,0.066319,-0.003614},
{-0.057451,-0.034021,-0.054873,-0.034441,0.023726,-0.057937,0.003987,0.041233,-0.068092,0.013314,0.037575,0.003295,0.006605,-0.035370,-0.048554,-0.001649},
{0.006640,0.062644,0.070930,-0.003491,-0.011648,0.003886,0.021966,-0.040652,0.098631,-0.025774,-0.098683,-0.045536,0.058074,0.134224,0.092206,-0.028762},
{0.024961,0.027212,-0.013772,0.033691,-0.004557,0.006291,-0.054920,-0.002295,-0.055323,-0.033468,-0.040354,0.056252,0.064754,0.045356,0.034635,0.015885},
{-0.032748,0.089331,0.125178,0.142626,0.032466,-0.021427,0.153009,-0.010820,-0.031940,-0.011936,0.056177,0.010312,0.034144,0.049126,-0.170643,-0.038715},
{-0.102471,-0.040685,-0.034591,0.049776,-0.054656,-0.010279,0.040758,0.042815,0.012595,0.116407,-0.104834,-0.021152,0.014313,0.116619,-0.062873,-0.068633},
{-0.001060,-0.071892,-0.040384,0.013537,-0.007218,-0.076881,-0.106824,-0.017520,0.047690,-0.064053,0.055118,0.050082,0.021666,-0.002943,0.000104,0.029098},
{-0.105007,-0.025439,0.002376,-0.080596,0.014896,0.215959,0.015381,0.009090,-0.077317,0.076812,-0.000966,-0.034250,-0.040636,0.034503,0.091686,0.056559},
{0.127736,0.081325,-0.053319,-0.058114,0.037102,-0.023592,0.045545,0.119225,0.018234,-0.122023,-0.065601,-0.065419,0.059560,-0.030415,-0.076108,-0.022857},
{-0.062479,0.075745,-0.100019,-0.010235,-0.027394,0.064878,0.052530,0.031924,-0.052050,-0.005967,0.009209,0.024564,0.015505,0.044804,0.117037,-0.050885},
{-0.001313,-0.117417,0.046517,0.024251,0.023975,-0.059309,0.027196,0.041895,-0.044976,-0.040103,0.043808,-0.039093,-0.055223,-0.066150,0.066190,0.017990},
{-0.061082,-0.149083,-0.026871,-0.046831,0.011606,0.032670,-0.029114,-0.037189,-0.037562,-0.025337,-0.059231,-0.019873,-0.007593,-0.000978,0.072475,0.030705},
{0.009413,0.013955,-0.104703,-0.012146,-0.058614,0.003094,-0.064897,-0.007167,-0.118970,0.062305,-0.024853,-0.082928,0.017786,-0.123732,0.042561,0.038242},
{-0.050825,0.016121,-0.052592,0.022094,-0.060647,-0.047360,-0.116645,0.027460,0.135682,-0.018814,0.093664,-0.092379,-0.028545,-0.130870,0.010349,-0.000661},
{0.010675,0.045369,0.045366,-0.070836,0.045839,0.057465,-0.028017,-0.107569,-0.040833,-0.071024,-0.019695,-0.076871,0.045395,0.040226,0.034029,0.025639},
{-0.087913,-0.075832,0.061934,0.095663,-0.119646,-0.055691,0.000204,0.037957,0.033550,-0.063824,-0.092682,-0.096086,0.010091,0.060531,-0.040234,0.027785},
{0.026871,0.069738,0.072859,-0.034566,-0.081025,0.005395,0.058235,-0.037676,0.114797,0.005685,-0.081182,-0.045847,-0.124030,0.090674,-0.057058,-0.052993},
{0.220992,0.067449,0.021567,0.029999,-0.067960,0.000161,0.068693,0.048089,-0.051656,-0.080731,0.036197,-0.038878,-0.043881,0.030567,0.105056,0.034188},
{-0.059213,-0.010814,0.044437,-0.013358,-0.004752,0.023710,0.015927,-0.020048,-0.056605,-0.010769,-0.018341,-0.045120,-0.002326,0.007645,0.057516,-0.057139},
{0.068827,0.060530,0.157070,-0.058150,-0.064160,0.004057,0.188259,-0.050650,0.000235,-0.142123,0.027022,-0.005823,0.067910,0.094525,0.029241,-0.274505},
{0.050129,0.013821,-0.021698,-0.026588,-0.081210,-0.050211,0.063537,0.035135,-0.134120,-0.036838,0.048487,-0.006446,-0.013494,-0.000246,0.014815,0.038706},
{0.101080,-0.079290,0.064724,-0.080437,0.027089,0.082090,-0.046530,-0.010174,-0.002913,-0.028300,0.076366,0.052367,-0.025787,0.018901,-0.037649,-0.026031},
{-0.085946,-0.051459,0.075263,-0.058003,0.082907,0.018460,-0.042793,0.139855,0.049200,-0.077849,-0.064068,-0.022085,0.015150,0.004344,0.022753,0.051442},
{0.158844,-0.053925,-0.143278,0.086162,0.088017,-0.081351,0.025486,0.028121,-0.015810,0.083550,-0.119770,-0.025264,0.055710,0.021152,0.112979,0.062384},
{-0.001534,0.092142,0.004355,-0.003390,0.105700,0.024879,0.103163,-0.032245,-0.026260,0.013041,0.048730,-0.023401,0.000343,0.062424,-0.100394,-0.085128},
{0.047488,0.086027,0.002907,0.036351,0.070558,-0.092858,0.008737,-0.082333,-0.102856,-0.074450,0.072574,-0.117093,0.082761,0.045730,-0.013541,0.022253},
{0.085312,-0.044515,0.086267,-0.080407,-0.038614,0.015169,0.016201,-0.033756,-0.007015,0.018627,-0.034297,0.064968,0.031500,-0.019004,0.092387,-0.104574},
{0.167998,0.018694,0.093963,0.081126,0.019301,-0.027620,0.081892,-0.004047,0.091654,-0.010018,0.071025,0.019241,-0.043201,-0.099118,-0.051542,-0.052461},
{-0.058235,0.022587,-0.077874,0.028483,-0.016363,0.049937,-0.032738,-0.098377,0.047372,0.029630,-0.015931,0.136780,0.005969,0.045345,0.088707,-0.051227},
{-0.045775,0.112896,0.127862,0.094134,0.003540,0.004311,0.003879,0.101533,0.072328,-0.027902,0.099934,0.022551,-0.065183,-0.056077,0.028662,0.105005},
{0.083174,0.113978,0.057910,-0.006429,0.061092,-0.027653,0.008250,0.054928,0.087497,-0.143830,0.046054,-0.051511,-0.144988,0.034708,-0.001616,0.036720},
{0.035867,-0.024489,0.011030,-0.090802,-0.028042,-0.031271,-0.129897,-0.049592,0.006054,0.076912,0.069750,0.075596,0.016764,0.075534,0.115670,0.010704},
{0.144123,-0.009812,-0.009093,-0.027096,-0.078100,-0.002746,0.018897,0.022679,-0.020566,0.041466,-0.002161,-0.008320,0.045662,-0.046502,-0.037047,-0.009847},
{0.036067,0.085850,-0.077938,0.025631,-0.069192,0.093052,0.005358,-0.002936,-0.064296,-0.019379,-0.081428,-0.024841,-0.009275,-0.044298,0.050314,0.003733},
{-0.052621,-0.013212,-0.029705,-0.016505,-0.015877,-0.093348,-0.020491,-0.060147,-0.112303,0.046974,0.138810,-0.049861,0.099343,0.047478,0.059342,-0.035328},
{0.072986,-0.072073,0.106371,0.000238,0.038763,0.091888,0.095380,-0.055290,-0.031012,-0.008008,-0.052575,0.041483,0.117896,0.018314,0.049157,-0.030842},
{-0.044041,0.085169,-0.027513,-0.080537,0.120135,0.082198,0.002886,0.070631,-0.008456,-0.073120,-0.042508,-0.118144,-0.052048,-0.058795,0.063541,-0.004959},
{0.034976,-0.091216,-0.070357,-0.130194,-0.001644,0.159887,0.066576,-0.072602,0.043962,0.022184,0.118940,0.077259,0.159316,-0.112490,-0.169425,0.012174},
{-0.078630,-0.038065,-0.085397,0.082942,-0.032072,-0.009112,0.021110,0.051689,0.009617,-0.066802,0.025010,0.021395,-0.058288,0.061562,0.144699,-0.160312},
{0.103070,0.037154,-0.034026,0.084508,0.081185,0.030848,0.082318,0.112199,-0.145938,-0.014584,0.069571,0.065685,-0.022336,0.070728,-0.027207,-0.038253},
{0.005563,-0.006585,-0.095045,0.034590,-0.007586,-0.079567,0.007005,-0.060808,-0.081528,0.026710,0.031247,-0.019021,0.001557,-0.038580,0.041312,-0.015146},
{-0.028674,0.042114,0.064988,0.075703,-0.077569,-0.020033,-0.072812,-0.034665,-0.139856,-0.025099,-0.031403,0.023191,-0.043194,0.012163,-0.023007,-0.093854},
{-0.013551,0.086242,0.085834,-0.108156,0.033080,-0.131008,-0.022649,-0.040851,-0.095332,0.056707,0.053815,0.050948,-0.079257,0.060074,0.085554,0.101150},
{-0.039341,-0.023611,-0.057510,0.069493,-0.102313,0.002941,-0.010081,-0.010284,-0.066827,-0.147178,0.029500,0.006713,0.144505,0.017489,-0.064533,-0.004285},
{-0.020232,-0.091011,-0.083704,0.036582,0.083190,-0.029623,-0.031768,-0.161171,-0.024152,-0.072114,-0.016903,-0.007887,0.088072,0.076311,0.024591,0.027570},
{0.029243,0.002208,0.065174,-0.037304,0.048151,0.072281,-0.109124,0.055125,0.014841,-0.013097,0.076343,0.023056,0.066705,-0.065721,-0.089060,0.067525},
{0.011509,-0.049570,0.057916,0.028834,0.052196,-0.022633,0.059482,0.018981,0.001636,-0.042411,-0.007213,-0.044141,-0.044844,-0.001712,-0.012569,0.001859},
{0.103931,0.055131,0.036707,-0.074410,0.014225,-0.083373,0.008995,0.135670,-0.041918,-0.024895,0.116007,-0.024029,-0.034440,-0.053391,0.052563,0.058113},
{-0.045728,0.030519,0.087694,0.068501,0.083425,-0.011575,0.093667,-0.067494,0.047293,-0.027400,-0.067370,0.034003,-0.030371,0.060885,0.006213,-0.029008},
{-0.042905,0.000553,-0.009846,-0.078609,0.019234,-0.083681,0.017367,0.000676,-0.012404,0.100785,0.117513,-0.110508,-0.061865,0.005329,-0.025821,0.036735},
{-0.005654,0.066082,0.112567,0.010839,-0.036331,-0.111080,0.053325,-0.006352,-0.055816,-0.035118,0.129825,0.022941,-0.001089,-0.009628,-0.083850,-0.002469},
{0.030330,0.028735,0.081827,0.041263,0.033154,0.019030,0.003683,0.116745,0.067121,0.080270,-0.005067,0.137498,0.031741,0.064446,-0.050931,0.083870},
{0.095873,0.066462,-0.045253,0.044373,-0.018519,0.013054,-0.083409,0.063203,0.024192,-0.020481,0.074500,-0.037948,0.053689,0.037570,-0.053557,-0.043738},
{-0.085337,-0.041372,0.042330,0.016143,-0.047672,-0.021977,0.056927,0.021251,-0.051585,0.005548,-0.106565,0.046948,0.048087,-0.019355,-0.003639,-0.025019},
{-0.046367,0.226547,0.089742,-0.097997,-0.027908,0.063963,-0.064972,-0.096366,-0.018637,0.004707,0.016749,-0.043943,0.078378,0.054042,0.077879,-0.060606},
{0.052362,-0.045559,-0.088855,0.005934,-0.057073,0.036958,-0.017278,0.051908,-0.013057,-0.037486,-0.047389,0.003041,-0.052210,-0.027117,0.024112,-0.103159},
{-0.038319,-0.029017,-0.058756,-0.056615,0.011729,-0.142555,0.075175,0.035643,0.050346,-0.036421,0.029732,-0.006214,0.130420,0.033963,0.012515,-0.049379},
{0.032971,-0.017270,-0.125230,0.042633,0.001650,-0.096398,-0.007771,0.036100,-0.034173,-0.053944,-0.017562,-0.001007,-0.074800,0.039903,0.087068,0.080871},
{-0.026987,-0.022054,0.037695,0.003610,0.059088,-0.048513,0.039430,-0.170982,0.022689,-0.008285,0.024597,-0.067306,-0.017991,-0.057102,-0.001111,-0.077841},
{0.038174,-0.017590,0.082088,-0.042696,0.011681,-0.014552,-0.025493,0.120901,0.020807,0.045053,0.002165,-0.064766,-0.001239,-0.048966,-0.045894,-0.013838},
{-0.089427,-0.024097,0.055732,-0.046804,-0.069524,-0.055311,-0.007403,0.079993,-0.105745,0.010848,0.030075,0.050544,0.042327,-0.103316,-0.011303,-0.025633},
{0.072570,0.015937,-0.047174,-0.006121,0.076549,0.085962,0.030415,-0.056252,-0.086077,0.042399,0.036996,-0.041242,-0.119145,0.010603,-0.060509,-0.114387},
{0.126870,-0.043667,-0.075588,-0.017976,0.005540,0.052496,-0.030315,-0.057150,0.025666,0.012240,-0.003071,-0.024664,0.002353,-0.083606,-0.059004,-0.031211},
{-0.030976,0.039976,0.126589,0.032042,0.003053,-0.063923,0.013041,-0.029830,-0.126617,0.037326,-0.013384,0.040732,0.027340,-0.003669,0.039548,-0.019500},
{-0.136193,0.084717,-0.083945,-0.032399,-0.046586,0.072471,-0.020410,0.086183,-0.047142,0.092491,0.096476,0.051110,0.025068,-0.115602,0.038899,-0.020279},
{-0.022642,-0.068019,0.111966,-0.076004,0.050484,-0.044756,-0.014208,0.017855,-0.097332,-0.061069,-0.028517,0.049835,-0.036257,-0.044622,0.036620,-0.087757},
{0.068403,-0.126301,-0.017913,-0.106341,0.000337,-0.152921,-0.002724,0.067188,0.101514,0.110556,0.031883,0.041535,-0.000173,-0.008880,-0.069833,0.081001},
{0.029202,0.017231,0.029697,0.090376,0.060957,0.016478,-0.052320,-0.004260,-0.038918,-0.089733,-0.027580,0.006335,0.040616,0.078900,-0.080562,0.048400},
{-0.010033,-0.046143,0.179834,0.000499,0.090461,0.040888,-0.096932,-0.045936,0.002274,-0.070310,-0.004089,0.067030,0.026187,-0.029503,-0.069321,-0.044953},
{0.031730,-0.131883,-0.028448,0.060094,-0.020433,-0.014011,-0.031529,-0.039310,-0.093187,-0.088796,-0.164997,-0.018989,-0.061348,0.001312,-0.048795,-0.013679},
{0.129083,0.028908,-0.016120,-0.057807,0.095660,-0.063630,-0.112695,0.090067,0.063530,-0.038345,-0.028957,0.048373,0.016289,0.019824,0.100542,-0.133540},
{-0.034617,-0.005960,0.102928,-0.050869,0.058798,-0.054368,-0.054821,-0.060625,-0.071960,-0.054733,0.001840,0.094223,0.148959,0.043805,0.018271,0.055494},
{-0.104624,-0.010839,-0.021447,-0.008354,0.098731,0.032011,0.040084,0.014863,-0.010631,0.026476,-0.014428,-0.068757,-0.059784,-0.078993,-0.102303,0.009534},
{-0.038083,-0.068546,0.045950,-0.063661,0.032819,-0.056606,0.127294,0.071321,-0.069250,-0.075625,-0.092084,-0.043107,0.008388,0.083338,0.042291,-0.041759},
{0.036267,-0.084880,0.031478,0.133360,-0.005805,-0.029474,0.051460,-0.090871,0.143792,-0.084868,-0.047690,-0.006282,0.025767,0.027227,0.126310,0.047811},
{-0.031267,0.006240,-0.023966,-0.024863,-0.076200,0.058366,-0.011709,-0.079081,0.016066,-0.036318,-0.102147,-0.052582,0.031815,0.095060,0.055490,-0.017607},
{-0.034333,-0.031034,0.028146,-0.158993,-0.119952,0.045272,-0.057957,0.088492,0.003347,0.099119,0.059032,-0.040061,-0.004073,-0.081588,-0.020971,-0.009770},
{0.092143,-0.122833,-0.024851,0.056011,-0.126432,-0.021515,0.049681,0.145089,-0.106092,0.037311,-0.056817,-0.044933,-0.039065,0.036996,-0.038110,-0.028747},
{-0.051604,-0.028377,0.115268,0.069387,0.124690,0.017507,-0.079339,0.026449,-0.033875,0.085198,-0.042533,-0.086131,-0.056917,0.110277,-0.011742,0.033152},
{0.033366,-0.127496,-0.027609,0.103408,-0.107877,-0.032080,-0.021112,-0.085127,-0.010372,0.029941,-0.085813,-0.030360,0.016048,-0.028025,-0.100814,-0.015227},
{-0.078640,-0.071472,-0.061994,-0.030847,0.038371,0.030664,0.010933,-0.014586,-0.037482,0.067100,-0.055426,0.018231,-0.065209,0.020868,-0.024598,-0.074186},
{0.049120,0.137433,-0.068619,-0.126466,-0.045561,-0.040534,-0.030209,-0.058579,0.016030,-0.155652,-0.025384,-0.122997,-0.026546,0.044007,-0.001473,0.084792},
{-0.006382,-0.017251,-0.033225,-0.009507,0.121787,-0.154215,-0.092091,0.003132,0.077335,-0.088079,-0.047735,-0.013652,-0.085850,-0.052013,-0.035545,-0.084945},
{-0.029172,-0.046981,-0.043493,0.080353,0.018690,-0.113255,-0.023221,-0.023878,0.024928,0.040165,-0.110875,0.102672,-0.063051,0.054932,-0.054589,-0.005422},
{-0.092926,-0.013347,0.002820,0.026357,-0.045879,0.065498,-0.055377,-0.016458,-0.143038,-0.072369,-0.095735,0.090867,0.115257,-0.112436,-0.020161,-0.124883},
{-0.087832,-0.005787,0.013586,-0.129984,0.064203,-0.027479,0.107916,0.023137,0.014852,0.100504,-0.063700,-0.072545,0.038661,-0.007335,-0.001532,-0.174009},
{0.031909,-0.037001,-0.018115,-0.005260,-0.065022,-0.100771,-0.008436,0.052890,0.020875,-0.131664,-0.015657,0.054514,0.038688,-0.020782,0.085694,0.118907},
{0.060027,0.084291,-0.011068,-0.038017,0.072489,0.053469,-0.003373,0.033492,-0.095176,0.111611,-0.017141,0.033069,0.159925,-0.022084,0.086501,0.003781},
{-0.001460,-0.005406,0.038805,0.028013,-0.048750,0.095087,-0.052457,0.033711,0.111863,0.079331,-0.006403,-0.030721,-0.010874,-0.127254,-0.038460,-0.010550},
{0.001978,-0.034375,0.072095,0.084203,-0.013495,0.026935,0.027306,0.077888,-0.056488,-0.005906,0.082319,0.101631,-0.064823,-0.031468,-0.071425,0.099528},
{0.118101,0.005548,-0.054228,0.044903,0.029165,-0.094735,-0.030525,0.013655,-0.027370,0.023151,0.123120,-0.033966,0.078675,-0.049985,0.041354,0.005141},
{0.047550,0.018343,-0.057849,-0.076933,-0.100435,-0.077079,0.050513,0.037101,0.076591,-0.121773,-0.091143,-0.038594,-0.029901,0.057061,-0.028543,-0.007212},
{-0.025207,0.138632,-0.111780,-0.064008,0.110946,-0.071437,0.024732,-0.001508,0.078329,0.050772,0.008535,0.012548,-0.010285,-0.022265,-0.029100,-0.048457},
{0.072185,-0.037889,0.036928,-0.075808,0.048107,0.056865,-0.017459,0.010011,-0.009240,0.017896,-0.094606,0.105225,0.078814,-0.030828,0.010823,-0.162219},
{0.096518,0.077148,-0.017193,0.103531,-0.012554,0.007155,-0.066277,0.044664,-0.036083,0.096920,-0.042373,0.019819,-0.010406,0.002412,-0.006689,-0.015705},
{-0.022388,0.086732,0.069033,-0.067894,0.043440,0.060264,-0.041394,0.063571,-0.105289,-0.019165,-0.014458,-0.024936,0.019185,-0.084842,-0.038010,-0.080986},
{-0.007716,-0.023626,0.024749,-0.004935,-0.053411,0.124228,-0.081697,0.046725,0.037325,0.049518,-0.015456,0.028669,-0.009244,-0.069146,0.046984,-0.012443},
{0.171288,-0.031275,-0.019893,0.000034,-0.094777,0.066939,-0.033271,0.070683,-0.042530,0.018522,-0.068773,0.100086,-0.057307,-0.063253,0.056855,0.126890},
{0.082639,0.014922,-0.116436,-0.049925,-0.015313,0.114412,0.029899,-0.004675,-0.033672,-0.054255,0.083833,-0.023898,0.054970,0.065707,0.004089,0.004201},
{0.087328,-0.098876,-0.003287,0.066117,-0.077491,-0.034079,0.038650,0.060256,0.021661,-0.119759,-0.058586,0.040585,-0.043315,0.033762,0.062610,-0.012462},
{-0.051714,-0.070478,0.078326,-0.035596,-0.023108,0.019216,0.003081,0.007322,0.041805,0.110321,-0.119554,0.020096,0.070544,0.072951,-0.043068,0.002010},
{-0.056847,-0.174181,-0.024584,0.106113,-0.046581,0.076647,-0.055202,0.029249,0.044274,-0.105187,-0.061028,-0.011904,-0.060936,0.060041,0.022976,-0.060245},
{0.148809,-0.062183,0.060586,-0.005161,-0.083103,-0.038800,-0.133984,-0.038333,-0.019553,0.050348,0.014997,0.012336,0.038156,-0.050877,-0.037126,0.010477},
{-0.072298,0.049619,0.054081,-0.006464,0.027581,0.008623,0.077712,-0.023813,-0.011561,0.028155,-0.014161,0.070045,0.081607,0.020634,-0.047327,-0.043428},
{0.119923,-0.117109,-0.027807,0.004566,0.040786,-0.077953,0.019932,0.015558,0.090580,0.009350,-0.053250,-0.044383,0.016121,0.020546,-0.114182,0.066302},
{0.065991,-0.007155,-0.050744,0.069858,-0.101913,-0.062367,0.122160,0.055166,-0.008062,-0.025522,-0.018045,0.099120,-0.022430,0.014868,0.053469,-0.021922},
{-0.069816,0.005215,0.005761,-0.080269,-0.013932,0.108451,-0.023140,-0.022732,-0.068752,0.047575,0.178778,0.025849,0.006647,0.053706,0.073485,0.022670},
{-0.018979,-0.119388,0.075349,0.052916,0.014117,-0.106825,0.093288,-0.057181,-0.038112,-0.049894,-0.137495,0.064541,0.127364,0.070485,-0.094801,0.052460},
{-0.060020,-0.045154,0.039125,-0.107973,-0.011610,-0.001556,0.061869,0.104078,0.045217,0.044451,0.071114,0.106699,-0.087936,-0.049192,-0.085787,0.027051},
{0.014727,-0.092839,-0.025698,0.026163,0.074633,-0.021159,0.073082,0.017519,-0.092446,-0.018106,-0.067842,-0.061380,-0.041640,-0.054550,0.007728,0.119797},
{-0.020785,0.081938,0.057612,0.130116,-0.011099,0.087945,0.044569,0.043764,-0.091618,-0.006333,-0.006830,-0.096808,-0.135803,-0.094875,0.029782,0.083463},
{0.076340,-0.035880,0.026293,-0.005779,0.011246,0.044735,-0.022975,0.038513,0.023674,0.061156,-0.143488,0.053804,-0.006122,0.004931,-0.000584,0.060237},
{-0.034561,-0.109071,0.047632,-0.042480,-0.010623,-0.018053,-0.089520,0.100414,-0.044764,0.074746,-0.008098,0.121674,-0.046478,0.065094,-0.014169,0.046378},
{0.017522,0.114642,0.063922,0.152435,0.023220,-0.081346,0.086477,0.044328,-0.108212,-0.112901,0.039613,-0.031487,0.018037,0.068720,0.054375,0.076005},
{-0.029389,-0.028742,0.142548,-0.089524,0.082297,0.041146,-0.036480,-0.059416,-0.035240,0.039742,-0.056629,-0.004920,-0.063535,-0.005749,0.051359,-0.012563},
{-0.041410,-0.023551,0.099595,0.066767,-0.011603,-0.069262,-0.102449,0.031362,-0.079376,-0.066043,0.060075,0.043778,-0.045198,-0.003710,0.065498,-0.072726},
{-0.002650,0.082048,-0.029563,-0.007517,0.076307,-0.021094,0.013461,-0.099144,0.002918,0.065198,0.111211,0.116727,-0.000169,-0.028643,-0.126124,0.051308},
{-0.013012,0.133042,-0.044343,-0.060654,-0.103196,-0.106792,-0.119361,0.083396,-0.092718,0.027476,0.061992,0.042523,-0.056511,-0.150867,-0.014519,0.019364},
{0.002096,-0.005853,-0.025447,0.021592,0.066843,0.032734,0.131125,0.042082,0.057109,0.035789,0.096537,0.106721,0.038597,0.063209,0.065629,0.018780},
{0.061212,0.027859,-0.012853,-0.002079,-0.033643,-0.025469,0.028079,-0.007619,-0.110588,0.092264,0.059866,0.097079,0.106504,0.063222,0.082962,-0.016955},
{-0.009947,0.036158,-0.086048,-0.029475,-0.029795,0.086976,0.032175,-0.088622,-0.045876,-0.053966,0.018201,-0.005973,-0.023060,0.027553,-0.065959,0.133601},
{-0.014783,-0.080806,0.008238,0.001945,-0.001183,-0.064334,-0.140150,0.008501,0.048327,0.100652,-0.013191,0.065224,0.092336,-0.027686,0.039876,0.057959},
{-0.053343,-0.099162,-0.047507,-0.024404,-0.012799,0.148516,-0.080392,-0.005027,-0.004440,0.003694,0.003689,-0.080880,0.014146,-0.071542,0.073538,0.115620},
{0.072510,-0.022249,0.088556,-0.065178,-0.032953,0.065137,0.103519,-0.061916,0.037494,-0.015046,0.112547,-0.031634,-0.011941,-0.019648,0.034171,0.119117},
{0.025417,-0.100917,-0.037561,0.031491,0.003864,-0.013389,0.003656,-0.016457,-0.058291,-0.046423,0.033213,0.011410,0.032066,-0.081598,0.022790,-0.078689},
{-0.068342,0.000967,-0.058391,-0.007154,0.042630,-0.010029,-0.072753,-0.037707,-0.109678,-0.061612,0.081314,0.036615,-0.121292,-0.036579,-0.092638,0.085170},
{0.148144,-0.018958,-0.019947,0.022824,-0.023974,-0.083769,-0.033103,-0.095686,0.069920,-0.106231,0.014782,-0.010703,0.022485,0.052127,-0.064352,0.053656},
{0.043608,0.011495,-0.006834,0.005060,0.039775,0.077041,0.063702,0.065316,-0.011994,-0.043990,0.075224,-0.091165,-0.099853,0.037925,-0.109571,0.012124},
{0.079266,0.033062,-0.034240,-0.031313,0.030507,-0.046093,0.072876,-0.046665,0.029808,0.054017,-0.029689,0.061240,0.041530,-0.057222,0.054972,0.018312},
{-0.016819,-0.002188,0.048154,0.050148,0.060539,-0.006715,-0.113536,0.017092,-0.047592,0.012900,0.080141,-0.043126,-0.018280,-0.016403,-0.003124,0.076243},
{0.033616,0.056842,0.004525,0.019918,-0.027275,0.025344,-0.088849,-0.078859,0.027480,-0.057302,0.014126,-0.000935,-0.024844,-0.043676,-0.032917,-0.011613},
{-0.041356,-0.087818,0.032576,-0.014595,0.095398,-0.023791,-0.044230,0.069926,-0.066395,-0.050621,0.045590,0.093497,-0.025769,-0.114429,0.079783,-0.072338},
{-0.050392,-0.019141,-0.017787,-0.114036,-0.035063,-0.000406,-0.045267,0.037855,-0.096955,-0.012668,0.103924,0.015942,0.036344,0.116390,-0.014172,0.066740},
{-0.002531,0.066896,-0.091774,-0.025025,-0.113438,-0.014567,-0.034349,0.007374,-0.007128,0.130038,-0.008001,0.039641,0.017868,0.012594,0.041580,-0.105539},
{-0.065890,0.061068,-0.051231,0.010830,0.038028,-0.011908,-0.020560,0.030665,0.062363,0.035189,-0.096336,-0.000619,0.092085,0.002858,0.013029,0.038666},
{0.091339,-0.065602,-0.055701,0.002221,-0.031716,-0.097299,-0.018751,-0.012655,-0.010408,-0.031455,-0.003113,-0.031687,0.017677,0.010766,-0.052904,-0.020340},
{0.061816,0.036496,-0.024260,0.005329,-0.109266,-0.114520,-0.044413,0.064128,0.048236,-0.036630,0.034178,0.011030,-0.001092,0.009103,0.029390,0.138614},
{0.080180,-0.037455,0.048343,-0.002901,-0.058818,-0.053441,-0.097005,-0.002857,-0.053439,0.083200,0.080981,0.035520,0.090858,-0.022208,-0.007200,-0.063166},
{-0.072499,0.087253,0.071470,0.082698,0.022300,-0.208889,-0.033983,-0.039353,-0.035001,0.056443,-0.053882,-0.049838,0.051370,-0.032516,-0.071421,-0.020569},
{-0.047709,0.012202,-0.091485,0.022994,0.112378,-0.059263,-0.028522,0.010904,-0.047200,0.128969,0.023841,-0.061568,0.073518,0.010696,-0.040317,0.045854},
{-0.084207,-0.006489,-0.030351,0.069547,0.139721,-0.003931,0.144709,0.020508,0.054555,-0.049389,-0.010854,0.032753,-0.011592,-0.016442,0.029926,-0.057424},
{-0.005864,0.124057,0.022478,0.057856,-0.001435,0.108446,-0.047726,0.008310,0.030595,0.032284,0.033705,-0.096212,-0.132338,0.013473,-0.116923,0.002090},
{-0.103918,-0.133589,-0.010087,0.038877,0.050393,-0.013096,0.089688,0.018440,0.028292,0.007272,0.048271,-0.077587,0.033633,0.034632,-0.001631,-0.078674},
{0.075221,-0.024382,-0.050445,-0.024454,-0.099487,-0.058034,-0.019158,-0.055475,0.045399,-0.027473,0.072125,-0.035717,0.054038,-0.077219,-0.084105,-0.011575},
{0.008763,0.043837,0.039551,-0.000134,0.035883,0.083874,0.053174,0.137372,-0.074332,0.075035,0.183968,-0.059917,-0.013503,-0.069380,0.024059,-0.054090},
{-0.044334,-0.106307,0.007453,-0.090392,0.051876,0.069568,0.089249,0.036319,0.133255,0.065243,0.005344,-0.008392,-0.046675,0.005143,0.016323,0.086852},
{0.065924,0.021975,0.081513,-0.010736,0.000924,0.092601,-0.111976,0.003062,0.029833,0.064990,0.046546,0.058389,-0.019367,0.040560,0.027721,0.050243},
{0.022500,0.022934,0.052881,0.095662,-0.074047,-0.058356,-0.094851,0.045922,0.053727,0.046464,-0.090309,0.043376,-0.029428,0.083927,-0.007558,0.059682},
{0.055161,-0.052442,-0.091892,-0.034997,0.013540,0.126428,-0.000754,-0.161363,-0.119158,0.034311,0.014773,0.006144,-0.032912,-0.015754,-0.035583,-0.038593},
{-0.044511,-0.045771,0.017397,0.010058,0.070501,0.101219,0.001558,-0.054647,0.047379,-0.062512,0.033420,-0.051924,0.080931,-0.064886,-0.125020,0.030996},
{0.010560,0.037298,0.176978,-0.106615,0.048980,0.050118,0.079017,-0.027889,-0.054202,-0.006607,-0.113908,0.052290,-0.037912,-0.095892,0.074617,0.071304},
{0.096125,-0.033835,-0.083852,0.007907,0.117501,-0.021562,-0.074720,0.063967,-0.033172,-0.038358,0.084471,-0.076515,-0.036122,0.087316,-0.006018,0.052935},
{-0.067102,0.042387,0.126882,-0.006375,0.031523,-0.058000,-0.001189,0.052254,0.081118,-0.034494,-0.010192,-0.015093,0.013315,-0.055892,0.000487,-0.004886},
{0.043520,0.042286,0.004989,-0.044727,-0.041459,-0.148124,0.106875,-0.066692,-0.008171,0.114833,0.031935,-0.041342,0.043692,0.071311,0.138765,0.088546},
{0.070257,0.061918,0.125946,0.095817,0.124447,-0.080969,-0.081539,-0.034179,0.016973,-0.041120,-0.086383,0.065392,0.075939,0.026552,0.041603,0.105426},
{-0.012811,-0.057961,-0.026102,0.031340,0.078992,-0.001893,-0.024802,-0.084531,0.104390,0.055788,0.062131,-0.015970,-0.043977,-0.090241,0.022092,-0.008822},
{0.031483,0.011777,-0.003723,0.022792,-0.003117,0.034974,-0.012530,-0.091561,0.162497,-0.063831,-0.100772,-0.024096,-0.135686,0.091548,0.009552,0.038724},
{-0.044213,-0.092343,-0.039873,0.023728,0.058206,-0.003443,0.066506,0.012169,-0.025227,0.003937,0.001982,-0.013615,0.061530,0.024332,-0.015007,0.027526},
{-0.013450,0.001910,0.010075,-0.056269,0.128593,0.051591,0.083668,0.044589,-0.021073,-0.002983,0.015453,-0.015149,-0.097815,0.056667,0.002765,0.111794},
{0.094175,-0.091196,0.028638,-0.020471,0.038892,0.001240,-0.003885,-0.057469,-0.015266,-0.061544,0.025489,0.038358,0.034845,-0.050986,-0.006641,-0.052364},
{0.039248,0.032969,-0.013810,-0.069553,0.150316,0.058625,0.033884,0.006964,-0.036278,-0.005869,0.015506,-0.005667,0.048307,0.013722,0.085800,0.073969},
{0.146505,-0.049305,0.013235,-0.003918,0.005147,-0.004824,-0.021041,-0.028028,-0.043925,0.043543,-0.028448,0.059894,-0.093999,0.056755,0.129167,-0.055042},
{-0.060745,-0.042198,-0.041813,0.062172,-0.010874,-0.013961,-0.009865,0.028987,-0.121162,0.047433,0.082549,0.075994,-0.025799,0.035062,0.011469,-0.120579},
{0.047168,0.075172,-0.008851,0.049503,-0.009736,0.024653,-0.016137,0.031390,0.006440,-0.050943,-0.032813,0.004499,0.104932,-0.048397,-0.010637,-0.000338},
{0.020503,0.079720,-0.006352,-0.008254,-0.032669,0.051705,0.073608,0.017431,0.004690,-0.058558,-0.133346,0.111701,0.002790,0.099757,-0.067689,-0.066083},
{0.023300,-0.092263,0.014615,0.024393,0.019030,-0.012477,-0.034380,0.023625,0.027934,-0.053032,0.076893,-0.144236,-0.017835,-0.012963,0.066651,0.082325},
{-0.020227,0.025467,-0.056799,-0.059476,0.023868,-0.026282,-0.052244,0.053554,-0.032231,-0.005673,0.014507,-0.024689,0.028554,-0.013531,0.011989,0.048385},
{-0.024800,0.030174,-0.026692,-0.033124,-0.082533,0.032941,0.099346,-0.073049,0.077623,0.044772,0.052263,-0.000865,0.062652,0.017632,-0.112744,-0.021443},
{-0.043081,0.077666,0.129373,-0.034078,-0.002120,-0.118498,-0.033441,-0.070032,0.008656,0.104417,0.030243,0.064499,0.073145,0.062617,0.116375,0.027489},
{0.062933,0.024533,0.012381,-0.047925,0.043174,-0.070546,-0.027412,-0.052638,-0.044707,0.029142,-0.017018,-0.024409,-0.014556,-0.079759,-0.029111,-0.116516},
{-0.070491,0.145306,0.050345,0.018758,0.122784,0.013314,0.025988,0.022947,-0.066102,0.076443,-0.037638,0.040115,0.095185,0.010434,0.022567,0.071984},
{0.063421,0.191679,0.021565,0.013880,-0.117178,-0.049569,0.127645,0.008229,0.010597,-0.016353,0.011321,0.065786,0.014074,-0.036305,-0.132611,0.049661},
{-0.056210,-0.125690,0.041633,0.024125,-0.030942,0.041970,0.034737,-0.063618,0.026466,0.034216,-0.038155,0.088382,0.027864,-0.104588,0.042279,0.084482},
{0.029922,0.128662,0.060856,0.060567,0.026511,-0.028045,-0.043846,-0.126534,0.019853,-0.051059,0.164727,-0.018161,0.091128,0.038805,-0.033860,0.017257},
{-0.000559,0.008788,-0.038231,0.003101,0.000973,0.053457,-0.016476,0.058933,-0.046638,-0.080235,0.045703,-0.053426,0.074084,0.005509,-0.002220,0.005485},
{-0.010597,-0.058782,0.035730,-0.031492,-0.000524,-0.067683,0.080298,0.011541,0.002461,-0.073165,0.105232,-0.177881,0.006060,0.034629,-0.057897,-0.063095},
{0.079729,0.111264,0.116810,-0.056779,-0.063987,0.000043,0.107127,-0.042773,0.013232,-0.123377,-0.017523,-0.034836,-0.027503,-0.025053,0.140659,-0.064442},
{0.004726,-0.084767,-0.015086,-0.009776,-0.086337,0.001614,0.005504,-0.050273,-0.075853,-0.043415,0.029202,0.003875,0.136105,0.044483,-0.024455,0.011845},
{0.019607,-0.091112,-0.070783,-0.008740,-0.022156,-0.077619,-0.031805,0.045756,0.092232,0.036182,0.075656,0.113376,0.015651,0.069613,0.086865,-0.096870},
{0.021378,-0.003090,-0.058523,0.041552,0.056789,0.059585,-0.054309,-0.045566,0.055809,-0.020259,0.005341,-0.047202,-0.069362,0.106931,0.061465,0.082784},
{0.096376,-0.092802,-0.003097,0.064785,0.071001,0.045953,0.036070,-0.027700,0.021581,-0.079188,0.085053,-0.108431,0.001041,0.051991,0.032066,-0.038646},
{0.062812,0.100716,-0.063427,-0.054006,-0.088127,-0.019937,0.141235,0.029370,0.044069,-0.009980,-0.023348,0.025484,-0.017951,0.101649,-0.017251,0.041051},
{-0.090551,0.030224,-0.031912,-0.045166,-0.012095,0.036042,-0.001621,-0.057421,-0.062914,-0.120187,0.045307,-0.000567,-0.001828,0.005658,0.040419,0.003264},
{0.019958,0.026599,0.037523,0.013046,0.031350,-0.009663,0.044474,0.123755,0.025265,-0.000355,0.017724,0.024471,-0.068487,0.095178,-0.027525,0.016431},
{0.024632,0.018282,-0.175252,-0.001077,-0.069228,-0.028683,-0.070669,-0.072386,0.053960,0.096960,0.038858,0.034678,-0.070198,-0.011290,-0.048921,0.050310},
{0.040986,-0.008857,-0.005975,0.054767,-0.006144,-0.010027,0.000612,-0.066372,0.047575,0.036653,0.007389,-0.169795,-0.052327,-0.053676,-0.113895,-0.019936},
{0.002235,0.034497,-0.033410,0.000001,-0.027380,0.022536,0.041140,0.011243,-0.068715,0.028126,0.040589,0.036170,-0.048745,0.020086,-0.092522,-0.005977},
{0.060798,-0.028310,-0.014239,0.006193,-0.046061,0.073213,0.129684,0.032297,-0.009300,0.057054,-0.000668,0.031966,0.042239,0.035896,-0.051158,0.027352},
{-0.123163,-0.059358,0.055954,-0.057735,0.006122,-0.005375,-0.024053,0.056266,-0.000036,0.035490,-0.032337,-0.033944,0.022119,0.046328,0.118888,0.077607},
{0.097751,-0.100030,-0.070757,-0.072416,-0.081322,-0.136995,-0.045415,-0.042359,-0.050229,0.008775,-0.046557,-0.031112,-0.026721,0.070448,-0.140202,0.031110},
{-0.032203,-0.009766,0.080424,-0.017477,0.005435,0.215026,-0.028759,-0.100273,0.098952,0.035121,0.110133,0.007459,-0.078533,0.016472,-0.091570,0.083373},
{-0.073477,-0.032801,-0.151929,0.074521,-0.070562,-0.089472,0.123027,0.107892,-0.014711,-0.114533,-0.044270,-0.023648,-0.029879,-0.143747,-0.016802,-0.023000},
{-0.056749,0.062713,-0.003990,0.024945,-0.020547,0.059287,0.112169,-0.022186,-0.086082,0.008549,-0.029663,-0.012740,0.026801,0.012209,-0.005725,0.032826},
{0.049505,-0.014672,0.038938,-0.054078,-0.007528,-0.075006,0.014359,-0.045941,-0.072257,-0.042040,-0.099630,0.001773,0.033025,0.074218,-0.011795,-0.091605},
{-0.050116,0.087283,0.047493,0.091320,-0.006595,0.044300,0.131660,0.042068,0.026656,0.041470,-0.033908,-0.075645,-0.092828,-0.089738,0.004304,-0.027852},
{-0.052816,-0.055100,-0.013200,0.043897,-0.061411,0.026737,-0.010588,-0.152913,-0.035196,0.092883,-0.118122,-0.034553,-0.037643,-0.070904,0.023922,0.089092},
{-0.103819,0.083414,-0.013765,-0.099539,-0.085409,-0.016535,-0.018798,0.018183,-0.065949,0.004814,0.037621,-0.162811,0.128816,-0.010555,-0.019815,-0.029781},
{0.013316,0.054028,0.056107,-0.028139,0.063825,-0.024039,0.037617,-0.032061,0.087657,-0.004584,0.042102,-0.054327,-0.048709,-0.064565,-0.032539,-0.136584},
{-0.154516,0.034657,-0.040506,-0.087636,-0.012118,0.034320,-0.002773,-0.003578,0.053399,-0.015491,0.021587,-0.096618,0.006856,0.030251,-0.059877,-0.043417},
{-0.103462,0.034884,0.043586,-0.063134,-0.032111,0.066906,-0.041179,-0.039408,0.090201,0.087726,0.041758,-0.030063,-0.039566,-0.029700,0.026044,-0.063545},
{0.167079,-0.004224,0.047190,0.039421,-0.124820,0.043376,0.085077,0.010474,0.088775,-0.008109,-0.035253,-0.002181,-0.046412,0.151148,-0.031102,0.092867},
{-0.029948,-0.053107,0.103091,0.018636,0.013128,-0.001929,-0.011568,0.062363,0.141274,0.103340,0.107118,-0.064058,-0.023856,-0.029514,0.012805,-0.036222},
{-0.008419,0.089342,0.014323,-0.027422,-0.045253,-0.000600,0.006366,0.040328,-0.044823,-0.061742,-0.037243,-0.037099,-0.021613,0.016147,-0.028713,-0.079061},
{0.069000,-0.023239,-0.011635,0.067901,-0.023435,0.029312,0.060447,-0.029639,-0.037790,-0.020173,-0.085936,-0.009588,-0.019356,-0.116575,0.092422,-0.116558},
{0.161157,-0.031313,0.010274,-0.102499,-0.089953,-0.051970,0.203887,-0.095347,-0.052915,-0.088440,-0.007159,0.055302,-0.024195,0.090812,0.029979,0.002284},
{-0.096206,-0.047355,0.057382,0.085923,-0.012319,-0.027297,-0.086306,0.045197,0.053617,0.046684,-0.074579,-0.024826,-0.015108,-0.014298,0.082084,-0.063202},
{0.046086,0.044380,0.021239,-0.004283,-0.006911,-0.041572,0.041633,0.024365,-0.076771,0.070756,0.012164,-0.078283,0.026074,0.052322,0.053499,0.049238},
{-0.026047,-0.081416,-0.080573,-0.049571,-0.075191,0.040485,0.010139,-0.161712,-0.003727,-0.028575,-0.096561,0.054382,-0.025366,-0.084097,0.062389,0.059165},
{0.062587,-0.027155,0.016484,-0.104755,0.055867,0.017670,-0.002607,0.035592,0.033740,0.063316,-0.000556,-0.003416,-0.052011,-0.068795,-0.004769,0.141407},
{-0.072536,-0.046197,0.014155,-0.019275,0.014020,-0.024819,-0.061404,0.010692,0.071395,-0.008479,0.020085,0.011335,-0.007698,0.069426,0.038812,-0.104741},
{-0.059895,0.062025,0.033243,0.022561,-0.077728,0.004927,0.093469,-0.016600,-0.009716,0.038275,0.050908,0.058286,-0.021399,-0.039770,0.065971,0.125800},
{0.032044,0.111517,0.066847,0.081924,-0.011174,-0.112733,0.006661,-0.017594,-0.060566,-0.026978,-0.024694,-0.041865,0.111246,0.025204,0.070197,-0.011102},
{0.052987,0.044067,0.027616,-0.154457,-0.019980,0.068430,-0.009544,0.065065,0.104080,0.027225,-0.012863,0.067438,0.007858,-0.039827,0.131748,-0.031681},
{-0.156992,-0.082889,0.084365,0.100343,0.014264,-0.105212,-0.007957,0.033949,-0.007538,-0.110021,0.034356,-0.019709,-0.017607,0.042158,0.146093,0.115825},
{0.101277,0.033676,0.010350,0.025245,-0.046296,-0.095900,0.040615,-0.090893,0.021512,-0.082410,-0.173677,0.053140,-0.093198,0.006883,-0.082184,-0.053323},
{-0.129185,0.072340,-0.081893,0.114595,-0.078504,-0.096697,-0.086112,0.013096,-0.007317,0.092694,0.051595,0.029046,-0.087865,-0.030703,0.048475,-0.090314},
{0.018934,0.063005,0.026503,-0.030913,0.000535,0.021916,-0.045833,-0.046417,-0.016093,-0.019642,-0.144990,0.018109,-0.108797,0.047501,0.031960,0.145723},
{0.003600,-0.042184,0.034388,0.000595,0.028831,0.041648,0.005561,-0.083874,0.070901,0.006695,0.042142,-0.001057,0.090057,0.042473,0.029349,0.016664},
{0.067392,-0.109928,0.025371,0.011270,-0.015173,-0.002562,0.007902,-0.047352,0.074041,-0.117659,0.010146,0.110942,-0.035635,0.108996,0.053414,0.030317},
{0.120834,0.000903,-0.127882,0.036143,-0.091587,-0.050078,-0.099097,-0.093790,0.065095,0.005632,0.040460,-0.018506,-0.160439,-0.061276,-0.061711,0.138743},
{0.097212,-0.044725,-0.000663,0.075188,0.021961,0.086749,-0.171460,-0.036608,-0.037480,0.149717,-0.019177,0.052851,0.008115,0.043877,-0.004198,-0.088114},
{-0.150500,0.027055,-0.048206,0.108836,-0.094946,0.141777,-0.015112,0.003952,-0.051566,-0.049961,-0.050444,0.055283,-0.120811,-0.088562,-0.069675,0.052287},
{0.081341,0.052707,0.054888,-0.060711,-0.019553,-0.097812,0.017317,0.081573,0.062099,0.117222,-0.040847,-0.066910,0.046107,-0.056824,-0.088430,0.004513},
{-0.041989,-0.044901,-0.011397,0.029722,0.009642,-0.021043,0.003456,0.004111,-0.081073,0.005649,-0.067028,0.001148,-0.025931,0.158564,0.000673,-0.010276},
{-0.011089,-0.067410,-0.064774,-0.068809,0.103486,-0.076903,-0.036059,0.014800,-0.135641,0.028293,-0.110168,0.088159,-0.064582,0.016587,-0.021205,-0.043773},
{-0.011952,-0.170957,0.126040,-0.064987,0.070124,0.013813,0.133069,-0.018216,0.017557,-0.085635,-0.071918,0.022210,-0.149695,0.041058,-0.108285,0.060992},
{-0.129811,-0.059806,-0.180302,-0.026344,0.080997,-0.083191,-0.000306,-0.015101,0.071522,-0.002036,0.003869,-0.027246,-0.025692,-0.063842,-0.083951,-0.003792},
{-0.079902,0.014673,0.068687,-0.016015,-0.090108,-0.026284,0.009735,-0.045783,-0.079661,0.049074,-0.068670,0.062890,0.001037,-0.003907,0.036432,-0.000077},
{0.012056,0.005017,-0.033691,0.025713,-0.045312,0.010865,0.018396,0.043928,-0.050525,-0.093691,0.016445,-0.017445,0.008685,0.082339,0.005339,-0.100154},
{0.024871,-0.066589,0.014430,0.026494,-0.049093,-0.075692,-0.074030,-0.160865,-0.102864,0.057585,0.144186,-0.006038,0.008817,-0.024187,0.043802,-0.121420},
{-0.058676,-0.016034,-0.107348,0.050733,0.151952,-0.045561,-0.027094,0.009736,-0.037576,0.054571,0.050924,-0.058049,0.006952,-0.089368,0.018961,0.038408},
{-0.021421,0.052573,0.068746,-0.015712,-0.104269,0.077835,0.029683,0.066890,0.021131,-0.047682,-0.093954,-0.077634,0.038528,0.045693,-0.034105,0.091696},
{-0.057801,-0.021666,0.039653,-0.053489,-0.004215,0.060112,0.053095,0.014954,-0.025105,-0.027442,0.012496,-0.005093,-0.056956,-0.046443,0.109079,0.073110},
{-0.011766,-0.011909,0.123783,0.034677,-0.025460,0.006697,-0.011100,-0.122932,-0.069473,0.042435,0.074462,0.002899,0.005832,-0.075669,-0.092115,0.062990},
{0.079689,-0.005119,0.082751,-0.102517,-0.108849,0.020299,0.028208,-0.028764,0.079898,-0.064588,-0.016202,-0.028887,0.081375,-0.010183,-0.056332,0.080418},
{0.033410,-0.052483,-0.039982,-0.047952,-0.044396,-0.070512,0.114465,-0.003778,-0.027454,-0.146639,0.014054,-0.004303,0.049498,0.103203,0.099238,-0.073548},
{0.017921,0.058920,-0.051867,0.014218,-0.008736,-0.043013,0.045934,-0.118459,0.052006,-0.035730,0.037950,0.028412,-0.023508,0.030889,-0.077232,0.043681},
{0.066305,0.048393,-0.020770,-0.137798,-0.008142,0.025683,0.029467,-0.003749,-0.064145,-0.120250,-0.033341,-0.044398,0.066275,-0.022592,0.007560,0.089172},
{-0.027224,0.027061,-0.071010,0.005964,0.007571,-0.034229,-0.097499,-0.043760,0.029955,-0.053556,-0.019705,-0.058108,0.014711,0.101320,-0.099968,0.065080},
{0.026102,0.052258,0.125878,0.009005,0.040992,-0.041095,-0.013850,0.007373,-0.083868,-0.022474,-0.056821,0.042420,0.129938,-0.096854,0.056849,-0.029986},
{0.002606,0.161556,0.094717,0.033822,-0.067712,-0.136566,0.007339,-0.061284,-0.048503,0.045145,-0.013887,-0.086637,-0.063552,-0.051169,0.076297,-0.124256},
{-0.009351,0.041316,-0.038311,0.023120,0.034866,-0.139731,-0.120145,-0.041302,-0.090683,-0.018594,-0.015326,0.008574,-0.062648,-0.020863,-0.085877,-0.028245},
{0.016978,-0.030402,0.018239,-0.073473,-0.038408,0.065431,0.059173,-0.009812,0.063320,-0.001007,0.037375,0.063624,0.010224,-0.042216,-0.036009,-0.014984},
{0.048290,-0.126332,0.002724,0.042437,0.059443,0.004167,0.007025,-0.033889,-0.012074,-0.066290,0.081781,-0.005838,-0.084464,-0.048469,0.042547,-0.026377},
{0.030833,0.056506,0.010360,-0.051488,0.017872,0.061584,0.002760,0.011626,-0.090135,-0.013706,0.065297,-0.101418,0.037065,0.074963,-0.096430,0.035088},
{0.124999,0.124648,-0.063114,-0.053257,-0.078943,0.087713,0.053275,-0.077360,0.088583,-0.127326,-0.009781,0.043052,-0.034478,0.059084,0.079754,-0.074719},
{0.040094,-0.052559,0.021585,-0.037434,-0.115309,0.015704,-0.155275,0.047554,-0.033555,0.028153,-0.023400,0.091775,-0.069822,-0.007850,-0.060368,-0.002727},
{-0.031908,0.060699,0.063651,-0.101856,-0.060034,-0.028339,-0.039528,-0.044905,-0.065009,0.040319,0.019061,-0.017623,0.069407,0.042675,0.060473,0.038184},
{-0.038151,-0.008033,-0.024047,0.007014,0.020147,0.005483,0.061173,-0.048678,0.050527,-0.067946,-0.034376,-0.093780,0.057359,-0.021279,0.098521,0.102948},
{0.004363,0.112289,0.044256,-0.009733,-0.031428,-0.004083,-0.013052,0.053655,-0.033974,0.032207,-0.128761,-0.006971,0.077219,-0.001826,-0.065614,-0.026174},
{-0.076322,-0.045451,-0.052734,0.007373,0.020556,0.048027,0.034422,-0.058429,-0.085456,-0.130683,-0.050522,0.027412,-0.027661,-0.065050,0.048465,-0.041632},
{-0.015369,0.019601,0.066373,-0.032737,0.038511,0.158632,0.139014,-0.048205,-0.022754,0.044296,0.094805,0.045965,0.067621,0.073249,0.018119,-0.051140},
{0.016006,0.031999,-0.051179,0.061373,-0.041848,-0.055766,-0.108521,0.021272,0.030500,-0.098143,-0.029127,0.003580,-0.054972,-0.018182,-0.032648,-0.003869},
{-0.088616,0.110957,0.053144,0.037758,-0.041870,0.032328,0.092871,0.068741,-0.030658,-0.008201,0.086885,-0.005026,0.035211,-0.027532,-0.047683,0.050567},
{0.154926,-0.048447,-0.039586,0.026924,0.048361,-0.031341,0.128943,-0.058226,0.108357,-0.012292,0.021132,0.043105,-0.066492,0.012208,-0.045738,-0.023337},
{0.069388,-0.022531,-0.014841,0.084410,-0.017679,-0.068211,0.077829,0.029380,-0.058251,-0.069737,0.022369,-0.023870,-0.040188,-0.070669,-0.104301,0.025882},
{0.065086,-0.008189,0.048414,0.186216,0.043965,0.008511,-0.110444,-0.001838,0.157133,-0.034265,-0.070642,-0.003959,-0.006457,0.066624,0.008062,0.125592},
{0.009750,-0.091766,-0.012634,-0.049579,0.089514,-0.041217,-0.047681,-0.036377,0.031630,-0.058356,0.042003,-0.059447,0.053350,-0.063059,0.082799,0.036483},
{-0.029424,0.050430,-0.082630,-0.020948,-0.071741,-0.000221,-0.155350,0.001492,-0.003201,-0.086859,0.160110,-0.081978,0.072514,0.085070,-0.091828,0.052047},
{-0.016602,-0.012586,-0.058447,0.103044,0.069370,-0.005590,0.032081,0.007262,-0.046411,0.042921,0.007794,0.017586,-0.053109,0.021008,0.073603,0.038760},
{-0.013323,-0.017720,-0.029505,0.035154,-0.024014,-0.117775,-0.034739,-0.016907,-0.030876,-0.036809,-0.055498,-0.027617,-0.018825,-0.033174,0.004306,0.003480},
{0.080418,0.083548,0.144211,-0.142681,0.090842,-0.011410,0.003545,-0.006199,0.055860,-0.002998,0.090060,-0.129746,-0.013967,0.060651,0.052027,-0.017673},
{-0.034548,0.006131,0.068940,-0.000852,0.066333,0.058404,0.008933,-0.044071,0.009163,0.007456,-0.081366,-0.085378,-0.009721,0.073359,0.066421,0.046024},
{-0.036245,0.031093,-0.030224,-0.001346,0.046995,-0.061184,0.054852,-0.055294,-0.023602,0.008784,0.007074,0.025148,-0.028862,-0.042860,-0.068665,-0.043484},
{-0.038746,-0.089102,-0.042838,-0.026602,-0.002063,0.036606,-0.083291,0.003892,-0.030134,-0.056604,0.101373,0.027666,0.004399,0.014842,-0.008792,0.141114},
{0.157947,-0.021711,-0.030202,0.028173,0.022860,0.020052,-0.107308,-0.041329,0.069593,0.005742,0.062391,0.022220,0.065937,-0.022431,0.043059,0.007284},
{-0.020044,0.067822,-0.032600,0.061782,0.036177,0.041596,-0.002750,0.007935,0.003122,0.026983,-0.020598,-0.029629,0.038274,-0.011997,0.003947,-0.104512},
{0.032359,0.003371,-0.044441,-0.080186,-0.105591,0.033682,-0.087707,0.008310,0.058606,0.042647,0.011220,0.046591,0.088473,0.161062,-0.054624,-0.074817},
{0.076783,0.025860,-0.001398,0.068286,0.113180,-0.066101,0.101252,-0.010070,-0.113618,-0.048974,0.026598,-0.026370,0.066656,-0.014656,-0.036600,0.008542},
{0.009142,0.004863,0.107359,-0.092389,-0.071070,0.046721,0.008565,-0.081294,0.085653,-0.005319,-0.125892,-0.024753,-0.074104,0.094668,-0.103842,-0.034406},
{0.066921,0.063310,-0.076749,-0.000356,0.046313,0.105144,0.035218,0.086886,0.011798,0.069641,0.052865,0.143013,-0.045928,-0.068932,0.053063,-0.009211},
{0.000874,-0.057082,-0.000524,-0.044456,-0.087496,0.100398,-0.059062,-0.048777,-0.096258,-0.039701,-0.071472,0.074908,0.035808,0.005217,0.005851,0.009123},
{-0.022757,0.022771,-0.013055,-0.029486,0.058017,0.053233,-0.019028,0.029871,0.007724,-0.055931,-0.025044,-0.060119,0.096649,0.016659,0.056763,0.000830},
{-0.058901,-0.054754,0.029902,-0.025121,0.003027,-0.000432,0.018211,0.078413,0.060659,-0.010148,0.034553,-0.061528,-0.177741,-0.031396,-0.139948,-0.053264},
{0.063482,-0.001542,-0.095987,-0.046314,0.045854,-0.009653,-0.017203,0.019701,-0.032896,0.020734,0.012888,0.032515,-0.047601,-0.019938,0.022910,0.111925},
{0.114384,0.008901,0.128331,-0.005690,-0.058561,-0.036918,0.009579,0.145820,-0.007759,-0.070413,-0.043456,0.129110,0.082540,0.085477,-0.001171,0.018774},
{0.021322,-0.003728,0.027911,-0.033525,0.040544,0.024724,0.005084,-0.058444,-0.049750,0.175840,-0.126560,-0.018346,-0.041508,0.036135,0.058829,0.021501},
{0.041939,-0.034973,0.012550,-0.114333,0.047296,0.083891,-0.015100,-0.030330,0.023358,0.015876,0.023583,0.121368,0.097139,-0.052388,0.038729,0.059768},
{0.031785,0.014957,0.149039,-0.082487,-0.035116,0.029425,0.019359,-0.034554,0.041337,-0.030669,-0.100512,-0.043781,0.083154,-0.027453,-0.055171,-0.022826},
{0.015595,-0.035365,-0.027274,0.068479,0.019266,0.019486,-0.007576,-0.130107,0.072587,0.060479,-0.010033,-0.006341,-0.106956,0.127295,0.044791,-0.012053},
{-0.089030,-0.014333,-0.018196,0.015979,-0.026366,-0.018704,-0.198982,-0.069060,-0.017412,0.085364,-0.116429,-0.066785,-0.063692,-0.086121,0.096987,0.067521},
{-0.105642,0.044186,0.048408,0.004599,-0.053498,-0.018414,0.025793,-0.046614,0.018198,-0.077109,-0.049810,-0.096986,-0.008627,-0.138222,-0.042166,-0.040426},
{-0.100330,-0.009309,0.012911,0.013268,0.111285,-0.094191,-0.062049,0.006154,-0.022180,-0.132579,-0.131372,0.097819,0.022218,0.052890,-0.068444,-0.059717},
{0.038012,-0.045415,0.016349,0.019443,-0.075558,-0.040354,0.119870,0.073117,-0.093849,0.031497,-0.063653,-0.002499,-0.102517,0.085253,-0.118083,0.021234},
{0.003791,0.020469,0.063073,-0.015954,-0.011923,0.013619,0.044883,0.049099,-0.163106,0.013307,-0.084256,0.016629,0.051880,-0.000240,0.013915,0.125358},
{-0.012188,-0.013110,-0.068849,0.032091,-0.056038,-0.094688,0.012646,-0.058593,-0.008266,0.125698,-0.039445,0.054457,-0.033785,-0.010058,-0.044739,-0.021775},
{-0.057659,0.038970,-0.042067,0.001064,0.049275,0.012373,-0.058089,-0.071939,0.070792,0.028765,0.116204,0.063741,-0.020392,0.143412,0.075279,0.019308},
{0.042875,-0.113808,-0.093009,0.020504,0.040988,-0.062713,-0.083229,-0.059421,0.008009,-0.127012,-0.005117,-0.049331,-0.020458,-0.089283,0.067385,-0.026228},
{0.006458,-0.124523,0.055536,-0.074903,0.031471,0.016643,-0.000443,0.055335,-0.054009,-0.104298,-0.064621,0.065803,-0.067524,-0.023363,0.076437,0.026484},
{-0.010180,-0.078572,0.062788,-0.002176,0.066399,-0.011052,-0.010307,-0.052491,-0.034259,0.007854,0.052764,0.005407,0.009898,-0.087829,-0.116785,0.074316},
{-0.076022,-0.008258,-0.029917,0.094259,-0.024851,-0.079382,0.072610,-0.015023,0.019379,-0.065205,-0.098942,0.067004,-0.069449,-0.062107,0.059490,0.013598},
{0.052603,-0.025606,0.137972,0.009186,-0.000786,-0.041099,-0.058582,-0.075694,0.004994,0.113715,-0.059717,0.043400,-0.018664,-0.030278,-0.040839,0.010688},
{0.075851,0.002909,0.008255,-0.030213,-0.009122,0.017281,-0.017200,0.046219,0.117186,0.028083,-0.054896,-0.058165,0.048114,0.005547,0.049998,0.009652},
{-0.085948,-0.123865,0.180139,-0.086139,0.014585,-0.104748,-0.067858,-0.027150,-0.102853,0.205614,0.031771,-0.017103,0.016576,-0.140843,-0.052600,0.013632},
{0.008255,0.041840,-0.065373,-0.042692,0.065112,0.045293,-0.030041,-0.011152,-0.105171,0.042929,-0.005289,-0.127994,-0.007664,-0.047212,-0.033310,0.011808},
{-0.021544,-0.096471,0.020675,-0.078815,0.062548,0.004886,-0.106155,-0.031918,-0.024032,0.065463,-0.040826,0.054233,0.107464,-0.074140,0.013353,-0.015141},
{0.108357,-0.019778,-0.077051,-0.046708,-0.008147,0.138082,0.019093,0.112389,0.002253,0.044746,0.013967,-0.008721,-0.015327,-0.117317,-0.072589,-0.022375},
{0.058676,-0.033717,0.103009,-0.000358,-0.011322,-0.024062,-0.017417,0.054915,0.066749,0.060529,0.039624,0.010759,-0.010310,0.001904,0.027686,0.007390},
{-0.033777,0.099797,-0.063580,0.013538,0.019343,-0.060048,0.011113,0.056500,-0.043022,-0.094997,-0.008177,0.070005,0.053328,-0.043280,0.049295,-0.050263},
{0.038175,0.010363,0.025100,0.002628,-0.059764,0.001579,-0.043837,-0.116359,0.040568,-0.039857,-0.072293,-0.004962,-0.105971,-0.062681,-0.042894,-0.093413},
{-0.034812,0.217672,-0.105473,-0.104078,0.060762,-0.103734,0.004741,-0.000332,0.007828,0.054978,0.059219,-0.002017,-0.009002,0.129579,0.025744,0.001672},
{0.024312,-0.066907,0.015543,0.000979,0.069916,0.078321,0.007386,-0.047475,-0.002981,0.013702,0.044785,0.100771,0.025424,-0.100988,-0.005530,0.023122},
{0.109167,-0.003382,0.002060,0.002745,-0.016503,-0.047929,-0.057529,0.053803,-0.007735,0.015265,0.021972,0.084589,-0.003209,0.104662,-0.061672,-0.074792},
{-0.006927,0.107263,-0.069339,0.037954,-0.080537,-0.069648,-0.068977,0.065799,-0.109505,0.020813,-0.069964,0.008073,-0.099318,0.046780,-0.052174,0.017876},
{-0.075420,-0.009851,-0.009130,0.049403,0.078861,0.040381,-0.008836,0.050500,0.116138,-0.022385,-0.032037,0.055071,-0.004338,-0.128618,-0.082998,0.148436},
{-0.019602,-0.025882,-0.034545,0.035918,0.043099,-0.044768,-0.018704,-0.050990,0.061991,0.064207,-0.069036,-0.114201,0.004322,-0.085516,0.114070,-0.033726},
{-0.041359,-0.094897,-0.116670,-0.036431,0.006686,-0.044183,0.013057,0.012710,-0.050020,0.032407,0.102467,0.008174,-0.007416,0.128392,0.072363,0.021647},
{0.143164,0.049314,-0.080502,-0.011200,-0.006244,0.001621,-0.066656,0.129957,-0.012052,0.094243,-0.001090,-0.028399,0.165484,0.021887,-0.039785,-0.006763},
{0.042121,-0.007135,-0.024268,-0.010647,0.010725,-0.021592,-0.091154,-0.025140,-0.093710,-0.021747,-0.014210,0.038939,0.045835,-0.047887,0.075199,-0.073241},
{-0.039426,-0.015006,0.088368,-0.017056,-0.018697,0.008487,0.067431,0.033840,0.030721,0.021268,-0.006493,-0.042132,-0.044127,-0.075704,0.136275,-0.069500},
{0.036622,0.030698,-0.088137,0.008898,-0.041138,-0.036483,0.142901,0.064160,-0.053224,-0.096609,0.070119,0.012049,-0.088212,-0.046243,-0.047169,-0.026071},
{0.041773,0.066868,0.047713,0.097037,-0.003151,-0.077343,-0.062168,0.094267,0.027301,0.009129,0.038609,0.151586,-0.013305,0.019877,-0.111285,-0.088534},
{-0.130128,0.014564,0.037674,0.085837,0.040993,0.076062,-0.080367,0.036583,-0.030123,-0.026561,-0.090910,0.025625,0.014334,0.078329,-0.125662,-0.137389},
{-0.102210,-0.032813,0.019645,-0.019566,0.068382,0.101267,-0.033985,0.106370,-0.088571,0.045992,0.041405,0.027071,-0.034143,-0.021151,0.020839,-0.065717},
{0.094967,-0.088695,-0.029802,-0.005401,-0.027291,0.134151,0.021671,-0.058571,0.016948,0.000972,0.070336,0.080919,-0.038671,0.065354,-0.033166,-0.039719},
{-0.032531,-0.035862,0.017536,0.046877,0.023698,-0.054749,0.064204,0.029967,0.073506,-0.042553,0.005414,-0.118776,0.064528,0.031900,-0.042429,-0.062953},
{-0.033177,-0.020235,-0.005979,-0.028998,-0.025246,-0.034198,-0.011366,-0.011356,0.037844,0.014500,0.014219,-0.037671,-0.067292,-0.066068,0.009812,0.052149},
{0.035907,0.065885,0.078777,-0.048490,-0.040123,-0.134795,-0.042195,0.038064,0.031289,0.039577,0.011534,0.123057,0.006938,-0.094424,0.012004,-0.025050},
{0.043061,-0.090103,0.011039,0.068407,-0.070738,-0.066566,-0.043591,-0.010984,0.033132,-0.048517,-0.017451,-0.020507,-0.076498,-0.006834,-0.058543,-0.119582},
{-0.079254,0.021192,-0.009038,-0.082487,-0.134731,-0.020080,-0.015263,0.014492,0.034280,0.039872,-0.009301,-0.142194,0.043475,-0.026322,-0.002015,0.047022},
{-0.073714,-0.027337,0.045596,0.045222,-0.152883,0.040436,0.070313,-0.067890,0.027327,0.066773,-0.026025,-0.026301,0.014488,-0.024621,-0.049336,0.075079},
{0.057211,0.017054,-0.142730,-0.057932,0.032469,0.028040,-0.020015,0.084289,-0.117927,0.057896,-0.003782,0.013151,-0.025251,-0.079695,0.088502,0.059156},
{-0.049115,-0.078137,-0.113389,-0.021326,-0.114179,0.084785,-0.094403,0.052489,0.030750,0.051044,-0.030372,0.110012,-0.055695,-0.099568,-0.063747,-0.014198},
{-0.013214,-0.050270,-0.064247,0.123855,-0.052927,-0.006884,0.071001,-0.026068,-0.005842,-0.044008,-0.026586,0.000938,0.099993,0.042588,-0.092853,0.024349},
{-0.045375,-0.071322,0.001643,-0.054988,-0.037063,0.092890,-0.039922,-0.112563,-0.051891,0.068429,-0.015854,0.006907,-0.077201,-0.112504,0.032096,-0.071353},
{-0.097092,-0.000470,0.104515,0.089212,-0.037213,-0.151253,0.003956,-0.008877,0.061288,-0.080032,-0.039229,0.075832,-0.004861,-0.035936,-0.036644,-0.050215},
{-0.008621,-0.096539,-0.070990,0.016278,-0.059035,-0.165566,-0.115175,-0.061867,0.036415,0.099170,-0.040414,0.035971,-0.035746,-0.049728,0.055297,0.091952},
{-0.088982,0.099760,0.095612,0.052286,0.011505,0.157536,0.031874,0.099681,-0.141927,0.027473,0.053652,0.001851,-0.039386,0.093513,-0.056787,-0.051452},
{0.082170,0.095428,0.065627,0.009133,0.033703,0.010577,0.046714,-0.012491,0.064223,-0.039595,0.015619,0.091384,-0.061672,-0.011821,-0.084176,-0.072593},
{-0.022549,-0.015334,-0.010741,-0.041448,0.062276,-0.036749,0.215676,-0.087233,-0.103408,-0.042283,-0.031696,0.003563,-0.030804,-0.041068,0.061220,-0.071266},
{-0.035126,0.051637,-0.010264,0.010003,-0.058818,-0.027897,0.016758,-0.049964,0.058371,-0.048602,0.137725,0.107601,-0.070962,0.025602,-0.010825,0.038088},
{-0.044005,-0.021230,0.054834,-0.144100,0.110782,0.015345,-0.004729,-0.046570,-0.012997,-0.059454,-0.061827,0.037711,-0.057447,-0.006078,0.043810,0.047165},
{-0.010372,0.037295,-0.009859,0.041534,-0.028575,-0.023089,-0.131229,0.031916,0.038234,0.067633,0.040083,-0.048335,-0.059288,0.027728,-0.140161,-0.089047},
{0.052384,0.004482,-0.050220,0.029483,0.076784,0.064225,0.025083,-0.108202,-0.062727,-0.020727,-0.013620,0.089383,-0.132775,-0.038488,0.092232,-0.026145},
{0.062503,0.006936,-0.037118,-0.100130,-0.057800,0.092995,0.095918,-0.037780,0.015906,-0.069215,-0.002543,0.009929,0.077813,-0.071531,0.043067,0.029428},
{0.114021,0.072015,-0.022598,0.037104,0.077088,-0.090752,0.097512,0.059871,-0.032387,0.090584,-0.069112,-0.091944,-0.030140,-0.034877,-0.014931,-0.065887},
{0.007581,-0.055244,-0.026065,0.067389,-0.054073,-0.101371,-0.036326,-0.108964,0.064710,0.002599,-0.036487,-0.028784,-0.038440,-0.021234,0.016925,0.013072},
{-0.079022,0.003365,-0.021726,-0.093218,-0.073380,0.076865,-0.004533,-0.037630,0.011344,0.004543,-0.071809,-0.054610,0.046949,0.001299,-0.054298,0.085598},
{-0.008462,-0.028456,0.050766,0.029573,0.028939,-0.085230,0.068852,-0.021270,-0.015344,-0.040219,-0.020709,-0.073586,-0.094814,0.049643,-0.055810,-0.076727},
{0.017191,0.003611,0.020243,0.092296,0.039777,0.074376,-0.003165,0.017114,-0.110837,0.032131,0.019685,-0.046155,0.067887,-0.037647,-0.089795,0.052612},
{0.010310,-0.048612,-0.000423,0.047545,-0.014694,0.030317,-0.076917,0.081940,-0.029394,0.002069,0.077124,0.106259,0.021272,-0.148330,-0.018724,-0.006027},
{-0.006528,0.042254,0.087956,0.091376,0.053870,0.118790,-0.104825,-0.062116,0.025442,-0.052418,0.087626,0.028956,-0.032166,-0.051866,-0.074811,-0.034639},
{0.057818,0.006178,0.022783,-0.006021,0.096712,-0.009978,-0.075743,0.044054,0.001729,0.024102,-0.009717,-0.063240,-0.066114,0.111307,0.026130,-0.007411},
{0.080084,-0.045869,0.161566,-0.125836,0.018624,0.140012,-0.046518,-0.093209,0.119062,-0.057019,0.060002,-0.013226,0.000237,0.039227,0.034622,-0.042478},
{-0.074363,0.087689,-0.039857,-0.021049,0.089432,0.049652,-0.000133,-0.013727,-0.065633,0.003624,-0.056568,0.013555,-0.040102,-0.014986,-0.049346,0.075737},
{-0.059838,0.012925,-0.086420,0.024631,0.004437,-0.065231,0.031258,-0.073910,-0.004507,-0.047663,0.041169,0.013061,0.039694,0.011778,0.029373,0.059205},
{0.035099,0.028435,0.069145,0.008895,0.129665,-0.107884,-0.192112,-0.050207,0.004342,-0.081042,0.099126,0.106368,-0.071445,-0.074291,0.089858,-0.038471},
{-0.006154,-0.102198,0.071329,-0.059534,0.015600,0.019086,0.028609,0.087401,-0.054866,0.087685,0.059799,0.027609,-0.059919,-0.007077,-0.063042,0.048886},
{0.083168,0.036546,-0.076966,-0.026031,0.007534,0.031774,0.029428,0.091458,0.013496,0.113038,-0.002675,0.080567,0.029490,-0.031312,0.151494,0.011994},
{-0.022351,0.004554,0.048429,0.041160,-0.039201,0.005567,0.058904,-0.045744,0.024356,-0.023313,-0.021085,-0.001606,0.046287,0.030095,-0.009901,-0.028619},
{0.035059,0.114143,-0.003673,0.064262,-0.035713,0.042060,0.038482,-0.025038,0.023124,0.003106,-0.063263,-0.079759,0.041256,0.038979,-0.026756,0.029073},
{-0.063161,0.020183,0.037626,0.056424,0.021751,-0.017252,0.007683,-0.002943,0.043782,-0.034236,0.069498,-0.010161,-0.028850,0.148386,-0.049923,0.038682},
{0.070310,0.031913,0.035780,0.001914,-0.037135,0.049597,-0.017406,0.078726,0.024773,-0.079311,0.016361,0.027408,0.007034,0.012079,-0.026094,0.054012},
{0.104124,0.110430,0.036103,-0.039542,-0.130702,0.054070,-0.029946,0.008367,0.047874,0.084419,-0.065926,0.068799,-0.028527,0.117928,0.057458,0.018492},
{-0.013932,0.018948,0.032765,-0.005459,-0.049502,-0.007114,0.035030,0.084047,-0.026275,0.082170,0.074533,0.044311,0.024881,-0.004738,0.074907,0.016782},
{0.125319,-0.021888,0.001903,0.017756,-0.007777,-0.077321,0.044041,-0.026552,0.018269,0.028260,-0.043365,0.060689,0.042400,0.012843,0.093999,0.077449},
{0.014563,0.103485,-0.050644,-0.037879,-0.016833,-0.011231,0.040596,0.086433,0.019111,0.115909,0.018737,-0.052300,-0.044114,-0.064434,-0.050577,0.039253},
{-0.036519,-0.003171,0.067658,0.037371,0.019670,0.064432,0.019165,0.029940,0.035511,0.038501,-0.015847,0.025542,0.144033,-0.033499,0.000553,-0.037533},
{0.003576,-0.047371,0.070011,0.083898,0.055400,0.133330,0.118722,0.046505,-0.018093,0.042967,-0.013713,-0.014899,-0.082390,0.040392,0.109151,-0.108696},
{-0.065529,-0.064742,0.031317,0.072390,-0.013808,0.046262,0.002433,-0.038858,0.011368,0.018922,0.115014,0.013096,-0.031066,-0.096838,-0.016955,0.043636},
{0.064427,0.083424,-0.036403,-0.027245,-0.006790,-0.089317,0.006766,-0.042504,-0.032558,0.019757,-0.050725,0.033787,-0.009691,-0.009790,0.157764,-0.016086},
{0.024957,0.119259,0.108105,0.068358,0.091627,-0.094919,0.103144,0.013916,0.016947,0.036663,0.113035,0.056516,0.005469,-0.033108,0.067186,0.028956},
{0.032016,0.021522,0.041517,0.053791,0.008702,0.047763,0.072354,-0.019271,-0.025864,0.054450,0.007442,-0.068453,-0.020277,-0.000163,0.082639,-0.017935},
{0.023163,-0.027651,0.067970,-0.041468,0.017541,-0.032410,-0.128106,-0.032656,0.021292,-0.028297,-0.062460,0.010528,0.066033,0.032106,0.003083,-0.028666},
{0.011671,0.013007,-0.013020,0.041005,0.029714,-0.056326,-0.000335,0.076994,0.090666,-0.100812,0.043454,-0.015289,-0.053072,0.014080,0.012910,0.017041},
{0.086571,-0.029250,0.109712,0.001335,-0.006690,0.030597,0.006847,-0.048632,0.061297,0.090598,-0.064513,0.092651,0.038777,-0.079298,0.014186,0.123492},
{0.062305,0.008317,0.025061,0.042256,-0.052942,0.043736,0.000958,-0.057818,-0.065361,0.057446,0.014132,-0.048934,-0.032420,-0.006991,0.093522,0.119888},
{0.009254,0.008803,-0.071069,0.145988,-0.015506,-0.015547,-0.031145,0.144116,-0.030852,0.036078,0.061387,0.079047,-0.030378,-0.075398,0.089012,0.062550},
{-0.051598,0.063047,-0.015847,0.059599,0.021336,0.017044,0.096974,0.028396,0.024860,-0.045584,-0.019511,0.068485,0.106073,-0.041652,0.058209,0.013854},
{-0.045312,0.012202,0.055981,0.082720,-0.059297,0.076171,0.081641,-0.043147,0.028627,0.042222,0.050033,-0.103153,-0.019332,0.020153,-0.017104,0.070039},
{-0.013705,-0.017217,0.005847,-0.011239,0.073511,-0.008433,0.058152,0.022740,-0.034980,0.046458,0.099026,0.032779,0.026637,-0.038238,-0.009180,-0.021554},
{0.077084,0.046792,-0.019949,0.021523,-0.028965,0.045214,0.090939,0.104018,-0.067793,0.052964,-0.126622,0.078285,0.071230,0.016355,-0.032871,-0.007808},
{0.054782,-0.086834,0.044422,-0.078857,0.020565,-0.035760,-0.001215,-0.033568,0.111073,0.066367,-0.048318,0.053604,0.010475,-0.022860,0.029289,0.057561},
{0.042524,0.046239,0.090223,0.027529,0.062880,0.019960,0.085954,0.035134,0.007227,0.079269,-0.018192,0.059695,-0.045497,0.050908,-0.120390,-0.051226},
{-0.051501,0.059786,0.090629,0.037918,0.044766,0.107062,-0.001827,0.009276,0.048685,0.108896,0.033012,0.149974,0.005218,0.059675,-0.032373,0.107554},
{0.103259,-0.025196,0.066619,-0.030712,-0.028908,-0.001906,0.000348,0.025295,-0.033994,0.015559,0.059390,0.051404,-0.035345,-0.015932,0.074210,0.032296},
{0.098735,0.083126,-0.111254,0.061875,-0.014862,-0.070544,-0.015225,-0.016668,0.022021,-0.015265,-0.023769,-0.008238,0.083404,0.107446,-0.018339,0.002117},
{-0.062055,0.121017,0.070554,-0.000014,-0.172447,0.052290,0.080627,-0.031469,0.017064,0.058029,-0.000223,-0.082095,0.018082,-0.010170,0.039160,0.016524},
{0.072196,-0.012201,0.012467,0.059186,-0.071497,0.038554,-0.023372,-0.004371,-0.079598,-0.004237,0.002216,-0.098544,0.049878,0.037052,-0.009348,-0.076049},
{0.077025,-0.075385,-0.038983,0.015985,0.061753,0.071125,0.019069,0.077886,-0.086614,-0.019345,0.037358,0.001605,-0.036223,-0.109605,0.032498,0.124526},
