constant half16 weights_10[125*512] = {
{0.023393,0.023393,0.023393,0.023393,0.023393,0.023393,0.023393,0.023393,0.023393,0.023393,0.023393,0.023393,0.023393,0.023393,0.023393,0.023393},
{-0.009920,-0.009920,-0.009920,-0.009920,-0.009920,-0.009920,-0.009920,-0.009920,-0.009920,-0.009920,-0.009920,-0.009920,-0.009920,-0.009920,-0.009920,-0.009920},
{0.011005,0.011005,0.011005,0.011005,0.011005,0.011005,0.011005,0.011005,0.011005,0.011005,0.011005,0.011005,0.011005,0.011005,0.011005,0.011005},
{0.024097,0.024097,0.024097,0.024097,0.024097,0.024097,0.024097,0.024097,0.024097,0.024097,0.024097,0.024097,0.024097,0.024097,0.024097,0.024097},
{-0.010665,-0.010665,-0.010665,-0.010665,-0.010665,-0.010665,-0.010665,-0.010665,-0.010665,-0.010665,-0.010665,-0.010665,-0.010665,-0.010665,-0.010665,-0.010665},
{-0.010479,-0.010479,-0.010479,-0.010479,-0.010479,-0.010479,-0.010479,-0.010479,-0.010479,-0.010479,-0.010479,-0.010479,-0.010479,-0.010479,-0.010479,-0.010479},
{-0.000896,-0.000896,-0.000896,-0.000896,-0.000896,-0.000896,-0.000896,-0.000896,-0.000896,-0.000896,-0.000896,-0.000896,-0.000896,-0.000896,-0.000896,-0.000896},
{-0.080562,-0.080562,-0.080562,-0.080562,-0.080562,-0.080562,-0.080562,-0.080562,-0.080562,-0.080562,-0.080562,-0.080562,-0.080562,-0.080562,-0.080562,-0.080562},
{0.023936,0.023936,0.023936,0.023936,0.023936,0.023936,0.023936,0.023936,0.023936,0.023936,0.023936,0.023936,0.023936,0.023936,0.023936,0.023936},
{0.010774,0.010774,0.010774,0.010774,0.010774,0.010774,0.010774,0.010774,0.010774,0.010774,0.010774,0.010774,0.010774,0.010774,0.010774,0.010774},
{-0.042989,-0.042989,-0.042989,-0.042989,-0.042989,-0.042989,-0.042989,-0.042989,-0.042989,-0.042989,-0.042989,-0.042989,-0.042989,-0.042989,-0.042989,-0.042989},
{0.005197,0.005197,0.005197,0.005197,0.005197,0.005197,0.005197,0.005197,0.005197,0.005197,0.005197,0.005197,0.005197,0.005197,0.005197,0.005197},
{-0.067896,-0.067896,-0.067896,-0.067896,-0.067896,-0.067896,-0.067896,-0.067896,-0.067896,-0.067896,-0.067896,-0.067896,-0.067896,-0.067896,-0.067896,-0.067896},
{0.030363,0.030363,0.030363,0.030363,0.030363,0.030363,0.030363,0.030363,0.030363,0.030363,0.030363,0.030363,0.030363,0.030363,0.030363,0.030363},
{-0.050535,-0.050535,-0.050535,-0.050535,-0.050535,-0.050535,-0.050535,-0.050535,-0.050535,-0.050535,-0.050535,-0.050535,-0.050535,-0.050535,-0.050535,-0.050535},
{0.015911,0.015911,0.015911,0.015911,0.015911,0.015911,0.015911,0.015911,0.015911,0.015911,0.015911,0.015911,0.015911,0.015911,0.015911,0.015911},
{0.021937,0.021937,0.021937,0.021937,0.021937,0.021937,0.021937,0.021937,0.021937,0.021937,0.021937,0.021937,0.021937,0.021937,0.021937,0.021937},
{-0.012857,-0.012857,-0.012857,-0.012857,-0.012857,-0.012857,-0.012857,-0.012857,-0.012857,-0.012857,-0.012857,-0.012857,-0.012857,-0.012857,-0.012857,-0.012857},
{-0.030418,-0.030418,-0.030418,-0.030418,-0.030418,-0.030418,-0.030418,-0.030418,-0.030418,-0.030418,-0.030418,-0.030418,-0.030418,-0.030418,-0.030418,-0.030418},
{-0.031355,-0.031355,-0.031355,-0.031355,-0.031355,-0.031355,-0.031355,-0.031355,-0.031355,-0.031355,-0.031355,-0.031355,-0.031355,-0.031355,-0.031355,-0.031355},
{0.085376,0.085376,0.085376,0.085376,0.085376,0.085376,0.085376,0.085376,0.085376,0.085376,0.085376,0.085376,0.085376,0.085376,0.085376,0.085376},
{-0.083527,-0.083527,-0.083527,-0.083527,-0.083527,-0.083527,-0.083527,-0.083527,-0.083527,-0.083527,-0.083527,-0.083527,-0.083527,-0.083527,-0.083527,-0.083527},
{0.037870,0.037870,0.037870,0.037870,0.037870,0.037870,0.037870,0.037870,0.037870,0.037870,0.037870,0.037870,0.037870,0.037870,0.037870,0.037870},
{0.083795,0.083795,0.083795,0.083795,0.083795,0.083795,0.083795,0.083795,0.083795,0.083795,0.083795,0.083795,0.083795,0.083795,0.083795,0.083795},
{0.053230,0.053230,0.053230,0.053230,0.053230,0.053230,0.053230,0.053230,0.053230,0.053230,0.053230,0.053230,0.053230,0.053230,0.053230,0.053230},
{-0.047567,-0.047567,-0.047567,-0.047567,-0.047567,-0.047567,-0.047567,-0.047567,-0.047567,-0.047567,-0.047567,-0.047567,-0.047567,-0.047567,-0.047567,-0.047567},
{-0.035244,-0.035244,-0.035244,-0.035244,-0.035244,-0.035244,-0.035244,-0.035244,-0.035244,-0.035244,-0.035244,-0.035244,-0.035244,-0.035244,-0.035244,-0.035244},
{-0.000947,-0.000947,-0.000947,-0.000947,-0.000947,-0.000947,-0.000947,-0.000947,-0.000947,-0.000947,-0.000947,-0.000947,-0.000947,-0.000947,-0.000947,-0.000947},
{-0.049337,-0.049337,-0.049337,-0.049337,-0.049337,-0.049337,-0.049337,-0.049337,-0.049337,-0.049337,-0.049337,-0.049337,-0.049337,-0.049337,-0.049337,-0.049337},
{-0.070797,-0.070797,-0.070797,-0.070797,-0.070797,-0.070797,-0.070797,-0.070797,-0.070797,-0.070797,-0.070797,-0.070797,-0.070797,-0.070797,-0.070797,-0.070797},
{0.101158,0.101158,0.101158,0.101158,0.101158,0.101158,0.101158,0.101158,0.101158,0.101158,0.101158,0.101158,0.101158,0.101158,0.101158,0.101158},
{0.044327,0.044327,0.044327,0.044327,0.044327,0.044327,0.044327,0.044327,0.044327,0.044327,0.044327,0.044327,0.044327,0.044327,0.044327,0.044327},
{-0.013901,-0.013901,-0.013901,-0.013901,-0.013901,-0.013901,-0.013901,-0.013901,-0.013901,-0.013901,-0.013901,-0.013901,-0.013901,-0.013901,-0.013901,-0.013901},
{-0.018486,-0.018486,-0.018486,-0.018486,-0.018486,-0.018486,-0.018486,-0.018486,-0.018486,-0.018486,-0.018486,-0.018486,-0.018486,-0.018486,-0.018486,-0.018486},
{-0.027580,-0.027580,-0.027580,-0.027580,-0.027580,-0.027580,-0.027580,-0.027580,-0.027580,-0.027580,-0.027580,-0.027580,-0.027580,-0.027580,-0.027580,-0.027580},
{-0.017469,-0.017469,-0.017469,-0.017469,-0.017469,-0.017469,-0.017469,-0.017469,-0.017469,-0.017469,-0.017469,-0.017469,-0.017469,-0.017469,-0.017469,-0.017469},
{0.008947,0.008947,0.008947,0.008947,0.008947,0.008947,0.008947,0.008947,0.008947,0.008947,0.008947,0.008947,0.008947,0.008947,0.008947,0.008947},
{-0.050055,-0.050055,-0.050055,-0.050055,-0.050055,-0.050055,-0.050055,-0.050055,-0.050055,-0.050055,-0.050055,-0.050055,-0.050055,-0.050055,-0.050055,-0.050055},
{-0.128566,-0.128566,-0.128566,-0.128566,-0.128566,-0.128566,-0.128566,-0.128566,-0.128566,-0.128566,-0.128566,-0.128566,-0.128566,-0.128566,-0.128566,-0.128566},
{0.009289,0.009289,0.009289,0.009289,0.009289,0.009289,0.009289,0.009289,0.009289,0.009289,0.009289,0.009289,0.009289,0.009289,0.009289,0.009289},
{-0.005242,-0.005242,-0.005242,-0.005242,-0.005242,-0.005242,-0.005242,-0.005242,-0.005242,-0.005242,-0.005242,-0.005242,-0.005242,-0.005242,-0.005242,-0.005242},
{0.011063,0.011063,0.011063,0.011063,0.011063,0.011063,0.011063,0.011063,0.011063,0.011063,0.011063,0.011063,0.011063,0.011063,0.011063,0.011063},
{0.007551,0.007551,0.007551,0.007551,0.007551,0.007551,0.007551,0.007551,0.007551,0.007551,0.007551,0.007551,0.007551,0.007551,0.007551,0.007551},
{-0.000354,-0.000354,-0.000354,-0.000354,-0.000354,-0.000354,-0.000354,-0.000354,-0.000354,-0.000354,-0.000354,-0.000354,-0.000354,-0.000354,-0.000354,-0.000354},
{0.014405,0.014405,0.014405,0.014405,0.014405,0.014405,0.014405,0.014405,0.014405,0.014405,0.014405,0.014405,0.014405,0.014405,0.014405,0.014405},
{-0.116646,-0.116646,-0.116646,-0.116646,-0.116646,-0.116646,-0.116646,-0.116646,-0.116646,-0.116646,-0.116646,-0.116646,-0.116646,-0.116646,-0.116646,-0.116646},
{-0.077973,-0.077973,-0.077973,-0.077973,-0.077973,-0.077973,-0.077973,-0.077973,-0.077973,-0.077973,-0.077973,-0.077973,-0.077973,-0.077973,-0.077973,-0.077973},
{0.042695,0.042695,0.042695,0.042695,0.042695,0.042695,0.042695,0.042695,0.042695,0.042695,0.042695,0.042695,0.042695,0.042695,0.042695,0.042695},
{-0.093678,-0.093678,-0.093678,-0.093678,-0.093678,-0.093678,-0.093678,-0.093678,-0.093678,-0.093678,-0.093678,-0.093678,-0.093678,-0.093678,-0.093678,-0.093678},
{-0.049686,-0.049686,-0.049686,-0.049686,-0.049686,-0.049686,-0.049686,-0.049686,-0.049686,-0.049686,-0.049686,-0.049686,-0.049686,-0.049686,-0.049686,-0.049686},
{0.011861,0.011861,0.011861,0.011861,0.011861,0.011861,0.011861,0.011861,0.011861,0.011861,0.011861,0.011861,0.011861,0.011861,0.011861,0.011861},
{-0.024770,-0.024770,-0.024770,-0.024770,-0.024770,-0.024770,-0.024770,-0.024770,-0.024770,-0.024770,-0.024770,-0.024770,-0.024770,-0.024770,-0.024770,-0.024770},
{0.036193,0.036193,0.036193,0.036193,0.036193,0.036193,0.036193,0.036193,0.036193,0.036193,0.036193,0.036193,0.036193,0.036193,0.036193,0.036193},
{-0.040077,-0.040077,-0.040077,-0.040077,-0.040077,-0.040077,-0.040077,-0.040077,-0.040077,-0.040077,-0.040077,-0.040077,-0.040077,-0.040077,-0.040077,-0.040077},
{0.054913,0.054913,0.054913,0.054913,0.054913,0.054913,0.054913,0.054913,0.054913,0.054913,0.054913,0.054913,0.054913,0.054913,0.054913,0.054913},
{-0.096469,-0.096469,-0.096469,-0.096469,-0.096469,-0.096469,-0.096469,-0.096469,-0.096469,-0.096469,-0.096469,-0.096469,-0.096469,-0.096469,-0.096469,-0.096469},
{-0.039653,-0.039653,-0.039653,-0.039653,-0.039653,-0.039653,-0.039653,-0.039653,-0.039653,-0.039653,-0.039653,-0.039653,-0.039653,-0.039653,-0.039653,-0.039653},
{0.033423,0.033423,0.033423,0.033423,0.033423,0.033423,0.033423,0.033423,0.033423,0.033423,0.033423,0.033423,0.033423,0.033423,0.033423,0.033423},
{-0.018128,-0.018128,-0.018128,-0.018128,-0.018128,-0.018128,-0.018128,-0.018128,-0.018128,-0.018128,-0.018128,-0.018128,-0.018128,-0.018128,-0.018128,-0.018128},
{-0.034907,-0.034907,-0.034907,-0.034907,-0.034907,-0.034907,-0.034907,-0.034907,-0.034907,-0.034907,-0.034907,-0.034907,-0.034907,-0.034907,-0.034907,-0.034907},
{-0.091077,-0.091077,-0.091077,-0.091077,-0.091077,-0.091077,-0.091077,-0.091077,-0.091077,-0.091077,-0.091077,-0.091077,-0.091077,-0.091077,-0.091077,-0.091077},
{-0.011670,-0.011670,-0.011670,-0.011670,-0.011670,-0.011670,-0.011670,-0.011670,-0.011670,-0.011670,-0.011670,-0.011670,-0.011670,-0.011670,-0.011670,-0.011670},
{-0.097500,-0.097500,-0.097500,-0.097500,-0.097500,-0.097500,-0.097500,-0.097500,-0.097500,-0.097500,-0.097500,-0.097500,-0.097500,-0.097500,-0.097500,-0.097500},
{-0.010919,-0.010919,-0.010919,-0.010919,-0.010919,-0.010919,-0.010919,-0.010919,-0.010919,-0.010919,-0.010919,-0.010919,-0.010919,-0.010919,-0.010919,-0.010919},
{0.004866,0.004866,0.004866,0.004866,0.004866,0.004866,0.004866,0.004866,0.004866,0.004866,0.004866,0.004866,0.004866,0.004866,0.004866,0.004866},
{-0.013522,-0.013522,-0.013522,-0.013522,-0.013522,-0.013522,-0.013522,-0.013522,-0.013522,-0.013522,-0.013522,-0.013522,-0.013522,-0.013522,-0.013522,-0.013522},
{0.001643,0.001643,0.001643,0.001643,0.001643,0.001643,0.001643,0.001643,0.001643,0.001643,0.001643,0.001643,0.001643,0.001643,0.001643,0.001643},
{-0.002927,-0.002927,-0.002927,-0.002927,-0.002927,-0.002927,-0.002927,-0.002927,-0.002927,-0.002927,-0.002927,-0.002927,-0.002927,-0.002927,-0.002927,-0.002927},
{0.011903,0.011903,0.011903,0.011903,0.011903,0.011903,0.011903,0.011903,0.011903,0.011903,0.011903,0.011903,0.011903,0.011903,0.011903,0.011903},
{-0.001050,-0.001050,-0.001050,-0.001050,-0.001050,-0.001050,-0.001050,-0.001050,-0.001050,-0.001050,-0.001050,-0.001050,-0.001050,-0.001050,-0.001050,-0.001050},
{0.024149,0.024149,0.024149,0.024149,0.024149,0.024149,0.024149,0.024149,0.024149,0.024149,0.024149,0.024149,0.024149,0.024149,0.024149,0.024149},
{-0.011130,-0.011130,-0.011130,-0.011130,-0.011130,-0.011130,-0.011130,-0.011130,-0.011130,-0.011130,-0.011130,-0.011130,-0.011130,-0.011130,-0.011130,-0.011130},
{-0.004089,-0.004089,-0.004089,-0.004089,-0.004089,-0.004089,-0.004089,-0.004089,-0.004089,-0.004089,-0.004089,-0.004089,-0.004089,-0.004089,-0.004089,-0.004089},
{0.008697,0.008697,0.008697,0.008697,0.008697,0.008697,0.008697,0.008697,0.008697,0.008697,0.008697,0.008697,0.008697,0.008697,0.008697,0.008697},
{-0.003945,-0.003945,-0.003945,-0.003945,-0.003945,-0.003945,-0.003945,-0.003945,-0.003945,-0.003945,-0.003945,-0.003945,-0.003945,-0.003945,-0.003945,-0.003945},
{-0.040745,-0.040745,-0.040745,-0.040745,-0.040745,-0.040745,-0.040745,-0.040745,-0.040745,-0.040745,-0.040745,-0.040745,-0.040745,-0.040745,-0.040745,-0.040745},
{0.000561,0.000561,0.000561,0.000561,0.000561,0.000561,0.000561,0.000561,0.000561,0.000561,0.000561,0.000561,0.000561,0.000561,0.000561,0.000561},
{-0.033431,-0.033431,-0.033431,-0.033431,-0.033431,-0.033431,-0.033431,-0.033431,-0.033431,-0.033431,-0.033431,-0.033431,-0.033431,-0.033431,-0.033431,-0.033431},
{-0.024454,-0.024454,-0.024454,-0.024454,-0.024454,-0.024454,-0.024454,-0.024454,-0.024454,-0.024454,-0.024454,-0.024454,-0.024454,-0.024454,-0.024454,-0.024454},
{0.002792,0.002792,0.002792,0.002792,0.002792,0.002792,0.002792,0.002792,0.002792,0.002792,0.002792,0.002792,0.002792,0.002792,0.002792,0.002792},
{0.003266,0.003266,0.003266,0.003266,0.003266,0.003266,0.003266,0.003266,0.003266,0.003266,0.003266,0.003266,0.003266,0.003266,0.003266,0.003266},
{0.014314,0.014314,0.014314,0.014314,0.014314,0.014314,0.014314,0.014314,0.014314,0.014314,0.014314,0.014314,0.014314,0.014314,0.014314,0.014314},
{-0.001334,-0.001334,-0.001334,-0.001334,-0.001334,-0.001334,-0.001334,-0.001334,-0.001334,-0.001334,-0.001334,-0.001334,-0.001334,-0.001334,-0.001334,-0.001334},
{0.004290,0.004290,0.004290,0.004290,0.004290,0.004290,0.004290,0.004290,0.004290,0.004290,0.004290,0.004290,0.004290,0.004290,0.004290,0.004290},
{-0.005108,-0.005108,-0.005108,-0.005108,-0.005108,-0.005108,-0.005108,-0.005108,-0.005108,-0.005108,-0.005108,-0.005108,-0.005108,-0.005108,-0.005108,-0.005108},
{0.022683,0.022683,0.022683,0.022683,0.022683,0.022683,0.022683,0.022683,0.022683,0.022683,0.022683,0.022683,0.022683,0.022683,0.022683,0.022683},
{-0.021187,-0.021187,-0.021187,-0.021187,-0.021187,-0.021187,-0.021187,-0.021187,-0.021187,-0.021187,-0.021187,-0.021187,-0.021187,-0.021187,-0.021187,-0.021187},
{-0.000187,-0.000187,-0.000187,-0.000187,-0.000187,-0.000187,-0.000187,-0.000187,-0.000187,-0.000187,-0.000187,-0.000187,-0.000187,-0.000187,-0.000187,-0.000187},
{0.011960,0.011960,0.011960,0.011960,0.011960,0.011960,0.011960,0.011960,0.011960,0.011960,0.011960,0.011960,0.011960,0.011960,0.011960,0.011960},
{-0.012430,-0.012430,-0.012430,-0.012430,-0.012430,-0.012430,-0.012430,-0.012430,-0.012430,-0.012430,-0.012430,-0.012430,-0.012430,-0.012430,-0.012430,-0.012430},
{0.023720,0.023720,0.023720,0.023720,0.023720,0.023720,0.023720,0.023720,0.023720,0.023720,0.023720,0.023720,0.023720,0.023720,0.023720,0.023720},
{0.004506,0.004506,0.004506,0.004506,0.004506,0.004506,0.004506,0.004506,0.004506,0.004506,0.004506,0.004506,0.004506,0.004506,0.004506,0.004506},
{0.019889,0.019889,0.019889,0.019889,0.019889,0.019889,0.019889,0.019889,0.019889,0.019889,0.019889,0.019889,0.019889,0.019889,0.019889,0.019889},
{0.023027,0.023027,0.023027,0.023027,0.023027,0.023027,0.023027,0.023027,0.023027,0.023027,0.023027,0.023027,0.023027,0.023027,0.023027,0.023027},
{-0.019663,-0.019663,-0.019663,-0.019663,-0.019663,-0.019663,-0.019663,-0.019663,-0.019663,-0.019663,-0.019663,-0.019663,-0.019663,-0.019663,-0.019663,-0.019663},
{-0.010193,-0.010193,-0.010193,-0.010193,-0.010193,-0.010193,-0.010193,-0.010193,-0.010193,-0.010193,-0.010193,-0.010193,-0.010193,-0.010193,-0.010193,-0.010193},
{-0.015858,-0.015858,-0.015858,-0.015858,-0.015858,-0.015858,-0.015858,-0.015858,-0.015858,-0.015858,-0.015858,-0.015858,-0.015858,-0.015858,-0.015858,-0.015858},
{0.007014,0.007014,0.007014,0.007014,0.007014,0.007014,0.007014,0.007014,0.007014,0.007014,0.007014,0.007014,0.007014,0.007014,0.007014,0.007014},
{0.016231,0.016231,0.016231,0.016231,0.016231,0.016231,0.016231,0.016231,0.016231,0.016231,0.016231,0.016231,0.016231,0.016231,0.016231,0.016231},
{-0.021120,-0.021120,-0.021120,-0.021120,-0.021120,-0.021120,-0.021120,-0.021120,-0.021120,-0.021120,-0.021120,-0.021120,-0.021120,-0.021120,-0.021120,-0.021120},
{0.018022,0.018022,0.018022,0.018022,0.018022,0.018022,0.018022,0.018022,0.018022,0.018022,0.018022,0.018022,0.018022,0.018022,0.018022,0.018022},
{-0.016849,-0.016849,-0.016849,-0.016849,-0.016849,-0.016849,-0.016849,-0.016849,-0.016849,-0.016849,-0.016849,-0.016849,-0.016849,-0.016849,-0.016849,-0.016849},
{-0.006540,-0.006540,-0.006540,-0.006540,-0.006540,-0.006540,-0.006540,-0.006540,-0.006540,-0.006540,-0.006540,-0.006540,-0.006540,-0.006540,-0.006540,-0.006540},
{0.005249,0.005249,0.005249,0.005249,0.005249,0.005249,0.005249,0.005249,0.005249,0.005249,0.005249,0.005249,0.005249,0.005249,0.005249,0.005249},
{0.001296,0.001296,0.001296,0.001296,0.001296,0.001296,0.001296,0.001296,0.001296,0.001296,0.001296,0.001296,0.001296,0.001296,0.001296,0.001296},
{0.002846,0.002846,0.002846,0.002846,0.002846,0.002846,0.002846,0.002846,0.002846,0.002846,0.002846,0.002846,0.002846,0.002846,0.002846,0.002846},
{0.020372,0.020372,0.020372,0.020372,0.020372,0.020372,0.020372,0.020372,0.020372,0.020372,0.020372,0.020372,0.020372,0.020372,0.020372,0.020372},
{-0.003719,-0.003719,-0.003719,-0.003719,-0.003719,-0.003719,-0.003719,-0.003719,-0.003719,-0.003719,-0.003719,-0.003719,-0.003719,-0.003719,-0.003719,-0.003719},
{0.010289,0.010289,0.010289,0.010289,0.010289,0.010289,0.010289,0.010289,0.010289,0.010289,0.010289,0.010289,0.010289,0.010289,0.010289,0.010289},
{-0.015932,-0.015932,-0.015932,-0.015932,-0.015932,-0.015932,-0.015932,-0.015932,-0.015932,-0.015932,-0.015932,-0.015932,-0.015932,-0.015932,-0.015932,-0.015932},
{0.008416,0.008416,0.008416,0.008416,0.008416,0.008416,0.008416,0.008416,0.008416,0.008416,0.008416,0.008416,0.008416,0.008416,0.008416,0.008416},
{0.000661,0.000661,0.000661,0.000661,0.000661,0.000661,0.000661,0.000661,0.000661,0.000661,0.000661,0.000661,0.000661,0.000661,0.000661,0.000661},
{0.010614,0.010614,0.010614,0.010614,0.010614,0.010614,0.010614,0.010614,0.010614,0.010614,0.010614,0.010614,0.010614,0.010614,0.010614,0.010614},
{0.003213,0.003213,0.003213,0.003213,0.003213,0.003213,0.003213,0.003213,0.003213,0.003213,0.003213,0.003213,0.003213,0.003213,0.003213,0.003213},
{0.014478,0.014478,0.014478,0.014478,0.014478,0.014478,0.014478,0.014478,0.014478,0.014478,0.014478,0.014478,0.014478,0.014478,0.014478,0.014478},
{0.009596,0.009596,0.009596,0.009596,0.009596,0.009596,0.009596,0.009596,0.009596,0.009596,0.009596,0.009596,0.009596,0.009596,0.009596,0.009596},
{0.002235,0.002235,0.002235,0.002235,0.002235,0.002235,0.002235,0.002235,0.002235,0.002235,0.002235,0.002235,0.002235,0.002235,0.002235,0.002235},
{0.002088,0.002088,0.002088,0.002088,0.002088,0.002088,0.002088,0.002088,0.002088,0.002088,0.002088,0.002088,0.002088,0.002088,0.002088,0.002088},
{-0.016824,-0.016824,-0.016824,-0.016824,-0.016824,-0.016824,-0.016824,-0.016824,-0.016824,-0.016824,-0.016824,-0.016824,-0.016824,-0.016824,-0.016824,-0.016824},
{-0.009083,-0.009083,-0.009083,-0.009083,-0.009083,-0.009083,-0.009083,-0.009083,-0.009083,-0.009083,-0.009083,-0.009083,-0.009083,-0.009083,-0.009083,-0.009083},
{0.001764,0.001764,0.001764,0.001764,0.001764,0.001764,0.001764,0.001764,0.001764,0.001764,0.001764,0.001764,0.001764,0.001764,0.001764,0.001764},
{-0.020397,-0.020397,-0.020397,-0.020397,-0.020397,-0.020397,-0.020397,-0.020397,-0.020397,-0.020397,-0.020397,-0.020397,-0.020397,-0.020397,-0.020397,-0.020397},
{-0.002993,-0.002993,-0.002993,-0.002993,-0.002993,-0.002993,-0.002993,-0.002993,-0.002993,-0.002993,-0.002993,-0.002993,-0.002993,-0.002993,-0.002993,-0.002993},
{0.038374,0.038374,0.038374,0.038374,0.038374,0.038374,0.038374,0.038374,0.038374,0.038374,0.038374,0.038374,0.038374,0.038374,0.038374,0.038374},
{0.046698,0.046698,0.046698,0.046698,0.046698,0.046698,0.046698,0.046698,0.046698,0.046698,0.046698,0.046698,0.046698,0.046698,0.046698,0.046698},
{0.016740,0.016740,0.016740,0.016740,0.016740,0.016740,0.016740,0.016740,0.016740,0.016740,0.016740,0.016740,0.016740,0.016740,0.016740,0.016740},
{0.001178,0.001178,0.001178,0.001178,0.001178,0.001178,0.001178,0.001178,0.001178,0.001178,0.001178,0.001178,0.001178,0.001178,0.001178,0.001178},
{0.002873,0.002873,0.002873,0.002873,0.002873,0.002873,0.002873,0.002873,0.002873,0.002873,0.002873,0.002873,0.002873,0.002873,0.002873,0.002873},
{-0.110064,-0.110064,-0.110064,-0.110064,-0.110064,-0.110064,-0.110064,-0.110064,-0.110064,-0.110064,-0.110064,-0.110064,-0.110064,-0.110064,-0.110064,-0.110064},
{-0.153482,-0.153482,-0.153482,-0.153482,-0.153482,-0.153482,-0.153482,-0.153482,-0.153482,-0.153482,-0.153482,-0.153482,-0.153482,-0.153482,-0.153482,-0.153482},
{0.037447,0.037447,0.037447,0.037447,0.037447,0.037447,0.037447,0.037447,0.037447,0.037447,0.037447,0.037447,0.037447,0.037447,0.037447,0.037447},
{-0.092578,-0.092578,-0.092578,-0.092578,-0.092578,-0.092578,-0.092578,-0.092578,-0.092578,-0.092578,-0.092578,-0.092578,-0.092578,-0.092578,-0.092578,-0.092578},
{-0.011574,-0.011574,-0.011574,-0.011574,-0.011574,-0.011574,-0.011574,-0.011574,-0.011574,-0.011574,-0.011574,-0.011574,-0.011574,-0.011574,-0.011574,-0.011574},
{0.011293,0.011293,0.011293,0.011293,0.011293,0.011293,0.011293,0.011293,0.011293,0.011293,0.011293,0.011293,0.011293,0.011293,0.011293,0.011293},
{-0.009290,-0.009290,-0.009290,-0.009290,-0.009290,-0.009290,-0.009290,-0.009290,-0.009290,-0.009290,-0.009290,-0.009290,-0.009290,-0.009290,-0.009290,-0.009290},
{0.017311,0.017311,0.017311,0.017311,0.017311,0.017311,0.017311,0.017311,0.017311,0.017311,0.017311,0.017311,0.017311,0.017311,0.017311,0.017311},
{-0.069130,-0.069130,-0.069130,-0.069130,-0.069130,-0.069130,-0.069130,-0.069130,-0.069130,-0.069130,-0.069130,-0.069130,-0.069130,-0.069130,-0.069130,-0.069130},
{0.004649,0.004649,0.004649,0.004649,0.004649,0.004649,0.004649,0.004649,0.004649,0.004649,0.004649,0.004649,0.004649,0.004649,0.004649,0.004649},
{0.005697,0.005697,0.005697,0.005697,0.005697,0.005697,0.005697,0.005697,0.005697,0.005697,0.005697,0.005697,0.005697,0.005697,0.005697,0.005697},
{-0.013208,-0.013208,-0.013208,-0.013208,-0.013208,-0.013208,-0.013208,-0.013208,-0.013208,-0.013208,-0.013208,-0.013208,-0.013208,-0.013208,-0.013208,-0.013208},
{-0.009785,-0.009785,-0.009785,-0.009785,-0.009785,-0.009785,-0.009785,-0.009785,-0.009785,-0.009785,-0.009785,-0.009785,-0.009785,-0.009785,-0.009785,-0.009785},
{-0.053825,-0.053825,-0.053825,-0.053825,-0.053825,-0.053825,-0.053825,-0.053825,-0.053825,-0.053825,-0.053825,-0.053825,-0.053825,-0.053825,-0.053825,-0.053825},
{0.000263,0.000263,0.000263,0.000263,0.000263,0.000263,0.000263,0.000263,0.000263,0.000263,0.000263,0.000263,0.000263,0.000263,0.000263,0.000263},
{-0.023178,-0.023178,-0.023178,-0.023178,-0.023178,-0.023178,-0.023178,-0.023178,-0.023178,-0.023178,-0.023178,-0.023178,-0.023178,-0.023178,-0.023178,-0.023178},
{-0.067793,-0.067793,-0.067793,-0.067793,-0.067793,-0.067793,-0.067793,-0.067793,-0.067793,-0.067793,-0.067793,-0.067793,-0.067793,-0.067793,-0.067793,-0.067793},
{-0.007913,-0.007913,-0.007913,-0.007913,-0.007913,-0.007913,-0.007913,-0.007913,-0.007913,-0.007913,-0.007913,-0.007913,-0.007913,-0.007913,-0.007913,-0.007913},
{-0.025909,-0.025909,-0.025909,-0.025909,-0.025909,-0.025909,-0.025909,-0.025909,-0.025909,-0.025909,-0.025909,-0.025909,-0.025909,-0.025909,-0.025909,-0.025909},
{0.003311,0.003311,0.003311,0.003311,0.003311,0.003311,0.003311,0.003311,0.003311,0.003311,0.003311,0.003311,0.003311,0.003311,0.003311,0.003311},
{0.006390,0.006390,0.006390,0.006390,0.006390,0.006390,0.006390,0.006390,0.006390,0.006390,0.006390,0.006390,0.006390,0.006390,0.006390,0.006390},
{0.019022,0.019022,0.019022,0.019022,0.019022,0.019022,0.019022,0.019022,0.019022,0.019022,0.019022,0.019022,0.019022,0.019022,0.019022,0.019022},
{-0.021512,-0.021512,-0.021512,-0.021512,-0.021512,-0.021512,-0.021512,-0.021512,-0.021512,-0.021512,-0.021512,-0.021512,-0.021512,-0.021512,-0.021512,-0.021512},
{0.011923,0.011923,0.011923,0.011923,0.011923,0.011923,0.011923,0.011923,0.011923,0.011923,0.011923,0.011923,0.011923,0.011923,0.011923,0.011923},
{-0.102287,-0.102287,-0.102287,-0.102287,-0.102287,-0.102287,-0.102287,-0.102287,-0.102287,-0.102287,-0.102287,-0.102287,-0.102287,-0.102287,-0.102287,-0.102287},
{-0.138098,-0.138098,-0.138098,-0.138098,-0.138098,-0.138098,-0.138098,-0.138098,-0.138098,-0.138098,-0.138098,-0.138098,-0.138098,-0.138098,-0.138098,-0.138098},
{-0.021428,-0.021428,-0.021428,-0.021428,-0.021428,-0.021428,-0.021428,-0.021428,-0.021428,-0.021428,-0.021428,-0.021428,-0.021428,-0.021428,-0.021428,-0.021428},
{-0.085431,-0.085431,-0.085431,-0.085431,-0.085431,-0.085431,-0.085431,-0.085431,-0.085431,-0.085431,-0.085431,-0.085431,-0.085431,-0.085431,-0.085431,-0.085431},
{-0.051757,-0.051757,-0.051757,-0.051757,-0.051757,-0.051757,-0.051757,-0.051757,-0.051757,-0.051757,-0.051757,-0.051757,-0.051757,-0.051757,-0.051757,-0.051757},
{-0.062436,-0.062436,-0.062436,-0.062436,-0.062436,-0.062436,-0.062436,-0.062436,-0.062436,-0.062436,-0.062436,-0.062436,-0.062436,-0.062436,-0.062436,-0.062436},
{-0.065206,-0.065206,-0.065206,-0.065206,-0.065206,-0.065206,-0.065206,-0.065206,-0.065206,-0.065206,-0.065206,-0.065206,-0.065206,-0.065206,-0.065206,-0.065206},
{-0.010333,-0.010333,-0.010333,-0.010333,-0.010333,-0.010333,-0.010333,-0.010333,-0.010333,-0.010333,-0.010333,-0.010333,-0.010333,-0.010333,-0.010333,-0.010333},
{0.001638,0.001638,0.001638,0.001638,0.001638,0.001638,0.001638,0.001638,0.001638,0.001638,0.001638,0.001638,0.001638,0.001638,0.001638,0.001638},
{-0.181484,-0.181484,-0.181484,-0.181484,-0.181484,-0.181484,-0.181484,-0.181484,-0.181484,-0.181484,-0.181484,-0.181484,-0.181484,-0.181484,-0.181484,-0.181484},
{-0.040140,-0.040140,-0.040140,-0.040140,-0.040140,-0.040140,-0.040140,-0.040140,-0.040140,-0.040140,-0.040140,-0.040140,-0.040140,-0.040140,-0.040140,-0.040140},
{0.084913,0.084913,0.084913,0.084913,0.084913,0.084913,0.084913,0.084913,0.084913,0.084913,0.084913,0.084913,0.084913,0.084913,0.084913,0.084913},
{-0.011283,-0.011283,-0.011283,-0.011283,-0.011283,-0.011283,-0.011283,-0.011283,-0.011283,-0.011283,-0.011283,-0.011283,-0.011283,-0.011283,-0.011283,-0.011283},
{0.013592,0.013592,0.013592,0.013592,0.013592,0.013592,0.013592,0.013592,0.013592,0.013592,0.013592,0.013592,0.013592,0.013592,0.013592,0.013592},
{0.011242,0.011242,0.011242,0.011242,0.011242,0.011242,0.011242,0.011242,0.011242,0.011242,0.011242,0.011242,0.011242,0.011242,0.011242,0.011242},
{-0.020156,-0.020156,-0.020156,-0.020156,-0.020156,-0.020156,-0.020156,-0.020156,-0.020156,-0.020156,-0.020156,-0.020156,-0.020156,-0.020156,-0.020156,-0.020156},
{-0.017325,-0.017325,-0.017325,-0.017325,-0.017325,-0.017325,-0.017325,-0.017325,-0.017325,-0.017325,-0.017325,-0.017325,-0.017325,-0.017325,-0.017325,-0.017325},
{0.037822,0.037822,0.037822,0.037822,0.037822,0.037822,0.037822,0.037822,0.037822,0.037822,0.037822,0.037822,0.037822,0.037822,0.037822,0.037822},
{-0.144465,-0.144465,-0.144465,-0.144465,-0.144465,-0.144465,-0.144465,-0.144465,-0.144465,-0.144465,-0.144465,-0.144465,-0.144465,-0.144465,-0.144465,-0.144465},
{-0.088343,-0.088343,-0.088343,-0.088343,-0.088343,-0.088343,-0.088343,-0.088343,-0.088343,-0.088343,-0.088343,-0.088343,-0.088343,-0.088343,-0.088343,-0.088343},
{-0.020795,-0.020795,-0.020795,-0.020795,-0.020795,-0.020795,-0.020795,-0.020795,-0.020795,-0.020795,-0.020795,-0.020795,-0.020795,-0.020795,-0.020795,-0.020795},
{-0.035447,-0.035447,-0.035447,-0.035447,-0.035447,-0.035447,-0.035447,-0.035447,-0.035447,-0.035447,-0.035447,-0.035447,-0.035447,-0.035447,-0.035447,-0.035447},
{-0.010925,-0.010925,-0.010925,-0.010925,-0.010925,-0.010925,-0.010925,-0.010925,-0.010925,-0.010925,-0.010925,-0.010925,-0.010925,-0.010925,-0.010925,-0.010925},
{0.001198,0.001198,0.001198,0.001198,0.001198,0.001198,0.001198,0.001198,0.001198,0.001198,0.001198,0.001198,0.001198,0.001198,0.001198,0.001198},
{-0.026711,-0.026711,-0.026711,-0.026711,-0.026711,-0.026711,-0.026711,-0.026711,-0.026711,-0.026711,-0.026711,-0.026711,-0.026711,-0.026711,-0.026711,-0.026711},
{-0.055655,-0.055655,-0.055655,-0.055655,-0.055655,-0.055655,-0.055655,-0.055655,-0.055655,-0.055655,-0.055655,-0.055655,-0.055655,-0.055655,-0.055655,-0.055655},
{0.010291,0.010291,0.010291,0.010291,0.010291,0.010291,0.010291,0.010291,0.010291,0.010291,0.010291,0.010291,0.010291,0.010291,0.010291,0.010291},
{-0.087912,-0.087912,-0.087912,-0.087912,-0.087912,-0.087912,-0.087912,-0.087912,-0.087912,-0.087912,-0.087912,-0.087912,-0.087912,-0.087912,-0.087912,-0.087912},
{0.052980,0.052980,0.052980,0.052980,0.052980,0.052980,0.052980,0.052980,0.052980,0.052980,0.052980,0.052980,0.052980,0.052980,0.052980,0.052980},
{-0.002730,-0.002730,-0.002730,-0.002730,-0.002730,-0.002730,-0.002730,-0.002730,-0.002730,-0.002730,-0.002730,-0.002730,-0.002730,-0.002730,-0.002730,-0.002730},
{0.010236,0.010236,0.010236,0.010236,0.010236,0.010236,0.010236,0.010236,0.010236,0.010236,0.010236,0.010236,0.010236,0.010236,0.010236,0.010236},
{-0.160791,-0.160791,-0.160791,-0.160791,-0.160791,-0.160791,-0.160791,-0.160791,-0.160791,-0.160791,-0.160791,-0.160791,-0.160791,-0.160791,-0.160791,-0.160791},
{0.100121,0.100121,0.100121,0.100121,0.100121,0.100121,0.100121,0.100121,0.100121,0.100121,0.100121,0.100121,0.100121,0.100121,0.100121,0.100121},
{0.045025,0.045025,0.045025,0.045025,0.045025,0.045025,0.045025,0.045025,0.045025,0.045025,0.045025,0.045025,0.045025,0.045025,0.045025,0.045025},
{0.010407,0.010407,0.010407,0.010407,0.010407,0.010407,0.010407,0.010407,0.010407,0.010407,0.010407,0.010407,0.010407,0.010407,0.010407,0.010407},
{-0.038932,-0.038932,-0.038932,-0.038932,-0.038932,-0.038932,-0.038932,-0.038932,-0.038932,-0.038932,-0.038932,-0.038932,-0.038932,-0.038932,-0.038932,-0.038932},
{0.009174,0.009174,0.009174,0.009174,0.009174,0.009174,0.009174,0.009174,0.009174,0.009174,0.009174,0.009174,0.009174,0.009174,0.009174,0.009174},
{0.097835,0.097835,0.097835,0.097835,0.097835,0.097835,0.097835,0.097835,0.097835,0.097835,0.097835,0.097835,0.097835,0.097835,0.097835,0.097835},
{-0.102581,-0.102581,-0.102581,-0.102581,-0.102581,-0.102581,-0.102581,-0.102581,-0.102581,-0.102581,-0.102581,-0.102581,-0.102581,-0.102581,-0.102581,-0.102581},
{-0.004508,-0.004508,-0.004508,-0.004508,-0.004508,-0.004508,-0.004508,-0.004508,-0.004508,-0.004508,-0.004508,-0.004508,-0.004508,-0.004508,-0.004508,-0.004508},
{0.044496,0.044496,0.044496,0.044496,0.044496,0.044496,0.044496,0.044496,0.044496,0.044496,0.044496,0.044496,0.044496,0.044496,0.044496,0.044496},
{-0.123513,-0.123513,-0.123513,-0.123513,-0.123513,-0.123513,-0.123513,-0.123513,-0.123513,-0.123513,-0.123513,-0.123513,-0.123513,-0.123513,-0.123513,-0.123513},
{0.014622,0.014622,0.014622,0.014622,0.014622,0.014622,0.014622,0.014622,0.014622,0.014622,0.014622,0.014622,0.014622,0.014622,0.014622,0.014622},
{0.061697,0.061697,0.061697,0.061697,0.061697,0.061697,0.061697,0.061697,0.061697,0.061697,0.061697,0.061697,0.061697,0.061697,0.061697,0.061697},
{-0.098949,-0.098949,-0.098949,-0.098949,-0.098949,-0.098949,-0.098949,-0.098949,-0.098949,-0.098949,-0.098949,-0.098949,-0.098949,-0.098949,-0.098949,-0.098949},
{-0.008548,-0.008548,-0.008548,-0.008548,-0.008548,-0.008548,-0.008548,-0.008548,-0.008548,-0.008548,-0.008548,-0.008548,-0.008548,-0.008548,-0.008548,-0.008548},
{-0.062420,-0.062420,-0.062420,-0.062420,-0.062420,-0.062420,-0.062420,-0.062420,-0.062420,-0.062420,-0.062420,-0.062420,-0.062420,-0.062420,-0.062420,-0.062420},
{-0.006597,-0.006597,-0.006597,-0.006597,-0.006597,-0.006597,-0.006597,-0.006597,-0.006597,-0.006597,-0.006597,-0.006597,-0.006597,-0.006597,-0.006597,-0.006597},
{0.069331,0.069331,0.069331,0.069331,0.069331,0.069331,0.069331,0.069331,0.069331,0.069331,0.069331,0.069331,0.069331,0.069331,0.069331,0.069331},
{-0.062789,-0.062789,-0.062789,-0.062789,-0.062789,-0.062789,-0.062789,-0.062789,-0.062789,-0.062789,-0.062789,-0.062789,-0.062789,-0.062789,-0.062789,-0.062789},
{0.093078,0.093078,0.093078,0.093078,0.093078,0.093078,0.093078,0.093078,0.093078,0.093078,0.093078,0.093078,0.093078,0.093078,0.093078,0.093078},
{0.029077,0.029077,0.029077,0.029077,0.029077,0.029077,0.029077,0.029077,0.029077,0.029077,0.029077,0.029077,0.029077,0.029077,0.029077,0.029077},
{-0.030482,-0.030482,-0.030482,-0.030482,-0.030482,-0.030482,-0.030482,-0.030482,-0.030482,-0.030482,-0.030482,-0.030482,-0.030482,-0.030482,-0.030482,-0.030482},
{-0.084580,-0.084580,-0.084580,-0.084580,-0.084580,-0.084580,-0.084580,-0.084580,-0.084580,-0.084580,-0.084580,-0.084580,-0.084580,-0.084580,-0.084580,-0.084580},
{-0.007986,-0.007986,-0.007986,-0.007986,-0.007986,-0.007986,-0.007986,-0.007986,-0.007986,-0.007986,-0.007986,-0.007986,-0.007986,-0.007986,-0.007986,-0.007986},
{0.023380,0.023380,0.023380,0.023380,0.023380,0.023380,0.023380,0.023380,0.023380,0.023380,0.023380,0.023380,0.023380,0.023380,0.023380,0.023380},
{-0.060188,-0.060188,-0.060188,-0.060188,-0.060188,-0.060188,-0.060188,-0.060188,-0.060188,-0.060188,-0.060188,-0.060188,-0.060188,-0.060188,-0.060188,-0.060188},
{0.039378,0.039378,0.039378,0.039378,0.039378,0.039378,0.039378,0.039378,0.039378,0.039378,0.039378,0.039378,0.039378,0.039378,0.039378,0.039378},
{-0.015106,-0.015106,-0.015106,-0.015106,-0.015106,-0.015106,-0.015106,-0.015106,-0.015106,-0.015106,-0.015106,-0.015106,-0.015106,-0.015106,-0.015106,-0.015106},
{0.073737,0.073737,0.073737,0.073737,0.073737,0.073737,0.073737,0.073737,0.073737,0.073737,0.073737,0.073737,0.073737,0.073737,0.073737,0.073737},
{0.007362,0.007362,0.007362,0.007362,0.007362,0.007362,0.007362,0.007362,0.007362,0.007362,0.007362,0.007362,0.007362,0.007362,0.007362,0.007362},
{0.156843,0.156843,0.156843,0.156843,0.156843,0.156843,0.156843,0.156843,0.156843,0.156843,0.156843,0.156843,0.156843,0.156843,0.156843,0.156843},
{0.027697,0.027697,0.027697,0.027697,0.027697,0.027697,0.027697,0.027697,0.027697,0.027697,0.027697,0.027697,0.027697,0.027697,0.027697,0.027697},
{0.021971,0.021971,0.021971,0.021971,0.021971,0.021971,0.021971,0.021971,0.021971,0.021971,0.021971,0.021971,0.021971,0.021971,0.021971,0.021971},
{-0.007970,-0.007970,-0.007970,-0.007970,-0.007970,-0.007970,-0.007970,-0.007970,-0.007970,-0.007970,-0.007970,-0.007970,-0.007970,-0.007970,-0.007970,-0.007970},
{-0.027361,-0.027361,-0.027361,-0.027361,-0.027361,-0.027361,-0.027361,-0.027361,-0.027361,-0.027361,-0.027361,-0.027361,-0.027361,-0.027361,-0.027361,-0.027361},
{0.031039,0.031039,0.031039,0.031039,0.031039,0.031039,0.031039,0.031039,0.031039,0.031039,0.031039,0.031039,0.031039,0.031039,0.031039,0.031039},
{0.018336,0.018336,0.018336,0.018336,0.018336,0.018336,0.018336,0.018336,0.018336,0.018336,0.018336,0.018336,0.018336,0.018336,0.018336,0.018336},
{-0.075121,-0.075121,-0.075121,-0.075121,-0.075121,-0.075121,-0.075121,-0.075121,-0.075121,-0.075121,-0.075121,-0.075121,-0.075121,-0.075121,-0.075121,-0.075121},
{0.010232,0.010232,0.010232,0.010232,0.010232,0.010232,0.010232,0.010232,0.010232,0.010232,0.010232,0.010232,0.010232,0.010232,0.010232,0.010232},
{-0.063278,-0.063278,-0.063278,-0.063278,-0.063278,-0.063278,-0.063278,-0.063278,-0.063278,-0.063278,-0.063278,-0.063278,-0.063278,-0.063278,-0.063278,-0.063278},
{0.059991,0.059991,0.059991,0.059991,0.059991,0.059991,0.059991,0.059991,0.059991,0.059991,0.059991,0.059991,0.059991,0.059991,0.059991,0.059991},
{0.071443,0.071443,0.071443,0.071443,0.071443,0.071443,0.071443,0.071443,0.071443,0.071443,0.071443,0.071443,0.071443,0.071443,0.071443,0.071443},
{-0.021211,-0.021211,-0.021211,-0.021211,-0.021211,-0.021211,-0.021211,-0.021211,-0.021211,-0.021211,-0.021211,-0.021211,-0.021211,-0.021211,-0.021211,-0.021211},
{0.071992,0.071992,0.071992,0.071992,0.071992,0.071992,0.071992,0.071992,0.071992,0.071992,0.071992,0.071992,0.071992,0.071992,0.071992,0.071992},
{0.047772,0.047772,0.047772,0.047772,0.047772,0.047772,0.047772,0.047772,0.047772,0.047772,0.047772,0.047772,0.047772,0.047772,0.047772,0.047772},
{-0.048215,-0.048215,-0.048215,-0.048215,-0.048215,-0.048215,-0.048215,-0.048215,-0.048215,-0.048215,-0.048215,-0.048215,-0.048215,-0.048215,-0.048215,-0.048215},
{0.029162,0.029162,0.029162,0.029162,0.029162,0.029162,0.029162,0.029162,0.029162,0.029162,0.029162,0.029162,0.029162,0.029162,0.029162,0.029162},
{0.083347,0.083347,0.083347,0.083347,0.083347,0.083347,0.083347,0.083347,0.083347,0.083347,0.083347,0.083347,0.083347,0.083347,0.083347,0.083347},
{-0.132308,-0.132308,-0.132308,-0.132308,-0.132308,-0.132308,-0.132308,-0.132308,-0.132308,-0.132308,-0.132308,-0.132308,-0.132308,-0.132308,-0.132308,-0.132308},
{0.113368,0.113368,0.113368,0.113368,0.113368,0.113368,0.113368,0.113368,0.113368,0.113368,0.113368,0.113368,0.113368,0.113368,0.113368,0.113368},
{-0.043780,-0.043780,-0.043780,-0.043780,-0.043780,-0.043780,-0.043780,-0.043780,-0.043780,-0.043780,-0.043780,-0.043780,-0.043780,-0.043780,-0.043780,-0.043780},
{-0.008413,-0.008413,-0.008413,-0.008413,-0.008413,-0.008413,-0.008413,-0.008413,-0.008413,-0.008413,-0.008413,-0.008413,-0.008413,-0.008413,-0.008413,-0.008413},
{0.044098,0.044098,0.044098,0.044098,0.044098,0.044098,0.044098,0.044098,0.044098,0.044098,0.044098,0.044098,0.044098,0.044098,0.044098,0.044098},
{-0.012002,-0.012002,-0.012002,-0.012002,-0.012002,-0.012002,-0.012002,-0.012002,-0.012002,-0.012002,-0.012002,-0.012002,-0.012002,-0.012002,-0.012002,-0.012002},
{-0.098409,-0.098409,-0.098409,-0.098409,-0.098409,-0.098409,-0.098409,-0.098409,-0.098409,-0.098409,-0.098409,-0.098409,-0.098409,-0.098409,-0.098409,-0.098409},
{-0.041823,-0.041823,-0.041823,-0.041823,-0.041823,-0.041823,-0.041823,-0.041823,-0.041823,-0.041823,-0.041823,-0.041823,-0.041823,-0.041823,-0.041823,-0.041823},
{0.057275,0.057275,0.057275,0.057275,0.057275,0.057275,0.057275,0.057275,0.057275,0.057275,0.057275,0.057275,0.057275,0.057275,0.057275,0.057275},
{-0.135673,-0.135673,-0.135673,-0.135673,-0.135673,-0.135673,-0.135673,-0.135673,-0.135673,-0.135673,-0.135673,-0.135673,-0.135673,-0.135673,-0.135673,-0.135673},
{0.074835,0.074835,0.074835,0.074835,0.074835,0.074835,0.074835,0.074835,0.074835,0.074835,0.074835,0.074835,0.074835,0.074835,0.074835,0.074835},
{-0.161660,-0.161660,-0.161660,-0.161660,-0.161660,-0.161660,-0.161660,-0.161660,-0.161660,-0.161660,-0.161660,-0.161660,-0.161660,-0.161660,-0.161660,-0.161660},
{0.089311,0.089311,0.089311,0.089311,0.089311,0.089311,0.089311,0.089311,0.089311,0.089311,0.089311,0.089311,0.089311,0.089311,0.089311,0.089311},
{-0.065168,-0.065168,-0.065168,-0.065168,-0.065168,-0.065168,-0.065168,-0.065168,-0.065168,-0.065168,-0.065168,-0.065168,-0.065168,-0.065168,-0.065168,-0.065168},
{-0.019696,-0.019696,-0.019696,-0.019696,-0.019696,-0.019696,-0.019696,-0.019696,-0.019696,-0.019696,-0.019696,-0.019696,-0.019696,-0.019696,-0.019696,-0.019696},
{-0.067955,-0.067955,-0.067955,-0.067955,-0.067955,-0.067955,-0.067955,-0.067955,-0.067955,-0.067955,-0.067955,-0.067955,-0.067955,-0.067955,-0.067955,-0.067955},
{-0.024913,-0.024913,-0.024913,-0.024913,-0.024913,-0.024913,-0.024913,-0.024913,-0.024913,-0.024913,-0.024913,-0.024913,-0.024913,-0.024913,-0.024913,-0.024913},
{0.038277,0.038277,0.038277,0.038277,0.038277,0.038277,0.038277,0.038277,0.038277,0.038277,0.038277,0.038277,0.038277,0.038277,0.038277,0.038277},
{0.099140,0.099140,0.099140,0.099140,0.099140,0.099140,0.099140,0.099140,0.099140,0.099140,0.099140,0.099140,0.099140,0.099140,0.099140,0.099140},
{-0.036391,-0.036391,-0.036391,-0.036391,-0.036391,-0.036391,-0.036391,-0.036391,-0.036391,-0.036391,-0.036391,-0.036391,-0.036391,-0.036391,-0.036391,-0.036391},
{0.073584,0.073584,0.073584,0.073584,0.073584,0.073584,0.073584,0.073584,0.073584,0.073584,0.073584,0.073584,0.073584,0.073584,0.073584,0.073584},
{0.033745,0.033745,0.033745,0.033745,0.033745,0.033745,0.033745,0.033745,0.033745,0.033745,0.033745,0.033745,0.033745,0.033745,0.033745,0.033745},
{0.026899,0.026899,0.026899,0.026899,0.026899,0.026899,0.026899,0.026899,0.026899,0.026899,0.026899,0.026899,0.026899,0.026899,0.026899,0.026899},
{-0.078475,-0.078475,-0.078475,-0.078475,-0.078475,-0.078475,-0.078475,-0.078475,-0.078475,-0.078475,-0.078475,-0.078475,-0.078475,-0.078475,-0.078475,-0.078475},
{-0.017072,-0.017072,-0.017072,-0.017072,-0.017072,-0.017072,-0.017072,-0.017072,-0.017072,-0.017072,-0.017072,-0.017072,-0.017072,-0.017072,-0.017072,-0.017072},
{0.068412,0.068412,0.068412,0.068412,0.068412,0.068412,0.068412,0.068412,0.068412,0.068412,0.068412,0.068412,0.068412,0.068412,0.068412,0.068412},
{-0.068513,-0.068513,-0.068513,-0.068513,-0.068513,-0.068513,-0.068513,-0.068513,-0.068513,-0.068513,-0.068513,-0.068513,-0.068513,-0.068513,-0.068513,-0.068513},
{-0.097627,-0.097627,-0.097627,-0.097627,-0.097627,-0.097627,-0.097627,-0.097627,-0.097627,-0.097627,-0.097627,-0.097627,-0.097627,-0.097627,-0.097627,-0.097627},
{0.098639,0.098639,0.098639,0.098639,0.098639,0.098639,0.098639,0.098639,0.098639,0.098639,0.098639,0.098639,0.098639,0.098639,0.098639,0.098639},
{-0.022751,-0.022751,-0.022751,-0.022751,-0.022751,-0.022751,-0.022751,-0.022751,-0.022751,-0.022751,-0.022751,-0.022751,-0.022751,-0.022751,-0.022751,-0.022751},
{0.136839,0.136839,0.136839,0.136839,0.136839,0.136839,0.136839,0.136839,0.136839,0.136839,0.136839,0.136839,0.136839,0.136839,0.136839,0.136839},
{-0.047342,-0.047342,-0.047342,-0.047342,-0.047342,-0.047342,-0.047342,-0.047342,-0.047342,-0.047342,-0.047342,-0.047342,-0.047342,-0.047342,-0.047342,-0.047342},
{-0.064048,-0.064048,-0.064048,-0.064048,-0.064048,-0.064048,-0.064048,-0.064048,-0.064048,-0.064048,-0.064048,-0.064048,-0.064048,-0.064048,-0.064048,-0.064048},
{-0.015433,-0.015433,-0.015433,-0.015433,-0.015433,-0.015433,-0.015433,-0.015433,-0.015433,-0.015433,-0.015433,-0.015433,-0.015433,-0.015433,-0.015433,-0.015433},
{-0.057451,-0.057451,-0.057451,-0.057451,-0.057451,-0.057451,-0.057451,-0.057451,-0.057451,-0.057451,-0.057451,-0.057451,-0.057451,-0.057451,-0.057451,-0.057451},
{0.006640,0.006640,0.006640,0.006640,0.006640,0.006640,0.006640,0.006640,0.006640,0.006640,0.006640,0.006640,0.006640,0.006640,0.006640,0.006640},
{0.024961,0.024961,0.024961,0.024961,0.024961,0.024961,0.024961,0.024961,0.024961,0.024961,0.024961,0.024961,0.024961,0.024961,0.024961,0.024961},
{-0.032748,-0.032748,-0.032748,-0.032748,-0.032748,-0.032748,-0.032748,-0.032748,-0.032748,-0.032748,-0.032748,-0.032748,-0.032748,-0.032748,-0.032748,-0.032748},
{-0.102471,-0.102471,-0.102471,-0.102471,-0.102471,-0.102471,-0.102471,-0.102471,-0.102471,-0.102471,-0.102471,-0.102471,-0.102471,-0.102471,-0.102471,-0.102471},
{-0.001060,-0.001060,-0.001060,-0.001060,-0.001060,-0.001060,-0.001060,-0.001060,-0.001060,-0.001060,-0.001060,-0.001060,-0.001060,-0.001060,-0.001060,-0.001060},
{-0.105007,-0.105007,-0.105007,-0.105007,-0.105007,-0.105007,-0.105007,-0.105007,-0.105007,-0.105007,-0.105007,-0.105007,-0.105007,-0.105007,-0.105007,-0.105007},
{0.127736,0.127736,0.127736,0.127736,0.127736,0.127736,0.127736,0.127736,0.127736,0.127736,0.127736,0.127736,0.127736,0.127736,0.127736,0.127736},
{-0.062479,-0.062479,-0.062479,-0.062479,-0.062479,-0.062479,-0.062479,-0.062479,-0.062479,-0.062479,-0.062479,-0.062479,-0.062479,-0.062479,-0.062479,-0.062479},
{-0.001313,-0.001313,-0.001313,-0.001313,-0.001313,-0.001313,-0.001313,-0.001313,-0.001313,-0.001313,-0.001313,-0.001313,-0.001313,-0.001313,-0.001313,-0.001313},
{-0.061082,-0.061082,-0.061082,-0.061082,-0.061082,-0.061082,-0.061082,-0.061082,-0.061082,-0.061082,-0.061082,-0.061082,-0.061082,-0.061082,-0.061082,-0.061082},
{0.009413,0.009413,0.009413,0.009413,0.009413,0.009413,0.009413,0.009413,0.009413,0.009413,0.009413,0.009413,0.009413,0.009413,0.009413,0.009413},
{-0.050825,-0.050825,-0.050825,-0.050825,-0.050825,-0.050825,-0.050825,-0.050825,-0.050825,-0.050825,-0.050825,-0.050825,-0.050825,-0.050825,-0.050825,-0.050825},
{0.010675,0.010675,0.010675,0.010675,0.010675,0.010675,0.010675,0.010675,0.010675,0.010675,0.010675,0.010675,0.010675,0.010675,0.010675,0.010675},
{-0.087913,-0.087913,-0.087913,-0.087913,-0.087913,-0.087913,-0.087913,-0.087913,-0.087913,-0.087913,-0.087913,-0.087913,-0.087913,-0.087913,-0.087913,-0.087913},
{0.026871,0.026871,0.026871,0.026871,0.026871,0.026871,0.026871,0.026871,0.026871,0.026871,0.026871,0.026871,0.026871,0.026871,0.026871,0.026871},
{0.220992,0.220992,0.220992,0.220992,0.220992,0.220992,0.220992,0.220992,0.220992,0.220992,0.220992,0.220992,0.220992,0.220992,0.220992,0.220992},
{-0.059213,-0.059213,-0.059213,-0.059213,-0.059213,-0.059213,-0.059213,-0.059213,-0.059213,-0.059213,-0.059213,-0.059213,-0.059213,-0.059213,-0.059213,-0.059213},
{0.068827,0.068827,0.068827,0.068827,0.068827,0.068827,0.068827,0.068827,0.068827,0.068827,0.068827,0.068827,0.068827,0.068827,0.068827,0.068827},
{0.050129,0.050129,0.050129,0.050129,0.050129,0.050129,0.050129,0.050129,0.050129,0.050129,0.050129,0.050129,0.050129,0.050129,0.050129,0.050129},
{0.101080,0.101080,0.101080,0.101080,0.101080,0.101080,0.101080,0.101080,0.101080,0.101080,0.101080,0.101080,0.101080,0.101080,0.101080,0.101080},
{-0.085946,-0.085946,-0.085946,-0.085946,-0.085946,-0.085946,-0.085946,-0.085946,-0.085946,-0.085946,-0.085946,-0.085946,-0.085946,-0.085946,-0.085946,-0.085946},
{0.158844,0.158844,0.158844,0.158844,0.158844,0.158844,0.158844,0.158844,0.158844,0.158844,0.158844,0.158844,0.158844,0.158844,0.158844,0.158844},
{-0.001534,-0.001534,-0.001534,-0.001534,-0.001534,-0.001534,-0.001534,-0.001534,-0.001534,-0.001534,-0.001534,-0.001534,-0.001534,-0.001534,-0.001534,-0.001534},
{0.047488,0.047488,0.047488,0.047488,0.047488,0.047488,0.047488,0.047488,0.047488,0.047488,0.047488,0.047488,0.047488,0.047488,0.047488,0.047488},
{0.085312,0.085312,0.085312,0.085312,0.085312,0.085312,0.085312,0.085312,0.085312,0.085312,0.085312,0.085312,0.085312,0.085312,0.085312,0.085312},
{0.167998,0.167998,0.167998,0.167998,0.167998,0.167998,0.167998,0.167998,0.167998,0.167998,0.167998,0.167998,0.167998,0.167998,0.167998,0.167998},
{-0.058235,-0.058235,-0.058235,-0.058235,-0.058235,-0.058235,-0.058235,-0.058235,-0.058235,-0.058235,-0.058235,-0.058235,-0.058235,-0.058235,-0.058235,-0.058235},
{-0.045775,-0.045775,-0.045775,-0.045775,-0.045775,-0.045775,-0.045775,-0.045775,-0.045775,-0.045775,-0.045775,-0.045775,-0.045775,-0.045775,-0.045775,-0.045775},
{0.083174,0.083174,0.083174,0.083174,0.083174,0.083174,0.083174,0.083174,0.083174,0.083174,0.083174,0.083174,0.083174,0.083174,0.083174,0.083174},
{0.035867,0.035867,0.035867,0.035867,0.035867,0.035867,0.035867,0.035867,0.035867,0.035867,0.035867,0.035867,0.035867,0.035867,0.035867,0.035867},
{0.144123,0.144123,0.144123,0.144123,0.144123,0.144123,0.144123,0.144123,0.144123,0.144123,0.144123,0.144123,0.144123,0.144123,0.144123,0.144123},
{0.036067,0.036067,0.036067,0.036067,0.036067,0.036067,0.036067,0.036067,0.036067,0.036067,0.036067,0.036067,0.036067,0.036067,0.036067,0.036067},
{-0.052621,-0.052621,-0.052621,-0.052621,-0.052621,-0.052621,-0.052621,-0.052621,-0.052621,-0.052621,-0.052621,-0.052621,-0.052621,-0.052621,-0.052621,-0.052621},
{0.072986,0.072986,0.072986,0.072986,0.072986,0.072986,0.072986,0.072986,0.072986,0.072986,0.072986,0.072986,0.072986,0.072986,0.072986,0.072986},
{-0.044041,-0.044041,-0.044041,-0.044041,-0.044041,-0.044041,-0.044041,-0.044041,-0.044041,-0.044041,-0.044041,-0.044041,-0.044041,-0.044041,-0.044041,-0.044041},
{0.034976,0.034976,0.034976,0.034976,0.034976,0.034976,0.034976,0.034976,0.034976,0.034976,0.034976,0.034976,0.034976,0.034976,0.034976,0.034976},
{-0.078630,-0.078630,-0.078630,-0.078630,-0.078630,-0.078630,-0.078630,-0.078630,-0.078630,-0.078630,-0.078630,-0.078630,-0.078630,-0.078630,-0.078630,-0.078630},
{0.103070,0.103070,0.103070,0.103070,0.103070,0.103070,0.103070,0.103070,0.103070,0.103070,0.103070,0.103070,0.103070,0.103070,0.103070,0.103070},
{0.005563,0.005563,0.005563,0.005563,0.005563,0.005563,0.005563,0.005563,0.005563,0.005563,0.005563,0.005563,0.005563,0.005563,0.005563,0.005563},
{-0.028674,-0.028674,-0.028674,-0.028674,-0.028674,-0.028674,-0.028674,-0.028674,-0.028674,-0.028674,-0.028674,-0.028674,-0.028674,-0.028674,-0.028674,-0.028674},
{-0.013551,-0.013551,-0.013551,-0.013551,-0.013551,-0.013551,-0.013551,-0.013551,-0.013551,-0.013551,-0.013551,-0.013551,-0.013551,-0.013551,-0.013551,-0.013551},
{-0.039341,-0.039341,-0.039341,-0.039341,-0.039341,-0.039341,-0.039341,-0.039341,-0.039341,-0.039341,-0.039341,-0.039341,-0.039341,-0.039341,-0.039341,-0.039341},
{-0.020232,-0.020232,-0.020232,-0.020232,-0.020232,-0.020232,-0.020232,-0.020232,-0.020232,-0.020232,-0.020232,-0.020232,-0.020232,-0.020232,-0.020232,-0.020232},
{0.029243,0.029243,0.029243,0.029243,0.029243,0.029243,0.029243,0.029243,0.029243,0.029243,0.029243,0.029243,0.029243,0.029243,0.029243,0.029243},
{0.011509,0.011509,0.011509,0.011509,0.011509,0.011509,0.011509,0.011509,0.011509,0.011509,0.011509,0.011509,0.011509,0.011509,0.011509,0.011509},
{0.103931,0.103931,0.103931,0.103931,0.103931,0.103931,0.103931,0.103931,0.103931,0.103931,0.103931,0.103931,0.103931,0.103931,0.103931,0.103931},
{-0.045728,-0.045728,-0.045728,-0.045728,-0.045728,-0.045728,-0.045728,-0.045728,-0.045728,-0.045728,-0.045728,-0.045728,-0.045728,-0.045728,-0.045728,-0.045728},
{-0.042905,-0.042905,-0.042905,-0.042905,-0.042905,-0.042905,-0.042905,-0.042905,-0.042905,-0.042905,-0.042905,-0.042905,-0.042905,-0.042905,-0.042905,-0.042905},
{-0.005654,-0.005654,-0.005654,-0.005654,-0.005654,-0.005654,-0.005654,-0.005654,-0.005654,-0.005654,-0.005654,-0.005654,-0.005654,-0.005654,-0.005654,-0.005654},
{0.030330,0.030330,0.030330,0.030330,0.030330,0.030330,0.030330,0.030330,0.030330,0.030330,0.030330,0.030330,0.030330,0.030330,0.030330,0.030330},
{0.095873,0.095873,0.095873,0.095873,0.095873,0.095873,0.095873,0.095873,0.095873,0.095873,0.095873,0.095873,0.095873,0.095873,0.095873,0.095873},
{-0.085337,-0.085337,-0.085337,-0.085337,-0.085337,-0.085337,-0.085337,-0.085337,-0.085337,-0.085337,-0.085337,-0.085337,-0.085337,-0.085337,-0.085337,-0.085337},
{-0.046367,-0.046367,-0.046367,-0.046367,-0.046367,-0.046367,-0.046367,-0.046367,-0.046367,-0.046367,-0.046367,-0.046367,-0.046367,-0.046367,-0.046367,-0.046367},
{0.052362,0.052362,0.052362,0.052362,0.052362,0.052362,0.052362,0.052362,0.052362,0.052362,0.052362,0.052362,0.052362,0.052362,0.052362,0.052362},
{-0.038319,-0.038319,-0.038319,-0.038319,-0.038319,-0.038319,-0.038319,-0.038319,-0.038319,-0.038319,-0.038319,-0.038319,-0.038319,-0.038319,-0.038319,-0.038319},
{0.032971,0.032971,0.032971,0.032971,0.032971,0.032971,0.032971,0.032971,0.032971,0.032971,0.032971,0.032971,0.032971,0.032971,0.032971,0.032971},
{-0.026987,-0.026987,-0.026987,-0.026987,-0.026987,-0.026987,-0.026987,-0.026987,-0.026987,-0.026987,-0.026987,-0.026987,-0.026987,-0.026987,-0.026987,-0.026987},
{0.038174,0.038174,0.038174,0.038174,0.038174,0.038174,0.038174,0.038174,0.038174,0.038174,0.038174,0.038174,0.038174,0.038174,0.038174,0.038174},
{-0.089427,-0.089427,-0.089427,-0.089427,-0.089427,-0.089427,-0.089427,-0.089427,-0.089427,-0.089427,-0.089427,-0.089427,-0.089427,-0.089427,-0.089427,-0.089427},
{0.072570,0.072570,0.072570,0.072570,0.072570,0.072570,0.072570,0.072570,0.072570,0.072570,0.072570,0.072570,0.072570,0.072570,0.072570,0.072570},
{0.126870,0.126870,0.126870,0.126870,0.126870,0.126870,0.126870,0.126870,0.126870,0.126870,0.126870,0.126870,0.126870,0.126870,0.126870,0.126870},
{-0.030976,-0.030976,-0.030976,-0.030976,-0.030976,-0.030976,-0.030976,-0.030976,-0.030976,-0.030976,-0.030976,-0.030976,-0.030976,-0.030976,-0.030976,-0.030976},
{-0.136193,-0.136193,-0.136193,-0.136193,-0.136193,-0.136193,-0.136193,-0.136193,-0.136193,-0.136193,-0.136193,-0.136193,-0.136193,-0.136193,-0.136193,-0.136193},
{-0.022642,-0.022642,-0.022642,-0.022642,-0.022642,-0.022642,-0.022642,-0.022642,-0.022642,-0.022642,-0.022642,-0.022642,-0.022642,-0.022642,-0.022642,-0.022642},
{0.068403,0.068403,0.068403,0.068403,0.068403,0.068403,0.068403,0.068403,0.068403,0.068403,0.068403,0.068403,0.068403,0.068403,0.068403,0.068403},
{0.029202,0.029202,0.029202,0.029202,0.029202,0.029202,0.029202,0.029202,0.029202,0.029202,0.029202,0.029202,0.029202,0.029202,0.029202,0.029202},
{-0.010033,-0.010033,-0.010033,-0.010033,-0.010033,-0.010033,-0.010033,-0.010033,-0.010033,-0.010033,-0.010033,-0.010033,-0.010033,-0.010033,-0.010033,-0.010033},
{0.031730,0.031730,0.031730,0.031730,0.031730,0.031730,0.031730,0.031730,0.031730,0.031730,0.031730,0.031730,0.031730,0.031730,0.031730,0.031730},
{0.129083,0.129083,0.129083,0.129083,0.129083,0.129083,0.129083,0.129083,0.129083,0.129083,0.129083,0.129083,0.129083,0.129083,0.129083,0.129083},
{-0.034617,-0.034617,-0.034617,-0.034617,-0.034617,-0.034617,-0.034617,-0.034617,-0.034617,-0.034617,-0.034617,-0.034617,-0.034617,-0.034617,-0.034617,-0.034617},
{-0.104624,-0.104624,-0.104624,-0.104624,-0.104624,-0.104624,-0.104624,-0.104624,-0.104624,-0.104624,-0.104624,-0.104624,-0.104624,-0.104624,-0.104624,-0.104624},
{-0.038083,-0.038083,-0.038083,-0.038083,-0.038083,-0.038083,-0.038083,-0.038083,-0.038083,-0.038083,-0.038083,-0.038083,-0.038083,-0.038083,-0.038083,-0.038083},
{0.036267,0.036267,0.036267,0.036267,0.036267,0.036267,0.036267,0.036267,0.036267,0.036267,0.036267,0.036267,0.036267,0.036267,0.036267,0.036267},
{-0.031267,-0.031267,-0.031267,-0.031267,-0.031267,-0.031267,-0.031267,-0.031267,-0.031267,-0.031267,-0.031267,-0.031267,-0.031267,-0.031267,-0.031267,-0.031267},
{-0.034333,-0.034333,-0.034333,-0.034333,-0.034333,-0.034333,-0.034333,-0.034333,-0.034333,-0.034333,-0.034333,-0.034333,-0.034333,-0.034333,-0.034333,-0.034333},
{0.092143,0.092143,0.092143,0.092143,0.092143,0.092143,0.092143,0.092143,0.092143,0.092143,0.092143,0.092143,0.092143,0.092143,0.092143,0.092143},
{-0.051604,-0.051604,-0.051604,-0.051604,-0.051604,-0.051604,-0.051604,-0.051604,-0.051604,-0.051604,-0.051604,-0.051604,-0.051604,-0.051604,-0.051604,-0.051604},
{0.033366,0.033366,0.033366,0.033366,0.033366,0.033366,0.033366,0.033366,0.033366,0.033366,0.033366,0.033366,0.033366,0.033366,0.033366,0.033366},
{-0.078640,-0.078640,-0.078640,-0.078640,-0.078640,-0.078640,-0.078640,-0.078640,-0.078640,-0.078640,-0.078640,-0.078640,-0.078640,-0.078640,-0.078640,-0.078640},
{0.049120,0.049120,0.049120,0.049120,0.049120,0.049120,0.049120,0.049120,0.049120,0.049120,0.049120,0.049120,0.049120,0.049120,0.049120,0.049120},
{-0.006382,-0.006382,-0.006382,-0.006382,-0.006382,-0.006382,-0.006382,-0.006382,-0.006382,-0.006382,-0.006382,-0.006382,-0.006382,-0.006382,-0.006382,-0.006382},
{-0.029172,-0.029172,-0.029172,-0.029172,-0.029172,-0.029172,-0.029172,-0.029172,-0.029172,-0.029172,-0.029172,-0.029172,-0.029172,-0.029172,-0.029172,-0.029172},
{-0.092926,-0.092926,-0.092926,-0.092926,-0.092926,-0.092926,-0.092926,-0.092926,-0.092926,-0.092926,-0.092926,-0.092926,-0.092926,-0.092926,-0.092926,-0.092926},
{-0.087832,-0.087832,-0.087832,-0.087832,-0.087832,-0.087832,-0.087832,-0.087832,-0.087832,-0.087832,-0.087832,-0.087832,-0.087832,-0.087832,-0.087832,-0.087832},
{0.031909,0.031909,0.031909,0.031909,0.031909,0.031909,0.031909,0.031909,0.031909,0.031909,0.031909,0.031909,0.031909,0.031909,0.031909,0.031909},
{0.060027,0.060027,0.060027,0.060027,0.060027,0.060027,0.060027,0.060027,0.060027,0.060027,0.060027,0.060027,0.060027,0.060027,0.060027,0.060027},
{-0.001460,-0.001460,-0.001460,-0.001460,-0.001460,-0.001460,-0.001460,-0.001460,-0.001460,-0.001460,-0.001460,-0.001460,-0.001460,-0.001460,-0.001460,-0.001460},
{0.001978,0.001978,0.001978,0.001978,0.001978,0.001978,0.001978,0.001978,0.001978,0.001978,0.001978,0.001978,0.001978,0.001978,0.001978,0.001978},
{0.118101,0.118101,0.118101,0.118101,0.118101,0.118101,0.118101,0.118101,0.118101,0.118101,0.118101,0.118101,0.118101,0.118101,0.118101,0.118101},
{0.047550,0.047550,0.047550,0.047550,0.047550,0.047550,0.047550,0.047550,0.047550,0.047550,0.047550,0.047550,0.047550,0.047550,0.047550,0.047550},
{-0.025207,-0.025207,-0.025207,-0.025207,-0.025207,-0.025207,-0.025207,-0.025207,-0.025207,-0.025207,-0.025207,-0.025207,-0.025207,-0.025207,-0.025207,-0.025207},
{0.072185,0.072185,0.072185,0.072185,0.072185,0.072185,0.072185,0.072185,0.072185,0.072185,0.072185,0.072185,0.072185,0.072185,0.072185,0.072185},
{0.096518,0.096518,0.096518,0.096518,0.096518,0.096518,0.096518,0.096518,0.096518,0.096518,0.096518,0.096518,0.096518,0.096518,0.096518,0.096518},
{-0.022388,-0.022388,-0.022388,-0.022388,-0.022388,-0.022388,-0.022388,-0.022388,-0.022388,-0.022388,-0.022388,-0.022388,-0.022388,-0.022388,-0.022388,-0.022388},
{-0.007716,-0.007716,-0.007716,-0.007716,-0.007716,-0.007716,-0.007716,-0.007716,-0.007716,-0.007716,-0.007716,-0.007716,-0.007716,-0.007716,-0.007716,-0.007716},
{0.171288,0.171288,0.171288,0.171288,0.171288,0.171288,0.171288,0.171288,0.171288,0.171288,0.171288,0.171288,0.171288,0.171288,0.171288,0.171288},
{0.082639,0.082639,0.082639,0.082639,0.082639,0.082639,0.082639,0.082639,0.082639,0.082639,0.082639,0.082639,0.082639,0.082639,0.082639,0.082639},
{0.087328,0.087328,0.087328,0.087328,0.087328,0.087328,0.087328,0.087328,0.087328,0.087328,0.087328,0.087328,0.087328,0.087328,0.087328,0.087328},
{-0.051714,-0.051714,-0.051714,-0.051714,-0.051714,-0.051714,-0.051714,-0.051714,-0.051714,-0.051714,-0.051714,-0.051714,-0.051714,-0.051714,-0.051714,-0.051714},
{-0.056847,-0.056847,-0.056847,-0.056847,-0.056847,-0.056847,-0.056847,-0.056847,-0.056847,-0.056847,-0.056847,-0.056847,-0.056847,-0.056847,-0.056847,-0.056847},
{0.148809,0.148809,0.148809,0.148809,0.148809,0.148809,0.148809,0.148809,0.148809,0.148809,0.148809,0.148809,0.148809,0.148809,0.148809,0.148809},
{-0.072298,-0.072298,-0.072298,-0.072298,-0.072298,-0.072298,-0.072298,-0.072298,-0.072298,-0.072298,-0.072298,-0.072298,-0.072298,-0.072298,-0.072298,-0.072298},
{0.119923,0.119923,0.119923,0.119923,0.119923,0.119923,0.119923,0.119923,0.119923,0.119923,0.119923,0.119923,0.119923,0.119923,0.119923,0.119923},
{0.065991,0.065991,0.065991,0.065991,0.065991,0.065991,0.065991,0.065991,0.065991,0.065991,0.065991,0.065991,0.065991,0.065991,0.065991,0.065991},
{-0.069816,-0.069816,-0.069816,-0.069816,-0.069816,-0.069816,-0.069816,-0.069816,-0.069816,-0.069816,-0.069816,-0.069816,-0.069816,-0.069816,-0.069816,-0.069816},
{-0.018979,-0.018979,-0.018979,-0.018979,-0.018979,-0.018979,-0.018979,-0.018979,-0.018979,-0.018979,-0.018979,-0.018979,-0.018979,-0.018979,-0.018979,-0.018979},
{-0.060020,-0.060020,-0.060020,-0.060020,-0.060020,-0.060020,-0.060020,-0.060020,-0.060020,-0.060020,-0.060020,-0.060020,-0.060020,-0.060020,-0.060020,-0.060020},
{0.014727,0.014727,0.014727,0.014727,0.014727,0.014727,0.014727,0.014727,0.014727,0.014727,0.014727,0.014727,0.014727,0.014727,0.014727,0.014727},
{-0.020785,-0.020785,-0.020785,-0.020785,-0.020785,-0.020785,-0.020785,-0.020785,-0.020785,-0.020785,-0.020785,-0.020785,-0.020785,-0.020785,-0.020785,-0.020785},
{0.076340,0.076340,0.076340,0.076340,0.076340,0.076340,0.076340,0.076340,0.076340,0.076340,0.076340,0.076340,0.076340,0.076340,0.076340,0.076340},
{-0.034561,-0.034561,-0.034561,-0.034561,-0.034561,-0.034561,-0.034561,-0.034561,-0.034561,-0.034561,-0.034561,-0.034561,-0.034561,-0.034561,-0.034561,-0.034561},
{0.017522,0.017522,0.017522,0.017522,0.017522,0.017522,0.017522,0.017522,0.017522,0.017522,0.017522,0.017522,0.017522,0.017522,0.017522,0.017522},
{-0.029389,-0.029389,-0.029389,-0.029389,-0.029389,-0.029389,-0.029389,-0.029389,-0.029389,-0.029389,-0.029389,-0.029389,-0.029389,-0.029389,-0.029389,-0.029389},
{-0.041410,-0.041410,-0.041410,-0.041410,-0.041410,-0.041410,-0.041410,-0.041410,-0.041410,-0.041410,-0.041410,-0.041410,-0.041410,-0.041410,-0.041410,-0.041410},
{-0.002650,-0.002650,-0.002650,-0.002650,-0.002650,-0.002650,-0.002650,-0.002650,-0.002650,-0.002650,-0.002650,-0.002650,-0.002650,-0.002650,-0.002650,-0.002650},
{-0.013012,-0.013012,-0.013012,-0.013012,-0.013012,-0.013012,-0.013012,-0.013012,-0.013012,-0.013012,-0.013012,-0.013012,-0.013012,-0.013012,-0.013012,-0.013012},
{0.002096,0.002096,0.002096,0.002096,0.002096,0.002096,0.002096,0.002096,0.002096,0.002096,0.002096,0.002096,0.002096,0.002096,0.002096,0.002096},
{0.061212,0.061212,0.061212,0.061212,0.061212,0.061212,0.061212,0.061212,0.061212,0.061212,0.061212,0.061212,0.061212,0.061212,0.061212,0.061212},
{-0.009947,-0.009947,-0.009947,-0.009947,-0.009947,-0.009947,-0.009947,-0.009947,-0.009947,-0.009947,-0.009947,-0.009947,-0.009947,-0.009947,-0.009947,-0.009947},
{-0.014783,-0.014783,-0.014783,-0.014783,-0.014783,-0.014783,-0.014783,-0.014783,-0.014783,-0.014783,-0.014783,-0.014783,-0.014783,-0.014783,-0.014783,-0.014783},
{-0.053343,-0.053343,-0.053343,-0.053343,-0.053343,-0.053343,-0.053343,-0.053343,-0.053343,-0.053343,-0.053343,-0.053343,-0.053343,-0.053343,-0.053343,-0.053343},
{0.072510,0.072510,0.072510,0.072510,0.072510,0.072510,0.072510,0.072510,0.072510,0.072510,0.072510,0.072510,0.072510,0.072510,0.072510,0.072510},
{0.025417,0.025417,0.025417,0.025417,0.025417,0.025417,0.025417,0.025417,0.025417,0.025417,0.025417,0.025417,0.025417,0.025417,0.025417,0.025417},
{-0.068342,-0.068342,-0.068342,-0.068342,-0.068342,-0.068342,-0.068342,-0.068342,-0.068342,-0.068342,-0.068342,-0.068342,-0.068342,-0.068342,-0.068342,-0.068342},
{0.148144,0.148144,0.148144,0.148144,0.148144,0.148144,0.148144,0.148144,0.148144,0.148144,0.148144,0.148144,0.148144,0.148144,0.148144,0.148144},
{0.043608,0.043608,0.043608,0.043608,0.043608,0.043608,0.043608,0.043608,0.043608,0.043608,0.043608,0.043608,0.043608,0.043608,0.043608,0.043608},
{0.079266,0.079266,0.079266,0.079266,0.079266,0.079266,0.079266,0.079266,0.079266,0.079266,0.079266,0.079266,0.079266,0.079266,0.079266,0.079266},
{-0.016819,-0.016819,-0.016819,-0.016819,-0.016819,-0.016819,-0.016819,-0.016819,-0.016819,-0.016819,-0.016819,-0.016819,-0.016819,-0.016819,-0.016819,-0.016819},
{0.033616,0.033616,0.033616,0.033616,0.033616,0.033616,0.033616,0.033616,0.033616,0.033616,0.033616,0.033616,0.033616,0.033616,0.033616,0.033616},
{-0.041356,-0.041356,-0.041356,-0.041356,-0.041356,-0.041356,-0.041356,-0.041356,-0.041356,-0.041356,-0.041356,-0.041356,-0.041356,-0.041356,-0.041356,-0.041356},
{-0.050392,-0.050392,-0.050392,-0.050392,-0.050392,-0.050392,-0.050392,-0.050392,-0.050392,-0.050392,-0.050392,-0.050392,-0.050392,-0.050392,-0.050392,-0.050392},
{-0.002531,-0.002531,-0.002531,-0.002531,-0.002531,-0.002531,-0.002531,-0.002531,-0.002531,-0.002531,-0.002531,-0.002531,-0.002531,-0.002531,-0.002531,-0.002531},
{-0.065890,-0.065890,-0.065890,-0.065890,-0.065890,-0.065890,-0.065890,-0.065890,-0.065890,-0.065890,-0.065890,-0.065890,-0.065890,-0.065890,-0.065890,-0.065890},
{0.091339,0.091339,0.091339,0.091339,0.091339,0.091339,0.091339,0.091339,0.091339,0.091339,0.091339,0.091339,0.091339,0.091339,0.091339,0.091339},
{0.061816,0.061816,0.061816,0.061816,0.061816,0.061816,0.061816,0.061816,0.061816,0.061816,0.061816,0.061816,0.061816,0.061816,0.061816,0.061816},
{0.080180,0.080180,0.080180,0.080180,0.080180,0.080180,0.080180,0.080180,0.080180,0.080180,0.080180,0.080180,0.080180,0.080180,0.080180,0.080180},
{-0.072499,-0.072499,-0.072499,-0.072499,-0.072499,-0.072499,-0.072499,-0.072499,-0.072499,-0.072499,-0.072499,-0.072499,-0.072499,-0.072499,-0.072499,-0.072499},
{-0.047709,-0.047709,-0.047709,-0.047709,-0.047709,-0.047709,-0.047709,-0.047709,-0.047709,-0.047709,-0.047709,-0.047709,-0.047709,-0.047709,-0.047709,-0.047709},
{-0.084207,-0.084207,-0.084207,-0.084207,-0.084207,-0.084207,-0.084207,-0.084207,-0.084207,-0.084207,-0.084207,-0.084207,-0.084207,-0.084207,-0.084207,-0.084207},
{-0.005864,-0.005864,-0.005864,-0.005864,-0.005864,-0.005864,-0.005864,-0.005864,-0.005864,-0.005864,-0.005864,-0.005864,-0.005864,-0.005864,-0.005864,-0.005864},
{-0.103918,-0.103918,-0.103918,-0.103918,-0.103918,-0.103918,-0.103918,-0.103918,-0.103918,-0.103918,-0.103918,-0.103918,-0.103918,-0.103918,-0.103918,-0.103918},
{0.075221,0.075221,0.075221,0.075221,0.075221,0.075221,0.075221,0.075221,0.075221,0.075221,0.075221,0.075221,0.075221,0.075221,0.075221,0.075221},
{0.008763,0.008763,0.008763,0.008763,0.008763,0.008763,0.008763,0.008763,0.008763,0.008763,0.008763,0.008763,0.008763,0.008763,0.008763,0.008763},
{-0.044334,-0.044334,-0.044334,-0.044334,-0.044334,-0.044334,-0.044334,-0.044334,-0.044334,-0.044334,-0.044334,-0.044334,-0.044334,-0.044334,-0.044334,-0.044334},
{0.065924,0.065924,0.065924,0.065924,0.065924,0.065924,0.065924,0.065924,0.065924,0.065924,0.065924,0.065924,0.065924,0.065924,0.065924,0.065924},
{0.022500,0.022500,0.022500,0.022500,0.022500,0.022500,0.022500,0.022500,0.022500,0.022500,0.022500,0.022500,0.022500,0.022500,0.022500,0.022500},
{0.055161,0.055161,0.055161,0.055161,0.055161,0.055161,0.055161,0.055161,0.055161,0.055161,0.055161,0.055161,0.055161,0.055161,0.055161,0.055161},
{-0.044511,-0.044511,-0.044511,-0.044511,-0.044511,-0.044511,-0.044511,-0.044511,-0.044511,-0.044511,-0.044511,-0.044511,-0.044511,-0.044511,-0.044511,-0.044511},
{0.010560,0.010560,0.010560,0.010560,0.010560,0.010560,0.010560,0.010560,0.010560,0.010560,0.010560,0.010560,0.010560,0.010560,0.010560,0.010560},
{0.096125,0.096125,0.096125,0.096125,0.096125,0.096125,0.096125,0.096125,0.096125,0.096125,0.096125,0.096125,0.096125,0.096125,0.096125,0.096125},
{-0.067102,-0.067102,-0.067102,-0.067102,-0.067102,-0.067102,-0.067102,-0.067102,-0.067102,-0.067102,-0.067102,-0.067102,-0.067102,-0.067102,-0.067102,-0.067102},
{0.043520,0.043520,0.043520,0.043520,0.043520,0.043520,0.043520,0.043520,0.043520,0.043520,0.043520,0.043520,0.043520,0.043520,0.043520,0.043520},
{0.070257,0.070257,0.070257,0.070257,0.070257,0.070257,0.070257,0.070257,0.070257,0.070257,0.070257,0.070257,0.070257,0.070257,0.070257,0.070257},
{-0.012811,-0.012811,-0.012811,-0.012811,-0.012811,-0.012811,-0.012811,-0.012811,-0.012811,-0.012811,-0.012811,-0.012811,-0.012811,-0.012811,-0.012811,-0.012811},
{0.031483,0.031483,0.031483,0.031483,0.031483,0.031483,0.031483,0.031483,0.031483,0.031483,0.031483,0.031483,0.031483,0.031483,0.031483,0.031483},
{-0.044213,-0.044213,-0.044213,-0.044213,-0.044213,-0.044213,-0.044213,-0.044213,-0.044213,-0.044213,-0.044213,-0.044213,-0.044213,-0.044213,-0.044213,-0.044213},
{-0.013450,-0.013450,-0.013450,-0.013450,-0.013450,-0.013450,-0.013450,-0.013450,-0.013450,-0.013450,-0.013450,-0.013450,-0.013450,-0.013450,-0.013450,-0.013450},
{0.094175,0.094175,0.094175,0.094175,0.094175,0.094175,0.094175,0.094175,0.094175,0.094175,0.094175,0.094175,0.094175,0.094175,0.094175,0.094175},
{0.039248,0.039248,0.039248,0.039248,0.039248,0.039248,0.039248,0.039248,0.039248,0.039248,0.039248,0.039248,0.039248,0.039248,0.039248,0.039248},
{0.146505,0.146505,0.146505,0.146505,0.146505,0.146505,0.146505,0.146505,0.146505,0.146505,0.146505,0.146505,0.146505,0.146505,0.146505,0.146505},
{-0.060745,-0.060745,-0.060745,-0.060745,-0.060745,-0.060745,-0.060745,-0.060745,-0.060745,-0.060745,-0.060745,-0.060745,-0.060745,-0.060745,-0.060745,-0.060745},
{0.047168,0.047168,0.047168,0.047168,0.047168,0.047168,0.047168,0.047168,0.047168,0.047168,0.047168,0.047168,0.047168,0.047168,0.047168,0.047168},
{0.020503,0.020503,0.020503,0.020503,0.020503,0.020503,0.020503,0.020503,0.020503,0.020503,0.020503,0.020503,0.020503,0.020503,0.020503,0.020503},
{0.023300,0.023300,0.023300,0.023300,0.023300,0.023300,0.023300,0.023300,0.023300,0.023300,0.023300,0.023300,0.023300,0.023300,0.023300,0.023300},
{-0.020227,-0.020227,-0.020227,-0.020227,-0.020227,-0.020227,-0.020227,-0.020227,-0.020227,-0.020227,-0.020227,-0.020227,-0.020227,-0.020227,-0.020227,-0.020227},
{-0.024800,-0.024800,-0.024800,-0.024800,-0.024800,-0.024800,-0.024800,-0.024800,-0.024800,-0.024800,-0.024800,-0.024800,-0.024800,-0.024800,-0.024800,-0.024800},
{-0.043081,-0.043081,-0.043081,-0.043081,-0.043081,-0.043081,-0.043081,-0.043081,-0.043081,-0.043081,-0.043081,-0.043081,-0.043081,-0.043081,-0.043081,-0.043081},
{0.062933,0.062933,0.062933,0.062933,0.062933,0.062933,0.062933,0.062933,0.062933,0.062933,0.062933,0.062933,0.062933,0.062933,0.062933,0.062933},
{-0.070491,-0.070491,-0.070491,-0.070491,-0.070491,-0.070491,-0.070491,-0.070491,-0.070491,-0.070491,-0.070491,-0.070491,-0.070491,-0.070491,-0.070491,-0.070491},
{0.063421,0.063421,0.063421,0.063421,0.063421,0.063421,0.063421,0.063421,0.063421,0.063421,0.063421,0.063421,0.063421,0.063421,0.063421,0.063421},
{-0.056210,-0.056210,-0.056210,-0.056210,-0.056210,-0.056210,-0.056210,-0.056210,-0.056210,-0.056210,-0.056210,-0.056210,-0.056210,-0.056210,-0.056210,-0.056210},
{0.029922,0.029922,0.029922,0.029922,0.029922,0.029922,0.029922,0.029922,0.029922,0.029922,0.029922,0.029922,0.029922,0.029922,0.029922,0.029922},
{-0.000559,-0.000559,-0.000559,-0.000559,-0.000559,-0.000559,-0.000559,-0.000559,-0.000559,-0.000559,-0.000559,-0.000559,-0.000559,-0.000559,-0.000559,-0.000559},
{-0.010597,-0.010597,-0.010597,-0.010597,-0.010597,-0.010597,-0.010597,-0.010597,-0.010597,-0.010597,-0.010597,-0.010597,-0.010597,-0.010597,-0.010597,-0.010597},
{0.079729,0.079729,0.079729,0.079729,0.079729,0.079729,0.079729,0.079729,0.079729,0.079729,0.079729,0.079729,0.079729,0.079729,0.079729,0.079729},
{0.004726,0.004726,0.004726,0.004726,0.004726,0.004726,0.004726,0.004726,0.004726,0.004726,0.004726,0.004726,0.004726,0.004726,0.004726,0.004726},
{0.019607,0.019607,0.019607,0.019607,0.019607,0.019607,0.019607,0.019607,0.019607,0.019607,0.019607,0.019607,0.019607,0.019607,0.019607,0.019607},
{0.021378,0.021378,0.021378,0.021378,0.021378,0.021378,0.021378,0.021378,0.021378,0.021378,0.021378,0.021378,0.021378,0.021378,0.021378,0.021378},
{0.096376,0.096376,0.096376,0.096376,0.096376,0.096376,0.096376,0.096376,0.096376,0.096376,0.096376,0.096376,0.096376,0.096376,0.096376,0.096376},
{0.062812,0.062812,0.062812,0.062812,0.062812,0.062812,0.062812,0.062812,0.062812,0.062812,0.062812,0.062812,0.062812,0.062812,0.062812,0.062812},
{-0.090551,-0.090551,-0.090551,-0.090551,-0.090551,-0.090551,-0.090551,-0.090551,-0.090551,-0.090551,-0.090551,-0.090551,-0.090551,-0.090551,-0.090551,-0.090551},
{0.019958,0.019958,0.019958,0.019958,0.019958,0.019958,0.019958,0.019958,0.019958,0.019958,0.019958,0.019958,0.019958,0.019958,0.019958,0.019958},
{0.024632,0.024632,0.024632,0.024632,0.024632,0.024632,0.024632,0.024632,0.024632,0.024632,0.024632,0.024632,0.024632,0.024632,0.024632,0.024632},
{0.040986,0.040986,0.040986,0.040986,0.040986,0.040986,0.040986,0.040986,0.040986,0.040986,0.040986,0.040986,0.040986,0.040986,0.040986,0.040986},
{0.002235,0.002235,0.002235,0.002235,0.002235,0.002235,0.002235,0.002235,0.002235,0.002235,0.002235,0.002235,0.002235,0.002235,0.002235,0.002235},
{0.060798,0.060798,0.060798,0.060798,0.060798,0.060798,0.060798,0.060798,0.060798,0.060798,0.060798,0.060798,0.060798,0.060798,0.060798,0.060798},
{-0.123163,-0.123163,-0.123163,-0.123163,-0.123163,-0.123163,-0.123163,-0.123163,-0.123163,-0.123163,-0.123163,-0.123163,-0.123163,-0.123163,-0.123163,-0.123163},
{0.097751,0.097751,0.097751,0.097751,0.097751,0.097751,0.097751,0.097751,0.097751,0.097751,0.097751,0.097751,0.097751,0.097751,0.097751,0.097751},
{-0.032203,-0.032203,-0.032203,-0.032203,-0.032203,-0.032203,-0.032203,-0.032203,-0.032203,-0.032203,-0.032203,-0.032203,-0.032203,-0.032203,-0.032203,-0.032203},
{-0.073477,-0.073477,-0.073477,-0.073477,-0.073477,-0.073477,-0.073477,-0.073477,-0.073477,-0.073477,-0.073477,-0.073477,-0.073477,-0.073477,-0.073477,-0.073477},
{-0.056749,-0.056749,-0.056749,-0.056749,-0.056749,-0.056749,-0.056749,-0.056749,-0.056749,-0.056749,-0.056749,-0.056749,-0.056749,-0.056749,-0.056749,-0.056749},
{0.049505,0.049505,0.049505,0.049505,0.049505,0.049505,0.049505,0.049505,0.049505,0.049505,0.049505,0.049505,0.049505,0.049505,0.049505,0.049505},
{-0.050116,-0.050116,-0.050116,-0.050116,-0.050116,-0.050116,-0.050116,-0.050116,-0.050116,-0.050116,-0.050116,-0.050116,-0.050116,-0.050116,-0.050116,-0.050116},
{-0.052816,-0.052816,-0.052816,-0.052816,-0.052816,-0.052816,-0.052816,-0.052816,-0.052816,-0.052816,-0.052816,-0.052816,-0.052816,-0.052816,-0.052816,-0.052816},
{-0.103819,-0.103819,-0.103819,-0.103819,-0.103819,-0.103819,-0.103819,-0.103819,-0.103819,-0.103819,-0.103819,-0.103819,-0.103819,-0.103819,-0.103819,-0.103819},
{0.013316,0.013316,0.013316,0.013316,0.013316,0.013316,0.013316,0.013316,0.013316,0.013316,0.013316,0.013316,0.013316,0.013316,0.013316,0.013316},
{-0.154516,-0.154516,-0.154516,-0.154516,-0.154516,-0.154516,-0.154516,-0.154516,-0.154516,-0.154516,-0.154516,-0.154516,-0.154516,-0.154516,-0.154516,-0.154516},
{-0.103462,-0.103462,-0.103462,-0.103462,-0.103462,-0.103462,-0.103462,-0.103462,-0.103462,-0.103462,-0.103462,-0.103462,-0.103462,-0.103462,-0.103462,-0.103462},
{0.167079,0.167079,0.167079,0.167079,0.167079,0.167079,0.167079,0.167079,0.167079,0.167079,0.167079,0.167079,0.167079,0.167079,0.167079,0.167079},
{-0.029948,-0.029948,-0.029948,-0.029948,-0.029948,-0.029948,-0.029948,-0.029948,-0.029948,-0.029948,-0.029948,-0.029948,-0.029948,-0.029948,-0.029948,-0.029948},
{-0.008419,-0.008419,-0.008419,-0.008419,-0.008419,-0.008419,-0.008419,-0.008419,-0.008419,-0.008419,-0.008419,-0.008419,-0.008419,-0.008419,-0.008419,-0.008419},
{0.069000,0.069000,0.069000,0.069000,0.069000,0.069000,0.069000,0.069000,0.069000,0.069000,0.069000,0.069000,0.069000,0.069000,0.069000,0.069000},
{0.161157,0.161157,0.161157,0.161157,0.161157,0.161157,0.161157,0.161157,0.161157,0.161157,0.161157,0.161157,0.161157,0.161157,0.161157,0.161157},
{-0.096206,-0.096206,-0.096206,-0.096206,-0.096206,-0.096206,-0.096206,-0.096206,-0.096206,-0.096206,-0.096206,-0.096206,-0.096206,-0.096206,-0.096206,-0.096206},
{0.046086,0.046086,0.046086,0.046086,0.046086,0.046086,0.046086,0.046086,0.046086,0.046086,0.046086,0.046086,0.046086,0.046086,0.046086,0.046086},
{-0.026047,-0.026047,-0.026047,-0.026047,-0.026047,-0.026047,-0.026047,-0.026047,-0.026047,-0.026047,-0.026047,-0.026047,-0.026047,-0.026047,-0.026047,-0.026047},
{0.062587,0.062587,0.062587,0.062587,0.062587,0.062587,0.062587,0.062587,0.062587,0.062587,0.062587,0.062587,0.062587,0.062587,0.062587,0.062587},
{-0.072536,-0.072536,-0.072536,-0.072536,-0.072536,-0.072536,-0.072536,-0.072536,-0.072536,-0.072536,-0.072536,-0.072536,-0.072536,-0.072536,-0.072536,-0.072536},
{-0.059895,-0.059895,-0.059895,-0.059895,-0.059895,-0.059895,-0.059895,-0.059895,-0.059895,-0.059895,-0.059895,-0.059895,-0.059895,-0.059895,-0.059895,-0.059895},
{0.032044,0.032044,0.032044,0.032044,0.032044,0.032044,0.032044,0.032044,0.032044,0.032044,0.032044,0.032044,0.032044,0.032044,0.032044,0.032044},
{0.052987,0.052987,0.052987,0.052987,0.052987,0.052987,0.052987,0.052987,0.052987,0.052987,0.052987,0.052987,0.052987,0.052987,0.052987,0.052987},
{-0.156992,-0.156992,-0.156992,-0.156992,-0.156992,-0.156992,-0.156992,-0.156992,-0.156992,-0.156992,-0.156992,-0.156992,-0.156992,-0.156992,-0.156992,-0.156992},
{0.101277,0.101277,0.101277,0.101277,0.101277,0.101277,0.101277,0.101277,0.101277,0.101277,0.101277,0.101277,0.101277,0.101277,0.101277,0.101277},
{-0.129185,-0.129185,-0.129185,-0.129185,-0.129185,-0.129185,-0.129185,-0.129185,-0.129185,-0.129185,-0.129185,-0.129185,-0.129185,-0.129185,-0.129185,-0.129185},
{0.018934,0.018934,0.018934,0.018934,0.018934,0.018934,0.018934,0.018934,0.018934,0.018934,0.018934,0.018934,0.018934,0.018934,0.018934,0.018934},
{0.003600,0.003600,0.003600,0.003600,0.003600,0.003600,0.003600,0.003600,0.003600,0.003600,0.003600,0.003600,0.003600,0.003600,0.003600,0.003600},
{0.067392,0.067392,0.067392,0.067392,0.067392,0.067392,0.067392,0.067392,0.067392,0.067392,0.067392,0.067392,0.067392,0.067392,0.067392,0.067392},
{0.120834,0.120834,0.120834,0.120834,0.120834,0.120834,0.120834,0.120834,0.120834,0.120834,0.120834,0.120834,0.120834,0.120834,0.120834,0.120834},
{0.097212,0.097212,0.097212,0.097212,0.097212,0.097212,0.097212,0.097212,0.097212,0.097212,0.097212,0.097212,0.097212,0.097212,0.097212,0.097212},
{-0.150500,-0.150500,-0.150500,-0.150500,-0.150500,-0.150500,-0.150500,-0.150500,-0.150500,-0.150500,-0.150500,-0.150500,-0.150500,-0.150500,-0.150500,-0.150500},
{0.081341,0.081341,0.081341,0.081341,0.081341,0.081341,0.081341,0.081341,0.081341,0.081341,0.081341,0.081341,0.081341,0.081341,0.081341,0.081341},
{-0.041989,-0.041989,-0.041989,-0.041989,-0.041989,-0.041989,-0.041989,-0.041989,-0.041989,-0.041989,-0.041989,-0.041989,-0.041989,-0.041989,-0.041989,-0.041989},
{-0.011089,-0.011089,-0.011089,-0.011089,-0.011089,-0.011089,-0.011089,-0.011089,-0.011089,-0.011089,-0.011089,-0.011089,-0.011089,-0.011089,-0.011089,-0.011089},
{-0.011952,-0.011952,-0.011952,-0.011952,-0.011952,-0.011952,-0.011952,-0.011952,-0.011952,-0.011952,-0.011952,-0.011952,-0.011952,-0.011952,-0.011952,-0.011952},
{-0.129811,-0.129811,-0.129811,-0.129811,-0.129811,-0.129811,-0.129811,-0.129811,-0.129811,-0.129811,-0.129811,-0.129811,-0.129811,-0.129811,-0.129811,-0.129811},
{-0.079902,-0.079902,-0.079902,-0.079902,-0.079902,-0.079902,-0.079902,-0.079902,-0.079902,-0.079902,-0.079902,-0.079902,-0.079902,-0.079902,-0.079902,-0.079902},
{0.012056,0.012056,0.012056,0.012056,0.012056,0.012056,0.012056,0.012056,0.012056,0.012056,0.012056,0.012056,0.012056,0.012056,0.012056,0.012056},
{0.024871,0.024871,0.024871,0.024871,0.024871,0.024871,0.024871,0.024871,0.024871,0.024871,0.024871,0.024871,0.024871,0.024871,0.024871,0.024871},
{-0.058676,-0.058676,-0.058676,-0.058676,-0.058676,-0.058676,-0.058676,-0.058676,-0.058676,-0.058676,-0.058676,-0.058676,-0.058676,-0.058676,-0.058676,-0.058676},
{-0.021421,-0.021421,-0.021421,-0.021421,-0.021421,-0.021421,-0.021421,-0.021421,-0.021421,-0.021421,-0.021421,-0.021421,-0.021421,-0.021421,-0.021421,-0.021421},
{-0.057801,-0.057801,-0.057801,-0.057801,-0.057801,-0.057801,-0.057801,-0.057801,-0.057801,-0.057801,-0.057801,-0.057801,-0.057801,-0.057801,-0.057801,-0.057801},
{-0.011766,-0.011766,-0.011766,-0.011766,-0.011766,-0.011766,-0.011766,-0.011766,-0.011766,-0.011766,-0.011766,-0.011766,-0.011766,-0.011766,-0.011766,-0.011766},
{0.079689,0.079689,0.079689,0.079689,0.079689,0.079689,0.079689,0.079689,0.079689,0.079689,0.079689,0.079689,0.079689,0.079689,0.079689,0.079689},
{0.033410,0.033410,0.033410,0.033410,0.033410,0.033410,0.033410,0.033410,0.033410,0.033410,0.033410,0.033410,0.033410,0.033410,0.033410,0.033410},
{0.017921,0.017921,0.017921,0.017921,0.017921,0.017921,0.017921,0.017921,0.017921,0.017921,0.017921,0.017921,0.017921,0.017921,0.017921,0.017921},
{0.066305,0.066305,0.066305,0.066305,0.066305,0.066305,0.066305,0.066305,0.066305,0.066305,0.066305,0.066305,0.066305,0.066305,0.066305,0.066305},
{-0.027224,-0.027224,-0.027224,-0.027224,-0.027224,-0.027224,-0.027224,-0.027224,-0.027224,-0.027224,-0.027224,-0.027224,-0.027224,-0.027224,-0.027224,-0.027224},
{0.026102,0.026102,0.026102,0.026102,0.026102,0.026102,0.026102,0.026102,0.026102,0.026102,0.026102,0.026102,0.026102,0.026102,0.026102,0.026102},
{0.002606,0.002606,0.002606,0.002606,0.002606,0.002606,0.002606,0.002606,0.002606,0.002606,0.002606,0.002606,0.002606,0.002606,0.002606,0.002606},
{-0.009351,-0.009351,-0.009351,-0.009351,-0.009351,-0.009351,-0.009351,-0.009351,-0.009351,-0.009351,-0.009351,-0.009351,-0.009351,-0.009351,-0.009351,-0.009351},
{0.016978,0.016978,0.016978,0.016978,0.016978,0.016978,0.016978,0.016978,0.016978,0.016978,0.016978,0.016978,0.016978,0.016978,0.016978,0.016978},
{0.048290,0.048290,0.048290,0.048290,0.048290,0.048290,0.048290,0.048290,0.048290,0.048290,0.048290,0.048290,0.048290,0.048290,0.048290,0.048290},
{0.030833,0.030833,0.030833,0.030833,0.030833,0.030833,0.030833,0.030833,0.030833,0.030833,0.030833,0.030833,0.030833,0.030833,0.030833,0.030833},
{0.124999,0.124999,0.124999,0.124999,0.124999,0.124999,0.124999,0.124999,0.124999,0.124999,0.124999,0.124999,0.124999,0.124999,0.124999,0.124999},
{0.040094,0.040094,0.040094,0.040094,0.040094,0.040094,0.040094,0.040094,0.040094,0.040094,0.040094,0.040094,0.040094,0.040094,0.040094,0.040094},
{-0.031908,-0.031908,-0.031908,-0.031908,-0.031908,-0.031908,-0.031908,-0.031908,-0.031908,-0.031908,-0.031908,-0.031908,-0.031908,-0.031908,-0.031908,-0.031908},
{-0.038151,-0.038151,-0.038151,-0.038151,-0.038151,-0.038151,-0.038151,-0.038151,-0.038151,-0.038151,-0.038151,-0.038151,-0.038151,-0.038151,-0.038151,-0.038151},
{0.004363,0.004363,0.004363,0.004363,0.004363,0.004363,0.004363,0.004363,0.004363,0.004363,0.004363,0.004363,0.004363,0.004363,0.004363,0.004363},
{-0.076322,-0.076322,-0.076322,-0.076322,-0.076322,-0.076322,-0.076322,-0.076322,-0.076322,-0.076322,-0.076322,-0.076322,-0.076322,-0.076322,-0.076322,-0.076322},
{-0.015369,-0.015369,-0.015369,-0.015369,-0.015369,-0.015369,-0.015369,-0.015369,-0.015369,-0.015369,-0.015369,-0.015369,-0.015369,-0.015369,-0.015369,-0.015369},
{0.016006,0.016006,0.016006,0.016006,0.016006,0.016006,0.016006,0.016006,0.016006,0.016006,0.016006,0.016006,0.016006,0.016006,0.016006,0.016006},
{-0.088616,-0.088616,-0.088616,-0.088616,-0.088616,-0.088616,-0.088616,-0.088616,-0.088616,-0.088616,-0.088616,-0.088616,-0.088616,-0.088616,-0.088616,-0.088616},
{0.154926,0.154926,0.154926,0.154926,0.154926,0.154926,0.154926,0.154926,0.154926,0.154926,0.154926,0.154926,0.154926,0.154926,0.154926,0.154926},
{0.069388,0.069388,0.069388,0.069388,0.069388,0.069388,0.069388,0.069388,0.069388,0.069388,0.069388,0.069388,0.069388,0.069388,0.069388,0.069388},
{0.065086,0.065086,0.065086,0.065086,0.065086,0.065086,0.065086,0.065086,0.065086,0.065086,0.065086,0.065086,0.065086,0.065086,0.065086,0.065086},
{0.009750,0.009750,0.009750,0.009750,0.009750,0.009750,0.009750,0.009750,0.009750,0.009750,0.009750,0.009750,0.009750,0.009750,0.009750,0.009750},
{-0.029424,-0.029424,-0.029424,-0.029424,-0.029424,-0.029424,-0.029424,-0.029424,-0.029424,-0.029424,-0.029424,-0.029424,-0.029424,-0.029424,-0.029424,-0.029424},
{-0.016602,-0.016602,-0.016602,-0.016602,-0.016602,-0.016602,-0.016602,-0.016602,-0.016602,-0.016602,-0.016602,-0.016602,-0.016602,-0.016602,-0.016602,-0.016602},
{-0.013323,-0.013323,-0.013323,-0.013323,-0.013323,-0.013323,-0.013323,-0.013323,-0.013323,-0.013323,-0.013323,-0.013323,-0.013323,-0.013323,-0.013323,-0.013323},
{0.080418,0.080418,0.080418,0.080418,0.080418,0.080418,0.080418,0.080418,0.080418,0.080418,0.080418,0.080418,0.080418,0.080418,0.080418,0.080418},
{-0.034548,-0.034548,-0.034548,-0.034548,-0.034548,-0.034548,-0.034548,-0.034548,-0.034548,-0.034548,-0.034548,-0.034548,-0.034548,-0.034548,-0.034548,-0.034548},
{-0.036245,-0.036245,-0.036245,-0.036245,-0.036245,-0.036245,-0.036245,-0.036245,-0.036245,-0.036245,-0.036245,-0.036245,-0.036245,-0.036245,-0.036245,-0.036245},
{-0.038746,-0.038746,-0.038746,-0.038746,-0.038746,-0.038746,-0.038746,-0.038746,-0.038746,-0.038746,-0.038746,-0.038746,-0.038746,-0.038746,-0.038746,-0.038746},
{0.157947,0.157947,0.157947,0.157947,0.157947,0.157947,0.157947,0.157947,0.157947,0.157947,0.157947,0.157947,0.157947,0.157947,0.157947,0.157947},
{-0.020044,-0.020044,-0.020044,-0.020044,-0.020044,-0.020044,-0.020044,-0.020044,-0.020044,-0.020044,-0.020044,-0.020044,-0.020044,-0.020044,-0.020044,-0.020044},
{0.032359,0.032359,0.032359,0.032359,0.032359,0.032359,0.032359,0.032359,0.032359,0.032359,0.032359,0.032359,0.032359,0.032359,0.032359,0.032359},
{0.076783,0.076783,0.076783,0.076783,0.076783,0.076783,0.076783,0.076783,0.076783,0.076783,0.076783,0.076783,0.076783,0.076783,0.076783,0.076783},
{0.009142,0.009142,0.009142,0.009142,0.009142,0.009142,0.009142,0.009142,0.009142,0.009142,0.009142,0.009142,0.009142,0.009142,0.009142,0.009142},
{0.066921,0.066921,0.066921,0.066921,0.066921,0.066921,0.066921,0.066921,0.066921,0.066921,0.066921,0.066921,0.066921,0.066921,0.066921,0.066921},
{0.000874,0.000874,0.000874,0.000874,0.000874,0.000874,0.000874,0.000874,0.000874,0.000874,0.000874,0.000874,0.000874,0.000874,0.000874,0.000874},
{-0.022757,-0.022757,-0.022757,-0.022757,-0.022757,-0.022757,-0.022757,-0.022757,-0.022757,-0.022757,-0.022757,-0.022757,-0.022757,-0.022757,-0.022757,-0.022757},
{-0.058901,-0.058901,-0.058901,-0.058901,-0.058901,-0.058901,-0.058901,-0.058901,-0.058901,-0.058901,-0.058901,-0.058901,-0.058901,-0.058901,-0.058901,-0.058901},
{0.063482,0.063482,0.063482,0.063482,0.063482,0.063482,0.063482,0.063482,0.063482,0.063482,0.063482,0.063482,0.063482,0.063482,0.063482,0.063482},
{0.114384,0.114384,0.114384,0.114384,0.114384,0.114384,0.114384,0.114384,0.114384,0.114384,0.114384,0.114384,0.114384,0.114384,0.114384,0.114384},
{0.021322,0.021322,0.021322,0.021322,0.021322,0.021322,0.021322,0.021322,0.021322,0.021322,0.021322,0.021322,0.021322,0.021322,0.021322,0.021322},
{0.041939,0.041939,0.041939,0.041939,0.041939,0.041939,0.041939,0.041939,0.041939,0.041939,0.041939,0.041939,0.041939,0.041939,0.041939,0.041939},
{0.031785,0.031785,0.031785,0.031785,0.031785,0.031785,0.031785,0.031785,0.031785,0.031785,0.031785,0.031785,0.031785,0.031785,0.031785,0.031785},
{0.015595,0.015595,0.015595,0.015595,0.015595,0.015595,0.015595,0.015595,0.015595,0.015595,0.015595,0.015595,0.015595,0.015595,0.015595,0.015595},
{-0.089030,-0.089030,-0.089030,-0.089030,-0.089030,-0.089030,-0.089030,-0.089030,-0.089030,-0.089030,-0.089030,-0.089030,-0.089030,-0.089030,-0.089030,-0.089030},
{-0.105642,-0.105642,-0.105642,-0.105642,-0.105642,-0.105642,-0.105642,-0.105642,-0.105642,-0.105642,-0.105642,-0.105642,-0.105642,-0.105642,-0.105642,-0.105642},
{-0.100330,-0.100330,-0.100330,-0.100330,-0.100330,-0.100330,-0.100330,-0.100330,-0.100330,-0.100330,-0.100330,-0.100330,-0.100330,-0.100330,-0.100330,-0.100330},
{0.038012,0.038012,0.038012,0.038012,0.038012,0.038012,0.038012,0.038012,0.038012,0.038012,0.038012,0.038012,0.038012,0.038012,0.038012,0.038012},
{0.003791,0.003791,0.003791,0.003791,0.003791,0.003791,0.003791,0.003791,0.003791,0.003791,0.003791,0.003791,0.003791,0.003791,0.003791,0.003791},
{-0.012188,-0.012188,-0.012188,-0.012188,-0.012188,-0.012188,-0.012188,-0.012188,-0.012188,-0.012188,-0.012188,-0.012188,-0.012188,-0.012188,-0.012188,-0.012188},
{-0.057659,-0.057659,-0.057659,-0.057659,-0.057659,-0.057659,-0.057659,-0.057659,-0.057659,-0.057659,-0.057659,-0.057659,-0.057659,-0.057659,-0.057659,-0.057659},
{0.042875,0.042875,0.042875,0.042875,0.042875,0.042875,0.042875,0.042875,0.042875,0.042875,0.042875,0.042875,0.042875,0.042875,0.042875,0.042875},
{0.006458,0.006458,0.006458,0.006458,0.006458,0.006458,0.006458,0.006458,0.006458,0.006458,0.006458,0.006458,0.006458,0.006458,0.006458,0.006458},
{-0.010180,-0.010180,-0.010180,-0.010180,-0.010180,-0.010180,-0.010180,-0.010180,-0.010180,-0.010180,-0.010180,-0.010180,-0.010180,-0.010180,-0.010180,-0.010180},
{-0.076022,-0.076022,-0.076022,-0.076022,-0.076022,-0.076022,-0.076022,-0.076022,-0.076022,-0.076022,-0.076022,-0.076022,-0.076022,-0.076022,-0.076022,-0.076022},
{0.052603,0.052603,0.052603,0.052603,0.052603,0.052603,0.052603,0.052603,0.052603,0.052603,0.052603,0.052603,0.052603,0.052603,0.052603,0.052603},
{0.075851,0.075851,0.075851,0.075851,0.075851,0.075851,0.075851,0.075851,0.075851,0.075851,0.075851,0.075851,0.075851,0.075851,0.075851,0.075851},
{-0.085948,-0.085948,-0.085948,-0.085948,-0.085948,-0.085948,-0.085948,-0.085948,-0.085948,-0.085948,-0.085948,-0.085948,-0.085948,-0.085948,-0.085948,-0.085948},
{0.008255,0.008255,0.008255,0.008255,0.008255,0.008255,0.008255,0.008255,0.008255,0.008255,0.008255,0.008255,0.008255,0.008255,0.008255,0.008255},
{-0.021544,-0.021544,-0.021544,-0.021544,-0.021544,-0.021544,-0.021544,-0.021544,-0.021544,-0.021544,-0.021544,-0.021544,-0.021544,-0.021544,-0.021544,-0.021544},
{0.108357,0.108357,0.108357,0.108357,0.108357,0.108357,0.108357,0.108357,0.108357,0.108357,0.108357,0.108357,0.108357,0.108357,0.108357,0.108357},
{0.058676,0.058676,0.058676,0.058676,0.058676,0.058676,0.058676,0.058676,0.058676,0.058676,0.058676,0.058676,0.058676,0.058676,0.058676,0.058676},
{-0.033777,-0.033777,-0.033777,-0.033777,-0.033777,-0.033777,-0.033777,-0.033777,-0.033777,-0.033777,-0.033777,-0.033777,-0.033777,-0.033777,-0.033777,-0.033777},
{0.038175,0.038175,0.038175,0.038175,0.038175,0.038175,0.038175,0.038175,0.038175,0.038175,0.038175,0.038175,0.038175,0.038175,0.038175,0.038175},
{-0.034812,-0.034812,-0.034812,-0.034812,-0.034812,-0.034812,-0.034812,-0.034812,-0.034812,-0.034812,-0.034812,-0.034812,-0.034812,-0.034812,-0.034812,-0.034812},
{0.024312,0.024312,0.024312,0.024312,0.024312,0.024312,0.024312,0.024312,0.024312,0.024312,0.024312,0.024312,0.024312,0.024312,0.024312,0.024312},
{0.109167,0.109167,0.109167,0.109167,0.109167,0.109167,0.109167,0.109167,0.109167,0.109167,0.109167,0.109167,0.109167,0.109167,0.109167,0.109167},
{-0.006927,-0.006927,-0.006927,-0.006927,-0.006927,-0.006927,-0.006927,-0.006927,-0.006927,-0.006927,-0.006927,-0.006927,-0.006927,-0.006927,-0.006927,-0.006927},
{-0.075420,-0.075420,-0.075420,-0.075420,-0.075420,-0.075420,-0.075420,-0.075420,-0.075420,-0.075420,-0.075420,-0.075420,-0.075420,-0.075420,-0.075420,-0.075420},
{-0.019602,-0.019602,-0.019602,-0.019602,-0.019602,-0.019602,-0.019602,-0.019602,-0.019602,-0.019602,-0.019602,-0.019602,-0.019602,-0.019602,-0.019602,-0.019602},
{-0.041359,-0.041359,-0.041359,-0.041359,-0.041359,-0.041359,-0.041359,-0.041359,-0.041359,-0.041359,-0.041359,-0.041359,-0.041359,-0.041359,-0.041359,-0.041359},
{0.143164,0.143164,0.143164,0.143164,0.143164,0.143164,0.143164,0.143164,0.143164,0.143164,0.143164,0.143164,0.143164,0.143164,0.143164,0.143164},
{0.042121,0.042121,0.042121,0.042121,0.042121,0.042121,0.042121,0.042121,0.042121,0.042121,0.042121,0.042121,0.042121,0.042121,0.042121,0.042121},
{-0.039426,-0.039426,-0.039426,-0.039426,-0.039426,-0.039426,-0.039426,-0.039426,-0.039426,-0.039426,-0.039426,-0.039426,-0.039426,-0.039426,-0.039426,-0.039426},
{0.036622,0.036622,0.036622,0.036622,0.036622,0.036622,0.036622,0.036622,0.036622,0.036622,0.036622,0.036622,0.036622,0.036622,0.036622,0.036622},
{0.041773,0.041773,0.041773,0.041773,0.041773,0.041773,0.041773,0.041773,0.041773,0.041773,0.041773,0.041773,0.041773,0.041773,0.041773,0.041773},
{-0.130128,-0.130128,-0.130128,-0.130128,-0.130128,-0.130128,-0.130128,-0.130128,-0.130128,-0.130128,-0.130128,-0.130128,-0.130128,-0.130128,-0.130128,-0.130128},
{-0.102210,-0.102210,-0.102210,-0.102210,-0.102210,-0.102210,-0.102210,-0.102210,-0.102210,-0.102210,-0.102210,-0.102210,-0.102210,-0.102210,-0.102210,-0.102210},
{0.094967,0.094967,0.094967,0.094967,0.094967,0.094967,0.094967,0.094967,0.094967,0.094967,0.094967,0.094967,0.094967,0.094967,0.094967,0.094967},
{-0.032531,-0.032531,-0.032531,-0.032531,-0.032531,-0.032531,-0.032531,-0.032531,-0.032531,-0.032531,-0.032531,-0.032531,-0.032531,-0.032531,-0.032531,-0.032531},
{-0.033177,-0.033177,-0.033177,-0.033177,-0.033177,-0.033177,-0.033177,-0.033177,-0.033177,-0.033177,-0.033177,-0.033177,-0.033177,-0.033177,-0.033177,-0.033177},
{0.035907,0.035907,0.035907,0.035907,0.035907,0.035907,0.035907,0.035907,0.035907,0.035907,0.035907,0.035907,0.035907,0.035907,0.035907,0.035907},
{0.043061,0.043061,0.043061,0.043061,0.043061,0.043061,0.043061,0.043061,0.043061,0.043061,0.043061,0.043061,0.043061,0.043061,0.043061,0.043061},
{-0.079254,-0.079254,-0.079254,-0.079254,-0.079254,-0.079254,-0.079254,-0.079254,-0.079254,-0.079254,-0.079254,-0.079254,-0.079254,-0.079254,-0.079254,-0.079254},
{-0.073714,-0.073714,-0.073714,-0.073714,-0.073714,-0.073714,-0.073714,-0.073714,-0.073714,-0.073714,-0.073714,-0.073714,-0.073714,-0.073714,-0.073714,-0.073714},
{0.057211,0.057211,0.057211,0.057211,0.057211,0.057211,0.057211,0.057211,0.057211,0.057211,0.057211,0.057211,0.057211,0.057211,0.057211,0.057211},
{-0.049115,-0.049115,-0.049115,-0.049115,-0.049115,-0.049115,-0.049115,-0.049115,-0.049115,-0.049115,-0.049115,-0.049115,-0.049115,-0.049115,-0.049115,-0.049115},
{-0.013214,-0.013214,-0.013214,-0.013214,-0.013214,-0.013214,-0.013214,-0.013214,-0.013214,-0.013214,-0.013214,-0.013214,-0.013214,-0.013214,-0.013214,-0.013214},
{-0.045375,-0.045375,-0.045375,-0.045375,-0.045375,-0.045375,-0.045375,-0.045375,-0.045375,-0.045375,-0.045375,-0.045375,-0.045375,-0.045375,-0.045375,-0.045375},
{-0.097092,-0.097092,-0.097092,-0.097092,-0.097092,-0.097092,-0.097092,-0.097092,-0.097092,-0.097092,-0.097092,-0.097092,-0.097092,-0.097092,-0.097092,-0.097092},
{-0.008621,-0.008621,-0.008621,-0.008621,-0.008621,-0.008621,-0.008621,-0.008621,-0.008621,-0.008621,-0.008621,-0.008621,-0.008621,-0.008621,-0.008621,-0.008621},
{-0.088982,-0.088982,-0.088982,-0.088982,-0.088982,-0.088982,-0.088982,-0.088982,-0.088982,-0.088982,-0.088982,-0.088982,-0.088982,-0.088982,-0.088982,-0.088982},
{0.082170,0.082170,0.082170,0.082170,0.082170,0.082170,0.082170,0.082170,0.082170,0.082170,0.082170,0.082170,0.082170,0.082170,0.082170,0.082170},
{-0.022549,-0.022549,-0.022549,-0.022549,-0.022549,-0.022549,-0.022549,-0.022549,-0.022549,-0.022549,-0.022549,-0.022549,-0.022549,-0.022549,-0.022549,-0.022549},
{-0.035126,-0.035126,-0.035126,-0.035126,-0.035126,-0.035126,-0.035126,-0.035126,-0.035126,-0.035126,-0.035126,-0.035126,-0.035126,-0.035126,-0.035126,-0.035126},
{-0.044005,-0.044005,-0.044005,-0.044005,-0.044005,-0.044005,-0.044005,-0.044005,-0.044005,-0.044005,-0.044005,-0.044005,-0.044005,-0.044005,-0.044005,-0.044005},
{-0.010372,-0.010372,-0.010372,-0.010372,-0.010372,-0.010372,-0.010372,-0.010372,-0.010372,-0.010372,-0.010372,-0.010372,-0.010372,-0.010372,-0.010372,-0.010372},
{0.052384,0.052384,0.052384,0.052384,0.052384,0.052384,0.052384,0.052384,0.052384,0.052384,0.052384,0.052384,0.052384,0.052384,0.052384,0.052384},
{0.062503,0.062503,0.062503,0.062503,0.062503,0.062503,0.062503,0.062503,0.062503,0.062503,0.062503,0.062503,0.062503,0.062503,0.062503,0.062503},
{0.114021,0.114021,0.114021,0.114021,0.114021,0.114021,0.114021,0.114021,0.114021,0.114021,0.114021,0.114021,0.114021,0.114021,0.114021,0.114021},
{0.007581,0.007581,0.007581,0.007581,0.007581,0.007581,0.007581,0.007581,0.007581,0.007581,0.007581,0.007581,0.007581,0.007581,0.007581,0.007581},
{-0.079022,-0.079022,-0.079022,-0.079022,-0.079022,-0.079022,-0.079022,-0.079022,-0.079022,-0.079022,-0.079022,-0.079022,-0.079022,-0.079022,-0.079022,-0.079022},
{-0.008462,-0.008462,-0.008462,-0.008462,-0.008462,-0.008462,-0.008462,-0.008462,-0.008462,-0.008462,-0.008462,-0.008462,-0.008462,-0.008462,-0.008462,-0.008462},
{0.017191,0.017191,0.017191,0.017191,0.017191,0.017191,0.017191,0.017191,0.017191,0.017191,0.017191,0.017191,0.017191,0.017191,0.017191,0.017191},
{0.010310,0.010310,0.010310,0.010310,0.010310,0.010310,0.010310,0.010310,0.010310,0.010310,0.010310,0.010310,0.010310,0.010310,0.010310,0.010310},
{-0.006528,-0.006528,-0.006528,-0.006528,-0.006528,-0.006528,-0.006528,-0.006528,-0.006528,-0.006528,-0.006528,-0.006528,-0.006528,-0.006528,-0.006528,-0.006528},
{0.057818,0.057818,0.057818,0.057818,0.057818,0.057818,0.057818,0.057818,0.057818,0.057818,0.057818,0.057818,0.057818,0.057818,0.057818,0.057818},
{0.080084,0.080084,0.080084,0.080084,0.080084,0.080084,0.080084,0.080084,0.080084,0.080084,0.080084,0.080084,0.080084,0.080084,0.080084,0.080084},
{-0.074363,-0.074363,-0.074363,-0.074363,-0.074363,-0.074363,-0.074363,-0.074363,-0.074363,-0.074363,-0.074363,-0.074363,-0.074363,-0.074363,-0.074363,-0.074363},
{-0.059838,-0.059838,-0.059838,-0.059838,-0.059838,-0.059838,-0.059838,-0.059838,-0.059838,-0.059838,-0.059838,-0.059838,-0.059838,-0.059838,-0.059838,-0.059838},
{0.035099,0.035099,0.035099,0.035099,0.035099,0.035099,0.035099,0.035099,0.035099,0.035099,0.035099,0.035099,0.035099,0.035099,0.035099,0.035099},
{-0.006154,-0.006154,-0.006154,-0.006154,-0.006154,-0.006154,-0.006154,-0.006154,-0.006154,-0.006154,-0.006154,-0.006154,-0.006154,-0.006154,-0.006154,-0.006154},
{0.083168,0.083168,0.083168,0.083168,0.083168,0.083168,0.083168,0.083168,0.083168,0.083168,0.083168,0.083168,0.083168,0.083168,0.083168,0.083168},
{-0.022351,-0.022351,-0.022351,-0.022351,-0.022351,-0.022351,-0.022351,-0.022351,-0.022351,-0.022351,-0.022351,-0.022351,-0.022351,-0.022351,-0.022351,-0.022351},
{0.035059,0.035059,0.035059,0.035059,0.035059,0.035059,0.035059,0.035059,0.035059,0.035059,0.035059,0.035059,0.035059,0.035059,0.035059,0.035059},
{-0.063161,-0.063161,-0.063161,-0.063161,-0.063161,-0.063161,-0.063161,-0.063161,-0.063161,-0.063161,-0.063161,-0.063161,-0.063161,-0.063161,-0.063161,-0.063161},
{0.070310,0.070310,0.070310,0.070310,0.070310,0.070310,0.070310,0.070310,0.070310,0.070310,0.070310,0.070310,0.070310,0.070310,0.070310,0.070310},
{0.104124,0.104124,0.104124,0.104124,0.104124,0.104124,0.104124,0.104124,0.104124,0.104124,0.104124,0.104124,0.104124,0.104124,0.104124,0.104124},
{-0.013932,-0.013932,-0.013932,-0.013932,-0.013932,-0.013932,-0.013932,-0.013932,-0.013932,-0.013932,-0.013932,-0.013932,-0.013932,-0.013932,-0.013932,-0.013932},
{0.125319,0.125319,0.125319,0.125319,0.125319,0.125319,0.125319,0.125319,0.125319,0.125319,0.125319,0.125319,0.125319,0.125319,0.125319,0.125319},
{0.014563,0.014563,0.014563,0.014563,0.014563,0.014563,0.014563,0.014563,0.014563,0.014563,0.014563,0.014563,0.014563,0.014563,0.014563,0.014563},
{-0.036519,-0.036519,-0.036519,-0.036519,-0.036519,-0.036519,-0.036519,-0.036519,-0.036519,-0.036519,-0.036519,-0.036519,-0.036519,-0.036519,-0.036519,-0.036519},
{0.003576,0.003576,0.003576,0.003576,0.003576,0.003576,0.003576,0.003576,0.003576,0.003576,0.003576,0.003576,0.003576,0.003576,0.003576,0.003576},
{-0.065529,-0.065529,-0.065529,-0.065529,-0.065529,-0.065529,-0.065529,-0.065529,-0.065529,-0.065529,-0.065529,-0.065529,-0.065529,-0.065529,-0.065529,-0.065529},
{0.064427,0.064427,0.064427,0.064427,0.064427,0.064427,0.064427,0.064427,0.064427,0.064427,0.064427,0.064427,0.064427,0.064427,0.064427,0.064427},
{0.024957,0.024957,0.024957,0.024957,0.024957,0.024957,0.024957,0.024957,0.024957,0.024957,0.024957,0.024957,0.024957,0.024957,0.024957,0.024957},
{0.032016,0.032016,0.032016,0.032016,0.032016,0.032016,0.032016,0.032016,0.032016,0.032016,0.032016,0.032016,0.032016,0.032016,0.032016,0.032016},
{0.023163,0.023163,0.023163,0.023163,0.023163,0.023163,0.023163,0.023163,0.023163,0.023163,0.023163,0.023163,0.023163,0.023163,0.023163,0.023163},
{0.011671,0.011671,0.011671,0.011671,0.011671,0.011671,0.011671,0.011671,0.011671,0.011671,0.011671,0.011671,0.011671,0.011671,0.011671,0.011671},
{0.086571,0.086571,0.086571,0.086571,0.086571,0.086571,0.086571,0.086571,0.086571,0.086571,0.086571,0.086571,0.086571,0.086571,0.086571,0.086571},
{0.062305,0.062305,0.062305,0.062305,0.062305,0.062305,0.062305,0.062305,0.062305,0.062305,0.062305,0.062305,0.062305,0.062305,0.062305,0.062305},
{0.009254,0.009254,0.009254,0.009254,0.009254,0.009254,0.009254,0.009254,0.009254,0.009254,0.009254,0.009254,0.009254,0.009254,0.009254,0.009254},
{-0.051598,-0.051598,-0.051598,-0.051598,-0.051598,-0.051598,-0.051598,-0.051598,-0.051598,-0.051598,-0.051598,-0.051598,-0.051598,-0.051598,-0.051598,-0.051598},
{-0.045312,-0.045312,-0.045312,-0.045312,-0.045312,-0.045312,-0.045312,-0.045312,-0.045312,-0.045312,-0.045312,-0.045312,-0.045312,-0.045312,-0.045312,-0.045312},
{-0.013705,-0.013705,-0.013705,-0.013705,-0.013705,-0.013705,-0.013705,-0.013705,-0.013705,-0.013705,-0.013705,-0.013705,-0.013705,-0.013705,-0.013705,-0.013705},
{0.077084,0.077084,0.077084,0.077084,0.077084,0.077084,0.077084,0.077084,0.077084,0.077084,0.077084,0.077084,0.077084,0.077084,0.077084,0.077084},
{0.054782,0.054782,0.054782,0.054782,0.054782,0.054782,0.054782,0.054782,0.054782,0.054782,0.054782,0.054782,0.054782,0.054782,0.054782,0.054782},
{0.042524,0.042524,0.042524,0.042524,0.042524,0.042524,0.042524,0.042524,0.042524,0.042524,0.042524,0.042524,0.042524,0.042524,0.042524,0.042524},
{-0.051501,-0.051501,-0.051501,-0.051501,-0.051501,-0.051501,-0.051501,-0.051501,-0.051501,-0.051501,-0.051501,-0.051501,-0.051501,-0.051501,-0.051501,-0.051501},
{0.103259,0.103259,0.103259,0.103259,0.103259,0.103259,0.103259,0.103259,0.103259,0.103259,0.103259,0.103259,0.103259,0.103259,0.103259,0.103259},
{0.098735,0.098735,0.098735,0.098735,0.098735,0.098735,0.098735,0.098735,0.098735,0.098735,0.098735,0.098735,0.098735,0.098735,0.098735,0.098735},
{-0.062055,-0.062055,-0.062055,-0.062055,-0.062055,-0.062055,-0.062055,-0.062055,-0.062055,-0.062055,-0.062055,-0.062055,-0.062055,-0.062055,-0.062055,-0.062055},
{0.072196,0.072196,0.072196,0.072196,0.072196,0.072196,0.072196,0.072196,0.072196,0.072196,0.072196,0.072196,0.072196,0.072196,0.072196,0.072196},
{0.077025,0.077025,0.077025,0.077025,0.077025,0.077025,0.077025,0.077025,0.077025,0.077025,0.077025,0.077025,0.077025,0.077025,0.077025,0.077025},
