constant half3 weights_8[256*512] = {
{0.001958,0.001958,0.001958},
{0.013424,0.013424,0.013424},
{-0.015105,-0.015105,-0.015105},
{0.055865,0.055865,0.055865},
{-0.096036,-0.096036,-0.096036},
{0.034511,0.034511,0.034511},
{0.002305,0.002305,0.002305},
{0.061401,0.061401,0.061401},
{-0.009425,-0.009425,-0.009425},
{-0.045239,-0.045239,-0.045239},
{-0.007449,-0.007449,-0.007449},
{-0.035820,-0.035820,-0.035820},
{-0.041909,-0.041909,-0.041909},
{-0.037785,-0.037785,-0.037785},
{0.017769,0.017769,0.017769},
{0.040715,0.040715,0.040715},
{0.022603,0.022603,0.022603},
{-0.070229,-0.070229,-0.070229},
{0.049702,0.049702,0.049702},
{-0.094508,-0.094508,-0.094508},
{-0.008030,-0.008030,-0.008030},
{0.038231,0.038231,0.038231},
{0.042510,0.042510,0.042510},
{-0.029412,-0.029412,-0.029412},
{-0.050083,-0.050083,-0.050083},
{0.005610,0.005610,0.005610},
{0.059726,0.059726,0.059726},
{0.017962,0.017962,0.017962},
{0.075600,0.075600,0.075600},
{-0.070080,-0.070080,-0.070080},
{-0.055926,-0.055926,-0.055926},
{0.029939,0.029939,0.029939},
{-0.078767,-0.078767,-0.078767},
{-0.002870,-0.002870,-0.002870},
{0.047905,0.047905,0.047905},
{0.083734,0.083734,0.083734},
{-0.088577,-0.088577,-0.088577},
{0.063669,0.063669,0.063669},
{-0.004488,-0.004488,-0.004488},
{0.047955,0.047955,0.047955},
{-0.023793,-0.023793,-0.023793},
{-0.000859,-0.000859,-0.000859},
{-0.008520,-0.008520,-0.008520},
{-0.012999,-0.012999,-0.012999},
{-0.042556,-0.042556,-0.042556},
{-0.022343,-0.022343,-0.022343},
{-0.006421,-0.006421,-0.006421},
{0.040149,0.040149,0.040149},
{-0.058663,-0.058663,-0.058663},
{-0.023475,-0.023475,-0.023475},
{-0.037327,-0.037327,-0.037327},
{0.002147,0.002147,0.002147},
{-0.144870,-0.144870,-0.144870},
{0.027599,0.027599,0.027599},
{-0.055982,-0.055982,-0.055982},
{0.026941,0.026941,0.026941},
{0.031925,0.031925,0.031925},
{-0.040819,-0.040819,-0.040819},
{-0.051034,-0.051034,-0.051034},
{0.075100,0.075100,0.075100},
{0.017246,0.017246,0.017246},
{0.070840,0.070840,0.070840},
{-0.041069,-0.041069,-0.041069},
{-0.008563,-0.008563,-0.008563},
{0.075162,0.075162,0.075162},
{-0.049683,-0.049683,-0.049683},
{-0.035425,-0.035425,-0.035425},
{0.075069,0.075069,0.075069},
{-0.005789,-0.005789,-0.005789},
{0.012604,0.012604,0.012604},
{-0.020162,-0.020162,-0.020162},
{-0.076873,-0.076873,-0.076873},
{0.000076,0.000076,0.000076},
{-0.018205,-0.018205,-0.018205},
{0.026569,0.026569,0.026569},
{-0.015324,-0.015324,-0.015324},
{-0.062508,-0.062508,-0.062508},
{-0.007965,-0.007965,-0.007965},
{0.040324,0.040324,0.040324},
{-0.058291,-0.058291,-0.058291},
{-0.152912,-0.152912,-0.152912},
{0.016791,0.016791,0.016791},
{0.063293,0.063293,0.063293},
{0.096306,0.096306,0.096306},
{-0.066730,-0.066730,-0.066730},
{-0.008355,-0.008355,-0.008355},
{-0.016486,-0.016486,-0.016486},
{0.089456,0.089456,0.089456},
{0.011846,0.011846,0.011846},
{0.102753,0.102753,0.102753},
{-0.082243,-0.082243,-0.082243},
{-0.025191,-0.025191,-0.025191},
{-0.072372,-0.072372,-0.072372},
{-0.033920,-0.033920,-0.033920},
{0.062062,0.062062,0.062062},
{0.116720,0.116720,0.116720},
{0.034401,0.034401,0.034401},
{0.011789,0.011789,0.011789},
{0.094318,0.094318,0.094318},
{0.087359,0.087359,0.087359},
{0.001267,0.001267,0.001267},
{-0.022708,-0.022708,-0.022708},
{0.038143,0.038143,0.038143},
{-0.026561,-0.026561,-0.026561},
{-0.017550,-0.017550,-0.017550},
{0.028209,0.028209,0.028209},
{-0.003431,-0.003431,-0.003431},
{0.001225,0.001225,0.001225},
{0.058179,0.058179,0.058179},
{-0.087654,-0.087654,-0.087654},
{0.039244,0.039244,0.039244},
{0.026300,0.026300,0.026300},
{0.072228,0.072228,0.072228},
{0.042843,0.042843,0.042843},
{0.028442,0.028442,0.028442},
{0.005424,0.005424,0.005424},
{0.085082,0.085082,0.085082},
{-0.026848,-0.026848,-0.026848},
{-0.137223,-0.137223,-0.137223},
{0.123875,0.123875,0.123875},
{0.041236,0.041236,0.041236},
{0.076217,0.076217,0.076217},
{-0.029299,-0.029299,-0.029299},
{-0.013747,-0.013747,-0.013747},
{-0.014854,-0.014854,-0.014854},
{0.076370,0.076370,0.076370},
{-0.012865,-0.012865,-0.012865},
{0.040781,0.040781,0.040781},
{-0.062679,-0.062679,-0.062679},
{-0.071327,-0.071327,-0.071327},
{-0.023931,-0.023931,-0.023931},
{0.062513,0.062513,0.062513},
{-0.038883,-0.038883,-0.038883},
{0.012166,0.012166,0.012166},
{-0.031705,-0.031705,-0.031705},
{0.059474,0.059474,0.059474},
{0.010312,0.010312,0.010312},
{-0.108637,-0.108637,-0.108637},
{-0.047046,-0.047046,-0.047046},
{0.018328,0.018328,0.018328},
{0.014851,0.014851,0.014851},
{0.123664,0.123664,0.123664},
{0.046787,0.046787,0.046787},
{0.073067,0.073067,0.073067},
{-0.094694,-0.094694,-0.094694},
{-0.036183,-0.036183,-0.036183},
{-0.076264,-0.076264,-0.076264},
{-0.015675,-0.015675,-0.015675},
{-0.123683,-0.123683,-0.123683},
{-0.025973,-0.025973,-0.025973},
{0.016347,0.016347,0.016347},
{-0.006200,-0.006200,-0.006200},
{-0.102620,-0.102620,-0.102620},
{0.072246,0.072246,0.072246},
{0.059189,0.059189,0.059189},
{0.021328,0.021328,0.021328},
{0.097489,0.097489,0.097489},
{-0.049904,-0.049904,-0.049904},
{-0.048122,-0.048122,-0.048122},
{0.018890,0.018890,0.018890},
{0.039421,0.039421,0.039421},
{-0.074147,-0.074147,-0.074147},
{-0.013929,-0.013929,-0.013929},
{0.056157,0.056157,0.056157},
{-0.099501,-0.099501,-0.099501},
{-0.038457,-0.038457,-0.038457},
{-0.001274,-0.001274,-0.001274},
{0.102405,0.102405,0.102405},
{0.004044,0.004044,0.004044},
{0.034170,0.034170,0.034170},
{-0.019218,-0.019218,-0.019218},
{0.068394,0.068394,0.068394},
{0.105853,0.105853,0.105853},
{0.007307,0.007307,0.007307},
{-0.093348,-0.093348,-0.093348},
{-0.022316,-0.022316,-0.022316},
{-0.129558,-0.129558,-0.129558},
{0.029719,0.029719,0.029719},
{0.000299,0.000299,0.000299},
{-0.049718,-0.049718,-0.049718},
{0.037634,0.037634,0.037634},
{0.042651,0.042651,0.042651},
{0.011928,0.011928,0.011928},
{0.101238,0.101238,0.101238},
{-0.042077,-0.042077,-0.042077},
{-0.027151,-0.027151,-0.027151},
{-0.011960,-0.011960,-0.011960},
{-0.058331,-0.058331,-0.058331},
{0.046383,0.046383,0.046383},
{0.142522,0.142522,0.142522},
{-0.091415,-0.091415,-0.091415},
{0.032562,0.032562,0.032562},
{-0.080839,-0.080839,-0.080839},
{0.009735,0.009735,0.009735},
{0.034150,0.034150,0.034150},
{-0.041964,-0.041964,-0.041964},
{0.083701,0.083701,0.083701},
{0.095044,0.095044,0.095044},
{-0.081993,-0.081993,-0.081993},
{-0.053122,-0.053122,-0.053122},
{-0.094721,-0.094721,-0.094721},
{-0.084932,-0.084932,-0.084932},
{0.026737,0.026737,0.026737},
{0.071213,0.071213,0.071213},
{-0.063289,-0.063289,-0.063289},
{-0.034790,-0.034790,-0.034790},
{0.003411,0.003411,0.003411},
{-0.103595,-0.103595,-0.103595},
{-0.081374,-0.081374,-0.081374},
{0.080790,0.080790,0.080790},
{-0.010301,-0.010301,-0.010301},
{0.059176,0.059176,0.059176},
{-0.079028,-0.079028,-0.079028},
{0.045072,0.045072,0.045072},
{-0.080466,-0.080466,-0.080466},
{-0.066949,-0.066949,-0.066949},
{-0.024857,-0.024857,-0.024857},
{0.049846,0.049846,0.049846},
{0.010180,0.010180,0.010180},
{0.002299,0.002299,0.002299},
{-0.081140,-0.081140,-0.081140},
{0.078240,0.078240,0.078240},
{-0.014462,-0.014462,-0.014462},
{-0.018584,-0.018584,-0.018584},
{0.037474,0.037474,0.037474},
{-0.042301,-0.042301,-0.042301},
{-0.069657,-0.069657,-0.069657},
{-0.031886,-0.031886,-0.031886},
{-0.057259,-0.057259,-0.057259},
{0.010014,0.010014,0.010014},
{-0.033936,-0.033936,-0.033936},
{0.021268,0.021268,0.021268},
{-0.052657,-0.052657,-0.052657},
{0.049604,0.049604,0.049604},
{-0.001548,-0.001548,-0.001548},
{0.011179,0.011179,0.011179},
{-0.059401,-0.059401,-0.059401},
{-0.162861,-0.162861,-0.162861},
{0.000065,0.000065,0.000065},
{-0.044466,-0.044466,-0.044466},
{0.015474,0.015474,0.015474},
{-0.051468,-0.051468,-0.051468},
{0.115810,0.115810,0.115810},
{-0.104405,-0.104405,-0.104405},
{0.006021,0.006021,0.006021},
{-0.024525,-0.024525,-0.024525},
{-0.031767,-0.031767,-0.031767},
{-0.100894,-0.100894,-0.100894},
{0.080211,0.080211,0.080211},
{-0.053286,-0.053286,-0.053286},
{-0.070243,-0.070243,-0.070243},
{-0.188228,-0.188228,-0.188228},
{0.016324,0.016324,0.016324},
{0.002301,0.002301,0.002301},
{0.043295,0.043295,0.043295},
{-0.160110,-0.160110,-0.160110},
{-0.069212,-0.069212,-0.069212},
{-0.105823,-0.105823,-0.105823},
{-0.204708,-0.204708,-0.204708},
{0.060169,0.060169,0.060169},
{0.076579,0.076579,0.076579},
{0.013086,0.013086,0.013086},
{-0.107350,-0.107350,-0.107350},
{0.128352,0.128352,0.128352},
{-0.076869,-0.076869,-0.076869},
{-0.082868,-0.082868,-0.082868},
{0.028621,0.028621,0.028621},
{0.060095,0.060095,0.060095},
{-0.054749,-0.054749,-0.054749},
{0.079420,0.079420,0.079420},
{0.049633,0.049633,0.049633},
{-0.095321,-0.095321,-0.095321},
{-0.005463,-0.005463,-0.005463},
{-0.051799,-0.051799,-0.051799},
{-0.137889,-0.137889,-0.137889},
{0.020678,0.020678,0.020678},
{0.013133,0.013133,0.013133},
{0.176184,0.176184,0.176184},
{0.034649,0.034649,0.034649},
{-0.058427,-0.058427,-0.058427},
{-0.061814,-0.061814,-0.061814},
{-0.076299,-0.076299,-0.076299},
{-0.018317,-0.018317,-0.018317},
{0.072815,0.072815,0.072815},
{-0.000508,-0.000508,-0.000508},
{-0.126822,-0.126822,-0.126822},
{-0.003471,-0.003471,-0.003471},
{-0.043041,-0.043041,-0.043041},
{-0.067222,-0.067222,-0.067222},
{0.116341,0.116341,0.116341},
{-0.028404,-0.028404,-0.028404},
{-0.039409,-0.039409,-0.039409},
{0.078925,0.078925,0.078925},
{0.065383,0.065383,0.065383},
{0.059382,0.059382,0.059382},
{-0.026160,-0.026160,-0.026160},
{-0.121556,-0.121556,-0.121556},
{-0.045018,-0.045018,-0.045018},
{0.002625,0.002625,0.002625},
{-0.075644,-0.075644,-0.075644},
{-0.059810,-0.059810,-0.059810},
{0.047937,0.047937,0.047937},
{-0.038043,-0.038043,-0.038043},
{-0.037229,-0.037229,-0.037229},
{-0.123994,-0.123994,-0.123994},
{0.035636,0.035636,0.035636},
{0.096877,0.096877,0.096877},
{-0.076929,-0.076929,-0.076929},
{-0.072512,-0.072512,-0.072512},
{-0.038371,-0.038371,-0.038371},
{0.061490,0.061490,0.061490},
{0.044981,0.044981,0.044981},
{-0.016552,-0.016552,-0.016552},
{-0.085152,-0.085152,-0.085152},
{-0.025684,-0.025684,-0.025684},
{-0.115218,-0.115218,-0.115218},
{-0.031425,-0.031425,-0.031425},
{-0.042577,-0.042577,-0.042577},
{0.058428,0.058428,0.058428},
{0.047281,0.047281,0.047281},
{-0.039627,-0.039627,-0.039627},
{0.149069,0.149069,0.149069},
{0.002189,0.002189,0.002189},
{-0.169824,-0.169824,-0.169824},
{0.006563,0.006563,0.006563},
{0.139459,0.139459,0.139459},
{0.014759,0.014759,0.014759},
{0.081184,0.081184,0.081184},
{-0.063104,-0.063104,-0.063104},
{0.006762,0.006762,0.006762},
{0.102484,0.102484,0.102484},
{-0.001252,-0.001252,-0.001252},
{-0.031683,-0.031683,-0.031683},
{0.022698,0.022698,0.022698},
{0.002943,0.002943,0.002943},
{-0.032994,-0.032994,-0.032994},
{0.025895,0.025895,0.025895},
{-0.056171,-0.056171,-0.056171},
{0.039570,0.039570,0.039570},
{-0.033610,-0.033610,-0.033610},
{-0.074260,-0.074260,-0.074260},
{0.083680,0.083680,0.083680},
{0.037267,0.037267,0.037267},
{-0.108811,-0.108811,-0.108811},
{-0.064136,-0.064136,-0.064136},
{0.051592,0.051592,0.051592},
{-0.061116,-0.061116,-0.061116},
{0.010410,0.010410,0.010410},
{0.037334,0.037334,0.037334},
{-0.071709,-0.071709,-0.071709},
{-0.023168,-0.023168,-0.023168},
{0.005747,0.005747,0.005747},
{0.082074,0.082074,0.082074},
{0.055845,0.055845,0.055845},
{-0.086638,-0.086638,-0.086638},
{-0.016903,-0.016903,-0.016903},
{-0.031619,-0.031619,-0.031619},
{0.019637,0.019637,0.019637},
{-0.021059,-0.021059,-0.021059},
{0.070160,0.070160,0.070160},
{0.077357,0.077357,0.077357},
{0.106697,0.106697,0.106697},
{-0.017123,-0.017123,-0.017123},
{-0.011048,-0.011048,-0.011048},
{0.118905,0.118905,0.118905},
{-0.013645,-0.013645,-0.013645},
{0.018270,0.018270,0.018270},
{-0.048055,-0.048055,-0.048055},
{-0.136934,-0.136934,-0.136934},
{0.090841,0.090841,0.090841},
{0.112846,0.112846,0.112846},
{0.094394,0.094394,0.094394},
{0.006040,0.006040,0.006040},
{-0.069835,-0.069835,-0.069835},
{-0.017235,-0.017235,-0.017235},
{-0.048765,-0.048765,-0.048765},
{0.019512,0.019512,0.019512},
{0.053859,0.053859,0.053859},
{0.035300,0.035300,0.035300},
{0.073317,0.073317,0.073317},
{0.036893,0.036893,0.036893},
{-0.133201,-0.133201,-0.133201},
{-0.049254,-0.049254,-0.049254},
{-0.054300,-0.054300,-0.054300},
{-0.024683,-0.024683,-0.024683},
{0.001433,0.001433,0.001433},
{-0.099815,-0.099815,-0.099815},
{0.062193,0.062193,0.062193},
{0.022178,0.022178,0.022178},
{-0.072242,-0.072242,-0.072242},
{-0.063775,-0.063775,-0.063775},
{-0.050898,-0.050898,-0.050898},
{-0.021657,-0.021657,-0.021657},
{0.070100,0.070100,0.070100},
{0.049624,0.049624,0.049624},
{-0.042849,-0.042849,-0.042849},
{0.087089,0.087089,0.087089},
{-0.025784,-0.025784,-0.025784},
{-0.014352,-0.014352,-0.014352},
{-0.001395,-0.001395,-0.001395},
{-0.114439,-0.114439,-0.114439},
{0.128149,0.128149,0.128149},
{0.007502,0.007502,0.007502},
{0.007907,0.007907,0.007907},
{0.072239,0.072239,0.072239},
{0.096034,0.096034,0.096034},
{0.047793,0.047793,0.047793},
{-0.010947,-0.010947,-0.010947},
{-0.033855,-0.033855,-0.033855},
{-0.047005,-0.047005,-0.047005},
{-0.014942,-0.014942,-0.014942},
{0.081195,0.081195,0.081195},
{0.058152,0.058152,0.058152},
{0.019700,0.019700,0.019700},
{0.057654,0.057654,0.057654},
{-0.019800,-0.019800,-0.019800},
{0.029161,0.029161,0.029161},
{-0.003643,-0.003643,-0.003643},
{0.041045,0.041045,0.041045},
{0.082260,0.082260,0.082260},
{0.025296,0.025296,0.025296},
{0.038545,0.038545,0.038545},
{0.039503,0.039503,0.039503},
{0.025688,0.025688,0.025688},
{0.083383,0.083383,0.083383},
{0.021020,0.021020,0.021020},
{0.061497,0.061497,0.061497},
{0.001990,0.001990,0.001990},
{0.039434,0.039434,0.039434},
{-0.037200,-0.037200,-0.037200},
{-0.023269,-0.023269,-0.023269},
{0.009944,0.009944,0.009944},
{0.060437,0.060437,0.060437},
{0.104383,0.104383,0.104383},
{-0.108960,-0.108960,-0.108960},
{0.036084,0.036084,0.036084},
{-0.051397,-0.051397,-0.051397},
{0.059261,0.059261,0.059261},
{0.019187,0.019187,0.019187},
{0.081477,0.081477,0.081477},
{-0.041835,-0.041835,-0.041835},
{0.013543,0.013543,0.013543},
{0.004564,0.004564,0.004564},
{-0.021951,-0.021951,-0.021951},
{-0.084782,-0.084782,-0.084782},
{0.039791,0.039791,0.039791},
{-0.038691,-0.038691,-0.038691},
{-0.007782,-0.007782,-0.007782},
{-0.014796,-0.014796,-0.014796},
{0.007994,0.007994,0.007994},
{-0.033538,-0.033538,-0.033538},
{-0.103522,-0.103522,-0.103522},
{-0.042882,-0.042882,-0.042882},
{-0.062378,-0.062378,-0.062378},
{0.016333,0.016333,0.016333},
{0.049317,0.049317,0.049317},
{0.004824,0.004824,0.004824},
{0.060135,0.060135,0.060135},
{-0.035360,-0.035360,-0.035360},
{0.063194,0.063194,0.063194},
{-0.006990,-0.006990,-0.006990},
{0.012882,0.012882,0.012882},
{-0.021119,-0.021119,-0.021119},
{-0.055795,-0.055795,-0.055795},
{-0.030193,-0.030193,-0.030193},
{-0.094858,-0.094858,-0.094858},
{0.037803,0.037803,0.037803},
{0.041062,0.041062,0.041062},
{-0.119279,-0.119279,-0.119279},
{-0.021068,-0.021068,-0.021068},
{-0.033618,-0.033618,-0.033618},
{-0.096068,-0.096068,-0.096068},
{0.055720,0.055720,0.055720},
{-0.052504,-0.052504,-0.052504},
{0.030588,0.030588,0.030588},
{-0.085236,-0.085236,-0.085236},
{-0.006438,-0.006438,-0.006438},
{-0.038735,-0.038735,-0.038735},
{-0.051114,-0.051114,-0.051114},
{0.081343,0.081343,0.081343},
{0.020595,0.020595,0.020595},
{0.006209,0.006209,0.006209},
{0.048306,0.048306,0.048306},
{0.041191,0.041191,0.041191},
{0.003403,0.003403,0.003403},
{0.069010,0.069010,0.069010},
{-0.020229,-0.020229,-0.020229},
{-0.003186,-0.003186,-0.003186},
{-0.034270,-0.034270,-0.034270},
{-0.134387,-0.134387,-0.134387},
{0.009627,0.009627,0.009627},
{0.030534,0.030534,0.030534},
{-0.079855,-0.079855,-0.079855},
{-0.035432,-0.035432,-0.035432},
{-0.093954,-0.093954,-0.093954},
{-0.084499,-0.084499,-0.084499},
{-0.006484,-0.006484,-0.006484},
{-0.005713,-0.005713,-0.005713},
{-0.043755,-0.043755,-0.043755},
{-0.043190,-0.043190,-0.043190},
{0.045237,0.045237,0.045237},
{-0.040895,-0.040895,-0.040895},
{-0.103854,-0.103854,-0.103854},
{0.003613,0.003613,0.003613},
{-0.053335,-0.053335,-0.053335},
{-0.020586,-0.020586,-0.020586},
{0.070118,0.070118,0.070118},
{0.077194,0.077194,0.077194},
{-0.075528,-0.075528,-0.075528},
{-0.019253,-0.019253,-0.019253},
{0.048542,0.048542,0.048542},
{0.032651,0.032651,0.032651},
{-0.076870,-0.076870,-0.076870},
{0.018264,0.018264,0.018264},
{-0.051941,-0.051941,-0.051941},
{0.023101,0.023101,0.023101},
{0.053496,0.053496,0.053496},
{-0.011687,-0.011687,-0.011687},
{-0.057996,-0.057996,-0.057996},
{-0.006511,-0.006511,-0.006511},
{0.006790,0.006790,0.006790},
{0.056325,0.056325,0.056325},
{-0.036959,-0.036959,-0.036959},
{0.000713,0.000713,0.000713},
{0.061007,0.061007,0.061007},
{0.053916,0.053916,0.053916},
{-0.047852,-0.047852,-0.047852},
{0.090281,0.090281,0.090281},
{0.142685,0.142685,0.142685},
{-0.020200,-0.020200,-0.020200},
{-0.067811,-0.067811,-0.067811},
{-0.009040,-0.009040,-0.009040},
{-0.074771,-0.074771,-0.074771},
{0.007076,0.007076,0.007076},
{-0.065611,-0.065611,-0.065611},
{-0.062764,-0.062764,-0.062764},
{0.009535,0.009535,0.009535},
{0.070003,0.070003,0.070003},
{-0.046068,-0.046068,-0.046068},
{-0.056071,-0.056071,-0.056071},
{0.016889,0.016889,0.016889},
{-0.014523,-0.014523,-0.014523},
{-0.029075,-0.029075,-0.029075},
{-0.055567,-0.055567,-0.055567},
{-0.117942,-0.117942,-0.117942},
{-0.024039,-0.024039,-0.024039},
{0.011789,0.011789,0.011789},
{0.016714,0.016714,0.016714},
{-0.025165,-0.025165,-0.025165},
{0.038598,0.038598,0.038598},
{0.055533,0.055533,0.055533},
{0.048461,0.048461,0.048461},
{-0.027478,-0.027478,-0.027478},
{-0.051861,-0.051861,-0.051861},
{0.027186,0.027186,0.027186},
{0.057445,0.057445,0.057445},
{-0.021416,-0.021416,-0.021416},
{-0.058492,-0.058492,-0.058492},
{-0.050667,-0.050667,-0.050667},
{0.003766,0.003766,0.003766},
{-0.060732,-0.060732,-0.060732},
{0.031218,0.031218,0.031218},
{0.028737,0.028737,0.028737},
{-0.010519,-0.010519,-0.010519},
{-0.025448,-0.025448,-0.025448},
{-0.071695,-0.071695,-0.071695},
{0.039361,0.039361,0.039361},
{-0.040560,-0.040560,-0.040560},
{0.070482,0.070482,0.070482},
{-0.046356,-0.046356,-0.046356},
{-0.074149,-0.074149,-0.074149},
{0.001148,0.001148,0.001148},
{-0.085619,-0.085619,-0.085619},
{0.058031,0.058031,0.058031},
{0.058474,0.058474,0.058474},
{-0.040656,-0.040656,-0.040656},
{-0.067752,-0.067752,-0.067752},
{-0.021756,-0.021756,-0.021756},
{-0.120019,-0.120019,-0.120019},
{-0.053073,-0.053073,-0.053073},
{-0.156035,-0.156035,-0.156035},
{-0.081818,-0.081818,-0.081818},
{-0.018607,-0.018607,-0.018607},
{0.055337,0.055337,0.055337},
{0.051834,0.051834,0.051834},
{0.019404,0.019404,0.019404},
{-0.014798,-0.014798,-0.014798},
{-0.033893,-0.033893,-0.033893},
{-0.011030,-0.011030,-0.011030},
{0.035432,0.035432,0.035432},
{0.107791,0.107791,0.107791},
{-0.044131,-0.044131,-0.044131},
{0.039834,0.039834,0.039834},
{0.096220,0.096220,0.096220},
{-0.083070,-0.083070,-0.083070},
{-0.050533,-0.050533,-0.050533},
{-0.056795,-0.056795,-0.056795},
{-0.051734,-0.051734,-0.051734},
{0.038404,0.038404,0.038404},
{-0.002663,-0.002663,-0.002663},
{-0.062272,-0.062272,-0.062272},
{-0.018903,-0.018903,-0.018903},
{-0.036925,-0.036925,-0.036925},
{-0.016790,-0.016790,-0.016790},
{0.011883,0.011883,0.011883},
{0.024603,0.024603,0.024603},
{-0.001541,-0.001541,-0.001541},
{0.084820,0.084820,0.084820},
{0.042233,0.042233,0.042233},
{-0.046629,-0.046629,-0.046629},
{-0.074358,-0.074358,-0.074358},
{0.026547,0.026547,0.026547},
{-0.019911,-0.019911,-0.019911},
{0.002761,0.002761,0.002761},
{-0.098044,-0.098044,-0.098044},
{-0.036516,-0.036516,-0.036516},
{-0.069461,-0.069461,-0.069461},
{-0.065540,-0.065540,-0.065540},
{-0.008376,-0.008376,-0.008376},
{0.022686,0.022686,0.022686},
{-0.082899,-0.082899,-0.082899},
{0.023244,0.023244,0.023244},
{-0.075532,-0.075532,-0.075532},
{-0.048749,-0.048749,-0.048749},
{-0.010921,-0.010921,-0.010921},
{-0.001228,-0.001228,-0.001228},
{-0.046669,-0.046669,-0.046669},
{0.043504,0.043504,0.043504},
{0.005712,0.005712,0.005712},
{-0.007899,-0.007899,-0.007899},
{-0.044275,-0.044275,-0.044275},
{0.031199,0.031199,0.031199},
{0.087903,0.087903,0.087903},
{-0.039449,-0.039449,-0.039449},
{0.002050,0.002050,0.002050},
{-0.036697,-0.036697,-0.036697},
{0.039819,0.039819,0.039819},
{-0.007131,-0.007131,-0.007131},
{0.065558,0.065558,0.065558},
{0.003580,0.003580,0.003580},
{0.137714,0.137714,0.137714},
{-0.061161,-0.061161,-0.061161},
{0.043791,0.043791,0.043791},
{-0.061426,-0.061426,-0.061426},
{-0.030403,-0.030403,-0.030403},
{-0.052376,-0.052376,-0.052376},
{0.127814,0.127814,0.127814},
{-0.025918,-0.025918,-0.025918},
{-0.048898,-0.048898,-0.048898},
{-0.085323,-0.085323,-0.085323},
{-0.107988,-0.107988,-0.107988},
{0.146866,0.146866,0.146866},
{0.093366,0.093366,0.093366},
{0.108379,0.108379,0.108379},
{0.103752,0.103752,0.103752},
{-0.012336,-0.012336,-0.012336},
{0.018554,0.018554,0.018554},
{-0.034061,-0.034061,-0.034061},
{-0.024672,-0.024672,-0.024672},
{0.015021,0.015021,0.015021},
{-0.047045,-0.047045,-0.047045},
{0.018291,0.018291,0.018291},
{-0.045532,-0.045532,-0.045532},
{0.003946,0.003946,0.003946},
{-0.009146,-0.009146,-0.009146},
{-0.014158,-0.014158,-0.014158},
{0.031216,0.031216,0.031216},
{-0.084236,-0.084236,-0.084236},
{-0.015823,-0.015823,-0.015823},
{-0.119375,-0.119375,-0.119375},
{0.074374,0.074374,0.074374},
{0.051940,0.051940,0.051940},
{-0.038892,-0.038892,-0.038892},
{0.053382,0.053382,0.053382},
{0.034494,0.034494,0.034494},
{0.118790,0.118790,0.118790},
{0.042961,0.042961,0.042961},
{0.008529,0.008529,0.008529},
{-0.076154,-0.076154,-0.076154},
{0.033759,0.033759,0.033759},
{-0.054212,-0.054212,-0.054212},
{0.061899,0.061899,0.061899},
{0.033176,0.033176,0.033176},
{0.005848,0.005848,0.005848},
{-0.013681,-0.013681,-0.013681},
{-0.056810,-0.056810,-0.056810},
{-0.010414,-0.010414,-0.010414},
{-0.007917,-0.007917,-0.007917},
{0.056304,0.056304,0.056304},
{-0.023010,-0.023010,-0.023010},
{0.094867,0.094867,0.094867},
{0.010891,0.010891,0.010891},
{-0.003992,-0.003992,-0.003992},
{-0.099256,-0.099256,-0.099256},
{0.085407,0.085407,0.085407},
{-0.111083,-0.111083,-0.111083},
{0.051115,0.051115,0.051115},
{0.007652,0.007652,0.007652},
{-0.017336,-0.017336,-0.017336},
{0.013731,0.013731,0.013731},
{0.030498,0.030498,0.030498},
{-0.129608,-0.129608,-0.129608},
{-0.081081,-0.081081,-0.081081},
{-0.008193,-0.008193,-0.008193},
{-0.027137,-0.027137,-0.027137},
{-0.010925,-0.010925,-0.010925},
{0.013591,0.013591,0.013591},
{0.007762,0.007762,0.007762},
{0.010564,0.010564,0.010564},
{-0.003616,-0.003616,-0.003616},
{0.055713,0.055713,0.055713},
{0.024549,0.024549,0.024549},
{0.023953,0.023953,0.023953},
{0.038020,0.038020,0.038020},
{0.014262,0.014262,0.014262},
{-0.005837,-0.005837,-0.005837},
{0.056649,0.056649,0.056649},
{-0.063103,-0.063103,-0.063103},
{0.088132,0.088132,0.088132},
{-0.007124,-0.007124,-0.007124},
{-0.051562,-0.051562,-0.051562},
{0.046820,0.046820,0.046820},
{-0.073234,-0.073234,-0.073234},
{-0.008064,-0.008064,-0.008064},
{-0.072175,-0.072175,-0.072175},
{-0.014448,-0.014448,-0.014448},
{0.045669,0.045669,0.045669},
{-0.063643,-0.063643,-0.063643},
{-0.053272,-0.053272,-0.053272},
{0.049633,0.049633,0.049633},
{0.000377,0.000377,0.000377},
{0.042111,0.042111,0.042111},
{0.045154,0.045154,0.045154},
{0.028126,0.028126,0.028126},
{-0.052404,-0.052404,-0.052404},
{-0.001499,-0.001499,-0.001499},
{0.065599,0.065599,0.065599},
{-0.036026,-0.036026,-0.036026},
{-0.061264,-0.061264,-0.061264},
{0.105297,0.105297,0.105297},
{-0.080679,-0.080679,-0.080679},
{0.072916,0.072916,0.072916},
{-0.055322,-0.055322,-0.055322},
{0.011306,0.011306,0.011306},
{-0.006920,-0.006920,-0.006920},
{-0.029696,-0.029696,-0.029696},
{0.123612,0.123612,0.123612},
{0.031062,0.031062,0.031062},
{-0.017945,-0.017945,-0.017945},
{0.046183,0.046183,0.046183},
{-0.002589,-0.002589,-0.002589},
{0.019133,0.019133,0.019133},
{0.005925,0.005925,0.005925},
{-0.022827,-0.022827,-0.022827},
{-0.004301,-0.004301,-0.004301},
{0.088175,0.088175,0.088175},
{-0.013863,-0.013863,-0.013863},
{-0.030380,-0.030380,-0.030380},
{-0.018357,-0.018357,-0.018357},
{-0.001452,-0.001452,-0.001452},
{0.029410,0.029410,0.029410},
{-0.062703,-0.062703,-0.062703},
{-0.068404,-0.068404,-0.068404},
{0.031205,0.031205,0.031205},
{0.022262,0.022262,0.022262},
{0.028618,0.028618,0.028618},
{0.013587,0.013587,0.013587},
{-0.074738,-0.074738,-0.074738},
{0.021808,0.021808,0.021808},
{-0.000880,-0.000880,-0.000880},
{-0.070235,-0.070235,-0.070235},
{-0.039611,-0.039611,-0.039611},
{-0.096110,-0.096110,-0.096110},
{0.025449,0.025449,0.025449},
{-0.055434,-0.055434,-0.055434},
{-0.040589,-0.040589,-0.040589},
{-0.164504,-0.164504,-0.164504},
{-0.004568,-0.004568,-0.004568},
{-0.048429,-0.048429,-0.048429},
{-0.123166,-0.123166,-0.123166},
{-0.003272,-0.003272,-0.003272},
{0.083686,0.083686,0.083686},
{0.194007,0.194007,0.194007},
{0.028944,0.028944,0.028944},
{-0.026577,-0.026577,-0.026577},
{0.030229,0.030229,0.030229},
{-0.177952,-0.177952,-0.177952},
{-0.056119,-0.056119,-0.056119},
{0.004999,0.004999,0.004999},
{0.038737,0.038737,0.038737},
{0.010462,0.010462,0.010462},
{0.059253,0.059253,0.059253},
{-0.052765,-0.052765,-0.052765},
{-0.041035,-0.041035,-0.041035},
{-0.005962,-0.005962,-0.005962},
{-0.035013,-0.035013,-0.035013},
{0.047411,0.047411,0.047411},
{0.024749,0.024749,0.024749},
{-0.071785,-0.071785,-0.071785},
{0.055704,0.055704,0.055704},
{-0.012623,-0.012623,-0.012623},
{0.117009,0.117009,0.117009},
{-0.024007,-0.024007,-0.024007},
{0.025672,0.025672,0.025672},
{-0.005773,-0.005773,-0.005773},
{0.063327,0.063327,0.063327},
{-0.029913,-0.029913,-0.029913},
{0.073842,0.073842,0.073842},
{0.079683,0.079683,0.079683},
{-0.044742,-0.044742,-0.044742},
{0.021955,0.021955,0.021955},
{0.022671,0.022671,0.022671},
{0.043012,0.043012,0.043012},
{-0.024360,-0.024360,-0.024360},
{0.031987,0.031987,0.031987},
{-0.058160,-0.058160,-0.058160},
{0.000588,0.000588,0.000588},
{0.060271,0.060271,0.060271},
{-0.057968,-0.057968,-0.057968},
{0.081677,0.081677,0.081677},
{0.022963,0.022963,0.022963},
{0.019873,0.019873,0.019873},
{0.021318,0.021318,0.021318},
{0.086204,0.086204,0.086204},
{-0.032860,-0.032860,-0.032860},
{-0.018861,-0.018861,-0.018861},
{-0.023033,-0.023033,-0.023033},
{0.032185,0.032185,0.032185},
{-0.016937,-0.016937,-0.016937},
{-0.050273,-0.050273,-0.050273},
{-0.070543,-0.070543,-0.070543},
{0.089956,0.089956,0.089956},
{0.014458,0.014458,0.014458},
{0.066979,0.066979,0.066979},
{0.031808,0.031808,0.031808},
{-0.030335,-0.030335,-0.030335},
{-0.033589,-0.033589,-0.033589},
{-0.031692,-0.031692,-0.031692},
{0.111576,0.111576,0.111576},
{-0.016516,-0.016516,-0.016516},
{0.024870,0.024870,0.024870},
{0.136568,0.136568,0.136568},
{-0.010612,-0.010612,-0.010612},
{-0.154065,-0.154065,-0.154065},
{-0.024173,-0.024173,-0.024173},
{-0.062855,-0.062855,-0.062855},
{0.066298,0.066298,0.066298},
{0.027667,0.027667,0.027667},
{0.019531,0.019531,0.019531},
{0.003397,0.003397,0.003397},
{0.006397,0.006397,0.006397},
{0.036470,0.036470,0.036470},
{-0.012896,-0.012896,-0.012896},
{-0.041202,-0.041202,-0.041202},
{0.059009,0.059009,0.059009},
{-0.018303,-0.018303,-0.018303},
{0.012581,0.012581,0.012581},
{0.042978,0.042978,0.042978},
{-0.041635,-0.041635,-0.041635},
{0.079700,0.079700,0.079700},
{0.056062,0.056062,0.056062},
{0.024197,0.024197,0.024197},
{0.076754,0.076754,0.076754},
{-0.065995,-0.065995,-0.065995},
{-0.065836,-0.065836,-0.065836},
{-0.017136,-0.017136,-0.017136},
{0.066217,0.066217,0.066217},
{0.084091,0.084091,0.084091},
{0.039288,0.039288,0.039288},
{0.017441,0.017441,0.017441},
{-0.017602,-0.017602,-0.017602},
{-0.024836,-0.024836,-0.024836},
{0.036402,0.036402,0.036402},
{0.062740,0.062740,0.062740},
{-0.048474,-0.048474,-0.048474},
{-0.023731,-0.023731,-0.023731},
{-0.064036,-0.064036,-0.064036},
{-0.020077,-0.020077,-0.020077},
{-0.033632,-0.033632,-0.033632},
{-0.001112,-0.001112,-0.001112},
{-0.084959,-0.084959,-0.084959},
{0.005235,0.005235,0.005235},
{0.152754,0.152754,0.152754},
{0.015735,0.015735,0.015735},
{0.045479,0.045479,0.045479},
{-0.015596,-0.015596,-0.015596},
{-0.042883,-0.042883,-0.042883},
{-0.009909,-0.009909,-0.009909},
{0.039920,0.039920,0.039920},
{-0.036175,-0.036175,-0.036175},
{-0.046086,-0.046086,-0.046086},
{-0.051953,-0.051953,-0.051953},
{-0.058629,-0.058629,-0.058629},
{0.014073,0.014073,0.014073},
{0.013561,0.013561,0.013561},
{-0.073114,-0.073114,-0.073114},
{0.030764,0.030764,0.030764},
{0.001285,0.001285,0.001285},
{0.003673,0.003673,0.003673},
{0.030013,0.030013,0.030013},
{-0.078127,-0.078127,-0.078127},
{-0.046603,-0.046603,-0.046603},
{-0.056466,-0.056466,-0.056466},
{-0.011651,-0.011651,-0.011651},
{-0.032477,-0.032477,-0.032477},
{-0.023759,-0.023759,-0.023759},
{-0.003187,-0.003187,-0.003187},
{0.072513,0.072513,0.072513},
{-0.006739,-0.006739,-0.006739},
{-0.193994,-0.193994,-0.193994},
{0.014184,0.014184,0.014184},
{-0.038072,-0.038072,-0.038072},
{0.008719,0.008719,0.008719},
{-0.135132,-0.135132,-0.135132},
{-0.070648,-0.070648,-0.070648},
{-0.050282,-0.050282,-0.050282},
{-0.013346,-0.013346,-0.013346},
{-0.036321,-0.036321,-0.036321},
{0.005921,0.005921,0.005921},
{-0.041107,-0.041107,-0.041107},
{-0.053695,-0.053695,-0.053695},
{-0.061162,-0.061162,-0.061162},
{0.059181,0.059181,0.059181},
{0.030811,0.030811,0.030811},
{0.059070,0.059070,0.059070},
{-0.092797,-0.092797,-0.092797},
{0.029011,0.029011,0.029011},
{-0.073278,-0.073278,-0.073278},
{-0.084292,-0.084292,-0.084292},
{0.017090,0.017090,0.017090},
{-0.024068,-0.024068,-0.024068},
{-0.031860,-0.031860,-0.031860},
{0.069070,0.069070,0.069070},
{0.000170,0.000170,0.000170},
{-0.007799,-0.007799,-0.007799},
{-0.012272,-0.012272,-0.012272},
{0.095464,0.095464,0.095464},
{0.064180,0.064180,0.064180},
{0.018548,0.018548,0.018548},
{0.043118,0.043118,0.043118},
{-0.033914,-0.033914,-0.033914},
{0.048054,0.048054,0.048054},
{0.021366,0.021366,0.021366},
{-0.070737,-0.070737,-0.070737},
{-0.063619,-0.063619,-0.063619},
{-0.045809,-0.045809,-0.045809},
{0.001335,0.001335,0.001335},
{-0.013800,-0.013800,-0.013800},
{0.103487,0.103487,0.103487},
{-0.174894,-0.174894,-0.174894},
{-0.019996,-0.019996,-0.019996},
{0.037289,0.037289,0.037289},
{0.072505,0.072505,0.072505},
{-0.007155,-0.007155,-0.007155},
{-0.033317,-0.033317,-0.033317},
{-0.025201,-0.025201,-0.025201},
{-0.004479,-0.004479,-0.004479},
{0.072033,0.072033,0.072033},
{0.031028,0.031028,0.031028},
{0.036259,0.036259,0.036259},
{-0.020795,-0.020795,-0.020795},
{0.056228,0.056228,0.056228},
{0.050341,0.050341,0.050341},
{-0.017930,-0.017930,-0.017930},
{0.041748,0.041748,0.041748},
{-0.029733,-0.029733,-0.029733},
{0.036354,0.036354,0.036354},
{-0.027709,-0.027709,-0.027709},
{-0.025957,-0.025957,-0.025957},
{0.037434,0.037434,0.037434},
{0.021379,0.021379,0.021379},
{-0.125251,-0.125251,-0.125251},
{0.078647,0.078647,0.078647},
{-0.043615,-0.043615,-0.043615},
{-0.093808,-0.093808,-0.093808},
{-0.019089,-0.019089,-0.019089},
{0.006279,0.006279,0.006279},
{-0.121874,-0.121874,-0.121874},
{-0.045185,-0.045185,-0.045185},
{0.060371,0.060371,0.060371},
{0.093265,0.093265,0.093265},
{0.084172,0.084172,0.084172},
{0.006385,0.006385,0.006385},
{-0.022850,-0.022850,-0.022850},
{0.044691,0.044691,0.044691},
{0.004803,0.004803,0.004803},
{0.004997,0.004997,0.004997},
{0.012875,0.012875,0.012875},
{-0.089647,-0.089647,-0.089647},
{0.041773,0.041773,0.041773},
{0.009551,0.009551,0.009551},
{0.015085,0.015085,0.015085},
{-0.090123,-0.090123,-0.090123},
{0.057024,0.057024,0.057024},
{0.004779,0.004779,0.004779},
{-0.039124,-0.039124,-0.039124},
{0.046896,0.046896,0.046896},
{0.022530,0.022530,0.022530},
{-0.020909,-0.020909,-0.020909},
{-0.039977,-0.039977,-0.039977},
{0.096333,0.096333,0.096333},
{-0.028489,-0.028489,-0.028489},
{-0.115783,-0.115783,-0.115783},
{0.026132,0.026132,0.026132},
{-0.073262,-0.073262,-0.073262},
{0.055259,0.055259,0.055259},
{-0.024959,-0.024959,-0.024959},
{0.023654,0.023654,0.023654},
{0.025711,0.025711,0.025711},
{-0.003841,-0.003841,-0.003841},
{-0.002384,-0.002384,-0.002384},
{-0.060591,-0.060591,-0.060591},
{-0.106548,-0.106548,-0.106548},
{0.015017,0.015017,0.015017},
{0.004407,0.004407,0.004407},
{0.012229,0.012229,0.012229},
{0.055259,0.055259,0.055259},
{0.000747,0.000747,0.000747},
{0.146106,0.146106,0.146106},
{-0.002419,-0.002419,-0.002419},
{-0.042912,-0.042912,-0.042912},
{0.048421,0.048421,0.048421},
{-0.085532,-0.085532,-0.085532},
{-0.048614,-0.048614,-0.048614},
{-0.016205,-0.016205,-0.016205},
{-0.017438,-0.017438,-0.017438},
{-0.093232,-0.093232,-0.093232},
{0.003845,0.003845,0.003845},
{0.030291,0.030291,0.030291},
{0.072945,0.072945,0.072945},
{-0.010925,-0.010925,-0.010925},
{-0.045136,-0.045136,-0.045136},
{0.005574,0.005574,0.005574},
{-0.130706,-0.130706,-0.130706},
{0.062039,0.062039,0.062039},
{0.104788,0.104788,0.104788},
{-0.026775,-0.026775,-0.026775},
{-0.042659,-0.042659,-0.042659},
{0.099214,0.099214,0.099214},
{-0.041625,-0.041625,-0.041625},
{-0.042992,-0.042992,-0.042992},
{-0.007934,-0.007934,-0.007934},
{-0.036950,-0.036950,-0.036950},
{-0.043051,-0.043051,-0.043051},
{-0.114561,-0.114561,-0.114561},
{0.047544,0.047544,0.047544},
{0.089489,0.089489,0.089489},
{-0.047121,-0.047121,-0.047121},
{-0.006499,-0.006499,-0.006499},
{-0.032071,-0.032071,-0.032071},
{0.062450,0.062450,0.062450},
{-0.063845,-0.063845,-0.063845},
{-0.116992,-0.116992,-0.116992},
{-0.079583,-0.079583,-0.079583},
{0.010902,0.010902,0.010902},
{-0.022493,-0.022493,-0.022493},
{-0.046962,-0.046962,-0.046962},
{0.057927,0.057927,0.057927},
{-0.153606,-0.153606,-0.153606},
{-0.027890,-0.027890,-0.027890},
{-0.012249,-0.012249,-0.012249},
{0.087545,0.087545,0.087545},
{-0.082533,-0.082533,-0.082533},
{0.041560,0.041560,0.041560},
{0.003066,0.003066,0.003066},
{0.002226,0.002226,0.002226},
{-0.009744,-0.009744,-0.009744},
{0.006577,0.006577,0.006577},
{-0.011507,-0.011507,-0.011507},
{0.039677,0.039677,0.039677},
{-0.040257,-0.040257,-0.040257},
{-0.029271,-0.029271,-0.029271},
{0.014467,0.014467,0.014467},
{0.072778,0.072778,0.072778},
{0.008129,0.008129,0.008129},
{-0.039137,-0.039137,-0.039137},
{0.010859,0.010859,0.010859},
{-0.001211,-0.001211,-0.001211},
{0.039370,0.039370,0.039370},
{-0.050442,-0.050442,-0.050442},
{0.038421,0.038421,0.038421},
{0.067081,0.067081,0.067081},
{0.001344,0.001344,0.001344},
{0.009033,0.009033,0.009033},
{-0.022831,-0.022831,-0.022831},
{0.031993,0.031993,0.031993},
{-0.022933,-0.022933,-0.022933},
{-0.076678,-0.076678,-0.076678},
{-0.040066,-0.040066,-0.040066},
{-0.092258,-0.092258,-0.092258},
{0.012161,0.012161,0.012161},
{0.016685,0.016685,0.016685},
{-0.088889,-0.088889,-0.088889},
{0.004050,0.004050,0.004050},
{0.003741,0.003741,0.003741},
{-0.060371,-0.060371,-0.060371},
{0.026232,0.026232,0.026232},
{-0.010085,-0.010085,-0.010085},
{0.023298,0.023298,0.023298},
{0.004194,0.004194,0.004194},
{-0.005948,-0.005948,-0.005948},
{0.040570,0.040570,0.040570},
{0.056213,0.056213,0.056213},
{-0.011346,-0.011346,-0.011346},
{0.021086,0.021086,0.021086},
{0.081045,0.081045,0.081045},
{-0.016142,-0.016142,-0.016142},
{-0.079560,-0.079560,-0.079560},
{0.111997,0.111997,0.111997},
{0.004368,0.004368,0.004368},
{-0.060626,-0.060626,-0.060626},
{-0.002918,-0.002918,-0.002918},
{0.100438,0.100438,0.100438},
{-0.028932,-0.028932,-0.028932},
{0.100774,0.100774,0.100774},
{0.038418,0.038418,0.038418},
{0.037444,0.037444,0.037444},
{-0.012167,-0.012167,-0.012167},
{0.012263,0.012263,0.012263},
{-0.036392,-0.036392,-0.036392},
{0.011028,0.011028,0.011028},
{-0.010503,-0.010503,-0.010503},
{0.068919,0.068919,0.068919},
{-0.000621,-0.000621,-0.000621},
{0.016054,0.016054,0.016054},
{0.069719,0.069719,0.069719},
{0.086565,0.086565,0.086565},
{0.008053,0.008053,0.008053},
{0.081122,0.081122,0.081122},
{-0.084689,-0.084689,-0.084689},
{-0.051706,-0.051706,-0.051706},
{-0.089360,-0.089360,-0.089360},
{0.019580,0.019580,0.019580},
{-0.002626,-0.002626,-0.002626},
{-0.071281,-0.071281,-0.071281},
{-0.071890,-0.071890,-0.071890},
{0.066465,0.066465,0.066465},
{-0.027687,-0.027687,-0.027687},
{-0.065834,-0.065834,-0.065834},
{-0.059565,-0.059565,-0.059565},
{-0.010481,-0.010481,-0.010481},
{-0.055486,-0.055486,-0.055486},
{-0.035855,-0.035855,-0.035855},
{-0.018890,-0.018890,-0.018890},
{-0.024697,-0.024697,-0.024697},
{-0.015013,-0.015013,-0.015013},
{-0.072864,-0.072864,-0.072864},
{-0.045145,-0.045145,-0.045145},
{0.033834,0.033834,0.033834},
{0.060073,0.060073,0.060073},
{0.074569,0.074569,0.074569},
{-0.031015,-0.031015,-0.031015},
{0.044041,0.044041,0.044041},
{0.079322,0.079322,0.079322},
{-0.027321,-0.027321,-0.027321},
{-0.095588,-0.095588,-0.095588},
{-0.082435,-0.082435,-0.082435},
{-0.041156,-0.041156,-0.041156},
{0.006389,0.006389,0.006389},
{0.022954,0.022954,0.022954},
{0.020148,0.020148,0.020148},
{0.039804,0.039804,0.039804},
{-0.011646,-0.011646,-0.011646},
{0.020933,0.020933,0.020933},
{-0.046374,-0.046374,-0.046374},
{0.003497,0.003497,0.003497},
{-0.008195,-0.008195,-0.008195},
{0.009285,0.009285,0.009285},
{0.024121,0.024121,0.024121},
{0.017354,0.017354,0.017354},
{-0.009260,-0.009260,-0.009260},
{0.054307,0.054307,0.054307},
{-0.004513,-0.004513,-0.004513},
{-0.036325,-0.036325,-0.036325},
{0.020609,0.020609,0.020609},
{0.033612,0.033612,0.033612},
{-0.041276,-0.041276,-0.041276},
{-0.008332,-0.008332,-0.008332},
{-0.061812,-0.061812,-0.061812},
{-0.001561,-0.001561,-0.001561},
{0.009040,0.009040,0.009040},
{-0.022005,-0.022005,-0.022005},
{-0.062095,-0.062095,-0.062095},
{-0.075512,-0.075512,-0.075512},
{-0.033773,-0.033773,-0.033773},
{-0.076229,-0.076229,-0.076229},
{-0.038064,-0.038064,-0.038064},
{-0.030074,-0.030074,-0.030074},
{-0.019668,-0.019668,-0.019668},
{-0.027598,-0.027598,-0.027598},
{-0.046480,-0.046480,-0.046480},
{0.061114,0.061114,0.061114},
{-0.035566,-0.035566,-0.035566},
{-0.024713,-0.024713,-0.024713},
{-0.031347,-0.031347,-0.031347},
{-0.024431,-0.024431,-0.024431},
{0.031201,0.031201,0.031201},
{0.124358,0.124358,0.124358},
{-0.003883,-0.003883,-0.003883},
{0.079442,0.079442,0.079442},
{-0.189025,-0.189025,-0.189025},
{0.003317,0.003317,0.003317},
{-0.012767,-0.012767,-0.012767},
{-0.040113,-0.040113,-0.040113},
{0.017614,0.017614,0.017614},
{-0.060963,-0.060963,-0.060963},
{0.050656,0.050656,0.050656},
{-0.164121,-0.164121,-0.164121},
{0.009094,0.009094,0.009094},
{0.060452,0.060452,0.060452},
{0.029616,0.029616,0.029616},
{-0.100206,-0.100206,-0.100206},
{-0.034736,-0.034736,-0.034736},
{-0.057929,-0.057929,-0.057929},
{0.002820,0.002820,0.002820},
{-0.077425,-0.077425,-0.077425},
{-0.024721,-0.024721,-0.024721},
{-0.086190,-0.086190,-0.086190},
{-0.132323,-0.132323,-0.132323},
{-0.043370,-0.043370,-0.043370},
{-0.068858,-0.068858,-0.068858},
{-0.070196,-0.070196,-0.070196},
{0.031202,0.031202,0.031202},
{0.019895,0.019895,0.019895},
{-0.089670,-0.089670,-0.089670},
{0.049622,0.049622,0.049622},
{0.035723,0.035723,0.035723},
{-0.027385,-0.027385,-0.027385},
{-0.048530,-0.048530,-0.048530},
{-0.045775,-0.045775,-0.045775},
{0.005004,0.005004,0.005004},
{0.009239,0.009239,0.009239},
{0.090926,0.090926,0.090926},
{0.038578,0.038578,0.038578},
{-0.070409,-0.070409,-0.070409},
{0.097555,0.097555,0.097555},
{-0.048628,-0.048628,-0.048628},
{-0.032846,-0.032846,-0.032846},
{0.036671,0.036671,0.036671},
{0.009273,0.009273,0.009273},
{-0.161520,-0.161520,-0.161520},
{-0.116039,-0.116039,-0.116039},
{-0.004298,-0.004298,-0.004298},
{0.201576,0.201576,0.201576},
{-0.049660,-0.049660,-0.049660},
{0.017002,0.017002,0.017002},
{-0.033836,-0.033836,-0.033836},
{0.021598,0.021598,0.021598},
{0.181624,0.181624,0.181624},
{0.028860,0.028860,0.028860},
{0.132713,0.132713,0.132713},
{0.055931,0.055931,0.055931},
{0.103853,0.103853,0.103853},
{0.069759,0.069759,0.069759},
{0.033084,0.033084,0.033084},
{0.001221,0.001221,0.001221},
{-0.150986,-0.150986,-0.150986},
{0.031218,0.031218,0.031218},
{0.105215,0.105215,0.105215},
{0.107802,0.107802,0.107802},
{-0.124229,-0.124229,-0.124229},
{0.001444,0.001444,0.001444},
{-0.030993,-0.030993,-0.030993},
{-0.027597,-0.027597,-0.027597},
{-0.077918,-0.077918,-0.077918},
{0.023464,0.023464,0.023464},
{0.033940,0.033940,0.033940},
{-0.039591,-0.039591,-0.039591},
{-0.111118,-0.111118,-0.111118},
{0.083543,0.083543,0.083543},
{-0.037741,-0.037741,-0.037741},
{-0.113645,-0.113645,-0.113645},
{-0.026749,-0.026749,-0.026749},
{-0.017386,-0.017386,-0.017386},
{0.074459,0.074459,0.074459},
{-0.004672,-0.004672,-0.004672},
{-0.040744,-0.040744,-0.040744},
{0.094298,0.094298,0.094298},
{-0.064579,-0.064579,-0.064579},
{-0.021601,-0.021601,-0.021601},
{-0.029661,-0.029661,-0.029661},
{0.024092,0.024092,0.024092},
{0.047914,0.047914,0.047914},
{0.030921,0.030921,0.030921},
{-0.089717,-0.089717,-0.089717},
{0.096624,0.096624,0.096624},
{-0.008116,-0.008116,-0.008116},
{-0.058261,-0.058261,-0.058261},
{0.102057,0.102057,0.102057},
{0.081077,0.081077,0.081077},
{0.039285,0.039285,0.039285},
{0.002031,0.002031,0.002031},
{-0.062299,-0.062299,-0.062299},
{-0.012611,-0.012611,-0.012611},
{0.028383,0.028383,0.028383},
{0.054059,0.054059,0.054059},
{0.039024,0.039024,0.039024},
{0.099055,0.099055,0.099055},
{-0.007267,-0.007267,-0.007267},
{0.033731,0.033731,0.033731},
{0.022441,0.022441,0.022441},
{0.063932,0.063932,0.063932},
{0.124275,0.124275,0.124275},
{0.101791,0.101791,0.101791},
{0.006367,0.006367,0.006367},
{-0.028800,-0.028800,-0.028800},
{-0.006674,-0.006674,-0.006674},
{-0.056678,-0.056678,-0.056678},
{-0.071871,-0.071871,-0.071871},
{0.027401,0.027401,0.027401},
{-0.092319,-0.092319,-0.092319},
{-0.045163,-0.045163,-0.045163},
{0.094998,0.094998,0.094998},
{0.015383,0.015383,0.015383},
{0.019722,0.019722,0.019722},
{-0.017121,-0.017121,-0.017121},
{-0.121142,-0.121142,-0.121142},
{0.031315,0.031315,0.031315},
{0.044226,0.044226,0.044226},
{0.029526,0.029526,0.029526},
{0.024470,0.024470,0.024470},
{0.014380,0.014380,0.014380},
{0.093880,0.093880,0.093880},
{0.058734,0.058734,0.058734},
{-0.065859,-0.065859,-0.065859},
{0.024535,0.024535,0.024535},
{-0.068781,-0.068781,-0.068781},
{0.101922,0.101922,0.101922},
{-0.001802,-0.001802,-0.001802},
{0.032816,0.032816,0.032816},
{-0.031787,-0.031787,-0.031787},
{0.014437,0.014437,0.014437},
{-0.060271,-0.060271,-0.060271},
{0.137929,0.137929,0.137929},
{-0.037417,-0.037417,-0.037417},
{-0.020361,-0.020361,-0.020361},
{0.040814,0.040814,0.040814},
{-0.122216,-0.122216,-0.122216},
{0.064599,0.064599,0.064599},
{0.024686,0.024686,0.024686},
{-0.020767,-0.020767,-0.020767},
{0.056815,0.056815,0.056815},
{0.059223,0.059223,0.059223},
{0.096486,0.096486,0.096486},
{0.036889,0.036889,0.036889},
{-0.052250,-0.052250,-0.052250},
{-0.101672,-0.101672,-0.101672},
{0.071894,0.071894,0.071894},
{0.016795,0.016795,0.016795},
{-0.072980,-0.072980,-0.072980},
{0.001835,0.001835,0.001835},
{0.087025,0.087025,0.087025},
{-0.018086,-0.018086,-0.018086},
{0.051726,0.051726,0.051726},
{0.039428,0.039428,0.039428},
{0.029273,0.029273,0.029273},
{0.011620,0.011620,0.011620},
{0.035363,0.035363,0.035363},
{0.042907,0.042907,0.042907},
{0.017182,0.017182,0.017182},
{-0.002539,-0.002539,-0.002539},
{0.057327,0.057327,0.057327},
{-0.082009,-0.082009,-0.082009},
{0.004267,0.004267,0.004267},
{-0.013141,-0.013141,-0.013141},
{0.008560,0.008560,0.008560},
{0.026297,0.026297,0.026297},
{-0.032430,-0.032430,-0.032430},
{-0.004747,-0.004747,-0.004747},
{-0.006864,-0.006864,-0.006864},
{0.030347,0.030347,0.030347},
{0.006124,0.006124,0.006124},
{-0.026191,-0.026191,-0.026191},
{0.016575,0.016575,0.016575},
{0.174142,0.174142,0.174142},
{0.015977,0.015977,0.015977},
{-0.054567,-0.054567,-0.054567},
{0.042747,0.042747,0.042747},
{0.055488,0.055488,0.055488},
{0.060093,0.060093,0.060093},
{0.010737,0.010737,0.010737},
{-0.037655,-0.037655,-0.037655},
{0.024086,0.024086,0.024086},
{-0.108616,-0.108616,-0.108616},
{-0.061612,-0.061612,-0.061612},
{0.063184,0.063184,0.063184},
{-0.045970,-0.045970,-0.045970},
{0.056927,0.056927,0.056927},
{-0.020221,-0.020221,-0.020221},
{-0.124998,-0.124998,-0.124998},
{-0.127890,-0.127890,-0.127890},
{0.034463,0.034463,0.034463},
{0.015761,0.015761,0.015761},
{0.018706,0.018706,0.018706},
{0.082569,0.082569,0.082569},
{-0.041837,-0.041837,-0.041837},
{0.084624,0.084624,0.084624},
{0.000691,0.000691,0.000691},
{-0.030844,-0.030844,-0.030844},
{-0.019436,-0.019436,-0.019436},
{-0.070634,-0.070634,-0.070634},
{0.033058,0.033058,0.033058},
{-0.062710,-0.062710,-0.062710},
{0.000797,0.000797,0.000797},
{0.117115,0.117115,0.117115},
{0.041475,0.041475,0.041475},
{0.046020,0.046020,0.046020},
{0.028332,0.028332,0.028332},
{0.005343,0.005343,0.005343},
{-0.040116,-0.040116,-0.040116},
{-0.091475,-0.091475,-0.091475},
{0.071574,0.071574,0.071574},
{0.095894,0.095894,0.095894},
{-0.013793,-0.013793,-0.013793},
{-0.008732,-0.008732,-0.008732},
{-0.066105,-0.066105,-0.066105},
{0.069949,0.069949,0.069949},
{-0.026744,-0.026744,-0.026744},
{0.002301,0.002301,0.002301},
{-0.084982,-0.084982,-0.084982},
{-0.044751,-0.044751,-0.044751},
{0.030411,0.030411,0.030411},
{0.061350,0.061350,0.061350},
{0.045121,0.045121,0.045121},
{0.030479,0.030479,0.030479},
{0.142224,0.142224,0.142224},
{0.097645,0.097645,0.097645},
{0.082838,0.082838,0.082838},
{0.025495,0.025495,0.025495},
{-0.063926,-0.063926,-0.063926},
{-0.007349,-0.007349,-0.007349},
{-0.006278,-0.006278,-0.006278},
{0.049909,0.049909,0.049909},
{0.033904,0.033904,0.033904},
{0.049726,0.049726,0.049726},
{-0.043168,-0.043168,-0.043168},
{-0.004463,-0.004463,-0.004463},
{0.035880,0.035880,0.035880},
{0.083002,0.083002,0.083002},
{-0.003449,-0.003449,-0.003449},
{0.015556,0.015556,0.015556},
{0.014980,0.014980,0.014980},
{-0.017447,-0.017447,-0.017447},
{-0.113573,-0.113573,-0.113573},
{-0.069995,-0.069995,-0.069995},
{0.082383,0.082383,0.082383},
{0.024949,0.024949,0.024949},
{-0.024295,-0.024295,-0.024295},
{-0.053298,-0.053298,-0.053298},
{0.032202,0.032202,0.032202},
{-0.050903,-0.050903,-0.050903},
{0.074178,0.074178,0.074178},
{-0.038129,-0.038129,-0.038129},
{-0.076962,-0.076962,-0.076962},
{0.103205,0.103205,0.103205},
{-0.003637,-0.003637,-0.003637},
{0.006477,0.006477,0.006477},
{0.141904,0.141904,0.141904},
{0.117456,0.117456,0.117456},
{-0.022027,-0.022027,-0.022027},
{-0.064509,-0.064509,-0.064509},
{0.058081,0.058081,0.058081},
{-0.029147,-0.029147,-0.029147},
{-0.044122,-0.044122,-0.044122},
{-0.077470,-0.077470,-0.077470},
{-0.247490,-0.247490,-0.247490},
{-0.030124,-0.030124,-0.030124},
{-0.020745,-0.020745,-0.020745},
{-0.001089,-0.001089,-0.001089},
{-0.027094,-0.027094,-0.027094},
{-0.051038,-0.051038,-0.051038},
{0.003571,0.003571,0.003571},
{-0.015014,-0.015014,-0.015014},
{-0.018813,-0.018813,-0.018813},
{-0.001076,-0.001076,-0.001076},
{-0.118266,-0.118266,-0.118266},
{-0.024990,-0.024990,-0.024990},
{-0.068401,-0.068401,-0.068401},
{-0.024284,-0.024284,-0.024284},
{-0.050529,-0.050529,-0.050529},
{0.076919,0.076919,0.076919},
{0.004634,0.004634,0.004634},
{0.036000,0.036000,0.036000},
{-0.102124,-0.102124,-0.102124},
{0.002638,0.002638,0.002638},
{0.027877,0.027877,0.027877},
{-0.101591,-0.101591,-0.101591},
{-0.098456,-0.098456,-0.098456},
{-0.026717,-0.026717,-0.026717},
{-0.038879,-0.038879,-0.038879},
{-0.021578,-0.021578,-0.021578},
{-0.012209,-0.012209,-0.012209},
{0.028812,0.028812,0.028812},
{0.047158,0.047158,0.047158},
{-0.064170,-0.064170,-0.064170},
{-0.038707,-0.038707,-0.038707},
{-0.012774,-0.012774,-0.012774},
{-0.037433,-0.037433,-0.037433},
{-0.120059,-0.120059,-0.120059},
{-0.021736,-0.021736,-0.021736},
{0.001385,0.001385,0.001385},
{-0.024901,-0.024901,-0.024901},
{-0.014681,-0.014681,-0.014681},
{-0.052629,-0.052629,-0.052629},
{-0.025434,-0.025434,-0.025434},
{0.112846,0.112846,0.112846},
{-0.014536,-0.014536,-0.014536},
{0.068053,0.068053,0.068053},
{-0.125161,-0.125161,-0.125161},
{-0.088607,-0.088607,-0.088607},
{-0.057012,-0.057012,-0.057012},
{0.052806,0.052806,0.052806},
{0.035530,0.035530,0.035530},
{0.054860,0.054860,0.054860},
{-0.006049,-0.006049,-0.006049},
{0.038457,0.038457,0.038457},
{-0.004271,-0.004271,-0.004271},
{0.040417,0.040417,0.040417},
{-0.151079,-0.151079,-0.151079},
{0.043636,0.043636,0.043636},
{0.005837,0.005837,0.005837},
{0.063540,0.063540,0.063540},
{0.000999,0.000999,0.000999},
{-0.021402,-0.021402,-0.021402},
{0.005280,0.005280,0.005280},
{-0.088819,-0.088819,-0.088819},
{0.010579,0.010579,0.010579},
{-0.090344,-0.090344,-0.090344},
{0.036495,0.036495,0.036495},
{0.072250,0.072250,0.072250},
{0.052191,0.052191,0.052191},
{-0.086029,-0.086029,-0.086029},
{-0.023229,-0.023229,-0.023229},
{0.037303,0.037303,0.037303},
{0.019631,0.019631,0.019631},
{0.049638,0.049638,0.049638},
{-0.082077,-0.082077,-0.082077},
{-0.075397,-0.075397,-0.075397},
{0.047783,0.047783,0.047783},
{-0.114978,-0.114978,-0.114978},
{0.065712,0.065712,0.065712},
{-0.031695,-0.031695,-0.031695},
{0.039383,0.039383,0.039383},
{-0.062003,-0.062003,-0.062003},
{0.113001,0.113001,0.113001},
{-0.020233,-0.020233,-0.020233},
{-0.037679,-0.037679,-0.037679},
{-0.044996,-0.044996,-0.044996},
{-0.067268,-0.067268,-0.067268},
{0.037942,0.037942,0.037942},
{-0.021746,-0.021746,-0.021746},
{-0.057312,-0.057312,-0.057312},
{-0.008395,-0.008395,-0.008395},
{0.000494,0.000494,0.000494},
{-0.129271,-0.129271,-0.129271},
{0.103362,0.103362,0.103362},
{0.030667,0.030667,0.030667},
{0.059522,0.059522,0.059522},
{-0.002056,-0.002056,-0.002056},
{-0.033036,-0.033036,-0.033036},
{0.103009,0.103009,0.103009},
{-0.072663,-0.072663,-0.072663},
{0.006644,0.006644,0.006644},
{0.006330,0.006330,0.006330},
{-0.027165,-0.027165,-0.027165},
{-0.020861,-0.020861,-0.020861},
{-0.020177,-0.020177,-0.020177},
{-0.011844,-0.011844,-0.011844},
{-0.119674,-0.119674,-0.119674},
{-0.036359,-0.036359,-0.036359},
{0.004597,0.004597,0.004597},
{0.046404,0.046404,0.046404},
{0.066301,0.066301,0.066301},
{0.074599,0.074599,0.074599},
{0.000937,0.000937,0.000937},
{0.009893,0.009893,0.009893},
{-0.015730,-0.015730,-0.015730},
{0.055396,0.055396,0.055396},
{0.019196,0.019196,0.019196},
{0.010868,0.010868,0.010868},
{-0.043681,-0.043681,-0.043681},
{-0.080013,-0.080013,-0.080013},
{0.095195,0.095195,0.095195},
{-0.064774,-0.064774,-0.064774},
{0.088586,0.088586,0.088586},
{0.066218,0.066218,0.066218},
{0.010037,0.010037,0.010037},
{-0.050437,-0.050437,-0.050437},
{0.006336,0.006336,0.006336},
{0.009248,0.009248,0.009248},
{-0.008413,-0.008413,-0.008413},
{-0.079691,-0.079691,-0.079691},
{-0.006581,-0.006581,-0.006581},
{-0.042440,-0.042440,-0.042440},
{-0.019458,-0.019458,-0.019458},
{0.056182,0.056182,0.056182},
{0.029651,0.029651,0.029651},
{0.018495,0.018495,0.018495},
{-0.041037,-0.041037,-0.041037},
{0.162997,0.162997,0.162997},
{0.009842,0.009842,0.009842},
{0.051508,0.051508,0.051508},
{0.040985,0.040985,0.040985},
{0.015781,0.015781,0.015781},
{-0.015046,-0.015046,-0.015046},
{-0.009981,-0.009981,-0.009981},
{0.055243,0.055243,0.055243},
{-0.056482,-0.056482,-0.056482},
{0.028768,0.028768,0.028768},
{-0.124205,-0.124205,-0.124205},
{0.090355,0.090355,0.090355},
{-0.065383,-0.065383,-0.065383},
{0.042846,0.042846,0.042846},
{0.121807,0.121807,0.121807},
{0.126756,0.126756,0.126756},
{-0.013704,-0.013704,-0.013704},
{-0.009475,-0.009475,-0.009475},
{0.033725,0.033725,0.033725},
{-0.138260,-0.138260,-0.138260},
{0.147289,0.147289,0.147289},
{-0.030033,-0.030033,-0.030033},
{0.102048,0.102048,0.102048},
{-0.054602,-0.054602,-0.054602},
{0.030363,0.030363,0.030363},
{0.079317,0.079317,0.079317},
{0.124436,0.124436,0.124436},
{-0.008068,-0.008068,-0.008068},
{-0.154979,-0.154979,-0.154979},
{0.112664,0.112664,0.112664},
{0.084129,0.084129,0.084129},
{0.041715,0.041715,0.041715},
{-0.117501,-0.117501,-0.117501},
{-0.071602,-0.071602,-0.071602},
{0.115801,0.115801,0.115801},
{-0.039139,-0.039139,-0.039139},
{-0.013734,-0.013734,-0.013734},
{-0.067481,-0.067481,-0.067481},
{0.016942,0.016942,0.016942},
{-0.092172,-0.092172,-0.092172},
{-0.060864,-0.060864,-0.060864},
{-0.015198,-0.015198,-0.015198},
{-0.116978,-0.116978,-0.116978},
{-0.151142,-0.151142,-0.151142},
{0.095335,0.095335,0.095335},
{-0.158526,-0.158526,-0.158526},
{-0.016231,-0.016231,-0.016231},
{-0.029623,-0.029623,-0.029623},
{-0.033783,-0.033783,-0.033783},
{-0.059244,-0.059244,-0.059244},
{-0.068736,-0.068736,-0.068736},
{-0.042913,-0.042913,-0.042913},
{-0.026534,-0.026534,-0.026534},
{-0.044814,-0.044814,-0.044814},
{-0.028972,-0.028972,-0.028972},
{-0.073894,-0.073894,-0.073894},
{-0.025401,-0.025401,-0.025401},
{-0.018399,-0.018399,-0.018399},
{0.059895,0.059895,0.059895},
{0.073407,0.073407,0.073407},
{-0.045456,-0.045456,-0.045456},
{-0.077150,-0.077150,-0.077150},
{-0.022443,-0.022443,-0.022443},
{0.046485,0.046485,0.046485},
{-0.031824,-0.031824,-0.031824},
{-0.000528,-0.000528,-0.000528},
{-0.007868,-0.007868,-0.007868},
{0.111846,0.111846,0.111846},
{0.085403,0.085403,0.085403},
{-0.011159,-0.011159,-0.011159},
{-0.074467,-0.074467,-0.074467},
{0.102359,0.102359,0.102359},
{0.183154,0.183154,0.183154},
{-0.045420,-0.045420,-0.045420},
{0.073527,0.073527,0.073527},
{-0.080171,-0.080171,-0.080171},
{0.038557,0.038557,0.038557},
{0.094795,0.094795,0.094795},
{-0.011146,-0.011146,-0.011146},
{-0.009975,-0.009975,-0.009975},
{0.010089,0.010089,0.010089},
{-0.048407,-0.048407,-0.048407},
{-0.059530,-0.059530,-0.059530},
{-0.097190,-0.097190,-0.097190},
{-0.102874,-0.102874,-0.102874},
{-0.005619,-0.005619,-0.005619},
{-0.079607,-0.079607,-0.079607},
{-0.023796,-0.023796,-0.023796},
{-0.085530,-0.085530,-0.085530},
{0.132591,0.132591,0.132591},
{0.010778,0.010778,0.010778},
{0.040320,0.040320,0.040320},
{0.093431,0.093431,0.093431},
{-0.032381,-0.032381,-0.032381},
{-0.025249,-0.025249,-0.025249},
{0.063762,0.063762,0.063762},
{-0.011976,-0.011976,-0.011976},
{0.007863,0.007863,0.007863},
{0.031166,0.031166,0.031166},
{-0.061917,-0.061917,-0.061917},
{0.011146,0.011146,0.011146},
{-0.043132,-0.043132,-0.043132},
{-0.117416,-0.117416,-0.117416},
{0.013168,0.013168,0.013168},
{-0.073814,-0.073814,-0.073814},
{-0.067562,-0.067562,-0.067562},
{-0.007647,-0.007647,-0.007647},
{0.027701,0.027701,0.027701},
{-0.053765,-0.053765,-0.053765},
{-0.088544,-0.088544,-0.088544},
{-0.013589,-0.013589,-0.013589},
{-0.000122,-0.000122,-0.000122},
{0.042103,0.042103,0.042103},
{0.055460,0.055460,0.055460},
{-0.068427,-0.068427,-0.068427},
{0.023923,0.023923,0.023923},
{0.002923,0.002923,0.002923},
{-0.044571,-0.044571,-0.044571},
{-0.005119,-0.005119,-0.005119},
{-0.161491,-0.161491,-0.161491},
{-0.153585,-0.153585,-0.153585},
{-0.121434,-0.121434,-0.121434},
{-0.076656,-0.076656,-0.076656},
{0.072917,0.072917,0.072917},
{-0.006595,-0.006595,-0.006595},
{0.015203,0.015203,0.015203},
{-0.034618,-0.034618,-0.034618},
{-0.036169,-0.036169,-0.036169},
{-0.021816,-0.021816,-0.021816},
{-0.067431,-0.067431,-0.067431},
{-0.010351,-0.010351,-0.010351},
{-0.015497,-0.015497,-0.015497},
{-0.132575,-0.132575,-0.132575},
{0.003124,0.003124,0.003124},
{-0.053168,-0.053168,-0.053168},
{-0.026777,-0.026777,-0.026777},
{0.036195,0.036195,0.036195},
{-0.011228,-0.011228,-0.011228},
{0.142875,0.142875,0.142875},
{0.013700,0.013700,0.013700},
{-0.012785,-0.012785,-0.012785},
{0.123987,0.123987,0.123987},
{0.091389,0.091389,0.091389},
{-0.007026,-0.007026,-0.007026},
{0.025440,0.025440,0.025440},
{0.050221,0.050221,0.050221},
{0.097390,0.097390,0.097390},
{-0.037451,-0.037451,-0.037451},
{-0.109006,-0.109006,-0.109006},
{-0.018102,-0.018102,-0.018102},
{0.123909,0.123909,0.123909},
{0.104225,0.104225,0.104225},
{-0.063226,-0.063226,-0.063226},
{0.080006,0.080006,0.080006},
{0.011768,0.011768,0.011768},
{0.060521,0.060521,0.060521},
{-0.015263,-0.015263,-0.015263},
{0.059619,0.059619,0.059619},
{-0.019304,-0.019304,-0.019304},
{0.009568,0.009568,0.009568},
{0.020198,0.020198,0.020198},
{-0.020911,-0.020911,-0.020911},
{0.040168,0.040168,0.040168},
{-0.068160,-0.068160,-0.068160},
{-0.095067,-0.095067,-0.095067},
{0.041785,0.041785,0.041785},
{0.056876,0.056876,0.056876},
{-0.031760,-0.031760,-0.031760},
{-0.060523,-0.060523,-0.060523},
{-0.032515,-0.032515,-0.032515},
{0.025799,0.025799,0.025799},
{0.037504,0.037504,0.037504},
{-0.029112,-0.029112,-0.029112},
{0.006768,0.006768,0.006768},
{-0.049743,-0.049743,-0.049743},
{0.020988,0.020988,0.020988},
{0.019161,0.019161,0.019161},
{0.022630,0.022630,0.022630},
{0.088780,0.088780,0.088780},
{-0.006412,-0.006412,-0.006412},
{-0.022116,-0.022116,-0.022116},
{-0.018616,-0.018616,-0.018616},
{0.103346,0.103346,0.103346},
{0.078669,0.078669,0.078669},
{0.089207,0.089207,0.089207},
{0.061622,0.061622,0.061622},
{-0.091883,-0.091883,-0.091883},
{0.114448,0.114448,0.114448},
{0.092858,0.092858,0.092858},
{-0.001303,-0.001303,-0.001303},
{0.069108,0.069108,0.069108},
{-0.073789,-0.073789,-0.073789},
{0.037171,0.037171,0.037171},
{0.009828,0.009828,0.009828},
{-0.008411,-0.008411,-0.008411},
{-0.033478,-0.033478,-0.033478},
{-0.081818,-0.081818,-0.081818},
{-0.083400,-0.083400,-0.083400},
{-0.047539,-0.047539,-0.047539},
{-0.041980,-0.041980,-0.041980},
{-0.001621,-0.001621,-0.001621},
{0.063962,0.063962,0.063962},
{-0.001819,-0.001819,-0.001819},
{0.013668,0.013668,0.013668},
{0.144554,0.144554,0.144554},
{-0.039134,-0.039134,-0.039134},
{-0.068743,-0.068743,-0.068743},
{0.004349,0.004349,0.004349},
{0.137061,0.137061,0.137061},
{0.093145,0.093145,0.093145},
{-0.017220,-0.017220,-0.017220},
{0.033819,0.033819,0.033819},
{-0.056068,-0.056068,-0.056068},
{-0.045755,-0.045755,-0.045755},
{-0.172212,-0.172212,-0.172212},
{0.023988,0.023988,0.023988},
{0.037025,0.037025,0.037025},
{0.008172,0.008172,0.008172},
{-0.097886,-0.097886,-0.097886},
{0.052013,0.052013,0.052013},
{-0.048883,-0.048883,-0.048883},
{0.056295,0.056295,0.056295},
{-0.052504,-0.052504,-0.052504},
{-0.024894,-0.024894,-0.024894},
{-0.042359,-0.042359,-0.042359},
{-0.001703,-0.001703,-0.001703},
{-0.018917,-0.018917,-0.018917},
{0.070500,0.070500,0.070500},
{-0.050108,-0.050108,-0.050108},
{-0.043122,-0.043122,-0.043122},
{-0.007029,-0.007029,-0.007029},
{-0.033262,-0.033262,-0.033262},
{-0.009732,-0.009732,-0.009732},
{0.126121,0.126121,0.126121},
{-0.022311,-0.022311,-0.022311},
{0.011083,0.011083,0.011083},
{0.003180,0.003180,0.003180},
{0.102465,0.102465,0.102465},
{-0.046952,-0.046952,-0.046952},
{0.087725,0.087725,0.087725},
{-0.001079,-0.001079,-0.001079},
{0.000504,0.000504,0.000504},
{-0.092050,-0.092050,-0.092050},
{-0.037192,-0.037192,-0.037192},
{-0.092455,-0.092455,-0.092455},
{0.025807,0.025807,0.025807},
{-0.037327,-0.037327,-0.037327},
{-0.090015,-0.090015,-0.090015},
{0.030934,0.030934,0.030934},
{-0.065889,-0.065889,-0.065889},
{0.017912,0.017912,0.017912},
{-0.048734,-0.048734,-0.048734},
{0.016058,0.016058,0.016058},
{0.058080,0.058080,0.058080},
{0.000857,0.000857,0.000857},
{-0.160129,-0.160129,-0.160129},
{-0.076580,-0.076580,-0.076580},
{-0.065142,-0.065142,-0.065142},
{-0.047283,-0.047283,-0.047283},
{-0.009087,-0.009087,-0.009087},
{0.037698,0.037698,0.037698},
{0.008401,0.008401,0.008401},
{-0.032728,-0.032728,-0.032728},
{0.015963,0.015963,0.015963},
{0.055100,0.055100,0.055100},
{0.008492,0.008492,0.008492},
{0.020419,0.020419,0.020419},
{0.059778,0.059778,0.059778},
{0.019182,0.019182,0.019182},
{-0.000303,-0.000303,-0.000303},
{-0.049893,-0.049893,-0.049893},
{-0.117724,-0.117724,-0.117724},
{-0.069501,-0.069501,-0.069501},
{-0.058599,-0.058599,-0.058599},
{0.022943,0.022943,0.022943},
{-0.017854,-0.017854,-0.017854},
{0.027539,0.027539,0.027539},
{-0.006685,-0.006685,-0.006685},
{0.010261,0.010261,0.010261},
{-0.014768,-0.014768,-0.014768},
{-0.011241,-0.011241,-0.011241},
{-0.065336,-0.065336,-0.065336},
{-0.008173,-0.008173,-0.008173},
{0.104077,0.104077,0.104077},
{-0.013848,-0.013848,-0.013848},
{-0.031489,-0.031489,-0.031489},
{-0.062522,-0.062522,-0.062522},
{-0.054970,-0.054970,-0.054970},
{0.017287,0.017287,0.017287},
{0.076297,0.076297,0.076297},
{0.084473,0.084473,0.084473},
{-0.028194,-0.028194,-0.028194},
{-0.035220,-0.035220,-0.035220},
{-0.003141,-0.003141,-0.003141},
{-0.044253,-0.044253,-0.044253},
{0.070650,0.070650,0.070650},
{-0.055934,-0.055934,-0.055934},
{0.120562,0.120562,0.120562},
{-0.111297,-0.111297,-0.111297},
{-0.067900,-0.067900,-0.067900},
{0.177833,0.177833,0.177833},
{-0.017194,-0.017194,-0.017194},
{0.031454,0.031454,0.031454},
{0.033787,0.033787,0.033787},
{-0.017572,-0.017572,-0.017572},
{0.061416,0.061416,0.061416},
{-0.018876,-0.018876,-0.018876},
{0.037237,0.037237,0.037237},
{0.011395,0.011395,0.011395},
{-0.004122,-0.004122,-0.004122},
{-0.036024,-0.036024,-0.036024},
{0.049771,0.049771,0.049771},
{0.041540,0.041540,0.041540},
{-0.022865,-0.022865,-0.022865},
{0.070359,0.070359,0.070359},
{-0.067444,-0.067444,-0.067444},
{-0.009008,-0.009008,-0.009008},
{0.051165,0.051165,0.051165},
{-0.042159,-0.042159,-0.042159},
{0.054153,0.054153,0.054153},
{0.088671,0.088671,0.088671},
{-0.024216,-0.024216,-0.024216},
{-0.013232,-0.013232,-0.013232},
{0.012422,0.012422,0.012422},
{-0.069896,-0.069896,-0.069896},
{-0.009481,-0.009481,-0.009481},
{0.013517,0.013517,0.013517},
{-0.004941,-0.004941,-0.004941},
{-0.038332,-0.038332,-0.038332},
{0.014950,0.014950,0.014950},
{0.005789,0.005789,0.005789},
{-0.127948,-0.127948,-0.127948},
{-0.030951,-0.030951,-0.030951},
{0.023596,0.023596,0.023596},
{0.106331,0.106331,0.106331},
{-0.029982,-0.029982,-0.029982},
{0.044956,0.044956,0.044956},
{-0.006420,-0.006420,-0.006420},
{-0.044436,-0.044436,-0.044436},
{0.048279,0.048279,0.048279},
{-0.015556,-0.015556,-0.015556},
{0.113656,0.113656,0.113656},
{0.056230,0.056230,0.056230},
{-0.012368,-0.012368,-0.012368},
{-0.036662,-0.036662,-0.036662},
{-0.014156,-0.014156,-0.014156},
{0.041333,0.041333,0.041333},
{0.022133,0.022133,0.022133},
{0.024387,0.024387,0.024387},
{0.092478,0.092478,0.092478},
{0.036843,0.036843,0.036843},
{-0.039782,-0.039782,-0.039782},
{-0.018712,-0.018712,-0.018712},
{-0.060956,-0.060956,-0.060956},
{0.058905,0.058905,0.058905},
{0.081207,0.081207,0.081207},
{0.016349,0.016349,0.016349},
{-0.040196,-0.040196,-0.040196},
{-0.064490,-0.064490,-0.064490},
{0.083433,0.083433,0.083433},
{-0.023311,-0.023311,-0.023311},
{0.027732,0.027732,0.027732},
{-0.015239,-0.015239,-0.015239},
{0.035250,0.035250,0.035250},
{-0.030302,-0.030302,-0.030302},
{-0.084027,-0.084027,-0.084027},
{-0.020066,-0.020066,-0.020066},
{0.063181,0.063181,0.063181},
{-0.047321,-0.047321,-0.047321},
{0.017038,0.017038,0.017038},
{-0.031646,-0.031646,-0.031646},
{-0.010426,-0.010426,-0.010426},
{0.039324,0.039324,0.039324},
{0.089351,0.089351,0.089351},
{-0.037224,-0.037224,-0.037224},
{0.033403,0.033403,0.033403},
{-0.073826,-0.073826,-0.073826},
{-0.008008,-0.008008,-0.008008},
{0.111946,0.111946,0.111946},
{0.051691,0.051691,0.051691},
{-0.102744,-0.102744,-0.102744},
{-0.123501,-0.123501,-0.123501},
{-0.014688,-0.014688,-0.014688},
{0.012494,0.012494,0.012494},
{0.088234,0.088234,0.088234},
{-0.025978,-0.025978,-0.025978},
{0.105584,0.105584,0.105584},
{0.085790,0.085790,0.085790},
{0.070630,0.070630,0.070630},
{-0.025754,-0.025754,-0.025754},
{-0.002576,-0.002576,-0.002576},
{-0.044757,-0.044757,-0.044757},
{0.015402,0.015402,0.015402},
{0.023314,0.023314,0.023314},
{-0.025480,-0.025480,-0.025480},
{0.092375,0.092375,0.092375},
{0.047053,0.047053,0.047053},
{-0.063678,-0.063678,-0.063678},
{0.039924,0.039924,0.039924},
{0.040826,0.040826,0.040826},
{-0.038601,-0.038601,-0.038601},
{-0.043239,-0.043239,-0.043239},
{-0.057301,-0.057301,-0.057301},
{-0.076938,-0.076938,-0.076938},
{-0.058238,-0.058238,-0.058238},
{-0.168474,-0.168474,-0.168474},
{-0.057529,-0.057529,-0.057529},
{0.048462,0.048462,0.048462},
{0.034859,0.034859,0.034859},
{0.002149,0.002149,0.002149},
{-0.049755,-0.049755,-0.049755},
{0.012081,0.012081,0.012081},
{0.044668,0.044668,0.044668},
{-0.003777,-0.003777,-0.003777},
{0.018276,0.018276,0.018276},
{0.030238,0.030238,0.030238},
{0.028205,0.028205,0.028205},
{0.020353,0.020353,0.020353},
{0.057175,0.057175,0.057175},
{-0.019826,-0.019826,-0.019826},
{-0.009563,-0.009563,-0.009563},
{0.048097,0.048097,0.048097},
{0.100274,0.100274,0.100274},
{-0.027545,-0.027545,-0.027545},
{-0.019126,-0.019126,-0.019126},
{-0.026177,-0.026177,-0.026177},
{-0.057325,-0.057325,-0.057325},
{0.007049,0.007049,0.007049},
{-0.054760,-0.054760,-0.054760},
{-0.069520,-0.069520,-0.069520},
{-0.073871,-0.073871,-0.073871},
{-0.000909,-0.000909,-0.000909},
{-0.019677,-0.019677,-0.019677},
{0.002193,0.002193,0.002193},
{0.063503,0.063503,0.063503},
{0.031190,0.031190,0.031190},
{0.047659,0.047659,0.047659},
{0.022891,0.022891,0.022891},
{0.049546,0.049546,0.049546},
{-0.110274,-0.110274,-0.110274},
{0.032200,0.032200,0.032200},
{0.165842,0.165842,0.165842},
{-0.074288,-0.074288,-0.074288},
{0.034838,0.034838,0.034838},
{0.115278,0.115278,0.115278},
{0.084669,0.084669,0.084669},
{-0.028997,-0.028997,-0.028997},
{0.099332,0.099332,0.099332},
{-0.062765,-0.062765,-0.062765},
{0.022622,0.022622,0.022622},
{0.031482,0.031482,0.031482},
{-0.018981,-0.018981,-0.018981},
{0.160458,0.160458,0.160458},
{0.040903,0.040903,0.040903},
{-0.033584,-0.033584,-0.033584},
{-0.114399,-0.114399,-0.114399},
{-0.061612,-0.061612,-0.061612},
{-0.025455,-0.025455,-0.025455},
{0.105937,0.105937,0.105937},
{0.053428,0.053428,0.053428},
{0.003196,0.003196,0.003196},
{-0.064229,-0.064229,-0.064229},
{-0.018323,-0.018323,-0.018323},
{-0.082827,-0.082827,-0.082827},
{0.134296,0.134296,0.134296},
{-0.091033,-0.091033,-0.091033},
{0.018393,0.018393,0.018393},
{0.017551,0.017551,0.017551},
{0.012158,0.012158,0.012158},
{-0.007967,-0.007967,-0.007967},
{0.038722,0.038722,0.038722},
{0.030210,0.030210,0.030210},
{-0.032410,-0.032410,-0.032410},
{0.034317,0.034317,0.034317},
{-0.003130,-0.003130,-0.003130},
{-0.072782,-0.072782,-0.072782},
{0.044075,0.044075,0.044075},
{0.077104,0.077104,0.077104},
{0.118269,0.118269,0.118269},
{-0.075751,-0.075751,-0.075751},
{-0.010330,-0.010330,-0.010330},
{-0.002151,-0.002151,-0.002151},
{-0.005909,-0.005909,-0.005909},
{-0.019953,-0.019953,-0.019953},
{0.117095,0.117095,0.117095},
{0.121185,0.121185,0.121185},
{0.088894,0.088894,0.088894},
{-0.035589,-0.035589,-0.035589},
{-0.135440,-0.135440,-0.135440},
{0.018236,0.018236,0.018236},
{-0.002382,-0.002382,-0.002382},
{0.014403,0.014403,0.014403},
{0.021414,0.021414,0.021414},
{-0.071927,-0.071927,-0.071927},
{-0.103860,-0.103860,-0.103860},
{0.157879,0.157879,0.157879},
{0.040529,0.040529,0.040529},
{0.058917,0.058917,0.058917},
{0.108216,0.108216,0.108216},
{0.105267,0.105267,0.105267},
{-0.028531,-0.028531,-0.028531},
{0.037767,0.037767,0.037767},
{-0.069641,-0.069641,-0.069641},
{0.044945,0.044945,0.044945},
{-0.094992,-0.094992,-0.094992},
{-0.077610,-0.077610,-0.077610},
{0.087040,0.087040,0.087040},
{0.123596,0.123596,0.123596},
{0.029241,0.029241,0.029241},
{-0.021471,-0.021471,-0.021471},
{0.010452,0.010452,0.010452},
{0.001587,0.001587,0.001587},
{-0.011544,-0.011544,-0.011544},
{0.031790,0.031790,0.031790},
{-0.142754,-0.142754,-0.142754},
{-0.044822,-0.044822,-0.044822},
{-0.102097,-0.102097,-0.102097},
{0.085538,0.085538,0.085538},
{0.025246,0.025246,0.025246},
{0.012560,0.012560,0.012560},
{0.011042,0.011042,0.011042},
{0.107640,0.107640,0.107640},
{0.108601,0.108601,0.108601},
{0.001943,0.001943,0.001943},
{-0.041197,-0.041197,-0.041197},
{0.003068,0.003068,0.003068},
{0.076745,0.076745,0.076745},
{0.022703,0.022703,0.022703},
{-0.099482,-0.099482,-0.099482},
{0.032711,0.032711,0.032711},
{0.000846,0.000846,0.000846},
{-0.036238,-0.036238,-0.036238},
{0.035258,0.035258,0.035258},
{0.079869,0.079869,0.079869},
{0.047377,0.047377,0.047377},
{0.072470,0.072470,0.072470},
{-0.054241,-0.054241,-0.054241},
{0.035872,0.035872,0.035872},
{0.089006,0.089006,0.089006},
{-0.049431,-0.049431,-0.049431},
{0.110657,0.110657,0.110657},
{0.105537,0.105537,0.105537},
{-0.009262,-0.009262,-0.009262},
{0.034087,0.034087,0.034087},
{0.040791,0.040791,0.040791},
{-0.150780,-0.150780,-0.150780},
{-0.026397,-0.026397,-0.026397},
{0.057182,0.057182,0.057182},
{-0.066841,-0.066841,-0.066841},
{0.150964,0.150964,0.150964},
{0.044845,0.044845,0.044845},
{-0.062031,-0.062031,-0.062031},
{-0.025493,-0.025493,-0.025493},
{0.104564,0.104564,0.104564},
{0.014144,0.014144,0.014144},
{-0.003584,-0.003584,-0.003584},
{-0.003287,-0.003287,-0.003287},
{-0.082603,-0.082603,-0.082603},
{-0.020745,-0.020745,-0.020745},
{-0.085096,-0.085096,-0.085096},
{-0.027380,-0.027380,-0.027380},
{0.001352,0.001352,0.001352},
{0.116474,0.116474,0.116474},
{0.036322,0.036322,0.036322},
{-0.068336,-0.068336,-0.068336},
{-0.013918,-0.013918,-0.013918},
{-0.136772,-0.136772,-0.136772},
{0.010410,0.010410,0.010410},
{-0.066580,-0.066580,-0.066580},
{-0.111069,-0.111069,-0.111069},
{0.005098,0.005098,0.005098},
{0.154249,0.154249,0.154249},
{0.047483,0.047483,0.047483},
{0.027202,0.027202,0.027202},
{-0.011461,-0.011461,-0.011461},
{0.025706,0.025706,0.025706},
{0.090562,0.090562,0.090562},
{-0.110811,-0.110811,-0.110811},
{0.032588,0.032588,0.032588},
{-0.154707,-0.154707,-0.154707},
{0.005796,0.005796,0.005796},
{0.057736,0.057736,0.057736},
{0.021757,0.021757,0.021757},
{0.126102,0.126102,0.126102},
{-0.086311,-0.086311,-0.086311},
{0.060027,0.060027,0.060027},
{-0.025812,-0.025812,-0.025812},
{-0.001680,-0.001680,-0.001680},
{0.018025,0.018025,0.018025},
{0.044643,0.044643,0.044643},
{-0.031793,-0.031793,-0.031793},
{-0.033070,-0.033070,-0.033070},
{-0.024328,-0.024328,-0.024328},
{0.054903,0.054903,0.054903},
{-0.036023,-0.036023,-0.036023},
{-0.048666,-0.048666,-0.048666},
{-0.094540,-0.094540,-0.094540},
{0.076950,0.076950,0.076950},
{0.003804,0.003804,0.003804},
{0.071082,0.071082,0.071082},
{-0.014438,-0.014438,-0.014438},
{-0.069786,-0.069786,-0.069786},
{-0.085991,-0.085991,-0.085991},
{-0.014937,-0.014937,-0.014937},
{0.100496,0.100496,0.100496},
{0.085299,0.085299,0.085299},
{-0.016396,-0.016396,-0.016396},
{0.006008,0.006008,0.006008},
{-0.013467,-0.013467,-0.013467},
{0.057874,0.057874,0.057874},
{-0.059270,-0.059270,-0.059270},
{-0.107515,-0.107515,-0.107515},
{0.041027,0.041027,0.041027},
{0.079233,0.079233,0.079233},
{-0.015882,-0.015882,-0.015882},
{-0.206077,-0.206077,-0.206077},
{-0.053480,-0.053480,-0.053480},
{0.084794,0.084794,0.084794},
{0.034374,0.034374,0.034374},
{0.044506,0.044506,0.044506},
{0.037657,0.037657,0.037657},
{0.055906,0.055906,0.055906},
{0.083553,0.083553,0.083553},
{0.065577,0.065577,0.065577},
{-0.000885,-0.000885,-0.000885},
{-0.013075,-0.013075,-0.013075},
{0.044694,0.044694,0.044694},
{-0.067284,-0.067284,-0.067284},
{-0.007823,-0.007823,-0.007823},
{0.015732,0.015732,0.015732},
{0.028644,0.028644,0.028644},
{-0.098902,-0.098902,-0.098902},
{-0.054507,-0.054507,-0.054507},
{-0.059209,-0.059209,-0.059209},
{-0.114840,-0.114840,-0.114840},
{-0.023111,-0.023111,-0.023111},
{0.008499,0.008499,0.008499},
{0.095430,0.095430,0.095430},
{0.073533,0.073533,0.073533},
{-0.016207,-0.016207,-0.016207},
{-0.104461,-0.104461,-0.104461},
{0.017102,0.017102,0.017102},
{0.010144,0.010144,0.010144},
{-0.023359,-0.023359,-0.023359},
{-0.037460,-0.037460,-0.037460},
{0.027118,0.027118,0.027118},
{-0.013967,-0.013967,-0.013967},
{0.033172,0.033172,0.033172},
{0.052226,0.052226,0.052226},
{-0.021763,-0.021763,-0.021763},
{0.074709,0.074709,0.074709},
{-0.083946,-0.083946,-0.083946},
{0.056194,0.056194,0.056194},
{0.117837,0.117837,0.117837},
{-0.084236,-0.084236,-0.084236},
{0.050728,0.050728,0.050728},
{-0.047755,-0.047755,-0.047755},
{-0.024780,-0.024780,-0.024780},
{0.048196,0.048196,0.048196},
{-0.022435,-0.022435,-0.022435},
{0.144966,0.144966,0.144966},
{-0.031681,-0.031681,-0.031681},
{-0.068137,-0.068137,-0.068137},
{0.155743,0.155743,0.155743},
{0.080662,0.080662,0.080662},
{-0.068206,-0.068206,-0.068206},
{0.060812,0.060812,0.060812},
{0.040660,0.040660,0.040660},
{-0.036907,-0.036907,-0.036907},
{-0.033813,-0.033813,-0.033813},
{-0.037263,-0.037263,-0.037263},
{0.012852,0.012852,0.012852},
{0.012376,0.012376,0.012376},
{0.066618,0.066618,0.066618},
{-0.049478,-0.049478,-0.049478},
{-0.055408,-0.055408,-0.055408},
{0.060856,0.060856,0.060856},
{-0.014536,-0.014536,-0.014536},
{-0.011623,-0.011623,-0.011623},
{0.144488,0.144488,0.144488},
{0.004202,0.004202,0.004202},
{0.000059,0.000059,0.000059},
{-0.121391,-0.121391,-0.121391},
{0.094048,0.094048,0.094048},
{0.105362,0.105362,0.105362},
{-0.100094,-0.100094,-0.100094},
{0.017654,0.017654,0.017654},
{-0.023022,-0.023022,-0.023022},
{-0.015432,-0.015432,-0.015432},
{-0.028197,-0.028197,-0.028197},
{-0.079794,-0.079794,-0.079794},
{-0.015510,-0.015510,-0.015510},
{0.038553,0.038553,0.038553},
{-0.120684,-0.120684,-0.120684},
{0.004215,0.004215,0.004215},
{0.078245,0.078245,0.078245},
{0.060113,0.060113,0.060113},
{0.018083,0.018083,0.018083},
{-0.044022,-0.044022,-0.044022},
{0.145599,0.145599,0.145599},
{0.021661,0.021661,0.021661},
{0.134365,0.134365,0.134365},
{-0.032115,-0.032115,-0.032115},
{-0.029087,-0.029087,-0.029087},
{-0.080530,-0.080530,-0.080530},
{0.012973,0.012973,0.012973},
{-0.139573,-0.139573,-0.139573},
{-0.036904,-0.036904,-0.036904},
{-0.037290,-0.037290,-0.037290},
{-0.063476,-0.063476,-0.063476},
{0.016026,0.016026,0.016026},
{-0.017306,-0.017306,-0.017306},
{-0.067004,-0.067004,-0.067004},
{0.028545,0.028545,0.028545},
{0.145039,0.145039,0.145039},
{-0.037720,-0.037720,-0.037720},
{0.073969,0.073969,0.073969},
{0.081945,0.081945,0.081945},
{-0.116967,-0.116967,-0.116967},
{-0.032613,-0.032613,-0.032613},
{0.082940,0.082940,0.082940},
{-0.002085,-0.002085,-0.002085},
{-0.027596,-0.027596,-0.027596},
{-0.089830,-0.089830,-0.089830},
{0.078386,0.078386,0.078386},
{0.116115,0.116115,0.116115},
{0.143589,0.143589,0.143589},
{0.034027,0.034027,0.034027},
{0.018841,0.018841,0.018841},
{0.065355,0.065355,0.065355},
{-0.122972,-0.122972,-0.122972},
{0.082120,0.082120,0.082120},
{-0.027245,-0.027245,-0.027245},
{0.032742,0.032742,0.032742},
{-0.040679,-0.040679,-0.040679},
{-0.076175,-0.076175,-0.076175},
{-0.078377,-0.078377,-0.078377},
{-0.021868,-0.021868,-0.021868},
{0.022566,0.022566,0.022566},
{0.028838,0.028838,0.028838},
{-0.020482,-0.020482,-0.020482},
{-0.057015,-0.057015,-0.057015},
{0.009745,0.009745,0.009745},
{0.022301,0.022301,0.022301},
{-0.004528,-0.004528,-0.004528},
{-0.085548,-0.085548,-0.085548},
{-0.034490,-0.034490,-0.034490},
{0.059456,0.059456,0.059456},
{-0.146978,-0.146978,-0.146978},
{-0.056605,-0.056605,-0.056605},
{0.022589,0.022589,0.022589},
{0.013031,0.013031,0.013031},
{0.031944,0.031944,0.031944},
{0.022235,0.022235,0.022235},
{-0.048208,-0.048208,-0.048208},
{-0.015073,-0.015073,-0.015073},
{-0.022592,-0.022592,-0.022592},
{0.141761,0.141761,0.141761},
{0.034327,0.034327,0.034327},
{-0.020340,-0.020340,-0.020340},
{-0.019106,-0.019106,-0.019106},
{0.021573,0.021573,0.021573},
{-0.010874,-0.010874,-0.010874},
{-0.033140,-0.033140,-0.033140},
{-0.086888,-0.086888,-0.086888},
{0.045812,0.045812,0.045812},
{-0.073089,-0.073089,-0.073089},
{-0.061069,-0.061069,-0.061069},
{-0.005051,-0.005051,-0.005051},
{-0.035485,-0.035485,-0.035485},
{-0.119411,-0.119411,-0.119411},
{-0.012318,-0.012318,-0.012318},
{-0.029474,-0.029474,-0.029474},
{-0.144962,-0.144962,-0.144962},
{-0.002648,-0.002648,-0.002648},
{0.006228,0.006228,0.006228},
{0.004863,0.004863,0.004863},
{-0.029356,-0.029356,-0.029356},
{0.087553,0.087553,0.087553},
{0.065239,0.065239,0.065239},
{0.056806,0.056806,0.056806},
{0.037589,0.037589,0.037589},
{-0.051014,-0.051014,-0.051014},
{0.167667,0.167667,0.167667},
{-0.131592,-0.131592,-0.131592},
{-0.028325,-0.028325,-0.028325},
{-0.022112,-0.022112,-0.022112},
{0.017583,0.017583,0.017583},
{0.107424,0.107424,0.107424},
{-0.092028,-0.092028,-0.092028},
{0.027483,0.027483,0.027483},
{-0.030677,-0.030677,-0.030677},
{0.044236,0.044236,0.044236},
{0.011756,0.011756,0.011756},
{0.007132,0.007132,0.007132},
{-0.087640,-0.087640,-0.087640},
{-0.076220,-0.076220,-0.076220},
{0.007329,0.007329,0.007329},
{-0.081505,-0.081505,-0.081505},
{0.092049,0.092049,0.092049},
{-0.023153,-0.023153,-0.023153},
{0.032616,0.032616,0.032616},
{0.036320,0.036320,0.036320},
{0.157868,0.157868,0.157868},
{-0.037152,-0.037152,-0.037152},
{-0.037446,-0.037446,-0.037446},
{-0.005327,-0.005327,-0.005327},
{-0.120437,-0.120437,-0.120437},
{0.069228,0.069228,0.069228},
{-0.178410,-0.178410,-0.178410},
{0.149835,0.149835,0.149835},
{0.107422,0.107422,0.107422},
{0.011534,0.011534,0.011534},
{-0.020218,-0.020218,-0.020218},
{0.077332,0.077332,0.077332},
{0.002151,0.002151,0.002151},
{-0.071702,-0.071702,-0.071702},
{0.027535,0.027535,0.027535},
{-0.114988,-0.114988,-0.114988},
{0.030363,0.030363,0.030363},
{-0.048271,-0.048271,-0.048271},
{-0.022535,-0.022535,-0.022535},
{-0.092045,-0.092045,-0.092045},
{-0.021445,-0.021445,-0.021445},
{-0.079018,-0.079018,-0.079018},
{0.032529,0.032529,0.032529},
{0.102497,0.102497,0.102497},
{0.044979,0.044979,0.044979},
{-0.023561,-0.023561,-0.023561},
{-0.098873,-0.098873,-0.098873},
{0.001696,0.001696,0.001696},
{0.024295,0.024295,0.024295},
{0.014308,0.014308,0.014308},
{0.004190,0.004190,0.004190},
{-0.090084,-0.090084,-0.090084},
{-0.067718,-0.067718,-0.067718},
{-0.004597,-0.004597,-0.004597},
{-0.050205,-0.050205,-0.050205},
{0.097390,0.097390,0.097390},
{-0.084635,-0.084635,-0.084635},
{0.038031,0.038031,0.038031},
{-0.011795,-0.011795,-0.011795},
{-0.001355,-0.001355,-0.001355},
{-0.125429,-0.125429,-0.125429},
{0.060809,0.060809,0.060809},
{0.023362,0.023362,0.023362},
{-0.039214,-0.039214,-0.039214},
{-0.022708,-0.022708,-0.022708},
{-0.070814,-0.070814,-0.070814},
{0.090223,0.090223,0.090223},
{-0.015098,-0.015098,-0.015098},
{-0.064192,-0.064192,-0.064192},
{-0.078441,-0.078441,-0.078441},
{0.056125,0.056125,0.056125},
{-0.002840,-0.002840,-0.002840},
{0.002747,0.002747,0.002747},
{0.087519,0.087519,0.087519},
{-0.076820,-0.076820,-0.076820},
{-0.108201,-0.108201,-0.108201},
{-0.088420,-0.088420,-0.088420},
{-0.010176,-0.010176,-0.010176},
{0.082358,0.082358,0.082358},
{-0.037267,-0.037267,-0.037267},
{-0.103223,-0.103223,-0.103223},
{0.056277,0.056277,0.056277},
{-0.104281,-0.104281,-0.104281},
{0.015416,0.015416,0.015416},
{0.077141,0.077141,0.077141},
{0.055609,0.055609,0.055609},
{0.070018,0.070018,0.070018},
{0.087968,0.087968,0.087968},
{0.030515,0.030515,0.030515},
{0.046797,0.046797,0.046797},
{-0.006138,-0.006138,-0.006138},
{0.013625,0.013625,0.013625},
{0.013923,0.013923,0.013923},
{-0.050724,-0.050724,-0.050724},
{-0.025893,-0.025893,-0.025893},
{0.085023,0.085023,0.085023},
{0.007945,0.007945,0.007945},
{0.082390,0.082390,0.082390},
{-0.033143,-0.033143,-0.033143},
{-0.019280,-0.019280,-0.019280},
{0.101026,0.101026,0.101026},
{-0.063839,-0.063839,-0.063839},
{-0.125996,-0.125996,-0.125996},
{-0.029015,-0.029015,-0.029015},
{0.009443,0.009443,0.009443},
{0.054307,0.054307,0.054307},
{-0.051221,-0.051221,-0.051221},
{-0.009791,-0.009791,-0.009791},
{0.019438,0.019438,0.019438},
{-0.051318,-0.051318,-0.051318},
{0.063402,0.063402,0.063402},
{0.033501,0.033501,0.033501},
{0.068571,0.068571,0.068571},
{0.051375,0.051375,0.051375},
{-0.058801,-0.058801,-0.058801},
{-0.106775,-0.106775,-0.106775},
{-0.031136,-0.031136,-0.031136},
{-0.036041,-0.036041,-0.036041},
{-0.044832,-0.044832,-0.044832},
{0.023847,0.023847,0.023847},
{-0.037373,-0.037373,-0.037373},
{-0.042405,-0.042405,-0.042405},
{-0.090089,-0.090089,-0.090089},
{-0.053472,-0.053472,-0.053472},
{-0.005000,-0.005000,-0.005000},
{-0.124715,-0.124715,-0.124715},
{0.094597,0.094597,0.094597},
{0.009707,0.009707,0.009707},
{-0.065481,-0.065481,-0.065481},
{-0.072038,-0.072038,-0.072038},
{0.057148,0.057148,0.057148},
{-0.096318,-0.096318,-0.096318},
{0.045820,0.045820,0.045820},
{0.048306,0.048306,0.048306},
{-0.044257,-0.044257,-0.044257},
{-0.026598,-0.026598,-0.026598},
{-0.014393,-0.014393,-0.014393},
{-0.079557,-0.079557,-0.079557},
{0.043850,0.043850,0.043850},
{0.052200,0.052200,0.052200},
{-0.042833,-0.042833,-0.042833},
{-0.029887,-0.029887,-0.029887},
{-0.033256,-0.033256,-0.033256},
{-0.118105,-0.118105,-0.118105},
{-0.147379,-0.147379,-0.147379},
{-0.030793,-0.030793,-0.030793},
{0.076436,0.076436,0.076436},
{0.010311,0.010311,0.010311},
{0.060240,0.060240,0.060240},
{0.063439,0.063439,0.063439},
{0.030173,0.030173,0.030173},
{-0.152385,-0.152385,-0.152385},
{0.039929,0.039929,0.039929},
{-0.121385,-0.121385,-0.121385},
{0.048230,0.048230,0.048230},
{0.027266,0.027266,0.027266},
{0.110444,0.110444,0.110444},
{-0.040136,-0.040136,-0.040136},
{-0.001550,-0.001550,-0.001550},
{-0.005793,-0.005793,-0.005793},
{-0.101538,-0.101538,-0.101538},
{0.039062,0.039062,0.039062},
{0.021676,0.021676,0.021676},
{-0.007052,-0.007052,-0.007052},
{0.083772,0.083772,0.083772},
{-0.038641,-0.038641,-0.038641},
{0.076178,0.076178,0.076178},
{-0.003069,-0.003069,-0.003069},
{-0.013926,-0.013926,-0.013926},
{0.036745,0.036745,0.036745},
{-0.012550,-0.012550,-0.012550},
{-0.053296,-0.053296,-0.053296},
{0.070376,0.070376,0.070376},
{0.044239,0.044239,0.044239},
{0.017119,0.017119,0.017119},
{-0.166843,-0.166843,-0.166843},
{0.054385,0.054385,0.054385},
{-0.003267,-0.003267,-0.003267},
{-0.077675,-0.077675,-0.077675},
{-0.069455,-0.069455,-0.069455},
{-0.000786,-0.000786,-0.000786},
{-0.093970,-0.093970,-0.093970},
{0.057796,0.057796,0.057796},
{0.002530,0.002530,0.002530},
{0.154754,0.154754,0.154754},
{0.041345,0.041345,0.041345},
{-0.050903,-0.050903,-0.050903},
{0.076441,0.076441,0.076441},
{0.059046,0.059046,0.059046},
{-0.118504,-0.118504,-0.118504},
{-0.040218,-0.040218,-0.040218},
{-0.059569,-0.059569,-0.059569},
{-0.005762,-0.005762,-0.005762},
{0.013018,0.013018,0.013018},
{0.024298,0.024298,0.024298},
{0.029788,0.029788,0.029788},
{0.050350,0.050350,0.050350},
{-0.011861,-0.011861,-0.011861},
{-0.018396,-0.018396,-0.018396},
{0.011807,0.011807,0.011807},
{0.027348,0.027348,0.027348},
{-0.002001,-0.002001,-0.002001},
{-0.075553,-0.075553,-0.075553},
{0.025435,0.025435,0.025435},
{0.131866,0.131866,0.131866},
{0.016566,0.016566,0.016566},
{0.023328,0.023328,0.023328},
{-0.059156,-0.059156,-0.059156},
{0.066684,0.066684,0.066684},
{0.032964,0.032964,0.032964},
{0.085839,0.085839,0.085839},
{0.023837,0.023837,0.023837},
{0.024031,0.024031,0.024031},
{-0.103830,-0.103830,-0.103830},
{-0.077295,-0.077295,-0.077295},
{0.019062,0.019062,0.019062},
{0.019075,0.019075,0.019075},
{0.090633,0.090633,0.090633},
{-0.084140,-0.084140,-0.084140},
{0.117381,0.117381,0.117381},
{0.062944,0.062944,0.062944},
{0.050378,0.050378,0.050378},
{0.015526,0.015526,0.015526},
{0.006972,0.006972,0.006972},
{-0.026103,-0.026103,-0.026103},
{-0.044804,-0.044804,-0.044804},
{0.107359,0.107359,0.107359},
{-0.071006,-0.071006,-0.071006},
{-0.036483,-0.036483,-0.036483},
{0.004814,0.004814,0.004814},
{-0.013742,-0.013742,-0.013742},
{-0.075433,-0.075433,-0.075433},
{0.009490,0.009490,0.009490},
{0.117495,0.117495,0.117495},
{-0.060959,-0.060959,-0.060959},
{0.107163,0.107163,0.107163},
{-0.076579,-0.076579,-0.076579},
{-0.061869,-0.061869,-0.061869},
{0.116155,0.116155,0.116155},
{-0.133283,-0.133283,-0.133283},
{0.004742,0.004742,0.004742},
{0.032805,0.032805,0.032805},
{0.043785,0.043785,0.043785},
{0.035967,0.035967,0.035967},
{0.076137,0.076137,0.076137},
{0.026626,0.026626,0.026626},
{-0.010831,-0.010831,-0.010831},
{0.033313,0.033313,0.033313},
{0.053924,0.053924,0.053924},
{0.101328,0.101328,0.101328},
{0.020026,0.020026,0.020026},
{0.158437,0.158437,0.158437},
{-0.044463,-0.044463,-0.044463},
{-0.016111,-0.016111,-0.016111},
{0.050014,0.050014,0.050014},
{0.043842,0.043842,0.043842},
{-0.040675,-0.040675,-0.040675},
{0.085500,0.085500,0.085500},
{0.044456,0.044456,0.044456},
{0.023143,0.023143,0.023143},
{-0.068424,-0.068424,-0.068424},
{0.095011,0.095011,0.095011},
{-0.014124,-0.014124,-0.014124},
{-0.002975,-0.002975,-0.002975},
{-0.021758,-0.021758,-0.021758},
{-0.181168,-0.181168,-0.181168},
{-0.045529,-0.045529,-0.045529},
{-0.108469,-0.108469,-0.108469},
{-0.053581,-0.053581,-0.053581},
{0.062508,0.062508,0.062508},
{0.016775,0.016775,0.016775},
{0.004479,0.004479,0.004479},
{0.067606,0.067606,0.067606},
{0.017458,0.017458,0.017458},
{-0.095567,-0.095567,-0.095567},
{0.044143,0.044143,0.044143},
{-0.011268,-0.011268,-0.011268},
{0.046740,0.046740,0.046740},
{0.077461,0.077461,0.077461},
{-0.041901,-0.041901,-0.041901},
{0.080664,0.080664,0.080664},
{0.000580,0.000580,0.000580},
{-0.046129,-0.046129,-0.046129},
{0.024554,0.024554,0.024554},
{-0.056615,-0.056615,-0.056615},
{0.013067,0.013067,0.013067},
{-0.020728,-0.020728,-0.020728},
{0.117589,0.117589,0.117589},
{0.077350,0.077350,0.077350},
{-0.102614,-0.102614,-0.102614},
{-0.001037,-0.001037,-0.001037},
{0.056575,0.056575,0.056575},
{0.038061,0.038061,0.038061},
{0.013422,0.013422,0.013422},
{0.047690,0.047690,0.047690},
{0.093999,0.093999,0.093999},
{0.021852,0.021852,0.021852},
{-0.072399,-0.072399,-0.072399},
{-0.092936,-0.092936,-0.092936},
{0.080243,0.080243,0.080243},
{0.017646,0.017646,0.017646},
{-0.015332,-0.015332,-0.015332},
{-0.092599,-0.092599,-0.092599},
{-0.031413,-0.031413,-0.031413},
{-0.055602,-0.055602,-0.055602},
{-0.038826,-0.038826,-0.038826},
{0.063021,0.063021,0.063021},
{-0.012977,-0.012977,-0.012977},
{0.099833,0.099833,0.099833},
{-0.016021,-0.016021,-0.016021},
{0.030740,0.030740,0.030740},
{-0.092704,-0.092704,-0.092704},
{0.099351,0.099351,0.099351},
{0.080689,0.080689,0.080689},
{-0.084158,-0.084158,-0.084158},
{-0.113095,-0.113095,-0.113095},
{-0.059669,-0.059669,-0.059669},
{-0.006807,-0.006807,-0.006807},
{-0.045282,-0.045282,-0.045282},
{-0.059691,-0.059691,-0.059691},
{0.157156,0.157156,0.157156},
{0.051626,0.051626,0.051626},
{0.070190,0.070190,0.070190},
{-0.008303,-0.008303,-0.008303},
{0.072517,0.072517,0.072517},
{-0.126229,-0.126229,-0.126229},
{-0.033096,-0.033096,-0.033096},
{0.008399,0.008399,0.008399},
{-0.087903,-0.087903,-0.087903},
{-0.047240,-0.047240,-0.047240},
{-0.032298,-0.032298,-0.032298},
{-0.030039,-0.030039,-0.030039},
{0.065905,0.065905,0.065905},
{0.047881,0.047881,0.047881},
{0.127269,0.127269,0.127269},
{0.008713,0.008713,0.008713},
{-0.058791,-0.058791,-0.058791},
{0.012965,0.012965,0.012965},
{0.100559,0.100559,0.100559},
{-0.080916,-0.080916,-0.080916},
{0.026651,0.026651,0.026651},
{0.116055,0.116055,0.116055},
{-0.010291,-0.010291,-0.010291},
{0.056171,0.056171,0.056171},
{0.060045,0.060045,0.060045},
{0.011660,0.011660,0.011660},
{0.140715,0.140715,0.140715},
{0.070830,0.070830,0.070830},
{-0.006922,-0.006922,-0.006922},
{0.201437,0.201437,0.201437},
{0.171349,0.171349,0.171349},
{0.037199,0.037199,0.037199},
{0.051871,0.051871,0.051871},
{0.005370,0.005370,0.005370},
{0.095856,0.095856,0.095856},
{0.071410,0.071410,0.071410},
{-0.029192,-0.029192,-0.029192},
{-0.052335,-0.052335,-0.052335},
{-0.042464,-0.042464,-0.042464},
{-0.076188,-0.076188,-0.076188},
{0.009876,0.009876,0.009876},
{-0.001202,-0.001202,-0.001202},
{-0.096985,-0.096985,-0.096985},
{-0.083354,-0.083354,-0.083354},
{0.088311,0.088311,0.088311},
{-0.031047,-0.031047,-0.031047},
{0.144365,0.144365,0.144365},
{-0.058346,-0.058346,-0.058346},
{-0.018121,-0.018121,-0.018121},
{-0.052215,-0.052215,-0.052215},
{-0.019216,-0.019216,-0.019216},
{-0.125450,-0.125450,-0.125450},
{0.120097,0.120097,0.120097},
{-0.029584,-0.029584,-0.029584},
{0.046420,0.046420,0.046420},
{-0.066368,-0.066368,-0.066368},
{-0.067902,-0.067902,-0.067902},
{-0.046379,-0.046379,-0.046379},
{-0.037392,-0.037392,-0.037392},
{0.056004,0.056004,0.056004},
{0.017205,0.017205,0.017205},
{-0.047239,-0.047239,-0.047239},
{0.116342,0.116342,0.116342},
{-0.021272,-0.021272,-0.021272},
{-0.050891,-0.050891,-0.050891},
{-0.026496,-0.026496,-0.026496},
{-0.056289,-0.056289,-0.056289},
{-0.016132,-0.016132,-0.016132},
{-0.031539,-0.031539,-0.031539},
{-0.036753,-0.036753,-0.036753},
{-0.042743,-0.042743,-0.042743},
{-0.003303,-0.003303,-0.003303},
{-0.143213,-0.143213,-0.143213},
{-0.000753,-0.000753,-0.000753},
{-0.038399,-0.038399,-0.038399},
{0.034520,0.034520,0.034520},
{0.105715,0.105715,0.105715},
{-0.033054,-0.033054,-0.033054},
{-0.028602,-0.028602,-0.028602},
{0.054977,0.054977,0.054977},
{-0.028394,-0.028394,-0.028394},
{-0.075966,-0.075966,-0.075966},
{-0.084418,-0.084418,-0.084418},
{0.047506,0.047506,0.047506},
{0.053795,0.053795,0.053795},
{0.113201,0.113201,0.113201},
{-0.005163,-0.005163,-0.005163},
{0.019329,0.019329,0.019329},
{0.065405,0.065405,0.065405},
{-0.172837,-0.172837,-0.172837},
{-0.034936,-0.034936,-0.034936},
{0.094650,0.094650,0.094650},
{-0.082035,-0.082035,-0.082035},
{-0.062333,-0.062333,-0.062333},
{-0.008920,-0.008920,-0.008920},
{-0.010687,-0.010687,-0.010687},
{-0.204437,-0.204437,-0.204437},
{0.086566,0.086566,0.086566},
{-0.043500,-0.043500,-0.043500},
{-0.044423,-0.044423,-0.044423},
{0.089609,0.089609,0.089609},
{0.013976,0.013976,0.013976},
{-0.103314,-0.103314,-0.103314},
{0.108706,0.108706,0.108706},
{0.019918,0.019918,0.019918},
{-0.036838,-0.036838,-0.036838},
{0.097310,0.097310,0.097310},
{0.015866,0.015866,0.015866},
{0.055261,0.055261,0.055261},
{-0.068141,-0.068141,-0.068141},
{-0.011232,-0.011232,-0.011232},
{-0.043269,-0.043269,-0.043269},
{-0.062428,-0.062428,-0.062428},
{0.093987,0.093987,0.093987},
{0.101079,0.101079,0.101079},
{0.042068,0.042068,0.042068},
{0.039623,0.039623,0.039623},
{-0.089601,-0.089601,-0.089601},
{0.029803,0.029803,0.029803},
{-0.082782,-0.082782,-0.082782},
{-0.136674,-0.136674,-0.136674},
{0.076891,0.076891,0.076891},
{-0.021842,-0.021842,-0.021842},
{-0.086243,-0.086243,-0.086243},
{0.026896,0.026896,0.026896},
{0.038977,0.038977,0.038977},
{0.100478,0.100478,0.100478},
{0.063967,0.063967,0.063967},
{0.040300,0.040300,0.040300},
{0.022436,0.022436,0.022436},
{0.019866,0.019866,0.019866},
{0.044292,0.044292,0.044292},
{0.136864,0.136864,0.136864},
{0.039118,0.039118,0.039118},
{-0.059273,-0.059273,-0.059273},
{-0.012432,-0.012432,-0.012432},
{0.024634,0.024634,0.024634},
{-0.008729,-0.008729,-0.008729},
{0.020249,0.020249,0.020249},
{0.097446,0.097446,0.097446},
{-0.012418,-0.012418,-0.012418},
{0.019094,0.019094,0.019094},
{0.046180,0.046180,0.046180},
{0.016174,0.016174,0.016174},
{-0.012578,-0.012578,-0.012578},
{-0.087680,-0.087680,-0.087680},
{-0.050839,-0.050839,-0.050839},
{-0.054391,-0.054391,-0.054391},
{-0.041144,-0.041144,-0.041144},
{-0.017670,-0.017670,-0.017670},
{-0.011857,-0.011857,-0.011857},
{-0.129556,-0.129556,-0.129556},
{-0.011804,-0.011804,-0.011804},
{-0.099207,-0.099207,-0.099207},
{-0.037132,-0.037132,-0.037132},
{-0.020276,-0.020276,-0.020276},
{-0.086197,-0.086197,-0.086197},
{-0.020721,-0.020721,-0.020721},
{0.061702,0.061702,0.061702},
{-0.015985,-0.015985,-0.015985},
{0.064997,0.064997,0.064997},
{0.113405,0.113405,0.113405},
{-0.083469,-0.083469,-0.083469},
{-0.012173,-0.012173,-0.012173},
{0.135662,0.135662,0.135662},
{0.057639,0.057639,0.057639},
{0.068703,0.068703,0.068703},
{0.016424,0.016424,0.016424},
{-0.058100,-0.058100,-0.058100},
{-0.008404,-0.008404,-0.008404},
{-0.093644,-0.093644,-0.093644},
{-0.007936,-0.007936,-0.007936},
{0.068813,0.068813,0.068813},
{-0.179126,-0.179126,-0.179126},
{-0.038854,-0.038854,-0.038854},
{-0.078823,-0.078823,-0.078823},
{0.110060,0.110060,0.110060},
{0.061072,0.061072,0.061072},
{0.018711,0.018711,0.018711},
{0.039648,0.039648,0.039648},
{-0.012967,-0.012967,-0.012967},
{-0.051586,-0.051586,-0.051586},
{-0.071345,-0.071345,-0.071345},
{0.011108,0.011108,0.011108},
{0.019031,0.019031,0.019031},
{-0.043238,-0.043238,-0.043238},
{0.019766,0.019766,0.019766},
{0.045257,0.045257,0.045257},
{-0.054010,-0.054010,-0.054010},
{0.000864,0.000864,0.000864},
{-0.050778,-0.050778,-0.050778},
{0.113182,0.113182,0.113182},
{-0.003925,-0.003925,-0.003925},
{0.003006,0.003006,0.003006},
{-0.009899,-0.009899,-0.009899},
{0.001319,0.001319,0.001319},
{0.008906,0.008906,0.008906},
{0.040369,0.040369,0.040369},
{0.074483,0.074483,0.074483},
{-0.019761,-0.019761,-0.019761},
{0.094150,0.094150,0.094150},
{0.100812,0.100812,0.100812},
{0.054534,0.054534,0.054534},
{-0.005718,-0.005718,-0.005718},
{0.094972,0.094972,0.094972},
{-0.030012,-0.030012,-0.030012},
{-0.032337,-0.032337,-0.032337},
{-0.082313,-0.082313,-0.082313},
{0.015049,0.015049,0.015049},
{-0.075603,-0.075603,-0.075603},
{-0.059478,-0.059478,-0.059478},
{0.015320,0.015320,0.015320},
{0.024533,0.024533,0.024533},
{0.064663,0.064663,0.064663},
{0.013576,0.013576,0.013576},
{-0.040991,-0.040991,-0.040991},
{0.007009,0.007009,0.007009},
{0.066748,0.066748,0.066748},
{0.018761,0.018761,0.018761},
{-0.053413,-0.053413,-0.053413},
{0.065948,0.065948,0.065948},
{0.079670,0.079670,0.079670},
{0.029694,0.029694,0.029694},
{-0.017980,-0.017980,-0.017980},
{0.008445,0.008445,0.008445},
{0.052664,0.052664,0.052664},
{0.066472,0.066472,0.066472},
{-0.028647,-0.028647,-0.028647},
{0.005384,0.005384,0.005384},
{-0.102284,-0.102284,-0.102284},
{0.044483,0.044483,0.044483},
{-0.021086,-0.021086,-0.021086},
{-0.023694,-0.023694,-0.023694},
{-0.049305,-0.049305,-0.049305},
{0.042567,0.042567,0.042567},
{0.047549,0.047549,0.047549},
{-0.058574,-0.058574,-0.058574},
{-0.062975,-0.062975,-0.062975},
{-0.029705,-0.029705,-0.029705},
{0.110051,0.110051,0.110051},
{-0.009989,-0.009989,-0.009989},
{-0.043053,-0.043053,-0.043053},
{-0.021258,-0.021258,-0.021258},
{0.022762,0.022762,0.022762},
{0.021435,0.021435,0.021435},
{0.002273,0.002273,0.002273},
{0.004892,0.004892,0.004892},
{-0.040913,-0.040913,-0.040913},
{0.003616,0.003616,0.003616},
{0.038808,0.038808,0.038808},
{0.014071,0.014071,0.014071},
{-0.034840,-0.034840,-0.034840},
{-0.045055,-0.045055,-0.045055},
{0.040230,0.040230,0.040230},
{-0.032985,-0.032985,-0.032985},
{0.012683,0.012683,0.012683},
{-0.040805,-0.040805,-0.040805},
{-0.011645,-0.011645,-0.011645},
{-0.003859,-0.003859,-0.003859},
{-0.079425,-0.079425,-0.079425},
{0.054999,0.054999,0.054999},
{0.006502,0.006502,0.006502},
{0.090216,0.090216,0.090216},
{-0.052472,-0.052472,-0.052472},
{0.060429,0.060429,0.060429},
{0.100274,0.100274,0.100274},
{-0.033124,-0.033124,-0.033124},
{0.049014,0.049014,0.049014},
{-0.028177,-0.028177,-0.028177},
{-0.006915,-0.006915,-0.006915},
{-0.071869,-0.071869,-0.071869},
{0.021027,0.021027,0.021027},
{-0.030143,-0.030143,-0.030143},
{0.054162,0.054162,0.054162},
{-0.013017,-0.013017,-0.013017},
{0.039365,0.039365,0.039365},
{-0.075943,-0.075943,-0.075943},
{-0.045996,-0.045996,-0.045996},
{-0.013315,-0.013315,-0.013315},
{-0.073269,-0.073269,-0.073269},
{-0.042094,-0.042094,-0.042094},
{-0.034666,-0.034666,-0.034666},
{0.019927,0.019927,0.019927},
{0.043334,0.043334,0.043334},
{-0.071745,-0.071745,-0.071745},
{-0.064058,-0.064058,-0.064058},
{-0.041366,-0.041366,-0.041366},
{0.040484,0.040484,0.040484},
{0.063402,0.063402,0.063402},
{0.006928,0.006928,0.006928},
{-0.026879,-0.026879,-0.026879},
{-0.032634,-0.032634,-0.032634},
{0.064824,0.064824,0.064824},
{-0.066588,-0.066588,-0.066588},
{-0.055459,-0.055459,-0.055459},
{-0.100474,-0.100474,-0.100474},
{0.004028,0.004028,0.004028},
{-0.061960,-0.061960,-0.061960},
{0.042677,0.042677,0.042677},
{-0.035361,-0.035361,-0.035361},
{-0.017870,-0.017870,-0.017870},
{0.013585,0.013585,0.013585},
{0.022229,0.022229,0.022229},
{0.020285,0.020285,0.020285},
{0.001368,0.001368,0.001368},
{0.001680,0.001680,0.001680},
{0.022411,0.022411,0.022411},
{-0.031950,-0.031950,-0.031950},
{-0.006774,-0.006774,-0.006774},
{0.004312,0.004312,0.004312},
{0.030766,0.030766,0.030766},
{-0.039221,-0.039221,-0.039221},
{-0.047239,-0.047239,-0.047239},
{-0.000250,-0.000250,-0.000250},
{-0.017930,-0.017930,-0.017930},
{-0.067585,-0.067585,-0.067585},
{0.006536,0.006536,0.006536},
{0.008470,0.008470,0.008470},
{0.060981,0.060981,0.060981},
{0.007874,0.007874,0.007874},
{0.050814,0.050814,0.050814},
{-0.073721,-0.073721,-0.073721},
{0.078041,0.078041,0.078041},
{-0.061477,-0.061477,-0.061477},
{-0.023516,-0.023516,-0.023516},
{0.037026,0.037026,0.037026},
{0.063541,0.063541,0.063541},
{0.006656,0.006656,0.006656},
{-0.026236,-0.026236,-0.026236},
{-0.022016,-0.022016,-0.022016},
{-0.030208,-0.030208,-0.030208},
{0.006208,0.006208,0.006208},
{-0.013484,-0.013484,-0.013484},
{0.079586,0.079586,0.079586},
{0.066465,0.066465,0.066465},
{-0.020743,-0.020743,-0.020743},
{-0.061020,-0.061020,-0.061020},
{-0.050569,-0.050569,-0.050569},
{-0.021743,-0.021743,-0.021743},
{-0.041249,-0.041249,-0.041249},
{-0.062563,-0.062563,-0.062563},
{-0.011835,-0.011835,-0.011835},
{-0.095757,-0.095757,-0.095757},
{0.038597,0.038597,0.038597},
{0.057853,0.057853,0.057853},
{-0.043606,-0.043606,-0.043606},
{-0.028363,-0.028363,-0.028363},
{-0.007154,-0.007154,-0.007154},
{-0.033343,-0.033343,-0.033343},
{0.024584,0.024584,0.024584},
{-0.046766,-0.046766,-0.046766},
{0.058061,0.058061,0.058061},
{-0.007729,-0.007729,-0.007729},
{0.056192,0.056192,0.056192},
{0.023301,0.023301,0.023301},
{-0.067708,-0.067708,-0.067708},
{0.062956,0.062956,0.062956},
{0.022460,0.022460,0.022460},
{0.019337,0.019337,0.019337},
{-0.074390,-0.074390,-0.074390},
{-0.006214,-0.006214,-0.006214},
{-0.029837,-0.029837,-0.029837},
{0.020742,0.020742,0.020742},
{0.056611,0.056611,0.056611},
{-0.025548,-0.025548,-0.025548},
{-0.035271,-0.035271,-0.035271},
{-0.054715,-0.054715,-0.054715},
{0.044390,0.044390,0.044390},
{-0.020023,-0.020023,-0.020023},
{0.029072,0.029072,0.029072},
{0.001062,0.001062,0.001062},
{0.023785,0.023785,0.023785},
{-0.056779,-0.056779,-0.056779},
{-0.052851,-0.052851,-0.052851},
{0.095544,0.095544,0.095544},
{-0.050647,-0.050647,-0.050647},
{-0.010359,-0.010359,-0.010359},
{0.008822,0.008822,0.008822},
{-0.013230,-0.013230,-0.013230},
{-0.012555,-0.012555,-0.012555},
{0.047455,0.047455,0.047455},
{-0.021569,-0.021569,-0.021569},
{-0.076921,-0.076921,-0.076921},
{0.005028,0.005028,0.005028},
{-0.030809,-0.030809,-0.030809},
{0.084638,0.084638,0.084638},
{0.082205,0.082205,0.082205},
{-0.019857,-0.019857,-0.019857},
{-0.029258,-0.029258,-0.029258},
{-0.031390,-0.031390,-0.031390},
{0.068542,0.068542,0.068542},
{0.016590,0.016590,0.016590},
{0.038722,0.038722,0.038722},
{0.043211,0.043211,0.043211},
{-0.028471,-0.028471,-0.028471},
{0.002968,0.002968,0.002968},
{0.074620,0.074620,0.074620},
{-0.003858,-0.003858,-0.003858},
{-0.139178,-0.139178,-0.139178},
{0.031435,0.031435,0.031435},
{-0.100663,-0.100663,-0.100663},
{0.023650,0.023650,0.023650},
{-0.112128,-0.112128,-0.112128},
{-0.059164,-0.059164,-0.059164},
{-0.036682,-0.036682,-0.036682},
{0.157707,0.157707,0.157707},
{0.031514,0.031514,0.031514},
{0.001722,0.001722,0.001722},
{0.110954,0.110954,0.110954},
{-0.053666,-0.053666,-0.053666},
{-0.112521,-0.112521,-0.112521},
{0.041528,0.041528,0.041528},
{-0.040077,-0.040077,-0.040077},
{-0.000962,-0.000962,-0.000962},
{-0.013037,-0.013037,-0.013037},
{-0.027800,-0.027800,-0.027800},
{0.056794,0.056794,0.056794},
{0.003998,0.003998,0.003998},
{0.134529,0.134529,0.134529},
{0.052448,0.052448,0.052448},
{0.109670,0.109670,0.109670},
{-0.117195,-0.117195,-0.117195},
{0.069569,0.069569,0.069569},
{0.108565,0.108565,0.108565},
{-0.107959,-0.107959,-0.107959},
{0.025903,0.025903,0.025903},
{-0.066608,-0.066608,-0.066608},
{0.013936,0.013936,0.013936},
{0.021220,0.021220,0.021220},
{0.049748,0.049748,0.049748},
{-0.039178,-0.039178,-0.039178},
{-0.062813,-0.062813,-0.062813},
{-0.061779,-0.061779,-0.061779},
{-0.045762,-0.045762,-0.045762},
{-0.038528,-0.038528,-0.038528},
{-0.011700,-0.011700,-0.011700},
{-0.097941,-0.097941,-0.097941},
{-0.009858,-0.009858,-0.009858},
{0.029802,0.029802,0.029802},
{0.012377,0.012377,0.012377},
{0.091554,0.091554,0.091554},
{0.029592,0.029592,0.029592},
{-0.006640,-0.006640,-0.006640},
{-0.088038,-0.088038,-0.088038},
{0.103906,0.103906,0.103906},
{0.002418,0.002418,0.002418},
{0.000974,0.000974,0.000974},
{-0.098675,-0.098675,-0.098675},
{-0.081235,-0.081235,-0.081235},
{0.067844,0.067844,0.067844},
{-0.028872,-0.028872,-0.028872},
{-0.034462,-0.034462,-0.034462},
{-0.001947,-0.001947,-0.001947},
{-0.041050,-0.041050,-0.041050},
{0.012444,0.012444,0.012444},
{-0.009116,-0.009116,-0.009116},
{0.011215,0.011215,0.011215},
{-0.030348,-0.030348,-0.030348},
{-0.015091,-0.015091,-0.015091},
{-0.056151,-0.056151,-0.056151},
{-0.010233,-0.010233,-0.010233},
{-0.012071,-0.012071,-0.012071},
{0.018197,0.018197,0.018197},
{0.029686,0.029686,0.029686},
{0.054837,0.054837,0.054837},
{0.015577,0.015577,0.015577},
