constant half3 weights_4[128*288] = {
{0.012904,0.012904,0.012904},
{0.007134,0.007134,0.007134},
{0.004638,0.004638,0.004638},
{-0.008823,-0.008823,-0.008823},
{-0.004066,-0.004066,-0.004066},
{-0.007169,-0.007169,-0.007169},
{-0.002937,-0.002937,-0.002937},
{-0.005622,-0.005622,-0.005622},
{-0.003372,-0.003372,-0.003372},
{0.008637,0.008637,0.008637},
{-0.015492,-0.015492,-0.015492},
{-0.006423,-0.006423,-0.006423},
{-0.060478,-0.060478,-0.060478},
{-0.031207,-0.031207,-0.031207},
{-0.022498,-0.022498,-0.022498},
{0.014691,0.014691,0.014691},
{0.019849,0.019849,0.019849},
{0.011624,0.011624,0.011624},
{-0.006022,-0.006022,-0.006022},
{-0.006682,-0.006682,-0.006682},
{0.002110,0.002110,0.002110},
{-0.016979,-0.016979,-0.016979},
{0.001468,0.001468,0.001468},
{0.002208,0.002208,0.002208},
{-0.009380,-0.009380,-0.009380},
{-0.010548,-0.010548,-0.010548},
{-0.003317,-0.003317,-0.003317},
{0.011901,0.011901,0.011901},
{0.003094,0.003094,0.003094},
{0.005326,0.005326,0.005326},
{-0.003182,-0.003182,-0.003182},
{-0.011855,-0.011855,-0.011855},
{0.003634,0.003634,0.003634},
{-0.011294,-0.011294,-0.011294},
{-0.017805,-0.017805,-0.017805},
{0.002994,0.002994,0.002994},
{-0.006082,-0.006082,-0.006082},
{-0.011409,-0.011409,-0.011409},
{0.027486,0.027486,0.027486},
{0.096631,0.096631,0.096631},
{0.065955,0.065955,0.065955},
{0.049665,0.049665,0.049665},
{0.007070,0.007070,0.007070},
{-0.005982,-0.005982,-0.005982},
{-0.001433,-0.001433,-0.001433},
{-0.010983,-0.010983,-0.010983},
{-0.006269,-0.006269,-0.006269},
{0.002234,0.002234,0.002234},
{0.007856,0.007856,0.007856},
{0.015751,0.015751,0.015751},
{0.004367,0.004367,0.004367},
{-0.014979,-0.014979,-0.014979},
{-0.002126,-0.002126,-0.002126},
{0.008266,0.008266,0.008266},
{-0.016485,-0.016485,-0.016485},
{-0.022341,-0.022341,-0.022341},
{0.000262,0.000262,0.000262},
{-0.014504,-0.014504,-0.014504},
{-0.002685,-0.002685,-0.002685},
{-0.007841,-0.007841,-0.007841},
{0.010277,0.010277,0.010277},
{0.003002,0.003002,0.003002},
{0.016997,0.016997,0.016997},
{0.007372,0.007372,0.007372},
{-0.007598,-0.007598,-0.007598},
{0.003470,0.003470,0.003470},
{0.007963,0.007963,0.007963},
{-0.004201,-0.004201,-0.004201},
{-0.008641,-0.008641,-0.008641},
{-0.010394,-0.010394,-0.010394},
{0.009303,0.009303,0.009303},
{0.001621,0.001621,0.001621},
{-0.171260,-0.171260,-0.171260},
{-0.135905,-0.135905,-0.135905},
{-0.070697,-0.070697,-0.070697},
{0.002349,0.002349,0.002349},
{-0.011154,-0.011154,-0.011154},
{0.002137,0.002137,0.002137},
{0.004308,0.004308,0.004308},
{-0.003002,-0.003002,-0.003002},
{-0.001785,-0.001785,-0.001785},
{0.003481,0.003481,0.003481},
{0.011081,0.011081,0.011081},
{0.014393,0.014393,0.014393},
{0.011898,0.011898,0.011898},
{0.000507,0.000507,0.000507},
{-0.011903,-0.011903,-0.011903},
{-0.013681,-0.013681,-0.013681},
{0.003509,0.003509,0.003509},
{0.008146,0.008146,0.008146},
{0.021165,0.021165,0.021165},
{-0.001626,-0.001626,-0.001626},
{-0.002503,-0.002503,-0.002503},
{0.016036,0.016036,0.016036},
{-0.000485,-0.000485,-0.000485},
{0.024573,0.024573,0.024573},
{-0.023370,-0.023370,-0.023370},
{-0.034437,-0.034437,-0.034437},
{-0.016327,-0.016327,-0.016327},
{-0.067302,-0.067302,-0.067302},
{-0.021304,-0.021304,-0.021304},
{-0.042136,-0.042136,-0.042136},
{0.025694,0.025694,0.025694},
{-0.021849,-0.021849,-0.021849},
{-0.006435,-0.006435,-0.006435},
{0.009524,0.009524,0.009524},
{-0.009115,-0.009115,-0.009115},
{-0.050541,-0.050541,-0.050541},
{-0.040985,-0.040985,-0.040985},
{-0.023754,-0.023754,-0.023754},
{-0.068626,-0.068626,-0.068626},
{-0.025260,-0.025260,-0.025260},
{0.016261,0.016261,0.016261},
{0.018125,0.018125,0.018125},
{-0.031140,-0.031140,-0.031140},
{-0.038108,-0.038108,-0.038108},
{0.024309,0.024309,0.024309},
{-0.046522,-0.046522,-0.046522},
{-0.064667,-0.064667,-0.064667},
{-0.031966,-0.031966,-0.031966},
{-0.001617,-0.001617,-0.001617},
{0.000435,0.000435,0.000435},
{-0.021429,-0.021429,-0.021429},
{-0.000375,-0.000375,-0.000375},
{-0.025251,-0.025251,-0.025251},
{-0.017119,-0.017119,-0.017119},
{-0.020958,-0.020958,-0.020958},
{-0.024260,-0.024260,-0.024260},
{-0.071671,-0.071671,-0.071671},
{0.004114,0.004114,0.004114},
{-0.022130,-0.022130,-0.022130},
{0.010016,0.010016,0.010016},
{0.068866,0.068866,0.068866},
{0.003031,0.003031,0.003031},
{0.032573,0.032573,0.032573},
{-0.010689,-0.010689,-0.010689},
{0.017027,0.017027,0.017027},
{0.081925,0.081925,0.081925},
{-0.001106,-0.001106,-0.001106},
{-0.045589,-0.045589,-0.045589},
{-0.064179,-0.064179,-0.064179},
{0.035039,0.035039,0.035039},
{-0.028523,-0.028523,-0.028523},
{-0.033177,-0.033177,-0.033177},
{0.037886,0.037886,0.037886},
{0.020557,0.020557,0.020557},
{0.018780,0.018780,0.018780},
{-0.045825,-0.045825,-0.045825},
{-0.101636,-0.101636,-0.101636},
{-0.114202,-0.114202,-0.114202},
{-0.003803,-0.003803,-0.003803},
{-0.001524,-0.001524,-0.001524},
{-0.029440,-0.029440,-0.029440},
{0.056394,0.056394,0.056394},
{-0.009769,-0.009769,-0.009769},
{0.013359,0.013359,0.013359},
{0.035152,0.035152,0.035152},
{0.002038,0.002038,0.002038},
{-0.043412,-0.043412,-0.043412},
{0.038061,0.038061,0.038061},
{-0.019549,-0.019549,-0.019549},
{-0.028215,-0.028215,-0.028215},
{0.094234,0.094234,0.094234},
{0.046060,0.046060,0.046060},
{0.088909,0.088909,0.088909},
{0.072800,0.072800,0.072800},
{0.000002,0.000002,0.000002},
{0.001558,0.001558,0.001558},
{0.030338,0.030338,0.030338},
{0.037620,0.037620,0.037620},
{0.080083,0.080083,0.080083},
{-0.045062,-0.045062,-0.045062},
{-0.075291,-0.075291,-0.075291},
{-0.066787,-0.066787,-0.066787},
{0.014948,0.014948,0.014948},
{0.024640,0.024640,0.024640},
{0.041409,0.041409,0.041409},
{0.016307,0.016307,0.016307},
{0.001347,0.001347,0.001347},
{0.004607,0.004607,0.004607},
{0.017724,0.017724,0.017724},
{-0.000143,-0.000143,-0.000143},
{0.012593,0.012593,0.012593},
{0.006783,0.006783,0.006783},
{-0.027798,-0.027798,-0.027798},
{-0.016726,-0.016726,-0.016726},
{-0.027727,-0.027727,-0.027727},
{-0.012403,-0.012403,-0.012403},
{0.048519,0.048519,0.048519},
{0.018981,0.018981,0.018981},
{-0.008515,-0.008515,-0.008515},
{0.017954,0.017954,0.017954},
{-0.022200,-0.022200,-0.022200},
{-0.047204,-0.047204,-0.047204},
{-0.051574,-0.051574,-0.051574},
{0.013067,0.013067,0.013067},
{0.005408,0.005408,0.005408},
{-0.013834,-0.013834,-0.013834},
{0.056454,0.056454,0.056454},
{0.069471,0.069471,0.069471},
{0.088618,0.088618,0.088618},
{0.048107,0.048107,0.048107},
{0.063550,0.063550,0.063550},
{-0.004124,-0.004124,-0.004124},
{-0.019744,-0.019744,-0.019744},
{-0.050559,-0.050559,-0.050559},
{-0.038196,-0.038196,-0.038196},
{-0.013803,-0.013803,-0.013803},
{0.024132,0.024132,0.024132},
{0.022193,0.022193,0.022193},
{-0.016769,-0.016769,-0.016769},
{-0.072909,-0.072909,-0.072909},
{-0.084392,-0.084392,-0.084392},
{-0.056670,-0.056670,-0.056670},
{-0.052671,-0.052671,-0.052671},
{-0.073565,-0.073565,-0.073565},
{0.007070,0.007070,0.007070},
{-0.029896,-0.029896,-0.029896},
{-0.007774,-0.007774,-0.007774},
{0.004272,0.004272,0.004272},
{-0.007142,-0.007142,-0.007142},
{0.054344,0.054344,0.054344},
{0.021881,0.021881,0.021881},
{0.013587,0.013587,0.013587},
{0.002516,0.002516,0.002516},
{0.024539,0.024539,0.024539},
{-0.048039,-0.048039,-0.048039},
{-0.039030,-0.039030,-0.039030},
{0.214241,0.214241,0.214241},
{0.303287,0.303287,0.303287},
{0.352358,0.352358,0.352358},
{0.063609,0.063609,0.063609},
{0.049163,0.049163,0.049163},
{0.053807,0.053807,0.053807},
{-0.046574,-0.046574,-0.046574},
{-0.061144,-0.061144,-0.061144},
{-0.018681,-0.018681,-0.018681},
{0.038517,0.038517,0.038517},
{0.026743,0.026743,0.026743},
{0.056108,0.056108,0.056108},
{-0.001895,-0.001895,-0.001895},
{0.005448,0.005448,0.005448},
{0.025021,0.025021,0.025021},
{-0.122392,-0.122392,-0.122392},
{-0.129049,-0.129049,-0.129049},
{-0.102315,-0.102315,-0.102315},
{0.001343,0.001343,0.001343},
{0.076609,0.076609,0.076609},
{0.017992,0.017992,0.017992},
{0.070582,0.070582,0.070582},
{0.060093,0.060093,0.060093},
{0.024566,0.024566,0.024566},
{-0.050313,-0.050313,-0.050313},
{-0.081779,-0.081779,-0.081779},
{-0.066847,-0.066847,-0.066847},
{0.070857,0.070857,0.070857},
{0.113434,0.113434,0.113434},
{0.135025,0.135025,0.135025},
{0.049975,0.049975,0.049975},
{0.022172,0.022172,0.022172},
{0.033692,0.033692,0.033692},
{0.022053,0.022053,0.022053},
{0.030196,0.030196,0.030196},
{-0.003258,-0.003258,-0.003258},
{0.067092,0.067092,0.067092},
{0.109413,0.109413,0.109413},
{0.083449,0.083449,0.083449},
{0.023317,0.023317,0.023317},
{0.013125,0.013125,0.013125},
{0.021137,0.021137,0.021137},
{-0.023685,-0.023685,-0.023685},
{-0.038195,-0.038195,-0.038195},
{-0.014168,-0.014168,-0.014168},
{-0.005612,-0.005612,-0.005612},
{-0.012170,-0.012170,-0.012170},
{-0.034790,-0.034790,-0.034790},
{0.058587,0.058587,0.058587},
{0.047838,0.047838,0.047838},
{0.025960,0.025960,0.025960},
{0.092949,0.092949,0.092949},
{0.063586,0.063586,0.063586},
{0.100714,0.100714,0.100714},
{-0.011213,-0.011213,-0.011213},
{0.029965,0.029965,0.029965},
{0.016594,0.016594,0.016594},
{0.024059,0.024059,0.024059},
{0.023547,0.023547,0.023547},
{0.045904,0.045904,0.045904},
{0.001869,0.001869,0.001869},
{-0.020014,-0.020014,-0.020014},
{0.053654,0.053654,0.053654},
{-0.004886,-0.004886,-0.004886},
{0.066269,0.066269,0.066269},
{0.108537,0.108537,0.108537},
{0.008489,0.008489,0.008489},
{0.011240,0.011240,0.011240},
{-0.025276,-0.025276,-0.025276},
{-0.036205,-0.036205,-0.036205},
{0.030966,0.030966,0.030966},
{0.064666,0.064666,0.064666},
{-0.015319,-0.015319,-0.015319},
{0.070271,0.070271,0.070271},
{0.100119,0.100119,0.100119},
{0.004805,0.004805,0.004805},
{0.021605,0.021605,0.021605},
{0.027725,0.027725,0.027725},
{-0.027880,-0.027880,-0.027880},
{0.031412,0.031412,0.031412},
{0.064009,0.064009,0.064009},
{0.037528,0.037528,0.037528},
{0.034431,0.034431,0.034431},
{0.056412,0.056412,0.056412},
{-0.001863,-0.001863,-0.001863},
{0.003601,0.003601,0.003601},
{-0.006053,-0.006053,-0.006053},
{-0.031341,-0.031341,-0.031341},
{-0.014061,-0.014061,-0.014061},
{-0.000855,-0.000855,-0.000855},
{-0.005271,-0.005271,-0.005271},
{0.011159,0.011159,0.011159},
{0.044134,0.044134,0.044134},
{0.002236,0.002236,0.002236},
{-0.000979,-0.000979,-0.000979},
{0.016017,0.016017,0.016017},
{0.104469,0.104469,0.104469},
{0.132445,0.132445,0.132445},
{0.086499,0.086499,0.086499},
{-0.009931,-0.009931,-0.009931},
{0.040063,0.040063,0.040063},
{-0.017227,-0.017227,-0.017227},
{-0.012043,-0.012043,-0.012043},
{-0.022821,-0.022821,-0.022821},
{0.034353,0.034353,0.034353},
{-0.049923,-0.049923,-0.049923},
{-0.059607,-0.059607,-0.059607},
{-0.002757,-0.002757,-0.002757},
{-0.021201,-0.021201,-0.021201},
{0.000041,0.000041,0.000041},
{0.011884,0.011884,0.011884},
{0.029149,0.029149,0.029149},
{-0.015150,-0.015150,-0.015150},
{0.067991,0.067991,0.067991},
{0.049391,0.049391,0.049391},
{0.072085,0.072085,0.072085},
{0.046882,0.046882,0.046882},
{0.016882,0.016882,0.016882},
{0.002751,0.002751,0.002751},
{0.010908,0.010908,0.010908},
{0.033638,0.033638,0.033638},
{0.030668,0.030668,0.030668},
{0.031724,0.031724,0.031724},
{0.051644,0.051644,0.051644},
{-0.002930,-0.002930,-0.002930},
{-0.027376,-0.027376,-0.027376},
{0.040032,0.040032,0.040032},
{0.015353,0.015353,0.015353},
{0.063645,0.063645,0.063645},
{-0.059845,-0.059845,-0.059845},
{-0.054959,-0.054959,-0.054959},
{0.017633,0.017633,0.017633},
{0.034974,0.034974,0.034974},
{0.006869,0.006869,0.006869},
{0.056247,0.056247,0.056247},
{0.066042,0.066042,0.066042},
{0.058952,0.058952,0.058952},
{0.034470,0.034470,0.034470},
{-0.036240,-0.036240,-0.036240},
{-0.000296,-0.000296,-0.000296},
{-0.037227,-0.037227,-0.037227},
{0.002399,0.002399,0.002399},
{-0.012363,-0.012363,-0.012363},
{-0.011631,-0.011631,-0.011631},
{0.061150,0.061150,0.061150},
{0.053730,0.053730,0.053730},
{0.025977,0.025977,0.025977},
{-0.018215,-0.018215,-0.018215},
{-0.002873,-0.002873,-0.002873},
{0.020152,0.020152,0.020152},
{0.042112,0.042112,0.042112},
{0.027671,0.027671,0.027671},
{0.084875,0.084875,0.084875},
{-0.042020,-0.042020,-0.042020},
{-0.023128,-0.023128,-0.023128},
{-0.015890,-0.015890,-0.015890},
{-0.050558,-0.050558,-0.050558},
{-0.067712,-0.067712,-0.067712},
{-0.023877,-0.023877,-0.023877},
{0.040720,0.040720,0.040720},
{0.012473,0.012473,0.012473},
{0.016237,0.016237,0.016237},
{-0.013952,-0.013952,-0.013952},
{0.030077,0.030077,0.030077},
{0.018191,0.018191,0.018191},
{-0.005365,-0.005365,-0.005365},
{-0.018524,-0.018524,-0.018524},
{-0.010755,-0.010755,-0.010755},
{-0.053575,-0.053575,-0.053575},
{0.039686,0.039686,0.039686},
{0.036792,0.036792,0.036792},
{-0.028950,-0.028950,-0.028950},
{-0.029381,-0.029381,-0.029381},
{-0.015858,-0.015858,-0.015858},
{0.012197,0.012197,0.012197},
{-0.000939,-0.000939,-0.000939},
{-0.020874,-0.020874,-0.020874},
{-0.012057,-0.012057,-0.012057},
{-0.029448,-0.029448,-0.029448},
{-0.008326,-0.008326,-0.008326},
{-0.004865,-0.004865,-0.004865},
{0.043456,0.043456,0.043456},
{0.024562,0.024562,0.024562},
{0.019558,0.019558,0.019558},
{0.009284,0.009284,0.009284},
{0.000743,0.000743,0.000743},
{-0.013234,-0.013234,-0.013234},
{0.047785,0.047785,0.047785},
{0.033190,0.033190,0.033190},
{0.014819,0.014819,0.014819},
{0.014046,0.014046,0.014046},
{-0.022908,-0.022908,-0.022908},
{-0.024026,-0.024026,-0.024026},
{0.040846,0.040846,0.040846},
{0.009033,0.009033,0.009033},
{0.020010,0.020010,0.020010},
{0.009267,0.009267,0.009267},
{0.003688,0.003688,0.003688},
{0.014165,0.014165,0.014165},
{0.043083,0.043083,0.043083},
{0.034191,0.034191,0.034191},
{0.021390,0.021390,0.021390},
{0.043765,0.043765,0.043765},
{0.041168,0.041168,0.041168},
{0.015839,0.015839,0.015839},
{0.036746,0.036746,0.036746},
{-0.018635,-0.018635,-0.018635},
{-0.019723,-0.019723,-0.019723},
{0.030489,0.030489,0.030489},
{0.016149,0.016149,0.016149},
{0.015037,0.015037,0.015037},
{0.032398,0.032398,0.032398},
{0.037439,0.037439,0.037439},
{0.036166,0.036166,0.036166},
{0.015929,0.015929,0.015929},
{-0.017310,-0.017310,-0.017310},
{-0.022100,-0.022100,-0.022100},
{-0.034858,-0.034858,-0.034858},
{-0.054039,-0.054039,-0.054039},
{-0.012125,-0.012125,-0.012125},
{-0.012342,-0.012342,-0.012342},
{0.012685,0.012685,0.012685},
{-0.054767,-0.054767,-0.054767},
{0.010479,0.010479,0.010479},
{0.022384,0.022384,0.022384},
{0.032740,0.032740,0.032740},
{-0.009969,-0.009969,-0.009969},
{-0.003697,-0.003697,-0.003697},
{-0.009642,-0.009642,-0.009642},
{0.031624,0.031624,0.031624},
{0.029095,0.029095,0.029095},
{-0.022891,-0.022891,-0.022891},
{0.031253,0.031253,0.031253},
{0.043478,0.043478,0.043478},
{0.000625,0.000625,0.000625},
{0.005682,0.005682,0.005682},
{0.006181,0.006181,0.006181},
{-0.026738,-0.026738,-0.026738},
{-0.056470,-0.056470,-0.056470},
{-0.042338,-0.042338,-0.042338},
{-0.004133,-0.004133,-0.004133},
{0.000593,0.000593,0.000593},
{0.006248,0.006248,0.006248},
{0.014191,0.014191,0.014191},
{-0.006035,-0.006035,-0.006035},
{0.026973,0.026973,0.026973},
{-0.016912,-0.016912,-0.016912},
{-0.060083,-0.060083,-0.060083},
{-0.032843,-0.032843,-0.032843},
{-0.006735,-0.006735,-0.006735},
{0.009077,0.009077,0.009077},
{0.061298,0.061298,0.061298},
{-0.033450,-0.033450,-0.033450},
{0.073446,0.073446,0.073446},
{-0.026417,-0.026417,-0.026417},
{-0.137590,-0.137590,-0.137590},
{-0.068560,-0.068560,-0.068560},
{0.030683,0.030683,0.030683},
{0.024195,0.024195,0.024195},
{-0.161028,-0.161028,-0.161028},
{-0.047683,-0.047683,-0.047683},
{0.002148,0.002148,0.002148},
{-0.020246,-0.020246,-0.020246},
{0.044437,0.044437,0.044437},
{-0.054362,-0.054362,-0.054362},
{-0.033537,-0.033537,-0.033537},
{-0.125478,-0.125478,-0.125478},
{0.063106,0.063106,0.063106},
{0.078304,0.078304,0.078304},
{-0.085504,-0.085504,-0.085504},
{-0.081379,-0.081379,-0.081379},
{-0.000578,-0.000578,-0.000578},
{0.119360,0.119360,0.119360},
{-0.016699,-0.016699,-0.016699},
{-0.074415,-0.074415,-0.074415},
{-0.073473,-0.073473,-0.073473},
{0.043633,0.043633,0.043633},
{-0.054310,-0.054310,-0.054310},
{-0.150548,-0.150548,-0.150548},
{-0.094882,-0.094882,-0.094882},
{-0.059317,-0.059317,-0.059317},
{-0.057348,-0.057348,-0.057348},
{-0.033524,-0.033524,-0.033524},
{-0.127204,-0.127204,-0.127204},
{-0.077382,-0.077382,-0.077382},
{-0.103406,-0.103406,-0.103406},
{-0.071926,-0.071926,-0.071926},
{0.117154,0.117154,0.117154},
{0.091271,0.091271,0.091271},
{-0.029405,-0.029405,-0.029405},
{0.059500,0.059500,0.059500},
{0.024626,0.024626,0.024626},
{0.015011,0.015011,0.015011},
{0.063810,0.063810,0.063810},
{-0.037323,-0.037323,-0.037323},
{-0.060775,-0.060775,-0.060775},
{-0.079144,-0.079144,-0.079144},
{0.037721,0.037721,0.037721},
{0.021503,0.021503,0.021503},
{0.035013,0.035013,0.035013},
{-0.042386,-0.042386,-0.042386},
{-0.092574,-0.092574,-0.092574},
{-0.023512,-0.023512,-0.023512},
{-0.013203,-0.013203,-0.013203},
{-0.026099,-0.026099,-0.026099},
{0.026389,0.026389,0.026389},
{-0.086583,-0.086583,-0.086583},
{-0.082364,-0.082364,-0.082364},
{0.091908,0.091908,0.091908},
{-0.065190,-0.065190,-0.065190},
{0.087640,0.087640,0.087640},
{0.179531,0.179531,0.179531},
{-0.085814,-0.085814,-0.085814},
{0.046907,0.046907,0.046907},
{-0.076376,-0.076376,-0.076376},
{0.060076,0.060076,0.060076},
{-0.046877,-0.046877,-0.046877},
{0.001018,0.001018,0.001018},
{-0.060355,-0.060355,-0.060355},
{-0.027054,-0.027054,-0.027054},
{-0.131627,-0.131627,-0.131627},
{-0.112925,-0.112925,-0.112925},
{0.091685,0.091685,0.091685},
{0.127172,0.127172,0.127172},
{-0.041178,-0.041178,-0.041178},
{-0.000967,-0.000967,-0.000967},
{-0.027522,-0.027522,-0.027522},
{-0.024033,-0.024033,-0.024033},
{-0.052798,-0.052798,-0.052798},
{-0.093754,-0.093754,-0.093754},
{0.088199,0.088199,0.088199},
{0.007706,0.007706,0.007706},
{-0.117840,-0.117840,-0.117840},
{-0.003903,-0.003903,-0.003903},
{0.093661,0.093661,0.093661},
{0.006902,0.006902,0.006902},
{0.020031,0.020031,0.020031},
{0.018695,0.018695,0.018695},
{0.089846,0.089846,0.089846},
{-0.055175,-0.055175,-0.055175},
{0.241125,0.241125,0.241125},
{0.020307,0.020307,0.020307},
{0.002906,0.002906,0.002906},
{0.075380,0.075380,0.075380},
{-0.075519,-0.075519,-0.075519},
{0.116073,0.116073,0.116073},
{0.026206,0.026206,0.026206},
{-0.185675,-0.185675,-0.185675},
{0.016552,0.016552,0.016552},
{-0.048708,-0.048708,-0.048708},
{-0.022164,-0.022164,-0.022164},
{-0.063873,-0.063873,-0.063873},
{-0.116836,-0.116836,-0.116836},
{-0.067349,-0.067349,-0.067349},
{0.029801,0.029801,0.029801},
{-0.061461,-0.061461,-0.061461},
{0.056571,0.056571,0.056571},
{0.035638,0.035638,0.035638},
{-0.060669,-0.060669,-0.060669},
{0.124386,0.124386,0.124386},
{0.066504,0.066504,0.066504},
{-0.031621,-0.031621,-0.031621},
{-0.193924,-0.193924,-0.193924},
{0.098377,0.098377,0.098377},
{-0.106801,-0.106801,-0.106801},
{-0.063438,-0.063438,-0.063438},
{-0.076471,-0.076471,-0.076471},
{0.036978,0.036978,0.036978},
{0.109525,0.109525,0.109525},
{-0.056561,-0.056561,-0.056561},
{-0.063723,-0.063723,-0.063723},
{-0.232412,-0.232412,-0.232412},
{0.027294,0.027294,0.027294},
{-0.181730,-0.181730,-0.181730},
{-0.083017,-0.083017,-0.083017},
{-0.077946,-0.077946,-0.077946},
{0.055367,0.055367,0.055367},
{-0.058559,-0.058559,-0.058559},
{-0.027685,-0.027685,-0.027685},
{-0.042719,-0.042719,-0.042719},
{-0.126591,-0.126591,-0.126591},
{-0.108267,-0.108267,-0.108267},
{0.121726,0.121726,0.121726},
{0.162166,0.162166,0.162166},
{-0.080533,-0.080533,-0.080533},
{-0.090023,-0.090023,-0.090023},
{-0.039086,-0.039086,-0.039086},
{-0.049566,-0.049566,-0.049566},
{-0.079578,-0.079578,-0.079578},
{0.017499,0.017499,0.017499},
{-0.012187,-0.012187,-0.012187},
{-0.088521,-0.088521,-0.088521},
{-0.056284,-0.056284,-0.056284},
{0.066748,0.066748,0.066748},
{0.029359,0.029359,0.029359},
{-0.154509,-0.154509,-0.154509},
{-0.035469,-0.035469,-0.035469},
{-0.044563,-0.044563,-0.044563},
{0.040791,0.040791,0.040791},
{-0.007150,-0.007150,-0.007150},
{0.208634,0.208634,0.208634},
{0.023526,0.023526,0.023526},
{-0.080881,-0.080881,-0.080881},
{0.077847,0.077847,0.077847},
{0.143916,0.143916,0.143916},
{-0.120448,-0.120448,-0.120448},
{0.140124,0.140124,0.140124},
{0.099387,0.099387,0.099387},
{0.140953,0.140953,0.140953},
{0.177659,0.177659,0.177659},
{0.040862,0.040862,0.040862},
{0.087972,0.087972,0.087972},
{0.093373,0.093373,0.093373},
{-0.017318,-0.017318,-0.017318},
{-0.003355,-0.003355,-0.003355},
{-0.124121,-0.124121,-0.124121},
{0.053981,0.053981,0.053981},
{-0.106651,-0.106651,-0.106651},
{0.246614,0.246614,0.246614},
{0.014599,0.014599,0.014599},
{-0.071923,-0.071923,-0.071923},
{-0.127557,-0.127557,-0.127557},
{0.081127,0.081127,0.081127},
{-0.001031,-0.001031,-0.001031},
{-0.060802,-0.060802,-0.060802},
{-0.102674,-0.102674,-0.102674},
{-0.022969,-0.022969,-0.022969},
{-0.124777,-0.124777,-0.124777},
{-0.167336,-0.167336,-0.167336},
{0.050131,0.050131,0.050131},
{-0.078946,-0.078946,-0.078946},
{0.016810,0.016810,0.016810},
{-0.021884,-0.021884,-0.021884},
{0.034166,0.034166,0.034166},
{0.044795,0.044795,0.044795},
{-0.042072,-0.042072,-0.042072},
{0.070468,0.070468,0.070468},
{0.015035,0.015035,0.015035},
{0.008651,0.008651,0.008651},
{-0.091599,-0.091599,-0.091599},
{-0.103787,-0.103787,-0.103787},
{0.071954,0.071954,0.071954},
{-0.102498,-0.102498,-0.102498},
{-0.231898,-0.231898,-0.231898},
{0.097074,0.097074,0.097074},
{0.026726,0.026726,0.026726},
{0.077744,0.077744,0.077744},
{-0.029591,-0.029591,-0.029591},
{-0.053780,-0.053780,-0.053780},
{0.006231,0.006231,0.006231},
{0.039570,0.039570,0.039570},
{0.023254,0.023254,0.023254},
{0.090741,0.090741,0.090741},
{-0.011446,-0.011446,-0.011446},
{0.027252,0.027252,0.027252},
{0.031017,0.031017,0.031017},
{-0.027863,-0.027863,-0.027863},
{-0.002099,-0.002099,-0.002099},
{0.001570,0.001570,0.001570},
{-0.016586,-0.016586,-0.016586},
{0.028702,0.028702,0.028702},
{-0.026238,-0.026238,-0.026238},
{0.095632,0.095632,0.095632},
{0.112878,0.112878,0.112878},
{0.044949,0.044949,0.044949},
{0.028944,0.028944,0.028944},
{-0.029504,-0.029504,-0.029504},
{-0.073856,-0.073856,-0.073856},
{0.104986,0.104986,0.104986},
{0.098775,0.098775,0.098775},
{0.177468,0.177468,0.177468},
{-0.046087,-0.046087,-0.046087},
{0.022423,0.022423,0.022423},
{-0.038693,-0.038693,-0.038693},
{0.005793,0.005793,0.005793},
{-0.058430,-0.058430,-0.058430},
{0.051663,0.051663,0.051663},
{-0.130836,-0.130836,-0.130836},
{-0.173872,-0.173872,-0.173872},
{-0.173964,-0.173964,-0.173964},
{-0.017179,-0.017179,-0.017179},
{0.090403,0.090403,0.090403},
{0.038196,0.038196,0.038196},
{0.008129,0.008129,0.008129},
{-0.003881,-0.003881,-0.003881},
{-0.024045,-0.024045,-0.024045},
{-0.043769,-0.043769,-0.043769},
{-0.053783,-0.053783,-0.053783},
{-0.048002,-0.048002,-0.048002},
{-0.011390,-0.011390,-0.011390},
{-0.025747,-0.025747,-0.025747},
{0.004734,0.004734,0.004734},
{0.007402,0.007402,0.007402},
{-0.011763,-0.011763,-0.011763},
{0.043149,0.043149,0.043149},
{-0.022179,-0.022179,-0.022179},
{-0.040986,-0.040986,-0.040986},
{0.011438,0.011438,0.011438},
{-0.052185,-0.052185,-0.052185},
{-0.025963,-0.025963,-0.025963},
{-0.033942,-0.033942,-0.033942},
{-0.119252,-0.119252,-0.119252},
{-0.165461,-0.165461,-0.165461},
{-0.172388,-0.172388,-0.172388},
{-0.016717,-0.016717,-0.016717},
{-0.003052,-0.003052,-0.003052},
{0.033147,0.033147,0.033147},
{-0.044364,-0.044364,-0.044364},
{-0.000413,-0.000413,-0.000413},
{0.020284,0.020284,0.020284},
{-0.028555,-0.028555,-0.028555},
{0.003188,0.003188,0.003188},
{0.059703,0.059703,0.059703},
{0.121813,0.121813,0.121813},
{0.145932,0.145932,0.145932},
{0.105159,0.105159,0.105159},
{-0.015698,-0.015698,-0.015698},
{-0.015213,-0.015213,-0.015213},
{0.030157,0.030157,0.030157},
{0.044908,0.044908,0.044908},
{0.017872,0.017872,0.017872},
{-0.015600,-0.015600,-0.015600},
{-0.103027,-0.103027,-0.103027},
{-0.161806,-0.161806,-0.161806},
{-0.125432,-0.125432,-0.125432},
{-0.020876,-0.020876,-0.020876},
{-0.019981,-0.019981,-0.019981},
{-0.097162,-0.097162,-0.097162},
{0.012697,0.012697,0.012697},
{-0.007707,-0.007707,-0.007707},
{-0.021368,-0.021368,-0.021368},
{0.056607,0.056607,0.056607},
{0.041737,0.041737,0.041737},
{0.036682,0.036682,0.036682},
{0.003817,0.003817,0.003817},
{0.053519,0.053519,0.053519},
{0.003631,0.003631,0.003631},
{-0.047789,-0.047789,-0.047789},
{-0.067607,-0.067607,-0.067607},
{-0.049502,-0.049502,-0.049502},
{-0.051691,-0.051691,-0.051691},
{0.098224,0.098224,0.098224},
{0.034425,0.034425,0.034425},
{-0.155742,-0.155742,-0.155742},
{-0.035278,-0.035278,-0.035278},
{-0.053184,-0.053184,-0.053184},
{0.029953,0.029953,0.029953},
{0.038185,0.038185,0.038185},
{-0.094420,-0.094420,-0.094420},
{0.029262,0.029262,0.029262},
{0.129697,0.129697,0.129697},
{-0.005353,-0.005353,-0.005353},
{-0.039254,-0.039254,-0.039254},
{-0.036789,-0.036789,-0.036789},
{0.068761,0.068761,0.068761},
{-0.033236,-0.033236,-0.033236},
{0.026946,0.026946,0.026946},
{0.027583,0.027583,0.027583},
{-0.018301,-0.018301,-0.018301},
{-0.047176,-0.047176,-0.047176},
{0.025415,0.025415,0.025415},
{-0.137760,-0.137760,-0.137760},
{-0.028577,-0.028577,-0.028577},
{0.032507,0.032507,0.032507},
{0.012630,0.012630,0.012630},
{0.117367,0.117367,0.117367},
{-0.017396,-0.017396,-0.017396},
{-0.013394,-0.013394,-0.013394},
{0.015824,0.015824,0.015824},
{-0.000288,-0.000288,-0.000288},
{0.014108,0.014108,0.014108},
{0.041282,0.041282,0.041282},
{-0.084125,-0.084125,-0.084125},
{0.016293,0.016293,0.016293},
{-0.076921,-0.076921,-0.076921},
{0.014468,0.014468,0.014468},
{0.062677,0.062677,0.062677},
{0.057233,0.057233,0.057233},
{-0.030078,-0.030078,-0.030078},
{-0.111911,-0.111911,-0.111911},
{0.034456,0.034456,0.034456},
{0.081814,0.081814,0.081814},
{-0.047460,-0.047460,-0.047460},
{0.009432,0.009432,0.009432},
{-0.007726,-0.007726,-0.007726},
{-0.076054,-0.076054,-0.076054},
{0.030508,0.030508,0.030508},
{0.031428,0.031428,0.031428},
{0.024020,0.024020,0.024020},
{0.028782,0.028782,0.028782},
{-0.055779,-0.055779,-0.055779},
{0.092065,0.092065,0.092065},
{0.099116,0.099116,0.099116},
{-0.102551,-0.102551,-0.102551},
{0.082732,0.082732,0.082732},
{-0.100186,-0.100186,-0.100186},
{-0.069898,-0.069898,-0.069898},
{0.036623,0.036623,0.036623},
{-0.026988,-0.026988,-0.026988},
{0.001787,0.001787,0.001787},
{-0.024038,-0.024038,-0.024038},
{-0.026719,-0.026719,-0.026719},
{0.075548,0.075548,0.075548},
{0.219990,0.219990,0.219990},
{0.045372,0.045372,0.045372},
{-0.118531,-0.118531,-0.118531},
{0.069662,0.069662,0.069662},
{0.079262,0.079262,0.079262},
{-0.056125,-0.056125,-0.056125},
{-0.116670,-0.116670,-0.116670},
{-0.030647,-0.030647,-0.030647},
{0.074890,0.074890,0.074890},
{0.041213,0.041213,0.041213},
{0.028839,0.028839,0.028839},
{-0.038034,-0.038034,-0.038034},
{0.007077,0.007077,0.007077},
{0.061850,0.061850,0.061850},
{0.069883,0.069883,0.069883},
{-0.017940,-0.017940,-0.017940},
{-0.003534,-0.003534,-0.003534},
{-0.023240,-0.023240,-0.023240},
{-0.036231,-0.036231,-0.036231},
{-0.029683,-0.029683,-0.029683},
{0.067781,0.067781,0.067781},
{-0.042742,-0.042742,-0.042742},
{0.021100,0.021100,0.021100},
{0.003280,0.003280,0.003280},
{-0.093310,-0.093310,-0.093310},
{0.025991,0.025991,0.025991},
{0.045732,0.045732,0.045732},
{-0.051739,-0.051739,-0.051739},
{0.010592,0.010592,0.010592},
{0.064925,0.064925,0.064925},
{-0.037732,-0.037732,-0.037732},
{0.018302,0.018302,0.018302},
{-0.006731,-0.006731,-0.006731},
{0.026177,0.026177,0.026177},
{-0.000470,-0.000470,-0.000470},
{0.022278,0.022278,0.022278},
{-0.004618,-0.004618,-0.004618},
{0.003686,0.003686,0.003686},
{0.003192,0.003192,0.003192},
{0.008498,0.008498,0.008498},
{0.010413,0.010413,0.010413},
{0.004492,0.004492,0.004492},
{-0.020467,-0.020467,-0.020467},
{-0.021407,-0.021407,-0.021407},
{-0.010559,-0.010559,-0.010559},
{-0.165407,-0.165407,-0.165407},
{-0.153463,-0.153463,-0.153463},
{-0.244374,-0.244374,-0.244374},
{-0.001608,-0.001608,-0.001608},
{0.003327,0.003327,0.003327},
{0.002922,0.002922,0.002922},
{0.005750,0.005750,0.005750},
{0.010721,0.010721,0.010721},
{-0.004301,-0.004301,-0.004301},
{-0.009195,-0.009195,-0.009195},
{-0.015016,-0.015016,-0.015016},
{-0.001365,-0.001365,-0.001365},
{-0.010605,-0.010605,-0.010605},
{0.008493,0.008493,0.008493},
{0.001496,0.001496,0.001496},
{0.016476,0.016476,0.016476},
{0.015764,0.015764,0.015764},
{0.028423,0.028423,0.028423},
{0.004337,0.004337,0.004337},
{0.002344,0.002344,0.002344},
{-0.007397,-0.007397,-0.007397},
{0.003238,0.003238,0.003238},
{0.002836,0.002836,0.002836},
{-0.003520,-0.003520,-0.003520},
{0.019214,0.019214,0.019214},
{-0.015762,-0.015762,-0.015762},
{0.014237,0.014237,0.014237},
{-0.001179,-0.001179,-0.001179},
{0.001839,0.001839,0.001839},
{0.022248,0.022248,0.022248},
{0.020579,0.020579,0.020579},
{0.028698,0.028698,0.028698},
{-0.000146,-0.000146,-0.000146},
{0.004733,0.004733,0.004733},
{0.015072,0.015072,0.015072},
{0.013604,0.013604,0.013604},
{0.018450,0.018450,0.018450},
{-0.001458,-0.001458,-0.001458},
{-0.006539,-0.006539,-0.006539},
{-0.005560,-0.005560,-0.005560},
{-0.011989,-0.011989,-0.011989},
{-0.000465,-0.000465,-0.000465},
{-0.020186,-0.020186,-0.020186},
{-0.003113,-0.003113,-0.003113},
{-0.034891,-0.034891,-0.034891},
{0.002430,0.002430,0.002430},
{-0.001949,-0.001949,-0.001949},
{0.023667,0.023667,0.023667},
{-0.008794,-0.008794,-0.008794},
{-0.003551,-0.003551,-0.003551},
{-0.016892,-0.016892,-0.016892},
{0.010626,0.010626,0.010626},
{0.030279,0.030279,0.030279},
{0.003926,0.003926,0.003926},
{-0.007709,-0.007709,-0.007709},
{0.009447,0.009447,0.009447},
{0.014682,0.014682,0.014682},
{-0.011605,-0.011605,-0.011605},
{-0.002909,-0.002909,-0.002909},
{-0.003528,-0.003528,-0.003528},
{-0.071733,-0.071733,-0.071733},
{-0.045462,-0.045462,-0.045462},
{-0.010655,-0.010655,-0.010655},
{0.005098,0.005098,0.005098},
{0.007828,0.007828,0.007828},
{0.030584,0.030584,0.030584},
{0.016095,0.016095,0.016095},
{-0.002547,-0.002547,-0.002547},
{0.003219,0.003219,0.003219},
{-0.004041,-0.004041,-0.004041},
{-0.005395,-0.005395,-0.005395},
{-0.003370,-0.003370,-0.003370},
{0.008295,0.008295,0.008295},
{0.004814,0.004814,0.004814},
{0.014359,0.014359,0.014359},
{-0.006757,-0.006757,-0.006757},
{-0.013925,-0.013925,-0.013925},
{0.011621,0.011621,0.011621},
{0.001339,0.001339,0.001339},
{0.021509,0.021509,0.021509},
{0.014108,0.014108,0.014108},
{0.011695,0.011695,0.011695},
{0.002459,0.002459,0.002459},
{0.004688,0.004688,0.004688},
{-0.020665,-0.020665,-0.020665},
{-0.048286,-0.048286,-0.048286},
{-0.047735,-0.047735,-0.047735},
{0.007589,0.007589,0.007589},
{-0.009228,-0.009228,-0.009228},
{-0.064562,-0.064562,-0.064562},
{-0.016493,-0.016493,-0.016493},
{0.025903,0.025903,0.025903},
{0.047418,0.047418,0.047418},
{-0.025588,-0.025588,-0.025588},
{0.083525,0.083525,0.083525},
{0.031062,0.031062,0.031062},
{0.004029,0.004029,0.004029},
{-0.007296,-0.007296,-0.007296},
{-0.000902,-0.000902,-0.000902},
{-0.004736,-0.004736,-0.004736},
{-0.031296,-0.031296,-0.031296},
{-0.002282,-0.002282,-0.002282},
{0.013266,0.013266,0.013266},
{-0.013886,-0.013886,-0.013886},
{0.007954,0.007954,0.007954},
{0.017888,0.017888,0.017888},
{0.025583,0.025583,0.025583},
{-0.006872,-0.006872,-0.006872},
{0.008540,0.008540,0.008540},
{0.034808,0.034808,0.034808},
{0.038480,0.038480,0.038480},
{0.017888,0.017888,0.017888},
{-0.037842,-0.037842,-0.037842},
{-0.023695,-0.023695,-0.023695},
{0.016028,0.016028,0.016028},
{0.001382,0.001382,0.001382},
{-0.070540,-0.070540,-0.070540},
{0.006133,0.006133,0.006133},
{0.043492,0.043492,0.043492},
{0.037044,0.037044,0.037044},
{-0.030541,-0.030541,-0.030541},
{0.019841,0.019841,0.019841},
{0.045482,0.045482,0.045482},
{-0.001551,-0.001551,-0.001551},
{0.013615,0.013615,0.013615},
{0.036094,0.036094,0.036094},
{-0.013074,-0.013074,-0.013074},
{-0.080378,-0.080378,-0.080378},
{-0.087329,-0.087329,-0.087329},
{-0.029332,-0.029332,-0.029332},
{-0.040125,-0.040125,-0.040125},
{-0.054069,-0.054069,-0.054069},
{-0.002400,-0.002400,-0.002400},
{0.051695,0.051695,0.051695},
{0.058072,0.058072,0.058072},
{0.030434,0.030434,0.030434},
{0.020907,0.020907,0.020907},
{0.021982,0.021982,0.021982},
{0.008463,0.008463,0.008463},
{0.018602,0.018602,0.018602},
{0.041346,0.041346,0.041346},
{0.022024,0.022024,0.022024},
{0.041324,0.041324,0.041324},
{0.010103,0.010103,0.010103},
{0.026175,0.026175,0.026175},
{-0.041631,-0.041631,-0.041631},
{-0.138695,-0.138695,-0.138695},
{0.047588,0.047588,0.047588},
{0.047543,0.047543,0.047543},
{0.118110,0.118110,0.118110},
{-0.027091,-0.027091,-0.027091},
{-0.001822,-0.001822,-0.001822},
{-0.016389,-0.016389,-0.016389},
{0.010773,0.010773,0.010773},
{-0.037137,-0.037137,-0.037137},
{-0.060725,-0.060725,-0.060725},
{-0.011362,-0.011362,-0.011362},
{0.026501,0.026501,0.026501},
{0.011440,0.011440,0.011440},
{0.023744,0.023744,0.023744},
{-0.052170,-0.052170,-0.052170},
{-0.071786,-0.071786,-0.071786},
{-0.009560,-0.009560,-0.009560},
{-0.007570,-0.007570,-0.007570},
{0.023844,0.023844,0.023844},
{-0.017003,-0.017003,-0.017003},
{-0.054990,-0.054990,-0.054990},
{-0.107216,-0.107216,-0.107216},
{-0.033623,-0.033623,-0.033623},
{-0.067950,-0.067950,-0.067950},
{-0.063886,-0.063886,-0.063886},
{-0.001899,-0.001899,-0.001899},
{-0.027948,-0.027948,-0.027948},
{-0.030749,-0.030749,-0.030749},
{-0.040200,-0.040200,-0.040200},
{-0.057054,-0.057054,-0.057054},
{-0.060684,-0.060684,-0.060684},
{0.019641,0.019641,0.019641},
{-0.041189,-0.041189,-0.041189},
{-0.052699,-0.052699,-0.052699},
{-0.022270,-0.022270,-0.022270},
{0.047631,0.047631,0.047631},
{0.006149,0.006149,0.006149},
{-0.115289,-0.115289,-0.115289},
{-0.029636,-0.029636,-0.029636},
{0.011571,0.011571,0.011571},
{0.185403,0.185403,0.185403},
{0.164259,0.164259,0.164259},
{-0.008205,-0.008205,-0.008205},
{-0.097084,-0.097084,-0.097084},
{-0.025699,-0.025699,-0.025699},
{-0.048391,-0.048391,-0.048391},
{0.062628,0.062628,0.062628},
{0.039211,0.039211,0.039211},
{0.019547,0.019547,0.019547},
{0.052268,0.052268,0.052268},
{0.010741,0.010741,0.010741},
{-0.015642,-0.015642,-0.015642},
{-0.139877,-0.139877,-0.139877},
{-0.026229,-0.026229,-0.026229},
{0.008493,0.008493,0.008493},
{0.042353,0.042353,0.042353},
{0.027144,0.027144,0.027144},
{-0.065000,-0.065000,-0.065000},
{0.002733,0.002733,0.002733},
{0.093846,0.093846,0.093846},
{0.164965,0.164965,0.164965},
{0.028455,0.028455,0.028455},
{-0.023532,-0.023532,-0.023532},
{0.043805,0.043805,0.043805},
{0.010162,0.010162,0.010162},
{-0.074301,-0.074301,-0.074301},
{-0.139490,-0.139490,-0.139490},
{-0.112948,-0.112948,-0.112948},
{-0.268878,-0.268878,-0.268878},
{-0.070158,-0.070158,-0.070158},
{0.021104,0.021104,0.021104},
{0.096521,0.096521,0.096521},
{0.050547,0.050547,0.050547},
{0.083991,0.083991,0.083991},
{0.063766,0.063766,0.063766},
{0.063830,0.063830,0.063830},
{-0.034635,-0.034635,-0.034635},
{-0.118043,-0.118043,-0.118043},
{-0.053197,-0.053197,-0.053197},
{0.006538,0.006538,0.006538},
{0.080855,0.080855,0.080855},
{-0.009835,-0.009835,-0.009835},
{0.123440,0.123440,0.123440},
{0.112148,0.112148,0.112148},
{0.021893,0.021893,0.021893},
{-0.055295,-0.055295,-0.055295},
{-0.070817,-0.070817,-0.070817},
{-0.017047,-0.017047,-0.017047},
{-0.043836,-0.043836,-0.043836},
{-0.156534,-0.156534,-0.156534},
{-0.013986,-0.013986,-0.013986},
{-0.123712,-0.123712,-0.123712},
{-0.226747,-0.226747,-0.226747},
{-0.048277,-0.048277,-0.048277},
{-0.026817,-0.026817,-0.026817},
{-0.029085,-0.029085,-0.029085},
{-0.013219,-0.013219,-0.013219},
{-0.032518,-0.032518,-0.032518},
{-0.076627,-0.076627,-0.076627},
{-0.040663,-0.040663,-0.040663},
{0.040506,0.040506,0.040506},
{0.035425,0.035425,0.035425},
{0.037090,0.037090,0.037090},
{-0.216986,-0.216986,-0.216986},
{0.030110,0.030110,0.030110},
{0.111728,0.111728,0.111728},
{-0.042371,-0.042371,-0.042371},
{-0.018968,-0.018968,-0.018968},
{0.005788,0.005788,0.005788},
{0.050465,0.050465,0.050465},
{-0.017050,-0.017050,-0.017050},
{-0.112231,-0.112231,-0.112231},
{0.013744,0.013744,0.013744},
{-0.066929,-0.066929,-0.066929},
{0.057396,0.057396,0.057396},
{0.073061,0.073061,0.073061},
{-0.006737,-0.006737,-0.006737},
{-0.077702,-0.077702,-0.077702},
{0.023904,0.023904,0.023904},
{0.067149,0.067149,0.067149},
{0.069692,0.069692,0.069692},
{-0.008728,-0.008728,-0.008728},
{0.134545,0.134545,0.134545},
{-0.024280,-0.024280,-0.024280},
{0.182091,0.182091,0.182091},
{0.046170,0.046170,0.046170},
{-0.088262,-0.088262,-0.088262},
{0.022112,0.022112,0.022112},
{-0.139014,-0.139014,-0.139014},
{-0.076450,-0.076450,-0.076450},
{0.011369,0.011369,0.011369},
{-0.000392,-0.000392,-0.000392},
{-0.035489,-0.035489,-0.035489},
{-0.031482,-0.031482,-0.031482},
{-0.063832,-0.063832,-0.063832},
{-0.093350,-0.093350,-0.093350},
{-0.043831,-0.043831,-0.043831},
{-0.033242,-0.033242,-0.033242},
{-0.024376,-0.024376,-0.024376},
{0.024434,0.024434,0.024434},
{0.008292,0.008292,0.008292},
{-0.033908,-0.033908,-0.033908},
{0.040756,0.040756,0.040756},
{0.060096,0.060096,0.060096},
{-0.035102,-0.035102,-0.035102},
{-0.048891,-0.048891,-0.048891},
{-0.051941,-0.051941,-0.051941},
{-0.052328,-0.052328,-0.052328},
{-0.017962,-0.017962,-0.017962},
{0.006067,0.006067,0.006067},
{0.004065,0.004065,0.004065},
{-0.013594,-0.013594,-0.013594},
{-0.017536,-0.017536,-0.017536},
{-0.004648,-0.004648,-0.004648},
{0.019210,0.019210,0.019210},
{-0.001266,-0.001266,-0.001266},
{0.003160,0.003160,0.003160},
{-0.025134,-0.025134,-0.025134},
{-0.054389,-0.054389,-0.054389},
{0.003469,0.003469,0.003469},
{-0.028232,-0.028232,-0.028232},
{-0.049946,-0.049946,-0.049946},
{-0.075563,-0.075563,-0.075563},
{-0.006037,-0.006037,-0.006037},
{0.007176,0.007176,0.007176},
{0.018984,0.018984,0.018984},
{-0.016423,-0.016423,-0.016423},
{-0.058658,-0.058658,-0.058658},
{-0.056962,-0.056962,-0.056962},
{0.016908,0.016908,0.016908},
{0.019581,0.019581,0.019581},
{0.006896,0.006896,0.006896},
{-0.033616,-0.033616,-0.033616},
{-0.030496,-0.030496,-0.030496},
{-0.035362,-0.035362,-0.035362},
{0.033497,0.033497,0.033497},
{0.068565,0.068565,0.068565},
{0.014554,0.014554,0.014554},
{-0.005805,-0.005805,-0.005805},
{-0.011515,-0.011515,-0.011515},
{-0.035828,-0.035828,-0.035828},
{-0.011103,-0.011103,-0.011103},
{0.037645,0.037645,0.037645},
{0.043837,0.043837,0.043837},
{-0.041847,-0.041847,-0.041847},
{-0.032807,-0.032807,-0.032807},
{-0.014721,-0.014721,-0.014721},
{0.007343,0.007343,0.007343},
{0.020507,0.020507,0.020507},
{0.009637,0.009637,0.009637},
{0.033629,0.033629,0.033629},
{0.070567,0.070567,0.070567},
{0.076832,0.076832,0.076832},
{0.047528,0.047528,0.047528},
{0.050987,0.050987,0.050987},
{0.048430,0.048430,0.048430},
{0.018872,0.018872,0.018872},
{0.025132,0.025132,0.025132},
{0.034395,0.034395,0.034395},
{0.023718,0.023718,0.023718},
{-0.002029,-0.002029,-0.002029},
{0.031769,0.031769,0.031769},
{-0.003887,-0.003887,-0.003887},
{0.009890,0.009890,0.009890},
{0.037883,0.037883,0.037883},
{-0.043082,-0.043082,-0.043082},
{-0.041047,-0.041047,-0.041047},
{-0.053664,-0.053664,-0.053664},
{-0.010483,-0.010483,-0.010483},
{-0.003699,-0.003699,-0.003699},
{-0.021527,-0.021527,-0.021527},
{0.042926,0.042926,0.042926},
{0.029458,0.029458,0.029458},
{0.045684,0.045684,0.045684},
{0.015808,0.015808,0.015808},
{-0.006470,-0.006470,-0.006470},
{0.043500,0.043500,0.043500},
{-0.033511,-0.033511,-0.033511},
{-0.028464,-0.028464,-0.028464},
{-0.024055,-0.024055,-0.024055},
{-0.000839,-0.000839,-0.000839},
{0.011786,0.011786,0.011786},
{-0.008746,-0.008746,-0.008746},
{0.025178,0.025178,0.025178},
{-0.004644,-0.004644,-0.004644},
{-0.032717,-0.032717,-0.032717},
{0.028426,0.028426,0.028426},
{0.018086,0.018086,0.018086},
{0.071277,0.071277,0.071277},
{-0.027308,-0.027308,-0.027308},
{0.039636,0.039636,0.039636},
{-0.046176,-0.046176,-0.046176},
{0.024231,0.024231,0.024231},
{-0.007970,-0.007970,-0.007970},
{0.001958,0.001958,0.001958},
{-0.004320,-0.004320,-0.004320},
{0.022121,0.022121,0.022121},
{-0.003741,-0.003741,-0.003741},
{0.052920,0.052920,0.052920},
{0.005944,0.005944,0.005944},
{0.055564,0.055564,0.055564},
{-0.009914,-0.009914,-0.009914},
{-0.067368,-0.067368,-0.067368},
{0.029440,0.029440,0.029440},
{0.058666,0.058666,0.058666},
{0.038387,0.038387,0.038387},
{0.015090,0.015090,0.015090},
{-0.005553,-0.005553,-0.005553},
{0.025417,0.025417,0.025417},
{0.054008,0.054008,0.054008},
{0.005212,0.005212,0.005212},
{-0.007852,-0.007852,-0.007852},
{0.026731,0.026731,0.026731},
{-0.027010,-0.027010,-0.027010},
{-0.031058,-0.031058,-0.031058},
{0.086318,0.086318,0.086318},
{0.017251,0.017251,0.017251},
{-0.031162,-0.031162,-0.031162},
{0.039514,0.039514,0.039514},
{0.004349,0.004349,0.004349},
{0.038289,0.038289,0.038289},
{-0.025126,-0.025126,-0.025126},
{-0.026399,-0.026399,-0.026399},
{-0.100643,-0.100643,-0.100643},
{0.017846,0.017846,0.017846},
{0.008259,0.008259,0.008259},
{-0.015074,-0.015074,-0.015074},
{0.026652,0.026652,0.026652},
{-0.101764,-0.101764,-0.101764},
{-0.210045,-0.210045,-0.210045},
{-0.193474,-0.193474,-0.193474},
{0.006733,0.006733,0.006733},
{0.017099,0.017099,0.017099},
{-0.017708,-0.017708,-0.017708},
{0.027756,0.027756,0.027756},
{0.027566,0.027566,0.027566},
{0.093817,0.093817,0.093817},
{-0.120419,-0.120419,-0.120419},
{-0.063210,-0.063210,-0.063210},
{-0.018256,-0.018256,-0.018256},
{-0.104299,-0.104299,-0.104299},
{-0.135408,-0.135408,-0.135408},
{-0.124699,-0.124699,-0.124699},
{0.013931,0.013931,0.013931},
{0.046313,0.046313,0.046313},
{0.003159,0.003159,0.003159},
{-0.007849,-0.007849,-0.007849},
{0.038712,0.038712,0.038712},
{0.053224,0.053224,0.053224},
{-0.048515,-0.048515,-0.048515},
{-0.067267,-0.067267,-0.067267},
{0.014009,0.014009,0.014009},
{-0.014944,-0.014944,-0.014944},
{-0.034311,-0.034311,-0.034311},
{0.084665,0.084665,0.084665},
{-0.010354,-0.010354,-0.010354},
{-0.014269,-0.014269,-0.014269},
{-0.026569,-0.026569,-0.026569},
{0.055297,0.055297,0.055297},
{0.013358,0.013358,0.013358},
{0.014552,0.014552,0.014552},
{-0.067153,-0.067153,-0.067153},
{-0.128871,-0.128871,-0.128871},
{-0.099990,-0.099990,-0.099990},
{0.005557,0.005557,0.005557},
{-0.068938,-0.068938,-0.068938},
{-0.027604,-0.027604,-0.027604},
{-0.003781,-0.003781,-0.003781},
{-0.045564,-0.045564,-0.045564},
{-0.003397,-0.003397,-0.003397},
{-0.000952,-0.000952,-0.000952},
{-0.063757,-0.063757,-0.063757},
{0.000235,0.000235,0.000235},
{-0.000283,-0.000283,-0.000283},
{0.000059,0.000059,0.000059},
{0.007391,0.007391,0.007391},
{0.064712,0.064712,0.064712},
{0.004396,0.004396,0.004396},
{0.020772,0.020772,0.020772},
{0.039101,0.039101,0.039101},
{0.052986,0.052986,0.052986},
{0.103904,0.103904,0.103904},
{0.050293,0.050293,0.050293},
{0.063283,0.063283,0.063283},
{-0.016015,-0.016015,-0.016015},
{-0.036109,-0.036109,-0.036109},
{0.003954,0.003954,0.003954},
{0.042546,0.042546,0.042546},
{0.053305,0.053305,0.053305},
{0.014845,0.014845,0.014845},
{-0.078219,-0.078219,-0.078219},
{-0.087709,-0.087709,-0.087709},
{-0.116811,-0.116811,-0.116811},
{-0.087152,-0.087152,-0.087152},
{-0.021336,-0.021336,-0.021336},
{-0.007109,-0.007109,-0.007109},
{-0.076837,-0.076837,-0.076837},
{0.035375,0.035375,0.035375},
{0.029755,0.029755,0.029755},
{-0.008539,-0.008539,-0.008539},
{0.016538,0.016538,0.016538},
{0.062192,0.062192,0.062192},
{0.018168,0.018168,0.018168},
{0.047191,0.047191,0.047191},
{0.004927,0.004927,0.004927},
{-0.008958,-0.008958,-0.008958},
{0.043142,0.043142,0.043142},
{0.076632,0.076632,0.076632},
{-0.061094,-0.061094,-0.061094},
{-0.004306,-0.004306,-0.004306},
{-0.038673,-0.038673,-0.038673},
{0.007409,0.007409,0.007409},
{-0.016831,-0.016831,-0.016831},
{0.000113,0.000113,0.000113},
{-0.044837,-0.044837,-0.044837},
{-0.035399,-0.035399,-0.035399},
{0.023479,0.023479,0.023479},
{0.040131,0.040131,0.040131},
{0.181072,0.181072,0.181072},
{0.102733,0.102733,0.102733},
{0.133761,0.133761,0.133761},
{-0.011474,-0.011474,-0.011474},
{-0.009692,-0.009692,-0.009692},
{-0.005511,-0.005511,-0.005511},
{0.032147,0.032147,0.032147},
{-0.020052,-0.020052,-0.020052},
{-0.025272,-0.025272,-0.025272},
{-0.052959,-0.052959,-0.052959},
{-0.054912,-0.054912,-0.054912},
{-0.100053,-0.100053,-0.100053},
{-0.000804,-0.000804,-0.000804},
{-0.011958,-0.011958,-0.011958},
{-0.081291,-0.081291,-0.081291},
{-0.004073,-0.004073,-0.004073},
{-0.007136,-0.007136,-0.007136},
{0.021681,0.021681,0.021681},
{0.015974,0.015974,0.015974},
{-0.019625,-0.019625,-0.019625},
{0.067414,0.067414,0.067414},
{-0.051630,-0.051630,-0.051630},
{-0.009797,-0.009797,-0.009797},
{-0.024749,-0.024749,-0.024749},
{0.046099,0.046099,0.046099},
{0.042230,0.042230,0.042230},
{0.018861,0.018861,0.018861},
{-0.081121,-0.081121,-0.081121},
{-0.089221,-0.089221,-0.089221},
{-0.092179,-0.092179,-0.092179},
{-0.011926,-0.011926,-0.011926},
{0.014763,0.014763,0.014763},
{0.023462,0.023462,0.023462},
{0.036463,0.036463,0.036463},
{0.032681,0.032681,0.032681},
{0.050850,0.050850,0.050850},
{0.004997,0.004997,0.004997},
{0.002184,0.002184,0.002184},
{-0.003933,-0.003933,-0.003933},
{0.091864,0.091864,0.091864},
{0.034935,0.034935,0.034935},
{-0.011753,-0.011753,-0.011753},
{0.097369,0.097369,0.097369},
{0.126146,0.126146,0.126146},
{0.068532,0.068532,0.068532},
{-0.047126,-0.047126,-0.047126},
{-0.054836,-0.054836,-0.054836},
{-0.060770,-0.060770,-0.060770},
{-0.077615,-0.077615,-0.077615},
{-0.077178,-0.077178,-0.077178},
{-0.101966,-0.101966,-0.101966},
{-0.059047,-0.059047,-0.059047},
{-0.059292,-0.059292,-0.059292},
{0.006531,0.006531,0.006531},
{0.024533,0.024533,0.024533},
{0.028372,0.028372,0.028372},
{0.021990,0.021990,0.021990},
{0.075541,0.075541,0.075541},
{0.116930,0.116930,0.116930},
{-0.026896,-0.026896,-0.026896},
{0.033114,0.033114,0.033114},
{0.087518,0.087518,0.087518},
{0.087832,0.087832,0.087832},
{-0.007630,-0.007630,-0.007630},
{0.008481,0.008481,0.008481},
{0.041166,0.041166,0.041166},
{0.002356,0.002356,0.002356},
{0.010706,0.010706,0.010706},
{0.037461,0.037461,0.037461},
{0.031404,0.031404,0.031404},
{0.003101,0.003101,0.003101},
{-0.038320,-0.038320,-0.038320},
{-0.001311,-0.001311,-0.001311},
{-0.038565,-0.038565,-0.038565},
{-0.021145,-0.021145,-0.021145},
{0.015142,0.015142,0.015142},
{0.020141,0.020141,0.020141},
{-0.019812,-0.019812,-0.019812},
{-0.056635,-0.056635,-0.056635},
{-0.100705,-0.100705,-0.100705},
{-0.080430,-0.080430,-0.080430},
{-0.073742,-0.073742,-0.073742},
{-0.064802,-0.064802,-0.064802},
{-0.038173,-0.038173,-0.038173},
{0.020805,0.020805,0.020805},
{0.037742,0.037742,0.037742},
{-0.019492,-0.019492,-0.019492},
{0.011120,0.011120,0.011120},
{0.081697,0.081697,0.081697},
{0.111850,0.111850,0.111850},
{-0.002352,-0.002352,-0.002352},
{0.038806,0.038806,0.038806},
{-0.023191,-0.023191,-0.023191},
{0.067491,0.067491,0.067491},
{-0.031286,-0.031286,-0.031286},
{0.001966,0.001966,0.001966},
{0.046836,0.046836,0.046836},
{0.049714,0.049714,0.049714},
{0.036903,0.036903,0.036903},
{-0.000953,-0.000953,-0.000953},
{-0.013794,-0.013794,-0.013794},
{0.004328,0.004328,0.004328},
{-0.024357,-0.024357,-0.024357},
{-0.012658,-0.012658,-0.012658},
{-0.008875,-0.008875,-0.008875},
{-0.057182,-0.057182,-0.057182},
{-0.052195,-0.052195,-0.052195},
{-0.045818,-0.045818,-0.045818},
{-0.010453,-0.010453,-0.010453},
{0.017355,0.017355,0.017355},
{0.008394,0.008394,0.008394},
{0.013542,0.013542,0.013542},
{-0.034092,-0.034092,-0.034092},
{-0.040359,-0.040359,-0.040359},
{-0.019081,-0.019081,-0.019081},
{-0.012986,-0.012986,-0.012986},
{0.007740,0.007740,0.007740},
{0.008864,0.008864,0.008864},
{0.017081,0.017081,0.017081},
{0.002236,0.002236,0.002236},
{0.043244,0.043244,0.043244},
{0.011337,0.011337,0.011337},
{-0.015238,-0.015238,-0.015238},
{0.004372,0.004372,0.004372},
{-0.009739,-0.009739,-0.009739},
{-0.010654,-0.010654,-0.010654},
{0.021980,0.021980,0.021980},
{0.009748,0.009748,0.009748},
{-0.009085,-0.009085,-0.009085},
{-0.025799,-0.025799,-0.025799},
{-0.032007,-0.032007,-0.032007},
{-0.025707,-0.025707,-0.025707},
{-0.011184,-0.011184,-0.011184},
{0.002017,0.002017,0.002017},
{0.000040,0.000040,0.000040},
{0.015211,0.015211,0.015211},
{-0.013115,-0.013115,-0.013115},
{0.048992,0.048992,0.048992},
{0.008856,0.008856,0.008856},
{-0.051048,-0.051048,-0.051048},
{-0.074060,-0.074060,-0.074060},
{-0.095641,-0.095641,-0.095641},
{-0.088716,-0.088716,-0.088716},
{-0.061931,-0.061931,-0.061931},
{-0.013391,-0.013391,-0.013391},
{0.076592,0.076592,0.076592},
{0.067804,0.067804,0.067804},
{0.004023,0.004023,0.004023},
{0.075517,0.075517,0.075517},
{0.066926,0.066926,0.066926},
{0.014329,0.014329,0.014329},
{0.080336,0.080336,0.080336},
{0.082216,0.082216,0.082216},
{-0.026323,-0.026323,-0.026323},
{-0.038827,-0.038827,-0.038827},
{-0.046919,-0.046919,-0.046919},
{0.048264,0.048264,0.048264},
{0.028227,0.028227,0.028227},
{0.007332,0.007332,0.007332},
{0.011589,0.011589,0.011589},
{0.045980,0.045980,0.045980},
{0.035984,0.035984,0.035984},
{0.016033,0.016033,0.016033},
{0.000771,0.000771,0.000771},
{0.000453,0.000453,0.000453},
{0.031619,0.031619,0.031619},
{-0.036449,-0.036449,-0.036449},
{-0.027147,-0.027147,-0.027147},
{0.041407,0.041407,0.041407},
{-0.004784,-0.004784,-0.004784},
{-0.011387,-0.011387,-0.011387},
{0.041761,0.041761,0.041761},
{-0.017464,-0.017464,-0.017464},
{-0.010571,-0.010571,-0.010571},
{-0.020104,-0.020104,-0.020104},
{-0.021186,-0.021186,-0.021186},
{-0.028947,-0.028947,-0.028947},
{-0.017160,-0.017160,-0.017160},
{-0.035688,-0.035688,-0.035688},
{-0.047793,-0.047793,-0.047793},
{-0.002795,-0.002795,-0.002795},
{-0.026308,-0.026308,-0.026308},
{-0.016836,-0.016836,-0.016836},
{-0.053138,-0.053138,-0.053138},
{-0.026225,-0.026225,-0.026225},
{0.008138,0.008138,0.008138},
{-0.036505,-0.036505,-0.036505},
{-0.041723,-0.041723,-0.041723},
{-0.017303,-0.017303,-0.017303},
{0.008091,0.008091,0.008091},
{0.008455,0.008455,0.008455},
{0.030432,0.030432,0.030432},
{-0.052142,-0.052142,-0.052142},
{-0.011200,-0.011200,-0.011200},
{0.062731,0.062731,0.062731},
{0.000831,0.000831,0.000831},
{0.014113,0.014113,0.014113},
{0.045077,0.045077,0.045077},
{0.082576,0.082576,0.082576},
{0.059273,0.059273,0.059273},
{0.017212,0.017212,0.017212},
{0.005882,0.005882,0.005882},
{0.021170,0.021170,0.021170},
{0.012738,0.012738,0.012738},
{-0.002508,-0.002508,-0.002508},
{-0.016235,-0.016235,-0.016235},
{0.043344,0.043344,0.043344},
{0.009459,0.009459,0.009459},
{0.003704,0.003704,0.003704},
{0.034504,0.034504,0.034504},
{-0.074176,-0.074176,-0.074176},
{-0.045865,-0.045865,-0.045865},
{-0.025073,-0.025073,-0.025073},
{-0.011262,-0.011262,-0.011262},
{-0.005106,-0.005106,-0.005106},
{0.013276,0.013276,0.013276},
{-0.079061,-0.079061,-0.079061},
{-0.096179,-0.096179,-0.096179},
{-0.067565,-0.067565,-0.067565},
{0.026294,0.026294,0.026294},
{-0.030873,-0.030873,-0.030873},
{0.045250,0.045250,0.045250},
{0.005278,0.005278,0.005278},
{-0.023334,-0.023334,-0.023334},
{0.027201,0.027201,0.027201},
{0.019455,0.019455,0.019455},
{0.078986,0.078986,0.078986},
{0.039012,0.039012,0.039012},
{-0.010902,-0.010902,-0.010902},
{-0.002974,-0.002974,-0.002974},
{0.014373,0.014373,0.014373},
{0.034669,0.034669,0.034669},
{0.000395,0.000395,0.000395},
{-0.016773,-0.016773,-0.016773},
{0.027900,0.027900,0.027900},
{0.017547,0.017547,0.017547},
{0.000370,0.000370,0.000370},
{-0.017826,-0.017826,-0.017826},
{0.037447,0.037447,0.037447},
{0.011097,0.011097,0.011097},
{0.020210,0.020210,0.020210},
{0.045236,0.045236,0.045236},
{0.005097,0.005097,0.005097},
{-0.022186,-0.022186,-0.022186},
{-0.011657,-0.011657,-0.011657},
{0.009060,0.009060,0.009060},
{0.048081,0.048081,0.048081},
{0.100280,0.100280,0.100280},
{0.045310,0.045310,0.045310},
{0.098197,0.098197,0.098197},
{0.063365,0.063365,0.063365},
{0.021213,0.021213,0.021213},
{0.016671,0.016671,0.016671},
{0.056489,0.056489,0.056489},
{0.040918,0.040918,0.040918},
{0.015359,0.015359,0.015359},
{0.014153,0.014153,0.014153},
{0.017809,0.017809,0.017809},
{-0.042021,-0.042021,-0.042021},
{-0.076336,-0.076336,-0.076336},
{-0.036815,-0.036815,-0.036815},
{0.029929,0.029929,0.029929},
{0.022460,0.022460,0.022460},
{0.045209,0.045209,0.045209},
{-0.035448,-0.035448,-0.035448},
{-0.037783,-0.037783,-0.037783},
{0.039165,0.039165,0.039165},
{0.019928,0.019928,0.019928},
{-0.002582,-0.002582,-0.002582},
{-0.011870,-0.011870,-0.011870},
{-0.009453,-0.009453,-0.009453},
{0.001075,0.001075,0.001075},
{-0.024372,-0.024372,-0.024372},
{0.031785,0.031785,0.031785},
{0.040021,0.040021,0.040021},
{0.058314,0.058314,0.058314},
{-0.000054,-0.000054,-0.000054},
{0.041680,0.041680,0.041680},
{-0.009547,-0.009547,-0.009547},
{0.048501,0.048501,0.048501},
{0.018508,0.018508,0.018508},
{0.083105,0.083105,0.083105},
{-0.035647,-0.035647,-0.035647},
{0.059818,0.059818,0.059818},
{0.046713,0.046713,0.046713},
{-0.002516,-0.002516,-0.002516},
{-0.004498,-0.004498,-0.004498},
{0.006820,0.006820,0.006820},
{0.050870,0.050870,0.050870},
{-0.003395,-0.003395,-0.003395},
{-0.106098,-0.106098,-0.106098},
{0.001855,0.001855,0.001855},
{-0.013271,-0.013271,-0.013271},
{0.039778,0.039778,0.039778},
{-0.063332,-0.063332,-0.063332},
{-0.038542,-0.038542,-0.038542},
{-0.000863,-0.000863,-0.000863},
{-0.067522,-0.067522,-0.067522},
{-0.029778,-0.029778,-0.029778},
{0.094335,0.094335,0.094335},
{-0.000805,-0.000805,-0.000805},
{0.004519,0.004519,0.004519},
{0.001627,0.001627,0.001627},
{0.086209,0.086209,0.086209},
{0.018150,0.018150,0.018150},
{-0.030429,-0.030429,-0.030429},
{-0.129699,-0.129699,-0.129699},
{-0.129360,-0.129360,-0.129360},
{-0.060070,-0.060070,-0.060070},
{0.060840,0.060840,0.060840},
{0.005482,0.005482,0.005482},
{0.013674,0.013674,0.013674},
{-0.023036,-0.023036,-0.023036},
{-0.032754,-0.032754,-0.032754},
{-0.006750,-0.006750,-0.006750},
{-0.094083,-0.094083,-0.094083},
{-0.119985,-0.119985,-0.119985},
{-0.106589,-0.106589,-0.106589},
{0.015937,0.015937,0.015937},
{0.014391,0.014391,0.014391},
{-0.020674,-0.020674,-0.020674},
{-0.018450,-0.018450,-0.018450},
{0.039849,0.039849,0.039849},
{0.049162,0.049162,0.049162},
{-0.032414,-0.032414,-0.032414},
{0.024941,0.024941,0.024941},
{-0.021958,-0.021958,-0.021958},
{0.049872,0.049872,0.049872},
{-0.022214,-0.022214,-0.022214},
{-0.061000,-0.061000,-0.061000},
{0.012830,0.012830,0.012830},
{0.012662,0.012662,0.012662},
{0.030372,0.030372,0.030372},
{-0.028077,-0.028077,-0.028077},
{-0.015984,-0.015984,-0.015984},
{-0.002553,-0.002553,-0.002553},
{0.000033,0.000033,0.000033},
{-0.015351,-0.015351,-0.015351},
{-0.051633,-0.051633,-0.051633},
{0.033513,0.033513,0.033513},
{0.006192,0.006192,0.006192},
{0.001772,0.001772,0.001772},
{-0.009809,-0.009809,-0.009809},
{-0.026826,-0.026826,-0.026826},
{-0.005099,-0.005099,-0.005099},
{0.034464,0.034464,0.034464},
{0.028909,0.028909,0.028909},
{0.009779,0.009779,0.009779},
{-0.064580,-0.064580,-0.064580},
{0.002388,0.002388,0.002388},
{-0.059803,-0.059803,-0.059803},
{-0.044259,-0.044259,-0.044259},
{-0.003082,-0.003082,-0.003082},
{0.008713,0.008713,0.008713},
{0.010474,0.010474,0.010474},
{-0.007442,-0.007442,-0.007442},
{-0.013757,-0.013757,-0.013757},
{0.008103,0.008103,0.008103},
{-0.011505,-0.011505,-0.011505},
{0.000678,0.000678,0.000678},
{-0.012100,-0.012100,-0.012100},
{0.010837,0.010837,0.010837},
{0.016865,0.016865,0.016865},
{0.030785,0.030785,0.030785},
{0.007434,0.007434,0.007434},
{-0.004366,-0.004366,-0.004366},
{-0.053755,-0.053755,-0.053755},
{-0.008604,-0.008604,-0.008604},
{-0.001930,-0.001930,-0.001930},
{-0.028504,-0.028504,-0.028504},
{0.022706,0.022706,0.022706},
{0.002707,0.002707,0.002707},
{0.019891,0.019891,0.019891},
{0.022799,0.022799,0.022799},
{-0.025926,-0.025926,-0.025926},
{-0.021057,-0.021057,-0.021057},
{-0.026560,-0.026560,-0.026560},
{0.025069,0.025069,0.025069},
{-0.006403,-0.006403,-0.006403},
{-0.037966,-0.037966,-0.037966},
{0.002046,0.002046,0.002046},
{-0.058182,-0.058182,-0.058182},
{-0.027855,-0.027855,-0.027855},
{-0.007675,-0.007675,-0.007675},
{-0.017139,-0.017139,-0.017139},
{-0.017159,-0.017159,-0.017159},
{-0.045997,-0.045997,-0.045997},
{-0.012922,-0.012922,-0.012922},
{-0.012373,-0.012373,-0.012373},
{-0.009144,-0.009144,-0.009144},
{-0.009153,-0.009153,-0.009153},
{-0.001085,-0.001085,-0.001085},
{0.008507,0.008507,0.008507},
{-0.016917,-0.016917,-0.016917},
{-0.011178,-0.011178,-0.011178},
{-0.023797,-0.023797,-0.023797},
{-0.020179,-0.020179,-0.020179},
{-0.008530,-0.008530,-0.008530},
{-0.023280,-0.023280,-0.023280},
{-0.020590,-0.020590,-0.020590},
{0.027768,0.027768,0.027768},
{0.041738,0.041738,0.041738},
{0.010041,0.010041,0.010041},
{-0.018552,-0.018552,-0.018552},
{-0.034502,-0.034502,-0.034502},
{-0.047413,-0.047413,-0.047413},
{-0.039242,-0.039242,-0.039242},
{-0.007576,-0.007576,-0.007576},
{-0.054809,-0.054809,-0.054809},
{-0.005594,-0.005594,-0.005594},
{-0.024930,-0.024930,-0.024930},
{-0.006047,-0.006047,-0.006047},
{-0.010836,-0.010836,-0.010836},
{-0.015447,-0.015447,-0.015447},
{-0.045903,-0.045903,-0.045903},
{-0.001306,-0.001306,-0.001306},
{-0.028169,-0.028169,-0.028169},
{-0.073378,-0.073378,-0.073378},
{-0.032918,-0.032918,-0.032918},
{-0.013805,-0.013805,-0.013805},
{-0.026163,-0.026163,-0.026163},
{-0.011955,-0.011955,-0.011955},
{-0.027969,-0.027969,-0.027969},
{-0.006773,-0.006773,-0.006773},
{0.011602,0.011602,0.011602},
{0.022411,0.022411,0.022411},
{-0.005155,-0.005155,-0.005155},
{0.018167,0.018167,0.018167},
{0.001436,0.001436,0.001436},
{-0.004960,-0.004960,-0.004960},
{-0.015126,-0.015126,-0.015126},
{0.005424,0.005424,0.005424},
{-0.031661,-0.031661,-0.031661},
{-0.032048,-0.032048,-0.032048},
{-0.004571,-0.004571,-0.004571},
{-0.016949,-0.016949,-0.016949},
{-0.004553,-0.004553,-0.004553},
{0.008244,0.008244,0.008244},
{-0.021297,-0.021297,-0.021297},
{-0.002408,-0.002408,-0.002408},
{-0.018861,-0.018861,-0.018861},
{0.020002,0.020002,0.020002},
{0.016815,0.016815,0.016815},
{-0.028563,-0.028563,-0.028563},
{0.053085,0.053085,0.053085},
{0.011920,0.011920,0.011920},
{0.034493,0.034493,0.034493},
{-0.029577,-0.029577,-0.029577},
{0.000388,0.000388,0.000388},
{0.020598,0.020598,0.020598},
{-0.043006,-0.043006,-0.043006},
{-0.067912,-0.067912,-0.067912},
{-0.052746,-0.052746,-0.052746},
{-0.022251,-0.022251,-0.022251},
{0.023610,0.023610,0.023610},
{-0.024398,-0.024398,-0.024398},
{-0.008777,-0.008777,-0.008777},
{-0.008825,-0.008825,-0.008825},
{0.023915,0.023915,0.023915},
{-0.032672,-0.032672,-0.032672},
{-0.002410,-0.002410,-0.002410},
{-0.018142,-0.018142,-0.018142},
{0.065415,0.065415,0.065415},
{0.077288,0.077288,0.077288},
{0.078519,0.078519,0.078519},
{-0.041615,-0.041615,-0.041615},
{-0.004973,-0.004973,-0.004973},
{0.018005,0.018005,0.018005},
{-0.049012,-0.049012,-0.049012},
{-0.104661,-0.104661,-0.104661},
{-0.141072,-0.141072,-0.141072},
{-0.036752,-0.036752,-0.036752},
{-0.020723,-0.020723,-0.020723},
{0.021082,0.021082,0.021082},
{-0.033100,-0.033100,-0.033100},
{-0.039197,-0.039197,-0.039197},
{-0.028789,-0.028789,-0.028789},
{0.073308,0.073308,0.073308},
{0.001272,0.001272,0.001272},
{0.082663,0.082663,0.082663},
{0.027878,0.027878,0.027878},
{-0.044222,-0.044222,-0.044222},
{-0.033110,-0.033110,-0.033110},
{-0.039811,-0.039811,-0.039811},
{-0.002517,-0.002517,-0.002517},
{0.020817,0.020817,0.020817},
{-0.094728,-0.094728,-0.094728},
{-0.074008,-0.074008,-0.074008},
{-0.034789,-0.034789,-0.034789},
{0.040653,0.040653,0.040653},
{0.005219,0.005219,0.005219},
{0.003754,0.003754,0.003754},
{0.028497,0.028497,0.028497},
{0.009059,0.009059,0.009059},
{0.009826,0.009826,0.009826},
{-0.028042,-0.028042,-0.028042},
{-0.008151,-0.008151,-0.008151},
{-0.006173,-0.006173,-0.006173},
{0.000327,0.000327,0.000327},
{-0.024575,-0.024575,-0.024575},
{0.040818,0.040818,0.040818},
{0.046547,0.046547,0.046547},
{0.025413,0.025413,0.025413},
{0.080538,0.080538,0.080538},
{-0.073976,-0.073976,-0.073976},
{-0.015217,-0.015217,-0.015217},
{-0.051662,-0.051662,-0.051662},
{0.011683,0.011683,0.011683},
{-0.018098,-0.018098,-0.018098},
{0.003438,0.003438,0.003438},
{-0.006173,-0.006173,-0.006173},
{0.016526,0.016526,0.016526},
{0.022854,0.022854,0.022854},
{0.031843,0.031843,0.031843},
{0.063866,0.063866,0.063866},
{0.075210,0.075210,0.075210},
{-0.024421,-0.024421,-0.024421},
{-0.024181,-0.024181,-0.024181},
{-0.016054,-0.016054,-0.016054},
{-0.019552,-0.019552,-0.019552},
{-0.009099,-0.009099,-0.009099},
{-0.007162,-0.007162,-0.007162},
{-0.126781,-0.126781,-0.126781},
{-0.103028,-0.103028,-0.103028},
{-0.135782,-0.135782,-0.135782},
{-0.006639,-0.006639,-0.006639},
{-0.018635,-0.018635,-0.018635},
{-0.000328,-0.000328,-0.000328},
{0.005360,0.005360,0.005360},
{0.011269,0.011269,0.011269},
{-0.012783,-0.012783,-0.012783},
{-0.004171,-0.004171,-0.004171},
{-0.002015,-0.002015,-0.002015},
{0.009009,0.009009,0.009009},
{0.002194,0.002194,0.002194},
{0.021439,0.021439,0.021439},
{-0.001903,-0.001903,-0.001903},
{-0.039349,-0.039349,-0.039349},
{-0.047318,-0.047318,-0.047318},
{-0.054869,-0.054869,-0.054869},
{0.051163,0.051163,0.051163},
{0.005050,0.005050,0.005050},
{0.088295,0.088295,0.088295},
{-0.075973,-0.075973,-0.075973},
{-0.070819,-0.070819,-0.070819},
{0.015214,0.015214,0.015214},
{-0.028384,-0.028384,-0.028384},
{-0.107215,-0.107215,-0.107215},
{-0.065894,-0.065894,-0.065894},
{-0.049122,-0.049122,-0.049122},
{-0.093513,-0.093513,-0.093513},
{-0.076621,-0.076621,-0.076621},
{-0.059338,-0.059338,-0.059338},
{-0.048650,-0.048650,-0.048650},
{-0.075560,-0.075560,-0.075560},
{0.028090,0.028090,0.028090},
{0.022636,0.022636,0.022636},
{-0.019769,-0.019769,-0.019769},
{0.063407,0.063407,0.063407},
{0.039008,0.039008,0.039008},
{0.100398,0.100398,0.100398},
{-0.007578,-0.007578,-0.007578},
{0.014700,0.014700,0.014700},
{0.014932,0.014932,0.014932},
{-0.015221,-0.015221,-0.015221},
{-0.072163,-0.072163,-0.072163},
{-0.095224,-0.095224,-0.095224},
{0.015051,0.015051,0.015051},
{0.043712,0.043712,0.043712},
{0.006651,0.006651,0.006651},
{-0.017442,-0.017442,-0.017442},
{-0.039189,-0.039189,-0.039189},
{-0.195467,-0.195467,-0.195467},
{0.027168,0.027168,0.027168},
{-0.039457,-0.039457,-0.039457},
{0.030850,0.030850,0.030850},
{0.081067,0.081067,0.081067},
{0.001756,0.001756,0.001756},
{-0.020959,-0.020959,-0.020959},
{0.034397,0.034397,0.034397},
{0.005345,0.005345,0.005345},
{0.009916,0.009916,0.009916},
{-0.031081,-0.031081,-0.031081},
{-0.085052,-0.085052,-0.085052},
{-0.047406,-0.047406,-0.047406},
{-0.070611,-0.070611,-0.070611},
{0.031838,0.031838,0.031838},
{-0.011347,-0.011347,-0.011347},
{-0.008825,-0.008825,-0.008825},
{-0.014557,-0.014557,-0.014557},
{0.025304,0.025304,0.025304},
{0.005430,0.005430,0.005430},
{0.036422,0.036422,0.036422},
{0.113983,0.113983,0.113983},
{-0.044309,-0.044309,-0.044309},
{-0.063258,-0.063258,-0.063258},
{0.043544,0.043544,0.043544},
{-0.085038,-0.085038,-0.085038},
{-0.070680,-0.070680,-0.070680},
{-0.023732,-0.023732,-0.023732},
{-0.009606,-0.009606,-0.009606},
{-0.012629,-0.012629,-0.012629},
{-0.015377,-0.015377,-0.015377},
{-0.067658,-0.067658,-0.067658},
{-0.051421,-0.051421,-0.051421},
{-0.077804,-0.077804,-0.077804},
{0.029632,0.029632,0.029632},
{0.016828,0.016828,0.016828},
{0.021304,0.021304,0.021304},
{-0.042436,-0.042436,-0.042436},
{-0.114589,-0.114589,-0.114589},
{-0.047760,-0.047760,-0.047760},
{-0.016856,-0.016856,-0.016856},
{-0.014991,-0.014991,-0.014991},
{-0.020895,-0.020895,-0.020895},
{0.001069,0.001069,0.001069},
{0.010932,0.010932,0.010932},
{-0.044076,-0.044076,-0.044076},
{0.092566,0.092566,0.092566},
{0.075411,0.075411,0.075411},
{-0.012644,-0.012644,-0.012644},
{-0.034668,-0.034668,-0.034668},
{0.065254,0.065254,0.065254},
{0.028718,0.028718,0.028718},
{-0.036347,-0.036347,-0.036347},
{-0.051608,-0.051608,-0.051608},
{-0.015520,-0.015520,-0.015520},
{-0.082793,-0.082793,-0.082793},
{-0.024065,-0.024065,-0.024065},
{0.033443,0.033443,0.033443},
{0.049806,0.049806,0.049806},
{0.069058,0.069058,0.069058},
{0.042756,0.042756,0.042756},
{0.108202,0.108202,0.108202},
{0.074208,0.074208,0.074208},
{-0.108456,-0.108456,-0.108456},
{0.045203,0.045203,0.045203},
{0.036604,0.036604,0.036604},
{0.035444,0.035444,0.035444},
{0.019617,0.019617,0.019617},
{0.008450,0.008450,0.008450},
{0.021344,0.021344,0.021344},
{0.003054,0.003054,0.003054},
{0.018871,0.018871,0.018871},
{-0.014999,-0.014999,-0.014999},
{0.011545,0.011545,0.011545},
{0.019644,0.019644,0.019644},
{-0.027866,-0.027866,-0.027866},
{-0.062870,-0.062870,-0.062870},
{0.066599,0.066599,0.066599},
{0.058196,0.058196,0.058196},
{-0.050142,-0.050142,-0.050142},
{0.024275,0.024275,0.024275},
{0.048143,0.048143,0.048143},
{0.000146,0.000146,0.000146},
{-0.032948,-0.032948,-0.032948},
{-0.013570,-0.013570,-0.013570},
{-0.001385,-0.001385,-0.001385},
{0.003170,0.003170,0.003170},
{0.015478,0.015478,0.015478},
{0.011868,0.011868,0.011868},
{0.004955,0.004955,0.004955},
{0.015552,0.015552,0.015552},
{-0.011974,-0.011974,-0.011974},
{-0.016387,-0.016387,-0.016387},
{0.059001,0.059001,0.059001},
{0.004151,0.004151,0.004151},
{0.004908,0.004908,0.004908},
{0.005453,0.005453,0.005453},
{0.022956,0.022956,0.022956},
{0.012293,0.012293,0.012293},
{0.009197,0.009197,0.009197},
{0.045350,0.045350,0.045350},
{-0.033679,-0.033679,-0.033679},
{-0.100583,-0.100583,-0.100583},
{-0.038528,-0.038528,-0.038528},
{-0.071913,-0.071913,-0.071913},
{-0.037541,-0.037541,-0.037541},
{0.004956,0.004956,0.004956},
{0.015789,0.015789,0.015789},
{0.019020,0.019020,0.019020},
{0.026039,0.026039,0.026039},
{0.012685,0.012685,0.012685},
{-0.006110,-0.006110,-0.006110},
{-0.004309,-0.004309,-0.004309},
{-0.014593,-0.014593,-0.014593},
{0.017395,0.017395,0.017395},
{0.006086,0.006086,0.006086},
{0.072136,0.072136,0.072136},
{0.075561,0.075561,0.075561},
{-0.032736,-0.032736,-0.032736},
{-0.006979,-0.006979,-0.006979},
{-0.000339,-0.000339,-0.000339},
{0.007342,0.007342,0.007342},
{-0.013971,-0.013971,-0.013971},
{0.015174,0.015174,0.015174},
{-0.000334,-0.000334,-0.000334},
{0.019717,0.019717,0.019717},
{0.009672,0.009672,0.009672},
{0.017300,0.017300,0.017300},
{0.005063,0.005063,0.005063},
{-0.007533,-0.007533,-0.007533},
{-0.225428,-0.225428,-0.225428},
{-0.112450,-0.112450,-0.112450},
{1.124540,1.124540,1.124540},
{0.005424,0.005424,0.005424},
{0.012574,0.012574,0.012574},
{0.017602,0.017602,0.017602},
{-0.159914,-0.159914,-0.159914},
{-0.030795,-0.030795,-0.030795},
{0.759607,0.759607,0.759607},
{0.006462,0.006462,0.006462},
{-0.000009,-0.000009,-0.000009},
{-0.015919,-0.015919,-0.015919},
{0.001594,0.001594,0.001594},
{0.004124,0.004124,0.004124},
{-0.009858,-0.009858,-0.009858},
{-0.037022,-0.037022,-0.037022},
{-0.010725,-0.010725,-0.010725},
{0.027986,0.027986,0.027986},
{0.015070,0.015070,0.015070},
{0.025549,0.025549,0.025549},
{-0.011083,-0.011083,-0.011083},
{0.007010,0.007010,0.007010},
{-0.026512,-0.026512,-0.026512},
{-0.071367,-0.071367,-0.071367},
{0.050490,0.050490,0.050490},
{0.002379,0.002379,0.002379},
{-0.013267,-0.013267,-0.013267},
{-0.006856,-0.006856,-0.006856},
{0.011488,0.011488,0.011488},
{-0.016786,-0.016786,-0.016786},
{-0.012255,-0.012255,-0.012255},
{-0.118780,-0.118780,-0.118780},
{-0.054381,-0.054381,-0.054381},
{0.012979,0.012979,0.012979},
{-0.013769,-0.013769,-0.013769},
{-0.044013,-0.044013,-0.044013},
{-0.008512,-0.008512,-0.008512},
{0.224651,0.224651,0.224651},
{0.212541,0.212541,0.212541},
{-0.027425,-0.027425,-0.027425},
{-0.038094,-0.038094,-0.038094},
{-0.010382,-0.010382,-0.010382},
{0.018060,0.018060,0.018060},
{0.005258,0.005258,0.005258},
{0.020418,0.020418,0.020418},
{-0.029876,-0.029876,-0.029876},
{-0.037446,-0.037446,-0.037446},
{0.014190,0.014190,0.014190},
{-0.015888,-0.015888,-0.015888},
{-0.121863,-0.121863,-0.121863},
{-0.213819,-0.213819,-0.213819},
{0.023316,0.023316,0.023316},
{-0.051498,-0.051498,-0.051498},
{0.020892,0.020892,0.020892},
{-0.014848,-0.014848,-0.014848},
{0.039949,0.039949,0.039949},
{0.102685,0.102685,0.102685},
{0.021325,0.021325,0.021325},
{0.066555,0.066555,0.066555},
{-0.006696,-0.006696,-0.006696},
{-0.039151,-0.039151,-0.039151},
{0.081257,0.081257,0.081257},
{0.102534,0.102534,0.102534},
{0.052432,0.052432,0.052432},
{0.131772,0.131772,0.131772},
{-0.056893,-0.056893,-0.056893},
{-0.004869,-0.004869,-0.004869},
{0.064265,0.064265,0.064265},
{0.080929,0.080929,0.080929},
{-0.003681,-0.003681,-0.003681},
{-0.057087,-0.057087,-0.057087},
{-0.027769,-0.027769,-0.027769},
{-0.020400,-0.020400,-0.020400},
{0.008343,0.008343,0.008343},
{-0.043859,-0.043859,-0.043859},
{0.001611,0.001611,0.001611},
{0.082768,0.082768,0.082768},
{0.086427,0.086427,0.086427},
{0.021358,0.021358,0.021358},
{0.205465,0.205465,0.205465},
{0.166390,0.166390,0.166390},
{0.016245,0.016245,0.016245},
{0.026457,0.026457,0.026457},
{0.035039,0.035039,0.035039},
{0.031695,0.031695,0.031695},
{0.036506,0.036506,0.036506},
{-0.026109,-0.026109,-0.026109},
{0.024743,0.024743,0.024743},
{0.068187,0.068187,0.068187},
{-0.014288,-0.014288,-0.014288},
{0.017142,0.017142,0.017142},
{-0.027504,-0.027504,-0.027504},
{-0.022972,-0.022972,-0.022972},
{0.001597,0.001597,0.001597},
{-0.063696,-0.063696,-0.063696},
{-0.036783,-0.036783,-0.036783},
{0.043596,0.043596,0.043596},
{0.011092,0.011092,0.011092},
{0.003449,0.003449,0.003449},
{0.003469,0.003469,0.003469},
{-0.063574,-0.063574,-0.063574},
{-0.092234,-0.092234,-0.092234},
{-0.017490,-0.017490,-0.017490},
{0.014136,0.014136,0.014136},
{0.018466,0.018466,0.018466},
{0.015327,0.015327,0.015327},
{0.040363,0.040363,0.040363},
{0.053352,0.053352,0.053352},
{-0.071167,-0.071167,-0.071167},
{-0.135256,-0.135256,-0.135256},
{0.047530,0.047530,0.047530},
{-0.057902,-0.057902,-0.057902},
{-0.164361,-0.164361,-0.164361},
{-0.136037,-0.136037,-0.136037},
{-0.018099,-0.018099,-0.018099},
{0.029577,0.029577,0.029577},
{0.060481,0.060481,0.060481},
{0.015235,0.015235,0.015235},
{-0.135115,-0.135115,-0.135115},
{-0.091050,-0.091050,-0.091050},
{-0.020107,-0.020107,-0.020107},
{-0.113358,-0.113358,-0.113358},
{-0.057092,-0.057092,-0.057092},
{-0.011033,-0.011033,-0.011033},
{-0.046895,-0.046895,-0.046895},
{0.016518,0.016518,0.016518},
{0.088468,0.088468,0.088468},
{0.083291,0.083291,0.083291},
{0.101129,0.101129,0.101129},
{-0.010272,-0.010272,-0.010272},
{-0.031275,-0.031275,-0.031275},
{-0.035689,-0.035689,-0.035689},
{-0.002456,-0.002456,-0.002456},
{0.001704,0.001704,0.001704},
{0.030260,0.030260,0.030260},
{0.016549,0.016549,0.016549},
{0.017117,0.017117,0.017117},
{0.014932,0.014932,0.014932},
{0.003081,0.003081,0.003081},
{0.033301,0.033301,0.033301},
{0.035438,0.035438,0.035438},
{-0.003214,-0.003214,-0.003214},
{0.027936,0.027936,0.027936},
{0.024510,0.024510,0.024510},
{0.011833,0.011833,0.011833},
{-0.003118,-0.003118,-0.003118},
{0.047884,0.047884,0.047884},
{-0.018204,-0.018204,-0.018204},
{-0.032054,-0.032054,-0.032054},
{0.006584,0.006584,0.006584},
{-0.028231,-0.028231,-0.028231},
{0.052127,0.052127,0.052127},
{0.046562,0.046562,0.046562},
{0.026736,0.026736,0.026736},
{0.026723,0.026723,0.026723},
{-0.006896,-0.006896,-0.006896},
{0.025406,0.025406,0.025406},
{0.001625,0.001625,0.001625},
{-0.020807,-0.020807,-0.020807},
{0.018446,0.018446,0.018446},
{0.008845,0.008845,0.008845},
{-0.009143,-0.009143,-0.009143},
{-0.010727,-0.010727,-0.010727},
{-0.136825,-0.136825,-0.136825},
{-0.159797,-0.159797,-0.159797},
{0.095308,0.095308,0.095308},
{0.200484,0.200484,0.200484},
{0.179348,0.179348,0.179348},
{-0.013517,-0.013517,-0.013517},
{-0.052511,-0.052511,-0.052511},
{0.011990,0.011990,0.011990},
{-0.034230,-0.034230,-0.034230},
{-0.024783,-0.024783,-0.024783},
{-0.057235,-0.057235,-0.057235},
{0.089313,0.089313,0.089313},
{0.109270,0.109270,0.109270},
{0.119131,0.119131,0.119131},
{0.041445,0.041445,0.041445},
{0.075077,0.075077,0.075077},
{0.100228,0.100228,0.100228},
{0.053951,0.053951,0.053951},
{-0.028708,-0.028708,-0.028708},
{-0.052256,-0.052256,-0.052256},
{-0.007455,-0.007455,-0.007455},
{0.019223,0.019223,0.019223},
{-0.005249,-0.005249,-0.005249},
{0.017213,0.017213,0.017213},
{0.063483,0.063483,0.063483},
{0.092543,0.092543,0.092543},
{0.067152,0.067152,0.067152},
{0.050868,0.050868,0.050868},
{-0.020012,-0.020012,-0.020012},
{0.068792,0.068792,0.068792},
{0.057707,0.057707,0.057707},
{0.042351,0.042351,0.042351},
{-0.010663,-0.010663,-0.010663},
{-0.043443,-0.043443,-0.043443},
{-0.036247,-0.036247,-0.036247},
{0.004677,0.004677,0.004677},
{-0.037225,-0.037225,-0.037225},
{-0.034831,-0.034831,-0.034831},
{-0.000257,-0.000257,-0.000257},
{-0.013612,-0.013612,-0.013612},
{-0.048040,-0.048040,-0.048040},
{-0.021151,-0.021151,-0.021151},
{0.062986,0.062986,0.062986},
{0.060822,0.060822,0.060822},
{0.001915,0.001915,0.001915},
{0.017166,0.017166,0.017166},
{-0.027653,-0.027653,-0.027653},
{-0.032894,-0.032894,-0.032894},
{-0.052403,-0.052403,-0.052403},
{-0.060991,-0.060991,-0.060991},
{-0.084592,-0.084592,-0.084592},
{-0.116315,-0.116315,-0.116315},
{-0.110243,-0.110243,-0.110243},
{0.020071,0.020071,0.020071},
{-0.009303,-0.009303,-0.009303},
{-0.001994,-0.001994,-0.001994},
{-0.066316,-0.066316,-0.066316},
{-0.039171,-0.039171,-0.039171},
{-0.058774,-0.058774,-0.058774},
{0.045825,0.045825,0.045825},
{-0.067149,-0.067149,-0.067149},
{0.061760,0.061760,0.061760},
{-0.017116,-0.017116,-0.017116},
{-0.048555,-0.048555,-0.048555},
{0.018342,0.018342,0.018342},
{-0.020020,-0.020020,-0.020020},
{-0.127045,-0.127045,-0.127045},
{-0.096207,-0.096207,-0.096207},
{0.005721,0.005721,0.005721},
{-0.080038,-0.080038,-0.080038},
{-0.073780,-0.073780,-0.073780},
{0.085997,0.085997,0.085997},
{0.021213,0.021213,0.021213},
{0.051062,0.051062,0.051062},
{0.027046,0.027046,0.027046},
{-0.013310,-0.013310,-0.013310},
{-0.033605,-0.033605,-0.033605},
{0.004906,0.004906,0.004906},
{-0.015611,-0.015611,-0.015611},
{0.019983,0.019983,0.019983},
{0.005493,0.005493,0.005493},
{-0.016482,-0.016482,-0.016482},
{0.000632,0.000632,0.000632},
{0.026898,0.026898,0.026898},
{-0.043675,-0.043675,-0.043675},
{-0.065307,-0.065307,-0.065307},
{-0.009070,-0.009070,-0.009070},
{-0.038776,-0.038776,-0.038776},
{-0.015601,-0.015601,-0.015601},
{0.038692,0.038692,0.038692},
{-0.091946,-0.091946,-0.091946},
{-0.023251,-0.023251,-0.023251},
{-0.015876,-0.015876,-0.015876},
{-0.082703,-0.082703,-0.082703},
{-0.034180,-0.034180,-0.034180},
{0.098331,0.098331,0.098331},
{0.137702,0.137702,0.137702},
{0.141114,0.141114,0.141114},
{0.008235,0.008235,0.008235},
{0.001826,0.001826,0.001826},
{0.007800,0.007800,0.007800},
{-0.039720,-0.039720,-0.039720},
{-0.195574,-0.195574,-0.195574},
{-0.074447,-0.074447,-0.074447},
{0.014890,0.014890,0.014890},
{0.060998,0.060998,0.060998},
{-0.011974,-0.011974,-0.011974},
{0.032433,0.032433,0.032433},
{-0.039268,-0.039268,-0.039268},
{0.023154,0.023154,0.023154},
{0.013663,0.013663,0.013663},
{-0.109289,-0.109289,-0.109289},
{0.084517,0.084517,0.084517},
{-0.054805,-0.054805,-0.054805},
{-0.088807,-0.088807,-0.088807},
{0.138726,0.138726,0.138726},
{-0.031404,-0.031404,-0.031404},
{-0.043548,-0.043548,-0.043548},
{-0.004130,-0.004130,-0.004130},
{0.008157,0.008157,0.008157},
{-0.069960,-0.069960,-0.069960},
{-0.051329,-0.051329,-0.051329},
{-0.009506,-0.009506,-0.009506},
{-0.003570,-0.003570,-0.003570},
{0.051656,0.051656,0.051656},
{0.052161,0.052161,0.052161},
{-0.043389,-0.043389,-0.043389},
{-0.006377,-0.006377,-0.006377},
{-0.108645,-0.108645,-0.108645},
{0.009152,0.009152,0.009152},
{-0.006147,-0.006147,-0.006147},
{0.037926,0.037926,0.037926},
{0.007111,0.007111,0.007111},
{0.028093,0.028093,0.028093},
{0.039013,0.039013,0.039013},
{0.019532,0.019532,0.019532},
{-0.067507,-0.067507,-0.067507},
{-0.006015,-0.006015,-0.006015},
{-0.031604,-0.031604,-0.031604},
{-0.015537,-0.015537,-0.015537},
{-0.012245,-0.012245,-0.012245},
{0.038815,0.038815,0.038815},
{0.020586,0.020586,0.020586},
{0.025208,0.025208,0.025208},
{0.043644,0.043644,0.043644},
{0.006419,0.006419,0.006419},
{0.024463,0.024463,0.024463},
{0.017265,0.017265,0.017265},
{-0.023322,-0.023322,-0.023322},
{0.029013,0.029013,0.029013},
{-0.007003,-0.007003,-0.007003},
{0.019546,0.019546,0.019546},
{0.035298,0.035298,0.035298},
{0.020116,0.020116,0.020116},
{-0.118150,-0.118150,-0.118150},
{0.035603,0.035603,0.035603},
{0.003695,0.003695,0.003695},
{0.033240,0.033240,0.033240},
{0.001202,0.001202,0.001202},
{-0.019661,-0.019661,-0.019661},
{0.005516,0.005516,0.005516},
{0.054881,0.054881,0.054881},
{0.038575,0.038575,0.038575},
{0.044538,0.044538,0.044538},
{-0.036321,-0.036321,-0.036321},
{-0.028207,-0.028207,-0.028207},
{-0.025754,-0.025754,-0.025754},
{-0.007097,-0.007097,-0.007097},
{0.000529,0.000529,0.000529},
{0.007789,0.007789,0.007789},
{0.004935,0.004935,0.004935},
{0.009961,0.009961,0.009961},
{0.024516,0.024516,0.024516},
{-0.008484,-0.008484,-0.008484},
{-0.003134,-0.003134,-0.003134},
{-0.011466,-0.011466,-0.011466},
{-0.020965,-0.020965,-0.020965},
{-0.025630,-0.025630,-0.025630},
{-0.026870,-0.026870,-0.026870},
{0.048578,0.048578,0.048578},
{0.015723,0.015723,0.015723},
{0.015741,0.015741,0.015741},
{0.013150,0.013150,0.013150},
{-0.005924,-0.005924,-0.005924},
{0.017886,0.017886,0.017886},
{0.045346,0.045346,0.045346},
{0.029763,0.029763,0.029763},
{0.016635,0.016635,0.016635},
{0.024255,0.024255,0.024255},
{0.031771,0.031771,0.031771},
{0.051659,0.051659,0.051659},
{0.023574,0.023574,0.023574},
{0.015528,0.015528,0.015528},
{0.008035,0.008035,0.008035},
{0.000042,0.000042,0.000042},
{-0.001102,-0.001102,-0.001102},
{-0.027015,-0.027015,-0.027015},
{-0.019443,-0.019443,-0.019443},
{0.021277,0.021277,0.021277},
{-0.001040,-0.001040,-0.001040},
{0.016386,0.016386,0.016386},
{0.014569,0.014569,0.014569},
{0.005648,0.005648,0.005648},
{0.031074,0.031074,0.031074},
{0.031040,0.031040,0.031040},
{0.045373,0.045373,0.045373},
{0.084016,0.084016,0.084016},
{0.058187,0.058187,0.058187},
{0.065210,0.065210,0.065210},
{0.020764,0.020764,0.020764},
{0.027162,0.027162,0.027162},
{0.012606,0.012606,0.012606},
{-0.010687,-0.010687,-0.010687},
{-0.040563,-0.040563,-0.040563},
{0.000366,0.000366,0.000366},
{-0.004390,-0.004390,-0.004390},
{-0.003256,-0.003256,-0.003256},
{-0.016991,-0.016991,-0.016991},
{-0.014414,-0.014414,-0.014414},
{-0.020416,-0.020416,-0.020416},
{-0.043442,-0.043442,-0.043442},
{-0.009961,-0.009961,-0.009961},
{-0.035150,-0.035150,-0.035150},
{-0.040923,-0.040923,-0.040923},
{-0.027908,-0.027908,-0.027908},
{-0.039845,-0.039845,-0.039845},
{-0.003068,-0.003068,-0.003068},
{-0.016023,-0.016023,-0.016023},
{-0.021403,-0.021403,-0.021403},
{-0.010250,-0.010250,-0.010250},
{0.033159,0.033159,0.033159},
{0.012579,0.012579,0.012579},
{-0.005317,-0.005317,-0.005317},
{-0.013362,-0.013362,-0.013362},
{-0.023249,-0.023249,-0.023249},
{0.007212,0.007212,0.007212},
{0.002393,0.002393,0.002393},
{0.032696,0.032696,0.032696},
{0.028045,0.028045,0.028045},
{-0.032291,-0.032291,-0.032291},
{-0.003060,-0.003060,-0.003060},
{0.014310,0.014310,0.014310},
{0.035086,0.035086,0.035086},
{0.018698,0.018698,0.018698},
{0.014219,0.014219,0.014219},
{0.033151,0.033151,0.033151},
{0.026463,0.026463,0.026463},
{0.059289,0.059289,0.059289},
{-0.000325,-0.000325,-0.000325},
{-0.018841,-0.018841,-0.018841},
{-0.008488,-0.008488,-0.008488},
{0.088143,0.088143,0.088143},
{0.178693,0.178693,0.178693},
{0.092870,0.092870,0.092870},
{-0.006587,-0.006587,-0.006587},
{-0.041698,-0.041698,-0.041698},
{-0.034787,-0.034787,-0.034787},
{-0.078037,-0.078037,-0.078037},
{-0.167013,-0.167013,-0.167013},
{-0.111552,-0.111552,-0.111552},
{0.010746,0.010746,0.010746},
{-0.019807,-0.019807,-0.019807},
{0.037342,0.037342,0.037342},
{0.043629,0.043629,0.043629},
{0.012199,0.012199,0.012199},
{0.047970,0.047970,0.047970},
{0.014816,0.014816,0.014816},
{-0.032608,-0.032608,-0.032608},
{0.016346,0.016346,0.016346},
{0.041882,0.041882,0.041882},
{0.052730,0.052730,0.052730},
{0.072689,0.072689,0.072689},
{0.012718,0.012718,0.012718},
{0.085001,0.085001,0.085001},
{0.025446,0.025446,0.025446},
{0.028187,0.028187,0.028187},
{0.015626,0.015626,0.015626},
{0.005661,0.005661,0.005661},
{-0.024253,-0.024253,-0.024253},
{-0.043041,-0.043041,-0.043041},
{0.022769,0.022769,0.022769},
{-0.033623,-0.033623,-0.033623},
{-0.112630,-0.112630,-0.112630},
{-0.064190,-0.064190,-0.064190},
{-0.034838,-0.034838,-0.034838},
{-0.048674,-0.048674,-0.048674},
{-0.017206,-0.017206,-0.017206},
{-0.107589,-0.107589,-0.107589},
{-0.135046,-0.135046,-0.135046},
{-0.103120,-0.103120,-0.103120},
{-0.028131,-0.028131,-0.028131},
{-0.071148,-0.071148,-0.071148},
{-0.015742,-0.015742,-0.015742},
{0.023271,0.023271,0.023271},
{0.032987,0.032987,0.032987},
{0.044632,0.044632,0.044632},
{0.018199,0.018199,0.018199},
{-0.076558,-0.076558,-0.076558},
{0.002572,0.002572,0.002572},
{-0.008450,-0.008450,-0.008450},
{-0.023252,-0.023252,-0.023252},
{-0.011816,-0.011816,-0.011816},
{0.088605,0.088605,0.088605},
{0.068825,0.068825,0.068825},
{0.100404,0.100404,0.100404},
{-0.008233,-0.008233,-0.008233},
{-0.050847,-0.050847,-0.050847},
{-0.045131,-0.045131,-0.045131},
{-0.004899,-0.004899,-0.004899},
{0.000215,0.000215,0.000215},
{0.016290,0.016290,0.016290},
{0.045738,0.045738,0.045738},
{0.028253,0.028253,0.028253},
{0.016754,0.016754,0.016754},
{-0.002956,-0.002956,-0.002956},
{-0.051842,-0.051842,-0.051842},
{-0.042151,-0.042151,-0.042151},
{0.062686,0.062686,0.062686},
{0.069499,0.069499,0.069499},
{0.077542,0.077542,0.077542},
{0.008906,0.008906,0.008906},
{0.011583,0.011583,0.011583},
{0.037021,0.037021,0.037021},
{-0.007119,-0.007119,-0.007119},
{-0.005951,-0.005951,-0.005951},
{0.008152,0.008152,0.008152},
{-0.009732,-0.009732,-0.009732},
{-0.004637,-0.004637,-0.004637},
{0.026181,0.026181,0.026181},
{0.045119,0.045119,0.045119},
{0.087420,0.087420,0.087420},
{0.040460,0.040460,0.040460},
{0.006317,0.006317,0.006317},
{0.029226,0.029226,0.029226},
{0.114474,0.114474,0.114474},
{0.008652,0.008652,0.008652},
{-0.053332,-0.053332,-0.053332},
{-0.032616,-0.032616,-0.032616},
{-0.063643,-0.063643,-0.063643},
{-0.080809,-0.080809,-0.080809},
{-0.035465,-0.035465,-0.035465},
{0.031019,0.031019,0.031019},
{0.009910,0.009910,0.009910},
{0.045752,0.045752,0.045752},
{0.058466,0.058466,0.058466},
{0.004583,0.004583,0.004583},
{-0.036678,-0.036678,-0.036678},
{0.060970,0.060970,0.060970},
{-0.181855,-0.181855,-0.181855},
{-0.057048,-0.057048,-0.057048},
{-0.052353,-0.052353,-0.052353},
{-0.228067,-0.228067,-0.228067},
{-0.150058,-0.150058,-0.150058},
{0.043687,0.043687,0.043687},
{-0.015042,-0.015042,-0.015042},
{-0.122888,-0.122888,-0.122888},
{-0.014462,-0.014462,-0.014462},
{-0.000702,-0.000702,-0.000702},
{0.009279,0.009279,0.009279},
{-0.000025,-0.000025,-0.000025},
{0.044790,0.044790,0.044790},
{0.020316,0.020316,0.020316},
{-0.008828,-0.008828,-0.008828},
{0.048568,0.048568,0.048568},
{0.119171,0.119171,0.119171},
{0.143771,0.143771,0.143771},
{0.129940,0.129940,0.129940},
{0.065937,0.065937,0.065937},
{0.005443,0.005443,0.005443},
{-0.077349,-0.077349,-0.077349},
{0.054193,0.054193,0.054193},
{0.109688,0.109688,0.109688},
{0.268212,0.268212,0.268212},
{0.006657,0.006657,0.006657},
{-0.041259,-0.041259,-0.041259},
{-0.222218,-0.222218,-0.222218},
{0.010555,0.010555,0.010555},
{-0.047210,-0.047210,-0.047210},
{-0.180172,-0.180172,-0.180172},
{-0.156248,-0.156248,-0.156248},
{-0.101362,-0.101362,-0.101362},
{-0.227684,-0.227684,-0.227684},
{-0.116973,-0.116973,-0.116973},
{0.132494,0.132494,0.132494},
{0.211372,0.211372,0.211372},
{0.013506,0.013506,0.013506},
{0.010145,0.010145,0.010145},
{0.016568,0.016568,0.016568},
{0.006824,0.006824,0.006824},
{-0.032651,-0.032651,-0.032651},
{-0.029294,-0.029294,-0.029294},
{0.083164,0.083164,0.083164},
{-0.011741,-0.011741,-0.011741},
{0.062901,0.062901,0.062901},
{0.074921,0.074921,0.074921},
{-0.010355,-0.010355,-0.010355},
{-0.093181,-0.093181,-0.093181},
{-0.141414,-0.141414,-0.141414},
{-0.002408,-0.002408,-0.002408},
{0.041684,0.041684,0.041684},
{0.057963,0.057963,0.057963},
{-0.085290,-0.085290,-0.085290},
{-0.164879,-0.164879,-0.164879},
{-0.125363,-0.125363,-0.125363},
{-0.153760,-0.153760,-0.153760},
{-0.285875,-0.285875,-0.285875},
{-0.106639,-0.106639,-0.106639},
{-0.000662,-0.000662,-0.000662},
{-0.047975,-0.047975,-0.047975},
{0.011153,0.011153,0.011153},
{0.003652,0.003652,0.003652},
{0.032284,0.032284,0.032284},
{0.076115,0.076115,0.076115},
{0.029500,0.029500,0.029500},
{0.079363,0.079363,0.079363},
{0.045707,0.045707,0.045707},
{0.011121,0.011121,0.011121},
{-0.010325,-0.010325,-0.010325},
{-0.096952,-0.096952,-0.096952},
{0.002381,0.002381,0.002381},
{-0.033409,-0.033409,-0.033409},
{-0.025515,-0.025515,-0.025515},
{0.055402,0.055402,0.055402},
{-0.045612,-0.045612,-0.045612},
{-0.023812,-0.023812,-0.023812},
{-0.089644,-0.089644,-0.089644},
{0.175612,0.175612,0.175612},
{0.238720,0.238720,0.238720},
{0.079695,0.079695,0.079695},
{-0.032361,-0.032361,-0.032361},
{0.131031,0.131031,0.131031},
{-0.050379,-0.050379,-0.050379},
{0.112051,0.112051,0.112051},
{0.088310,0.088310,0.088310},
{-0.011586,-0.011586,-0.011586},
{-0.124921,-0.124921,-0.124921},
{-0.025093,-0.025093,-0.025093},
{0.011907,0.011907,0.011907},
{-0.161687,-0.161687,-0.161687},
{0.030991,0.030991,0.030991},
{-0.027043,-0.027043,-0.027043},
{0.310754,0.310754,0.310754},
{0.135344,0.135344,0.135344},
{-0.011139,-0.011139,-0.011139},
{0.040920,0.040920,0.040920},
{-0.017072,-0.017072,-0.017072},
{-0.023693,-0.023693,-0.023693},
{-0.002742,-0.002742,-0.002742},
{0.048030,0.048030,0.048030},
{0.012399,0.012399,0.012399},
{-0.015256,-0.015256,-0.015256},
{-0.002063,-0.002063,-0.002063},
{-0.028081,-0.028081,-0.028081},
{0.046776,0.046776,0.046776},
{0.049777,0.049777,0.049777},
{0.021225,0.021225,0.021225},
{0.002045,0.002045,0.002045},
{-0.035342,-0.035342,-0.035342},
{0.076276,0.076276,0.076276},
{0.012306,0.012306,0.012306},
{-0.000655,-0.000655,-0.000655},
{0.002789,0.002789,0.002789},
{-0.010494,-0.010494,-0.010494},
{0.000930,0.000930,0.000930},
{-0.008948,-0.008948,-0.008948},
{-0.029329,-0.029329,-0.029329},
{-0.040472,-0.040472,-0.040472},
{-0.026003,-0.026003,-0.026003},
{-0.005486,-0.005486,-0.005486},
{0.005429,0.005429,0.005429},
{0.017484,0.017484,0.017484},
{-0.011474,-0.011474,-0.011474},
{0.006230,0.006230,0.006230},
{-0.001872,-0.001872,-0.001872},
{0.003611,0.003611,0.003611},
{-0.013564,-0.013564,-0.013564},
{0.002971,0.002971,0.002971},
{0.005524,0.005524,0.005524},
{0.027914,0.027914,0.027914},
{-0.009379,-0.009379,-0.009379},
{-0.036075,-0.036075,-0.036075},
{-0.051187,-0.051187,-0.051187},
{0.031646,0.031646,0.031646},
{-0.015908,-0.015908,-0.015908},
{-0.019374,-0.019374,-0.019374},
{0.007684,0.007684,0.007684},
{0.044086,0.044086,0.044086},
{-0.011237,-0.011237,-0.011237},
{-0.015524,-0.015524,-0.015524},
{0.056056,0.056056,0.056056},
{0.036851,0.036851,0.036851},
{-0.005882,-0.005882,-0.005882},
{0.006905,0.006905,0.006905},
{-0.011412,-0.011412,-0.011412},
{-0.019529,-0.019529,-0.019529},
{0.005838,0.005838,0.005838},
{0.013696,0.013696,0.013696},
{-0.001599,-0.001599,-0.001599},
{0.015684,0.015684,0.015684},
{0.013509,0.013509,0.013509},
{-0.027268,-0.027268,-0.027268},
{-0.011059,-0.011059,-0.011059},
{0.006656,0.006656,0.006656},
{-0.003878,-0.003878,-0.003878},
{-0.001622,-0.001622,-0.001622},
{-0.027310,-0.027310,-0.027310},
{-0.006648,-0.006648,-0.006648},
{-0.001389,-0.001389,-0.001389},
{0.024921,0.024921,0.024921},
{0.028270,0.028270,0.028270},
{-0.083173,-0.083173,-0.083173},
{-0.079720,-0.079720,-0.079720},
{-0.024300,-0.024300,-0.024300},
{0.026062,0.026062,0.026062},
{0.010650,0.010650,0.010650},
{-0.001978,-0.001978,-0.001978},
{-0.061083,-0.061083,-0.061083},
{-0.089438,-0.089438,-0.089438},
{-0.004917,-0.004917,-0.004917},
{0.017447,0.017447,0.017447},
{0.008013,0.008013,0.008013},
{-0.012120,-0.012120,-0.012120},
{0.002223,0.002223,0.002223},
{-0.003331,-0.003331,-0.003331},
{-0.000220,-0.000220,-0.000220},
{-0.014552,-0.014552,-0.014552},
{-0.014461,-0.014461,-0.014461},
{-0.024812,-0.024812,-0.024812},
{0.006337,0.006337,0.006337},
{0.003291,0.003291,0.003291},
{0.003561,0.003561,0.003561},
{0.003553,0.003553,0.003553},
{-0.011069,-0.011069,-0.011069},
{-0.032688,-0.032688,-0.032688},
{-0.022120,-0.022120,-0.022120},
{-0.003634,-0.003634,-0.003634},
{0.012551,0.012551,0.012551},
{0.033369,0.033369,0.033369},
{0.007182,0.007182,0.007182},
{0.012155,0.012155,0.012155},
{-0.004778,-0.004778,-0.004778},
{-0.002896,-0.002896,-0.002896},
{-0.000111,-0.000111,-0.000111},
{-0.045308,-0.045308,-0.045308},
{-0.079909,-0.079909,-0.079909},
{0.006220,0.006220,0.006220},
{-0.005176,-0.005176,-0.005176},
{0.000060,0.000060,0.000060},
{-0.035304,-0.035304,-0.035304},
{-0.052892,-0.052892,-0.052892},
{-0.068501,-0.068501,-0.068501},
{0.028225,0.028225,0.028225},
{0.081833,0.081833,0.081833},
{0.126449,0.126449,0.126449},
{0.063483,0.063483,0.063483},
{0.009263,0.009263,0.009263},
{0.004735,0.004735,0.004735},
{-0.011173,-0.011173,-0.011173},
{0.000538,0.000538,0.000538},
{0.002631,0.002631,0.002631},
{-0.034282,-0.034282,-0.034282},
{-0.031838,-0.031838,-0.031838},
{-0.103062,-0.103062,-0.103062},
{-0.003801,-0.003801,-0.003801},
{0.033435,0.033435,0.033435},
{0.026116,0.026116,0.026116},
{-0.045034,-0.045034,-0.045034},
{-0.047629,-0.047629,-0.047629},
{0.038342,0.038342,0.038342},
{0.012155,0.012155,0.012155},
{-0.013404,-0.013404,-0.013404},
{-0.078012,-0.078012,-0.078012},
{-0.016298,-0.016298,-0.016298},
{-0.041528,-0.041528,-0.041528},
{0.014291,0.014291,0.014291},
{0.074501,0.074501,0.074501},
{0.132011,0.132011,0.132011},
{0.168969,0.168969,0.168969},
{-0.026548,-0.026548,-0.026548},
{-0.003546,-0.003546,-0.003546},
{-0.010430,-0.010430,-0.010430},
{-0.037405,-0.037405,-0.037405},
{-0.082625,-0.082625,-0.082625},
{-0.050630,-0.050630,-0.050630},
{-0.025287,-0.025287,-0.025287},
{-0.028232,-0.028232,-0.028232},
{-0.067367,-0.067367,-0.067367},
{-0.004103,-0.004103,-0.004103},
{0.026155,0.026155,0.026155},
{0.077026,0.077026,0.077026},
{0.006331,0.006331,0.006331},
{-0.037346,-0.037346,-0.037346},
{-0.124469,-0.124469,-0.124469},
{0.014987,0.014987,0.014987},
{-0.032261,-0.032261,-0.032261},
{-0.067473,-0.067473,-0.067473},
{0.032881,0.032881,0.032881},
{0.040676,0.040676,0.040676},
{0.059518,0.059518,0.059518},
{-0.001008,-0.001008,-0.001008},
{-0.021991,-0.021991,-0.021991},
{-0.096736,-0.096736,-0.096736},
{0.053580,0.053580,0.053580},
{0.015775,0.015775,0.015775},
{-0.052039,-0.052039,-0.052039},
{-0.024104,-0.024104,-0.024104},
{-0.139745,-0.139745,-0.139745},
{-0.210613,-0.210613,-0.210613},
{-0.001394,-0.001394,-0.001394},
{-0.005937,-0.005937,-0.005937},
{-0.008974,-0.008974,-0.008974},
{-0.084240,-0.084240,-0.084240},
{-0.140797,-0.140797,-0.140797},
{-0.149750,-0.149750,-0.149750},
{0.054363,0.054363,0.054363},
{-0.003708,-0.003708,-0.003708},
{-0.041560,-0.041560,-0.041560},
{-0.031992,-0.031992,-0.031992},
{-0.031595,-0.031595,-0.031595},
{0.011088,0.011088,0.011088},
{-0.006623,-0.006623,-0.006623},
{0.035125,0.035125,0.035125},
{0.051552,0.051552,0.051552},
{-0.026027,-0.026027,-0.026027},
{-0.017754,-0.017754,-0.017754},
{0.005572,0.005572,0.005572},
{0.017914,0.017914,0.017914},
{-0.027440,-0.027440,-0.027440},
{-0.096185,-0.096185,-0.096185},
{-0.006420,-0.006420,-0.006420},
{0.032614,0.032614,0.032614},
{0.019016,0.019016,0.019016},
{-0.003692,-0.003692,-0.003692},
{0.025393,0.025393,0.025393},
{-0.020014,-0.020014,-0.020014},
{0.018998,0.018998,0.018998},
{0.124201,0.124201,0.124201},
{0.084122,0.084122,0.084122},
{-0.031273,-0.031273,-0.031273},
{-0.079541,-0.079541,-0.079541},
{0.015207,0.015207,0.015207},
{-0.040459,-0.040459,-0.040459},
{-0.072818,-0.072818,-0.072818},
{-0.019762,-0.019762,-0.019762},
{0.012182,0.012182,0.012182},
{0.031937,0.031937,0.031937},
{0.293974,0.293974,0.293974},
{-0.026795,-0.026795,-0.026795},
{0.003011,0.003011,0.003011},
{-0.033539,-0.033539,-0.033539},
{0.052041,0.052041,0.052041},
{0.014135,0.014135,0.014135},
{-0.008654,-0.008654,-0.008654},
{0.020099,0.020099,0.020099},
{0.004613,0.004613,0.004613},
{0.058466,0.058466,0.058466},
{-0.044260,-0.044260,-0.044260},
{-0.004466,-0.004466,-0.004466},
{-0.020661,-0.020661,-0.020661},
{-0.054019,-0.054019,-0.054019},
{-0.036590,-0.036590,-0.036590},
{-0.004392,-0.004392,-0.004392},
{-0.059977,-0.059977,-0.059977},
{-0.085256,-0.085256,-0.085256},
{-0.035138,-0.035138,-0.035138},
{0.026865,0.026865,0.026865},
{-0.034708,-0.034708,-0.034708},
{-0.039199,-0.039199,-0.039199},
{-0.019364,-0.019364,-0.019364},
{0.014712,0.014712,0.014712},
{0.016103,0.016103,0.016103},
{0.039816,0.039816,0.039816},
{0.028711,0.028711,0.028711},
{-0.053648,-0.053648,-0.053648},
{-0.141603,-0.141603,-0.141603},
{-0.187030,-0.187030,-0.187030},
{-0.082821,-0.082821,-0.082821},
{-0.053913,-0.053913,-0.053913},
{-0.047594,-0.047594,-0.047594},
{0.102969,0.102969,0.102969},
{-0.089027,-0.089027,-0.089027},
{0.003124,0.003124,0.003124},
{0.174074,0.174074,0.174074},
{-0.060519,-0.060519,-0.060519},
{0.005813,0.005813,0.005813},
{-0.026831,-0.026831,-0.026831},
{0.093297,0.093297,0.093297},
{0.128420,0.128420,0.128420},
{0.061443,0.061443,0.061443},
{-0.052088,-0.052088,-0.052088},
{0.040963,0.040963,0.040963},
{-0.037601,-0.037601,-0.037601},
{0.011326,0.011326,0.011326},
{0.002971,0.002971,0.002971},
{0.027118,0.027118,0.027118},
{0.043062,0.043062,0.043062},
{0.029223,0.029223,0.029223},
{0.050257,0.050257,0.050257},
{0.018761,0.018761,0.018761},
{0.019829,0.019829,0.019829},
{-0.026487,-0.026487,-0.026487},
{-0.023598,-0.023598,-0.023598},
{-0.073304,-0.073304,-0.073304},
{-0.031534,-0.031534,-0.031534},
{0.015574,0.015574,0.015574},
{0.026049,0.026049,0.026049},
{0.015655,0.015655,0.015655},
{-0.044421,-0.044421,-0.044421},
{-0.041192,-0.041192,-0.041192},
{0.010742,0.010742,0.010742},
{-0.045005,-0.045005,-0.045005},
{-0.069581,-0.069581,-0.069581},
{-0.021947,-0.021947,-0.021947},
{0.038146,0.038146,0.038146},
{0.048718,0.048718,0.048718},
{-0.046857,-0.046857,-0.046857},
{-0.021142,-0.021142,-0.021142},
{-0.029615,-0.029615,-0.029615},
{0.004878,0.004878,0.004878},
{-0.061378,-0.061378,-0.061378},
{-0.016826,-0.016826,-0.016826},
{-0.116179,-0.116179,-0.116179},
{-0.033898,-0.033898,-0.033898},
{-0.038325,-0.038325,-0.038325},
{-0.039294,-0.039294,-0.039294},
{-0.000641,-0.000641,-0.000641},
{0.033793,0.033793,0.033793},
{0.017725,0.017725,0.017725},
{0.004764,0.004764,0.004764},
{-0.065589,-0.065589,-0.065589},
{-0.044854,-0.044854,-0.044854},
{-0.025023,-0.025023,-0.025023},
{-0.006252,-0.006252,-0.006252},
{-0.094521,-0.094521,-0.094521},
{0.002438,0.002438,0.002438},
{-0.003326,-0.003326,-0.003326},
{-0.004642,-0.004642,-0.004642},
{-0.008765,-0.008765,-0.008765},
{0.003068,0.003068,0.003068},
{-0.059439,-0.059439,-0.059439},
{0.036631,0.036631,0.036631},
{0.025571,0.025571,0.025571},
{0.077499,0.077499,0.077499},
{0.058487,0.058487,0.058487},
{0.002527,0.002527,0.002527},
{-0.015507,-0.015507,-0.015507},
{-0.004015,-0.004015,-0.004015},
{0.012155,0.012155,0.012155},
{0.005903,0.005903,0.005903},
{-0.009345,-0.009345,-0.009345},
{-0.073147,-0.073147,-0.073147},
{-0.075065,-0.075065,-0.075065},
{0.002426,0.002426,0.002426},
{-0.043070,-0.043070,-0.043070},
{-0.036182,-0.036182,-0.036182},
{-0.009885,-0.009885,-0.009885},
{-0.019432,-0.019432,-0.019432},
{-0.014790,-0.014790,-0.014790},
{-0.037383,-0.037383,-0.037383},
{-0.045711,-0.045711,-0.045711},
{-0.016252,-0.016252,-0.016252},
{-0.012627,-0.012627,-0.012627},
{-0.064383,-0.064383,-0.064383},
{-0.067330,-0.067330,-0.067330},
{0.009878,0.009878,0.009878},
{-0.065032,-0.065032,-0.065032},
{-0.083394,-0.083394,-0.083394},
{-0.003775,-0.003775,-0.003775},
{0.026210,0.026210,0.026210},
{-0.009786,-0.009786,-0.009786},
{0.006889,0.006889,0.006889},
{0.048776,0.048776,0.048776},
{-0.019443,-0.019443,-0.019443},
{0.002026,0.002026,0.002026},
{-0.021779,-0.021779,-0.021779},
{0.011925,0.011925,0.011925},
{0.081732,0.081732,0.081732},
{0.025652,0.025652,0.025652},
{0.010402,0.010402,0.010402},
{-0.069494,-0.069494,-0.069494},
{-0.085061,-0.085061,-0.085061},
{-0.132125,-0.132125,-0.132125},
{-0.025602,-0.025602,-0.025602},
{-0.024269,-0.024269,-0.024269},
{-0.022861,-0.022861,-0.022861},
{0.029130,0.029130,0.029130},
{-0.033896,-0.033896,-0.033896},
{-0.054305,-0.054305,-0.054305},
{0.063592,0.063592,0.063592},
{0.026575,0.026575,0.026575},
{0.016501,0.016501,0.016501},
{-0.040708,-0.040708,-0.040708},
{-0.007297,-0.007297,-0.007297},
{-0.003868,-0.003868,-0.003868},
{0.073850,0.073850,0.073850},
{0.156309,0.156309,0.156309},
{0.046216,0.046216,0.046216},
{-0.025496,-0.025496,-0.025496},
{0.032543,0.032543,0.032543},
{0.015092,0.015092,0.015092},
{0.007594,0.007594,0.007594},
{-0.043408,-0.043408,-0.043408},
{-0.031186,-0.031186,-0.031186},
{0.037748,0.037748,0.037748},
{0.028376,0.028376,0.028376},
{0.032182,0.032182,0.032182},
{0.011612,0.011612,0.011612},
{0.005903,0.005903,0.005903},
{-0.010709,-0.010709,-0.010709},
{-0.064721,-0.064721,-0.064721},
{-0.002149,-0.002149,-0.002149},
{-0.030635,-0.030635,-0.030635},
{-0.008986,-0.008986,-0.008986},
{-0.077546,-0.077546,-0.077546},
{-0.073666,-0.073666,-0.073666},
{0.017281,0.017281,0.017281},
{0.104456,0.104456,0.104456},
{0.111682,0.111682,0.111682},
{-0.038945,-0.038945,-0.038945},
{-0.036086,-0.036086,-0.036086},
{-0.002313,-0.002313,-0.002313},
{-0.030163,-0.030163,-0.030163},
{0.032054,0.032054,0.032054},
{0.028131,0.028131,0.028131},
{-0.008046,-0.008046,-0.008046},
{0.011486,0.011486,0.011486},
{-0.017246,-0.017246,-0.017246},
{0.047630,0.047630,0.047630},
{0.020894,0.020894,0.020894},
{0.037593,0.037593,0.037593},
{-0.017863,-0.017863,-0.017863},
{-0.013752,-0.013752,-0.013752},
{-0.021726,-0.021726,-0.021726},
{0.008293,0.008293,0.008293},
{-0.023839,-0.023839,-0.023839},
{-0.021042,-0.021042,-0.021042},
{-0.046126,-0.046126,-0.046126},
{-0.007455,-0.007455,-0.007455},
{0.008495,0.008495,0.008495},
{0.070362,0.070362,0.070362},
{-0.011423,-0.011423,-0.011423},
{-0.140905,-0.140905,-0.140905},
{-0.033222,-0.033222,-0.033222},
{0.092898,0.092898,0.092898},
{0.064955,0.064955,0.064955},
{-0.005843,-0.005843,-0.005843},
{-0.004103,-0.004103,-0.004103},
{-0.021553,-0.021553,-0.021553},
{-0.001761,-0.001761,-0.001761},
{0.041466,0.041466,0.041466},
{0.022564,0.022564,0.022564},
{-0.003604,-0.003604,-0.003604},
{-0.008009,-0.008009,-0.008009},
{-0.001548,-0.001548,-0.001548},
{0.014485,0.014485,0.014485},
{-0.015501,-0.015501,-0.015501},
{0.006760,0.006760,0.006760},
{0.036368,0.036368,0.036368},
{0.050427,0.050427,0.050427},
{-0.019700,-0.019700,-0.019700},
{0.000207,0.000207,0.000207},
{-0.011505,-0.011505,-0.011505},
{0.006513,0.006513,0.006513},
{0.093187,0.093187,0.093187},
{-0.053453,-0.053453,-0.053453},
{-0.031403,-0.031403,-0.031403},
{-0.008867,-0.008867,-0.008867},
{-0.029989,-0.029989,-0.029989},
{-0.004290,-0.004290,-0.004290},
{0.006900,0.006900,0.006900},
{0.001067,0.001067,0.001067},
{-0.023908,-0.023908,-0.023908},
{-0.022251,-0.022251,-0.022251},
{-0.031115,-0.031115,-0.031115},
{0.048465,0.048465,0.048465},
{0.016724,0.016724,0.016724},
{-0.009595,-0.009595,-0.009595},
{0.008174,0.008174,0.008174},
{-0.007070,-0.007070,-0.007070},
{-0.002631,-0.002631,-0.002631},
{0.027732,0.027732,0.027732},
{0.037596,0.037596,0.037596},
{-0.026487,-0.026487,-0.026487},
{-0.008943,-0.008943,-0.008943},
{-0.020698,-0.020698,-0.020698},
{-0.035744,-0.035744,-0.035744},
{-0.011178,-0.011178,-0.011178},
{0.013216,0.013216,0.013216},
{0.031627,0.031627,0.031627},
{-0.024198,-0.024198,-0.024198},
{0.014536,0.014536,0.014536},
{-0.008345,-0.008345,-0.008345},
{0.010243,0.010243,0.010243},
{-0.193790,-0.193790,-0.193790},
{-0.135220,-0.135220,-0.135220},
{0.031275,0.031275,0.031275},
{-0.001417,-0.001417,-0.001417},
{0.010192,0.010192,0.010192},
{0.015220,0.015220,0.015220},
{-0.129157,-0.129157,-0.129157},
{-0.081260,-0.081260,-0.081260},
{0.006740,0.006740,0.006740},
{-0.009030,-0.009030,-0.009030},
{-0.021901,-0.021901,-0.021901},
{0.007669,0.007669,0.007669},
{0.021697,0.021697,0.021697},
{0.010898,0.010898,0.010898},
{-0.017396,-0.017396,-0.017396},
{0.015500,0.015500,0.015500},
{0.020305,0.020305,0.020305},
{0.027627,0.027627,0.027627},
{-0.005852,-0.005852,-0.005852},
{-0.017467,-0.017467,-0.017467},
{-0.023374,-0.023374,-0.023374},
{0.003731,0.003731,0.003731},
{-0.016913,-0.016913,-0.016913},
{0.003876,0.003876,0.003876},
{0.026824,0.026824,0.026824},
{0.003614,0.003614,0.003614},
{-0.047504,-0.047504,-0.047504},
{-0.005743,-0.005743,-0.005743},
{-0.015334,-0.015334,-0.015334},
{0.008815,0.008815,0.008815},
{-0.093421,-0.093421,-0.093421},
{-0.107049,-0.107049,-0.107049},
