constant float16 weights_layer_8_row_major[256*512] = {
{0.001958,-0.026396,-0.043313,0.013424,-0.024852,-0.009473,-0.015105,0.117920,-0.024442,0.055865,0.014551,-0.087799,-0.096036,-0.036234,-0.056254,0.034511},
{0.008259,0.028593,0.002305,-0.014426,0.030483,0.061401,-0.036393,-0.063011,-0.009425,0.063092,-0.075601,-0.045239,0.021731,-0.039818,-0.007449,-0.030544},
{-0.064767,-0.035820,-0.117311,-0.004738,-0.041909,0.104725,0.010002,-0.037785,0.024601,0.042889,0.017769,-0.052835,0.029136,0.040715,-0.071884,-0.063456},
{0.022603,0.089418,0.021437,-0.070229,0.074093,-0.031037,0.049702,-0.060022,0.043345,-0.094508,0.074681,0.011077,-0.008030,0.048706,0.002446,0.038231},
{0.021711,-0.017503,0.042510,0.000205,-0.091815,-0.029412,0.016988,-0.028316,-0.050083,0.030980,-0.052436,0.005610,0.063363,-0.034542,0.059726,-0.127939},
{-0.119834,0.017962,-0.059484,0.000126,0.075600,0.031755,-0.052342,-0.070080,0.009860,-0.029271,-0.055926,-0.018034,-0.118756,0.029939,0.031460,-0.010152},
{-0.078767,-0.037768,-0.012529,-0.002870,0.037223,-0.102923,0.047905,-0.051990,0.064253,0.083734,-0.020884,-0.093146,-0.088577,0.107141,0.019694,0.063669},
{0.022008,0.030416,-0.004488,0.052027,0.086470,0.047955,0.016432,0.021505,-0.023793,-0.013340,0.044410,-0.000859,-0.149358,-0.018641,-0.008520,0.002758},
{0.117636,-0.012999,0.009599,0.156457,-0.042556,-0.002659,0.120107,-0.022343,-0.054049,0.026976,-0.006421,-0.043500,-0.000834,0.040149,-0.023277,-0.017473},
{-0.058663,-0.055051,-0.016575,-0.023475,0.008481,-0.044369,-0.037327,-0.026356,-0.078682,0.002147,-0.046952,0.028013,-0.144870,-0.112334,0.030550,0.027599},
{0.044292,-0.057899,-0.055982,0.055732,-0.074529,0.026941,0.088300,0.002280,0.031925,0.004333,-0.034091,-0.040819,-0.076839,-0.072078,-0.051034,-0.087116},
{0.067384,0.075100,0.076804,-0.042975,0.017246,0.012666,-0.012563,0.070840,0.043741,0.037303,-0.041069,-0.030455,-0.054880,-0.008563,-0.017733,0.049214},
{0.075162,0.049497,-0.015697,-0.049683,0.073398,-0.006231,-0.035425,0.024427,-0.160181,0.075069,-0.021643,0.166428,-0.005789,0.143490,0.001743,0.012604},
{-0.018945,0.074432,-0.020162,0.102367,-0.019281,-0.076873,0.063431,0.009447,0.000076,0.024945,-0.044558,-0.018205,-0.034288,0.026078,0.026569,0.012205},
{-0.067280,-0.015324,0.038333,-0.011216,-0.062508,-0.009310,-0.073763,-0.007965,-0.014446,0.015393,0.040324,-0.008091,-0.002102,-0.058291,0.098322,0.008178},
{-0.152912,0.020875,-0.085513,0.016791,0.056764,-0.090056,0.063293,0.013123,0.093197,0.096306,0.008430,-0.058762,-0.066730,0.020434,0.029937,-0.008355},
{-0.005514,-0.012908,-0.016486,-0.000618,-0.045076,0.089456,0.003623,0.003928,0.011846,-0.057397,-0.060198,0.102753,-0.048009,0.033249,-0.082243,-0.029575},
{-0.016200,-0.025191,0.160324,0.051618,-0.072372,0.007653,-0.126215,-0.033920,-0.031691,-0.044006,0.062062,0.069643,0.045308,0.116720,0.120196,0.043580},
{0.034401,0.006626,0.065171,0.011789,-0.084903,-0.016272,0.094318,0.045348,-0.014315,0.087359,0.050555,-0.075242,0.001267,-0.053287,-0.071097,-0.022708},
{-0.069759,0.047231,0.038143,-0.046174,-0.014518,-0.026561,-0.076755,-0.014730,-0.017550,-0.087128,-0.046976,0.028209,-0.007359,-0.026097,-0.003431,-0.072982},
{0.032541,0.001225,0.028558,0.023971,0.058179,-0.031099,0.054962,-0.087654,-0.086062,-0.046590,0.039244,-0.031399,0.073900,0.026300,-0.007054,-0.078954},
{0.072228,0.006074,-0.042995,0.042843,0.050858,0.008324,0.028442,0.001371,-0.049025,0.005424,-0.042993,-0.058364,0.085082,-0.068410,0.069455,-0.026848},
{0.009312,0.016103,-0.137223,0.033666,0.015327,0.123875,-0.041180,0.086597,0.041236,-0.012131,0.034785,0.076217,-0.091602,-0.123957,-0.029299,-0.007961},
{-0.055938,-0.013747,-0.019549,0.015230,-0.014854,-0.062070,-0.025808,0.076370,0.023625,-0.102120,-0.012865,0.004091,-0.025159,0.040781,-0.053835,-0.058811},
{-0.062679,0.027519,-0.103228,-0.071327,-0.038533,0.036585,-0.023931,0.006002,0.051928,0.062513,-0.046661,0.036469,-0.038883,-0.017867,-0.027814,0.012166},
{0.006433,-0.139329,-0.031705,-0.027029,0.023888,0.059474,-0.007846,-0.036844,0.010312,-0.010741,-0.040615,-0.108637,-0.119070,0.004985,-0.047046,-0.073021},
{-0.021797,0.018328,-0.090974,-0.027771,0.014851,0.032372,0.119013,0.123664,-0.049584,-0.074621,0.046787,0.050582,-0.077683,0.073067,-0.008988,0.062272},
{-0.094694,0.053888,-0.017994,-0.036183,0.011411,-0.060055,-0.076264,-0.044861,-0.056545,-0.015675,0.019615,-0.087995,-0.123683,-0.091819,0.071170,-0.025973},
{-0.050287,-0.162021,0.016347,-0.064869,-0.028934,-0.006200,-0.003534,0.024766,-0.102620,0.044046,-0.041965,0.072246,0.033529,-0.010558,0.059189,-0.007879},
{-0.078007,0.021328,0.048093,-0.008247,0.097489,0.011660,0.033814,-0.049904,0.041443,-0.046266,-0.048122,-0.029553,0.066865,0.018890,-0.062481,0.001043},
{0.039421,0.004345,-0.057518,-0.074147,0.019275,0.067181,-0.013929,-0.024905,0.009040,0.056157,-0.006860,0.002389,-0.099501,-0.050246,-0.062322,-0.038457},
{0.140065,0.071057,-0.001274,0.051943,0.094439,0.102405,-0.089590,-0.083068,0.004044,-0.001110,-0.108648,0.034170,-0.004915,-0.035627,-0.019218,-0.008130},
{0.025509,0.068394,0.011651,0.129501,0.105853,0.035630,0.031046,0.007307,0.065974,-0.093250,-0.093348,-0.013804,0.097777,-0.022316,-0.157071,0.035561},
{-0.129558,-0.182425,0.046958,0.029719,0.034722,-0.034671,0.000299,-0.057220,0.068673,-0.049718,-0.049855,0.128875,0.037634,0.072202,-0.014343,0.042651},
{0.102007,-0.002169,0.011928,-0.087147,-0.138401,0.101238,-0.035686,0.034657,-0.042077,0.114712,-0.027199,-0.027151,0.111279,-0.063564,-0.011960,0.148401},
{0.050476,-0.058331,-0.068004,0.090431,0.046383,0.025420,0.000191,0.142522,-0.003302,0.008093,-0.091415,-0.036045,-0.073186,0.032562,0.043705,-0.043230},
{-0.080839,0.056213,-0.072589,0.009735,-0.053490,0.004527,0.034150,0.020175,-0.014639,-0.041964,0.048353,-0.003525,0.083701,-0.044495,0.036938,0.095044},
{-0.023996,-0.022607,-0.081993,-0.015261,-0.014612,-0.053122,-0.009002,-0.034394,-0.094721,0.143887,-0.092374,-0.084932,0.037967,0.041251,0.026737,0.065412},
{-0.005782,0.071213,-0.048864,0.057814,-0.063289,-0.012737,-0.088326,-0.034790,0.084932,0.118710,0.003411,-0.096157,0.146945,-0.103595,0.026110,-0.007200},
{-0.081374,0.007137,-0.036627,0.080790,0.032827,0.127568,-0.010301,0.182088,-0.053744,0.059176,-0.014546,0.027466,-0.079028,0.027337,0.055323,0.045072},
{0.049343,0.046704,-0.080466,0.051865,0.033636,-0.066949,0.004223,-0.020194,-0.024857,-0.013961,0.071459,0.049846,-0.090512,0.017759,0.010180,-0.010025},
{-0.019399,0.002299,0.048045,0.102710,-0.081140,0.034981,0.041943,0.078240,-0.019719,0.036792,-0.014462,0.084957,0.045660,-0.018584,-0.104131,0.015128},
{0.037474,-0.182921,-0.032793,-0.042301,0.046583,-0.061172,-0.069657,-0.057654,0.081816,-0.031886,0.053625,-0.036797,-0.057259,-0.089204,-0.033441,0.010014},
{-0.051857,0.161942,-0.033936,-0.065985,0.051789,0.021268,-0.064167,0.003603,-0.052657,0.108340,0.032103,0.049604,0.095062,0.101733,-0.001548,0.076006},
{-0.019737,0.011179,-0.011985,0.002202,-0.059401,0.100501,0.041532,-0.162861,0.066527,-0.100405,0.000065,-0.064242,-0.075231,-0.044466,-0.128652,-0.054449},
{0.015474,-0.051272,-0.109930,-0.051468,0.044614,0.020983,0.115810,0.139818,0.053437,-0.104405,-0.094267,-0.071077,0.006021,-0.012194,0.048345,-0.024525},
{0.051238,-0.115374,-0.031767,-0.086003,-0.117326,-0.100894,-0.085316,0.070380,0.080211,0.064052,0.146216,-0.053286,-0.014461,0.059785,-0.070243,-0.025577},
{0.012300,-0.188228,0.062387,-0.163122,0.016324,0.021210,-0.004914,0.002301,0.015008,0.190610,0.043295,0.016194,-0.069852,-0.160110,-0.039011,0.002618},
{-0.069212,0.058152,-0.127090,-0.105823,-0.213811,-0.118803,-0.204708,0.045845,0.031166,0.060169,-0.051443,0.085571,0.076579,-0.036052,-0.040137,0.013086},
{0.073824,0.001043,-0.107350,-0.031728,-0.026858,0.128352,0.000553,0.048048,-0.076869,-0.043297,-0.100583,-0.082868,0.041469,0.125073,0.028621,-0.192291},
{0.040546,0.060095,-0.091541,-0.044753,-0.054749,0.045717,-0.175202,0.079420,-0.080586,0.027673,0.049633,-0.006392,-0.051606,-0.095321,0.095595,0.049144},
{-0.005463,-0.068511,0.062132,-0.051799,-0.130975,0.132016,-0.137889,-0.069570,-0.018709,0.020678,-0.004987,0.159802,0.013133,0.068387,0.104982,0.176184},
{-0.092711,0.051771,0.034649,0.030327,0.010846,-0.058427,-0.055662,0.063876,-0.061814,0.113862,-0.084299,-0.076299,0.006551,0.010842,-0.018317,-0.061043},
{-0.031718,0.072815,-0.057932,-0.047689,-0.000508,-0.072317,-0.087927,-0.126822,-0.103535,0.120176,-0.003471,-0.033301,0.064768,-0.043041,0.027129,-0.022934},
{-0.067222,-0.086983,0.116697,0.116341,-0.089543,-0.063277,-0.028404,-0.081442,0.020109,-0.039409,0.081926,-0.074373,0.078925,-0.002827,0.054552,0.065383},
{0.048417,0.106561,0.059382,-0.016796,0.007466,-0.026160,0.064398,0.023006,-0.121556,-0.017446,0.039924,-0.045018,-0.032580,-0.090841,0.002625,-0.038245},
{0.080897,-0.075644,-0.007602,-0.032260,-0.059810,0.055712,-0.087745,0.047937,0.017607,-0.150160,-0.038043,-0.117610,0.032503,-0.037229,0.020749,0.017688},
{-0.123994,-0.106159,0.155265,0.035636,0.011078,-0.080387,0.096877,-0.139947,0.083451,-0.076929,-0.030348,-0.056420,-0.072512,-0.033493,0.078826,-0.038371},
{-0.069935,0.079652,0.061490,-0.033186,0.031214,0.044981,0.088118,-0.082386,-0.016552,-0.026480,-0.025278,-0.085152,-0.087333,0.039788,-0.025684,-0.023128},
{0.145312,-0.115218,-0.061146,-0.050965,-0.031425,-0.070729,0.089065,-0.042577,0.036906,0.076937,0.058428,0.028768,0.034449,0.047281,-0.000279,0.000279},
{-0.039627,-0.077105,0.016393,0.149069,-0.049144,0.012918,0.002189,-0.159423,-0.045874,-0.169824,-0.081231,-0.025462,0.006563,0.169391,0.061050,0.139459},
{-0.046013,-0.148135,0.014759,-0.058428,0.004580,0.081184,0.048075,-0.064421,-0.063104,0.078633,-0.007867,0.006762,0.092094,-0.035837,0.102484,0.009495},
{-0.070032,-0.001252,-0.108502,0.046867,-0.031683,0.009337,0.139770,0.022698,-0.111835,-0.124266,0.002943,0.085496,-0.014612,-0.032994,0.115295,0.018854},
{0.025895,0.086010,0.001691,-0.056171,-0.092479,-0.018965,0.039570,-0.032848,-0.021311,-0.033610,-0.156183,0.131631,-0.074260,0.051817,0.028862,0.083680},
{0.000934,-0.025724,0.037267,-0.039698,0.084744,-0.108811,0.021241,0.016605,-0.064136,0.010651,-0.064258,0.051592,0.015195,-0.107516,-0.061116,-0.046321},
{0.002634,0.010410,-0.073006,0.031140,0.037334,0.017793,-0.049957,-0.071709,-0.028159,0.048167,-0.023168,0.131981,-0.041111,0.005747,-0.020272,-0.071123},
{0.082074,0.084968,0.021069,0.055845,-0.014361,0.001290,-0.086638,0.001452,-0.008157,-0.016903,0.010602,0.023140,-0.031619,0.068559,-0.033400,0.019637},
{0.038124,0.048222,-0.021059,0.031387,0.071864,0.070160,0.016618,-0.018706,0.077357,0.005437,0.020571,0.106697,-0.046392,-0.046481,-0.017123,-0.018036},
{-0.043102,-0.011048,0.001010,-0.043266,0.118905,0.129396,0.095289,-0.013645,0.021538,0.025221,0.018270,0.115553,0.054771,-0.048055,0.050405,-0.018325},
{-0.136934,0.022702,0.004425,0.090841,0.021793,0.052215,0.112846,0.036634,-0.022145,0.094394,-0.032446,-0.082279,0.006040,0.025397,-0.062301,-0.069835},
{0.036718,0.024574,-0.017235,-0.078781,-0.079970,-0.048765,0.049764,0.011212,0.019512,-0.045261,0.073872,0.053859,0.033943,-0.023497,0.035300,-0.138318},
{-0.012545,0.073317,0.141106,-0.019329,0.036893,0.067068,-0.064491,-0.133201,-0.025205,0.066411,-0.049254,0.069063,-0.039469,-0.054300,0.006729,0.018311},
{-0.024683,0.033972,0.021147,0.001433,-0.013625,-0.016371,-0.099815,-0.127853,-0.016887,0.062193,0.005658,0.042165,0.022178,-0.104149,-0.133001,-0.072242},
{0.115678,0.050624,-0.063775,-0.018590,-0.074310,-0.050898,-0.036300,-0.092205,-0.021657,-0.004689,-0.130912,0.070100,0.097459,0.009475,0.049624,-0.011486},
{-0.061651,-0.042849,-0.009523,0.022359,0.087089,-0.023240,-0.010617,-0.025784,-0.037480,-0.080563,-0.014352,0.013435,0.066183,-0.001395,-0.149362,-0.020673},
{-0.114439,-0.071311,-0.048078,0.128149,-0.013326,0.097267,0.007502,0.001603,0.033162,0.007907,0.063136,0.023316,0.072239,0.123191,-0.121265,0.096034},
{0.042414,-0.008088,0.047793,-0.003413,-0.010329,-0.010947,0.020696,0.042864,-0.033855,-0.083354,0.005830,-0.047005,-0.024352,-0.038836,-0.014942,-0.082948},
{-0.051868,0.081195,-0.140926,0.044779,0.058152,0.003482,-0.062350,0.019700,0.125191,0.054079,0.057654,0.033532,-0.096194,-0.019800,0.067297,0.004445},
{0.029161,0.060524,-0.000202,-0.003643,-0.004743,-0.037338,0.041045,0.029672,-0.007768,0.082260,0.031686,0.012654,0.025296,0.015229,0.024403,0.038545},
{0.034615,-0.053755,0.039503,0.032599,0.021857,0.025688,0.053375,-0.024175,0.083383,0.039045,-0.165525,0.021020,-0.052442,-0.000372,0.061497,0.036915},
{-0.044546,0.001990,-0.065424,0.022125,0.039434,0.093414,-0.050242,-0.037200,-0.063947,0.028459,-0.023269,0.046269,-0.053168,0.009944,0.059154,0.017205},
{0.060437,0.059960,0.042450,0.104383,-0.008597,-0.092384,-0.108960,-0.015566,0.029867,0.036084,-0.002456,0.001854,-0.051397,0.004390,-0.031838,0.059261},
{0.017104,-0.003145,0.019187,0.033763,-0.064823,0.081477,-0.036897,-0.032676,-0.041835,0.013486,-0.005057,0.013543,-0.026795,0.003434,0.004564,0.073858},
{-0.047296,-0.021951,0.048714,-0.051812,-0.084782,-0.028174,0.068708,0.039791,-0.040606,0.035440,-0.038691,0.060469,0.024827,-0.007782,0.027210,-0.047177},
{-0.014796,0.009414,0.002689,0.007994,-0.006104,-0.038295,-0.033538,-0.021395,0.024693,-0.103522,0.015673,0.015883,-0.042882,0.085515,0.052436,-0.062378},
{0.006430,-0.031152,0.016333,0.048387,0.068424,0.049317,0.085325,0.010134,0.004824,-0.060796,-0.055366,0.060135,0.040307,0.009545,-0.035360,-0.090575},
{0.028417,0.063194,-0.007353,0.033560,-0.006990,-0.018792,0.020897,0.012882,0.017299,-0.078497,-0.021119,-0.094330,-0.103372,-0.055795,0.047605,0.016067},
{-0.030193,0.076650,-0.032067,-0.094858,-0.079174,-0.004627,0.037803,-0.020147,0.078820,0.041062,0.088637,-0.015231,-0.119279,0.027094,-0.045855,-0.021068},
{-0.054077,-0.009668,-0.033618,-0.015602,-0.032689,-0.096068,-0.026589,-0.046298,0.055720,-0.035957,-0.065587,-0.052504,0.069018,-0.015707,0.030588,-0.042779},
{0.051569,-0.085236,-0.025565,-0.058258,-0.006438,0.079418,-0.041269,-0.038735,0.046964,-0.067705,-0.051114,0.016364,-0.014763,0.081343,0.007413,-0.001551},
{0.020595,-0.031129,0.066450,0.006209,0.010658,0.053536,0.048306,0.011591,0.093406,0.041191,-0.039156,-0.042895,0.003403,0.008669,-0.001143,0.069010},
{0.122648,0.014134,-0.020229,0.005652,-0.088815,-0.003186,-0.095676,-0.087502,-0.034270,-0.077681,-0.035852,-0.134387,0.013415,-0.003448,0.009627,-0.055029},
{0.004438,0.030534,-0.031405,0.017117,-0.079855,0.002841,-0.057427,-0.035432,0.054523,0.033038,-0.093954,-0.022375,-0.016409,-0.084499,-0.035815,0.007196},
{-0.006484,-0.044350,0.020933,-0.005713,0.104091,-0.003800,-0.043755,-0.033464,-0.024200,-0.043190,-0.051443,-0.065958,0.045237,-0.008452,-0.063222,-0.040895},
{0.012929,0.105550,-0.103854,-0.123175,-0.046883,0.003613,0.003733,0.102359,-0.053335,0.006355,0.036759,-0.020586,-0.100506,-0.045501,0.070118,-0.034547},
{-0.035089,0.077194,-0.020138,0.007340,-0.075528,-0.042172,0.126988,-0.019253,-0.057531,0.061435,0.048542,-0.009646,0.074700,0.032651,-0.048885,-0.019215},
{-0.076870,-0.051598,0.108815,0.018264,-0.113033,0.065013,-0.051941,-0.096593,0.027305,0.023101,0.055046,0.008870,0.053496,0.006740,0.022758,-0.011687},
{0.054680,-0.067834,-0.057996,-0.051212,-0.069259,-0.006511,-0.011220,-0.055574,0.006790,0.034437,0.015726,0.056325,-0.004624,0.094076,-0.036959,-0.026333},
{0.027430,0.000713,0.045549,-0.019715,0.061007,-0.033729,0.006536,0.053916,0.035249,0.195195,-0.047852,-0.088008,0.037019,0.090281,-0.065215,-0.020298},
{0.142685,-0.000755,-0.109413,-0.020200,0.004123,-0.061239,-0.067811,0.062970,0.006828,-0.009040,-0.010776,0.050887,-0.074771,0.065098,0.025244,0.007076},
{-0.087030,0.000191,-0.065611,-0.155779,-0.047095,-0.062764,-0.024416,0.014942,0.009535,0.020082,0.110372,0.070003,-0.045449,-0.077642,-0.046068,0.022098},
{0.000452,-0.056071,0.012375,0.021465,0.016889,0.061232,-0.062314,-0.014523,0.039296,0.101909,-0.029075,0.033475,-0.037524,-0.055567,0.056694,-0.045461},
{-0.117942,0.027845,-0.059046,-0.024039,-0.125607,0.006013,0.011789,-0.010844,0.040743,0.016714,0.146080,0.012418,-0.025165,-0.051939,-0.062902,0.038598},
{-0.065837,0.044056,0.055533,-0.006211,0.028717,0.048461,0.011396,-0.067747,-0.027478,0.082064,0.096249,-0.051861,-0.016668,-0.006375,0.027186,0.021046},
{-0.125642,0.057445,0.026807,0.054121,-0.021416,-0.017199,-0.106865,-0.058492,0.026844,0.040334,-0.050667,0.027978,0.032755,0.003766,-0.012690,0.036693},
{-0.060732,0.051598,0.082633,0.031218,0.019878,-0.060150,0.028737,-0.021708,0.113780,-0.010519,0.034124,0.013790,-0.025448,-0.061802,-0.080831,-0.071695},
{0.060175,-0.127643,0.039361,-0.002099,0.059431,-0.040560,0.041358,0.051033,0.070482,0.126836,0.050827,-0.046356,-0.067307,0.079756,-0.074149,-0.088519},
{-0.048084,0.001148,-0.019357,0.043760,-0.085619,-0.026116,-0.095204,0.058031,0.070511,0.009165,0.058474,0.039211,-0.033741,-0.040656,0.007148,-0.045576},
{-0.067752,0.003213,0.038276,-0.021756,-0.057071,0.065839,-0.120019,0.046330,-0.036279,-0.053073,-0.010021,-0.091766,-0.156035,0.000956,0.023447,-0.081818},
{0.009679,0.002746,-0.018607,0.131148,-0.021911,0.055337,0.035946,0.038654,0.051834,0.072227,0.105060,0.019404,0.049789,-0.022885,-0.014798,0.037153},
{-0.078332,-0.033893,0.038713,-0.090063,-0.011030,0.029252,-0.088393,0.035432,-0.002824,-0.006266,0.107791,0.011443,-0.147630,-0.044131,0.034311,0.004290},
{0.039834,-0.036255,0.017260,0.096220,0.108590,-0.013195,-0.083070,-0.023733,-0.103640,-0.050533,0.065007,-0.025972,-0.056795,0.046405,0.083484,-0.051734},
{-0.011101,0.003790,0.038404,-0.027006,0.032549,-0.002663,0.038213,-0.078171,-0.062272,0.016808,-0.020842,-0.018903,-0.091155,-0.174432,-0.036925,-0.039476},
{0.063378,-0.016790,0.007501,-0.037724,0.011883,0.026671,0.087684,0.024603,0.040163,-0.024155,-0.001541,-0.000881,0.003070,0.084820,0.028079,0.103912},
{0.042233,-0.025653,-0.128812,-0.046629,-0.010808,0.005093,-0.074358,0.042279,-0.001660,0.026547,0.105212,-0.127727,-0.019911,-0.024931,-0.067312,0.002761},
{-0.023615,0.052716,-0.098044,0.005965,-0.051234,-0.036516,-0.009391,0.058907,-0.069461,-0.004232,0.004928,-0.065540,-0.007857,-0.041988,-0.008376,-0.008243},
{0.048614,0.022686,-0.143158,-0.020759,-0.082899,0.022671,-0.007083,0.023244,0.044692,-0.010275,-0.075532,-0.063346,-0.034562,-0.048749,0.037812,0.128738},
{-0.010921,0.010955,-0.045203,-0.001228,0.004457,0.014614,-0.046669,0.004545,0.000671,0.043504,-0.106548,0.000748,0.005712,-0.003188,-0.006691,-0.007899},
{0.096489,0.031490,-0.044275,-0.105212,0.061314,0.031199,0.009498,0.005187,0.087903,0.113644,-0.013150,-0.039449,0.035204,-0.022476,0.002050,-0.029302},
{-0.087945,-0.036697,-0.018286,0.106688,0.039819,-0.007605,-0.053014,-0.007131,0.098923,-0.041097,0.065558,0.170845,0.121115,0.003580,-0.024822,0.028354},
{0.137714,-0.045574,-0.148970,-0.061161,0.147164,-0.001253,0.043791,0.023302,-0.103189,-0.061426,0.035265,-0.010888,-0.030403,-0.067855,0.013991,-0.052376},
{0.087783,-0.061809,0.127814,-0.000818,0.010450,-0.025918,0.056111,0.027697,-0.048898,-0.011194,0.033540,-0.085323,0.054058,0.028236,-0.107988,-0.049910},
{0.078964,0.146866,0.106268,0.045377,0.093366,-0.072017,-0.060006,0.108379,0.076218,-0.029682,0.103752,-0.011382,0.055069,-0.012336,0.009039,-0.040842},
{0.018554,-0.026101,-0.006129,-0.034061,-0.029568,0.041604,-0.024672,0.022140,0.025039,0.015021,-0.087999,0.079734,-0.047045,0.097471,-0.000512,0.018291},
{0.056880,0.026476,-0.045532,-0.089264,-0.010948,0.003946,-0.174845,0.038777,-0.009146,0.089186,0.066035,-0.014158,0.013098,0.086828,0.031216,0.019068},
{-0.105552,-0.084236,0.003882,-0.038880,-0.015823,-0.011096,0.047375,-0.119375,-0.002553,0.046459,0.074374,-0.081192,0.036084,0.051940,0.128263,0.077208},
{-0.038892,0.103071,0.002770,0.053382,0.002484,-0.044201,0.034494,0.022618,0.093729,0.118790,-0.030115,0.155606,0.042961,-0.074223,-0.090284,0.008529},
{0.019801,0.070639,-0.076154,0.057621,-0.014597,0.033759,-0.102658,-0.029745,-0.054212,0.047363,0.046087,0.061899,-0.065443,0.013592,0.033176,-0.094618},
{0.036766,0.005848,-0.155677,-0.016889,-0.013681,-0.047949,0.039750,-0.056810,-0.013856,-0.025827,-0.010414,0.119493,-0.072197,-0.007917,0.038290,-0.016805},
{0.056304,-0.003921,-0.096377,-0.023010,-0.100567,-0.018117,0.094867,-0.089994,-0.030308,0.010891,-0.151686,-0.001951,-0.003992,0.013540,0.007405,-0.099256},
{-0.054114,0.082574,0.085407,0.064109,0.092923,-0.111083,0.012608,-0.001482,0.051115,0.046145,0.102212,0.007652,0.062760,-0.009843,-0.017336,0.028587},
{-0.007750,0.013731,-0.005151,0.031216,0.030498,-0.008781,-0.007955,-0.129608,0.041086,0.082293,-0.081081,0.068363,-0.076312,-0.008193,0.021532,-0.125144},
{-0.027137,0.033185,0.032924,-0.010925,0.068031,-0.080965,0.013591,-0.026070,0.021122,0.007762,-0.041181,-0.003054,0.010564,-0.148931,0.028352,-0.003616},
{-0.024422,-0.162571,0.055713,-0.072201,-0.055556,0.024549,0.058583,0.038271,0.023953,-0.054861,0.059234,0.038020,-0.075218,-0.052489,0.014262,0.030347},
{-0.008986,-0.005837,-0.006729,0.138957,0.056649,-0.007824,-0.148323,-0.063103,0.083738,-0.125595,0.088132,0.107015,0.053530,-0.007124,-0.066081,-0.091376},
{-0.051562,0.009217,-0.047041,0.046820,0.015696,0.012922,-0.073234,-0.019304,0.032785,-0.008064,0.013782,0.048598,-0.072175,-0.005186,-0.071116,-0.014448},
{-0.094799,-0.010496,0.045669,-0.023737,0.033771,-0.063643,-0.066009,-0.024499,-0.053272,-0.028259,-0.008659,0.049633,0.041985,-0.046254,0.000377,0.026252},
{-0.077496,0.042111,-0.001235,0.062357,0.045154,0.057038,-0.032680,0.028126,-0.138981,0.025069,-0.052404,-0.047062,0.015773,-0.001499,-0.001537,0.122264},
{0.065599,-0.017627,0.120538,-0.036026,-0.034882,-0.026343,-0.061264,0.027161,0.048329,0.105297,0.008737,-0.050785,-0.080679,-0.114334,-0.123585,0.072916},
{-0.008000,-0.143221,-0.055322,-0.013516,-0.035871,0.011306,0.010553,-0.008920,-0.006920,0.003340,0.060408,-0.029696,0.000101,-0.063758,0.123612,-0.021822},
{-0.026826,0.031062,-0.031004,0.007747,-0.017945,0.008196,0.018362,0.046183,-0.047217,-0.042197,-0.002589,-0.026866,0.100023,0.019133,-0.059087,0.118780},
{0.005925,-0.045795,-0.023738,-0.022827,0.032629,-0.091851,-0.004301,0.057425,0.034578,0.088175,0.025162,-0.097742,-0.013863,0.002257,-0.028512,-0.030380},
{-0.018068,-0.045114,-0.018357,-0.138838,0.129752,-0.001452,-0.005062,-0.025002,0.029410,-0.037624,0.052189,-0.062703,-0.030702,-0.011329,-0.068404,-0.086676},
{0.092075,0.031205,-0.076294,-0.061043,0.022262,-0.024467,0.013831,0.028618,0.114514,0.052386,0.013587,0.011236,-0.029225,-0.074738,-0.005233,0.057595},
{0.021808,-0.076707,-0.011432,-0.000880,0.038579,-0.034719,-0.070235,0.082602,-0.021771,-0.039611,-0.058776,-0.079324,-0.096110,0.063356,-0.088829,0.025449},
{-0.062317,-0.050989,-0.055434,0.133845,0.076376,-0.040589,-0.062484,-0.052198,-0.164504,0.072138,-0.056848,-0.004568,-0.054069,0.103264,-0.048429,-0.009034},
{-0.047646,-0.123166,0.113727,-0.096684,-0.003272,0.065716,-0.056434,0.083686,-0.025307,-0.003073,0.194007,0.108984,-0.021212,0.028944,-0.043295,0.056436},
{-0.026577,-0.018361,-0.045392,0.030229,0.040523,0.052878,-0.177952,-0.068379,-0.044572,-0.056119,-0.021068,-0.159954,0.004999,-0.012851,0.099756,0.038737},
{-0.022534,0.075283,0.010462,-0.000032,0.013353,0.059253,-0.088434,0.008378,-0.052765,0.031528,-0.058988,-0.041035,0.045688,0.035723,-0.005962,-0.007531},
{-0.036523,-0.035013,-0.015277,0.148488,0.047411,0.019429,-0.031511,0.024749,0.035394,-0.040264,-0.071785,-0.126967,-0.026096,0.055704,0.030787,0.036519},
{-0.012623,-0.054711,0.007370,0.117009,-0.022302,-0.002784,-0.024007,-0.048408,-0.004342,0.025672,-0.032502,-0.104521,-0.005773,0.095816,0.076739,0.063327},
{-0.016745,0.023411,-0.029913,-0.080491,0.021746,0.073842,0.102159,0.108007,0.079683,0.113898,-0.004612,-0.044742,-0.065336,-0.026379,0.021955,0.022138},
{0.093481,0.022671,0.025350,0.084038,0.043012,0.053254,-0.027302,-0.024360,0.028277,0.081969,0.031987,-0.090982,-0.053035,-0.058160,-0.011420,0.017890},
{0.000588,0.001078,-0.150434,0.060271,0.059649,0.053614,-0.057968,-0.019309,-0.065647,0.081677,0.006849,-0.102952,0.022963,0.014014,0.007844,0.019873},
{-0.038918,0.111379,0.021318,-0.078830,-0.037107,0.086204,0.035339,-0.070126,-0.032860,-0.060119,0.059905,-0.018861,-0.091888,-0.015527,-0.023033,0.086312},
{-0.030579,0.032185,-0.001865,0.058074,-0.016937,0.074258,-0.008279,-0.050273,0.047841,0.039062,-0.070543,-0.036145,-0.072979,0.089956,-0.037401,0.026597},
{0.014458,0.053976,0.091049,0.066979,-0.061135,-0.028390,0.031808,0.008537,-0.096018,-0.030335,-0.016936,-0.001718,-0.033589,0.153438,0.022254,-0.031692},
{-0.064247,-0.039081,0.111576,0.065867,0.030448,-0.016516,-0.052842,0.000707,0.024870,0.168729,-0.004541,0.136568,0.026917,-0.061779,-0.010612,0.049078},
{0.109604,-0.154065,-0.083021,-0.014477,-0.024173,0.091874,-0.030163,-0.062855,-0.035781,0.001541,0.066298,-0.082869,0.043333,0.027667,-0.048912,0.007972},
{0.019531,-0.046581,-0.080066,0.003397,-0.015833,0.047548,0.006397,-0.171390,0.055360,0.036470,0.110776,0.163967,-0.012896,-0.023226,0.075583,-0.041202},
{0.012466,-0.070433,0.059009,-0.034160,0.116578,-0.018303,0.042749,-0.038811,0.012581,-0.074500,-0.014347,0.042978,-0.021232,0.001628,-0.041635,-0.014782},
{-0.003685,0.079700,0.134247,0.024771,0.056062,0.027642,0.021165,0.024197,0.018052,-0.109671,0.076754,0.045874,-0.025781,-0.065995,0.151085,-0.048781},
{-0.065836,0.021691,-0.025519,-0.017136,-0.073750,0.023422,0.066217,-0.039583,-0.016654,0.084091,0.055761,0.087806,0.039288,-0.022293,0.033954,0.017441},
{-0.015890,-0.105493,-0.017602,-0.125662,0.014994,-0.024836,0.035456,-0.006045,0.036402,0.033123,0.108683,0.062740,0.022045,0.008798,-0.048474,0.125373},
{0.043991,-0.023731,0.009838,-0.010501,-0.064036,0.044437,-0.013993,-0.020077,0.056108,0.022773,-0.033632,0.031047,-0.009200,-0.001112,0.043035,0.060313},
{-0.084959,-0.049333,0.025844,0.005235,-0.010549,-0.072678,0.152754,0.057200,0.030698,0.015735,-0.060226,-0.102709,0.045479,0.093294,-0.010522,-0.015596},
{0.086116,-0.079940,-0.042883,0.017059,-0.086849,-0.009909,0.114266,-0.021753,0.039920,-0.046075,-0.066306,-0.036175,0.056425,-0.052582,-0.046086,-0.028952},
{-0.052595,-0.051953,0.038333,-0.041871,-0.058629,-0.045478,0.002156,0.014073,0.034424,0.028184,0.013561,-0.030342,0.058147,-0.073114,-0.041363,0.047294},
{0.030764,0.028876,0.038248,0.001285,0.038846,-0.026500,0.003673,0.020042,-0.025994,0.030013,0.015609,0.020458,-0.078127,-0.024220,-0.019855,-0.046603},
{-0.035559,0.102552,-0.056466,-0.010286,-0.028904,-0.011651,-0.027593,-0.031208,-0.032477,-0.031752,0.062290,-0.023759,0.061200,-0.015421,-0.003187,0.089492},
{0.088166,0.072513,0.000532,-0.095802,-0.006739,0.180048,0.037118,-0.193994,0.031119,-0.049448,0.014184,-0.016608,-0.061625,-0.038072,-0.041482,0.004351},
{0.008719,0.019169,0.042214,-0.135132,0.012909,-0.036408,-0.070648,0.024047,0.060201,-0.050282,0.071798,-0.028603,-0.013346,-0.022697,0.088438,-0.036321},
{-0.033124,0.002834,0.005921,-0.044518,-0.005266,-0.041107,-0.036511,0.043782,-0.053695,0.017228,0.073201,-0.061162,0.067035,-0.129079,0.059181,-0.042938},
{-0.138134,0.030811,0.006217,-0.041624,0.059070,0.068511,-0.034646,-0.092797,-0.151447,-0.084356,0.029011,-0.041340,0.039865,-0.073278,0.041422,0.017012},
{-0.084292,0.005379,0.039532,0.017090,-0.063566,0.081494,-0.024068,-0.076491,-0.020748,-0.031860,0.020058,-0.051518,0.069070,-0.000947,-0.041601,0.000170},
{-0.079319,0.015580,-0.007799,-0.070781,-0.053692,-0.012272,-0.066994,-0.042684,0.095464,0.048854,-0.037346,0.064180,0.003457,0.032127,0.018548,0.078733},
{0.021099,0.043118,0.061489,-0.063478,-0.033914,-0.055220,-0.014992,0.048054,0.049393,0.070055,0.021366,-0.099297,0.072217,-0.070737,-0.052692,-0.076505},
{-0.063619,-0.051869,0.061235,-0.045809,0.042500,-0.102495,0.001335,0.054043,0.023127,-0.013800,0.011168,-0.068159,0.103487,-0.047092,0.082213,-0.174894},
{-0.008142,0.120423,-0.019996,-0.028002,-0.006373,0.037289,-0.007107,0.006623,0.072505,0.045320,-0.015344,-0.007155,-0.003518,0.006565,-0.033317,0.078808},
{-0.012831,-0.025201,0.096163,-0.006855,-0.004479,-0.063758,-0.049152,0.072033,0.015765,-0.056635,0.031028,-0.104059,0.024711,0.036259,0.039353,-0.042475},
{-0.020795,0.070172,-0.025024,0.056228,-0.045116,0.026061,0.050341,0.018168,-0.071531,-0.017930,-0.055963,0.008286,0.041748,-0.015155,-0.013327,-0.029733},
{0.049042,0.008993,0.036354,0.025763,0.020815,-0.027709,-0.061696,0.024831,-0.025957,-0.044393,-0.100554,0.037434,0.009945,-0.029478,0.021379,0.084240},
{0.004544,-0.125251,-0.021679,-0.059326,0.078647,0.058532,-0.015966,-0.043615,-0.038781,0.037953,-0.093808,0.055600,0.076841,-0.019089,0.112870,-0.032357},
{0.006279,-0.012652,0.011784,-0.121874,-0.050808,-0.021052,-0.045185,0.091054,-0.070579,0.060371,0.029921,-0.004402,0.093265,0.023873,-0.024504,0.084172},
{0.012378,-0.031215,0.006385,-0.004951,-0.009036,-0.022850,-0.043634,-0.002507,0.044691,-0.119392,-0.010793,0.004803,0.044343,0.008840,0.004997,-0.075532},
{-0.036111,0.012875,-0.057682,0.035984,-0.089647,-0.166199,0.013126,0.041773,-0.133981,-0.018057,0.009551,0.095744,-0.053227,0.015085,-0.036761,0.052907},
{-0.090123,-0.015437,0.047076,0.057024,0.099268,-0.001647,0.004779,0.044520,-0.026226,-0.039124,-0.040434,-0.023191,0.046896,0.003516,-0.078566,0.022530},
{0.044405,-0.057021,-0.020909,0.006750,-0.043564,-0.039977,-0.035257,-0.018543,0.096333,-0.069793,-0.013332,-0.028489,-0.051356,0.069160,-0.115783,-0.068477},
{-0.023080,0.026132,0.045622,0.021037,-0.073262,0.052420,0.046409,0.055259,0.000676,0.012866,-0.024959,-0.037867,0.132472,0.023654,-0.131183,-0.002428},
{0.025711,-0.005745,0.003752,-0.003841,-0.020500,-0.048038,-0.002384,-0.011243,0.020681,-0.060591,0.057181,-0.035526,-0.106548,-0.006161,0.066973,0.015017},
{0.004096,0.028544,0.004407,0.108871,-0.049264,0.012229,-0.044029,-0.052257,0.055259,0.050569,-0.088653,0.000747,-0.069099,0.073533,0.146106,0.038542},
{0.080553,-0.002419,0.070917,-0.010179,-0.042912,0.010229,-0.005562,0.048421,0.029695,0.082039,-0.085532,0.061047,-0.010239,-0.048614,-0.053634,-0.031161},
{-0.016205,-0.004475,-0.027892,-0.017438,0.052176,0.126660,-0.093232,0.000144,-0.060572,0.003845,0.005087,-0.001511,0.030291,-0.004693,0.017262,0.072945},
{0.115006,-0.034314,-0.010925,-0.090804,0.054005,-0.045136,-0.095499,-0.090790,0.005574,0.106620,0.019674,-0.130706,-0.020479,0.006874,0.062039,-0.034313},
{0.083339,0.104788,0.049027,0.011631,-0.026775,-0.064136,-0.035055,-0.042659,-0.096452,-0.019783,0.099214,0.011221,-0.039970,-0.041625,-0.075111,-0.037632},
{-0.042992,0.022686,0.065813,-0.007934,-0.046651,0.055840,-0.036950,0.031744,-0.032729,-0.043051,-0.087518,-0.019639,-0.114561,-0.002457,0.048462,0.047544},
{0.036998,-0.020781,0.089489,-0.024313,-0.011463,-0.047121,0.011397,-0.049810,-0.006499,-0.079566,0.007896,-0.032071,0.067318,0.016493,0.062450,-0.022707},
{-0.014412,-0.063845,0.001432,-0.022327,-0.116992,-0.017387,-0.049311,-0.079583,-0.056077,0.071721,0.010902,0.085865,-0.016264,-0.022493,-0.068230,0.006968},
{-0.046962,-0.007305,0.011153,0.057927,0.077756,0.029500,-0.153606,0.011394,0.011511,-0.027890,0.050033,0.070701,-0.012249,-0.030342,-0.050161,0.087545},
{0.063814,0.011155,-0.082533,0.069599,-0.009552,0.041560,-0.041024,-0.117880,0.003066,0.050545,-0.020382,0.002226,-0.009231,0.024600,-0.009744,-0.003404},
{-0.019260,0.006577,0.025287,0.028810,-0.011507,-0.045991,-0.023655,0.039677,0.047045,-0.030599,-0.040257,0.029305,-0.037978,-0.029271,0.028416,-0.018004},
{0.014467,-0.032313,0.024778,0.072778,-0.049573,0.082745,0.008129,-0.020851,0.034017,-0.039137,-0.073291,0.012798,0.010859,0.082275,0.021319,-0.001211},
{-0.026694,-0.043169,0.039370,0.084113,0.021191,-0.050442,0.047504,-0.025775,0.038421,0.010062,-0.010273,0.067081,0.049677,0.017560,0.001344,0.098023},
{-0.027643,0.009033,0.065397,-0.009629,-0.022831,0.039907,-0.015697,0.031993,0.088406,-0.009524,-0.022933,0.019818,0.019048,-0.076678,0.059861,-0.036388},
{-0.040066,-0.047814,0.058829,-0.092258,-0.055942,-0.043635,0.012161,0.032083,0.038999,0.016685,0.003073,0.060265,-0.088889,-0.033885,0.055646,0.004050},
{0.011947,-0.000554,0.003741,-0.002411,-0.012959,-0.060371,-0.111441,-0.014988,0.026232,-0.026802,0.013492,-0.010085,-0.027918,0.042213,0.023298,0.020783},
{0.009519,0.004194,-0.010507,0.007621,-0.005948,-0.052212,0.028346,0.040570,0.034082,-0.004902,0.056213,-0.015764,0.047297,-0.011346,-0.020894,-0.007378},
{0.021086,-0.013547,0.001162,0.081045,-0.028170,0.038761,-0.016142,0.028826,-0.036553,-0.079560,0.058490,-0.053011,0.111997,0.079724,0.000301,0.004368},
{0.121212,-0.030621,-0.060626,-0.021750,0.046522,-0.002918,-0.045354,-0.003179,0.100438,0.148503,-0.059102,-0.028932,-0.090627,0.062520,0.100774,0.025030},
{-0.059896,0.038418,0.066498,-0.023452,0.037444,0.013269,0.090399,-0.012167,-0.035000,-0.021762,0.012263,-0.031215,0.029366,-0.036392,-0.007376,-0.035322},
{0.011028,0.023596,-0.081964,-0.010503,0.100038,0.016819,0.068919,0.106516,-0.093964,-0.000621,-0.016864,0.039981,0.016054,-0.017953,0.021844,0.069719},
{-0.059697,-0.053450,0.086565,0.017770,-0.043871,0.008053,-0.149790,0.043595,0.081122,-0.077885,0.003228,-0.084689,0.037865,-0.009371,-0.051706,-0.030673},
{0.014700,-0.089360,-0.053818,0.096774,0.019580,0.024188,0.062919,-0.002626,0.003421,0.040429,-0.071281,-0.012788,-0.075013,-0.071890,-0.027107,0.028379},
{0.066465,-0.047200,0.072736,-0.027687,-0.055068,0.045013,-0.065834,0.009980,-0.065197,-0.059565,0.076142,0.000527,-0.010481,-0.044882,0.014314,-0.055486},
{-0.032981,-0.054587,-0.035855,0.097821,-0.031530,-0.018890,-0.063974,0.049552,-0.024697,-0.013095,0.016595,-0.015013,-0.063465,-0.056946,-0.072864,0.015464},
{-0.030577,-0.045145,0.055882,-0.027057,0.033834,-0.111161,-0.028465,0.060073,-0.046019,-0.038325,0.074569,0.018835,0.070764,-0.031015,0.022458,-0.021191},
{0.044041,-0.014158,-0.059707,0.079322,-0.057867,0.025755,-0.027321,0.037969,-0.093852,-0.095588,0.004181,0.077121,-0.082435,-0.001900,0.013612,-0.041156},
{0.078380,0.063906,0.006389,0.026935,0.013028,0.022954,-0.034330,0.043968,0.020148,-0.023210,0.050610,0.039804,0.010361,0.045210,-0.011646,0.017823},
{0.089104,0.020933,-0.010178,-0.044488,-0.046374,0.036600,-0.117364,0.003497,-0.051711,0.115056,-0.008195,0.031767,-0.033315,0.009285,0.097431,-0.014348},
{0.024121,-0.049830,-0.086903,0.017354,-0.002979,-0.008624,-0.009260,-0.027521,0.015294,0.054307,-0.012655,0.026488,-0.004513,-0.062763,-0.031875,-0.036325},
{-0.017174,0.032751,0.020609,0.073075,-0.031607,0.033612,-0.005308,-0.039409,-0.041276,0.012305,-0.126952,-0.008332,0.011319,0.010676,-0.061812,0.001109},
{-0.011628,-0.001561,0.021633,-0.006827,0.009040,-0.068571,0.038685,-0.022005,-0.011450,0.003902,-0.062095,0.054928,0.052113,-0.075512,0.000821,0.004018},
{-0.033773,0.089946,0.039432,-0.076229,0.035531,-0.020784,-0.038064,0.035743,-0.059698,-0.030074,-0.012928,0.016758,-0.019668,0.022474,-0.021479,-0.027598},
{-0.019458,-0.123876,-0.046480,0.019810,-0.010246,0.061114,-0.070921,0.014476,-0.035566,-0.012005,0.028602,-0.024713,0.029809,-0.053313,-0.031347,-0.003229},
{0.128403,-0.024431,0.031153,-0.084287,0.031201,-0.019798,-0.002776,0.124358,0.062459,0.026851,-0.003883,0.067006,-0.041196,0.079442,-0.027981,0.012584},
{-0.189025,-0.038528,-0.041164,0.003317,0.011248,0.049541,-0.012767,-0.000137,0.025471,-0.040113,0.024233,0.088372,0.017614,0.044693,0.026810,-0.060963},
{0.099963,0.053855,0.050656,0.017841,0.103243,-0.164121,-0.107565,-0.019405,0.009094,-0.025867,-0.025399,0.060452,-0.062746,-0.135228,0.029616,0.036014},
{-0.070148,-0.100206,0.068337,0.000562,-0.034736,-0.024156,-0.033096,-0.057929,0.075332,-0.052922,0.002820,0.030216,-0.135273,-0.077425,-0.027698,0.193873},
{-0.024721,-0.068524,-0.058237,-0.086190,-0.067899,-0.038586,-0.132323,0.043613,0.091009,-0.043370,-0.060756,0.011026,-0.068858,-0.028340,0.027142,-0.070196},
{-0.008733,0.105912,0.031202,0.015881,-0.023075,0.019895,-0.042542,0.053407,-0.089670,-0.054702,-0.070161,0.049622,-0.128074,-0.075771,0.035723,-0.066356},
{0.100088,-0.027385,0.034816,-0.081065,-0.048530,-0.052368,0.105069,-0.045775,0.076063,0.011171,0.005004,0.079712,0.070868,0.009239,0.022182,-0.156488},
{0.090926,-0.067000,0.012205,0.038578,-0.102759,-0.077577,-0.070409,-0.017179,0.097646,0.097555,-0.024832,0.032382,-0.048628,-0.025670,0.156160,-0.032846},
{-0.070948,-0.036961,0.036671,0.028805,0.106927,0.009273,0.063873,-0.174881,-0.161520,0.064960,-0.136036,-0.116039,0.065591,0.047571,-0.004298,-0.101305},
{0.000483,0.201576,-0.010886,0.011916,-0.049660,0.000275,0.043546,0.017002,0.005460,-0.069053,-0.033836,0.094016,-0.109770,0.021598,0.061887,-0.084271},
{0.181624,0.026633,-0.008442,0.028860,0.158177,-0.055555,0.132713,0.075287,0.068066,0.055931,0.025885,-0.049994,0.103853,0.043372,0.012883,0.069759},
{-0.092272,-0.004361,0.033084,0.072089,0.003836,0.001221,-0.117474,-0.065354,-0.150986,-0.053738,-0.040618,0.031218,0.102140,0.148500,0.105215,0.046690},
{0.062284,0.107802,0.006992,0.101861,-0.124229,0.090686,-0.105250,0.001444,0.090029,0.004956,-0.030993,-0.103874,0.141451,-0.027597,-0.031869,0.032206},
{-0.077918,0.037463,-0.066649,0.023464,0.026194,-0.038645,0.033940,-0.143878,0.095757,-0.039591,-0.105250,0.084650,-0.111118,0.114184,-0.010485,0.083543},
{0.021015,-0.071257,-0.037741,-0.082116,0.068303,-0.113645,-0.042498,-0.125051,-0.026749,-0.015583,0.088623,-0.017386,-0.052310,0.048284,0.074459,0.007992},
{0.062245,-0.004672,-0.089335,0.022790,-0.040744,-0.014868,0.054837,0.094298,-0.070780,0.043264,-0.064579,-0.033928,0.047557,-0.021601,-0.016910,0.025780},
{-0.029661,0.024102,0.201182,0.024092,0.025843,0.135529,0.047914,0.029199,0.026030,0.030921,-0.067732,0.137969,-0.089717,0.014964,0.029216,0.096624},
{0.042111,-0.086573,-0.008116,0.054251,0.079022,-0.058261,0.016967,-0.090011,0.102057,0.015552,0.063216,0.081077,-0.010798,0.197825,0.039285,-0.069907},
{-0.068492,0.002031,0.020131,-0.036108,-0.062299,-0.039737,-0.018537,-0.012611,0.061239,0.005989,0.028383,0.033162,0.063906,0.054059,0.094310,0.000697},
{0.039024,-0.000645,0.013078,0.099055,-0.004783,-0.022516,-0.007267,0.166182,-0.033694,0.033731,0.025065,-0.086051,0.022441,-0.058217,-0.012405,0.063932},
{-0.108097,0.018822,0.124275,-0.016940,0.144878,0.101791,-0.023868,-0.091431,0.006367,0.129261,-0.030774,-0.028800,-0.005613,0.103381,-0.006674,0.056388},
{0.108722,-0.056678,0.024190,0.072256,-0.071871,-0.016830,-0.086459,0.027401,0.014182,-0.013946,-0.092319,-0.055045,0.030676,-0.045163,0.015630,-0.016970},
{0.094998,-0.000883,-0.024460,0.015383,-0.075623,0.116921,0.019722,0.150683,0.081417,-0.017121,0.024036,-0.021275,-0.121142,-0.026939,-0.130294,0.031315},
{-0.042729,-0.081682,0.044226,0.036469,0.103734,0.029526,0.045157,0.042885,0.024470,-0.027622,-0.042909,0.014380,-0.050802,-0.031306,0.093880,0.044598},
{-0.025616,0.058734,-0.047948,-0.087558,-0.065859,-0.002037,-0.008749,0.024535,0.012255,-0.078092,-0.068781,-0.129264,-0.036442,0.101922,0.015957,-0.135981},
{-0.001802,-0.018986,0.028761,0.032816,-0.032542,0.000763,-0.031787,-0.106429,0.110223,0.014437,0.148106,0.015608,-0.060271,-0.033363,0.089654,0.137929},
{-0.030123,0.010378,-0.037417,-0.004881,-0.001007,-0.020361,-0.055710,0.016880,0.040814,-0.054621,0.068075,-0.122216,-0.035495,0.126866,0.064599,0.039961},
{-0.153752,0.024686,0.093126,-0.064276,-0.020767,-0.017117,-0.002938,0.056815,0.013013,-0.075709,0.059223,0.087550,-0.046344,0.096486,0.001957,0.100293},
{0.036889,0.018263,0.004670,-0.052250,-0.026524,0.004144,-0.101672,0.069500,-0.072938,0.071894,-0.109067,0.043218,0.016795,-0.053810,-0.009889,-0.072980},
{0.048173,-0.092285,0.001835,0.059659,-0.008245,0.087025,0.077398,-0.023796,-0.018086,-0.161444,-0.131885,0.051726,-0.146322,0.057097,0.039428,-0.043256},
{-0.070107,0.029273,-0.059686,0.033009,0.011620,-0.037761,0.031173,0.035363,0.116403,0.043967,0.042907,-0.052444,0.019519,0.017182,0.064538,0.029031},
{-0.002539,0.001596,-0.082981,0.057327,0.020863,-0.084003,-0.082009,-0.054567,-0.083999,0.004267,-0.163602,-0.106518,-0.013141,-0.033210,-0.073262,0.008560},
{0.125802,0.034802,0.026297,0.008735,-0.002973,-0.032430,0.106465,0.041186,-0.004747,-0.044814,-0.016621,-0.006864,-0.016916,0.002492,0.030347,-0.034620},
{0.050767,0.006124,-0.004747,0.110172,-0.026191,-0.020323,-0.030766,0.016575,0.103573,-0.096451,0.174142,0.027435,-0.060876,0.015977,-0.037577,-0.063688},
{-0.054567,0.045157,-0.044422,0.042747,0.015811,-0.122052,0.055488,-0.067156,-0.044758,0.060093,-0.054035,0.047809,0.010737,0.047865,-0.082796,-0.037655},
{-0.094775,-0.017497,0.024086,0.018155,-0.046360,-0.108616,-0.008161,0.074376,-0.061612,-0.027218,0.071884,0.063184,0.006398,-0.006318,-0.045970,0.012936},
{-0.109779,0.056927,0.005353,0.034259,-0.020221,0.105221,-0.036571,-0.124998,-0.046889,-0.032656,-0.127890,0.056234,-0.025960,0.034463,0.189293,0.067078},
{0.015761,-0.028198,0.109686,0.018706,-0.022373,-0.079351,0.082569,0.058172,-0.096225,-0.041837,-0.004354,0.097699,0.084624,0.004287,-0.055495,0.000691},
{-0.069324,-0.041009,-0.030844,-0.050461,0.019071,-0.019436,-0.087597,0.021156,-0.070634,0.039227,-0.015711,0.033058,0.034911,-0.023365,-0.062710,-0.073057},
{-0.032317,0.000797,-0.017988,0.055351,0.117115,-0.022633,-0.074538,0.041475,-0.056031,-0.046006,0.046020,-0.038463,-0.038701,0.028332,0.074785,0.046906},
{0.005343,0.004283,0.038649,-0.040116,0.162719,0.061812,-0.091475,0.007555,-0.011723,0.071574,0.017514,0.046043,0.095894,0.058473,0.027990,-0.013793},
{-0.064929,0.001576,-0.008732,-0.103519,-0.070248,-0.066105,0.113176,-0.011512,0.069949,-0.073931,0.030958,-0.026744,0.011804,0.100065,0.002301,0.018567},
{-0.025099,-0.084982,-0.092103,0.077357,-0.044751,0.013068,0.003553,0.030411,-0.032221,-0.050667,0.061350,-0.052454,-0.016523,0.045121,-0.019703,0.034710},
{0.030479,0.019195,0.000642,0.142224,0.007425,0.053129,0.097645,-0.037739,0.103511,0.082838,-0.025699,0.028280,0.025495,-0.089262,-0.008866,-0.063926},
{0.002361,-0.067321,-0.007349,0.137895,0.113604,-0.006278,0.068989,-0.033778,0.049909,-0.032110,-0.026193,0.033904,-0.061008,-0.087974,0.049726,-0.004106},
{-0.012517,-0.043168,-0.095309,0.058289,-0.004463,-0.011292,0.070786,0.035880,0.030630,0.052363,0.083002,-0.019982,0.018359,-0.003449,-0.055212,0.011547},
{0.015556,-0.033247,0.038241,0.014980,0.016008,0.051804,-0.017447,-0.003417,0.057104,-0.113573,-0.030017,0.027584,-0.069995,0.009213,0.025125,0.082383},
{-0.073549,-0.088502,0.024949,0.057619,0.120665,-0.024295,-0.003395,-0.113075,-0.053298,-0.120553,0.027720,0.032202,-0.036497,0.026631,-0.050903,-0.029278},
{-0.079610,0.074178,0.060436,0.003944,-0.038129,-0.045476,0.024910,-0.076962,0.009593,0.067410,0.103205,-0.035362,-0.040230,-0.003637,0.086644,-0.089593},
{0.006477,-0.117224,-0.027614,0.141904,-0.010173,0.043598,0.117456,-0.116255,-0.001763,-0.022027,-0.015338,-0.180887,-0.064509,-0.090800,-0.071365,0.058081},
{0.152023,-0.024526,-0.029147,-0.070820,0.027912,-0.044122,0.065568,0.021480,-0.077470,-0.112651,-0.007126,-0.247490,0.071143,0.088660,-0.030124,0.056123},
{-0.014501,-0.020745,-0.045653,-0.048212,-0.001089,-0.011249,0.075757,-0.027094,-0.077965,-0.008435,-0.051038,-0.013885,0.123068,0.003571,0.000442,0.025072},
{-0.015014,0.013014,-0.025896,-0.018813,-0.091023,0.066037,-0.001076,0.058824,-0.094447,-0.118266,0.022390,0.173361,-0.024990,-0.041972,-0.022515,-0.068401},
{0.066774,0.068968,-0.024284,0.086969,0.005447,-0.050529,0.063409,0.077371,0.076919,-0.052400,-0.052954,0.004634,-0.025173,-0.021511,0.036000,-0.035420},
{-0.134616,-0.102124,0.019125,0.076120,0.002638,0.008802,0.072599,0.027877,-0.044934,-0.013242,-0.101591,-0.047149,0.040722,-0.098456,-0.098169,-0.001283},
{-0.026717,-0.014044,-0.000712,-0.038879,0.076578,0.030876,-0.021578,-0.024164,-0.028342,-0.012209,0.086247,-0.091325,0.028812,-0.110477,0.009463,0.047158},
{-0.005185,0.086616,-0.064170,0.056934,0.071261,-0.038707,0.032584,0.065980,-0.012774,-0.079922,-0.036811,-0.037433,0.070440,-0.007701,-0.120059,0.050349},
{0.064596,-0.021736,0.083979,-0.075713,0.001385,0.004633,0.066642,-0.024901,-0.049532,-0.054825,-0.014681,-0.047715,-0.070532,-0.052629,0.009694,-0.014092},
{-0.025434,0.025716,0.009027,0.112846,-0.062239,-0.074463,-0.014536,-0.086404,0.055000,0.068053,0.052379,-0.073461,-0.125161,0.037227,-0.054034,-0.088607},
{-0.071156,0.041651,-0.057012,0.052753,0.077376,0.052806,0.063178,-0.065969,0.035530,0.041947,0.024688,0.054860,-0.034691,0.017054,-0.006049,-0.007876},
{0.014876,0.038457,0.035538,0.020554,-0.004271,0.036587,0.012705,0.040417,0.068589,0.057628,-0.151079,-0.042454,-0.041343,0.043636,0.102738,-0.022680},
{0.005837,-0.049863,0.064856,0.063540,-0.020503,-0.030949,0.000999,-0.000255,-0.031366,-0.021402,-0.031640,-0.031318,0.005280,-0.167916,0.060727,-0.088819},
{0.015451,0.013374,0.010579,-0.031157,-0.014864,-0.090344,0.049460,-0.162202,0.036495,0.013356,-0.070532,0.072250,-0.078371,-0.025821,0.052191,0.070172},
{-0.017816,-0.086029,0.029487,0.096307,-0.023229,0.093104,0.009342,0.037303,-0.035412,-0.012377,0.019631,-0.018963,0.071464,0.049638,-0.020660,0.047024},
{-0.082077,-0.096330,-0.110046,-0.075397,0.066160,0.067884,0.047783,0.076092,-0.018413,-0.114978,-0.065080,-0.035476,0.065712,-0.057049,-0.035552,-0.031695},
{0.062317,0.009721,0.039383,-0.004628,-0.074697,-0.062003,0.068825,0.098378,0.113001,0.035452,-0.178758,-0.020233,-0.002041,-0.128122,-0.037679,0.041771},
{0.081361,-0.044996,-0.007223,-0.020206,-0.067268,0.142466,0.002908,0.037942,-0.147143,0.083996,-0.021746,0.048774,-0.082185,-0.057312,0.018770,0.005227},
{-0.008395,-0.059227,0.058482,0.000494,0.069724,0.054251,-0.129271,-0.047864,0.065517,0.103362,-0.016722,0.146509,0.030667,-0.026606,-0.014499,0.059522},
{-0.051682,-0.016334,-0.002056,-0.010259,0.019632,-0.033036,0.128782,-0.069423,0.103009,-0.010899,-0.098035,-0.072663,0.028568,0.070343,0.006644,0.064576},
{-0.021714,0.006330,-0.058106,0.110187,-0.027165,0.071165,-0.016796,-0.020861,0.085936,-0.028793,-0.020177,0.030650,-0.032439,-0.011844,-0.034668,-0.064281},
{-0.119674,-0.082347,0.064595,-0.036359,-0.019599,-0.078747,0.004597,-0.051893,0.046556,0.046404,-0.008267,0.092920,0.066301,-0.074094,-0.007822,0.074599},
{-0.038719,-0.108796,0.000937,-0.069181,-0.006712,0.009893,-0.086730,0.023228,-0.015730,0.094803,-0.001064,0.055396,-0.035133,0.022257,0.019196,-0.018478},
{-0.169374,0.010868,-0.032893,-0.005817,-0.043681,-0.112265,0.074776,-0.080013,-0.028494,-0.029996,0.095195,0.097223,-0.054102,-0.064774,0.011021,-0.099230},
{0.088586,-0.019936,-0.038869,0.066218,0.078821,-0.045270,0.010037,-0.046564,-0.107516,-0.050437,0.151396,0.017050,0.006336,0.000476,0.035921,0.009248},
{0.002480,-0.076560,-0.008413,-0.075538,0.021845,-0.079691,0.005953,0.066732,-0.006581,-0.094703,0.079478,-0.042440,0.008907,-0.093387,-0.019458,-0.050026},
{0.002625,0.056182,0.132194,0.141613,0.029651,-0.130274,-0.023627,0.018495,0.099262,0.019130,-0.041037,0.083031,-0.023216,0.162997,-0.082403,-0.044231},
{0.009842,-0.000046,-0.086539,0.051508,0.067805,-0.027336,0.040985,0.029674,0.060199,0.015781,0.206485,0.030531,-0.015046,-0.041832,-0.050078,-0.009981},
{-0.002811,-0.026961,0.055243,0.038609,-0.053375,-0.056482,0.058330,-0.057635,0.028768,-0.056781,-0.037832,-0.124205,-0.152703,-0.030849,0.090355,0.043192},
{-0.077357,-0.065383,0.075431,0.016594,0.042846,0.068960,0.067008,0.121807,0.086184,0.060434,0.126756,0.029805,0.038441,-0.013704,0.002791,-0.064045},
{-0.009475,0.067654,0.001706,0.033725,-0.012137,0.041071,-0.138260,-0.029444,-0.037094,0.147289,0.038334,0.116081,-0.030033,-0.009696,0.034545,0.102048},
{0.006169,-0.119181,-0.054602,-0.115645,-0.008513,0.030363,0.024400,0.024850,0.079317,0.023750,-0.000969,0.124436,0.004358,-0.009369,-0.008068,0.000927},
{0.123771,-0.154979,0.020229,-0.016209,0.112664,0.039306,-0.001401,0.084129,-0.031213,-0.087178,0.041715,0.088343,-0.028260,-0.117501,-0.070937,0.067153},
{-0.071602,-0.038455,-0.124984,0.115801,0.027624,-0.013373,-0.039139,0.059946,-0.007698,-0.013734,0.068888,-0.031995,-0.067481,-0.046201,-0.044801,0.016942},
{-0.080829,-0.040778,-0.092172,-0.034337,0.008155,-0.060864,0.033793,-0.003669,-0.015198,0.072572,-0.049570,-0.116978,-0.184345,-0.026903,-0.151142,0.003226},
{0.088670,0.095335,0.031486,0.009663,-0.158526,0.087882,0.095209,-0.016231,0.136872,-0.043685,-0.029623,-0.009994,-0.069878,-0.033783,0.007864,-0.016793},
{-0.059244,0.114896,0.014746,-0.068736,-0.101339,0.108362,-0.042913,-0.026446,0.046562,-0.026534,-0.035349,-0.104237,-0.044814,0.067226,-0.112861,-0.028972},
{0.073576,0.048933,-0.073894,0.016453,0.078797,-0.025401,-0.065327,-0.051501,-0.018399,0.008272,-0.128105,0.059895,0.037599,0.013632,0.073407,0.048687},
{0.089198,-0.045456,-0.026561,-0.003903,-0.077150,-0.064697,0.158038,-0.022443,-0.047943,0.062649,0.046485,-0.026597,0.037429,-0.031824,0.057615,0.054301},
{-0.000528,-0.006728,-0.060201,-0.007868,0.008206,0.013113,0.111846,-0.094521,0.014431,0.085403,-0.088130,0.058256,-0.011159,-0.098332,-0.023852,-0.074467},
{-0.053119,0.038426,0.102359,-0.021858,-0.060256,0.183154,-0.015442,-0.000907,-0.045420,-0.029775,-0.017245,0.073527,0.068908,-0.011292,-0.080171,-0.026491},
{0.177192,0.038557,0.165020,0.031770,0.094795,0.099963,-0.038895,-0.011146,-0.000851,0.090346,-0.009975,-0.009165,-0.024015,0.010089,-0.074945,-0.045285},
{-0.048407,-0.032826,0.034141,-0.059530,-0.013076,-0.016798,-0.097190,-0.028920,0.078733,-0.102874,-0.020884,-0.032979,-0.005619,0.043732,0.080482,-0.079607},
{0.003555,0.091027,-0.023796,0.018191,0.043449,-0.085530,0.005677,-0.014565,0.132591,-0.088867,0.089352,0.010778,0.019551,-0.093485,0.040320,0.058133},
{0.039915,0.093431,-0.008735,0.010231,-0.032381,0.035851,0.010635,-0.025249,-0.035411,-0.118973,0.063762,0.025136,-0.000637,-0.011976,-0.017842,0.028254},
{0.007863,-0.020442,-0.016202,0.031166,-0.009237,-0.061052,-0.061917,-0.140013,-0.072812,0.011146,0.056547,-0.009687,-0.043132,0.105027,-0.079162,-0.117416},
{0.055769,0.042657,0.013168,-0.000841,0.049064,-0.073814,0.000783,-0.007736,-0.067562,0.003456,-0.062660,-0.007647,-0.093865,-0.067036,0.027701,0.021044},
{-0.056611,-0.053765,0.087736,0.004499,-0.088544,0.007813,0.058598,-0.013589,-0.015449,0.011417,-0.000122,0.007731,0.031208,0.042103,-0.000820,0.035105},
{0.055460,-0.087577,-0.043574,-0.068427,-0.046048,0.023657,0.023923,0.096956,0.035584,0.002923,0.056403,0.012718,-0.044571,-0.036305,0.126551,-0.005119},
{-0.096009,-0.033426,-0.161491,-0.070685,-0.011960,-0.153585,0.066380,0.002204,-0.121434,-0.006446,0.068582,-0.076656,0.063423,0.031426,0.072917,-0.119360},
{-0.027811,-0.006595,-0.048288,-0.049048,0.015203,-0.032783,-0.000137,-0.034618,-0.028233,-0.024762,-0.036169,0.019890,0.105918,-0.021816,-0.083670,0.036014},
{-0.067431,0.026549,-0.006017,-0.010351,-0.125209,-0.034547,-0.015497,0.059787,0.081520,-0.132575,-0.054575,-0.107493,0.003124,0.025303,0.055688,-0.053168},
{0.036206,-0.001579,-0.026777,-0.067140,-0.026303,0.036195,-0.056641,-0.059481,-0.011228,0.015170,0.066381,0.142875,-0.095897,0.040560,0.013700,-0.055069},
{-0.017538,-0.012785,0.076681,0.031478,0.123987,-0.005411,0.023349,0.091389,-0.041010,-0.015710,-0.007026,-0.034964,-0.026432,0.025440,-0.054367,-0.039004},
{0.050221,0.066759,0.030917,0.097390,0.004742,-0.074427,-0.037451,0.008726,0.123215,-0.109006,-0.028045,0.052152,-0.018102,0.087643,0.006994,0.123909},
{-0.034311,-0.007819,0.104225,0.032766,-0.038439,-0.063226,-0.058476,0.082673,0.080006,0.086965,0.137269,0.011768,0.004914,-0.077621,0.060521,-0.035457},
{0.026836,-0.015263,-0.123306,0.048290,0.059619,-0.023030,-0.008079,-0.019304,-0.035394,-0.026112,0.009568,0.003498,0.024366,0.020198,-0.010929,-0.073980},
{-0.020911,-0.054908,0.021632,0.040168,0.094982,-0.002648,-0.068160,-0.018346,-0.081228,-0.095067,-0.033337,-0.061651,0.041785,0.065905,-0.023595,0.056876},
{-0.042173,-0.164417,-0.031760,-0.042403,-0.031391,-0.060523,-0.095522,0.014208,-0.032515,0.099717,0.045734,0.025799,0.072403,0.023693,0.037504,0.009546},
{-0.031651,-0.029112,0.088462,0.062701,0.006768,-0.068333,0.017284,-0.049743,0.010156,0.100385,0.020988,-0.081024,0.098002,0.019161,-0.117241,0.072413},
{0.022630,-0.031663,-0.130259,0.088780,-0.041557,0.056749,-0.006412,-0.026625,-0.055533,-0.022116,0.032690,0.010664,-0.018616,-0.066675,-0.072929,0.103346},
{-0.077328,0.070263,0.078669,-0.042587,0.101130,0.089207,-0.051478,-0.013659,0.061622,0.075610,-0.012736,-0.091883,-0.107106,0.036787,0.114448,-0.040347},
{0.040691,0.092858,0.024976,-0.087517,-0.001303,0.069218,0.012067,0.069108,-0.036964,0.022681,-0.073789,0.055103,-0.115734,0.037171,-0.038434,0.019035},
{0.009828,0.036810,0.088646,-0.008411,0.086328,0.047109,-0.033478,-0.060847,0.076412,-0.081818,-0.065556,0.050547,-0.083400,-0.029552,-0.071238,-0.047539},
{-0.013348,-0.038835,-0.041980,0.080507,0.029466,-0.001621,-0.010484,-0.070853,0.063962,-0.061846,-0.133897,-0.001819,0.073176,-0.074843,0.013668,0.022585},
{-0.029184,0.144554,-0.097109,0.080879,-0.039134,-0.086685,-0.122470,-0.068743,-0.066380,0.007091,0.004349,-0.014882,-0.082493,0.137061,0.022688,-0.075630},
{0.093145,-0.132511,0.126904,-0.017220,-0.020115,-0.040626,0.033819,0.042054,0.030704,-0.056068,0.038924,-0.034894,-0.045755,-0.030694,-0.000497,-0.172212},
{0.003937,0.043740,0.023988,0.129313,0.004129,0.037025,-0.050032,0.021757,0.008172,-0.058638,-0.024100,-0.097886,0.007568,-0.126024,0.052013,0.053273},
{-0.037712,-0.048883,-0.107290,0.081101,0.056295,-0.078623,0.052951,-0.052504,0.016883,0.063870,-0.024894,0.037997,0.015438,-0.042359,-0.071951,-0.112937},
{-0.001703,0.006773,0.020129,-0.018917,-0.029813,-0.070784,0.070500,0.066064,-0.065820,-0.050108,-0.029792,-0.031077,-0.043122,0.074651,0.044854,-0.007029},
{0.011107,-0.006458,-0.033262,0.086738,0.037764,-0.009732,-0.097805,0.067901,0.126121,-0.041272,0.047900,-0.022311,0.036898,-0.027359,0.011083,-0.049517},
{-0.126314,0.003180,-0.058124,-0.016671,0.102465,-0.039944,-0.030552,-0.046952,-0.076561,-0.015367,0.087725,-0.055305,0.035370,-0.001079,0.007140,-0.026911},
{0.000504,0.020990,-0.092608,-0.092050,-0.061168,0.111683,-0.037192,0.167684,0.029594,-0.092455,0.114336,0.028150,0.025807,-0.050017,0.000476,-0.037327},
{-0.082560,0.047452,-0.090015,-0.005989,0.086789,0.030934,0.098036,-0.067682,-0.065889,0.029377,-0.035283,0.017912,-0.026240,-0.077112,-0.048734,0.096102},
{-0.010554,0.016058,0.021425,0.003232,0.058080,-0.000884,0.086950,0.000857,-0.033386,-0.027928,-0.160129,0.033975,0.038749,-0.076580,0.017342,-0.110705},
{-0.065142,-0.088759,-0.089246,-0.047283,-0.057449,0.008057,-0.009087,0.075914,-0.008083,0.037698,-0.032508,0.053753,0.008401,-0.004282,0.050381,-0.032728},
{-0.060716,-0.068900,0.015963,0.001525,-0.035848,0.055100,-0.136888,0.072335,0.008492,0.015381,-0.025089,0.020419,0.011708,0.015256,0.059778,0.106120},
{-0.042349,0.019182,-0.048722,0.009759,-0.000303,0.024352,0.014931,-0.049893,-0.062227,0.038708,-0.117724,-0.004068,0.048071,-0.069501,-0.020752,-0.084209},
{-0.058599,0.043115,0.036309,0.022943,0.006849,-0.045892,-0.017854,-0.071913,-0.026350,0.027539,0.064969,-0.116778,-0.006685,0.061243,-0.010272,0.010261},
{-0.004696,-0.040015,-0.014768,-0.027703,-0.008138,-0.011241,-0.067377,0.006810,-0.065336,-0.094310,-0.014324,-0.008173,-0.056459,0.039277,0.104077,-0.000190},
{0.031492,-0.013848,-0.102517,-0.049754,-0.031489,-0.028929,-0.059742,-0.062522,-0.105933,0.076430,-0.054970,-0.044365,-0.042212,0.017287,0.000910,0.003011},
{0.076297,-0.070922,0.094241,0.084473,-0.053669,-0.031599,-0.028194,-0.043277,-0.082988,-0.035220,-0.001044,-0.110302,-0.003141,0.014712,0.017230,-0.044253},
{0.051569,-0.076879,0.070650,-0.028696,-0.034508,-0.055934,-0.062477,0.000800,0.120562,0.029004,0.000465,-0.111297,0.056760,0.049809,-0.067900,-0.074027},
{-0.003734,0.177833,-0.040764,-0.014934,-0.017194,0.030630,0.088025,0.031454,-0.013536,0.018403,0.033787,-0.024578,-0.053418,-0.017572,0.022656,-0.038096},
{0.061416,0.035202,0.022752,-0.018876,-0.027243,0.031928,0.037237,-0.073990,-0.072639,0.011395,0.025802,-0.048863,-0.004122,-0.061584,-0.049630,-0.036024},
{-0.001708,-0.001791,0.049771,-0.090908,-0.034553,0.041540,-0.021278,0.005798,-0.022865,-0.041267,-0.041972,0.070359,0.081640,0.049254,-0.067444,-0.069671},
{0.107644,-0.009008,0.054607,-0.036683,0.051165,-0.058031,-0.001776,-0.042159,-0.028173,0.075574,0.054153,-0.025034,0.089180,0.088671,0.061306,0.019452},
{-0.024216,-0.079910,0.030836,-0.013232,-0.001335,-0.126664,0.012422,-0.077205,0.012036,-0.069896,-0.052065,-0.104212,-0.009481,0.027904,0.086945,0.013517},
{0.033053,-0.080922,-0.004941,-0.017257,-0.027972,-0.038332,0.071107,0.003987,0.014950,-0.007917,0.018765,0.005789,-0.101304,-0.003652,-0.127948,0.015792},
{0.090287,-0.030951,-0.013530,0.073127,0.023596,-0.046598,0.084270,0.106331,0.026840,0.049563,-0.029982,0.011372,0.038229,0.044956,0.001858,-0.074738},
{-0.006420,0.020250,-0.053212,-0.044436,0.055555,-0.148280,0.048279,-0.002667,-0.029983,-0.015556,0.001595,-0.001926,0.113656,0.039470,-0.023426,0.056230},
{0.124515,-0.117381,-0.012368,-0.048887,-0.027114,-0.036662,-0.008342,0.033539,-0.014156,-0.032362,-0.004284,0.041333,0.013496,0.031288,0.022133,-0.138158},
{-0.056124,0.024387,-0.067013,-0.029258,0.092478,0.012632,0.052631,0.036843,-0.049687,-0.014324,-0.039782,-0.113000,-0.051215,-0.018712,-0.003924,-0.005703},
{-0.060956,-0.033784,0.058370,0.058905,0.065348,0.077461,0.081207,0.001932,0.030971,0.016349,-0.061990,-0.062794,-0.040196,0.071539,0.020762,-0.064490},
{0.018748,-0.037201,0.083433,0.004882,0.022671,-0.023311,-0.108744,0.042364,0.027732,0.069199,0.110989,-0.015239,0.032989,0.026996,0.035250,0.052447},
{0.033493,-0.030302,0.063103,-0.063946,-0.084027,-0.136198,0.013976,-0.020066,0.028210,0.025946,0.063181,0.010831,0.054487,-0.047321,0.005097,0.034101},
{0.017038,0.045451,-0.092330,-0.031646,-0.061676,0.108767,-0.010426,-0.010408,0.051088,0.039324,0.000902,0.065230,0.089351,0.031635,0.074190,-0.037224},
{-0.009437,-0.021772,0.033403,-0.017045,-0.045670,-0.073826,0.029592,0.016332,-0.008008,0.030908,-0.006783,0.111946,0.098057,-0.026531,0.051691,-0.038868},
{-0.029309,-0.102744,0.002454,0.066654,-0.123501,0.054175,-0.043420,-0.014688,0.018480,0.068406,0.012494,-0.032104,0.034430,0.088234,0.029788,0.033627},
{-0.025978,0.004665,0.051287,0.105584,0.084642,-0.065161,0.085790,-0.021350,-0.083130,0.070630,-0.056677,0.078618,-0.025754,-0.077233,-0.093808,-0.002576},
{-0.020292,-0.066687,-0.044757,0.010079,-0.107130,0.015402,-0.058791,-0.126832,0.023314,-0.038212,0.065279,-0.025480,0.074094,0.123280,0.092375,-0.062980},
{0.018601,0.047053,0.029176,-0.121021,-0.063678,0.088518,-0.004384,0.039924,0.047914,-0.013136,0.040826,0.029906,0.031446,-0.038601,0.052035,0.019505},
{-0.043239,0.054087,-0.017330,-0.057301,-0.033654,-0.019036,-0.076938,-0.005481,0.048014,-0.058238,-0.063525,0.018778,-0.168474,-0.039976,-0.047912,-0.057529},
{-0.038877,0.015765,0.048462,-0.052969,0.023540,0.034859,-0.109605,-0.012652,0.002149,-0.113912,0.000192,-0.049755,0.009553,0.051777,0.012081,0.026092},
{-0.039537,0.044668,-0.019138,0.015030,-0.003777,0.023927,-0.010543,0.018276,-0.046877,0.102128,0.030238,0.028947,0.012349,0.028205,-0.029363,-0.017760},
{0.020353,0.058646,-0.052451,0.057175,-0.061775,-0.045937,-0.019826,0.006818,-0.076148,-0.009563,0.093177,-0.007929,0.048097,0.018853,-0.023446,0.100274},
{0.069144,0.029538,-0.027545,0.042892,-0.080765,-0.019126,-0.047619,0.014233,-0.026177,0.002265,-0.011303,-0.057325,-0.028591,0.049555,0.007049,0.075079},
{0.024671,-0.054760,0.032319,-0.030493,-0.069520,-0.001281,0.015162,-0.073871,-0.129134,-0.087156,-0.000909,-0.041070,0.048306,-0.019677,0.123461,0.074837},
{0.002193,-0.019220,-0.028399,0.063503,0.067323,0.074749,0.031190,0.030066,-0.020914,0.047659,-0.001016,0.028300,0.022891,0.042811,0.037888,0.049546},
{0.007084,0.002946,-0.110274,0.068736,-0.048316,0.032200,-0.068581,-0.062780,0.165842,-0.024774,-0.030368,-0.074288,-0.017119,0.011498,0.034838,-0.028408},
{0.049660,0.115278,-0.041045,0.084471,0.084669,-0.012202,0.065959,-0.028997,-0.000576,0.080202,0.099332,-0.039072,-0.030240,-0.062765,-0.101838,0.041604},
{0.022622,0.023911,-0.020735,0.031482,0.078396,0.021464,-0.018981,-0.000373,-0.099362,0.160458,0.086241,-0.051097,0.040903,0.027802,0.026853,-0.033584},
{0.111477,0.042042,-0.114399,-0.027044,-0.157862,-0.061612,-0.035003,0.058627,-0.025455,-0.040218,0.011629,0.105937,-0.087435,0.054183,0.053428,0.031407},
{-0.071371,0.003196,0.034244,0.061745,-0.064229,0.033525,-0.045289,-0.018323,0.026568,0.013028,-0.082827,0.002744,-0.094939,0.134296,-0.022678,0.111167},
{-0.091033,0.023803,-0.032950,0.018393,-0.029432,0.180472,0.017551,-0.030845,0.014813,0.012158,-0.003612,0.155734,-0.007967,-0.079476,0.082893,0.038722},
{0.022511,-0.111022,0.030210,-0.114911,0.111381,-0.032410,0.084776,-0.012395,0.034317,-0.007498,0.086412,-0.003130,0.036240,-0.115695,-0.072782,-0.073294},
{0.090502,0.044075,-0.034430,0.132075,0.077104,-0.044039,-0.037313,0.118269,0.075303,0.230258,-0.075751,0.005474,0.005588,-0.010330,0.014340,0.062706},
{-0.002151,-0.059186,0.027018,-0.005909,-0.005402,0.051812,-0.019953,-0.026386,-0.054679,0.117095,-0.059962,0.014822,0.121185,-0.035154,-0.144881,0.088894},
{0.113981,0.142670,-0.035589,0.052821,0.094600,-0.135440,0.046868,0.006859,0.018236,0.163427,0.051915,-0.002382,0.102454,0.081306,0.014403,-0.114498},
{0.017382,0.021414,-0.054216,-0.022777,-0.071927,-0.004583,-0.067862,-0.103860,0.029892,-0.024729,0.157879,0.012564,0.043061,0.040529,0.040471,-0.076441},
{0.058917,0.092965,-0.057197,0.108216,0.014804,-0.009562,0.105267,0.030564,0.139768,-0.028531,-0.006902,0.162337,0.037767,0.141782,0.141762,-0.069641},
{-0.027332,-0.089400,0.044945,-0.075648,-0.039671,-0.094992,0.070111,0.039873,-0.077610,-0.015622,-0.100650,0.087040,-0.071004,0.000101,0.123596,-0.032132},
{-0.058314,0.029241,-0.059645,-0.089607,-0.021471,-0.096635,-0.041051,0.010452,-0.000477,-0.039010,0.001587,-0.051923,0.023148,-0.011544,-0.000461,0.053938},
{0.031790,0.079793,-0.052838,-0.142754,-0.022635,0.001805,-0.044822,0.002601,0.102889,-0.102097,0.003216,-0.041060,0.085538,0.005085,0.048779,0.025246},
{0.081834,0.021545,0.012560,-0.050814,-0.032275,0.011042,-0.105340,0.030581,0.107640,-0.013186,0.048609,0.108601,0.034650,-0.026621,0.001943,0.087277},
{-0.131407,-0.041197,0.020230,-0.005658,0.003068,-0.137315,0.018721,0.076745,0.006497,0.067116,0.022703,0.003224,-0.038982,-0.099482,-0.029766,-0.142552},
{0.032711,-0.020620,-0.074478,0.000846,0.019919,-0.093992,-0.036238,-0.009252,0.020266,0.035258,-0.057033,-0.020338,0.079869,0.125760,0.025869,0.047377},
{0.009450,-0.049095,0.072470,-0.085996,-0.059298,-0.054241,0.092220,0.121908,0.035872,0.020757,0.088888,0.089006,-0.014025,0.060221,-0.049431,0.023136},
{-0.079891,0.110657,-0.023903,0.008992,0.105537,-0.071593,0.015574,-0.009262,-0.090294,-0.125061,0.034087,0.077331,-0.010830,0.040791,-0.080015,-0.029449},
{-0.150780,-0.069811,-0.093062,-0.026397,-0.109006,0.023462,0.057182,0.017757,0.049893,-0.066841,-0.016074,0.116887,0.150964,0.028426,0.026131,0.044845},
{-0.043509,-0.088303,-0.062031,-0.028400,-0.064175,-0.025493,-0.047921,-0.088971,0.104564,-0.054730,0.035664,0.014144,0.000936,0.114338,-0.003584,0.078510},
{0.039613,-0.003287,0.050518,0.017761,-0.082603,0.018137,0.148422,-0.020745,0.016500,0.094550,-0.085096,0.060474,0.109482,-0.027380,-0.038678,-0.055199},
{0.001352,0.052923,0.034134,0.116474,-0.026171,-0.046926,0.036322,-0.006708,0.002150,-0.068336,0.048476,-0.137300,-0.013918,0.000036,0.067038,-0.136772},
{0.025214,-0.055003,0.010410,0.031421,0.071868,-0.066580,-0.110701,-0.068842,-0.111069,0.079343,0.004368,0.005098,-0.066342,-0.049393,0.154249,-0.044993},
{0.010616,0.047483,-0.093677,-0.101024,0.027202,0.010563,-0.075989,-0.011461,-0.016002,-0.041010,0.025706,-0.085562,-0.046890,0.090562,0.065744,0.040854},
{-0.110811,0.054399,-0.096203,0.032588,-0.101357,0.031285,-0.154707,0.067747,0.021209,0.005796,0.013892,0.033287,0.057736,-0.036632,-0.133796,0.021757},
{-0.054912,0.122952,0.126102,0.065276,-0.010534,-0.086311,0.050027,0.044100,0.060027,-0.033763,0.017916,-0.025812,-0.122316,0.001898,-0.001680,0.010729},
{0.008891,0.018025,0.003516,0.049626,0.044643,-0.030373,-0.061244,-0.031793,-0.019788,0.003453,-0.033070,-0.001065,0.075640,-0.024328,-0.134375,-0.070577},
{0.054903,0.119219,-0.046751,-0.036023,0.007888,0.039872,-0.048666,0.038768,-0.084851,-0.094540,-0.078979,0.088545,0.076950,0.116511,0.057517,0.003804},
{-0.076683,-0.058258,0.071082,0.077243,0.079770,-0.014438,-0.057069,0.012683,-0.069786,0.001401,0.133358,-0.085991,0.032350,0.066243,-0.014937,-0.080605},
{0.038820,0.100496,0.028877,0.100231,0.085299,0.024505,-0.056101,-0.016396,0.021457,-0.055684,0.006008,-0.010771,0.001686,-0.013467,-0.030529,0.031482},
{0.057874,0.061468,0.029472,-0.059270,-0.000316,0.142150,-0.107515,-0.042110,-0.017973,0.041027,0.001193,0.072455,0.079233,0.006289,0.000448,-0.015882},
{-0.013189,0.120615,-0.206077,-0.126885,-0.093089,-0.053480,0.122832,0.006428,0.084794,0.035944,-0.026103,0.034374,-0.026409,-0.042530,0.044506,0.029889},
{0.003579,0.037657,0.026743,-0.028629,0.055906,0.061595,-0.030668,0.083553,0.092432,-0.017666,0.065577,-0.039083,-0.025541,-0.000885,0.057027,0.044876},
{-0.013075,-0.042909,0.039595,0.044694,0.048388,-0.102490,-0.067284,-0.127528,0.012398,-0.007823,-0.059396,-0.179914,0.015732,-0.070978,-0.029749,0.028644},
{-0.095990,-0.121756,-0.098902,-0.062090,0.008685,-0.054507,-0.001918,0.031736,-0.059209,0.022090,-0.063087,-0.114840,0.025514,-0.021323,-0.023111,-0.032506},
{-0.078580,0.008499,0.023105,-0.029335,0.095430,-0.022644,-0.014223,0.073533,-0.017969,0.003312,-0.016207,0.012691,-0.017235,-0.104461,-0.011780,0.012213},
{0.017102,0.094685,0.019700,0.010144,0.006218,-0.010841,-0.023359,-0.085131,-0.089028,-0.037460,-0.005973,0.070724,0.027118,0.093613,0.009915,-0.013967},
{0.032502,-0.055927,0.033172,0.028224,-0.004277,0.052226,-0.036399,-0.095702,-0.021763,0.031143,0.089385,0.074709,0.132048,0.116798,-0.083946,0.037060},
{-0.097502,0.056194,-0.024015,0.073786,0.117837,-0.011190,-0.160778,-0.084236,-0.061274,0.051182,0.050728,-0.011974,0.026414,-0.047755,-0.014738,0.024124},
{-0.024780,-0.059491,-0.073532,0.048196,-0.001841,-0.033123,-0.022435,-0.154474,-0.056319,0.144966,0.017743,0.035772,-0.031681,0.090255,0.005480,-0.068137},
{0.033332,0.051029,0.155743,-0.010268,0.096750,0.080662,-0.026875,-0.065403,-0.068206,0.051141,0.033166,0.060812,-0.125557,-0.052027,0.040660,-0.076016},
{0.109934,-0.036907,0.070707,0.090165,-0.033813,0.026219,0.014121,-0.037263,-0.021641,-0.069315,0.012852,0.009978,0.000260,0.012376,0.003029,-0.026244},
{0.066618,0.012803,0.062214,-0.049478,-0.013905,0.148723,-0.055408,-0.040806,0.002520,0.060856,0.027078,-0.050241,-0.014536,0.035721,0.051221,-0.011623},
{0.097791,-0.029926,0.144488,-0.010161,0.096459,0.004202,0.039425,0.018866,0.000059,-0.056437,-0.034532,-0.121391,0.077701,0.073382,0.094048,0.016250},
{0.113716,0.105362,0.018985,0.040445,-0.100094,0.006841,0.043542,0.017654,-0.044671,-0.029809,-0.023022,-0.009032,-0.015990,-0.015432,0.052396,0.087560},
{-0.028197,-0.067173,0.113394,-0.079794,0.048176,-0.040198,-0.015510,0.009815,0.031787,0.038553,0.148849,-0.044962,-0.120684,0.001032,-0.003774,0.004215},
{0.038174,-0.053628,0.078245,0.005799,-0.065883,0.060113,0.150754,0.084314,0.018083,0.001194,0.059007,-0.044022,0.044772,0.043631,0.145599,0.122018},
{0.024694,0.021661,-0.005682,0.003384,0.134365,-0.053801,-0.006339,-0.032115,0.153568,-0.037011,-0.029087,0.051786,-0.033455,-0.080530,0.045706,0.017991},
{0.012973,0.083632,0.101639,-0.139573,0.039885,0.064811,-0.036904,-0.007730,-0.134734,-0.037290,-0.047520,-0.073282,-0.063476,0.009641,-0.047321,0.016026},
{0.024788,-0.057455,-0.017306,-0.016534,0.030218,-0.067004,0.030443,-0.084560,0.028545,0.034875,-0.002990,0.145039,0.020129,-0.047562,-0.037720,0.105097},
{-0.174069,0.073969,-0.105329,-0.085955,0.081945,0.041244,-0.065467,-0.116967,-0.047674,-0.045899,-0.032613,0.100280,0.138844,0.082940,0.013244,-0.055311},
{-0.002085,-0.031685,-0.094178,-0.027596,0.041867,-0.039689,-0.089830,0.051816,-0.183402,0.078386,0.027947,-0.055412,0.116115,0.000851,0.022906,0.143589},
{-0.016364,0.097553,0.034027,0.007929,0.085896,0.018841,0.058562,-0.024716,0.065355,-0.003040,-0.007264,-0.122972,0.133783,0.060441,0.082120,-0.020711},
{0.032615,-0.027245,-0.070066,0.020173,0.032742,-0.042539,0.002726,-0.040679,-0.109772,-0.016141,-0.076175,0.004011,-0.022485,-0.078377,0.054133,-0.004220},
{-0.021868,-0.002110,-0.005205,0.022566,-0.046964,-0.067771,0.028838,0.104920,-0.060700,-0.020482,-0.010598,-0.024562,-0.057015,0.049080,-0.060943,0.009745},
{0.073618,0.085076,0.022301,-0.002847,-0.003241,-0.004528,-0.016270,0.042692,-0.085548,0.057899,0.024848,-0.034490,-0.123917,0.033641,0.059456,0.027801},
{0.085659,-0.146978,-0.066959,-0.067885,-0.056605,-0.078356,0.021030,0.022589,0.044243,-0.103122,0.013031,-0.033853,-0.115439,0.031944,-0.135778,0.013565},
{0.022235,0.059225,-0.059066,-0.048208,-0.004190,0.016887,-0.015073,0.037334,-0.034954,-0.022592,0.074234,-0.097529,0.141761,0.053241,0.021748,0.034327},
{-0.004502,0.036679,-0.020340,0.038924,0.002156,-0.019106,0.042798,0.077014,0.021573,0.097020,-0.005352,-0.010874,0.021731,0.063229,-0.033140,0.128254},
{-0.018734,-0.086888,-0.015204,0.030001,0.045812,-0.164616,0.023892,-0.073089,0.062552,-0.049527,-0.061069,-0.022125,-0.027049,-0.005051,0.016819,-0.057286},
{-0.035485,0.000696,0.063903,-0.119411,-0.124522,-0.061232,-0.012318,0.000347,0.055058,-0.029474,-0.122885,0.015032,-0.144962,0.040874,-0.048203,-0.002648},
{-0.056406,-0.101829,0.006228,0.049087,-0.088876,0.004863,0.141234,-0.108528,-0.029356,-0.112244,-0.012912,0.087553,0.075404,0.081131,0.065239,0.157613},
{0.005808,0.056806,0.047297,-0.211294,0.037589,-0.002602,-0.088545,-0.051014,-0.034103,-0.026273,0.167667,-0.037169,0.056039,-0.131592,-0.015915,0.062118},
{-0.028325,0.097004,0.077704,-0.022112,-0.038111,-0.006369,0.017583,0.024057,-0.017428,0.107424,-0.086509,-0.032107,-0.092028,0.011082,0.044177,0.027483},
{0.006762,-0.061346,-0.030677,0.001008,0.010249,0.044236,-0.114371,-0.076713,0.011756,0.012626,0.067624,0.007132,0.025160,-0.001897,-0.087640,0.039921},
{0.038440,-0.076220,0.056300,0.043733,0.007329,0.084169,-0.063611,-0.081505,-0.029351,-0.070343,0.092049,-0.049213,0.110183,-0.023153,0.131736,-0.131542},
{0.032616,-0.042309,-0.080768,0.036320,-0.128948,0.041420,0.157868,0.000875,-0.058689,-0.037152,-0.158723,-0.001185,-0.037446,0.041121,0.033425,-0.005327},
{-0.048871,0.094171,-0.120437,-0.054676,-0.029703,0.069228,0.087745,0.054522,-0.178410,0.078973,0.063968,0.149835,0.073204,0.015561,0.107422,0.089489},
{-0.024229,0.011534,0.072172,0.004312,-0.020218,-0.015158,-0.171715,0.077332,0.107227,0.028980,0.002151,-0.020197,0.039601,-0.071702,-0.051201,-0.023438},
{0.027535,-0.116573,-0.027407,-0.114988,-0.067906,0.109135,0.030363,0.034484,0.021375,-0.048271,0.044090,0.078053,-0.022535,0.023749,0.023738,-0.092045},
{0.010531,-0.034292,-0.021445,-0.034548,0.012465,-0.079018,-0.134458,-0.048123,0.032529,-0.010389,0.018912,0.102497,0.049466,0.012719,0.044979,-0.008557},
{0.018843,-0.023561,0.046563,-0.021685,-0.098873,0.004904,0.139109,0.001696,-0.060952,0.071911,0.024295,0.108427,-0.045588,0.014308,-0.006599,-0.002456},
{0.004190,-0.092084,-0.080468,-0.090084,0.018455,0.068601,-0.067718,0.080975,-0.114069,-0.004597,0.060764,0.008824,-0.050205,0.038423,-0.155322,0.097390},
{-0.026639,-0.095209,-0.084635,-0.026418,-0.101343,0.038031,-0.059303,0.002173,-0.011795,-0.032250,-0.046178,-0.001355,-0.025996,-0.121657,-0.125429,0.107451},
{0.047588,0.060809,0.166760,-0.001527,0.023362,0.077725,-0.072227,-0.039214,0.054977,-0.006946,-0.022708,0.062679,-0.065355,-0.070814,-0.020232,-0.037851},
{0.090223,0.047396,-0.126135,-0.015098,-0.007497,-0.066714,-0.064192,0.126321,0.021163,-0.078441,-0.039713,-0.012073,0.056125,-0.045906,0.023894,-0.002840},
{0.155492,-0.043211,0.002747,0.012680,-0.085865,0.087519,0.010771,0.001427,-0.076820,-0.051704,-0.034945,-0.108201,0.087893,-0.074248,-0.088420,-0.009263},
{-0.023398,-0.010176,-0.143651,0.034925,0.082358,0.083814,-0.031484,-0.037267,-0.018604,-0.023945,-0.103223,0.050359,0.032482,0.056277,-0.080551,0.013072},
{-0.104281,0.073988,-0.001159,0.015416,0.037638,-0.028539,0.077141,0.078855,-0.035229,0.055609,-0.011075,-0.037242,0.070018,0.074543,0.057008,0.087968},
{-0.012123,0.043631,0.030515,-0.056745,-0.057651,0.046797,-0.024530,0.068604,-0.006138,-0.005714,-0.038285,0.013625,0.023023,0.022721,0.013923,-0.020194},
{0.040179,-0.050724,-0.052358,0.095981,-0.025893,0.030763,-0.015889,0.085023,0.014870,0.056493,0.007945,0.006306,0.019390,0.082390,0.157434,0.023311},
{-0.033143,-0.056283,0.017528,-0.019280,-0.116277,0.096774,0.101026,0.000067,0.120259,-0.063839,0.064087,-0.034808,-0.125996,0.063412,-0.014343,-0.029015},
{0.084347,0.033389,0.009443,-0.003274,-0.054053,0.054307,0.059242,0.036582,-0.051221,0.040163,0.017455,-0.009791,0.068372,0.017302,0.019438,0.012774},
{0.033967,-0.051318,-0.009477,-0.010641,0.063402,0.073654,-0.032245,0.033501,0.040383,0.144589,0.068571,0.067575,0.027014,0.051375,0.039370,-0.014591},
{-0.058801,-0.096021,-0.100289,-0.106775,-0.139397,0.047019,-0.031136,-0.040117,-0.011589,-0.036041,-0.053216,0.023392,-0.044832,-0.023813,-0.072493,0.023847},
{-0.064075,0.031803,-0.037373,-0.114201,0.058010,-0.042405,-0.120309,-0.068332,-0.090089,0.106850,-0.003212,-0.053472,-0.068206,0.034579,-0.005000,-0.054146},
{0.025321,-0.124715,0.032949,0.093384,0.094597,0.050751,0.046376,0.009707,-0.030472,0.007955,-0.065481,-0.036196,0.123535,-0.072038,-0.009622,0.007111},
{0.057148,0.070845,0.056933,-0.096318,-0.047009,0.141273,0.045820,0.059646,0.026051,0.048306,0.023493,0.023246,-0.044257,-0.039284,0.017733,-0.026598},
{0.003935,0.082610,-0.014393,-0.024367,-0.014718,-0.079557,0.030544,0.026094,0.043850,0.101903,0.004205,0.052200,-0.065295,-0.106985,-0.042833,0.011703},
{0.032303,-0.029887,0.075172,-0.083890,-0.033256,-0.099374,0.127201,-0.118105,0.028684,-0.014892,-0.147379,0.021258,0.063437,-0.030793,0.090647,-0.039825},
{0.076436,0.076996,-0.055068,0.010311,-0.024341,0.032877,0.060240,0.016157,-0.012331,0.063439,-0.069580,-0.088726,0.030173,-0.013589,0.003813,-0.152385},
{-0.014591,0.022684,0.039929,0.044652,-0.119176,-0.121385,0.167412,-0.161275,0.048230,0.007713,0.073133,0.027266,-0.022862,-0.003739,0.110444,0.120933},
{-0.044933,-0.040136,-0.057757,-0.018322,-0.001550,0.012496,-0.066249,-0.005793,0.033825,-0.068825,-0.101538,0.055161,0.018733,0.039062,-0.054483,-0.100555},
{0.021676,-0.070682,-0.044099,-0.007052,0.014122,-0.071903,0.083772,-0.007566,0.003915,-0.038641,0.040023,-0.133973,0.076178,0.061146,0.018782,-0.003069},
{-0.046084,-0.020533,-0.013926,-0.057755,0.023911,0.036745,0.033668,0.100210,-0.012550,0.006853,-0.019534,-0.053296,0.020063,-0.060613,0.070376,0.039345},
{0.032105,0.044239,0.054823,0.008103,0.017119,0.005325,0.022738,-0.166843,0.032100,0.027318,0.054385,0.043239,-0.115064,-0.003267,0.099328,-0.086806},
{-0.077675,-0.139357,0.030197,-0.069455,0.018017,-0.044620,-0.000786,-0.212897,-0.083254,-0.093970,0.006286,-0.090045,0.057796,-0.063954,0.038720,0.002530},
{-0.194776,0.066861,0.154754,-0.032530,0.071742,0.041345,0.008637,0.054033,-0.050903,0.113357,-0.069983,0.076441,-0.032338,0.010929,0.059046,-0.097721},
{0.084989,-0.118504,0.051599,-0.029757,-0.040218,-0.059142,0.030432,-0.059569,0.078078,0.074933,-0.005762,-0.066897,-0.029035,0.013018,0.049931,-0.018282},
{0.024298,-0.038774,-0.010955,0.029788,-0.002686,-0.012590,0.050350,0.053179,0.004590,-0.011861,0.026699,-0.071934,-0.018396,-0.093399,-0.065711,0.011807},
{-0.018452,0.063976,0.027348,0.079123,0.010714,-0.002001,-0.011488,0.165604,-0.075553,-0.091050,0.008721,0.025435,0.004432,-0.172253,0.131866,-0.047060},
{0.050672,0.016566,-0.098297,-0.032039,0.023328,-0.053911,-0.009410,-0.059156,0.028304,0.029358,0.066684,0.049446,0.022304,0.032964,-0.054229,0.049416},
{0.085839,-0.013493,-0.060397,0.023837,-0.158602,-0.137375,0.024031,0.054991,-0.048389,-0.103830,-0.058527,0.086332,-0.077295,0.053692,0.093272,0.019062},
{-0.088557,-0.041236,0.019075,0.063599,0.016146,0.090633,0.028168,0.024970,-0.084140,0.051685,0.053339,0.117381,0.027825,-0.052839,0.062944,0.025403},
{0.034801,0.050378,0.021370,-0.078104,0.015526,0.037878,0.013870,0.006972,0.001752,0.042073,-0.026103,0.088329,-0.032631,-0.044804,0.047620,0.085146},
{0.107359,-0.057845,-0.075155,-0.071006,-0.017829,0.125829,-0.036483,-0.002991,0.058349,0.004814,-0.017585,0.065045,-0.013742,0.041675,-0.052275,-0.075433},
{0.061492,-0.078144,0.009490,0.067998,-0.139573,0.117495,0.082745,-0.072961,-0.060959,-0.033100,-0.075311,0.107163,-0.103255,-0.021308,-0.076579,0.010531},
{0.074943,-0.061869,-0.107945,-0.101188,0.116155,-0.072141,0.072278,-0.133283,0.011365,-0.022930,0.004742,-0.145000,-0.128589,0.032805,-0.088681,-0.027212},
{0.043785,-0.096557,-0.028578,0.035967,0.124158,-0.007282,0.076137,-0.081130,-0.076928,0.026626,0.073711,-0.087036,-0.010831,-0.017570,-0.094371,0.033313},
{-0.058970,0.010507,0.053924,-0.157131,0.032354,0.101328,-0.002857,0.067987,0.020026,-0.175536,0.065959,0.158437,-0.101729,0.061494,-0.044463,-0.011808},
{-0.120746,-0.016111,-0.029817,0.013024,0.050014,0.065800,0.079022,0.043842,-0.065036,-0.024534,-0.040675,-0.027028,-0.001674,0.085500,0.192592,-0.034250},
{0.044456,0.024851,0.036972,0.023143,-0.089617,0.050159,-0.068424,0.081888,-0.093041,0.095011,-0.066937,0.036243,-0.014124,0.044382,0.015732,-0.002975},
{0.033194,-0.040508,-0.021758,0.099488,0.032968,-0.181168,-0.060420,-0.048656,-0.045529,0.098805,-0.071433,-0.108469,0.020724,0.061805,-0.053581,0.047190},
{-0.095831,0.062508,-0.081530,-0.028103,0.016775,-0.033730,0.020263,0.004479,-0.108660,0.056780,0.067606,-0.015472,-0.062087,0.017458,-0.018379,-0.006255},
{-0.095567,0.013364,-0.023619,0.044143,0.050897,0.104140,-0.011268,-0.002765,0.049945,0.046740,0.104581,0.092467,0.077461,-0.077650,-0.079295,-0.041901},
{0.079270,-0.063875,0.080664,0.093235,0.072230,0.000580,0.068936,-0.104555,-0.046129,-0.070237,0.021633,0.024554,0.049638,-0.138623,-0.056615,0.019122},
{-0.110556,0.013067,-0.053031,-0.018664,-0.020728,-0.066310,0.067992,0.117589,-0.033438,0.032103,0.077350,0.066988,-0.010991,-0.102614,-0.075230,-0.011520},
{-0.001037,-0.070263,-0.032042,0.056575,0.031162,-0.039095,0.038061,0.112475,0.076235,0.013422,-0.076649,-0.064390,0.047690,0.002078,0.153011,0.093999},
{0.047213,-0.076715,0.021852,0.053694,-0.013742,-0.072399,-0.059332,0.086915,-0.092936,-0.113238,-0.045119,0.080243,0.056770,0.068329,0.017646,0.018947},
{-0.040653,-0.015332,-0.046326,-0.079933,-0.092599,-0.045153,0.036538,-0.031413,-0.003024,0.084461,-0.055602,0.042352,-0.109414,-0.038826,0.005149,-0.070245},
{0.063021,0.064050,0.019573,-0.012977,-0.008700,0.055238,0.099833,-0.056747,-0.009918,-0.016021,-0.058603,0.107090,0.030740,0.048277,-0.002424,-0.092704},
{0.012315,-0.063149,0.099351,0.040581,-0.019470,0.080689,0.014829,-0.002227,-0.084158,0.020807,0.021881,-0.113095,0.063680,-0.152551,-0.059669,0.021471},
{-0.025689,-0.006807,0.003774,-0.108851,-0.045282,-0.015710,-0.000983,-0.059691,0.101691,-0.042916,0.157156,0.032235,-0.152152,0.051626,-0.016847,-0.056649},
{0.070190,0.077541,-0.051116,-0.008303,0.000073,-0.085923,0.072517,-0.038388,-0.007441,-0.126229,0.001000,0.064156,-0.033096,0.063293,-0.068700,0.008399},
{0.036294,-0.010650,-0.087903,-0.098747,0.060496,-0.047240,-0.022796,-0.096971,-0.032298,0.009730,0.043999,-0.030039,-0.034137,-0.001861,0.065905,0.034305},
{-0.050150,0.047881,0.066507,0.021412,0.127269,0.057780,-0.021360,0.008713,-0.027059,-0.025300,-0.058791,0.043239,-0.001582,0.012965,-0.003875,-0.038129},
{0.100559,0.046355,0.046329,-0.080916,0.000861,-0.020516,0.026651,-0.068325,-0.038530,0.116055,0.060615,0.042091,-0.010291,0.046888,-0.134305,0.056171},
{0.003881,-0.064895,0.060045,-0.052672,-0.034935,0.011660,-0.050115,-0.098352,0.140715,-0.038028,0.135101,0.070830,0.085350,-0.051666,-0.006922,-0.043749},
{0.000056,0.201437,0.076576,-0.004164,0.171349,0.049262,0.002007,0.037199,-0.092280,0.020805,0.051871,0.087234,-0.047312,0.005370,-0.069057,0.019790},
{0.095856,0.051175,0.066004,0.071410,-0.069008,-0.029224,-0.029192,-0.032912,0.055053,-0.052335,0.012779,-0.057466,-0.042464,-0.015747,0.027897,-0.076188},
{0.040508,-0.023297,0.009876,-0.039987,-0.012179,-0.001202,-0.081169,0.140896,-0.096985,0.145822,0.008073,-0.083354,0.033916,0.023614,0.088311,0.063593},
{-0.116974,-0.031047,-0.051647,-0.097869,0.144365,0.023064,-0.084306,-0.058346,0.016738,0.001542,-0.018121,-0.075935,0.044547,-0.052215,-0.045913,0.052097},
{-0.019216,0.040271,0.016607,-0.125450,0.015217,0.035042,0.120097,-0.086546,-0.058652,-0.029584,-0.044500,0.034832,0.046420,-0.025066,0.037688,-0.066368},
{-0.022816,-0.082306,-0.067902,-0.017335,0.026055,-0.046379,-0.078179,-0.091543,-0.037392,-0.009113,-0.078512,0.056004,0.064085,-0.075319,0.017205,0.034452},
{0.111496,-0.047239,0.021612,0.004961,0.116342,0.030110,-0.009305,-0.021272,-0.050490,-0.037473,-0.050891,0.135051,-0.077905,-0.026496,0.117771,-0.032010},
{-0.056289,-0.095410,0.073851,-0.016132,-0.049898,-0.066074,-0.031539,0.056001,0.109897,-0.036753,-0.044443,-0.022657,-0.042743,-0.002415,0.049353,-0.003303},
{-0.028661,-0.075796,-0.143213,-0.079260,0.047663,-0.000753,-0.066528,0.078865,-0.038399,0.044758,0.045178,0.034520,0.005432,-0.038114,0.105715,0.103522},
{-0.063459,-0.033054,0.133277,-0.021908,-0.028602,-0.112716,-0.074528,0.054977,0.046156,0.002313,-0.028394,-0.000581,-0.009255,-0.075966,0.083144,-0.010475},
{-0.084418,-0.018911,0.045140,0.047506,0.037679,-0.059035,0.053795,0.050833,0.050386,0.113201,0.104696,0.044772,-0.005163,-0.003968,-0.110501,0.019329},
{-0.015616,0.031582,0.065405,0.046270,0.006685,-0.172837,-0.019743,-0.070833,-0.034936,0.018157,-0.055468,0.094650,-0.044286,-0.118470,-0.082035,-0.061296},
{0.096876,-0.062333,-0.015547,-0.039521,-0.008920,0.046000,0.029025,-0.010687,0.076237,0.022258,-0.204437,0.078530,0.013102,0.086566,0.000367,0.018372},
{-0.043500,0.062758,-0.089687,-0.044423,0.029071,-0.131275,0.089609,-0.049997,-0.101100,0.013976,-0.096762,0.042098,-0.103314,-0.066542,-0.143712,0.108706},
{0.008230,-0.079080,0.019918,0.124624,0.154173,-0.036838,-0.128901,0.015475,0.097310,0.139822,-0.018215,0.015866,0.043617,-0.078286,0.055261,-0.025832},
{0.082688,-0.068141,-0.043158,0.069970,-0.011232,-0.050138,0.090486,-0.043269,-0.114290,-0.012226,-0.062428,0.068066,-0.098962,0.093987,-0.041076,-0.017667},
{0.101079,-0.076390,0.015319,0.042068,0.026973,-0.017951,0.039623,-0.039506,-0.122356,-0.089601,-0.093068,0.044524,0.029803,-0.065231,-0.038052,-0.082782},
{0.007611,-0.045260,-0.136674,0.105540,-0.027131,0.076891,-0.011923,-0.098516,-0.021842,-0.041946,0.124319,-0.086243,0.104244,-0.115293,0.026896,0.074322},
{-0.010943,0.038977,-0.049034,-0.069525,0.100478,0.040235,-0.022289,0.063967,0.005689,-0.060723,0.040300,0.041032,0.069677,0.022436,-0.013469,0.030408},
{0.019866,-0.027047,-0.036012,0.044292,0.125682,0.026872,0.136864,-0.056707,0.021983,0.039118,0.005884,-0.037286,-0.059273,0.137523,0.002828,-0.012432},
{-0.041853,0.060183,0.024634,-0.076365,0.085898,-0.008729,0.115095,0.062796,0.020249,-0.041970,-0.078851,0.097446,0.020564,0.008146,-0.012418,-0.056557},
{-0.027256,0.019094,0.138770,0.005057,0.046180,0.056794,0.013201,0.016174,0.015540,-0.096172,-0.012578,0.019302,0.096388,-0.087680,-0.043110,-0.098988},
{-0.050839,-0.092170,-0.041560,-0.054391,-0.051049,-0.030245,-0.041144,0.014957,0.083673,-0.017670,-0.010759,0.040212,-0.011857,0.009560,0.120451,-0.129556},
{0.026687,0.018492,-0.011804,0.029750,0.053419,-0.099207,-0.065608,-0.044089,-0.037132,0.043354,-0.007687,-0.020276,0.048905,0.090496,-0.086197,-0.005003},
{0.021403,-0.020721,-0.116472,-0.013709,0.061702,-0.048613,0.019004,-0.015985,-0.003319,-0.037487,0.064997,-0.097877,0.045005,0.113405,0.044936,0.020044},
{-0.083469,-0.059448,-0.095878,-0.012173,0.011906,-0.085883,0.135662,0.027563,0.107523,0.057639,-0.051820,0.026337,0.068703,0.064715,0.025931,0.016424},
{0.255678,0.096715,-0.058100,0.012725,-0.018829,-0.008404,0.041547,-0.083726,-0.093644,-0.019292,-0.057976,-0.007936,-0.040815,0.033044,0.068813,-0.002112},
{0.174440,-0.179126,-0.068007,0.034081,-0.038854,-0.045647,0.027519,-0.078823,0.016667,0.039710,0.110060,-0.000728,0.068115,0.061072,-0.045022,0.116269},
{0.018711,-0.118960,0.015624,0.039648,0.062993,0.067200,-0.012967,-0.012160,-0.033229,-0.051586,-0.092399,0.084675,-0.071345,-0.153673,0.092696,0.011108},
{0.051707,-0.038165,0.019031,0.074108,0.064887,-0.043238,-0.021700,0.177250,0.019766,0.143877,-0.093832,0.045257,-0.071283,0.058669,-0.054010,-0.004960},
{-0.123074,0.000864,-0.057250,-0.001940,-0.050778,-0.043084,-0.045769,0.113182,-0.042510,0.097826,-0.003925,0.057799,0.011661,0.003006,-0.102337,-0.030550},
{-0.009899,-0.022116,-0.041659,0.001319,0.004321,-0.043857,0.008906,-0.047313,0.191756,0.040369,-0.066330,0.086407,0.074483,-0.039912,-0.037946,-0.019761},
{-0.067905,0.010985,0.094150,0.065534,0.011520,0.100812,-0.038818,0.057900,0.054534,0.012408,-0.049356,-0.005718,0.079998,-0.065681,0.094972,0.054115},
{0.029856,-0.030012,-0.022025,0.043691,-0.032337,0.047153,-0.076144,-0.082313,-0.022046,0.065507,0.015049,-0.001874,0.031185,-0.075603,-0.036478,-0.054190},
{-0.059478,0.038949,-0.028191,0.015320,0.031636,0.036461,0.024533,0.036980,-0.054087,0.064663,-0.013709,0.038315,0.013576,-0.084545,0.046281,-0.040991},
{0.049137,-0.002349,0.007009,0.083239,-0.018774,0.066748,-0.002805,-0.026405,0.018761,-0.042208,0.026341,-0.053413,0.021302,-0.039549,0.065948,-0.009043},
{0.017162,0.079670,0.052932,-0.027844,0.029694,0.062420,-0.098264,-0.017980,0.024994,-0.052827,0.008445,-0.031067,-0.006577,0.052664,0.015253,0.045488},
{0.066472,-0.068261,-0.055725,-0.028647,-0.008298,0.094470,0.005384,-0.081682,0.017198,-0.102284,0.002968,-0.051649,0.044483,0.023232,0.027272,-0.021086},
{0.058140,0.058414,-0.023694,-0.019654,0.066850,-0.049305,0.037607,-0.081184,0.042567,-0.000578,0.004624,0.047549,-0.014206,0.074182,-0.058574,0.013689},
{0.061841,-0.062975,-0.044167,0.119816,-0.029705,0.088505,0.014065,0.110051,-0.073780,-0.077680,-0.009989,-0.021292,-0.016775,-0.043053,0.042508,-0.013822},
{-0.021258,0.021694,0.035934,0.022762,-0.032006,-0.061211,0.021435,0.002470,-0.035314,0.002273,0.047970,-0.062036,0.004892,-0.028796,0.063276,-0.040913},
{-0.036146,0.028106,0.003616,-0.081812,-0.002165,0.038808,0.005705,-0.005580,0.014071,-0.002504,-0.042802,-0.034840,0.042290,0.024826,-0.045055,0.022591},
{0.039361,0.040230,0.026463,-0.049348,-0.032985,0.026016,-0.023672,0.012683,0.016110,0.014957,-0.040805,-0.061100,-0.012022,-0.011645,-0.051714,0.005730},
{-0.003859,-0.119625,-0.014988,-0.079425,0.018044,0.150408,0.054999,-0.021989,0.093090,0.006502,0.013025,-0.054896,0.090216,0.055008,-0.067776,-0.052472},
{-0.034972,-0.081726,0.060429,-0.021592,-0.013811,0.100274,0.066937,-0.004433,-0.033124,-0.059498,-0.000139,0.049014,0.041754,0.055431,-0.028177,0.033737},
{0.027392,-0.006915,0.095664,-0.045847,-0.071869,-0.050648,-0.014627,0.021027,-0.037791,0.039270,-0.030143,-0.090837,-0.030562,0.054162,-0.046767,-0.060305},
{-0.013017,-0.134011,0.040612,0.039365,0.002849,0.005612,-0.075943,0.080950,-0.013208,-0.045996,0.041683,-0.003831,-0.013315,0.031669,0.002437,-0.073269},
{-0.052868,0.044936,-0.042094,0.008044,-0.170136,-0.034666,-0.020867,-0.019286,0.019927,-0.007043,-0.056299,0.043334,-0.048066,-0.048627,-0.071745,0.098868},
{-0.040612,-0.064058,-0.042491,0.040689,-0.041366,-0.006866,0.000851,0.040484,-0.034868,0.069648,0.063402,0.049017,-0.041452,0.006928,0.025588,-0.002346},
{-0.026879,-0.002873,0.043500,-0.032634,-0.084662,0.070669,0.064824,0.011282,0.020867,-0.066588,-0.004361,-0.062168,-0.055459,0.008718,0.044750,-0.100474},
{-0.100024,-0.023144,0.004028,-0.087901,0.090416,-0.061960,-0.003992,0.008031,0.042677,0.080553,0.045246,-0.035361,-0.013620,0.042187,-0.017870,-0.013391},
{-0.026497,0.013585,0.063319,-0.016057,0.022229,-0.014215,0.000570,0.020285,-0.026474,0.014533,0.001368,0.010443,0.032016,0.001680,0.160678,-0.001004},
{0.022411,0.047154,-0.017534,-0.031950,-0.019294,-0.103346,-0.006774,0.005874,-0.021894,0.004312,-0.074906,-0.030249,0.030766,0.031646,-0.095724,-0.039221},
{-0.054164,-0.005730,-0.047239,0.020781,-0.065092,-0.000250,0.024669,0.041881,-0.017930,-0.023746,0.000342,-0.067585,-0.023017,0.025959,0.006536,0.040141},
{-0.059707,0.008470,-0.019577,-0.012454,0.060981,-0.059268,0.013899,0.007874,0.036918,0.066730,0.050814,-0.003166,0.001989,-0.073721,0.052587,-0.028125},
{0.078041,0.039105,-0.025377,-0.061477,0.069547,0.003417,-0.023516,0.012054,0.016928,0.037026,-0.035415,0.077238,0.063541,-0.008313,0.062835,0.006656},
{-0.054412,0.015359,-0.026236,-0.031061,-0.065836,-0.022016,-0.013943,-0.026893,-0.030208,0.028552,0.044457,0.006208,0.037676,0.091193,-0.013484,0.011117},
{-0.019456,0.079586,0.062300,-0.086944,0.066465,-0.026607,0.069359,-0.020743,-0.093774,-0.031265,-0.061020,-0.046776,0.023491,-0.050569,0.048163,-0.020585},
{-0.021743,0.070714,-0.022766,-0.041249,-0.004754,0.034810,-0.062563,-0.029731,0.036816,-0.011835,0.022346,-0.042661,-0.095757,-0.025477,-0.073706,0.038597},
{-0.014836,0.033931,0.057853,0.050839,-0.064475,-0.043606,-0.067491,0.090208,-0.028363,0.094481,-0.008827,-0.007154,-0.054514,-0.078321,-0.033343,0.024553},
{0.007895,0.024584,0.035796,-0.111719,-0.046766,0.051243,0.038392,0.058061,0.058003,-0.022207,-0.007729,-0.006734,0.012336,0.056192,-0.013068,0.029624},
{0.023301,0.044481,0.017918,-0.067708,-0.036459,0.013046,0.062956,-0.054002,0.023371,0.022460,0.038773,-0.036343,0.019337,0.031616,-0.014936,-0.074390},
{-0.043129,0.062969,-0.006214,-0.053286,0.030039,-0.029837,0.010101,-0.002279,0.020742,-0.024184,0.010502,0.056611,-0.055118,0.071879,-0.025548,-0.041803},
{0.039814,-0.035271,-0.008271,0.063359,-0.054715,-0.040443,0.083665,0.044390,-0.010707,-0.038021,-0.020023,-0.007555,0.001385,0.029072,0.056588,0.065340},
{0.001062,-0.068209,0.007066,0.023785,0.009446,-0.055568,-0.056779,0.071571,0.001632,-0.052851,0.007185,-0.058117,0.095544,0.072251,-0.059309,-0.050647},
{0.011457,-0.010907,-0.010359,0.031845,0.068346,0.008822,0.020292,0.080329,-0.013230,0.034673,-0.040942,-0.012555,0.072038,0.000384,0.047455,0.014516},
{-0.041836,-0.021569,-0.041171,0.082073,-0.076921,-0.031162,0.048389,0.005028,-0.030156,0.090865,-0.030809,0.031513,0.012229,0.084638,-0.115838,0.131512},
{0.082205,-0.078650,-0.042535,-0.019857,0.024092,0.002277,-0.029258,-0.027495,-0.085893,-0.031390,0.044265,-0.076115,0.068542,-0.015797,-0.015147,0.016590},
{0.035558,0.046597,0.038722,-0.046752,-0.025592,0.043211,0.025480,-0.006105,-0.028471,-0.050902,0.072051,0.002968,-0.015897,0.005753,0.074620,0.011380},
{0.091394,-0.003858,0.012715,0.055456,-0.139178,0.061198,-0.016269,0.031435,-0.001651,-0.003853,-0.100663,-0.038778,0.131311,0.023650,-0.029455,-0.013491},
{-0.112128,-0.012420,0.048875,-0.059164,-0.017731,0.023572,-0.036682,-0.003451,0.043616,0.157707,0.069185,-0.014773,0.031514,-0.041813,0.009060,0.001722},
{-0.019990,-0.023680,0.110954,-0.084006,0.129875,-0.053666,0.094322,0.026534,-0.112521,0.074449,0.032579,0.041528,-0.089426,0.010513,-0.040077,-0.018151},
{0.003825,-0.000962,0.044075,-0.052038,-0.013037,0.073416,-0.082283,-0.027800,0.039330,-0.053354,0.056794,0.015906,-0.037373,0.003998,-0.021058,-0.012359},
{0.134529,-0.016009,0.053646,0.052448,-0.011731,-0.017084,0.109670,-0.015542,0.002048,-0.117195,-0.106051,-0.016897,0.069569,-0.058740,0.020815,0.108565},
{-0.123948,-0.039763,-0.107959,-0.075741,-0.030492,0.025903,-0.027699,0.113376,-0.066608,-0.057963,0.089653,0.013936,-0.003341,0.125710,0.021220,0.050205},
{0.084343,0.049748,0.037585,0.089978,-0.039178,0.021753,0.086632,-0.062813,-0.039658,0.103832,-0.061779,0.035338,-0.097932,-0.045762,-0.000886,0.057036},
{-0.038528,-0.115376,0.029215,-0.011700,0.115198,-0.008591,-0.097941,0.045723,-0.054596,-0.009858,-0.014656,-0.073395,0.029802,0.011361,0.029297,0.012377},
{0.072175,0.091219,0.091554,-0.043881,-0.047458,0.029592,-0.001865,-0.040397,-0.006640,0.044100,0.093190,-0.088038,-0.003148,-0.038991,0.103906,-0.033954},
{0.064844,0.002418,-0.026954,-0.012237,0.000974,0.003342,-0.112465,-0.098675,-0.054618,-0.007311,-0.081235,0.032442,0.021692,0.067844,-0.028960,-0.062904},
{-0.028872,-0.081201,0.040429,-0.034462,-0.126023,0.045330,-0.001947,-0.053441,0.003508,-0.041050,-0.046593,-0.018803,0.012444,-0.065762,0.063907,-0.009116},
{-0.030005,0.030746,0.011215,-0.065692,-0.065874,-0.030348,0.071128,0.032481,-0.015091,-0.127457,-0.041210,-0.056151,0.025921,0.000105,-0.010233,0.094264},
{0.047318,-0.012071,-0.025482,-0.106398,0.018197,-0.072395,0.060855,0.029686,0.040954,0.041564,0.054837,0.020390,0.017715,0.015577,-0.032122,-0.153351},
{-0.058678,-0.023532,0.048262,-0.031669,0.118496,-0.048223,0.005991,0.013881,-0.061688,0.023420,-0.029265,-0.004833,0.016143,0.077598,0.031011,0.007877},
{0.112872,0.006000,-0.045511,-0.015183,-0.001276,0.043250,-0.038897,0.032244,-0.013720,0.071518,-0.028934,0.074084,-0.074969,0.028490,0.100181,-0.099581},
{-0.160101,-0.049071,0.024768,0.036986,0.018604,-0.071453,0.051741,0.061281,-0.033368,0.092889,-0.032616,-0.031495,-0.043136,-0.032542,-0.021368,-0.037883},
{-0.064417,0.000074,-0.075056,0.067642,0.028085,-0.037736,0.027965,0.033202,0.067180,0.091974,-0.071605,-0.011615,-0.058967,0.002049,-0.058748,-0.045731},
{0.037797,0.139577,-0.036402,-0.006450,-0.009042,0.011609,0.009365,0.048948,-0.057036,0.051673,0.036613,-0.001067,-0.011691,-0.012421,-0.032127,-0.021084},
{0.126583,-0.065896,0.006906,-0.018772,-0.012717,-0.040301,0.008859,-0.015005,-0.034061,0.025959,-0.065259,0.032612,0.014170,-0.025149,0.142035,-0.072776},
{0.042316,-0.136609,0.078265,0.000913,0.139931,0.116490,-0.097697,-0.010767,0.052104,0.043347,-0.065384,0.004136,0.009730,0.048553,0.000020,-0.143903},
{0.109709,0.002452,0.041578,-0.038711,-0.054954,-0.002342,-0.046498,-0.003118,0.004638,0.034689,0.003506,-0.017575,0.152983,-0.058993,0.054725,0.015714},
{0.027178,0.042327,0.000299,-0.118945,-0.050893,0.071013,0.011177,-0.089157,0.020084,-0.067269,0.052233,0.076271,-0.051496,0.137814,-0.001447,0.027462},
{-0.103816,0.019828,0.124408,-0.033986,0.011633,-0.014057,0.043125,-0.049518,-0.098169,0.091589,0.039716,0.022953,-0.079229,0.054105,0.102744,0.031318},
{0.010908,0.052781,0.023212,-0.035682,0.061129,0.018086,0.049639,0.002415,0.018411,-0.019299,0.090590,-0.082302,0.095570,0.025081,-0.141036,0.015878},
{0.049131,0.051059,-0.065916,0.007111,0.003190,-0.007472,0.071695,0.025121,0.092470,0.025308,-0.113133,-0.060056,0.011310,0.078407,0.050459,0.006029},
{-0.054689,0.028801,0.026603,-0.001930,-0.069127,-0.001028,-0.008970,0.003251,0.048258,0.069708,-0.082872,-0.047811,-0.005453,0.096674,-0.044829,-0.133098},
{-0.081657,-0.002753,-0.068791,0.080956,-0.074999,-0.025603,-0.029374,-0.075288,-0.060236,0.005306,0.087505,0.016957,0.038113,-0.034267,0.097415,0.104300},
{0.070495,-0.045027,0.050584,-0.109116,0.055080,0.050194,0.041414,-0.100073,-0.060977,0.069983,-0.079736,0.016199,-0.049201,0.008338,0.106542,-0.000079},
{-0.007072,0.006273,-0.068695,0.046650,-0.008250,-0.027834,-0.125562,0.011352,-0.052434,0.083037,0.056844,-0.031853,-0.082704,-0.040208,-0.116895,-0.056123},
{0.023577,0.066685,0.058286,-0.044687,-0.075722,-0.023553,-0.039292,-0.024439,0.016331,0.021369,-0.121676,-0.035172,-0.003855,0.060899,-0.054872,-0.025649},
{0.048084,-0.033037,-0.016439,0.002652,0.049168,0.015001,0.131172,-0.124704,-0.076673,-0.015832,-0.016237,-0.030754,0.096160,-0.076560,-0.083255,-0.050197},
{-0.081578,-0.093786,-0.058093,0.021256,0.043393,0.093514,0.111936,0.094605,0.067146,0.047355,0.037372,-0.042860,0.033447,0.077380,0.069666,-0.026177},
{-0.108762,0.047309,0.008193,-0.072727,-0.055854,0.006793,0.041037,-0.026368,-0.006028,0.005511,0.047804,0.033916,0.014901,-0.088473,-0.048326,0.012198},
{0.056392,0.051401,-0.022115,-0.013513,0.071376,-0.044507,-0.035532,-0.023714,-0.139190,0.118541,-0.032311,0.061449,0.048282,-0.021377,-0.028308,-0.083170},
{-0.005621,-0.081423,0.051071,-0.052836,0.080623,0.056473,0.015705,0.034757,-0.026791,0.063829,0.073172,-0.047754,0.105577,-0.055282,-0.078326,-0.019739},
{0.026133,0.135491,-0.066362,0.088266,0.091695,-0.065413,0.020400,0.010225,-0.077260,0.039268,0.054024,-0.047749,0.009634,-0.073964,-0.001460,-0.065280},
{0.069356,0.018167,-0.022714,-0.048812,-0.075432,0.079683,-0.007823,-0.032480,0.032724,0.034111,0.014221,-0.049811,0.125620,-0.030016,0.065191,0.055184},
{-0.105634,0.007449,-0.021611,0.061755,-0.069923,0.042414,-0.044833,-0.062670,0.023676,-0.018975,0.020255,0.072331,0.031033,0.034558,0.000394,0.014449},
{-0.106516,-0.043511,-0.010638,0.025919,0.008161,-0.027426,-0.120185,-0.105624,-0.014477,-0.011378,0.074719,-0.002575,-0.011957,-0.064720,0.004363,-0.117782},
{-0.087409,-0.040729,-0.100547,-0.072190,-0.008147,0.002329,0.040179,-0.079826,0.015394,-0.069104,0.100640,0.111923,0.026447,0.005313,0.078030,0.032356},
{0.006671,0.061077,-0.071357,0.011457,-0.133133,0.082327,0.110013,-0.055412,-0.138850,-0.008162,-0.010006,-0.016294,0.094363,0.015768,-0.072292,0.015033},
{-0.062656,0.009979,-0.128822,-0.065736,-0.068245,0.172107,-0.068563,0.027588,-0.112166,0.058143,0.058681,-0.003410,0.066668,-0.037660,0.135922,-0.026983},
{-0.096885,0.027713,0.027130,0.055025,-0.019575,-0.007706,0.099163,-0.073124,0.133107,0.036388,-0.023591,0.057791,0.124786,-0.049393,-0.014660,-0.040495},
{0.029802,-0.066316,-0.083252,0.050930,-0.070567,-0.093491,0.008987,0.029320,-0.127806,0.014303,-0.100448,0.003825,-0.007372,0.078033,-0.068498,-0.024238},
{0.040820,-0.022551,-0.047200,-0.019657,0.037120,-0.049957,-0.061412,-0.016929,0.030475,-0.001917,0.036798,-0.013749,-0.021094,-0.015917,-0.041937,0.039430},
{0.054303,-0.050409,-0.047387,0.004702,-0.023027,-0.062843,-0.037413,-0.029754,0.083759,-0.078605,-0.111756,-0.013863,-0.101537,-0.048091,0.072846,-0.109525},
{0.030491,-0.056895,0.076064,-0.024488,0.035085,-0.038410,-0.059532,-0.016055,-0.020014,0.028032,0.013458,-0.066077,0.013752,0.017291,-0.003777,0.103246},
{0.150109,-0.070503,-0.048590,-0.011049,-0.052368,0.030716,-0.024967,-0.101840,-0.001462,0.097253,-0.077039,0.071692,-0.018430,0.028385,-0.047649,0.085957},
{-0.069268,-0.093329,0.034062,-0.082738,0.020956,-0.065962,-0.045380,0.066625,0.072970,-0.097278,0.113971,0.003427,-0.003943,0.018227,0.096704,-0.012186},
{0.102839,-0.008729,0.014598,-0.062632,-0.037150,-0.069238,-0.039332,-0.056290,-0.002099,-0.006635,0.043921,-0.131069,-0.035831,0.110939,-0.017257,0.118909},
{-0.022920,0.007962,-0.118658,0.043684,-0.089445,0.031945,-0.027898,0.029243,0.072134,-0.043948,-0.007633,0.076958,-0.078069,-0.073554,-0.064480,0.075052},
{0.006842,-0.051982,0.105156,-0.003463,-0.045288,-0.050406,-0.037708,0.025008,-0.014405,-0.076530,-0.095024,-0.006307,-0.110045,0.118973,0.036614,-0.007246},
{0.030890,-0.027681,0.061208,0.033037,0.035339,0.082386,-0.073160,-0.040836,0.021979,-0.119052,-0.003897,0.026472,0.065411,0.046147,0.054273,0.009185},
{0.003834,-0.026554,-0.068236,0.128871,-0.034621,-0.070193,0.014444,-0.034055,0.071622,-0.003658,-0.065260,0.041350,0.068783,0.048069,0.042417,0.068187},
{0.004541,-0.016318,-0.010878,0.090116,-0.010343,-0.009159,0.024064,0.013976,-0.019158,-0.074360,0.046028,-0.068111,0.040866,-0.005712,-0.006672,-0.032835},
{0.043841,-0.036427,0.000390,0.009004,0.002384,-0.060457,0.021753,-0.006961,0.017836,0.044339,0.076049,0.033394,0.006284,-0.089963,-0.027277,0.094292},
{-0.062376,0.034721,-0.059759,0.008719,-0.109621,0.061285,-0.063429,0.009848,0.076864,-0.079031,0.077889,-0.029806,0.018962,0.027589,-0.053373,-0.001009},
{-0.106366,-0.073049,-0.039364,-0.048010,-0.081533,-0.017765,0.048035,0.023752,0.036329,0.000151,0.084340,0.065453,-0.025246,0.031826,-0.022049,0.078487},
{0.041275,-0.013814,0.018276,-0.037058,-0.034215,0.076855,-0.085896,-0.007846,-0.065178,-0.082656,0.065946,-0.008519,0.032653,0.006429,0.060566,-0.046106},
{0.051109,0.039251,0.077009,-0.002535,0.033798,0.053841,-0.152141,0.078528,0.054450,0.112709,0.037814,-0.056129,0.077139,-0.025581,-0.032172,0.117087},
{0.023270,-0.009684,-0.032051,0.128190,-0.115292,0.033653,-0.029256,0.025951,-0.016583,0.138720,0.083232,-0.043027,0.048202,-0.085661,0.050246,-0.018243},
{-0.001489,0.013008,-0.008348,-0.016212,0.084661,0.001561,-0.156933,-0.071461,-0.105381,-0.050433,-0.042216,-0.072384,-0.074290,-0.036248,-0.015516,0.012329},
{0.050697,0.068510,-0.015425,-0.048008,-0.066931,-0.012301,-0.051128,-0.147249,-0.044388,0.027680,0.048757,0.052553,-0.069813,0.078632,0.014400,0.135620},
