constant half3 weights_2[32*144] = {
{0.040458,0.040458,0.040458},
{-0.001260,-0.001260,-0.001260},
{-0.019118,-0.019118,-0.019118},
{-0.041401,-0.041401,-0.041401},
{-0.078365,-0.078365,-0.078365},
{-0.096822,-0.096822,-0.096822},
{0.002104,0.002104,0.002104},
{0.055875,0.055875,0.055875},
{0.048996,0.048996,0.048996},
{-0.001117,-0.001117,-0.001117},
{0.004260,0.004260,0.004260},
{0.028192,0.028192,0.028192},
{-0.031477,-0.031477,-0.031477},
{-0.013479,-0.013479,-0.013479},
{-0.018808,-0.018808,-0.018808},
{-0.036397,-0.036397,-0.036397},
{-0.066464,-0.066464,-0.066464},
{-0.036982,-0.036982,-0.036982},
{-0.034425,-0.034425,-0.034425},
{0.030120,0.030120,0.030120},
{-0.000658,-0.000658,-0.000658},
{0.106488,0.106488,0.106488},
{0.035835,0.035835,0.035835},
{0.041013,0.041013,0.041013},
{-0.009314,-0.009314,-0.009314},
{0.011357,0.011357,0.011357},
{-0.004303,-0.004303,-0.004303},
{-0.003363,-0.003363,-0.003363},
{-0.118375,-0.118375,-0.118375},
{-0.085083,-0.085083,-0.085083},
{0.000499,0.000499,0.000499},
{-0.000428,-0.000428,-0.000428},
{-0.000417,-0.000417,-0.000417},
{-0.021104,-0.021104,-0.021104},
{-0.028914,-0.028914,-0.028914},
{-0.001432,-0.001432,-0.001432},
{0.074488,0.074488,0.074488},
{-0.064572,-0.064572,-0.064572},
{0.082796,0.082796,0.082796},
{-0.104850,-0.104850,-0.104850},
{-0.028927,-0.028927,-0.028927},
{-0.001423,-0.001423,-0.001423},
{-0.028379,-0.028379,-0.028379},
{-0.016561,-0.016561,-0.016561},
{-0.005926,-0.005926,-0.005926},
{0.002013,0.002013,0.002013},
{0.003511,0.003511,0.003511},
{0.032474,0.032474,0.032474},
{-0.046378,-0.046378,-0.046378},
{-0.022814,-0.022814,-0.022814},
{0.018876,0.018876,0.018876},
{-0.008165,-0.008165,-0.008165},
{-0.010852,-0.010852,-0.010852},
{0.010845,0.010845,0.010845},
{-0.008123,-0.008123,-0.008123},
{0.033034,0.033034,0.033034},
{0.037221,0.037221,0.037221},
{0.006756,0.006756,0.006756},
{0.057424,0.057424,0.057424},
{0.024193,0.024193,0.024193},
{0.012904,0.012904,0.012904},
{-0.003130,-0.003130,-0.003130},
{-0.043085,-0.043085,-0.043085},
{0.030012,0.030012,0.030012},
{0.090186,0.090186,0.090186},
{-0.027968,-0.027968,-0.027968},
{0.093059,0.093059,0.093059},
{0.182350,0.182350,0.182350},
{-0.048398,-0.048398,-0.048398},
{-0.041162,-0.041162,-0.041162},
{-0.088193,-0.088193,-0.088193},
{0.020119,0.020119,0.020119},
{0.004676,0.004676,0.004676},
{0.039793,0.039793,0.039793},
{0.024291,0.024291,0.024291},
{-0.050949,-0.050949,-0.050949},
{0.010718,0.010718,0.010718},
{0.028868,0.028868,0.028868},
{0.000587,0.000587,0.000587},
{0.001283,0.001283,0.001283},
{0.001091,0.001091,0.001091},
{-0.026866,-0.026866,-0.026866},
{-0.115805,-0.115805,-0.115805},
{-0.024749,-0.024749,-0.024749},
{-0.029545,-0.029545,-0.029545},
{-0.006455,-0.006455,-0.006455},
{-0.048918,-0.048918,-0.048918},
{0.000645,0.000645,0.000645},
{-0.017435,-0.017435,-0.017435},
{0.011566,0.011566,0.011566},
{0.001287,0.001287,0.001287},
{-0.003293,-0.003293,-0.003293},
{-0.006348,-0.006348,-0.006348},
{0.047330,0.047330,0.047330},
{0.093113,0.093113,0.093113},
{0.029435,0.029435,0.029435},
{-0.006246,-0.006246,-0.006246},
{-0.001797,-0.001797,-0.001797},
{0.000555,0.000555,0.000555},
{-0.032834,-0.032834,-0.032834},
{-0.024977,-0.024977,-0.024977},
{-0.025524,-0.025524,-0.025524},
{0.005105,0.005105,0.005105},
{0.010193,0.010193,0.010193},
{0.017075,0.017075,0.017075},
{-0.004485,-0.004485,-0.004485},
{0.002784,0.002784,0.002784},
{0.024477,0.024477,0.024477},
{-0.018069,-0.018069,-0.018069},
{0.009058,0.009058,0.009058},
{0.016415,0.016415,0.016415},
{-0.062982,-0.062982,-0.062982},
{-0.128797,-0.128797,-0.128797},
{-0.090145,-0.090145,-0.090145},
{-0.032615,-0.032615,-0.032615},
{0.083348,0.083348,0.083348},
{0.096570,0.096570,0.096570},
{-0.219229,-0.219229,-0.219229},
{-0.010791,-0.010791,-0.010791},
{0.061963,0.061963,0.061963},
{0.003913,0.003913,0.003913},
{0.002469,0.002469,0.002469},
{-0.001755,-0.001755,-0.001755},
{-0.069323,-0.069323,-0.069323},
{-0.096735,-0.096735,-0.096735},
{0.006729,0.006729,0.006729},
{0.001058,0.001058,0.001058},
{0.000588,0.000588,0.000588},
{0.000486,0.000486,0.000486},
{0.047848,0.047848,0.047848},
{-0.116806,-0.116806,-0.116806},
{-0.083499,-0.083499,-0.083499},
{0.019503,0.019503,0.019503},
{-0.055317,-0.055317,-0.055317},
{0.018254,0.018254,0.018254},
{0.133627,0.133627,0.133627},
{0.108123,0.108123,0.108123},
{-0.029999,-0.029999,-0.029999},
{0.006127,0.006127,0.006127},
{0.017126,0.017126,0.017126},
{0.028635,0.028635,0.028635},
{-0.009077,-0.009077,-0.009077},
{-0.041991,-0.041991,-0.041991},
{0.003762,0.003762,0.003762},
{-0.039146,-0.039146,-0.039146},
{0.006738,0.006738,0.006738},
{0.058408,0.058408,0.058408},
{-0.043678,-0.043678,-0.043678},
{-0.012609,-0.012609,-0.012609},
{0.024342,0.024342,0.024342},
{-0.042060,-0.042060,-0.042060},
{-0.003429,-0.003429,-0.003429},
{0.032604,0.032604,0.032604},
{-0.012967,-0.012967,-0.012967},
{-0.015711,-0.015711,-0.015711},
{-0.008579,-0.008579,-0.008579},
{0.010829,0.010829,0.010829},
{0.009382,0.009382,0.009382},
{0.011190,0.011190,0.011190},
{0.010744,0.010744,0.010744},
{0.017225,0.017225,0.017225},
{0.068151,0.068151,0.068151},
{-0.058078,-0.058078,-0.058078},
{-0.226360,-0.226360,-0.226360},
{-0.107492,-0.107492,-0.107492},
{-0.032554,-0.032554,-0.032554},
{-0.046140,-0.046140,-0.046140},
{-0.023915,-0.023915,-0.023915},
{-0.003246,-0.003246,-0.003246},
{0.005125,0.005125,0.005125},
{0.009836,0.009836,0.009836},
{0.005709,0.005709,0.005709},
{0.020095,0.020095,0.020095},
{0.035759,0.035759,0.035759},
{0.001510,0.001510,0.001510},
{0.000608,0.000608,0.000608},
{0.000083,0.000083,0.000083},
{0.045254,0.045254,0.045254},
{-0.007360,-0.007360,-0.007360},
{0.028450,0.028450,0.028450},
{-0.009562,-0.009562,-0.009562},
{-0.024778,-0.024778,-0.024778},
{-0.038396,-0.038396,-0.038396},
{0.048751,0.048751,0.048751},
{0.007487,0.007487,0.007487},
{0.032137,0.032137,0.032137},
{0.028178,0.028178,0.028178},
{0.010001,0.010001,0.010001},
{-0.025309,-0.025309,-0.025309},
{0.076660,0.076660,0.076660},
{0.018737,0.018737,0.018737},
{-0.079100,-0.079100,-0.079100},
{0.002803,0.002803,0.002803},
{-0.014071,-0.014071,-0.014071},
{-0.007966,-0.007966,-0.007966},
{0.010241,0.010241,0.010241},
{0.009954,0.009954,0.009954},
{0.011038,0.011038,0.011038},
{0.071435,0.071435,0.071435},
{0.071104,0.071104,0.071104},
{0.001571,0.001571,0.001571},
{0.117058,0.117058,0.117058},
{0.031897,0.031897,0.031897},
{0.003383,0.003383,0.003383},
{-0.053037,-0.053037,-0.053037},
{-0.052439,-0.052439,-0.052439},
{-0.009724,-0.009724,-0.009724},
{-0.011467,-0.011467,-0.011467},
{0.010033,0.010033,0.010033},
{0.000096,0.000096,0.000096},
{-0.003849,-0.003849,-0.003849},
{-0.004067,-0.004067,-0.004067},
{0.003937,0.003937,0.003937},
{0.010759,0.010759,0.010759},
{-0.025619,-0.025619,-0.025619},
{-0.007532,-0.007532,-0.007532},
{0.058818,0.058818,0.058818},
{0.048963,0.048963,0.048963},
{-0.016068,-0.016068,-0.016068},
{-0.007263,-0.007263,-0.007263},
{0.000525,0.000525,0.000525},
{-0.002379,-0.002379,-0.002379},
{0.001152,0.001152,0.001152},
{0.000914,0.000914,0.000914},
{0.000251,0.000251,0.000251},
{0.003539,0.003539,0.003539},
{-0.013775,-0.013775,-0.013775},
{0.003844,0.003844,0.003844},
{-0.010986,-0.010986,-0.010986},
{-0.008255,-0.008255,-0.008255},
{0.007295,0.007295,0.007295},
{0.005105,0.005105,0.005105},
{-0.001084,-0.001084,-0.001084},
{0.003452,0.003452,0.003452},
{-0.041289,-0.041289,-0.041289},
{-0.032878,-0.032878,-0.032878},
{-0.006049,-0.006049,-0.006049},
{0.004532,0.004532,0.004532},
{0.004491,0.004491,0.004491},
{0.016720,0.016720,0.016720},
{0.007013,0.007013,0.007013},
{-0.028732,-0.028732,-0.028732},
{-0.018353,-0.018353,-0.018353},
{-0.018368,-0.018368,-0.018368},
{-0.025556,-0.025556,-0.025556},
{-0.016748,-0.016748,-0.016748},
{0.041618,0.041618,0.041618},
{0.056219,0.056219,0.056219},
{0.009280,0.009280,0.009280},
{0.188377,0.188377,0.188377},
{0.115598,0.115598,0.115598},
{0.070506,0.070506,0.070506},
{-0.043635,-0.043635,-0.043635},
{-0.072554,-0.072554,-0.072554},
{-0.030639,-0.030639,-0.030639},
{-0.093076,-0.093076,-0.093076},
{-0.058691,-0.058691,-0.058691},
{-0.035434,-0.035434,-0.035434},
{0.016901,0.016901,0.016901},
{0.013787,0.013787,0.013787},
{-0.008593,-0.008593,-0.008593},
{-0.009344,-0.009344,-0.009344},
{0.033022,0.033022,0.033022},
{-0.032032,-0.032032,-0.032032},
{0.033737,0.033737,0.033737},
{0.047023,0.047023,0.047023},
{0.025910,0.025910,0.025910},
{0.022871,0.022871,0.022871},
{0.009458,0.009458,0.009458},
{0.028120,0.028120,0.028120},
{0.003189,0.003189,0.003189},
{0.002607,0.002607,0.002607},
{0.002193,0.002193,0.002193},
{-0.005399,-0.005399,-0.005399},
{-0.045147,-0.045147,-0.045147},
{0.003652,0.003652,0.003652},
{-0.001045,-0.001045,-0.001045},
{-0.040991,-0.040991,-0.040991},
{-0.018077,-0.018077,-0.018077},
{-0.106864,-0.106864,-0.106864},
{-0.050709,-0.050709,-0.050709},
{-0.038103,-0.038103,-0.038103},
{-0.054170,-0.054170,-0.054170},
{-0.045457,-0.045457,-0.045457},
{-0.026179,-0.026179,-0.026179},
{-0.029348,-0.029348,-0.029348},
{-0.010709,-0.010709,-0.010709},
{0.056124,0.056124,0.056124},
{0.006771,0.006771,0.006771},
{-0.022702,-0.022702,-0.022702},
{-0.047358,-0.047358,-0.047358},
{-0.009992,-0.009992,-0.009992},
{-0.022328,-0.022328,-0.022328},
{-0.022737,-0.022737,-0.022737},
{0.018074,0.018074,0.018074},
{-0.024960,-0.024960,-0.024960},
{-0.020324,-0.020324,-0.020324},
{0.032730,0.032730,0.032730},
{0.017143,0.017143,0.017143},
{-0.020000,-0.020000,-0.020000},
{0.019541,0.019541,0.019541},
{0.013554,0.013554,0.013554},
{-0.015531,-0.015531,-0.015531},
{0.240974,0.240974,0.240974},
{-0.102820,-0.102820,-0.102820},
{-0.105096,-0.105096,-0.105096},
{0.174080,0.174080,0.174080},
{-0.114674,-0.114674,-0.114674},
{-0.166799,-0.166799,-0.166799},
{-0.140119,-0.140119,-0.140119},
{-0.172354,-0.172354,-0.172354},
{0.005464,0.005464,0.005464},
{0.028337,0.028337,0.028337},
{0.002712,0.002712,0.002712},
{-0.006283,-0.006283,-0.006283},
{-0.225185,-0.225185,-0.225185},
{0.154236,0.154236,0.154236},
{0.043219,0.043219,0.043219},
{-0.002012,-0.002012,-0.002012},
{-0.001717,-0.001717,-0.001717},
{-0.001661,-0.001661,-0.001661},
{-0.126881,-0.126881,-0.126881},
{-0.198280,-0.198280,-0.198280},
{0.011269,0.011269,0.011269},
{0.136769,0.136769,0.136769},
{0.016257,0.016257,0.016257},
{-0.140199,-0.140199,-0.140199},
{-0.134757,-0.134757,-0.134757},
{-0.002358,-0.002358,-0.002358},
{0.068833,0.068833,0.068833},
{-0.019244,-0.019244,-0.019244},
{-0.005513,-0.005513,-0.005513},
{0.006304,0.006304,0.006304},
{0.084624,0.084624,0.084624},
{0.008129,0.008129,0.008129},
{-0.013459,-0.013459,-0.013459},
{0.018364,0.018364,0.018364},
{0.031753,0.031753,0.031753},
{0.011709,0.011709,0.011709},
{0.004839,0.004839,0.004839},
{0.012571,0.012571,0.012571},
{0.004806,0.004806,0.004806},
{-0.002662,-0.002662,-0.002662},
{0.004229,0.004229,0.004229},
{-0.000209,-0.000209,-0.000209},
{-0.001179,-0.001179,-0.001179},
{0.013609,0.013609,0.013609},
{0.038697,0.038697,0.038697},
{-0.009015,-0.009015,-0.009015},
{-0.006308,-0.006308,-0.006308},
{-0.004966,-0.004966,-0.004966},
{-0.020209,-0.020209,-0.020209},
{0.033136,0.033136,0.033136},
{-0.016134,-0.016134,-0.016134},
{0.003221,0.003221,0.003221},
{0.019853,0.019853,0.019853},
{-0.005917,-0.005917,-0.005917},
{-0.013789,-0.013789,-0.013789},
{0.030536,0.030536,0.030536},
{-0.017193,-0.017193,-0.017193},
{0.011479,0.011479,0.011479},
{0.013234,0.013234,0.013234},
{0.011272,0.011272,0.011272},
{0.036504,0.036504,0.036504},
{0.023716,0.023716,0.023716},
{0.065337,0.065337,0.065337},
{0.001047,0.001047,0.001047},
{0.000966,0.000966,0.000966},
{0.000885,0.000885,0.000885},
{0.018496,0.018496,0.018496},
{-0.021260,-0.021260,-0.021260},
{-0.022140,-0.022140,-0.022140},
{-0.048441,-0.048441,-0.048441},
{-0.068143,-0.068143,-0.068143},
{0.012414,0.012414,0.012414},
{0.079728,0.079728,0.079728},
{0.018959,0.018959,0.018959},
{-0.013919,-0.013919,-0.013919},
{-0.021960,-0.021960,-0.021960},
{-0.024044,-0.024044,-0.024044},
{-0.019699,-0.019699,-0.019699},
{-0.017937,-0.017937,-0.017937},
{-0.027192,-0.027192,-0.027192},
{-0.040656,-0.040656,-0.040656},
{0.015318,0.015318,0.015318},
{-0.030636,-0.030636,-0.030636},
{-0.016599,-0.016599,-0.016599},
{0.002860,0.002860,0.002860},
{-0.012086,-0.012086,-0.012086},
{-0.002942,-0.002942,-0.002942},
{0.012163,0.012163,0.012163},
{-0.019685,-0.019685,-0.019685},
{-0.041208,-0.041208,-0.041208},
{-0.028356,-0.028356,-0.028356},
{-0.022841,-0.022841,-0.022841},
{0.036794,0.036794,0.036794},
{-0.022693,-0.022693,-0.022693},
{0.016495,0.016495,0.016495},
{0.000236,0.000236,0.000236},
{-0.000202,-0.000202,-0.000202},
{-0.245724,-0.245724,-0.245724},
{0.181540,0.181540,0.181540},
{-0.034653,-0.034653,-0.034653},
{0.270611,0.270611,0.270611},
{-0.218232,-0.218232,-0.218232},
{0.056566,0.056566,0.056566},
{0.021911,0.021911,0.021911},
{-0.042669,-0.042669,-0.042669},
{-0.014653,-0.014653,-0.014653},
{0.029392,0.029392,0.029392},
{0.000248,0.000248,0.000248},
{-0.056611,-0.056611,-0.056611},
{0.174130,0.174130,0.174130},
{-0.188173,-0.188173,-0.188173},
{-0.001413,-0.001413,-0.001413},
{0.000311,0.000311,0.000311},
{-0.000213,-0.000213,-0.000213},
{0.021097,0.021097,0.021097},
{-0.153129,-0.153129,-0.153129},
{-0.021393,-0.021393,-0.021393},
{-0.039020,-0.039020,-0.039020},
{-0.049707,-0.049707,-0.049707},
{0.056538,0.056538,0.056538},
{-0.042629,-0.042629,-0.042629},
{-0.150722,-0.150722,-0.150722},
{0.137780,0.137780,0.137780},
{0.001528,0.001528,0.001528},
{-0.014275,-0.014275,-0.014275},
{-0.019317,-0.019317,-0.019317},
{-0.069600,-0.069600,-0.069600},
{0.022930,0.022930,0.022930},
{0.010279,0.010279,0.010279},
{-0.060249,-0.060249,-0.060249},
{-0.069076,-0.069076,-0.069076},
{-0.075108,-0.075108,-0.075108},
{-0.067485,-0.067485,-0.067485},
{-0.064497,-0.064497,-0.064497},
{-0.050460,-0.050460,-0.050460},
{-0.014018,-0.014018,-0.014018},
{-0.017437,-0.017437,-0.017437},
{-0.020094,-0.020094,-0.020094},
{-0.007365,-0.007365,-0.007365},
{-0.017537,-0.017537,-0.017537},
{-0.000198,-0.000198,-0.000198},
{0.009638,0.009638,0.009638},
{0.002673,0.002673,0.002673},
{-0.012465,-0.012465,-0.012465},
{0.001712,0.001712,0.001712},
{0.003057,0.003057,0.003057},
{-0.040921,-0.040921,-0.040921},
{-0.024289,-0.024289,-0.024289},
{-0.052246,-0.052246,-0.052246},
{0.153353,0.153353,0.153353},
{0.044276,0.044276,0.044276},
{0.039655,0.039655,0.039655},
{-0.042708,-0.042708,-0.042708},
{-0.006095,-0.006095,-0.006095},
{-0.002981,-0.002981,-0.002981},
{0.013919,0.013919,0.013919},
{-0.014107,-0.014107,-0.014107},
{-0.001615,-0.001615,-0.001615},
{-0.075251,-0.075251,-0.075251},
{0.001195,0.001195,0.001195},
{0.001247,0.001247,0.001247},
{0.001220,0.001220,0.001220},
{0.039767,0.039767,0.039767},
{0.008485,0.008485,0.008485},
{-0.091408,-0.091408,-0.091408},
{0.027862,0.027862,0.027862},
{0.030249,0.030249,0.030249},
{0.025317,0.025317,0.025317},
{-0.003517,-0.003517,-0.003517},
{-0.102132,-0.102132,-0.102132},
{0.077066,0.077066,0.077066},
{-0.012301,-0.012301,-0.012301},
{-0.016903,-0.016903,-0.016903},
{-0.028173,-0.028173,-0.028173},
{-0.067360,-0.067360,-0.067360},
{-0.042108,-0.042108,-0.042108},
{0.092212,0.092212,0.092212},
{0.041657,0.041657,0.041657},
{0.026184,0.026184,0.026184},
{0.020571,0.020571,0.020571},
{0.026965,0.026965,0.026965},
{0.016468,0.016468,0.016468},
{0.004644,0.004644,0.004644},
{-0.007238,-0.007238,-0.007238},
{-0.014690,-0.014690,-0.014690},
{-0.001311,-0.001311,-0.001311},
{-0.000594,-0.000594,-0.000594},
{0.002697,0.002697,0.002697},
{-0.000079,-0.000079,-0.000079},
{0.020188,0.020188,0.020188},
{-0.007042,-0.007042,-0.007042},
{-0.021661,-0.021661,-0.021661},
{-0.027080,-0.027080,-0.027080},
{-0.069313,-0.069313,-0.069313},
{-0.049895,-0.049895,-0.049895},
{0.145474,0.145474,0.145474},
{0.076137,0.076137,0.076137},
{-0.050853,-0.050853,-0.050853},
{-0.033760,-0.033760,-0.033760},
{-0.019551,-0.019551,-0.019551},
{0.027494,0.027494,0.027494},
{0.024287,0.024287,0.024287},
{-0.007165,-0.007165,-0.007165},
{-0.006895,-0.006895,-0.006895},
{-0.017039,-0.017039,-0.017039},
{-0.048103,-0.048103,-0.048103},
{-0.065602,-0.065602,-0.065602},
{0.000259,0.000259,0.000259},
{0.000207,0.000207,0.000207},
{0.000195,0.000195,0.000195},
{-0.049894,-0.049894,-0.049894},
{-0.026359,-0.026359,-0.026359},
{0.066681,0.066681,0.066681},
{-0.009637,-0.009637,-0.009637},
{-0.003181,-0.003181,-0.003181},
{0.044200,0.044200,0.044200},
{0.000010,0.000010,0.000010},
{0.019312,0.019312,0.019312},
{-0.016949,-0.016949,-0.016949},
{-0.001622,-0.001622,-0.001622},
{0.004480,0.004480,0.004480},
{-0.001948,-0.001948,-0.001948},
{0.039457,0.039457,0.039457},
{0.006676,0.006676,0.006676},
{0.007859,0.007859,0.007859},
{-0.019080,-0.019080,-0.019080},
{0.018618,0.018618,0.018618},
{-0.017174,-0.017174,-0.017174},
{-0.046505,-0.046505,-0.046505},
{-0.024330,-0.024330,-0.024330},
{-0.030492,-0.030492,-0.030492},
{0.005023,0.005023,0.005023},
{-0.016225,-0.016225,-0.016225},
{-0.022873,-0.022873,-0.022873},
{-0.006801,-0.006801,-0.006801},
{-0.016782,-0.016782,-0.016782},
{0.015360,0.015360,0.015360},
{0.011774,0.011774,0.011774},
{0.030070,0.030070,0.030070},
{0.005956,0.005956,0.005956},
{-0.097113,-0.097113,-0.097113},
{0.089547,0.089547,0.089547},
{-0.107473,-0.107473,-0.107473},
{-0.083577,-0.083577,-0.083577},
{0.161223,0.161223,0.161223},
{-0.073633,-0.073633,-0.073633},
{-0.005280,-0.005280,-0.005280},
{0.051104,0.051104,0.051104},
{0.030556,0.030556,0.030556},
{-0.011181,-0.011181,-0.011181},
{0.010749,0.010749,0.010749},
{0.020110,0.020110,0.020110},
{0.183498,0.183498,0.183498},
{-0.210159,-0.210159,-0.210159},
{0.010827,0.010827,0.010827},
{0.000029,0.000029,0.000029},
{0.000185,0.000185,0.000185},
{0.000610,0.000610,0.000610},
{0.045952,0.045952,0.045952},
{-0.123246,-0.123246,-0.123246},
{0.091940,0.091940,0.091940},
{-0.111421,-0.111421,-0.111421},
{0.047522,0.047522,0.047522},
{0.001875,0.001875,0.001875},
{0.082655,0.082655,0.082655},
{-0.144529,-0.144529,-0.144529},
{-0.021667,-0.021667,-0.021667},
{0.013850,0.013850,0.013850},
{-0.006670,-0.006670,-0.006670},
{-0.016459,-0.016459,-0.016459},
{-0.051868,-0.051868,-0.051868},
{0.001893,0.001893,0.001893},
{-0.005422,-0.005422,-0.005422},
{-0.044482,-0.044482,-0.044482},
{-0.056009,-0.056009,-0.056009},
{-0.055374,-0.055374,-0.055374},
{-0.027044,-0.027044,-0.027044},
{-0.033171,-0.033171,-0.033171},
{-0.034086,-0.034086,-0.034086},
{-0.019518,-0.019518,-0.019518},
{-0.015482,-0.015482,-0.015482},
{-0.015110,-0.015110,-0.015110},
{-0.009048,-0.009048,-0.009048},
{0.007737,0.007737,0.007737},
{-0.012248,-0.012248,-0.012248},
{-0.004434,-0.004434,-0.004434},
{-0.001609,-0.001609,-0.001609},
{-0.008224,-0.008224,-0.008224},
{-0.025354,-0.025354,-0.025354},
{-0.002009,-0.002009,-0.002009},
{-0.024309,-0.024309,-0.024309},
{-0.015011,-0.015011,-0.015011},
{-0.030939,-0.030939,-0.030939},
{-0.044405,-0.044405,-0.044405},
{0.044405,0.044405,0.044405},
{0.020159,0.020159,0.020159},
{0.000048,0.000048,0.000048},
{-0.004678,-0.004678,-0.004678},
{0.005527,0.005527,0.005527},
{0.004509,0.004509,0.004509},
{-0.019760,-0.019760,-0.019760},
{-0.013852,-0.013852,-0.013852},
{-0.040529,-0.040529,-0.040529},
{0.000644,0.000644,0.000644},
{0.000557,0.000557,0.000557},
{0.000742,0.000742,0.000742},
{0.029728,0.029728,0.029728},
{0.062681,0.062681,0.062681},
{0.002180,0.002180,0.002180},
{0.031745,0.031745,0.031745},
{0.016752,0.016752,0.016752},
{0.004397,0.004397,0.004397},
{-0.016686,-0.016686,-0.016686},
{-0.052750,-0.052750,-0.052750},
{-0.060675,-0.060675,-0.060675},
{-0.009179,-0.009179,-0.009179},
{-0.008919,-0.008919,-0.008919},
{-0.011898,-0.011898,-0.011898},
{-0.029438,-0.029438,-0.029438},
{-0.016723,-0.016723,-0.016723},
{0.002749,0.002749,0.002749},
{-0.017227,-0.017227,-0.017227},
{-0.025376,-0.025376,-0.025376},
{-0.022544,-0.022544,-0.022544},
{-0.038873,-0.038873,-0.038873},
{-0.058569,-0.058569,-0.058569},
{-0.020932,-0.020932,-0.020932},
{0.049456,0.049456,0.049456},
{0.057657,0.057657,0.057657},
{0.006824,0.006824,0.006824},
{0.014758,0.014758,0.014758},
{0.005407,0.005407,0.005407},
{-0.006768,-0.006768,-0.006768},
{-0.088038,-0.088038,-0.088038},
{-0.178391,-0.178391,-0.178391},
{-0.081027,-0.081027,-0.081027},
{0.015216,0.015216,0.015216},
{-0.006721,-0.006721,-0.006721},
{0.010882,0.010882,0.010882},
{0.022889,0.022889,0.022889},
{0.022623,0.022623,0.022623},
{0.013329,0.013329,0.013329},
{-0.023621,-0.023621,-0.023621},
{-0.010114,-0.010114,-0.010114},
{-0.020946,-0.020946,-0.020946},
{-0.156755,-0.156755,-0.156755},
{-0.243126,-0.243126,-0.243126},
{-0.110780,-0.110780,-0.110780},
{0.009140,0.009140,0.009140},
{0.005229,0.005229,0.005229},
{0.020221,0.020221,0.020221},
{0.000970,0.000970,0.000970},
{0.001629,0.001629,0.001629},
{0.001863,0.001863,0.001863},
{-0.021734,-0.021734,-0.021734},
{-0.013591,-0.013591,-0.013591},
{-0.032258,-0.032258,-0.032258},
{-0.010507,-0.010507,-0.010507},
{-0.001125,-0.001125,-0.001125},
{-0.020189,-0.020189,-0.020189},
{0.006643,0.006643,0.006643},
{-0.001155,-0.001155,-0.001155},
{0.016341,0.016341,0.016341},
{-0.015369,-0.015369,-0.015369},
{0.013611,0.013611,0.013611},
{-0.040418,-0.040418,-0.040418},
{0.039537,0.039537,0.039537},
{0.018926,0.018926,0.018926},
{0.054751,0.054751,0.054751},
{-0.010126,-0.010126,-0.010126},
{-0.006713,-0.006713,-0.006713},
{-0.013054,-0.013054,-0.013054},
{-0.008206,-0.008206,-0.008206},
{-0.012062,-0.012062,-0.012062},
{-0.008180,-0.008180,-0.008180},
{0.000722,0.000722,0.000722},
{-0.001972,-0.001972,-0.001972},
{-0.004902,-0.004902,-0.004902},
{-0.015624,-0.015624,-0.015624},
{-0.018183,-0.018183,-0.018183},
{-0.022509,-0.022509,-0.022509},
{0.005720,0.005720,0.005720},
{-0.000318,-0.000318,-0.000318},
{0.006173,0.006173,0.006173},
{-0.005206,-0.005206,-0.005206},
{-0.000005,-0.000005,-0.000005},
{-0.007504,-0.007504,-0.007504},
{-0.002227,-0.002227,-0.002227},
{-0.019453,-0.019453,-0.019453},
{-0.045863,-0.045863,-0.045863},
{0.057366,0.057366,0.057366},
{0.022027,0.022027,0.022027},
{-0.057704,-0.057704,-0.057704},
{-0.001405,-0.001405,-0.001405},
{-0.006943,-0.006943,-0.006943},
{-0.016605,-0.016605,-0.016605},
{-0.017495,-0.017495,-0.017495},
{0.028522,0.028522,0.028522},
{-0.016741,-0.016741,-0.016741},
{0.000211,0.000211,0.000211},
{0.000541,0.000541,0.000541},
{0.000522,0.000522,0.000522},
{-0.026973,-0.026973,-0.026973},
{-0.052327,-0.052327,-0.052327},
{0.000471,0.000471,0.000471},
{-0.015281,-0.015281,-0.015281},
{0.000499,0.000499,0.000499},
{-0.015835,-0.015835,-0.015835},
{-0.022519,-0.022519,-0.022519},
{-0.045151,-0.045151,-0.045151},
{-0.025605,-0.025605,-0.025605},
{-0.004724,-0.004724,-0.004724},
{-0.005647,-0.005647,-0.005647},
{-0.012066,-0.012066,-0.012066},
{-0.016071,-0.016071,-0.016071},
{-0.010862,-0.010862,-0.010862},
{-0.029583,-0.029583,-0.029583},
{-0.022273,-0.022273,-0.022273},
{-0.020639,-0.020639,-0.020639},
{-0.010854,-0.010854,-0.010854},
{-0.041279,-0.041279,-0.041279},
{-0.044968,-0.044968,-0.044968},
{-0.031623,-0.031623,-0.031623},
{-0.047449,-0.047449,-0.047449},
{-0.065497,-0.065497,-0.065497},
{-0.064076,-0.064076,-0.064076},
{-0.032881,-0.032881,-0.032881},
{-0.006305,-0.006305,-0.006305},
{-0.003010,-0.003010,-0.003010},
{-0.000480,-0.000480,-0.000480},
{-0.005989,-0.005989,-0.005989},
{-0.014341,-0.014341,-0.014341},
{0.066218,0.066218,0.066218},
{0.034998,0.034998,0.034998},
{0.070344,0.070344,0.070344},
{0.028291,0.028291,0.028291},
{0.027521,0.027521,0.027521},
{0.007502,0.007502,0.007502},
{-0.028788,-0.028788,-0.028788},
{-0.117095,-0.117095,-0.117095},
{-0.035911,-0.035911,-0.035911},
{0.016926,0.016926,0.016926},
{-0.001810,-0.001810,-0.001810},
{-0.009559,-0.009559,-0.009559},
{-0.114202,-0.114202,-0.114202},
{-0.133945,-0.133945,-0.133945},
{-0.051245,-0.051245,-0.051245},
{0.000839,0.000839,0.000839},
{0.001168,0.001168,0.001168},
{0.001074,0.001074,0.001074},
{-0.017276,-0.017276,-0.017276},
{-0.045664,-0.045664,-0.045664},
{-0.029471,-0.029471,-0.029471},
{0.070926,0.070926,0.070926},
{0.045130,0.045130,0.045130},
{0.045958,0.045958,0.045958},
{-0.025651,-0.025651,-0.025651},
{0.051434,0.051434,0.051434},
{0.033157,0.033157,0.033157},
{-0.008799,-0.008799,-0.008799},
{-0.012709,-0.012709,-0.012709},
{-0.015444,-0.015444,-0.015444},
{0.023002,0.023002,0.023002},
{0.013264,0.013264,0.013264},
{0.028055,0.028055,0.028055},
{-0.006667,-0.006667,-0.006667},
{0.009052,0.009052,0.009052},
{0.004786,0.004786,0.004786},
{-0.062265,-0.062265,-0.062265},
{-0.010789,-0.010789,-0.010789},
{0.010531,0.010531,0.010531},
{0.043489,0.043489,0.043489},
{-0.028212,-0.028212,-0.028212},
{-0.008657,-0.008657,-0.008657},
{0.027047,0.027047,0.027047},
{-0.017522,-0.017522,-0.017522},
{-0.015426,-0.015426,-0.015426},
{0.012455,0.012455,0.012455},
{-0.005966,-0.005966,-0.005966},
{0.006731,0.006731,0.006731},
{-0.045737,-0.045737,-0.045737},
{-0.016377,-0.016377,-0.016377},
{0.014244,0.014244,0.014244},
{-0.115325,-0.115325,-0.115325},
{0.152990,0.152990,0.152990},
{-0.137911,-0.137911,-0.137911},
{0.009220,0.009220,0.009220},
{0.093731,0.093731,0.093731},
{-0.049887,-0.049887,-0.049887},
{0.003641,0.003641,0.003641},
{-0.012710,-0.012710,-0.012710},
{0.013452,0.013452,0.013452},
{0.033583,0.033583,0.033583},
{-0.014018,-0.014018,-0.014018},
{-0.018447,-0.018447,-0.018447},
{-0.001309,-0.001309,-0.001309},
{-0.001659,-0.001659,-0.001659},
{-0.002176,-0.002176,-0.002176},
{0.144648,0.144648,0.144648},
{-0.332965,-0.332965,-0.332965},
{0.132820,0.132820,0.132820},
{-0.027561,-0.027561,-0.027561},
{0.006656,0.006656,0.006656},
{0.018293,0.018293,0.018293},
{-0.003182,-0.003182,-0.003182},
{-0.054807,-0.054807,-0.054807},
{0.015913,0.015913,0.015913},
{0.019930,0.019930,0.019930},
{-0.005136,-0.005136,-0.005136},
{-0.016992,-0.016992,-0.016992},
{-0.007426,-0.007426,-0.007426},
{0.077224,0.077224,0.077224},
{-0.018568,-0.018568,-0.018568},
{-0.009657,-0.009657,-0.009657},
{-0.007648,-0.007648,-0.007648},
{-0.006913,-0.006913,-0.006913},
{-0.064921,-0.064921,-0.064921},
{-0.061061,-0.061061,-0.061061},
{-0.065633,-0.065633,-0.065633},
{-0.013479,-0.013479,-0.013479},
{-0.019874,-0.019874,-0.019874},
{-0.026477,-0.026477,-0.026477},
{0.004572,0.004572,0.004572},
{0.027486,0.027486,0.027486},
{0.002542,0.002542,0.002542},
{-0.002018,-0.002018,-0.002018},
{-0.006750,-0.006750,-0.006750},
{-0.010969,-0.010969,-0.010969},
{-0.013861,-0.013861,-0.013861},
{0.006183,0.006183,0.006183},
{0.012419,0.012419,0.012419},
{0.016750,0.016750,0.016750},
{0.031213,0.031213,0.031213},
{0.000566,0.000566,0.000566},
{0.033473,0.033473,0.033473},
{-0.006844,-0.006844,-0.006844},
{-0.038991,-0.038991,-0.038991},
{0.005550,0.005550,0.005550},
{0.008963,0.008963,0.008963},
{-0.020583,-0.020583,-0.020583},
{0.006422,0.006422,0.006422},
{0.019594,0.019594,0.019594},
{0.032587,0.032587,0.032587},
{0.002439,0.002439,0.002439},
{0.002115,0.002115,0.002115},
{0.001969,0.001969,0.001969},
{-0.026914,-0.026914,-0.026914},
{-0.039348,-0.039348,-0.039348},
{-0.016451,-0.016451,-0.016451},
{-0.005300,-0.005300,-0.005300},
{-0.019064,-0.019064,-0.019064},
{-0.013846,-0.013846,-0.013846},
{-0.001181,-0.001181,-0.001181},
{-0.001282,-0.001282,-0.001282},
{0.017051,0.017051,0.017051},
{-0.026597,-0.026597,-0.026597},
{-0.034156,-0.034156,-0.034156},
{-0.017102,-0.017102,-0.017102},
{0.049987,0.049987,0.049987},
{0.083491,0.083491,0.083491},
{0.076294,0.076294,0.076294},
{-0.005704,-0.005704,-0.005704},
{-0.007026,-0.007026,-0.007026},
{0.033781,0.033781,0.033781},
{0.069820,0.069820,0.069820},
{0.067271,0.067271,0.067271},
{0.088408,0.088408,0.088408},
{0.018303,0.018303,0.018303},
{0.038279,0.038279,0.038279},
{0.053815,0.053815,0.053815},
{-0.021941,-0.021941,-0.021941},
{0.030175,0.030175,0.030175},
{0.034915,0.034915,0.034915},
{0.026954,0.026954,0.026954},
{0.013523,0.013523,0.013523},
{0.026025,0.026025,0.026025},
{-0.002269,-0.002269,-0.002269},
{0.084860,0.084860,0.084860},
{0.026167,0.026167,0.026167},
{-0.042239,-0.042239,-0.042239},
{0.082213,0.082213,0.082213},
{0.013550,0.013550,0.013550},
{-0.007453,-0.007453,-0.007453},
{-0.035598,-0.035598,-0.035598},
{-0.130025,-0.130025,-0.130025},
{-0.016897,-0.016897,-0.016897},
{0.013240,0.013240,0.013240},
{0.058585,0.058585,0.058585},
{-0.028313,-0.028313,-0.028313},
{0.047244,0.047244,0.047244},
{0.125862,0.125862,0.125862},
{-0.002833,-0.002833,-0.002833},
{-0.001204,-0.001204,-0.001204},
{-0.000108,-0.000108,-0.000108},
{-0.020002,-0.020002,-0.020002},
{-0.005735,-0.005735,-0.005735},
{-0.017774,-0.017774,-0.017774},
{-0.036422,-0.036422,-0.036422},
{0.007295,0.007295,0.007295},
{-0.075042,-0.075042,-0.075042},
{-0.108310,-0.108310,-0.108310},
{0.058422,0.058422,0.058422},
{0.127038,0.127038,0.127038},
{0.039773,0.039773,0.039773},
{0.027292,0.027292,0.027292},
{-0.019775,-0.019775,-0.019775},
{0.014051,0.014051,0.014051},
{0.101316,0.101316,0.101316},
{-0.012049,-0.012049,-0.012049},
{-0.013681,-0.013681,-0.013681},
{-0.054202,-0.054202,-0.054202},
{-0.022976,-0.022976,-0.022976},
{-0.015596,-0.015596,-0.015596},
{-0.041447,-0.041447,-0.041447},
{-0.035610,-0.035610,-0.035610},
{-0.052776,-0.052776,-0.052776},
{-0.025105,-0.025105,-0.025105},
{0.027041,0.027041,0.027041},
{0.011984,0.011984,0.011984},
{-0.022689,-0.022689,-0.022689},
{-0.017033,-0.017033,-0.017033},
{-0.009497,-0.009497,-0.009497},
{-0.017083,-0.017083,-0.017083},
{-0.017378,-0.017378,-0.017378},
{0.119529,0.119529,0.119529},
{-0.185319,-0.185319,-0.185319},
{-0.082700,-0.082700,-0.082700},
{0.062284,0.062284,0.062284},
{-0.235544,-0.235544,-0.235544},
{-0.132768,-0.132768,-0.132768},
{-0.088331,-0.088331,-0.088331},
{-0.071923,-0.071923,-0.071923},
{0.017134,0.017134,0.017134},
{0.007743,0.007743,0.007743},
{-0.014484,-0.014484,-0.014484},
{-0.025434,-0.025434,-0.025434},
{-0.088944,-0.088944,-0.088944},
{0.087903,0.087903,0.087903},
{-0.062445,-0.062445,-0.062445},
{0.001950,0.001950,0.001950},
{0.001192,0.001192,0.001192},
{0.000254,0.000254,0.000254},
{-0.035462,-0.035462,-0.035462},
{0.065301,0.065301,0.065301},
{0.006667,0.006667,0.006667},
{0.108017,0.108017,0.108017},
{-0.113201,-0.113201,-0.113201},
{0.011874,0.011874,0.011874},
{0.011675,0.011675,0.011675},
{0.097749,0.097749,0.097749},
{-0.018777,-0.018777,-0.018777},
{-0.019313,-0.019313,-0.019313},
{-0.010835,-0.010835,-0.010835},
{0.019772,0.019772,0.019772},
{0.038058,0.038058,0.038058},
{-0.000532,-0.000532,-0.000532},
{-0.082535,-0.082535,-0.082535},
{0.006924,0.006924,0.006924},
{-0.004394,-0.004394,-0.004394},
{-0.028257,-0.028257,-0.028257},
{-0.018671,-0.018671,-0.018671},
{-0.020663,-0.020663,-0.020663},
{-0.026884,-0.026884,-0.026884},
{0.004246,0.004246,0.004246},
{-0.027929,-0.027929,-0.027929},
{-0.032648,-0.032648,-0.032648},
{-0.003601,-0.003601,-0.003601},
{-0.014892,-0.014892,-0.014892},
{0.006802,0.006802,0.006802},
{-0.010717,-0.010717,-0.010717},
{0.000173,0.000173,0.000173},
{0.006790,0.006790,0.006790},
{0.012921,0.012921,0.012921},
{0.046426,0.046426,0.046426},
{-0.022597,-0.022597,-0.022597},
{-0.082722,-0.082722,-0.082722},
{-0.051713,-0.051713,-0.051713},
{-0.010263,-0.010263,-0.010263},
{0.010569,0.010569,0.010569},
{-0.030464,-0.030464,-0.030464},
{-0.005212,-0.005212,-0.005212},
{0.003008,0.003008,0.003008},
{-0.015837,-0.015837,-0.015837},
{-0.030872,-0.030872,-0.030872},
{-0.016848,-0.016848,-0.016848},
{-0.009692,-0.009692,-0.009692},
{0.005523,0.005523,0.005523},
{-0.000235,-0.000235,-0.000235},
{-0.000309,-0.000309,-0.000309},
{-0.000235,-0.000235,-0.000235},
{0.058405,0.058405,0.058405},
{-0.032787,-0.032787,-0.032787},
{-0.021241,-0.021241,-0.021241},
{0.006964,0.006964,0.006964},
{-0.019950,-0.019950,-0.019950},
{0.034333,0.034333,0.034333},
{-0.143819,-0.143819,-0.143819},
{-0.114969,-0.114969,-0.114969},
{-0.001688,-0.001688,-0.001688},
{0.005579,0.005579,0.005579},
{0.013926,0.013926,0.013926},
{0.032134,0.032134,0.032134},
{0.020512,0.020512,0.020512},
{0.001015,0.001015,0.001015},
{0.001122,0.001122,0.001122},
{0.052550,0.052550,0.052550},
{0.019754,0.019754,0.019754},
{-0.058460,-0.058460,-0.058460},
{0.008807,0.008807,0.008807},
{-0.024377,-0.024377,-0.024377},
{-0.059410,-0.059410,-0.059410},
{0.017221,0.017221,0.017221},
{-0.014163,-0.014163,-0.014163},
{-0.038875,-0.038875,-0.038875},
{-0.002301,-0.002301,-0.002301},
{-0.013338,-0.013338,-0.013338},
{-0.021163,-0.021163,-0.021163},
{0.011076,0.011076,0.011076},
{-0.005976,-0.005976,-0.005976},
{-0.006946,-0.006946,-0.006946},
{0.010092,0.010092,0.010092},
{0.023373,0.023373,0.023373},
{-0.005687,-0.005687,-0.005687},
{0.056148,0.056148,0.056148},
{0.040380,0.040380,0.040380},
{0.051569,0.051569,0.051569},
{0.035068,0.035068,0.035068},
{0.041640,0.041640,0.041640},
{-0.040359,-0.040359,-0.040359},
{-0.014991,-0.014991,-0.014991},
{-0.006869,-0.006869,-0.006869},
{0.013857,0.013857,0.013857},
{0.022531,0.022531,0.022531},
{0.002770,0.002770,0.002770},
{0.004387,0.004387,0.004387},
{0.000069,0.000069,0.000069},
{0.000852,0.000852,0.000852},
{0.002049,0.002049,0.002049},
{-0.042934,-0.042934,-0.042934},
{-0.042748,-0.042748,-0.042748},
{-0.055833,-0.055833,-0.055833},
{-0.056894,-0.056894,-0.056894},
{-0.032109,-0.032109,-0.032109},
{0.039942,0.039942,0.039942},
{-0.022806,-0.022806,-0.022806},
{-0.247670,-0.247670,-0.247670},
{-0.187911,-0.187911,-0.187911},
{-0.031808,-0.031808,-0.031808},
{-0.018179,-0.018179,-0.018179},
{-0.011287,-0.011287,-0.011287},
{-0.056574,-0.056574,-0.056574},
{0.025177,0.025177,0.025177},
{0.045506,0.045506,0.045506},
{0.014208,0.014208,0.014208},
{-0.009405,-0.009405,-0.009405},
{0.002015,0.002015,0.002015},
{-0.007492,-0.007492,-0.007492},
{-0.020880,-0.020880,-0.020880},
{-0.014889,-0.014889,-0.014889},
{0.033313,0.033313,0.033313},
{-0.023666,-0.023666,-0.023666},
{-0.031357,-0.031357,-0.031357},
{-0.044380,-0.044380,-0.044380},
{-0.205750,-0.205750,-0.205750},
{0.009393,0.009393,0.009393},
{-0.043473,-0.043473,-0.043473},
{0.016905,0.016905,0.016905},
{0.021948,0.021948,0.021948},
{-0.014463,-0.014463,-0.014463},
{0.009060,0.009060,0.009060},
{0.000292,0.000292,0.000292},
{-0.000882,-0.000882,-0.000882},
{0.009364,0.009364,0.009364},
{-0.003783,-0.003783,-0.003783},
{-0.006475,-0.006475,-0.006475},
{-0.019632,-0.019632,-0.019632},
{0.001362,0.001362,0.001362},
{0.012430,0.012430,0.012430},
{-0.039499,-0.039499,-0.039499},
{-0.014269,-0.014269,-0.014269},
{-0.001502,-0.001502,-0.001502},
{0.002204,0.002204,0.002204},
{0.001825,0.001825,0.001825},
{0.000042,0.000042,0.000042},
{-0.000931,-0.000931,-0.000931},
{-0.000854,-0.000854,-0.000854},
{-0.004258,-0.004258,-0.004258},
{0.002707,0.002707,0.002707},
{-0.003492,-0.003492,-0.003492},
{0.001819,0.001819,0.001819},
{-0.003310,-0.003310,-0.003310},
{0.002506,0.002506,0.002506},
{-0.002863,-0.002863,-0.002863},
{0.004757,0.004757,0.004757},
{-0.002521,-0.002521,-0.002521},
{0.032416,0.032416,0.032416},
{0.072187,0.072187,0.072187},
{0.046945,0.046945,0.046945},
{0.034069,0.034069,0.034069},
{-0.005282,-0.005282,-0.005282},
{0.019679,0.019679,0.019679},
{-0.000083,-0.000083,-0.000083},
{-0.019463,-0.019463,-0.019463},
{-0.020527,-0.020527,-0.020527},
{-0.021929,-0.021929,-0.021929},
{-0.022824,-0.022824,-0.022824},
{-0.015074,-0.015074,-0.015074},
{0.002810,0.002810,0.002810},
{0.001620,0.001620,0.001620},
{-0.001278,-0.001278,-0.001278},
{-0.015094,-0.015094,-0.015094},
{-0.002839,-0.002839,-0.002839},
{0.008450,0.008450,0.008450},
{0.012673,0.012673,0.012673},
{0.029898,0.029898,0.029898},
{0.030284,0.030284,0.030284},
{-0.008584,-0.008584,-0.008584},
{-0.041679,-0.041679,-0.041679},
{0.050209,0.050209,0.050209},
{0.090867,0.090867,0.090867},
{0.080206,0.080206,0.080206},
{0.016245,0.016245,0.016245},
{0.012562,0.012562,0.012562},
{-0.011327,-0.011327,-0.011327},
{-0.007048,-0.007048,-0.007048},
{-0.005198,-0.005198,-0.005198},
{0.012280,0.012280,0.012280},
{0.030282,0.030282,0.030282},
{-0.056383,-0.056383,-0.056383},
{-0.167353,-0.167353,-0.167353},
{-0.088691,-0.088691,-0.088691},
{0.000337,0.000337,0.000337},
{0.000577,0.000577,0.000577},
{0.000801,0.000801,0.000801},
{-0.054597,-0.054597,-0.054597},
{-0.068040,-0.068040,-0.068040},
{-0.060117,-0.060117,-0.060117},
{0.035788,0.035788,0.035788},
{0.057868,0.057868,0.057868},
{0.117474,0.117474,0.117474},
{-0.131120,-0.131120,-0.131120},
{-0.122685,-0.122685,-0.122685},
{-0.043395,-0.043395,-0.043395},
{0.011748,0.011748,0.011748},
{0.006292,0.006292,0.006292},
{-0.002273,-0.002273,-0.002273},
{-0.029387,-0.029387,-0.029387},
{0.019584,0.019584,0.019584},
{0.049412,0.049412,0.049412},
{-0.006674,-0.006674,-0.006674},
{-0.003668,-0.003668,-0.003668},
{0.020447,0.020447,0.020447},
{-0.008893,-0.008893,-0.008893},
{-0.004103,-0.004103,-0.004103},
{-0.019104,-0.019104,-0.019104},
{-0.122381,-0.122381,-0.122381},
{-0.132282,-0.132282,-0.132282},
{0.023547,0.023547,0.023547},
{-0.098485,-0.098485,-0.098485},
{0.005830,0.005830,0.005830},
{0.000434,0.000434,0.000434},
{0.042973,0.042973,0.042973},
{0.053204,0.053204,0.053204},
{-0.054315,-0.054315,-0.054315},
{0.015158,0.015158,0.015158},
{0.016043,0.016043,0.016043},
{-0.004635,-0.004635,-0.004635},
{0.018102,0.018102,0.018102},
{0.003436,0.003436,0.003436},
{-0.004890,-0.004890,-0.004890},
{-0.012628,-0.012628,-0.012628},
{-0.007772,-0.007772,-0.007772},
{-0.004079,-0.004079,-0.004079},
{0.055058,0.055058,0.055058},
{0.102132,0.102132,0.102132},
{0.115604,0.115604,0.115604},
{0.007797,0.007797,0.007797},
{0.001535,0.001535,0.001535},
{0.005801,0.005801,0.005801},
{0.000048,0.000048,0.000048},
{0.000547,0.000547,0.000547},
{0.000618,0.000618,0.000618},
{-0.017691,-0.017691,-0.017691},
{-0.002079,-0.002079,-0.002079},
{-0.003998,-0.003998,-0.003998},
{-0.009006,-0.009006,-0.009006},
{0.000237,0.000237,0.000237},
{-0.002691,-0.002691,-0.002691},
{0.008781,0.008781,0.008781},
{0.004494,0.004494,0.004494},
{-0.002622,-0.002622,-0.002622},
{-0.023864,-0.023864,-0.023864},
{-0.059034,-0.059034,-0.059034},
{-0.060789,-0.060789,-0.060789},
{0.001567,0.001567,0.001567},
{0.017531,0.017531,0.017531},
{0.038181,0.038181,0.038181},
{-0.003404,-0.003404,-0.003404},
{-0.064239,-0.064239,-0.064239},
{-0.084728,-0.084728,-0.084728},
{-0.019381,-0.019381,-0.019381},
{-0.015915,-0.015915,-0.015915},
{-0.015389,-0.015389,-0.015389},
{-0.014495,-0.014495,-0.014495},
{-0.006098,-0.006098,-0.006098},
{-0.011128,-0.011128,-0.011128},
{0.091491,0.091491,0.091491},
{0.042981,0.042981,0.042981},
{0.005661,0.005661,0.005661},
{0.001057,0.001057,0.001057},
{0.006910,0.006910,0.006910},
{0.002370,0.002370,0.002370},
{0.098280,0.098280,0.098280},
{0.150779,0.150779,0.150779},
{0.128953,0.128953,0.128953},
{-0.034781,-0.034781,-0.034781},
{-0.107050,-0.107050,-0.107050},
{-0.049582,-0.049582,-0.049582},
{-0.178539,-0.178539,-0.178539},
{-0.030266,-0.030266,-0.030266},
{-0.034449,-0.034449,-0.034449},
{0.013349,0.013349,0.013349},
{0.025597,0.025597,0.025597},
{0.021201,0.021201,0.021201},
{0.050291,0.050291,0.050291},
{-0.003025,-0.003025,-0.003025},
{-0.009681,-0.009681,-0.009681},
{0.001454,0.001454,0.001454},
{0.001369,0.001369,0.001369},
{0.001337,0.001337,0.001337},
{-0.013052,-0.013052,-0.013052},
{-0.062911,-0.062911,-0.062911},
{0.038442,0.038442,0.038442},
{-0.032016,-0.032016,-0.032016},
{0.003501,0.003501,0.003501},
{0.006573,0.006573,0.006573},
{0.113176,0.113176,0.113176},
{0.047076,0.047076,0.047076},
{0.008037,0.008037,0.008037},
{0.007897,0.007897,0.007897},
{-0.006906,-0.006906,-0.006906},
{-0.015237,-0.015237,-0.015237},
{0.143505,0.143505,0.143505},
{0.126294,0.126294,0.126294},
{0.058138,0.058138,0.058138},
{0.005546,0.005546,0.005546},
{-0.013077,-0.013077,-0.013077},
{-0.006195,-0.006195,-0.006195},
{-0.000896,-0.000896,-0.000896},
{-0.012765,-0.012765,-0.012765},
{-0.037428,-0.037428,-0.037428},
{-0.000324,-0.000324,-0.000324},
{0.001735,0.001735,0.001735},
{0.023185,0.023185,0.023185},
{-0.077536,-0.077536,-0.077536},
{0.050553,0.050553,0.050553},
{0.031534,0.031534,0.031534},
{-0.008577,-0.008577,-0.008577},
{0.002572,0.002572,0.002572},
{-0.002256,-0.002256,-0.002256},
{-0.081516,-0.081516,-0.081516},
{-0.140506,-0.140506,-0.140506},
{0.203073,0.203073,0.203073},
{0.069469,0.069469,0.069469},
{0.070888,0.070888,0.070888},
{-0.137397,-0.137397,-0.137397},
{0.209225,0.209225,0.209225},
{-0.038705,-0.038705,-0.038705},
{-0.170581,-0.170581,-0.170581},
{0.002804,0.002804,0.002804},
{0.020560,0.020560,0.020560},
{0.015131,0.015131,0.015131},
{0.022689,0.022689,0.022689},
{0.077734,0.077734,0.077734},
{-0.124517,-0.124517,-0.124517},
{-0.001684,-0.001684,-0.001684},
{-0.000795,-0.000795,-0.000795},
{-0.000581,-0.000581,-0.000581},
{-0.131364,-0.131364,-0.131364},
{-0.071065,-0.071065,-0.071065},
{0.081575,0.081575,0.081575},
{-0.087008,-0.087008,-0.087008},
{-0.021586,-0.021586,-0.021586},
{0.122875,0.122875,0.122875},
{-0.175870,-0.175870,-0.175870},
{-0.185615,-0.185615,-0.185615},
{0.133673,0.133673,0.133673},
{0.000409,0.000409,0.000409},
{0.000534,0.000534,0.000534},
{-0.000228,-0.000228,-0.000228},
{-0.036011,-0.036011,-0.036011},
{0.038907,0.038907,0.038907},
{0.033105,0.033105,0.033105},
{-0.040984,-0.040984,-0.040984},
{-0.045773,-0.045773,-0.045773},
{-0.053539,-0.053539,-0.053539},
{0.020420,0.020420,0.020420},
{0.007544,0.007544,0.007544},
{-0.019146,-0.019146,-0.019146},
{-0.052151,-0.052151,-0.052151},
{-0.044303,-0.044303,-0.044303},
{-0.013592,-0.013592,-0.013592},
{-0.030017,-0.030017,-0.030017},
{-0.014324,-0.014324,-0.014324},
{0.013707,0.013707,0.013707},
{0.015190,0.015190,0.015190},
{0.004078,0.004078,0.004078},
{0.012173,0.012173,0.012173},
{-0.010333,-0.010333,-0.010333},
{-0.082322,-0.082322,-0.082322},
{0.101374,0.101374,0.101374},
{-0.079737,-0.079737,-0.079737},
{0.003451,0.003451,0.003451},
{0.010091,0.010091,0.010091},
{0.026747,0.026747,0.026747},
{0.000581,0.000581,0.000581},
{0.094804,0.094804,0.094804},
{-0.023100,-0.023100,-0.023100},
{-0.009609,-0.009609,-0.009609},
{0.028666,0.028666,0.028666},
{0.213545,0.213545,0.213545},
{0.187318,0.187318,0.187318},
{0.134033,0.134033,0.134033},
{-0.002912,-0.002912,-0.002912},
{-0.002272,-0.002272,-0.002272},
{-0.001603,-0.001603,-0.001603},
{-0.015539,-0.015539,-0.015539},
{0.017430,0.017430,0.017430},
{-0.069892,-0.069892,-0.069892},
{-0.195656,-0.195656,-0.195656},
{-0.218824,-0.218824,-0.218824},
{-0.160323,-0.160323,-0.160323},
{-0.066500,-0.066500,-0.066500},
{-0.173903,-0.173903,-0.173903},
{-0.142362,-0.142362,-0.142362},
{0.002340,0.002340,0.002340},
{-0.003555,-0.003555,-0.003555},
{-0.001016,-0.001016,-0.001016},
{-0.027458,-0.027458,-0.027458},
{0.015470,0.015470,0.015470},
{0.155968,0.155968,0.155968},
{0.042944,0.042944,0.042944},
{0.047422,0.047422,0.047422},
{0.041388,0.041388,0.041388},
{0.016252,0.016252,0.016252},
{0.008365,0.008365,0.008365},
{0.011675,0.011675,0.011675},
{0.005910,0.005910,0.005910},
{0.016920,0.016920,0.016920},
{0.026326,0.026326,0.026326},
{0.002638,0.002638,0.002638},
{-0.009219,-0.009219,-0.009219},
{-0.019780,-0.019780,-0.019780},
{0.043037,0.043037,0.043037},
{0.020242,0.020242,0.020242},
{0.002430,0.002430,0.002430},
{-0.071595,-0.071595,-0.071595},
{-0.098090,-0.098090,-0.098090},
{-0.125804,-0.125804,-0.125804},
{0.061829,0.061829,0.061829},
{0.017398,0.017398,0.017398},
{0.006417,0.006417,0.006417},
{0.065153,0.065153,0.065153},
{0.040217,0.040217,0.040217},
{-0.030077,-0.030077,-0.030077},
{0.003476,0.003476,0.003476},
{0.006055,0.006055,0.006055},
{0.016915,0.016915,0.016915},
{0.080341,0.080341,0.080341},
{0.057970,0.057970,0.057970},
{0.085054,0.085054,0.085054},
{-0.000330,-0.000330,-0.000330},
{0.000127,0.000127,0.000127},
{0.000159,0.000159,0.000159},
{-0.038377,-0.038377,-0.038377},
{-0.025089,-0.025089,-0.025089},
{0.050253,0.050253,0.050253},
{-0.061399,-0.061399,-0.061399},
{-0.082953,-0.082953,-0.082953},
{-0.070549,-0.070549,-0.070549},
{0.044351,0.044351,0.044351},
{-0.001427,-0.001427,-0.001427},
{0.026211,0.026211,0.026211},
{-0.004556,-0.004556,-0.004556},
{-0.013259,-0.013259,-0.013259},
{-0.028010,-0.028010,-0.028010},
{-0.086396,-0.086396,-0.086396},
{-0.082400,-0.082400,-0.082400},
{-0.044783,-0.044783,-0.044783},
{-0.018555,-0.018555,-0.018555},
{-0.020079,-0.020079,-0.020079},
{-0.019466,-0.019466,-0.019466},
{-0.008941,-0.008941,-0.008941},
{-0.002979,-0.002979,-0.002979},
{0.001682,0.001682,0.001682},
{0.014052,0.014052,0.014052},
{0.000947,0.000947,0.000947},
{0.008617,0.008617,0.008617},
{0.016847,0.016847,0.016847},
{-0.035085,-0.035085,-0.035085},
{-0.052601,-0.052601,-0.052601},
{0.018976,0.018976,0.018976},
{0.024716,0.024716,0.024716},
{0.033396,0.033396,0.033396},
{-0.023861,-0.023861,-0.023861},
{0.012710,0.012710,0.012710},
{0.006872,0.006872,0.006872},
{-0.038836,-0.038836,-0.038836},
{-0.078989,-0.078989,-0.078989},
{-0.107565,-0.107565,-0.107565},
{0.054623,0.054623,0.054623},
{0.056688,0.056688,0.056688},
{0.028607,0.028607,0.028607},
{0.002746,0.002746,0.002746},
{0.020276,0.020276,0.020276},
{0.048502,0.048502,0.048502},
{0.006971,0.006971,0.006971},
{-0.023269,-0.023269,-0.023269},
{0.006131,0.006131,0.006131},
{-0.002070,-0.002070,-0.002070},
{-0.002135,-0.002135,-0.002135},
{-0.002100,-0.002100,-0.002100},
{0.095756,0.095756,0.095756},
{-0.053133,-0.053133,-0.053133},
{-0.055529,-0.055529,-0.055529},
{0.002550,0.002550,0.002550},
{-0.009968,-0.009968,-0.009968},
{0.023728,0.023728,0.023728},
{-0.055539,-0.055539,-0.055539},
{-0.076038,-0.076038,-0.076038},
{-0.099251,-0.099251,-0.099251},
{0.031608,0.031608,0.031608},
{0.015001,0.015001,0.015001},
{0.003973,0.003973,0.003973},
{-0.019920,-0.019920,-0.019920},
{-0.063546,-0.063546,-0.063546},
{-0.053505,-0.053505,-0.053505},
{-0.014722,-0.014722,-0.014722},
{-0.014886,-0.014886,-0.014886},
{-0.009167,-0.009167,-0.009167},
{-0.010448,-0.010448,-0.010448},
{-0.016609,-0.016609,-0.016609},
{-0.012386,-0.012386,-0.012386},
{-0.006358,-0.006358,-0.006358},
{-0.008065,-0.008065,-0.008065},
{-0.014871,-0.014871,-0.014871},
{-0.007873,-0.007873,-0.007873},
{0.017280,0.017280,0.017280},
{0.046044,0.046044,0.046044},
{-0.013927,-0.013927,-0.013927},
{-0.012724,-0.012724,-0.012724},
{-0.012779,-0.012779,-0.012779},
{-0.069444,-0.069444,-0.069444},
{0.009450,0.009450,0.009450},
{0.015339,0.015339,0.015339},
{0.079383,0.079383,0.079383},
{0.008019,0.008019,0.008019},
{-0.034825,-0.034825,-0.034825},
{0.018200,0.018200,0.018200},
{0.007522,0.007522,0.007522},
{0.027958,0.027958,0.027958},
{-0.010496,-0.010496,-0.010496},
{0.003707,0.003707,0.003707},
{0.011865,0.011865,0.011865},
{-0.110463,-0.110463,-0.110463},
{-0.059618,-0.059618,-0.059618},
{-0.050686,-0.050686,-0.050686},
{-0.000724,-0.000724,-0.000724},
{-0.000352,-0.000352,-0.000352},
{-0.000150,-0.000150,-0.000150},
{0.009149,0.009149,0.009149},
{0.017460,0.017460,0.017460},
{-0.012557,-0.012557,-0.012557},
{0.070216,0.070216,0.070216},
{0.073726,0.073726,0.073726},
{0.014737,0.014737,0.014737},
{0.004153,0.004153,0.004153},
{-0.012129,-0.012129,-0.012129},
{0.054951,0.054951,0.054951},
{0.000538,0.000538,0.000538},
{0.001025,0.001025,0.001025},
{-0.010874,-0.010874,-0.010874},
{0.009355,0.009355,0.009355},
{0.042647,0.042647,0.042647},
{0.015966,0.015966,0.015966},
{-0.064535,-0.064535,-0.064535},
{-0.035713,-0.035713,-0.035713},
{-0.025523,-0.025523,-0.025523},
{-0.015553,-0.015553,-0.015553},
{0.011545,0.011545,0.011545},
{0.023038,0.023038,0.023038},
{0.008840,0.008840,0.008840},
{0.000147,0.000147,0.000147},
{-0.001369,-0.001369,-0.001369},
{-0.020501,-0.020501,-0.020501},
{-0.017316,-0.017316,-0.017316},
{0.036867,0.036867,0.036867},
{0.009906,0.009906,0.009906},
{0.005542,0.005542,0.005542},
{0.013422,0.013422,0.013422},
{0.039170,0.039170,0.039170},
{-0.054881,-0.054881,-0.054881},
{-0.067481,-0.067481,-0.067481},
{-0.082624,-0.082624,-0.082624},
{-0.085909,-0.085909,-0.085909},
{-0.098811,-0.098811,-0.098811},
{-0.002356,-0.002356,-0.002356},
{0.026786,0.026786,0.026786},
{-0.021074,-0.021074,-0.021074},
{-0.026179,-0.026179,-0.026179},
{-0.034551,-0.034551,-0.034551},
{-0.009092,-0.009092,-0.009092},
{-0.102424,-0.102424,-0.102424},
{-0.121680,-0.121680,-0.121680},
{0.028534,0.028534,0.028534},
{-0.001389,-0.001389,-0.001389},
{-0.001939,-0.001939,-0.001939},
{-0.001661,-0.001661,-0.001661},
{0.096238,0.096238,0.096238},
{0.069584,0.069584,0.069584},
{0.042414,0.042414,0.042414},
{0.035940,0.035940,0.035940},
{-0.036158,-0.036158,-0.036158},
{-0.033336,-0.033336,-0.033336},
{-0.002707,-0.002707,-0.002707},
{-0.017979,-0.017979,-0.017979},
{-0.038695,-0.038695,-0.038695},
{0.026260,0.026260,0.026260},
{0.011174,0.011174,0.011174},
{-0.003353,-0.003353,-0.003353},
{-0.035005,-0.035005,-0.035005},
{-0.085967,-0.085967,-0.085967},
{-0.093889,-0.093889,-0.093889}
};
