constant half16 weights_4[128*288] = {
{0.012904,0.012904,0.012904,0.012904,0.012904,0.012904,0.012904,0.012904,0.012904,0.012904,0.012904,0.012904,0.012904,0.012904,0.012904,0.012904},
{-0.000473,-0.000473,-0.000473,-0.000473,-0.000473,-0.000473,-0.000473,-0.000473,-0.000473,-0.000473,-0.000473,-0.000473,-0.000473,-0.000473,-0.000473,-0.000473},
{0.011687,0.011687,0.011687,0.011687,0.011687,0.011687,0.011687,0.011687,0.011687,0.011687,0.011687,0.011687,0.011687,0.011687,0.011687,0.011687},
{0.019849,0.019849,0.019849,0.019849,0.019849,0.019849,0.019849,0.019849,0.019849,0.019849,0.019849,0.019849,0.019849,0.019849,0.019849,0.019849},
{-0.005082,-0.005082,-0.005082,-0.005082,-0.005082,-0.005082,-0.005082,-0.005082,-0.005082,-0.005082,-0.005082,-0.005082,-0.005082,-0.005082,-0.005082,-0.005082},
{0.010018,0.010018,0.010018,0.010018,0.010018,0.010018,0.010018,0.010018,0.010018,0.010018,0.010018,0.010018,0.010018,0.010018,0.010018,0.010018},
{0.003634,0.003634,0.003634,0.003634,0.003634,0.003634,0.003634,0.003634,0.003634,0.003634,0.003634,0.003634,0.003634,0.003634,0.003634,0.003634},
{-0.013775,-0.013775,-0.013775,-0.013775,-0.013775,-0.013775,-0.013775,-0.013775,-0.013775,-0.013775,-0.013775,-0.013775,-0.013775,-0.013775,-0.013775,-0.013775},
{0.000932,0.000932,0.000932,0.000932,0.000932,0.000932,0.000932,0.000932,0.000932,0.000932,0.000932,0.000932,0.000932,0.000932,0.000932,0.000932},
{0.007856,0.007856,0.007856,0.007856,0.007856,0.007856,0.007856,0.007856,0.007856,0.007856,0.007856,0.007856,0.007856,0.007856,0.007856,0.007856},
{0.018619,0.018619,0.018619,0.018619,0.018619,0.018619,0.018619,0.018619,0.018619,0.018619,0.018619,0.018619,0.018619,0.018619,0.018619,0.018619},
{0.011730,0.011730,0.011730,0.011730,0.011730,0.011730,0.011730,0.011730,0.011730,0.011730,0.011730,0.011730,0.011730,0.011730,0.011730,0.011730},
{-0.007598,-0.007598,-0.007598,-0.007598,-0.007598,-0.007598,-0.007598,-0.007598,-0.007598,-0.007598,-0.007598,-0.007598,-0.007598,-0.007598,-0.007598,-0.007598},
{-0.009534,-0.009534,-0.009534,-0.009534,-0.009534,-0.009534,-0.009534,-0.009534,-0.009534,-0.009534,-0.009534,-0.009534,-0.009534,-0.009534,-0.009534,-0.009534},
{0.523351,0.523351,0.523351,0.523351,0.523351,0.523351,0.523351,0.523351,0.523351,0.523351,0.523351,0.523351,0.523351,0.523351,0.523351,0.523351},
{-0.001785,-0.001785,-0.001785,-0.001785,-0.001785,-0.001785,-0.001785,-0.001785,-0.001785,-0.001785,-0.001785,-0.001785,-0.001785,-0.001785,-0.001785,-0.001785},
{0.001069,0.001069,0.001069,0.001069,0.001069,0.001069,0.001069,0.001069,0.001069,0.001069,0.001069,0.001069,0.001069,0.001069,0.001069,0.001069},
{0.010373,0.010373,0.010373,0.010373,0.010373,0.010373,0.010373,0.010373,0.010373,0.010373,0.010373,0.010373,0.010373,0.010373,0.010373,0.010373},
{-0.023370,-0.023370,-0.023370,-0.023370,-0.023370,-0.023370,-0.023370,-0.023370,-0.023370,-0.023370,-0.023370,-0.023370,-0.023370,-0.023370,-0.023370,-0.023370},
{0.003430,0.003430,0.003430,0.003430,0.003430,0.003430,0.003430,0.003430,0.003430,0.003430,0.003430,0.003430,0.003430,0.003430,0.003430,0.003430},
{0.053060,0.053060,0.053060,0.053060,0.053060,0.053060,0.053060,0.053060,0.053060,0.053060,0.053060,0.053060,0.053060,0.053060,0.053060,0.053060},
{0.016261,0.016261,0.016261,0.016261,0.016261,0.016261,0.016261,0.016261,0.016261,0.016261,0.016261,0.016261,0.016261,0.016261,0.016261,0.016261},
{0.008044,0.008044,0.008044,0.008044,0.008044,0.008044,0.008044,0.008044,0.008044,0.008044,0.008044,0.008044,0.008044,0.008044,0.008044,0.008044},
{0.011732,0.011732,0.011732,0.011732,0.011732,0.011732,0.011732,0.011732,0.011732,0.011732,0.011732,0.011732,0.011732,0.011732,0.011732,0.011732},
{-0.071671,-0.071671,-0.071671,-0.071671,-0.071671,-0.071671,-0.071671,-0.071671,-0.071671,-0.071671,-0.071671,-0.071671,-0.071671,-0.071671,-0.071671,-0.071671},
{-0.015083,-0.015083,-0.015083,-0.015083,-0.015083,-0.015083,-0.015083,-0.015083,-0.015083,-0.015083,-0.015083,-0.015083,-0.015083,-0.015083,-0.015083,-0.015083},
{0.081955,0.081955,0.081955,0.081955,0.081955,0.081955,0.081955,0.081955,0.081955,0.081955,0.081955,0.081955,0.081955,0.081955,0.081955,0.081955},
{0.037886,0.037886,0.037886,0.037886,0.037886,0.037886,0.037886,0.037886,0.037886,0.037886,0.037886,0.037886,0.037886,0.037886,0.037886,0.037886},
{-0.188798,-0.188798,-0.188798,-0.188798,-0.188798,-0.188798,-0.188798,-0.188798,-0.188798,-0.188798,-0.188798,-0.188798,-0.188798,-0.188798,-0.188798,-0.188798},
{0.060266,0.060266,0.060266,0.060266,0.060266,0.060266,0.060266,0.060266,0.060266,0.060266,0.060266,0.060266,0.060266,0.060266,0.060266,0.060266},
{-0.019549,-0.019549,-0.019549,-0.019549,-0.019549,-0.019549,-0.019549,-0.019549,-0.019549,-0.019549,-0.019549,-0.019549,-0.019549,-0.019549,-0.019549,-0.019549},
{0.068346,0.068346,0.068346,0.068346,0.068346,0.068346,0.068346,0.068346,0.068346,0.068346,0.068346,0.068346,0.068346,0.068346,0.068346,0.068346},
{0.075843,0.075843,0.075843,0.075843,0.075843,0.075843,0.075843,0.075843,0.075843,0.075843,0.075843,0.075843,0.075843,0.075843,0.075843,0.075843},
{0.041409,0.041409,0.041409,0.041409,0.041409,0.041409,0.041409,0.041409,0.041409,0.041409,0.041409,0.041409,0.041409,0.041409,0.041409,0.041409},
{0.029576,0.029576,0.029576,0.029576,0.029576,0.029576,0.029576,0.029576,0.029576,0.029576,0.029576,0.029576,0.029576,0.029576,0.029576,0.029576},
{0.031620,0.031620,0.031620,0.031620,0.031620,0.031620,0.031620,0.031620,0.031620,0.031620,0.031620,0.031620,0.031620,0.031620,0.031620,0.031620},
{-0.022200,-0.022200,-0.022200,-0.022200,-0.022200,-0.022200,-0.022200,-0.022200,-0.022200,-0.022200,-0.022200,-0.022200,-0.022200,-0.022200,-0.022200,-0.022200},
{-0.016014,-0.016014,-0.016014,-0.016014,-0.016014,-0.016014,-0.016014,-0.016014,-0.016014,-0.016014,-0.016014,-0.016014,-0.016014,-0.016014,-0.016014,-0.016014},
{-0.058367,-0.058367,-0.058367,-0.058367,-0.058367,-0.058367,-0.058367,-0.058367,-0.058367,-0.058367,-0.058367,-0.058367,-0.058367,-0.058367,-0.058367,-0.058367},
{0.024132,0.024132,0.024132,0.024132,0.024132,0.024132,0.024132,0.024132,0.024132,0.024132,0.024132,0.024132,0.024132,0.024132,0.024132,0.024132},
{-0.058748,-0.058748,-0.058748,-0.058748,-0.058748,-0.058748,-0.058748,-0.058748,-0.058748,-0.058748,-0.058748,-0.058748,-0.058748,-0.058748,-0.058748,-0.058748},
{0.015153,0.015153,0.015153,0.015153,0.015153,0.015153,0.015153,0.015153,0.015153,0.015153,0.015153,0.015153,0.015153,0.015153,0.015153,0.015153},
{0.002516,0.002516,0.002516,0.002516,0.002516,0.002516,0.002516,0.002516,0.002516,0.002516,0.002516,0.002516,0.002516,0.002516,0.002516,0.002516},
{0.121611,0.121611,0.121611,0.121611,0.121611,0.121611,0.121611,0.121611,0.121611,0.121611,0.121611,0.121611,0.121611,0.121611,0.121611,0.121611},
{0.069172,0.069172,0.069172,0.069172,0.069172,0.069172,0.069172,0.069172,0.069172,0.069172,0.069172,0.069172,0.069172,0.069172,0.069172,0.069172},
{-0.001895,-0.001895,-0.001895,-0.001895,-0.001895,-0.001895,-0.001895,-0.001895,-0.001895,-0.001895,-0.001895,-0.001895,-0.001895,-0.001895,-0.001895,-0.001895},
{0.040012,0.040012,0.040012,0.040012,0.040012,0.040012,0.040012,0.040012,0.040012,0.040012,0.040012,0.040012,0.040012,0.040012,0.040012,0.040012},
{-0.069361,-0.069361,-0.069361,-0.069361,-0.069361,-0.069361,-0.069361,-0.069361,-0.069361,-0.069361,-0.069361,-0.069361,-0.069361,-0.069361,-0.069361,-0.069361},
{0.113434,0.113434,0.113434,0.113434,0.113434,0.113434,0.113434,0.113434,0.113434,0.113434,0.113434,0.113434,0.113434,0.113434,0.113434,0.113434},
{-0.012700,-0.012700,-0.012700,-0.012700,-0.012700,-0.012700,-0.012700,-0.012700,-0.012700,-0.012700,-0.012700,-0.012700,-0.012700,-0.012700,-0.012700,-0.012700},
{-0.105279,-0.105279,-0.105279,-0.105279,-0.105279,-0.105279,-0.105279,-0.105279,-0.105279,-0.105279,-0.105279,-0.105279,-0.105279,-0.105279,-0.105279,-0.105279},
{-0.014168,-0.014168,-0.014168,-0.014168,-0.014168,-0.014168,-0.014168,-0.014168,-0.014168,-0.014168,-0.014168,-0.014168,-0.014168,-0.014168,-0.014168,-0.014168},
{0.040552,0.040552,0.040552,0.040552,0.040552,0.040552,0.040552,0.040552,0.040552,0.040552,0.040552,0.040552,0.040552,0.040552,0.040552,0.040552},
{0.031570,0.031570,0.031570,0.031570,0.031570,0.031570,0.031570,0.031570,0.031570,0.031570,0.031570,0.031570,0.031570,0.031570,0.031570,0.031570},
{0.001869,0.001869,0.001869,0.001869,0.001869,0.001869,0.001869,0.001869,0.001869,0.001869,0.001869,0.001869,0.001869,0.001869,0.001869,0.001869},
{0.055518,0.055518,0.055518,0.055518,0.055518,0.055518,0.055518,0.055518,0.055518,0.055518,0.055518,0.055518,0.055518,0.055518,0.055518,0.055518},
{0.058953,0.058953,0.058953,0.058953,0.058953,0.058953,0.058953,0.058953,0.058953,0.058953,0.058953,0.058953,0.058953,0.058953,0.058953,0.058953},
{0.021605,0.021605,0.021605,0.021605,0.021605,0.021605,0.021605,0.021605,0.021605,0.021605,0.021605,0.021605,0.021605,0.021605,0.021605,0.021605},
{-0.005130,-0.005130,-0.005130,-0.005130,-0.005130,-0.005130,-0.005130,-0.005130,-0.005130,-0.005130,-0.005130,-0.005130,-0.005130,-0.005130,-0.005130,-0.005130},
{-0.050390,-0.050390,-0.050390,-0.050390,-0.050390,-0.050390,-0.050390,-0.050390,-0.050390,-0.050390,-0.050390,-0.050390,-0.050390,-0.050390,-0.050390,-0.050390},
{0.044134,0.044134,0.044134,0.044134,0.044134,0.044134,0.044134,0.044134,0.044134,0.044134,0.044134,0.044134,0.044134,0.044134,0.044134,0.044134},
{0.098523,0.098523,0.098523,0.098523,0.098523,0.098523,0.098523,0.098523,0.098523,0.098523,0.098523,0.098523,0.098523,0.098523,0.098523,0.098523},
{0.013348,0.013348,0.013348,0.013348,0.013348,0.013348,0.013348,0.013348,0.013348,0.013348,0.013348,0.013348,0.013348,0.013348,0.013348,0.013348},
{-0.021201,-0.021201,-0.021201,-0.021201,-0.021201,-0.021201,-0.021201,-0.021201,-0.021201,-0.021201,-0.021201,-0.021201,-0.021201,-0.021201,-0.021201,-0.021201},
{-0.004776,-0.004776,-0.004776,-0.004776,-0.004776,-0.004776,-0.004776,-0.004776,-0.004776,-0.004776,-0.004776,-0.004776,-0.004776,-0.004776,-0.004776,-0.004776},
{0.006650,0.006650,0.006650,0.006650,0.006650,0.006650,0.006650,0.006650,0.006650,0.006650,0.006650,0.006650,0.006650,0.006650,0.006650,0.006650},
{-0.002930,-0.002930,-0.002930,-0.002930,-0.002930,-0.002930,-0.002930,-0.002930,-0.002930,-0.002930,-0.002930,-0.002930,-0.002930,-0.002930,-0.002930,-0.002930},
{-0.041752,-0.041752,-0.041752,-0.041752,-0.041752,-0.041752,-0.041752,-0.041752,-0.041752,-0.041752,-0.041752,-0.041752,-0.041752,-0.041752,-0.041752,-0.041752},
{0.045821,0.045821,0.045821,0.045821,0.045821,0.045821,0.045821,0.045821,0.045821,0.045821,0.045821,0.045821,0.045821,0.045821,0.045821,0.045821},
{-0.037227,-0.037227,-0.037227,-0.037227,-0.037227,-0.037227,-0.037227,-0.037227,-0.037227,-0.037227,-0.037227,-0.037227,-0.037227,-0.037227,-0.037227,-0.037227},
{-0.022917,-0.022917,-0.022917,-0.022917,-0.022917,-0.022917,-0.022917,-0.022917,-0.022917,-0.022917,-0.022917,-0.022917,-0.022917,-0.022917,-0.022917,-0.022917},
{-0.057964,-0.057964,-0.057964,-0.057964,-0.057964,-0.057964,-0.057964,-0.057964,-0.057964,-0.057964,-0.057964,-0.057964,-0.057964,-0.057964,-0.057964,-0.057964},
{-0.050558,-0.050558,-0.050558,-0.050558,-0.050558,-0.050558,-0.050558,-0.050558,-0.050558,-0.050558,-0.050558,-0.050558,-0.050558,-0.050558,-0.050558,-0.050558},
{0.065893,0.065893,0.065893,0.065893,0.065893,0.065893,0.065893,0.065893,0.065893,0.065893,0.065893,0.065893,0.065893,0.065893,0.065893,0.065893},
{0.024127,0.024127,0.024127,0.024127,0.024127,0.024127,0.024127,0.024127,0.024127,0.024127,0.024127,0.024127,0.024127,0.024127,0.024127,0.024127},
{-0.029381,-0.029381,-0.029381,-0.029381,-0.029381,-0.029381,-0.029381,-0.029381,-0.029381,-0.029381,-0.029381,-0.029381,-0.029381,-0.029381,-0.029381,-0.029381},
{0.004674,0.004674,0.004674,0.004674,0.004674,0.004674,0.004674,0.004674,0.004674,0.004674,0.004674,0.004674,0.004674,0.004674,0.004674,0.004674},
{-0.026799,-0.026799,-0.026799,-0.026799,-0.026799,-0.026799,-0.026799,-0.026799,-0.026799,-0.026799,-0.026799,-0.026799,-0.026799,-0.026799,-0.026799,-0.026799},
{0.033190,0.033190,0.033190,0.033190,0.033190,0.033190,0.033190,0.033190,0.033190,0.033190,0.033190,0.033190,0.033190,0.033190,0.033190,0.033190},
{0.038772,0.038772,0.038772,0.038772,0.038772,0.038772,0.038772,0.038772,0.038772,0.038772,0.038772,0.038772,0.038772,0.038772,0.038772,0.038772},
{0.057744,0.057744,0.057744,0.057744,0.057744,0.057744,0.057744,0.057744,0.057744,0.057744,0.057744,0.057744,0.057744,0.057744,0.057744,0.057744},
{0.015839,0.015839,0.015839,0.015839,0.015839,0.015839,0.015839,0.015839,0.015839,0.015839,0.015839,0.015839,0.015839,0.015839,0.015839,0.015839},
{0.038050,0.038050,0.038050,0.038050,0.038050,0.038050,0.038050,0.038050,0.038050,0.038050,0.038050,0.038050,0.038050,0.038050,0.038050,0.038050},
{0.012745,0.012745,0.012745,0.012745,0.012745,0.012745,0.012745,0.012745,0.012745,0.012745,0.012745,0.012745,0.012745,0.012745,0.012745,0.012745},
{-0.012342,-0.012342,-0.012342,-0.012342,-0.012342,-0.012342,-0.012342,-0.012342,-0.012342,-0.012342,-0.012342,-0.012342,-0.012342,-0.012342,-0.012342,-0.012342},
{0.050280,0.050280,0.050280,0.050280,0.050280,0.050280,0.050280,0.050280,0.050280,0.050280,0.050280,0.050280,0.050280,0.050280,0.050280,0.050280},
{0.000033,0.000033,0.000033,0.000033,0.000033,0.000033,0.000033,0.000033,0.000033,0.000033,0.000033,0.000033,0.000033,0.000033,0.000033,0.000033},
{0.006181,0.006181,0.006181,0.006181,0.006181,0.006181,0.006181,0.006181,0.006181,0.006181,0.006181,0.006181,0.006181,0.006181,0.006181,0.006181},
{0.039336,0.039336,0.039336,0.039336,0.039336,0.039336,0.039336,0.039336,0.039336,0.039336,0.039336,0.039336,0.039336,0.039336,0.039336,0.039336},
{-0.050286,-0.050286,-0.050286,-0.050286,-0.050286,-0.050286,-0.050286,-0.050286,-0.050286,-0.050286,-0.050286,-0.050286,-0.050286,-0.050286,-0.050286,-0.050286},
{-0.033450,-0.033450,-0.033450,-0.033450,-0.033450,-0.033450,-0.033450,-0.033450,-0.033450,-0.033450,-0.033450,-0.033450,-0.033450,-0.033450,-0.033450,-0.033450},
{-0.040240,-0.040240,-0.040240,-0.040240,-0.040240,-0.040240,-0.040240,-0.040240,-0.040240,-0.040240,-0.040240,-0.040240,-0.040240,-0.040240,-0.040240,-0.040240},
{0.003563,0.003563,0.003563,0.003563,0.003563,0.003563,0.003563,0.003563,0.003563,0.003563,0.003563,0.003563,0.003563,0.003563,0.003563,0.003563},
{0.078304,0.078304,0.078304,0.078304,0.078304,0.078304,0.078304,0.078304,0.078304,0.078304,0.078304,0.078304,0.078304,0.078304,0.078304,0.078304},
{-0.025002,-0.025002,-0.025002,-0.025002,-0.025002,-0.025002,-0.025002,-0.025002,-0.025002,-0.025002,-0.025002,-0.025002,-0.025002,-0.025002,-0.025002,-0.025002},
{0.190626,0.190626,0.190626,0.190626,0.190626,0.190626,0.190626,0.190626,0.190626,0.190626,0.190626,0.190626,0.190626,0.190626,0.190626,0.190626},
{-0.077382,-0.077382,-0.077382,-0.077382,-0.077382,-0.077382,-0.077382,-0.077382,-0.077382,-0.077382,-0.077382,-0.077382,-0.077382,-0.077382,-0.077382,-0.077382},
{-0.318951,-0.318951,-0.318951,-0.318951,-0.318951,-0.318951,-0.318951,-0.318951,-0.318951,-0.318951,-0.318951,-0.318951,-0.318951,-0.318951,-0.318951,-0.318951},
{-0.090754,-0.090754,-0.090754,-0.090754,-0.090754,-0.090754,-0.090754,-0.090754,-0.090754,-0.090754,-0.090754,-0.090754,-0.090754,-0.090754,-0.090754,-0.090754},
{-0.042386,-0.042386,-0.042386,-0.042386,-0.042386,-0.042386,-0.042386,-0.042386,-0.042386,-0.042386,-0.042386,-0.042386,-0.042386,-0.042386,-0.042386,-0.042386},
{-0.014768,-0.014768,-0.014768,-0.014768,-0.014768,-0.014768,-0.014768,-0.014768,-0.014768,-0.014768,-0.014768,-0.014768,-0.014768,-0.014768,-0.014768,-0.014768},
{-0.007593,-0.007593,-0.007593,-0.007593,-0.007593,-0.007593,-0.007593,-0.007593,-0.007593,-0.007593,-0.007593,-0.007593,-0.007593,-0.007593,-0.007593,-0.007593},
{-0.046877,-0.046877,-0.046877,-0.046877,-0.046877,-0.046877,-0.046877,-0.046877,-0.046877,-0.046877,-0.046877,-0.046877,-0.046877,-0.046877,-0.046877,-0.046877},
{-0.038344,-0.038344,-0.038344,-0.038344,-0.038344,-0.038344,-0.038344,-0.038344,-0.038344,-0.038344,-0.038344,-0.038344,-0.038344,-0.038344,-0.038344,-0.038344},
{-0.060186,-0.060186,-0.060186,-0.060186,-0.060186,-0.060186,-0.060186,-0.060186,-0.060186,-0.060186,-0.060186,-0.060186,-0.060186,-0.060186,-0.060186,-0.060186},
{-0.117840,-0.117840,-0.117840,-0.117840,-0.117840,-0.117840,-0.117840,-0.117840,-0.117840,-0.117840,-0.117840,-0.117840,-0.117840,-0.117840,-0.117840,-0.117840},
{-0.093121,-0.093121,-0.093121,-0.093121,-0.093121,-0.093121,-0.093121,-0.093121,-0.093121,-0.093121,-0.093121,-0.093121,-0.093121,-0.093121,-0.093121,-0.093121},
{0.022550,0.022550,0.022550,0.022550,0.022550,0.022550,0.022550,0.022550,0.022550,0.022550,0.022550,0.022550,0.022550,0.022550,0.022550,0.022550},
{0.016552,0.016552,0.016552,0.016552,0.016552,0.016552,0.016552,0.016552,0.016552,0.016552,0.016552,0.016552,0.016552,0.016552,0.016552,0.016552},
{-0.233970,-0.233970,-0.233970,-0.233970,-0.233970,-0.233970,-0.233970,-0.233970,-0.233970,-0.233970,-0.233970,-0.233970,-0.233970,-0.233970,-0.233970,-0.233970},
{-0.017719,-0.017719,-0.017719,-0.017719,-0.017719,-0.017719,-0.017719,-0.017719,-0.017719,-0.017719,-0.017719,-0.017719,-0.017719,-0.017719,-0.017719,-0.017719},
{-0.106801,-0.106801,-0.106801,-0.106801,-0.106801,-0.106801,-0.106801,-0.106801,-0.106801,-0.106801,-0.106801,-0.106801,-0.106801,-0.106801,-0.106801,-0.106801},
{0.031690,0.031690,0.031690,0.031690,0.031690,0.031690,0.031690,0.031690,0.031690,0.031690,0.031690,0.031690,0.031690,0.031690,0.031690,0.031690},
{0.103423,0.103423,0.103423,0.103423,0.103423,0.103423,0.103423,0.103423,0.103423,0.103423,0.103423,0.103423,0.103423,0.103423,0.103423,0.103423},
{-0.126591,-0.126591,-0.126591,-0.126591,-0.126591,-0.126591,-0.126591,-0.126591,-0.126591,-0.126591,-0.126591,-0.126591,-0.126591,-0.126591,-0.126591,-0.126591},
{0.028968,0.028968,0.028968,0.028968,0.028968,0.028968,0.028968,0.028968,0.028968,0.028968,0.028968,0.028968,0.028968,0.028968,0.028968,0.028968},
{-0.152873,-0.152873,-0.152873,-0.152873,-0.152873,-0.152873,-0.152873,-0.152873,-0.152873,-0.152873,-0.152873,-0.152873,-0.152873,-0.152873,-0.152873,-0.152873},
{-0.035469,-0.035469,-0.035469,-0.035469,-0.035469,-0.035469,-0.035469,-0.035469,-0.035469,-0.035469,-0.035469,-0.035469,-0.035469,-0.035469,-0.035469,-0.035469},
{-0.031665,-0.031665,-0.031665,-0.031665,-0.031665,-0.031665,-0.031665,-0.031665,-0.031665,-0.031665,-0.031665,-0.031665,-0.031665,-0.031665,-0.031665,-0.031665},
{-0.213601,-0.213601,-0.213601,-0.213601,-0.213601,-0.213601,-0.213601,-0.213601,-0.213601,-0.213601,-0.213601,-0.213601,-0.213601,-0.213601,-0.213601,-0.213601},
{0.093373,0.093373,0.093373,0.093373,0.093373,0.093373,0.093373,0.093373,0.093373,0.093373,0.093373,0.093373,0.093373,0.093373,0.093373,0.093373},
{-0.027794,-0.027794,-0.027794,-0.027794,-0.027794,-0.027794,-0.027794,-0.027794,-0.027794,-0.027794,-0.027794,-0.027794,-0.027794,-0.027794,-0.027794,-0.027794},
{0.071108,0.071108,0.071108,0.071108,0.071108,0.071108,0.071108,0.071108,0.071108,0.071108,0.071108,0.071108,0.071108,0.071108,0.071108,0.071108},
{-0.167336,-0.167336,-0.167336,-0.167336,-0.167336,-0.167336,-0.167336,-0.167336,-0.167336,-0.167336,-0.167336,-0.167336,-0.167336,-0.167336,-0.167336,-0.167336},
{0.012720,0.012720,0.012720,0.012720,0.012720,0.012720,0.012720,0.012720,0.012720,0.012720,0.012720,0.012720,0.012720,0.012720,0.012720,0.012720},
{0.049138,0.049138,0.049138,0.049138,0.049138,0.049138,0.049138,0.049138,0.049138,0.049138,0.049138,0.049138,0.049138,0.049138,0.049138,0.049138},
{0.097074,0.097074,0.097074,0.097074,0.097074,0.097074,0.097074,0.097074,0.097074,0.097074,0.097074,0.097074,0.097074,0.097074,0.097074,0.097074},
{-0.051448,-0.051448,-0.051448,-0.051448,-0.051448,-0.051448,-0.051448,-0.051448,-0.051448,-0.051448,-0.051448,-0.051448,-0.051448,-0.051448,-0.051448,-0.051448},
{0.001187,0.001187,0.001187,0.001187,0.001187,0.001187,0.001187,0.001187,0.001187,0.001187,0.001187,0.001187,0.001187,0.001187,0.001187,0.001187},
{0.028702,0.028702,0.028702,0.028702,0.028702,0.028702,0.028702,0.028702,0.028702,0.028702,0.028702,0.028702,0.028702,0.028702,0.028702,0.028702},
{-0.035543,-0.035543,-0.035543,-0.035543,-0.035543,-0.035543,-0.035543,-0.035543,-0.035543,-0.035543,-0.035543,-0.035543,-0.035543,-0.035543,-0.035543,-0.035543},
{0.109820,0.109820,0.109820,0.109820,0.109820,0.109820,0.109820,0.109820,0.109820,0.109820,0.109820,0.109820,0.109820,0.109820,0.109820,0.109820},
{0.051663,0.051663,0.051663,0.051663,0.051663,0.051663,0.051663,0.051663,0.051663,0.051663,0.051663,0.051663,0.051663,0.051663,0.051663,0.051663},
{0.047455,0.047455,0.047455,0.047455,0.047455,0.047455,0.047455,0.047455,0.047455,0.047455,0.047455,0.047455,0.047455,0.047455,0.047455,0.047455},
{-0.087763,-0.087763,-0.087763,-0.087763,-0.087763,-0.087763,-0.087763,-0.087763,-0.087763,-0.087763,-0.087763,-0.087763,-0.087763,-0.087763,-0.087763,-0.087763},
{0.007402,0.007402,0.007402,0.007402,0.007402,0.007402,0.007402,0.007402,0.007402,0.007402,0.007402,0.007402,0.007402,0.007402,0.007402,0.007402},
{0.043139,0.043139,0.043139,0.043139,0.043139,0.043139,0.043139,0.043139,0.043139,0.043139,0.043139,0.043139,0.043139,0.043139,0.043139,0.043139},
{-0.220313,-0.220313,-0.220313,-0.220313,-0.220313,-0.220313,-0.220313,-0.220313,-0.220313,-0.220313,-0.220313,-0.220313,-0.220313,-0.220313,-0.220313,-0.220313},
{-0.000413,-0.000413,-0.000413,-0.000413,-0.000413,-0.000413,-0.000413,-0.000413,-0.000413,-0.000413,-0.000413,-0.000413,-0.000413,-0.000413,-0.000413,-0.000413},
{0.081229,0.081229,0.081229,0.081229,0.081229,0.081229,0.081229,0.081229,0.081229,0.081229,0.081229,0.081229,0.081229,0.081229,0.081229,0.081229},
{0.023807,0.023807,0.023807,0.023807,0.023807,0.023807,0.023807,0.023807,0.023807,0.023807,0.023807,0.023807,0.023807,0.023807,0.023807,0.023807},
{-0.125432,-0.125432,-0.125432,-0.125432,-0.125432,-0.125432,-0.125432,-0.125432,-0.125432,-0.125432,-0.125432,-0.125432,-0.125432,-0.125432,-0.125432,-0.125432},
{0.021962,0.021962,0.021962,0.021962,0.021962,0.021962,0.021962,0.021962,0.021962,0.021962,0.021962,0.021962,0.021962,0.021962,0.021962,0.021962},
{-0.015927,-0.015927,-0.015927,-0.015927,-0.015927,-0.015927,-0.015927,-0.015927,-0.015927,-0.015927,-0.015927,-0.015927,-0.015927,-0.015927,-0.015927,-0.015927},
{-0.051691,-0.051691,-0.051691,-0.051691,-0.051691,-0.051691,-0.051691,-0.051691,-0.051691,-0.051691,-0.051691,-0.051691,-0.051691,-0.051691,-0.051691,-0.051691},
{0.021883,0.021883,0.021883,0.021883,0.021883,0.021883,0.021883,0.021883,0.021883,0.021883,0.021883,0.021883,0.021883,0.021883,0.021883,0.021883},
{0.123443,0.123443,0.123443,0.123443,0.123443,0.123443,0.123443,0.123443,0.123443,0.123443,0.123443,0.123443,0.123443,0.123443,0.123443,0.123443},
{0.026946,0.026946,0.026946,0.026946,0.026946,0.026946,0.026946,0.026946,0.026946,0.026946,0.026946,0.026946,0.026946,0.026946,0.026946,0.026946},
{-0.145912,-0.145912,-0.145912,-0.145912,-0.145912,-0.145912,-0.145912,-0.145912,-0.145912,-0.145912,-0.145912,-0.145912,-0.145912,-0.145912,-0.145912,-0.145912},
{-0.004669,-0.004669,-0.004669,-0.004669,-0.004669,-0.004669,-0.004669,-0.004669,-0.004669,-0.004669,-0.004669,-0.004669,-0.004669,-0.004669,-0.004669,-0.004669},
{-0.084125,-0.084125,-0.084125,-0.084125,-0.084125,-0.084125,-0.084125,-0.084125,-0.084125,-0.084125,-0.084125,-0.084125,-0.084125,-0.084125,-0.084125,-0.084125},
{0.010414,0.010414,0.010414,0.010414,0.010414,0.010414,0.010414,0.010414,0.010414,0.010414,0.010414,0.010414,0.010414,0.010414,0.010414,0.010414},
{-0.012510,-0.012510,-0.012510,-0.012510,-0.012510,-0.012510,-0.012510,-0.012510,-0.012510,-0.012510,-0.012510,-0.012510,-0.012510,-0.012510,-0.012510,-0.012510},
{0.024020,0.024020,0.024020,0.024020,0.024020,0.024020,0.024020,0.024020,0.024020,0.024020,0.024020,0.024020,0.024020,0.024020,0.024020,0.024020},
{-0.118258,-0.118258,-0.118258,-0.118258,-0.118258,-0.118258,-0.118258,-0.118258,-0.118258,-0.118258,-0.118258,-0.118258,-0.118258,-0.118258,-0.118258,-0.118258},
{0.099531,0.099531,0.099531,0.099531,0.099531,0.099531,0.099531,0.099531,0.099531,0.099531,0.099531,0.099531,0.099531,0.099531,0.099531,0.099531},
{0.045372,0.045372,0.045372,0.045372,0.045372,0.045372,0.045372,0.045372,0.045372,0.045372,0.045372,0.045372,0.045372,0.045372,0.045372,0.045372},
{-0.185244,-0.185244,-0.185244,-0.185244,-0.185244,-0.185244,-0.185244,-0.185244,-0.185244,-0.185244,-0.185244,-0.185244,-0.185244,-0.185244,-0.185244,-0.185244},
{-0.033587,-0.033587,-0.033587,-0.033587,-0.033587,-0.033587,-0.033587,-0.033587,-0.033587,-0.033587,-0.033587,-0.033587,-0.033587,-0.033587,-0.033587,-0.033587},
{-0.023240,-0.023240,-0.023240,-0.023240,-0.023240,-0.023240,-0.023240,-0.023240,-0.023240,-0.023240,-0.023240,-0.023240,-0.023240,-0.023240,-0.023240,-0.023240},
{-0.045662,-0.045662,-0.045662,-0.045662,-0.045662,-0.045662,-0.045662,-0.045662,-0.045662,-0.045662,-0.045662,-0.045662,-0.045662,-0.045662,-0.045662,-0.045662},
{-0.093023,-0.093023,-0.093023,-0.093023,-0.093023,-0.093023,-0.093023,-0.093023,-0.093023,-0.093023,-0.093023,-0.093023,-0.093023,-0.093023,-0.093023,-0.093023},
{0.026177,0.026177,0.026177,0.026177,0.026177,0.026177,0.026177,0.026177,0.026177,0.026177,0.026177,0.026177,0.026177,0.026177,0.026177,0.026177},
{-0.005879,-0.005879,-0.005879,-0.005879,-0.005879,-0.005879,-0.005879,-0.005879,-0.005879,-0.005879,-0.005879,-0.005879,-0.005879,-0.005879,-0.005879,-0.005879},
{-0.001129,-0.001129,-0.001129,-0.001129,-0.001129,-0.001129,-0.001129,-0.001129,-0.001129,-0.001129,-0.001129,-0.001129,-0.001129,-0.001129,-0.001129,-0.001129},
{0.003327,0.003327,0.003327,0.003327,0.003327,0.003327,0.003327,0.003327,0.003327,0.003327,0.003327,0.003327,0.003327,0.003327,0.003327,0.003327},
{0.000329,0.000329,0.000329,0.000329,0.000329,0.000329,0.000329,0.000329,0.000329,0.000329,0.000329,0.000329,0.000329,0.000329,0.000329,0.000329},
{-0.009257,-0.009257,-0.009257,-0.009257,-0.009257,-0.009257,-0.009257,-0.009257,-0.009257,-0.009257,-0.009257,-0.009257,-0.009257,-0.009257,-0.009257,-0.009257},
{-0.007397,-0.007397,-0.007397,-0.007397,-0.007397,-0.007397,-0.007397,-0.007397,-0.007397,-0.007397,-0.007397,-0.007397,-0.007397,-0.007397,-0.007397,-0.007397},
{0.002734,0.002734,0.002734,0.002734,0.002734,0.002734,0.002734,0.002734,0.002734,0.002734,0.002734,0.002734,0.002734,0.002734,0.002734,0.002734},
{0.027241,0.027241,0.027241,0.027241,0.027241,0.027241,0.027241,0.027241,0.027241,0.027241,0.027241,0.027241,0.027241,0.027241,0.027241,0.027241},
{0.018450,0.018450,0.018450,0.018450,0.018450,0.018450,0.018450,0.018450,0.018450,0.018450,0.018450,0.018450,0.018450,0.018450,0.018450,0.018450},
{0.019969,0.019969,0.019969,0.019969,0.019969,0.019969,0.019969,0.019969,0.019969,0.019969,0.019969,0.019969,0.019969,0.019969,0.019969,0.019969},
{-0.001036,-0.001036,-0.001036,-0.001036,-0.001036,-0.001036,-0.001036,-0.001036,-0.001036,-0.001036,-0.001036,-0.001036,-0.001036,-0.001036,-0.001036,-0.001036},
{0.030279,0.030279,0.030279,0.030279,0.030279,0.030279,0.030279,0.030279,0.030279,0.030279,0.030279,0.030279,0.030279,0.030279,0.030279,0.030279},
{-0.002453,-0.002453,-0.002453,-0.002453,-0.002453,-0.002453,-0.002453,-0.002453,-0.002453,-0.002453,-0.002453,-0.002453,-0.002453,-0.002453,-0.002453,-0.002453},
{0.067023,0.067023,0.067023,0.067023,0.067023,0.067023,0.067023,0.067023,0.067023,0.067023,0.067023,0.067023,0.067023,0.067023,0.067023,0.067023},
{0.003219,0.003219,0.003219,0.003219,0.003219,0.003219,0.003219,0.003219,0.003219,0.003219,0.003219,0.003219,0.003219,0.003219,0.003219,0.003219},
{0.015112,0.015112,0.015112,0.015112,0.015112,0.015112,0.015112,0.015112,0.015112,0.015112,0.015112,0.015112,0.015112,0.015112,0.015112,0.015112},
{-0.002827,-0.002827,-0.002827,-0.002827,-0.002827,-0.002827,-0.002827,-0.002827,-0.002827,-0.002827,-0.002827,-0.002827,-0.002827,-0.002827,-0.002827,-0.002827},
{-0.020665,-0.020665,-0.020665,-0.020665,-0.020665,-0.020665,-0.020665,-0.020665,-0.020665,-0.020665,-0.020665,-0.020665,-0.020665,-0.020665,-0.020665,-0.020665},
{-0.081332,-0.081332,-0.081332,-0.081332,-0.081332,-0.081332,-0.081332,-0.081332,-0.081332,-0.081332,-0.081332,-0.081332,-0.081332,-0.081332,-0.081332,-0.081332},
{0.097678,0.097678,0.097678,0.097678,0.097678,0.097678,0.097678,0.097678,0.097678,0.097678,0.097678,0.097678,0.097678,0.097678,0.097678,0.097678},
{-0.031296,-0.031296,-0.031296,-0.031296,-0.031296,-0.031296,-0.031296,-0.031296,-0.031296,-0.031296,-0.031296,-0.031296,-0.031296,-0.031296,-0.031296,-0.031296},
{0.037636,0.037636,0.037636,0.037636,0.037636,0.037636,0.037636,0.037636,0.037636,0.037636,0.037636,0.037636,0.037636,0.037636,0.037636,0.037636},
{0.042084,0.042084,0.042084,0.042084,0.042084,0.042084,0.042084,0.042084,0.042084,0.042084,0.042084,0.042084,0.042084,0.042084,0.042084,0.042084},
{-0.070540,-0.070540,-0.070540,-0.070540,-0.070540,-0.070540,-0.070540,-0.070540,-0.070540,-0.070540,-0.070540,-0.070540,-0.070540,-0.070540,-0.070540,-0.070540},
{0.111442,0.111442,0.111442,0.111442,0.111442,0.111442,0.111442,0.111442,0.111442,0.111442,0.111442,0.111442,0.111442,0.111442,0.111442,0.111442},
{-0.036441,-0.036441,-0.036441,-0.036441,-0.036441,-0.036441,-0.036441,-0.036441,-0.036441,-0.036441,-0.036441,-0.036441,-0.036441,-0.036441,-0.036441,-0.036441},
{-0.002400,-0.002400,-0.002400,-0.002400,-0.002400,-0.002400,-0.002400,-0.002400,-0.002400,-0.002400,-0.002400,-0.002400,-0.002400,-0.002400,-0.002400,-0.002400},
{0.029376,0.029376,0.029376,0.029376,0.029376,0.029376,0.029376,0.029376,0.029376,0.029376,0.029376,0.029376,0.029376,0.029376,0.029376,0.029376},
{0.049915,0.049915,0.049915,0.049915,0.049915,0.049915,0.049915,0.049915,0.049915,0.049915,0.049915,0.049915,0.049915,0.049915,0.049915,0.049915},
{0.047543,0.047543,0.047543,0.047543,0.047543,0.047543,0.047543,0.047543,0.047543,0.047543,0.047543,0.047543,0.047543,0.047543,0.047543,0.047543},
{0.002711,0.002711,0.002711,0.002711,0.002711,0.002711,0.002711,0.002711,0.002711,0.002711,0.002711,0.002711,0.002711,0.002711,0.002711,0.002711},
{0.026249,0.026249,0.026249,0.026249,0.026249,0.026249,0.026249,0.026249,0.026249,0.026249,0.026249,0.026249,0.026249,0.026249,0.026249,0.026249},
{0.023844,0.023844,0.023844,0.023844,0.023844,0.023844,0.023844,0.023844,0.023844,0.023844,0.023844,0.023844,0.023844,0.023844,0.023844,0.023844},
{-0.067791,-0.067791,-0.067791,-0.067791,-0.067791,-0.067791,-0.067791,-0.067791,-0.067791,-0.067791,-0.067791,-0.067791,-0.067791,-0.067791,-0.067791,-0.067791},
{-0.064954,-0.064954,-0.064954,-0.064954,-0.064954,-0.064954,-0.064954,-0.064954,-0.064954,-0.064954,-0.064954,-0.064954,-0.064954,-0.064954,-0.064954,-0.064954},
{-0.022270,-0.022270,-0.022270,-0.022270,-0.022270,-0.022270,-0.022270,-0.022270,-0.022270,-0.022270,-0.022270,-0.022270,-0.022270,-0.022270,-0.022270,-0.022270},
{0.105685,0.105685,0.105685,0.105685,0.105685,0.105685,0.105685,0.105685,0.105685,0.105685,0.105685,0.105685,0.105685,0.105685,0.105685,0.105685},
{0.019357,0.019357,0.019357,0.019357,0.019357,0.019357,0.019357,0.019357,0.019357,0.019357,0.019357,0.019357,0.019357,0.019357,0.019357,0.019357},
{0.010741,0.010741,0.010741,0.010741,0.010741,0.010741,0.010741,0.010741,0.010741,0.010741,0.010741,0.010741,0.010741,0.010741,0.010741,0.010741},
{0.100667,0.100667,0.100667,0.100667,0.100667,0.100667,0.100667,0.100667,0.100667,0.100667,0.100667,0.100667,0.100667,0.100667,0.100667,0.100667},
{-0.014124,-0.014124,-0.014124,-0.014124,-0.014124,-0.014124,-0.014124,-0.014124,-0.014124,-0.014124,-0.014124,-0.014124,-0.014124,-0.014124,-0.014124,-0.014124},
{-0.139490,-0.139490,-0.139490,-0.139490,-0.139490,-0.139490,-0.139490,-0.139490,-0.139490,-0.139490,-0.139490,-0.139490,-0.139490,-0.139490,-0.139490,-0.139490},
{0.012449,0.012449,0.012449,0.012449,0.012449,0.012449,0.012449,0.012449,0.012449,0.012449,0.012449,0.012449,0.012449,0.012449,0.012449,0.012449},
{-0.004027,-0.004027,-0.004027,-0.004027,-0.004027,-0.004027,-0.004027,-0.004027,-0.004027,-0.004027,-0.004027,-0.004027,-0.004027,-0.004027,-0.004027,-0.004027},
{0.123440,0.123440,0.123440,0.123440,0.123440,0.123440,0.123440,0.123440,0.123440,0.123440,0.123440,0.123440,0.123440,0.123440,0.123440,0.123440},
{0.078283,0.078283,0.078283,0.078283,0.078283,0.078283,0.078283,0.078283,0.078283,0.078283,0.078283,0.078283,0.078283,0.078283,0.078283,0.078283},
{0.148818,0.148818,0.148818,0.148818,0.148818,0.148818,0.148818,0.148818,0.148818,0.148818,0.148818,0.148818,0.148818,0.148818,0.148818,0.148818},
{-0.076627,-0.076627,-0.076627,-0.076627,-0.076627,-0.076627,-0.076627,-0.076627,-0.076627,-0.076627,-0.076627,-0.076627,-0.076627,-0.076627,-0.076627,-0.076627},
{-0.144702,-0.144702,-0.144702,-0.144702,-0.144702,-0.144702,-0.144702,-0.144702,-0.144702,-0.144702,-0.144702,-0.144702,-0.144702,-0.144702,-0.144702,-0.144702},
{0.006964,0.006964,0.006964,0.006964,0.006964,0.006964,0.006964,0.006964,0.006964,0.006964,0.006964,0.006964,0.006964,0.006964,0.006964,0.006964},
{0.057396,0.057396,0.057396,0.057396,0.057396,0.057396,0.057396,0.057396,0.057396,0.057396,0.057396,0.057396,0.057396,0.057396,0.057396,0.057396},
{0.101206,0.101206,0.101206,0.101206,0.101206,0.101206,0.101206,0.101206,0.101206,0.101206,0.101206,0.101206,0.101206,0.101206,0.101206,0.101206},
{0.006943,0.006943,0.006943,0.006943,0.006943,0.006943,0.006943,0.006943,0.006943,0.006943,0.006943,0.006943,0.006943,0.006943,0.006943,0.006943},
{0.011369,0.011369,0.011369,0.011369,0.011369,0.011369,0.011369,0.011369,0.011369,0.011369,0.011369,0.011369,0.011369,0.011369,0.011369,0.011369},
{-0.094469,-0.094469,-0.094469,-0.094469,-0.094469,-0.094469,-0.094469,-0.094469,-0.094469,-0.094469,-0.094469,-0.094469,-0.094469,-0.094469,-0.094469,-0.094469},
{0.005386,0.005386,0.005386,0.005386,0.005386,0.005386,0.005386,0.005386,0.005386,0.005386,0.005386,0.005386,0.005386,0.005386,0.005386,0.005386},
{-0.051941,-0.051941,-0.051941,-0.051941,-0.051941,-0.051941,-0.051941,-0.051941,-0.051941,-0.051941,-0.051941,-0.051941,-0.051941,-0.051941,-0.051941,-0.051941},
{-0.016001,-0.016001,-0.016001,-0.016001,-0.016001,-0.016001,-0.016001,-0.016001,-0.016001,-0.016001,-0.016001,-0.016001,-0.016001,-0.016001,-0.016001,-0.016001},
{0.039402,0.039402,0.039402,0.039402,0.039402,0.039402,0.039402,0.039402,0.039402,0.039402,0.039402,0.039402,0.039402,0.039402,0.039402,0.039402},
{-0.075563,-0.075563,-0.075563,-0.075563,-0.075563,-0.075563,-0.075563,-0.075563,-0.075563,-0.075563,-0.075563,-0.075563,-0.075563,-0.075563,-0.075563,-0.075563},
{-0.100423,-0.100423,-0.100423,-0.100423,-0.100423,-0.100423,-0.100423,-0.100423,-0.100423,-0.100423,-0.100423,-0.100423,-0.100423,-0.100423,-0.100423,-0.100423},
{-0.044215,-0.044215,-0.044215,-0.044215,-0.044215,-0.044215,-0.044215,-0.044215,-0.044215,-0.044215,-0.044215,-0.044215,-0.044215,-0.044215,-0.044215,-0.044215},
{-0.005805,-0.005805,-0.005805,-0.005805,-0.005805,-0.005805,-0.005805,-0.005805,-0.005805,-0.005805,-0.005805,-0.005805,-0.005805,-0.005805,-0.005805,-0.005805},
{0.046455,0.046455,0.046455,0.046455,0.046455,0.046455,0.046455,0.046455,0.046455,0.046455,0.046455,0.046455,0.046455,0.046455,0.046455,0.046455},
{-0.002663,-0.002663,-0.002663,-0.002663,-0.002663,-0.002663,-0.002663,-0.002663,-0.002663,-0.002663,-0.002663,-0.002663,-0.002663,-0.002663,-0.002663,-0.002663},
{0.050987,0.050987,0.050987,0.050987,0.050987,0.050987,0.050987,0.050987,0.050987,0.050987,0.050987,0.050987,0.050987,0.050987,0.050987,0.050987},
{-0.010274,-0.010274,-0.010274,-0.010274,-0.010274,-0.010274,-0.010274,-0.010274,-0.010274,-0.010274,-0.010274,-0.010274,-0.010274,-0.010274,-0.010274,-0.010274},
{0.028640,0.028640,0.028640,0.028640,0.028640,0.028640,0.028640,0.028640,0.028640,0.028640,0.028640,0.028640,0.028640,0.028640,0.028640,0.028640},
{-0.021527,-0.021527,-0.021527,-0.021527,-0.021527,-0.021527,-0.021527,-0.021527,-0.021527,-0.021527,-0.021527,-0.021527,-0.021527,-0.021527,-0.021527,-0.021527},
{0.049420,0.049420,0.049420,0.049420,0.049420,0.049420,0.049420,0.049420,0.049420,0.049420,0.049420,0.049420,0.049420,0.049420,0.049420,0.049420},
{-0.004317,-0.004317,-0.004317,-0.004317,-0.004317,-0.004317,-0.004317,-0.004317,-0.004317,-0.004317,-0.004317,-0.004317,-0.004317,-0.004317,-0.004317,-0.004317},
{0.028426,0.028426,0.028426,0.028426,0.028426,0.028426,0.028426,0.028426,0.028426,0.028426,0.028426,0.028426,0.028426,0.028426,0.028426,0.028426},
{0.052911,0.052911,0.052911,0.052911,0.052911,0.052911,0.052911,0.052911,0.052911,0.052911,0.052911,0.052911,0.052911,0.052911,0.052911,0.052911},
{0.074689,0.074689,0.074689,0.074689,0.074689,0.074689,0.074689,0.074689,0.074689,0.074689,0.074689,0.074689,0.074689,0.074689,0.074689,0.074689},
{-0.067368,-0.067368,-0.067368,-0.067368,-0.067368,-0.067368,-0.067368,-0.067368,-0.067368,-0.067368,-0.067368,-0.067368,-0.067368,-0.067368,-0.067368,-0.067368},
{-0.022986,-0.022986,-0.022986,-0.022986,-0.022986,-0.022986,-0.022986,-0.022986,-0.022986,-0.022986,-0.022986,-0.022986,-0.022986,-0.022986,-0.022986,-0.022986},
{-0.105343,-0.105343,-0.105343,-0.105343,-0.105343,-0.105343,-0.105343,-0.105343,-0.105343,-0.105343,-0.105343,-0.105343,-0.105343,-0.105343,-0.105343,-0.105343},
{0.039514,0.039514,0.039514,0.039514,0.039514,0.039514,0.039514,0.039514,0.039514,0.039514,0.039514,0.039514,0.039514,0.039514,0.039514,0.039514},
{0.019465,0.019465,0.019465,0.019465,0.019465,0.019465,0.019465,0.019465,0.019465,0.019465,0.019465,0.019465,0.019465,0.019465,0.019465,0.019465},
{-0.131809,-0.131809,-0.131809,-0.131809,-0.131809,-0.131809,-0.131809,-0.131809,-0.131809,-0.131809,-0.131809,-0.131809,-0.131809,-0.131809,-0.131809,-0.131809},
{0.027756,0.027756,0.027756,0.027756,0.027756,0.027756,0.027756,0.027756,0.027756,0.027756,0.027756,0.027756,0.027756,0.027756,0.027756,0.027756},
{-0.023008,-0.023008,-0.023008,-0.023008,-0.023008,-0.023008,-0.023008,-0.023008,-0.023008,-0.023008,-0.023008,-0.023008,-0.023008,-0.023008,-0.023008,-0.023008},
{0.070791,0.070791,0.070791,0.070791,0.070791,0.070791,0.070791,0.070791,0.070791,0.070791,0.070791,0.070791,0.070791,0.070791,0.070791,0.070791},
{-0.067267,-0.067267,-0.067267,-0.067267,-0.067267,-0.067267,-0.067267,-0.067267,-0.067267,-0.067267,-0.067267,-0.067267,-0.067267,-0.067267,-0.067267,-0.067267},
{-0.019133,-0.019133,-0.019133,-0.019133,-0.019133,-0.019133,-0.019133,-0.019133,-0.019133,-0.019133,-0.019133,-0.019133,-0.019133,-0.019133,-0.019133,-0.019133},
{0.015479,0.015479,0.015479,0.015479,0.015479,0.015479,0.015479,0.015479,0.015479,0.015479,0.015479,0.015479,0.015479,0.015479,0.015479,0.015479},
{-0.027604,-0.027604,-0.027604,-0.027604,-0.027604,-0.027604,-0.027604,-0.027604,-0.027604,-0.027604,-0.027604,-0.027604,-0.027604,-0.027604,-0.027604,-0.027604},
{-0.057712,-0.057712,-0.057712,-0.057712,-0.057712,-0.057712,-0.057712,-0.057712,-0.057712,-0.057712,-0.057712,-0.057712,-0.057712,-0.057712,-0.057712,-0.057712},
{0.042924,0.042924,0.042924,0.042924,0.042924,0.042924,0.042924,0.042924,0.042924,0.042924,0.042924,0.042924,0.042924,0.042924,0.042924,0.042924},
{0.050293,0.050293,0.050293,0.050293,0.050293,0.050293,0.050293,0.050293,0.050293,0.050293,0.050293,0.050293,0.050293,0.050293,0.050293,0.050293},
{0.039353,0.039353,0.039353,0.039353,0.039353,0.039353,0.039353,0.039353,0.039353,0.039353,0.039353,0.039353,0.039353,0.039353,0.039353,0.039353},
{-0.116238,-0.116238,-0.116238,-0.116238,-0.116238,-0.116238,-0.116238,-0.116238,-0.116238,-0.116238,-0.116238,-0.116238,-0.116238,-0.116238,-0.116238,-0.116238},
{0.029755,0.029755,0.029755,0.029755,0.029755,0.029755,0.029755,0.029755,0.029755,0.029755,0.029755,0.029755,0.029755,0.029755,0.029755,0.029755},
{-0.024433,-0.024433,-0.024433,-0.024433,-0.024433,-0.024433,-0.024433,-0.024433,-0.024433,-0.024433,-0.024433,-0.024433,-0.024433,-0.024433,-0.024433,-0.024433},
{0.030301,0.030301,0.030301,0.030301,0.030301,0.030301,0.030301,0.030301,0.030301,0.030301,0.030301,0.030301,0.030301,0.030301,0.030301,0.030301},
{-0.044837,-0.044837,-0.044837,-0.044837,-0.044837,-0.044837,-0.044837,-0.044837,-0.044837,-0.044837,-0.044837,-0.044837,-0.044837,-0.044837,-0.044837,-0.044837},
{0.214808,0.214808,0.214808,0.214808,0.214808,0.214808,0.214808,0.214808,0.214808,0.214808,0.214808,0.214808,0.214808,0.214808,0.214808,0.214808},
{0.010421,0.010421,0.010421,0.010421,0.010421,0.010421,0.010421,0.010421,0.010421,0.010421,0.010421,0.010421,0.010421,0.010421,0.010421,0.010421},
{-0.000804,-0.000804,-0.000804,-0.000804,-0.000804,-0.000804,-0.000804,-0.000804,-0.000804,-0.000804,-0.000804,-0.000804,-0.000804,-0.000804,-0.000804,-0.000804},
{0.059734,0.059734,0.059734,0.059734,0.059734,0.059734,0.059734,0.059734,0.059734,0.059734,0.059734,0.059734,0.059734,0.059734,0.059734,0.059734},
{0.054012,0.054012,0.054012,0.054012,0.054012,0.054012,0.054012,0.054012,0.054012,0.054012,0.054012,0.054012,0.054012,0.054012,0.054012,0.054012},
{-0.089221,-0.089221,-0.089221,-0.089221,-0.089221,-0.089221,-0.089221,-0.089221,-0.089221,-0.089221,-0.089221,-0.089221,-0.089221,-0.089221,-0.089221,-0.089221},
{0.053803,0.053803,0.053803,0.053803,0.053803,0.053803,0.053803,0.053803,0.053803,0.053803,0.053803,0.053803,0.053803,0.053803,0.053803,0.053803},
{-0.025500,-0.025500,-0.025500,-0.025500,-0.025500,-0.025500,-0.025500,-0.025500,-0.025500,-0.025500,-0.025500,-0.025500,-0.025500,-0.025500,-0.025500,-0.025500},
{0.068532,0.068532,0.068532,0.068532,0.068532,0.068532,0.068532,0.068532,0.068532,0.068532,0.068532,0.068532,0.068532,0.068532,0.068532,0.068532},
{-0.097044,-0.097044,-0.097044,-0.097044,-0.097044,-0.097044,-0.097044,-0.097044,-0.097044,-0.097044,-0.097044,-0.097044,-0.097044,-0.097044,-0.097044,-0.097044},
{-0.008092,-0.008092,-0.008092,-0.008092,-0.008092,-0.008092,-0.008092,-0.008092,-0.008092,-0.008092,-0.008092,-0.008092,-0.008092,-0.008092,-0.008092,-0.008092},
{0.033114,0.033114,0.033114,0.033114,0.033114,0.033114,0.033114,0.033114,0.033114,0.033114,0.033114,0.033114,0.033114,0.033114,0.033114,0.033114},
{-0.077759,-0.077759,-0.077759,-0.077759,-0.077759,-0.077759,-0.077759,-0.077759,-0.077759,-0.077759,-0.077759,-0.077759,-0.077759,-0.077759,-0.077759,-0.077759},
{0.023695,0.023695,0.023695,0.023695,0.023695,0.023695,0.023695,0.023695,0.023695,0.023695,0.023695,0.023695,0.023695,0.023695,0.023695,0.023695},
{0.020141,0.020141,0.020141,0.020141,0.020141,0.020141,0.020141,0.020141,0.020141,0.020141,0.020141,0.020141,0.020141,0.020141,0.020141,0.020141},
{-0.067828,-0.067828,-0.067828,-0.067828,-0.067828,-0.067828,-0.067828,-0.067828,-0.067828,-0.067828,-0.067828,-0.067828,-0.067828,-0.067828,-0.067828,-0.067828},
{0.038592,0.038592,0.038592,0.038592,0.038592,0.038592,0.038592,0.038592,0.038592,0.038592,0.038592,0.038592,0.038592,0.038592,0.038592,0.038592},
{-0.023191,-0.023191,-0.023191,-0.023191,-0.023191,-0.023191,-0.023191,-0.023191,-0.023191,-0.023191,-0.023191,-0.023191,-0.023191,-0.023191,-0.023191,-0.023191},
{0.021937,0.021937,0.021937,0.021937,0.021937,0.021937,0.021937,0.021937,0.021937,0.021937,0.021937,0.021937,0.021937,0.021937,0.021937,0.021937},
{-0.025687,-0.025687,-0.025687,-0.025687,-0.025687,-0.025687,-0.025687,-0.025687,-0.025687,-0.025687,-0.025687,-0.025687,-0.025687,-0.025687,-0.025687,-0.025687},
{-0.010453,-0.010453,-0.010453,-0.010453,-0.010453,-0.010453,-0.010453,-0.010453,-0.010453,-0.010453,-0.010453,-0.010453,-0.010453,-0.010453,-0.010453,-0.010453},
{0.035348,0.035348,0.035348,0.035348,0.035348,0.035348,0.035348,0.035348,0.035348,0.035348,0.035348,0.035348,0.035348,0.035348,0.035348,0.035348},
{0.033137,0.033137,0.033137,0.033137,0.033137,0.033137,0.033137,0.033137,0.033137,0.033137,0.033137,0.033137,0.033137,0.033137,0.033137,0.033137},
{-0.009739,-0.009739,-0.009739,-0.009739,-0.009739,-0.009739,-0.009739,-0.009739,-0.009739,-0.009739,-0.009739,-0.009739,-0.009739,-0.009739,-0.009739,-0.009739},
{0.041191,0.041191,0.041191,0.041191,0.041191,0.041191,0.041191,0.041191,0.041191,0.041191,0.041191,0.041191,0.041191,0.041191,0.041191,0.041191},
{0.007027,0.007027,0.007027,0.007027,0.007027,0.007027,0.007027,0.007027,0.007027,0.007027,0.007027,0.007027,0.007027,0.007027,0.007027,0.007027},
{-0.074060,-0.074060,-0.074060,-0.074060,-0.074060,-0.074060,-0.074060,-0.074060,-0.074060,-0.074060,-0.074060,-0.074060,-0.074060,-0.074060,-0.074060,-0.074060},
{0.087567,0.087567,0.087567,0.087567,0.087567,0.087567,0.087567,0.087567,0.087567,0.087567,0.087567,0.087567,0.087567,0.087567,0.087567,0.087567},
{-0.040150,-0.040150,-0.040150,-0.040150,-0.040150,-0.040150,-0.040150,-0.040150,-0.040150,-0.040150,-0.040150,-0.040150,-0.040150,-0.040150,-0.040150,-0.040150},
{0.048264,0.048264,0.048264,0.048264,0.048264,0.048264,0.048264,0.048264,0.048264,0.048264,0.048264,0.048264,0.048264,0.048264,0.048264,0.048264},
{0.058659,0.058659,0.058659,0.058659,0.058659,0.058659,0.058659,0.058659,0.058659,0.058659,0.058659,0.058659,0.058659,0.058659,0.058659,0.058659},
{-0.031257,-0.031257,-0.031257,-0.031257,-0.031257,-0.031257,-0.031257,-0.031257,-0.031257,-0.031257,-0.031257,-0.031257,-0.031257,-0.031257,-0.031257,-0.031257},
{-0.017464,-0.017464,-0.017464,-0.017464,-0.017464,-0.017464,-0.017464,-0.017464,-0.017464,-0.017464,-0.017464,-0.017464,-0.017464,-0.017464,-0.017464,-0.017464},
{-0.067450,-0.067450,-0.067450,-0.067450,-0.067450,-0.067450,-0.067450,-0.067450,-0.067450,-0.067450,-0.067450,-0.067450,-0.067450,-0.067450,-0.067450,-0.067450},
{0.009631,0.009631,0.009631,0.009631,0.009631,0.009631,0.009631,0.009631,0.009631,0.009631,0.009631,0.009631,0.009631,0.009631,0.009631,0.009631},
{-0.017303,-0.017303,-0.017303,-0.017303,-0.017303,-0.017303,-0.017303,-0.017303,-0.017303,-0.017303,-0.017303,-0.017303,-0.017303,-0.017303,-0.017303,-0.017303},
{-0.111223,-0.111223,-0.111223,-0.111223,-0.111223,-0.111223,-0.111223,-0.111223,-0.111223,-0.111223,-0.111223,-0.111223,-0.111223,-0.111223,-0.111223,-0.111223},
{0.091562,0.091562,0.091562,0.091562,0.091562,0.091562,0.091562,0.091562,0.091562,0.091562,0.091562,0.091562,0.091562,0.091562,0.091562,0.091562},
{-0.002508,-0.002508,-0.002508,-0.002508,-0.002508,-0.002508,-0.002508,-0.002508,-0.002508,-0.002508,-0.002508,-0.002508,-0.002508,-0.002508,-0.002508,-0.002508},
{0.044546,0.044546,0.044546,0.044546,0.044546,0.044546,0.044546,0.044546,0.044546,0.044546,0.044546,0.044546,0.044546,0.044546,0.044546,0.044546},
{-0.038355,-0.038355,-0.038355,-0.038355,-0.038355,-0.038355,-0.038355,-0.038355,-0.038355,-0.038355,-0.038355,-0.038355,-0.038355,-0.038355,-0.038355,-0.038355},
{-0.030873,-0.030873,-0.030873,-0.030873,-0.030873,-0.030873,-0.030873,-0.030873,-0.030873,-0.030873,-0.030873,-0.030873,-0.030873,-0.030873,-0.030873,-0.030873},
{0.068435,0.068435,0.068435,0.068435,0.068435,0.068435,0.068435,0.068435,0.068435,0.068435,0.068435,0.068435,0.068435,0.068435,0.068435,0.068435},
{-0.004431,-0.004431,-0.004431,-0.004431,-0.004431,-0.004431,-0.004431,-0.004431,-0.004431,-0.004431,-0.004431,-0.004431,-0.004431,-0.004431,-0.004431,-0.004431},
{0.000370,0.000370,0.000370,0.000370,0.000370,0.000370,0.000370,0.000370,0.000370,0.000370,0.000370,0.000370,0.000370,0.000370,0.000370,0.000370},
{-0.013291,-0.013291,-0.013291,-0.013291,-0.013291,-0.013291,-0.013291,-0.013291,-0.013291,-0.013291,-0.013291,-0.013291,-0.013291,-0.013291,-0.013291,-0.013291},
{0.069165,0.069165,0.069165,0.069165,0.069165,0.069165,0.069165,0.069165,0.069165,0.069165,0.069165,0.069165,0.069165,0.069165,0.069165,0.069165},
{0.016671,0.016671,0.016671,0.016671,0.016671,0.016671,0.016671,0.016671,0.016671,0.016671,0.016671,0.016671,0.016671,0.016671,0.016671,0.016671},
{0.029750,0.029750,0.029750,0.029750,0.029750,0.029750,0.029750,0.029750,0.029750,0.029750,0.029750,0.029750,0.029750,0.029750,0.029750,0.029750},
{0.303853,0.303853,0.303853,0.303853,0.303853,0.303853,0.303853,0.303853,0.303853,0.303853,0.303853,0.303853,0.303853,0.303853,0.303853,0.303853},
{-0.002582,-0.002582,-0.002582,-0.002582,-0.002582,-0.002582,-0.002582,-0.002582,-0.002582,-0.002582,-0.002582,-0.002582,-0.002582,-0.002582,-0.002582,-0.002582},
{-0.001269,-0.001269,-0.001269,-0.001269,-0.001269,-0.001269,-0.001269,-0.001269,-0.001269,-0.001269,-0.001269,-0.001269,-0.001269,-0.001269,-0.001269,-0.001269},
{0.034035,0.034035,0.034035,0.034035,0.034035,0.034035,0.034035,0.034035,0.034035,0.034035,0.034035,0.034035,0.034035,0.034035,0.034035,0.034035},
{0.046713,0.046713,0.046713,0.046713,0.046713,0.046713,0.046713,0.046713,0.046713,0.046713,0.046713,0.046713,0.046713,0.046713,0.046713,0.046713},
{0.099920,0.099920,0.099920,0.099920,0.099920,0.099920,0.099920,0.099920,0.099920,0.099920,0.099920,0.099920,0.099920,0.099920,0.099920,0.099920},
{-0.100140,-0.100140,-0.100140,-0.100140,-0.100140,-0.100140,-0.100140,-0.100140,-0.100140,-0.100140,-0.100140,-0.100140,-0.100140,-0.100140,-0.100140,-0.100140},
{-0.000805,-0.000805,-0.000805,-0.000805,-0.000805,-0.000805,-0.000805,-0.000805,-0.000805,-0.000805,-0.000805,-0.000805,-0.000805,-0.000805,-0.000805,-0.000805},
{-0.081963,-0.081963,-0.081963,-0.081963,-0.081963,-0.081963,-0.081963,-0.081963,-0.081963,-0.081963,-0.081963,-0.081963,-0.081963,-0.081963,-0.081963,-0.081963},
{0.056465,0.056465,0.056465,0.056465,0.056465,0.056465,0.056465,0.056465,0.056465,0.056465,0.056465,0.056465,0.056465,0.056465,0.056465,0.056465},
{-0.119985,-0.119985,-0.119985,-0.119985,-0.119985,-0.119985,-0.119985,-0.119985,-0.119985,-0.119985,-0.119985,-0.119985,-0.119985,-0.119985,-0.119985,-0.119985},
{0.005083,0.005083,0.005083,0.005083,0.005083,0.005083,0.005083,0.005083,0.005083,0.005083,0.005083,0.005083,0.005083,0.005083,0.005083,0.005083},
{-0.000808,-0.000808,-0.000808,-0.000808,-0.000808,-0.000808,-0.000808,-0.000808,-0.000808,-0.000808,-0.000808,-0.000808,-0.000808,-0.000808,-0.000808,-0.000808},
{0.030372,0.030372,0.030372,0.030372,0.030372,0.030372,0.030372,0.030372,0.030372,0.030372,0.030372,0.030372,0.030372,0.030372,0.030372,0.030372},
{-0.031662,-0.031662,-0.031662,-0.031662,-0.031662,-0.031662,-0.031662,-0.031662,-0.031662,-0.031662,-0.031662,-0.031662,-0.031662,-0.031662,-0.031662,-0.031662},
{0.000426,0.000426,0.000426,0.000426,0.000426,0.000426,0.000426,0.000426,0.000426,0.000426,0.000426,0.000426,0.000426,0.000426,0.000426,0.000426},
{-0.064580,-0.064580,-0.064580,-0.064580,-0.064580,-0.064580,-0.064580,-0.064580,-0.064580,-0.064580,-0.064580,-0.064580,-0.064580,-0.064580,-0.064580,-0.064580},
{0.038860,0.038860,0.038860,0.038860,0.038860,0.038860,0.038860,0.038860,0.038860,0.038860,0.038860,0.038860,0.038860,0.038860,0.038860,0.038860},
{-0.002439,-0.002439,-0.002439,-0.002439,-0.002439,-0.002439,-0.002439,-0.002439,-0.002439,-0.002439,-0.002439,-0.002439,-0.002439,-0.002439,-0.002439,-0.002439},
{0.007434,0.007434,0.007434,0.007434,0.007434,0.007434,0.007434,0.007434,0.007434,0.007434,0.007434,0.007434,0.007434,0.007434,0.007434,0.007434},
{-0.044425,-0.044425,-0.044425,-0.044425,-0.044425,-0.044425,-0.044425,-0.044425,-0.044425,-0.044425,-0.044425,-0.044425,-0.044425,-0.044425,-0.044425,-0.044425},
{0.007762,0.007762,0.007762,0.007762,0.007762,0.007762,0.007762,0.007762,0.007762,0.007762,0.007762,0.007762,0.007762,0.007762,0.007762,0.007762},
{0.002046,0.002046,0.002046,0.002046,0.002046,0.002046,0.002046,0.002046,0.002046,0.002046,0.002046,0.002046,0.002046,0.002046,0.002046,0.002046},
{-0.121761,-0.121761,-0.121761,-0.121761,-0.121761,-0.121761,-0.121761,-0.121761,-0.121761,-0.121761,-0.121761,-0.121761,-0.121761,-0.121761,-0.121761,-0.121761},
{0.000354,0.000354,0.000354,0.000354,0.000354,0.000354,0.000354,0.000354,0.000354,0.000354,0.000354,0.000354,0.000354,0.000354,0.000354,0.000354},
{-0.020179,-0.020179,-0.020179,-0.020179,-0.020179,-0.020179,-0.020179,-0.020179,-0.020179,-0.020179,-0.020179,-0.020179,-0.020179,-0.020179,-0.020179,-0.020179},
{0.066857,0.066857,0.066857,0.066857,0.066857,0.066857,0.066857,0.066857,0.066857,0.066857,0.066857,0.066857,0.066857,0.066857,0.066857,0.066857},
{0.016307,0.016307,0.016307,0.016307,0.016307,0.016307,0.016307,0.016307,0.016307,0.016307,0.016307,0.016307,0.016307,0.016307,0.016307,0.016307},
{-0.010836,-0.010836,-0.010836,-0.010836,-0.010836,-0.010836,-0.010836,-0.010836,-0.010836,-0.010836,-0.010836,-0.010836,-0.010836,-0.010836,-0.010836,-0.010836},
{-0.065708,-0.065708,-0.065708,-0.065708,-0.065708,-0.065708,-0.065708,-0.065708,-0.065708,-0.065708,-0.065708,-0.065708,-0.065708,-0.065708,-0.065708,-0.065708},
{-0.009915,-0.009915,-0.009915,-0.009915,-0.009915,-0.009915,-0.009915,-0.009915,-0.009915,-0.009915,-0.009915,-0.009915,-0.009915,-0.009915,-0.009915,-0.009915},
{0.001436,0.001436,0.001436,0.001436,0.001436,0.001436,0.001436,0.001436,0.001436,0.001436,0.001436,0.001436,0.001436,0.001436,0.001436,0.001436},
{-0.037632,-0.037632,-0.037632,-0.037632,-0.037632,-0.037632,-0.037632,-0.037632,-0.037632,-0.037632,-0.037632,-0.037632,-0.037632,-0.037632,-0.037632,-0.037632},
{0.002134,0.002134,0.002134,0.002134,0.002134,0.002134,0.002134,0.002134,0.002134,0.002134,0.002134,0.002134,0.002134,0.002134,0.002134,0.002134},
{0.053085,0.053085,0.053085,0.053085,0.053085,0.053085,0.053085,0.053085,0.053085,0.053085,0.053085,0.053085,0.053085,0.053085,0.053085,0.053085},
{-0.033307,-0.033307,-0.033307,-0.033307,-0.033307,-0.033307,-0.033307,-0.033307,-0.033307,-0.033307,-0.033307,-0.033307,-0.033307,-0.033307,-0.033307,-0.033307},
{0.040544,0.040544,0.040544,0.040544,0.040544,0.040544,0.040544,0.040544,0.040544,0.040544,0.040544,0.040544,0.040544,0.040544,0.040544,0.040544},
{-0.002410,-0.002410,-0.002410,-0.002410,-0.002410,-0.002410,-0.002410,-0.002410,-0.002410,-0.002410,-0.002410,-0.002410,-0.002410,-0.002410,-0.002410,-0.002410},
{-0.023541,-0.023541,-0.023541,-0.023541,-0.023541,-0.023541,-0.023541,-0.023541,-0.023541,-0.023541,-0.023541,-0.023541,-0.023541,-0.023541,-0.023541,-0.023541},
{-0.169755,-0.169755,-0.169755,-0.169755,-0.169755,-0.169755,-0.169755,-0.169755,-0.169755,-0.169755,-0.169755,-0.169755,-0.169755,-0.169755,-0.169755,-0.169755},
{-0.028789,-0.028789,-0.028789,-0.028789,-0.028789,-0.028789,-0.028789,-0.028789,-0.028789,-0.028789,-0.028789,-0.028789,-0.028789,-0.028789,-0.028789,-0.028789},
{0.000829,0.000829,0.000829,0.000829,0.000829,0.000829,0.000829,0.000829,0.000829,0.000829,0.000829,0.000829,0.000829,0.000829,0.000829,0.000829},
{-0.035719,-0.035719,-0.035719,-0.035719,-0.035719,-0.035719,-0.035719,-0.035719,-0.035719,-0.035719,-0.035719,-0.035719,-0.035719,-0.035719,-0.035719,-0.035719},
{0.028497,0.028497,0.028497,0.028497,0.028497,0.028497,0.028497,0.028497,0.028497,0.028497,0.028497,0.028497,0.028497,0.028497,0.028497,0.028497},
{-0.000151,-0.000151,-0.000151,-0.000151,-0.000151,-0.000151,-0.000151,-0.000151,-0.000151,-0.000151,-0.000151,-0.000151,-0.000151,-0.000151,-0.000151,-0.000151},
{0.066433,0.066433,0.066433,0.066433,0.066433,0.066433,0.066433,0.066433,0.066433,0.066433,0.066433,0.066433,0.066433,0.066433,0.066433,0.066433},
{-0.018098,-0.018098,-0.018098,-0.018098,-0.018098,-0.018098,-0.018098,-0.018098,-0.018098,-0.018098,-0.018098,-0.018098,-0.018098,-0.018098,-0.018098,-0.018098},
{0.087628,0.087628,0.087628,0.087628,0.087628,0.087628,0.087628,0.087628,0.087628,0.087628,0.087628,0.087628,0.087628,0.087628,0.087628,0.087628},
{0.004611,0.004611,0.004611,0.004611,0.004611,0.004611,0.004611,0.004611,0.004611,0.004611,0.004611,0.004611,0.004611,0.004611,0.004611,0.004611},
{-0.135782,-0.135782,-0.135782,-0.135782,-0.135782,-0.135782,-0.135782,-0.135782,-0.135782,-0.135782,-0.135782,-0.135782,-0.135782,-0.135782,-0.135782,-0.135782},
{0.007890,0.007890,0.007890,0.007890,0.007890,0.007890,0.007890,0.007890,0.007890,0.007890,0.007890,0.007890,0.007890,0.007890,0.007890,0.007890},
{-0.030500,-0.030500,-0.030500,-0.030500,-0.030500,-0.030500,-0.030500,-0.030500,-0.030500,-0.030500,-0.030500,-0.030500,-0.030500,-0.030500,-0.030500,-0.030500},
{0.051163,0.051163,0.051163,0.051163,0.051163,0.051163,0.051163,0.051163,0.051163,0.051163,0.051163,0.051163,0.051163,0.051163,0.051163,0.051163},
{-0.026175,-0.026175,-0.026175,-0.026175,-0.026175,-0.026175,-0.026175,-0.026175,-0.026175,-0.026175,-0.026175,-0.026175,-0.026175,-0.026175,-0.026175,-0.026175},
{0.315313,0.315313,0.315313,0.315313,0.315313,0.315313,0.315313,0.315313,0.315313,0.315313,0.315313,0.315313,0.315313,0.315313,0.315313,0.315313},
{0.022636,0.022636,0.022636,0.022636,0.022636,0.022636,0.022636,0.022636,0.022636,0.022636,0.022636,0.022636,0.022636,0.022636,0.022636,0.022636},
{0.003994,0.003994,0.003994,0.003994,0.003994,0.003994,0.003994,0.003994,0.003994,0.003994,0.003994,0.003994,0.003994,0.003994,0.003994,0.003994},
{-0.007723,-0.007723,-0.007723,-0.007723,-0.007723,-0.007723,-0.007723,-0.007723,-0.007723,-0.007723,-0.007723,-0.007723,-0.007723,-0.007723,-0.007723,-0.007723},
{-0.195467,-0.195467,-0.195467,-0.195467,-0.195467,-0.195467,-0.195467,-0.195467,-0.195467,-0.195467,-0.195467,-0.195467,-0.195467,-0.195467,-0.195467,-0.195467},
{-0.025439,-0.025439,-0.025439,-0.025439,-0.025439,-0.025439,-0.025439,-0.025439,-0.025439,-0.025439,-0.025439,-0.025439,-0.025439,-0.025439,-0.025439,-0.025439},
{-0.090771,-0.090771,-0.090771,-0.090771,-0.090771,-0.090771,-0.090771,-0.090771,-0.090771,-0.090771,-0.090771,-0.090771,-0.090771,-0.090771,-0.090771,-0.090771},
{-0.008825,-0.008825,-0.008825,-0.008825,-0.008825,-0.008825,-0.008825,-0.008825,-0.008825,-0.008825,-0.008825,-0.008825,-0.008825,-0.008825,-0.008825,-0.008825},
{-0.018298,-0.018298,-0.018298,-0.018298,-0.018298,-0.018298,-0.018298,-0.018298,-0.018298,-0.018298,-0.018298,-0.018298,-0.018298,-0.018298,-0.018298,-0.018298},
{0.123094,0.123094,0.123094,0.123094,0.123094,0.123094,0.123094,0.123094,0.123094,0.123094,0.123094,0.123094,0.123094,0.123094,0.123094,0.123094},
{-0.051421,-0.051421,-0.051421,-0.051421,-0.051421,-0.051421,-0.051421,-0.051421,-0.051421,-0.051421,-0.051421,-0.051421,-0.051421,-0.051421,-0.051421,-0.051421},
{-0.069833,-0.069833,-0.069833,-0.069833,-0.069833,-0.069833,-0.069833,-0.069833,-0.069833,-0.069833,-0.069833,-0.069833,-0.069833,-0.069833,-0.069833,-0.069833},
{-0.036422,-0.036422,-0.036422,-0.036422,-0.036422,-0.036422,-0.036422,-0.036422,-0.036422,-0.036422,-0.036422,-0.036422,-0.036422,-0.036422,-0.036422,-0.036422},
{-0.012644,-0.012644,-0.012644,-0.012644,-0.012644,-0.012644,-0.012644,-0.012644,-0.012644,-0.012644,-0.012644,-0.012644,-0.012644,-0.012644,-0.012644,-0.012644},
{-0.018598,-0.018598,-0.018598,-0.018598,-0.018598,-0.018598,-0.018598,-0.018598,-0.018598,-0.018598,-0.018598,-0.018598,-0.018598,-0.018598,-0.018598,-0.018598},
{-0.033576,-0.033576,-0.033576,-0.033576,-0.033576,-0.033576,-0.033576,-0.033576,-0.033576,-0.033576,-0.033576,-0.033576,-0.033576,-0.033576,-0.033576,-0.033576},
{0.045203,0.045203,0.045203,0.045203,0.045203,0.045203,0.045203,0.045203,0.045203,0.045203,0.045203,0.045203,0.045203,0.045203,0.045203,0.045203},
{0.003451,0.003451,0.003451,0.003451,0.003451,0.003451,0.003451,0.003451,0.003451,0.003451,0.003451,0.003451,0.003451,0.003451,0.003451,0.003451},
{-0.003984,-0.003984,-0.003984,-0.003984,-0.003984,-0.003984,-0.003984,-0.003984,-0.003984,-0.003984,-0.003984,-0.003984,-0.003984,-0.003984,-0.003984,-0.003984},
{0.024275,0.024275,0.024275,0.024275,0.024275,0.024275,0.024275,0.024275,0.024275,0.024275,0.024275,0.024275,0.024275,0.024275,0.024275,0.024275},
{0.025104,0.025104,0.025104,0.025104,0.025104,0.025104,0.025104,0.025104,0.025104,0.025104,0.025104,0.025104,0.025104,0.025104,0.025104,0.025104},
{0.003994,0.003994,0.003994,0.003994,0.003994,0.003994,0.003994,0.003994,0.003994,0.003994,0.003994,0.003994,0.003994,0.003994,0.003994,0.003994},
{0.005453,0.005453,0.005453,0.005453,0.005453,0.005453,0.005453,0.005453,0.005453,0.005453,0.005453,0.005453,0.005453,0.005453,0.005453,0.005453},
{-0.013911,-0.013911,-0.013911,-0.013911,-0.013911,-0.013911,-0.013911,-0.013911,-0.013911,-0.013911,-0.013911,-0.013911,-0.013911,-0.013911,-0.013911,-0.013911},
{0.008507,0.008507,0.008507,0.008507,0.008507,0.008507,0.008507,0.008507,0.008507,0.008507,0.008507,0.008507,0.008507,0.008507,0.008507,0.008507},
{-0.004309,-0.004309,-0.004309,-0.004309,-0.004309,-0.004309,-0.004309,-0.004309,-0.004309,-0.004309,-0.004309,-0.004309,-0.004309,-0.004309,-0.004309,-0.004309},
{0.057548,0.057548,0.057548,0.057548,0.057548,0.057548,0.057548,0.057548,0.057548,0.057548,0.057548,0.057548,0.057548,0.057548,0.057548,0.057548},
{0.004102,0.004102,0.004102,0.004102,0.004102,0.004102,0.004102,0.004102,0.004102,0.004102,0.004102,0.004102,0.004102,0.004102,0.004102,0.004102},
{0.005063,0.005063,0.005063,0.005063,0.005063,0.005063,0.005063,0.005063,0.005063,0.005063,0.005063,0.005063,0.005063,0.005063,0.005063,0.005063},
{0.012563,0.012563,0.012563,0.012563,0.012563,0.012563,0.012563,0.012563,0.012563,0.012563,0.012563,0.012563,0.012563,0.012563,0.012563,0.012563},
{-0.301339,-0.301339,-0.301339,-0.301339,-0.301339,-0.301339,-0.301339,-0.301339,-0.301339,-0.301339,-0.301339,-0.301339,-0.301339,-0.301339,-0.301339,-0.301339},
{-0.009858,-0.009858,-0.009858,-0.009858,-0.009858,-0.009858,-0.009858,-0.009858,-0.009858,-0.009858,-0.009858,-0.009858,-0.009858,-0.009858,-0.009858,-0.009858},
{0.020321,0.020321,0.020321,0.020321,0.020321,0.020321,0.020321,0.020321,0.020321,0.020321,0.020321,0.020321,0.020321,0.020321,0.020321,0.020321},
{0.029843,0.029843,0.029843,0.029843,0.029843,0.029843,0.029843,0.029843,0.029843,0.029843,0.029843,0.029843,0.029843,0.029843,0.029843,0.029843},
{-0.012255,-0.012255,-0.012255,-0.012255,-0.012255,-0.012255,-0.012255,-0.012255,-0.012255,-0.012255,-0.012255,-0.012255,-0.012255,-0.012255,-0.012255,-0.012255},
{-0.004793,-0.004793,-0.004793,-0.004793,-0.004793,-0.004793,-0.004793,-0.004793,-0.004793,-0.004793,-0.004793,-0.004793,-0.004793,-0.004793,-0.004793,-0.004793},
{0.068060,0.068060,0.068060,0.068060,0.068060,0.068060,0.068060,0.068060,0.068060,0.068060,0.068060,0.068060,0.068060,0.068060,0.068060,0.068060},
{-0.037446,-0.037446,-0.037446,-0.037446,-0.037446,-0.037446,-0.037446,-0.037446,-0.037446,-0.037446,-0.037446,-0.037446,-0.037446,-0.037446,-0.037446,-0.037446},
{-0.011379,-0.011379,-0.011379,-0.011379,-0.011379,-0.011379,-0.011379,-0.011379,-0.011379,-0.011379,-0.011379,-0.011379,-0.011379,-0.011379,-0.011379,-0.011379},
{0.032582,0.032582,0.032582,0.032582,0.032582,0.032582,0.032582,0.032582,0.032582,0.032582,0.032582,0.032582,0.032582,0.032582,0.032582,0.032582},
{0.102534,0.102534,0.102534,0.102534,0.102534,0.102534,0.102534,0.102534,0.102534,0.102534,0.102534,0.102534,0.102534,0.102534,0.102534,0.102534},
{-0.066076,-0.066076,-0.066076,-0.066076,-0.066076,-0.066076,-0.066076,-0.066076,-0.066076,-0.066076,-0.066076,-0.066076,-0.066076,-0.066076,-0.066076,-0.066076},
{-0.036563,-0.036563,-0.036563,-0.036563,-0.036563,-0.036563,-0.036563,-0.036563,-0.036563,-0.036563,-0.036563,-0.036563,-0.036563,-0.036563,-0.036563,-0.036563},
{0.021358,0.021358,0.021358,0.021358,0.021358,0.021358,0.021358,0.021358,0.021358,0.021358,0.021358,0.021358,0.021358,0.021358,0.021358,0.021358},
{0.036734,0.036734,0.036734,0.036734,0.036734,0.036734,0.036734,0.036734,0.036734,0.036734,0.036734,0.036734,0.036734,0.036734,0.036734,0.036734},
{-0.022073,-0.022073,-0.022073,-0.022073,-0.022073,-0.022073,-0.022073,-0.022073,-0.022073,-0.022073,-0.022073,-0.022073,-0.022073,-0.022073,-0.022073,-0.022073},
{-0.063696,-0.063696,-0.063696,-0.063696,-0.063696,-0.063696,-0.063696,-0.063696,-0.063696,-0.063696,-0.063696,-0.063696,-0.063696,-0.063696,-0.063696,-0.063696},
{-0.006535,-0.006535,-0.006535,-0.006535,-0.006535,-0.006535,-0.006535,-0.006535,-0.006535,-0.006535,-0.006535,-0.006535,-0.006535,-0.006535,-0.006535,-0.006535},
{-0.030151,-0.030151,-0.030151,-0.030151,-0.030151,-0.030151,-0.030151,-0.030151,-0.030151,-0.030151,-0.030151,-0.030151,-0.030151,-0.030151,-0.030151,-0.030151},
{0.047530,0.047530,0.047530,0.047530,0.047530,0.047530,0.047530,0.047530,0.047530,0.047530,0.047530,0.047530,0.047530,0.047530,0.047530,0.047530},
{0.016810,0.016810,0.016810,0.016810,0.016810,0.016810,0.016810,0.016810,0.016810,0.016810,0.016810,0.016810,0.016810,0.016810,0.016810,0.016810},
{-0.021432,-0.021432,-0.021432,-0.021432,-0.021432,-0.021432,-0.021432,-0.021432,-0.021432,-0.021432,-0.021432,-0.021432,-0.021432,-0.021432,-0.021432,-0.021432},
{0.088468,0.088468,0.088468,0.088468,0.088468,0.088468,0.088468,0.088468,0.088468,0.088468,0.088468,0.088468,0.088468,0.088468,0.088468,0.088468},
{0.030971,0.030971,0.030971,0.030971,0.030971,0.030971,0.030971,0.030971,0.030971,0.030971,0.030971,0.030971,0.030971,0.030971,0.030971,0.030971},
{0.003358,0.003358,0.003358,0.003358,0.003358,0.003358,0.003358,0.003358,0.003358,0.003358,0.003358,0.003358,0.003358,0.003358,0.003358,0.003358},
{0.027936,0.027936,0.027936,0.027936,0.027936,0.027936,0.027936,0.027936,0.027936,0.027936,0.027936,0.027936,0.027936,0.027936,0.027936,0.027936},
{-0.024646,-0.024646,-0.024646,-0.024646,-0.024646,-0.024646,-0.024646,-0.024646,-0.024646,-0.024646,-0.024646,-0.024646,-0.024646,-0.024646,-0.024646,-0.024646},
{-0.027836,-0.027836,-0.027836,-0.027836,-0.027836,-0.027836,-0.027836,-0.027836,-0.027836,-0.027836,-0.027836,-0.027836,-0.027836,-0.027836,-0.027836,-0.027836},
{-0.020807,-0.020807,-0.020807,-0.020807,-0.020807,-0.020807,-0.020807,-0.020807,-0.020807,-0.020807,-0.020807,-0.020807,-0.020807,-0.020807,-0.020807,-0.020807},
{-0.029743,-0.029743,-0.029743,-0.029743,-0.029743,-0.029743,-0.029743,-0.029743,-0.029743,-0.029743,-0.029743,-0.029743,-0.029743,-0.029743,-0.029743,-0.029743},
{-0.029541,-0.029541,-0.029541,-0.029541,-0.029541,-0.029541,-0.029541,-0.029541,-0.029541,-0.029541,-0.029541,-0.029541,-0.029541,-0.029541,-0.029541,-0.029541},
{0.089313,0.089313,0.089313,0.089313,0.089313,0.089313,0.089313,0.089313,0.089313,0.089313,0.089313,0.089313,0.089313,0.089313,0.089313,0.089313},
{0.062456,0.062456,0.062456,0.062456,0.062456,0.062456,0.062456,0.062456,0.062456,0.062456,0.062456,0.062456,0.062456,0.062456,0.062456,0.062456},
{-0.032762,-0.032762,-0.032762,-0.032762,-0.032762,-0.032762,-0.032762,-0.032762,-0.032762,-0.032762,-0.032762,-0.032762,-0.032762,-0.032762,-0.032762,-0.032762},
{0.050868,0.050868,0.050868,0.050868,0.050868,0.050868,0.050868,0.050868,0.050868,0.050868,0.050868,0.050868,0.050868,0.050868,0.050868,0.050868},
{0.033743,0.033743,0.033743,0.033743,0.033743,0.033743,0.033743,0.033743,0.033743,0.033743,0.033743,0.033743,0.033743,0.033743,0.033743,0.033743},
{0.047929,0.047929,0.047929,0.047929,0.047929,0.047929,0.047929,0.047929,0.047929,0.047929,0.047929,0.047929,0.047929,0.047929,0.047929,0.047929},
{0.060822,0.060822,0.060822,0.060822,0.060822,0.060822,0.060822,0.060822,0.060822,0.060822,0.060822,0.060822,0.060822,0.060822,0.060822,0.060822},
{0.016800,0.016800,0.016800,0.016800,0.016800,0.016800,0.016800,0.016800,0.016800,0.016800,0.016800,0.016800,0.016800,0.016800,0.016800,0.016800},
{-0.007827,-0.007827,-0.007827,-0.007827,-0.007827,-0.007827,-0.007827,-0.007827,-0.007827,-0.007827,-0.007827,-0.007827,-0.007827,-0.007827,-0.007827,-0.007827},
{0.045825,0.045825,0.045825,0.045825,0.045825,0.045825,0.045825,0.045825,0.045825,0.045825,0.045825,0.045825,0.045825,0.045825,0.045825,0.045825},
{0.001147,0.001147,0.001147,0.001147,0.001147,0.001147,0.001147,0.001147,0.001147,0.001147,0.001147,0.001147,0.001147,0.001147,0.001147,0.001147},
{-0.055682,-0.055682,-0.055682,-0.055682,-0.055682,-0.055682,-0.055682,-0.055682,-0.055682,-0.055682,-0.055682,-0.055682,-0.055682,-0.055682,-0.055682,-0.055682},
{-0.013310,-0.013310,-0.013310,-0.013310,-0.013310,-0.013310,-0.013310,-0.013310,-0.013310,-0.013310,-0.013310,-0.013310,-0.013310,-0.013310,-0.013310,-0.013310},
{-0.064101,-0.064101,-0.064101,-0.064101,-0.064101,-0.064101,-0.064101,-0.064101,-0.064101,-0.064101,-0.064101,-0.064101,-0.064101,-0.064101,-0.064101,-0.064101},
{-0.008086,-0.008086,-0.008086,-0.008086,-0.008086,-0.008086,-0.008086,-0.008086,-0.008086,-0.008086,-0.008086,-0.008086,-0.008086,-0.008086,-0.008086,-0.008086},
{-0.023251,-0.023251,-0.023251,-0.023251,-0.023251,-0.023251,-0.023251,-0.023251,-0.023251,-0.023251,-0.023251,-0.023251,-0.023251,-0.023251,-0.023251,-0.023251},
{-0.031716,-0.031716,-0.031716,-0.031716,-0.031716,-0.031716,-0.031716,-0.031716,-0.031716,-0.031716,-0.031716,-0.031716,-0.031716,-0.031716,-0.031716,-0.031716},
{-0.072194,-0.072194,-0.072194,-0.072194,-0.072194,-0.072194,-0.072194,-0.072194,-0.072194,-0.072194,-0.072194,-0.072194,-0.072194,-0.072194,-0.072194,-0.072194},
{0.032433,0.032433,0.032433,0.032433,0.032433,0.032433,0.032433,0.032433,0.032433,0.032433,0.032433,0.032433,0.032433,0.032433,0.032433,0.032433},
{-0.040633,-0.040633,-0.040633,-0.040633,-0.040633,-0.040633,-0.040633,-0.040633,-0.040633,-0.040633,-0.040633,-0.040633,-0.040633,-0.040633,-0.040633,-0.040633},
{-0.052740,-0.052740,-0.052740,-0.052740,-0.052740,-0.052740,-0.052740,-0.052740,-0.052740,-0.052740,-0.052740,-0.052740,-0.052740,-0.052740,-0.052740,-0.052740},
{-0.003570,-0.003570,-0.003570,-0.003570,-0.003570,-0.003570,-0.003570,-0.003570,-0.003570,-0.003570,-0.003570,-0.003570,-0.003570,-0.003570,-0.003570,-0.003570},
{-0.058904,-0.058904,-0.058904,-0.058904,-0.058904,-0.058904,-0.058904,-0.058904,-0.058904,-0.058904,-0.058904,-0.058904,-0.058904,-0.058904,-0.058904,-0.058904},
{0.024192,0.024192,0.024192,0.024192,0.024192,0.024192,0.024192,0.024192,0.024192,0.024192,0.024192,0.024192,0.024192,0.024192,0.024192,0.024192},
{-0.015537,-0.015537,-0.015537,-0.015537,-0.015537,-0.015537,-0.015537,-0.015537,-0.015537,-0.015537,-0.015537,-0.015537,-0.015537,-0.015537,-0.015537,-0.015537},
{0.001079,0.001079,0.001079,0.001079,0.001079,0.001079,0.001079,0.001079,0.001079,0.001079,0.001079,0.001079,0.001079,0.001079,0.001079,0.001079},
{-0.020819,-0.020819,-0.020819,-0.020819,-0.020819,-0.020819,-0.020819,-0.020819,-0.020819,-0.020819,-0.020819,-0.020819,-0.020819,-0.020819,-0.020819,-0.020819},
{0.035603,0.035603,0.035603,0.035603,0.035603,0.035603,0.035603,0.035603,0.035603,0.035603,0.035603,0.035603,0.035603,0.035603,0.035603,0.035603},
{-0.008194,-0.008194,-0.008194,-0.008194,-0.008194,-0.008194,-0.008194,-0.008194,-0.008194,-0.008194,-0.008194,-0.008194,-0.008194,-0.008194,-0.008194,-0.008194},
{-0.096078,-0.096078,-0.096078,-0.096078,-0.096078,-0.096078,-0.096078,-0.096078,-0.096078,-0.096078,-0.096078,-0.096078,-0.096078,-0.096078,-0.096078,-0.096078},
{0.009961,0.009961,0.009961,0.009961,0.009961,0.009961,0.009961,0.009961,0.009961,0.009961,0.009961,0.009961,0.009961,0.009961,0.009961,0.009961},
{0.005670,0.005670,0.005670,0.005670,0.005670,0.005670,0.005670,0.005670,0.005670,0.005670,0.005670,0.005670,0.005670,0.005670,0.005670,0.005670},
{0.016266,0.016266,0.016266,0.016266,0.016266,0.016266,0.016266,0.016266,0.016266,0.016266,0.016266,0.016266,0.016266,0.016266,0.016266,0.016266},
{0.016635,0.016635,0.016635,0.016635,0.016635,0.016635,0.016635,0.016635,0.016635,0.016635,0.016635,0.016635,0.016635,0.016635,0.016635,0.016635},
{0.003965,0.003965,0.003965,0.003965,0.003965,0.003965,0.003965,0.003965,0.003965,0.003965,0.003965,0.003965,0.003965,0.003965,0.003965,0.003965},
{-0.015336,-0.015336,-0.015336,-0.015336,-0.015336,-0.015336,-0.015336,-0.015336,-0.015336,-0.015336,-0.015336,-0.015336,-0.015336,-0.015336,-0.015336,-0.015336},
{0.031074,0.031074,0.031074,0.031074,0.031074,0.031074,0.031074,0.031074,0.031074,0.031074,0.031074,0.031074,0.031074,0.031074,0.031074,0.031074},
{-0.054800,-0.054800,-0.054800,-0.054800,-0.054800,-0.054800,-0.054800,-0.054800,-0.054800,-0.054800,-0.054800,-0.054800,-0.054800,-0.054800,-0.054800,-0.054800},
{-0.008820,-0.008820,-0.008820,-0.008820,-0.008820,-0.008820,-0.008820,-0.008820,-0.008820,-0.008820,-0.008820,-0.008820,-0.008820,-0.008820,-0.008820,-0.008820},
{-0.020416,-0.020416,-0.020416,-0.020416,-0.020416,-0.020416,-0.020416,-0.020416,-0.020416,-0.020416,-0.020416,-0.020416,-0.020416,-0.020416,-0.020416,-0.020416},
{-0.014722,-0.014722,-0.014722,-0.014722,-0.014722,-0.014722,-0.014722,-0.014722,-0.014722,-0.014722,-0.014722,-0.014722,-0.014722,-0.014722,-0.014722,-0.014722},
{-0.029908,-0.029908,-0.029908,-0.029908,-0.029908,-0.029908,-0.029908,-0.029908,-0.029908,-0.029908,-0.029908,-0.029908,-0.029908,-0.029908,-0.029908,-0.029908},
{0.007212,0.007212,0.007212,0.007212,0.007212,0.007212,0.007212,0.007212,0.007212,0.007212,0.007212,0.007212,0.007212,0.007212,0.007212,0.007212},
{0.043845,0.043845,0.043845,0.043845,0.043845,0.043845,0.043845,0.043845,0.043845,0.043845,0.043845,0.043845,0.043845,0.043845,0.043845,0.043845},
{0.038569,0.038569,0.038569,0.038569,0.038569,0.038569,0.038569,0.038569,0.038569,0.038569,0.038569,0.038569,0.038569,0.038569,0.038569,0.038569},
{0.088143,0.088143,0.088143,0.088143,0.088143,0.088143,0.088143,0.088143,0.088143,0.088143,0.088143,0.088143,0.088143,0.088143,0.088143,0.088143},
{0.036646,0.036646,0.036646,0.036646,0.036646,0.036646,0.036646,0.036646,0.036646,0.036646,0.036646,0.036646,0.036646,0.036646,0.036646,0.036646},
{0.073379,0.073379,0.073379,0.073379,0.073379,0.073379,0.073379,0.073379,0.073379,0.073379,0.073379,0.073379,0.073379,0.073379,0.073379,0.073379},
{-0.032608,-0.032608,-0.032608,-0.032608,-0.032608,-0.032608,-0.032608,-0.032608,-0.032608,-0.032608,-0.032608,-0.032608,-0.032608,-0.032608,-0.032608,-0.032608},
{0.083748,0.083748,0.083748,0.083748,0.083748,0.083748,0.083748,0.083748,0.083748,0.083748,0.083748,0.083748,0.083748,0.083748,0.083748,0.083748},
{-0.017111,-0.017111,-0.017111,-0.017111,-0.017111,-0.017111,-0.017111,-0.017111,-0.017111,-0.017111,-0.017111,-0.017111,-0.017111,-0.017111,-0.017111,-0.017111},
{-0.064190,-0.064190,-0.064190,-0.064190,-0.064190,-0.064190,-0.064190,-0.064190,-0.064190,-0.064190,-0.064190,-0.064190,-0.064190,-0.064190,-0.064190,-0.064190},
{0.068831,0.068831,0.068831,0.068831,0.068831,0.068831,0.068831,0.068831,0.068831,0.068831,0.068831,0.068831,0.068831,0.068831,0.068831,0.068831},
{-0.067550,-0.067550,-0.067550,-0.067550,-0.067550,-0.067550,-0.067550,-0.067550,-0.067550,-0.067550,-0.067550,-0.067550,-0.067550,-0.067550,-0.067550,-0.067550},
{-0.008450,-0.008450,-0.008450,-0.008450,-0.008450,-0.008450,-0.008450,-0.008450,-0.008450,-0.008450,-0.008450,-0.008450,-0.008450,-0.008450,-0.008450,-0.008450},
{0.021558,0.021558,0.021558,0.021558,0.021558,0.021558,0.021558,0.021558,0.021558,0.021558,0.021558,0.021558,0.021558,0.021558,0.021558,0.021558},
{0.056075,0.056075,0.056075,0.056075,0.056075,0.056075,0.056075,0.056075,0.056075,0.056075,0.056075,0.056075,0.056075,0.056075,0.056075,0.056075},
{-0.051842,-0.051842,-0.051842,-0.051842,-0.051842,-0.051842,-0.051842,-0.051842,-0.051842,-0.051842,-0.051842,-0.051842,-0.051842,-0.051842,-0.051842,-0.051842},
{-0.016380,-0.016380,-0.016380,-0.016380,-0.016380,-0.016380,-0.016380,-0.016380,-0.016380,-0.016380,-0.016380,-0.016380,-0.016380,-0.016380,-0.016380,-0.016380},
{-0.001943,-0.001943,-0.001943,-0.001943,-0.001943,-0.001943,-0.001943,-0.001943,-0.001943,-0.001943,-0.001943,-0.001943,-0.001943,-0.001943,-0.001943,-0.001943},
{0.040460,0.040460,0.040460,0.040460,0.040460,0.040460,0.040460,0.040460,0.040460,0.040460,0.040460,0.040460,0.040460,0.040460,0.040460,0.040460},
{-0.019711,-0.019711,-0.019711,-0.019711,-0.019711,-0.019711,-0.019711,-0.019711,-0.019711,-0.019711,-0.019711,-0.019711,-0.019711,-0.019711,-0.019711,-0.019711},
{-0.045145,-0.045145,-0.045145,-0.045145,-0.045145,-0.045145,-0.045145,-0.045145,-0.045145,-0.045145,-0.045145,-0.045145,-0.045145,-0.045145,-0.045145,-0.045145},
{0.060970,0.060970,0.060970,0.060970,0.060970,0.060970,0.060970,0.060970,0.060970,0.060970,0.060970,0.060970,0.060970,0.060970,0.060970,0.060970},
{-0.028433,-0.028433,-0.028433,-0.028433,-0.028433,-0.028433,-0.028433,-0.028433,-0.028433,-0.028433,-0.028433,-0.028433,-0.028433,-0.028433,-0.028433,-0.028433},
{0.104759,0.104759,0.104759,0.104759,0.104759,0.104759,0.104759,0.104759,0.104759,0.104759,0.104759,0.104759,0.104759,0.104759,0.104759,0.104759},
{0.048568,0.048568,0.048568,0.048568,0.048568,0.048568,0.048568,0.048568,0.048568,0.048568,0.048568,0.048568,0.048568,0.048568,0.048568,0.048568},
{-0.136334,-0.136334,-0.136334,-0.136334,-0.136334,-0.136334,-0.136334,-0.136334,-0.136334,-0.136334,-0.136334,-0.136334,-0.136334,-0.136334,-0.136334,-0.136334},
{-0.149674,-0.149674,-0.149674,-0.149674,-0.149674,-0.149674,-0.149674,-0.149674,-0.149674,-0.149674,-0.149674,-0.149674,-0.149674,-0.149674,-0.149674,-0.149674},
{-0.156248,-0.156248,-0.156248,-0.156248,-0.156248,-0.156248,-0.156248,-0.156248,-0.156248,-0.156248,-0.156248,-0.156248,-0.156248,-0.156248,-0.156248,-0.156248},
{0.139909,0.139909,0.139909,0.139909,0.139909,0.139909,0.139909,0.139909,0.139909,0.139909,0.139909,0.139909,0.139909,0.139909,0.139909,0.139909},
{-0.018037,-0.018037,-0.018037,-0.018037,-0.018037,-0.018037,-0.018037,-0.018037,-0.018037,-0.018037,-0.018037,-0.018037,-0.018037,-0.018037,-0.018037,-0.018037},
{-0.010355,-0.010355,-0.010355,-0.010355,-0.010355,-0.010355,-0.010355,-0.010355,-0.010355,-0.010355,-0.010355,-0.010355,-0.010355,-0.010355,-0.010355,-0.010355},
{0.163592,0.163592,0.163592,0.163592,0.163592,0.163592,0.163592,0.163592,0.163592,0.163592,0.163592,0.163592,0.163592,0.163592,0.163592,0.163592},
{0.274441,0.274441,0.274441,0.274441,0.274441,0.274441,0.274441,0.274441,0.274441,0.274441,0.274441,0.274441,0.274441,0.274441,0.274441,0.274441},
{0.032284,0.032284,0.032284,0.032284,0.032284,0.032284,0.032284,0.032284,0.032284,0.032284,0.032284,0.032284,0.032284,0.032284,0.032284,0.032284},
{-0.069334,-0.069334,-0.069334,-0.069334,-0.069334,-0.069334,-0.069334,-0.069334,-0.069334,-0.069334,-0.069334,-0.069334,-0.069334,-0.069334,-0.069334,-0.069334},
{0.045275,0.045275,0.045275,0.045275,0.045275,0.045275,0.045275,0.045275,0.045275,0.045275,0.045275,0.045275,0.045275,0.045275,0.045275,0.045275},
{0.238720,0.238720,0.238720,0.238720,0.238720,0.238720,0.238720,0.238720,0.238720,0.238720,0.238720,0.238720,0.238720,0.238720,0.238720,0.238720},
{-0.027952,-0.027952,-0.027952,-0.027952,-0.027952,-0.027952,-0.027952,-0.027952,-0.027952,-0.027952,-0.027952,-0.027952,-0.027952,-0.027952,-0.027952,-0.027952},
{0.111695,0.111695,0.111695,0.111695,0.111695,0.111695,0.111695,0.111695,0.111695,0.111695,0.111695,0.111695,0.111695,0.111695,0.111695,0.111695},
{-0.011139,-0.011139,-0.011139,-0.011139,-0.011139,-0.011139,-0.011139,-0.011139,-0.011139,-0.011139,-0.011139,-0.011139,-0.011139,-0.011139,-0.011139,-0.011139},
{0.014238,0.014238,0.014238,0.014238,0.014238,0.014238,0.014238,0.014238,0.014238,0.014238,0.014238,0.014238,0.014238,0.014238,0.014238,0.014238},
{0.066313,0.066313,0.066313,0.066313,0.066313,0.066313,0.066313,0.066313,0.066313,0.066313,0.066313,0.066313,0.066313,0.066313,0.066313,0.066313},
{0.012306,0.012306,0.012306,0.012306,0.012306,0.012306,0.012306,0.012306,0.012306,0.012306,0.012306,0.012306,0.012306,0.012306,0.012306,0.012306},
{0.019251,0.019251,0.019251,0.019251,0.019251,0.019251,0.019251,0.019251,0.019251,0.019251,0.019251,0.019251,0.019251,0.019251,0.019251,0.019251},
{-0.032272,-0.032272,-0.032272,-0.032272,-0.032272,-0.032272,-0.032272,-0.032272,-0.032272,-0.032272,-0.032272,-0.032272,-0.032272,-0.032272,-0.032272,-0.032272},
{-0.013564,-0.013564,-0.013564,-0.013564,-0.013564,-0.013564,-0.013564,-0.013564,-0.013564,-0.013564,-0.013564,-0.013564,-0.013564,-0.013564,-0.013564,-0.013564},
{-0.079704,-0.079704,-0.079704,-0.079704,-0.079704,-0.079704,-0.079704,-0.079704,-0.079704,-0.079704,-0.079704,-0.079704,-0.079704,-0.079704,-0.079704,-0.079704},
{0.024097,0.024097,0.024097,0.024097,0.024097,0.024097,0.024097,0.024097,0.024097,0.024097,0.024097,0.024097,0.024097,0.024097,0.024097,0.024097},
{-0.005882,-0.005882,-0.005882,-0.005882,-0.005882,-0.005882,-0.005882,-0.005882,-0.005882,-0.005882,-0.005882,-0.005882,-0.005882,-0.005882,-0.005882,-0.005882},
{0.043873,0.043873,0.043873,0.043873,0.043873,0.043873,0.043873,0.043873,0.043873,0.043873,0.043873,0.043873,0.043873,0.043873,0.043873,0.043873},
{-0.034990,-0.034990,-0.034990,-0.034990,-0.034990,-0.034990,-0.034990,-0.034990,-0.034990,-0.034990,-0.034990,-0.034990,-0.034990,-0.034990,-0.034990,-0.034990},
{-0.001389,-0.001389,-0.001389,-0.001389,-0.001389,-0.001389,-0.001389,-0.001389,-0.001389,-0.001389,-0.001389,-0.001389,-0.001389,-0.001389,-0.001389,-0.001389},
{0.005733,0.005733,0.005733,0.005733,0.005733,0.005733,0.005733,0.005733,0.005733,0.005733,0.005733,0.005733,0.005733,0.005733,0.005733,0.005733},
{-0.102549,-0.102549,-0.102549,-0.102549,-0.102549,-0.102549,-0.102549,-0.102549,-0.102549,-0.102549,-0.102549,-0.102549,-0.102549,-0.102549,-0.102549,-0.102549},
{-0.003331,-0.003331,-0.003331,-0.003331,-0.003331,-0.003331,-0.003331,-0.003331,-0.003331,-0.003331,-0.003331,-0.003331,-0.003331,-0.003331,-0.003331,-0.003331},
{0.010584,0.010584,0.010584,0.010584,0.010584,0.010584,0.010584,0.010584,0.010584,0.010584,0.010584,0.010584,0.010584,0.010584,0.010584,0.010584},
{-0.018417,-0.018417,-0.018417,-0.018417,-0.018417,-0.018417,-0.018417,-0.018417,-0.018417,-0.018417,-0.018417,-0.018417,-0.018417,-0.018417,-0.018417,-0.018417},
{0.012155,0.012155,0.012155,0.012155,0.012155,0.012155,0.012155,0.012155,0.012155,0.012155,0.012155,0.012155,0.012155,0.012155,0.012155,0.012155},
{-0.045394,-0.045394,-0.045394,-0.045394,-0.045394,-0.045394,-0.045394,-0.045394,-0.045394,-0.045394,-0.045394,-0.045394,-0.045394,-0.045394,-0.045394,-0.045394},
{0.056411,0.056411,0.056411,0.056411,0.056411,0.056411,0.056411,0.056411,0.056411,0.056411,0.056411,0.056411,0.056411,0.056411,0.056411,0.056411},
{0.009263,0.009263,0.009263,0.009263,0.009263,0.009263,0.009263,0.009263,0.009263,0.009263,0.009263,0.009263,0.009263,0.009263,0.009263,0.009263},
{-0.011653,-0.011653,-0.011653,-0.011653,-0.011653,-0.011653,-0.011653,-0.011653,-0.011653,-0.011653,-0.011653,-0.011653,-0.011653,-0.011653,-0.011653,-0.011653},
{-0.002199,-0.002199,-0.002199,-0.002199,-0.002199,-0.002199,-0.002199,-0.002199,-0.002199,-0.002199,-0.002199,-0.002199,-0.002199,-0.002199,-0.002199,-0.002199},
{-0.078012,-0.078012,-0.078012,-0.078012,-0.078012,-0.078012,-0.078012,-0.078012,-0.078012,-0.078012,-0.078012,-0.078012,-0.078012,-0.078012,-0.078012,-0.078012},
{0.030802,0.030802,0.030802,0.030802,0.030802,0.030802,0.030802,0.030802,0.030802,0.030802,0.030802,0.030802,0.030802,0.030802,0.030802,0.030802},
{0.130722,0.130722,0.130722,0.130722,0.130722,0.130722,0.130722,0.130722,0.130722,0.130722,0.130722,0.130722,0.130722,0.130722,0.130722,0.130722},
{-0.004103,-0.004103,-0.004103,-0.004103,-0.004103,-0.004103,-0.004103,-0.004103,-0.004103,-0.004103,-0.004103,-0.004103,-0.004103,-0.004103,-0.004103,-0.004103},
{-0.141293,-0.141293,-0.141293,-0.141293,-0.141293,-0.141293,-0.141293,-0.141293,-0.141293,-0.141293,-0.141293,-0.141293,-0.141293,-0.141293,-0.141293,-0.141293},
{0.060811,0.060811,0.060811,0.060811,0.060811,0.060811,0.060811,0.060811,0.060811,0.060811,0.060811,0.060811,0.060811,0.060811,0.060811,0.060811},
{0.015775,0.015775,0.015775,0.015775,0.015775,0.015775,0.015775,0.015775,0.015775,0.015775,0.015775,0.015775,0.015775,0.015775,0.015775,0.015775},
{0.034305,0.034305,0.034305,0.034305,0.034305,0.034305,0.034305,0.034305,0.034305,0.034305,0.034305,0.034305,0.034305,0.034305,0.034305,0.034305},
{-0.008554,-0.008554,-0.008554,-0.008554,-0.008554,-0.008554,-0.008554,-0.008554,-0.008554,-0.008554,-0.008554,-0.008554,-0.008554,-0.008554,-0.008554,-0.008554},
{0.011088,0.011088,0.011088,0.011088,0.011088,0.011088,0.011088,0.011088,0.011088,0.011088,0.011088,0.011088,0.011088,0.011088,0.011088,0.011088},
{-0.005764,-0.005764,-0.005764,-0.005764,-0.005764,-0.005764,-0.005764,-0.005764,-0.005764,-0.005764,-0.005764,-0.005764,-0.005764,-0.005764,-0.005764,-0.005764},
{0.044806,0.044806,0.044806,0.044806,0.044806,0.044806,0.044806,0.044806,0.044806,0.044806,0.044806,0.044806,0.044806,0.044806,0.044806,0.044806},
{0.018998,0.018998,0.018998,0.018998,0.018998,0.018998,0.018998,0.018998,0.018998,0.018998,0.018998,0.018998,0.018998,0.018998,0.018998,0.018998},
{-0.031589,-0.031589,-0.031589,-0.031589,-0.031589,-0.031589,-0.031589,-0.031589,-0.031589,-0.031589,-0.031589,-0.031589,-0.031589,-0.031589,-0.031589,-0.031589},
{-0.060478,-0.060478,-0.060478,-0.060478,-0.060478,-0.060478,-0.060478,-0.060478,-0.060478,-0.060478,-0.060478,-0.060478,-0.060478,-0.060478,-0.060478,-0.060478},
{0.014135,0.014135,0.014135,0.014135,0.014135,0.014135,0.014135,0.014135,0.014135,0.014135,0.014135,0.014135,0.014135,0.014135,0.014135,0.014135},
{-0.028445,-0.028445,-0.028445,-0.028445,-0.028445,-0.028445,-0.028445,-0.028445,-0.028445,-0.028445,-0.028445,-0.028445,-0.028445,-0.028445,-0.028445,-0.028445},
{0.010769,0.010769,0.010769,0.010769,0.010769,0.010769,0.010769,0.010769,0.010769,0.010769,0.010769,0.010769,0.010769,0.010769,0.010769,0.010769},
{-0.039199,-0.039199,-0.039199,-0.039199,-0.039199,-0.039199,-0.039199,-0.039199,-0.039199,-0.039199,-0.039199,-0.039199,-0.039199,-0.039199,-0.039199,-0.039199},
{-0.140476,-0.140476,-0.140476,-0.140476,-0.140476,-0.140476,-0.140476,-0.140476,-0.140476,-0.140476,-0.140476,-0.140476,-0.140476,-0.140476,-0.140476,-0.140476},
{-0.043122,-0.043122,-0.043122,-0.043122,-0.043122,-0.043122,-0.043122,-0.043122,-0.043122,-0.043122,-0.043122,-0.043122,-0.043122,-0.043122,-0.043122,-0.043122},
{-0.060519,-0.060519,-0.060519,-0.060519,-0.060519,-0.060519,-0.060519,-0.060519,-0.060519,-0.060519,-0.060519,-0.060519,-0.060519,-0.060519,-0.060519,-0.060519},
{-0.050112,-0.050112,-0.050112,-0.050112,-0.050112,-0.050112,-0.050112,-0.050112,-0.050112,-0.050112,-0.050112,-0.050112,-0.050112,-0.050112,-0.050112,-0.050112},
{0.022296,0.022296,0.022296,0.022296,0.022296,0.022296,0.022296,0.022296,0.022296,0.022296,0.022296,0.022296,0.022296,0.022296,0.022296,0.022296},
{0.019829,0.019829,0.019829,0.019829,0.019829,0.019829,0.019829,0.019829,0.019829,0.019829,0.019829,0.019829,0.019829,0.019829,0.019829,0.019829},
{0.063038,0.063038,0.063038,0.063038,0.063038,0.063038,0.063038,0.063038,0.063038,0.063038,0.063038,0.063038,0.063038,0.063038,0.063038,0.063038},
{-0.042988,-0.042988,-0.042988,-0.042988,-0.042988,-0.042988,-0.042988,-0.042988,-0.042988,-0.042988,-0.042988,-0.042988,-0.042988,-0.042988,-0.042988,-0.042988},
{-0.046857,-0.046857,-0.046857,-0.046857,-0.046857,-0.046857,-0.046857,-0.046857,-0.046857,-0.046857,-0.046857,-0.046857,-0.046857,-0.046857,-0.046857,-0.046857},
{-0.101317,-0.101317,-0.101317,-0.101317,-0.101317,-0.101317,-0.101317,-0.101317,-0.101317,-0.101317,-0.101317,-0.101317,-0.101317,-0.101317,-0.101317,-0.101317},
{0.137189,0.137189,0.137189,0.137189,0.137189,0.137189,0.137189,0.137189,0.137189,0.137189,0.137189,0.137189,0.137189,0.137189,0.137189,0.137189},
{-0.025023,-0.025023,-0.025023,-0.025023,-0.025023,-0.025023,-0.025023,-0.025023,-0.025023,-0.025023,-0.025023,-0.025023,-0.025023,-0.025023,-0.025023,-0.025023},
{-0.005144,-0.005144,-0.005144,-0.005144,-0.005144,-0.005144,-0.005144,-0.005144,-0.005144,-0.005144,-0.005144,-0.005144,-0.005144,-0.005144,-0.005144,-0.005144},
{0.035142,0.035142,0.035142,0.035142,0.035142,0.035142,0.035142,0.035142,0.035142,0.035142,0.035142,0.035142,0.035142,0.035142,0.035142,0.035142},
{0.012155,0.012155,0.012155,0.012155,0.012155,0.012155,0.012155,0.012155,0.012155,0.012155,0.012155,0.012155,0.012155,0.012155,0.012155,0.012155},
{-0.022929,-0.022929,-0.022929,-0.022929,-0.022929,-0.022929,-0.022929,-0.022929,-0.022929,-0.022929,-0.022929,-0.022929,-0.022929,-0.022929,-0.022929,-0.022929},
{-0.055084,-0.055084,-0.055084,-0.055084,-0.055084,-0.055084,-0.055084,-0.055084,-0.055084,-0.055084,-0.055084,-0.055084,-0.055084,-0.055084,-0.055084,-0.055084},
{-0.067330,-0.067330,-0.067330,-0.067330,-0.067330,-0.067330,-0.067330,-0.067330,-0.067330,-0.067330,-0.067330,-0.067330,-0.067330,-0.067330,-0.067330,-0.067330},
{0.025350,0.025350,0.025350,0.025350,0.025350,0.025350,0.025350,0.025350,0.025350,0.025350,0.025350,0.025350,0.025350,0.025350,0.025350,0.025350},
{0.058571,0.058571,0.058571,0.058571,0.058571,0.058571,0.058571,0.058571,0.058571,0.058571,0.058571,0.058571,0.058571,0.058571,0.058571,0.058571},
{-0.069494,-0.069494,-0.069494,-0.069494,-0.069494,-0.069494,-0.069494,-0.069494,-0.069494,-0.069494,-0.069494,-0.069494,-0.069494,-0.069494,-0.069494,-0.069494},
{0.026482,0.026482,0.026482,0.026482,0.026482,0.026482,0.026482,0.026482,0.026482,0.026482,0.026482,0.026482,0.026482,0.026482,0.026482,0.026482},
{0.023863,0.023863,0.023863,0.023863,0.023863,0.023863,0.023863,0.023863,0.023863,0.023863,0.023863,0.023863,0.023863,0.023863,0.023863,0.023863},
{0.156309,0.156309,0.156309,0.156309,0.156309,0.156309,0.156309,0.156309,0.156309,0.156309,0.156309,0.156309,0.156309,0.156309,0.156309,0.156309},
{0.022744,0.022744,0.022744,0.022744,0.022744,0.022744,0.022744,0.022744,0.022744,0.022744,0.022744,0.022744,0.022744,0.022744,0.022744,0.022744},
{-0.018151,-0.018151,-0.018151,-0.018151,-0.018151,-0.018151,-0.018151,-0.018151,-0.018151,-0.018151,-0.018151,-0.018151,-0.018151,-0.018151,-0.018151,-0.018151},
{-0.030635,-0.030635,-0.030635,-0.030635,-0.030635,-0.030635,-0.030635,-0.030635,-0.030635,-0.030635,-0.030635,-0.030635,-0.030635,-0.030635,-0.030635,-0.030635},
{0.167823,0.167823,0.167823,0.167823,0.167823,0.167823,0.167823,0.167823,0.167823,0.167823,0.167823,0.167823,0.167823,0.167823,0.167823,0.167823},
{-0.033813,-0.033813,-0.033813,-0.033813,-0.033813,-0.033813,-0.033813,-0.033813,-0.033813,-0.033813,-0.033813,-0.033813,-0.033813,-0.033813,-0.033813,-0.033813},
{0.047630,0.047630,0.047630,0.047630,0.047630,0.047630,0.047630,0.047630,0.047630,0.047630,0.047630,0.047630,0.047630,0.047630,0.047630,0.047630},
{0.025148,0.025148,0.025148,0.025148,0.025148,0.025148,0.025148,0.025148,0.025148,0.025148,0.025148,0.025148,0.025148,0.025148,0.025148,0.025148},
{0.106008,0.106008,0.106008,0.106008,0.106008,0.106008,0.106008,0.106008,0.106008,0.106008,0.106008,0.106008,0.106008,0.106008,0.106008,0.106008},
{0.092898,0.092898,0.092898,0.092898,0.092898,0.092898,0.092898,0.092898,0.092898,0.092898,0.092898,0.092898,0.092898,0.092898,0.092898,0.092898},
{0.013914,0.013914,0.013914,0.013914,0.013914,0.013914,0.013914,0.013914,0.013914,0.013914,0.013914,0.013914,0.013914,0.013914,0.013914,0.013914},
{0.006001,0.006001,0.006001,0.006001,0.006001,0.006001,0.006001,0.006001,0.006001,0.006001,0.006001,0.006001,0.006001,0.006001,0.006001,0.006001},
{-0.019700,-0.019700,-0.019700,-0.019700,-0.019700,-0.019700,-0.019700,-0.019700,-0.019700,-0.019700,-0.019700,-0.019700,-0.019700,-0.019700,-0.019700,-0.019700},
{-0.127851,-0.127851,-0.127851,-0.127851,-0.127851,-0.127851,-0.127851,-0.127851,-0.127851,-0.127851,-0.127851,-0.127851,-0.127851,-0.127851,-0.127851,-0.127851},
{-0.015215,-0.015215,-0.015215,-0.015215,-0.015215,-0.015215,-0.015215,-0.015215,-0.015215,-0.015215,-0.015215,-0.015215,-0.015215,-0.015215,-0.015215,-0.015215},
{0.016724,0.016724,0.016724,0.016724,0.016724,0.016724,0.016724,0.016724,0.016724,0.016724,0.016724,0.016724,0.016724,0.016724,0.016724,0.016724},
{-0.012204,-0.012204,-0.012204,-0.012204,-0.012204,-0.012204,-0.012204,-0.012204,-0.012204,-0.012204,-0.012204,-0.012204,-0.012204,-0.012204,-0.012204,-0.012204},
{0.052221,0.052221,0.052221,0.052221,0.052221,0.052221,0.052221,0.052221,0.052221,0.052221,0.052221,0.052221,0.052221,0.052221,0.052221,0.052221},
{-0.008345,-0.008345,-0.008345,-0.008345,-0.008345,-0.008345,-0.008345,-0.008345,-0.008345,-0.008345,-0.008345,-0.008345,-0.008345,-0.008345,-0.008345,-0.008345},
{-0.029072,-0.029072,-0.029072,-0.029072,-0.029072,-0.029072,-0.029072,-0.029072,-0.029072,-0.029072,-0.029072,-0.029072,-0.029072,-0.029072,-0.029072,-0.029072},
{0.133413,0.133413,0.133413,0.133413,0.133413,0.133413,0.133413,0.133413,0.133413,0.133413,0.133413,0.133413,0.133413,0.133413,0.133413,0.133413},
{-0.017396,-0.017396,-0.017396,-0.017396,-0.017396,-0.017396,-0.017396,-0.017396,-0.017396,-0.017396,-0.017396,-0.017396,-0.017396,-0.017396,-0.017396,-0.017396},
{-0.022965,-0.022965,-0.022965,-0.022965,-0.022965,-0.022965,-0.022965,-0.022965,-0.022965,-0.022965,-0.022965,-0.022965,-0.022965,-0.022965,-0.022965,-0.022965},
{0.018896,0.018896,0.018896,0.018896,0.018896,0.018896,0.018896,0.018896,0.018896,0.018896,0.018896,0.018896,0.018896,0.018896,0.018896,0.018896},
{-0.093421,-0.093421,-0.093421,-0.093421,-0.093421,-0.093421,-0.093421,-0.093421,-0.093421,-0.093421,-0.093421,-0.093421,-0.093421,-0.093421,-0.093421,-0.093421},
{0.024830,0.024830,0.024830,0.024830,0.024830,0.024830,0.024830,0.024830,0.024830,0.024830,0.024830,0.024830,0.024830,0.024830,0.024830,0.024830},
{-0.104052,-0.104052,-0.104052,-0.104052,-0.104052,-0.104052,-0.104052,-0.104052,-0.104052,-0.104052,-0.104052,-0.104052,-0.104052,-0.104052,-0.104052,-0.104052},
{-0.034019,-0.034019,-0.034019,-0.034019,-0.034019,-0.034019,-0.034019,-0.034019,-0.034019,-0.034019,-0.034019,-0.034019,-0.034019,-0.034019,-0.034019,-0.034019},
{0.014284,0.014284,0.014284,0.014284,0.014284,0.014284,0.014284,0.014284,0.014284,0.014284,0.014284,0.014284,0.014284,0.014284,0.014284,0.014284},
{0.072243,0.072243,0.072243,0.072243,0.072243,0.072243,0.072243,0.072243,0.072243,0.072243,0.072243,0.072243,0.072243,0.072243,0.072243,0.072243},
{-0.117659,-0.117659,-0.117659,-0.117659,-0.117659,-0.117659,-0.117659,-0.117659,-0.117659,-0.117659,-0.117659,-0.117659,-0.117659,-0.117659,-0.117659,-0.117659},
{-0.058185,-0.058185,-0.058185,-0.058185,-0.058185,-0.058185,-0.058185,-0.058185,-0.058185,-0.058185,-0.058185,-0.058185,-0.058185,-0.058185,-0.058185,-0.058185},
{-0.081774,-0.081774,-0.081774,-0.081774,-0.081774,-0.081774,-0.081774,-0.081774,-0.081774,-0.081774,-0.081774,-0.081774,-0.081774,-0.081774,-0.081774,-0.081774},
{0.036400,0.036400,0.036400,0.036400,0.036400,0.036400,0.036400,0.036400,0.036400,0.036400,0.036400,0.036400,0.036400,0.036400,0.036400,0.036400},
{0.055433,0.055433,0.055433,0.055433,0.055433,0.055433,0.055433,0.055433,0.055433,0.055433,0.055433,0.055433,0.055433,0.055433,0.055433,0.055433},
{0.014417,0.014417,0.014417,0.014417,0.014417,0.014417,0.014417,0.014417,0.014417,0.014417,0.014417,0.014417,0.014417,0.014417,0.014417,0.014417},
{-0.033674,-0.033674,-0.033674,-0.033674,-0.033674,-0.033674,-0.033674,-0.033674,-0.033674,-0.033674,-0.033674,-0.033674,-0.033674,-0.033674,-0.033674,-0.033674},
{0.040455,0.040455,0.040455,0.040455,0.040455,0.040455,0.040455,0.040455,0.040455,0.040455,0.040455,0.040455,0.040455,0.040455,0.040455,0.040455},
{-0.025371,-0.025371,-0.025371,-0.025371,-0.025371,-0.025371,-0.025371,-0.025371,-0.025371,-0.025371,-0.025371,-0.025371,-0.025371,-0.025371,-0.025371,-0.025371},
{0.004256,0.004256,0.004256,0.004256,0.004256,0.004256,0.004256,0.004256,0.004256,0.004256,0.004256,0.004256,0.004256,0.004256,0.004256,0.004256},
{0.080566,0.080566,0.080566,0.080566,0.080566,0.080566,0.080566,0.080566,0.080566,0.080566,0.080566,0.080566,0.080566,0.080566,0.080566,0.080566},
{0.000363,0.000363,0.000363,0.000363,0.000363,0.000363,0.000363,0.000363,0.000363,0.000363,0.000363,0.000363,0.000363,0.000363,0.000363,0.000363},
{-0.017020,-0.017020,-0.017020,-0.017020,-0.017020,-0.017020,-0.017020,-0.017020,-0.017020,-0.017020,-0.017020,-0.017020,-0.017020,-0.017020,-0.017020,-0.017020},
{-0.214470,-0.214470,-0.214470,-0.214470,-0.214470,-0.214470,-0.214470,-0.214470,-0.214470,-0.214470,-0.214470,-0.214470,-0.214470,-0.214470,-0.214470,-0.214470},
{0.015680,0.015680,0.015680,0.015680,0.015680,0.015680,0.015680,0.015680,0.015680,0.015680,0.015680,0.015680,0.015680,0.015680,0.015680,0.015680},
{0.007140,0.007140,0.007140,0.007140,0.007140,0.007140,0.007140,0.007140,0.007140,0.007140,0.007140,0.007140,0.007140,0.007140,0.007140,0.007140},
{0.073373,0.073373,0.073373,0.073373,0.073373,0.073373,0.073373,0.073373,0.073373,0.073373,0.073373,0.073373,0.073373,0.073373,0.073373,0.073373},
{-0.187017,-0.187017,-0.187017,-0.187017,-0.187017,-0.187017,-0.187017,-0.187017,-0.187017,-0.187017,-0.187017,-0.187017,-0.187017,-0.187017,-0.187017,-0.187017},
{-0.076865,-0.076865,-0.076865,-0.076865,-0.076865,-0.076865,-0.076865,-0.076865,-0.076865,-0.076865,-0.076865,-0.076865,-0.076865,-0.076865,-0.076865,-0.076865},
{-0.084426,-0.084426,-0.084426,-0.084426,-0.084426,-0.084426,-0.084426,-0.084426,-0.084426,-0.084426,-0.084426,-0.084426,-0.084426,-0.084426,-0.084426,-0.084426},
{-0.051112,-0.051112,-0.051112,-0.051112,-0.051112,-0.051112,-0.051112,-0.051112,-0.051112,-0.051112,-0.051112,-0.051112,-0.051112,-0.051112,-0.051112,-0.051112},
{0.062471,0.062471,0.062471,0.062471,0.062471,0.062471,0.062471,0.062471,0.062471,0.062471,0.062471,0.062471,0.062471,0.062471,0.062471,0.062471},
{0.081079,0.081079,0.081079,0.081079,0.081079,0.081079,0.081079,0.081079,0.081079,0.081079,0.081079,0.081079,0.081079,0.081079,0.081079,0.081079},
{0.066865,0.066865,0.066865,0.066865,0.066865,0.066865,0.066865,0.066865,0.066865,0.066865,0.066865,0.066865,0.066865,0.066865,0.066865,0.066865},
{0.018361,0.018361,0.018361,0.018361,0.018361,0.018361,0.018361,0.018361,0.018361,0.018361,0.018361,0.018361,0.018361,0.018361,0.018361,0.018361},
{-0.288436,-0.288436,-0.288436,-0.288436,-0.288436,-0.288436,-0.288436,-0.288436,-0.288436,-0.288436,-0.288436,-0.288436,-0.288436,-0.288436,-0.288436,-0.288436},
{-0.003072,-0.003072,-0.003072,-0.003072,-0.003072,-0.003072,-0.003072,-0.003072,-0.003072,-0.003072,-0.003072,-0.003072,-0.003072,-0.003072,-0.003072,-0.003072},
{0.059044,0.059044,0.059044,0.059044,0.059044,0.059044,0.059044,0.059044,0.059044,0.059044,0.059044,0.059044,0.059044,0.059044,0.059044,0.059044},
{0.016180,0.016180,0.016180,0.016180,0.016180,0.016180,0.016180,0.016180,0.016180,0.016180,0.016180,0.016180,0.016180,0.016180,0.016180,0.016180},
{0.062903,0.062903,0.062903,0.062903,0.062903,0.062903,0.062903,0.062903,0.062903,0.062903,0.062903,0.062903,0.062903,0.062903,0.062903,0.062903},
{0.025806,0.025806,0.025806,0.025806,0.025806,0.025806,0.025806,0.025806,0.025806,0.025806,0.025806,0.025806,0.025806,0.025806,0.025806,0.025806},
{-0.208806,-0.208806,-0.208806,-0.208806,-0.208806,-0.208806,-0.208806,-0.208806,-0.208806,-0.208806,-0.208806,-0.208806,-0.208806,-0.208806,-0.208806,-0.208806},
{-0.080501,-0.080501,-0.080501,-0.080501,-0.080501,-0.080501,-0.080501,-0.080501,-0.080501,-0.080501,-0.080501,-0.080501,-0.080501,-0.080501,-0.080501,-0.080501},
{0.012658,0.012658,0.012658,0.012658,0.012658,0.012658,0.012658,0.012658,0.012658,0.012658,0.012658,0.012658,0.012658,0.012658,0.012658,0.012658},
{-0.041620,-0.041620,-0.041620,-0.041620,-0.041620,-0.041620,-0.041620,-0.041620,-0.041620,-0.041620,-0.041620,-0.041620,-0.041620,-0.041620,-0.041620,-0.041620},
{0.010201,0.010201,0.010201,0.010201,0.010201,0.010201,0.010201,0.010201,0.010201,0.010201,0.010201,0.010201,0.010201,0.010201,0.010201,0.010201},
{-0.056020,-0.056020,-0.056020,-0.056020,-0.056020,-0.056020,-0.056020,-0.056020,-0.056020,-0.056020,-0.056020,-0.056020,-0.056020,-0.056020,-0.056020,-0.056020},
{-0.018175,-0.018175,-0.018175,-0.018175,-0.018175,-0.018175,-0.018175,-0.018175,-0.018175,-0.018175,-0.018175,-0.018175,-0.018175,-0.018175,-0.018175,-0.018175},
{0.010229,0.010229,0.010229,0.010229,0.010229,0.010229,0.010229,0.010229,0.010229,0.010229,0.010229,0.010229,0.010229,0.010229,0.010229,0.010229},
{0.027677,0.027677,0.027677,0.027677,0.027677,0.027677,0.027677,0.027677,0.027677,0.027677,0.027677,0.027677,0.027677,0.027677,0.027677,0.027677},
{0.005642,0.005642,0.005642,0.005642,0.005642,0.005642,0.005642,0.005642,0.005642,0.005642,0.005642,0.005642,0.005642,0.005642,0.005642,0.005642},
{-0.066950,-0.066950,-0.066950,-0.066950,-0.066950,-0.066950,-0.066950,-0.066950,-0.066950,-0.066950,-0.066950,-0.066950,-0.066950,-0.066950,-0.066950,-0.066950},
{0.011990,0.011990,0.011990,0.011990,0.011990,0.011990,0.011990,0.011990,0.011990,0.011990,0.011990,0.011990,0.011990,0.011990,0.011990,0.011990},
{-0.037670,-0.037670,-0.037670,-0.037670,-0.037670,-0.037670,-0.037670,-0.037670,-0.037670,-0.037670,-0.037670,-0.037670,-0.037670,-0.037670,-0.037670,-0.037670},
{-0.059426,-0.059426,-0.059426,-0.059426,-0.059426,-0.059426,-0.059426,-0.059426,-0.059426,-0.059426,-0.059426,-0.059426,-0.059426,-0.059426,-0.059426,-0.059426},
