constant float16 weights_layer_2_row_major[32*144] = {
{0.040458,0.027830,0.024698,-0.001260,0.004594,0.014168,-0.019118,-0.002882,-0.009820,-0.041401,-0.030459,-0.030674,-0.078365,-0.042771,-0.034260,-0.096822},
{-0.062994,-0.048039,0.002104,-0.056865,-0.050148,0.055875,-0.050355,-0.062670,0.048996,-0.054230,-0.069816,-0.001117,-0.009859,-0.005031,0.004260,0.045323},
{-0.008554,0.028192,-0.002283,0.045009,-0.031477,-0.030285,-0.033376,-0.013479,-0.013052,-0.013115,-0.018808,-0.011339,-0.012279,-0.036397,-0.158781,-0.179286},
{-0.066464,0.097373,0.129474,-0.036982,0.075403,0.158741,-0.034425,0.025270,-0.015414,0.030120,-0.005345,0.038092,-0.000658,-0.027639,0.060621,0.106488},
{0.039423,-0.067369,0.035835,-0.039478,-0.094433,0.041013,-0.009637,-0.132960,-0.009314,-0.019174,-0.021455,0.011357,-0.001310,0.001427,-0.004303,-0.026046},
{-0.005907,-0.003363,-0.160991,-0.235053,-0.118375,0.513158,-0.085726,-0.085083,0.379709,-0.004865,0.000499,0.000665,0.000462,-0.000428,-0.000067,-0.000672},
{-0.000417,-0.000586,-0.000865,-0.021104,-0.001489,0.069090,-0.028914,-0.054956,-0.020432,-0.001432,-0.004888,-0.083538,0.074488,-0.106545,0.091510,-0.064572},
{-0.227197,0.012888,0.082796,-0.345510,0.016578,-0.104850,0.098297,0.037980,-0.028927,-0.002991,0.030653,-0.001423,0.008461,-0.059561,-0.028379,-0.048408},
{-0.043509,-0.016561,-0.051510,-0.065208,-0.005926,-0.030034,-0.047822,0.002013,-0.008804,0.023374,0.003511,-0.004602,0.001156,0.032474,-0.001690,0.019890},
{-0.046378,-0.056649,-0.064212,-0.022814,-0.053814,-0.055424,0.018876,-0.045754,-0.049245,-0.008165,-0.001354,-0.014855,-0.010852,0.011439,0.007695,0.010845},
{0.007781,0.025305,-0.008123,-0.033061,-0.027005,0.033034,-0.000601,-0.021884,0.037221,0.047462,0.004952,0.006756,-0.062143,-0.017969,0.057424,-0.030983},
{-0.032072,0.024193,0.022481,-0.052673,0.012904,0.007765,0.006400,-0.003130,0.002577,-0.003337,-0.043085,-0.004470,-0.002802,0.030012,-0.017285,-0.138512},
{0.090186,0.128044,-0.105852,-0.027968,0.197874,0.069741,0.093059,-0.041246,-0.096869,0.182350,0.151754,-0.102477,-0.048398,0.129759,-0.090732,-0.041162},
{-0.016899,0.103826,-0.088193,-0.170691,-0.057455,0.020119,-0.091217,-0.063222,0.004676,-0.035785,-0.054982,0.039793,0.014472,-0.037228,0.024291,0.051948},
{-0.003834,-0.050949,-0.041835,-0.045312,0.010718,-0.090336,-0.013828,0.028868,-0.055872,-0.020354,0.000587,-0.000005,-0.000425,0.001283,0.000687,-0.000172},
{0.001091,0.001324,0.000084,-0.026866,-0.010962,0.012117,-0.115805,-0.103878,-0.004556,-0.024749,-0.058583,-0.014064,-0.029545,0.019371,0.004161,-0.006455},
{-0.054571,0.022048,-0.048918,-0.072360,-0.004680,0.000645,-0.050533,-0.029278,-0.017435,-0.118647,-0.005116,0.011566,-0.034821,-0.044631,0.001287,0.006180},
{0.018542,-0.003293,-0.006744,0.000536,-0.006348,-0.008464,-0.008163,0.047330,-0.076495,-0.087050,0.093113,0.023017,-0.090798,0.029435,0.069223,-0.069142},
{-0.006246,0.005756,0.016797,-0.001797,0.008825,-0.000324,0.000555,0.001110,-0.000926,-0.032834,-0.027384,-0.024113,-0.024977,-0.030176,-0.035142,-0.025524},
{-0.027113,-0.031754,0.005105,0.004098,-0.003202,0.010193,0.024255,0.020956,0.017075,0.006467,-0.009957,-0.004485,-0.018232,-0.032584,0.002784,0.007583},
{0.011187,0.024477,0.011725,-0.010672,-0.018069,-0.021102,-0.018192,0.009058,0.016500,0.021996,0.016415,0.009939,0.002670,-0.062982,-0.015210,0.023452},
{-0.128797,-0.151209,-0.139113,-0.090145,-0.043994,-0.064757,-0.032615,-0.030071,-0.061429,0.083348,0.148912,0.099863,0.096570,0.060547,0.031958,-0.219229},
{-0.172234,-0.114429,-0.010791,-0.035999,-0.064740,0.061963,0.070978,0.055274,0.003913,0.007496,0.014260,0.002469,0.012622,0.021237,-0.001755,-0.008341},
{-0.011958,-0.069323,-0.108633,-0.118401,-0.096735,-0.077188,-0.077909,0.006729,-0.024833,-0.024720,0.001058,0.001173,0.001223,0.000588,0.000876,0.001048},
{0.000486,0.000613,0.000653,0.047848,0.038514,0.050642,-0.116806,-0.079370,-0.088261,-0.083499,-0.058630,-0.050671,0.019503,-0.070557,-0.071942,-0.055317},
{-0.051045,-0.060391,0.018254,0.024954,0.017368,0.133627,0.192589,0.217203,0.108123,0.048577,-0.013697,-0.029999,0.012927,0.009905,0.006127,-0.004538},
{-0.014314,0.017126,0.016379,0.014002,0.028635,0.027384,0.024026,-0.009077,-0.009261,-0.012876,-0.041991,-0.007627,0.023413,0.003762,-0.015944,-0.023292},
{-0.039146,-0.039789,-0.022415,0.006738,0.004517,0.011187,0.058408,0.047874,0.043131,-0.043678,-0.047341,-0.035763,-0.012609,-0.011620,-0.002443,0.024342},
{0.027073,0.027768,-0.042060,-0.032940,-0.030011,-0.003429,-0.002558,0.004113,0.032604,0.027028,0.037550,-0.012967,-0.014849,-0.006409,-0.015711,0.000589},
{-0.013240,-0.008579,-0.002602,0.005361,0.010829,0.007362,-0.003793,0.009382,0.004266,-0.000924,0.011190,0.012025,0.016446,0.010744,0.053229,0.001794},
{0.017225,0.005233,0.024405,0.068151,0.024878,0.064425,-0.058078,-0.106603,-0.111709,-0.226360,-0.307611,-0.257207,-0.107492,-0.187027,-0.101180,-0.032554},
{-0.077440,-0.034219,-0.046140,-0.050874,-0.017342,-0.023915,-0.090887,-0.064811,-0.003246,0.001192,-0.002022,0.005125,-0.002856,-0.006362,0.009836,-0.014516},
{-0.011634,0.005709,0.016740,0.000816,0.020095,-0.037624,-0.027192,0.035759,0.021640,0.028801,0.001510,0.001730,0.001788,0.000608,0.000861,0.000681},
{0.000083,0.000151,-0.000035,0.045254,0.037927,0.043185,-0.007360,-0.016283,-0.018831,0.028450,-0.024133,0.014162,-0.009562,-0.032286,-0.066387,-0.024778},
{-0.048556,-0.001254,-0.038396,-0.054614,0.034956,0.048751,0.022113,0.054878,0.007487,-0.003420,0.010320,0.032137,0.053181,0.017121,0.028178,0.027641},
{0.021575,0.010001,0.012878,0.008892,-0.025309,-0.026138,-0.019356,0.076660,0.085035,0.060757,0.018737,0.031544,0.007908,-0.079100,-0.078004,-0.087706},
{0.002803,-0.000804,0.010685,-0.014071,-0.028747,0.011688,-0.007966,-0.023472,0.016541,0.010241,0.011035,0.012515,0.009954,0.016021,0.012598,0.011038},
{0.017086,0.009770,0.071435,0.061450,-0.000440,0.071104,0.120288,0.077227,0.001571,0.065998,0.045110,0.117058,-0.003285,0.018086,0.031897,0.164431},
{0.027126,0.003383,0.003716,-0.332377,-0.053037,-0.038282,-0.003172,-0.052439,-0.062782,-0.022396,-0.009724,-0.031447,0.000486,-0.011467,-0.014350,-0.016630},
{0.010033,0.017908,0.014079,0.000096,-0.005412,0.018197,-0.003849,-0.006187,-0.000067,-0.004067,-0.004632,0.003678,0.003937,0.023267,0.015148,0.010759},
{-0.009905,0.000231,-0.025619,-0.003798,-0.009328,-0.007532,-0.002792,-0.053500,0.058818,0.055957,0.003045,0.048963,0.103084,0.075825,-0.016068,0.044324},
{0.041922,-0.007263,-0.006996,-0.007361,0.000525,-0.003367,0.026648,-0.002379,0.010073,0.019795,0.001152,0.000812,0.000250,0.000914,0.001219,0.000668},
{0.000251,0.000558,0.000204,0.003539,-0.002257,0.014478,-0.013775,0.003033,-0.004709,0.003844,-0.017456,-0.031172,-0.010986,-0.009763,0.003718,-0.008255},
{0.000163,-0.023666,0.007295,-0.008142,-0.034271,0.005105,0.008998,0.008375,-0.001084,0.020941,-0.017760,0.003452,0.007122,0.019974,-0.041289,-0.028782},
{-0.005233,-0.032878,-0.045392,-0.023055,-0.006049,-0.017853,-0.006538,0.004532,-0.018525,-0.011301,0.004491,-0.065305,-0.044913,0.016720,-0.012259,0.067381},
{0.007013,-0.005826,0.003045,-0.028732,-0.033297,-0.000401,-0.018353,-0.023634,0.009448,-0.018368,-0.032530,-0.023921,-0.025556,-0.031337,-0.017373,-0.016748},
{-0.014856,0.004142,0.041618,0.026884,-0.033100,0.056219,0.057036,-0.018628,0.009280,0.015704,-0.087620,0.188377,0.074253,-0.004809,0.115598,0.011340},
{-0.172783,0.070506,-0.137120,-0.408868,-0.043635,-0.063049,-0.017415,-0.072554,-0.102263,-0.007835,-0.030639,-0.031526,0.077569,-0.093076,-0.063241,-0.002902},
{-0.058691,-0.031076,0.053737,-0.035434,0.028880,0.172861,0.016901,0.024284,0.004592,0.013787,-0.010544,-0.022505,-0.008593,-0.012862,-0.102376,-0.009344},
{0.016382,-0.016352,0.033022,0.048490,-0.065536,-0.032032,-0.099861,-0.100804,0.033737,0.013917,-0.022783,0.047023,0.039277,-0.000176,0.025910,0.030221},
{-0.032264,0.022871,-0.009738,-0.003369,0.009458,-0.020649,0.005233,0.028120,-0.024673,-0.074385,0.003189,0.002731,0.002255,0.002607,0.002284,0.001645},
{0.002193,0.001878,0.000946,-0.005399,0.006416,-0.032817,-0.045147,-0.018356,-0.006000,0.003652,-0.009729,-0.023095,-0.001045,-0.017384,0.043343,-0.040991},
{0.002759,-0.023080,-0.018077,0.019060,-0.040131,-0.106864,-0.063575,-0.021110,-0.050709,-0.022055,0.058139,-0.038103,0.012794,0.126452,-0.054170,-0.023394},
{-0.003504,-0.045457,-0.021211,-0.003888,-0.026179,-0.018463,0.006911,-0.029348,-0.058181,-0.023375,-0.010709,-0.047098,-0.027558,0.056124,0.061386,0.047747},
{0.006771,0.014097,-0.030895,-0.022702,0.063919,-0.028920,-0.047358,0.014930,-0.017925,-0.009992,0.018000,0.005944,-0.022328,0.024805,-0.025194,-0.022737},
{-0.014256,-0.030841,0.018074,0.016577,0.020339,-0.024960,-0.015077,0.036554,-0.020324,-0.006167,0.046183,0.032730,0.016080,-0.036793,0.017143,-0.001188},
{-0.003493,-0.020000,-0.040430,0.039219,0.019541,-0.025900,-0.009633,0.013554,-0.014212,-0.024235,-0.015531,-0.004608,-0.025332,0.240974,-0.179291,0.062230},
{-0.102820,0.198116,-0.043579,-0.105096,0.078416,-0.013894,0.174080,-0.235259,0.045368,-0.114674,0.187094,-0.128921,-0.166799,0.184786,-0.075896,-0.140119},
{-0.028191,-0.088631,-0.172354,-0.062545,-0.046934,0.005464,-0.107964,0.003969,0.028337,-0.011340,0.010102,0.002712,-0.035023,0.009857,-0.006283,0.001027},
{0.009030,-0.225185,0.274575,-0.067048,0.154236,-0.031786,0.113594,0.043219,-0.232055,0.036335,-0.002012,-0.002225,-0.001885,-0.001717,-0.001866,-0.001195},
{-0.001661,-0.001077,-0.000843,-0.126881,0.020799,-0.036685,-0.198280,-0.120057,0.032183,0.011269,-0.137934,-0.015451,0.136769,-0.327468,0.000013,0.016257},
{0.074935,-0.244098,-0.140199,0.198676,0.019033,-0.134757,0.216746,-0.234575,-0.002358,-0.143739,-0.018839,0.068833,-0.192834,0.042832,-0.019244,-0.010179},
{0.007295,-0.005513,-0.008291,0.006142,0.006304,0.004257,0.014539,0.084624,-0.115416,0.004787,0.008129,-0.034958,-0.027544,-0.013459,0.037729,0.016945},
{0.018364,0.006082,-0.004362,0.031753,0.004463,-0.004098,0.011709,0.008210,0.001274,0.004839,-0.012839,-0.037485,0.012571,-0.007498,-0.040109,0.004806},
{-0.015633,-0.035140,-0.002662,-0.011267,-0.027736,0.004229,0.004835,-0.023298,-0.000209,0.008731,-0.020628,-0.001179,-0.019433,-0.018957,0.013609,-0.009861},
{-0.023172,0.038697,-0.004225,-0.018762,-0.009015,-0.014581,-0.021057,-0.006308,-0.015732,-0.026527,-0.004966,-0.011204,-0.023899,-0.020209,0.003225,0.005026},
{0.033136,-0.028282,-0.008279,-0.016134,0.028507,0.006053,0.003221,-0.035142,-0.066643,0.019853,-0.026649,-0.086656,-0.005917,0.010535,-0.082059,-0.013789},
{-0.019368,-0.018358,0.030536,-0.010470,-0.010451,-0.017193,0.033301,0.041681,0.011479,0.007870,-0.015454,0.013234,0.022097,-0.012980,0.011272,0.019769},
{-0.009890,0.036504,0.159923,-0.021943,0.023716,0.139784,-0.022910,0.065337,0.143467,-0.038381,0.001047,0.001061,0.001107,0.000966,0.001050,0.001041},
{0.000885,0.001054,0.001009,0.018496,-0.029602,0.030345,-0.021260,-0.064082,-0.014987,-0.022140,-0.021581,-0.017210,-0.048441,-0.083340,0.021116,-0.068143},
{-0.046478,0.026409,0.012414,-0.073882,0.011597,0.079728,-0.008155,-0.075195,0.018959,-0.057593,-0.077332,-0.013919,-0.077788,-0.062708,-0.021960,-0.008520},
{0.007534,-0.024044,-0.011726,0.007772,-0.019699,-0.005030,0.007127,-0.017937,0.007217,0.011207,-0.027192,0.013973,0.018402,-0.040656,0.037355,0.032291},
{0.015318,0.003545,-0.020352,-0.030636,-0.051953,-0.017237,-0.016599,-0.006882,-0.022130,0.002860,0.005965,0.001444,-0.012086,-0.022301,-0.031342,-0.002942},
{-0.011957,-0.027558,0.012163,-0.020127,-0.020607,-0.019685,-0.016570,-0.030643,-0.041208,-0.002922,0.036928,-0.028356,-0.048445,0.013669,-0.022841,0.035714},
{-0.016822,0.036794,-0.016407,-0.002066,-0.022693,-0.009770,0.021116,0.016495,0.018861,-0.006559,0.000236,-0.026874,-0.023374,-0.000202,-0.176710,-0.162344},
{-0.245724,0.041227,0.211787,0.181540,0.025545,-0.130424,-0.034653,0.118331,0.078777,0.270611,0.058158,-0.278564,-0.218232,-0.065981,-0.050379,0.056566},
{0.061523,0.052171,0.021911,-0.071604,-0.142838,-0.042669,-0.127831,0.039728,-0.014653,0.001822,0.027871,0.029392,0.041276,-0.014537,0.000248,-0.034832},
{-0.030324,-0.056611,0.105127,0.136017,0.174130,-0.072626,-0.221081,-0.188173,-0.153547,-0.032432,-0.001413,-0.000786,-0.000218,0.000311,0.001082,0.000415},
{-0.000213,-0.000625,-0.000270,0.021097,-0.132828,-0.042539,-0.153129,-0.039238,0.082933,-0.021393,0.062119,0.004067,-0.039020,-0.105061,-0.090551,-0.049707},
{-0.079285,0.049488,0.056538,-0.058969,0.003153,-0.042629,-0.177216,-0.066018,-0.150722,0.161739,0.096146,0.137780,-0.024596,-0.053167,0.001528,-0.009504},
{-0.010068,-0.014275,-0.022507,-0.018107,-0.019317,-0.007598,0.004616,-0.069600,0.018410,0.076062,0.022930,0.107674,0.027258,0.010279,-0.118345,-0.086276},
{-0.060249,-0.055645,-0.037753,-0.069076,-0.064244,-0.040456,-0.075108,-0.072245,-0.042529,-0.067485,-0.068283,-0.056198,-0.064497,-0.066999,-0.054848,-0.050460},
{-0.053540,-0.047929,-0.014018,-0.003252,0.021549,-0.017437,-0.012493,0.012428,-0.020094,-0.020593,-0.012859,-0.007365,-0.002072,0.035958,-0.017537,-0.032258},
{0.010549,-0.000198,-0.008963,0.028843,0.009638,-0.002684,-0.014226,0.002673,-0.007829,-0.002170,-0.012465,-0.012110,0.001054,0.001712,-0.097041,0.078994},
{0.003057,-0.095396,0.080132,-0.040921,-0.137538,0.001590,-0.024289,0.001821,-0.076529,-0.052246,-0.081181,-0.083358,0.153353,0.156774,0.127861,0.044276},
{0.013738,-0.016279,0.039655,-0.002717,-0.032652,-0.042708,-0.079156,-0.055104,-0.006095,-0.006213,0.007218,-0.002981,-0.011653,0.005019,0.013919,0.006146},
{0.010091,-0.014107,-0.080788,0.139079,-0.001615,-0.076904,0.129995,-0.075251,-0.069681,0.130374,0.001195,0.001352,0.001481,0.001247,0.001229,0.001275},
{0.001220,0.001026,0.000809,0.039767,0.044199,0.038488,0.008485,0.012217,-0.015187,-0.091408,-0.062629,-0.130896,0.027862,0.008706,-0.059243,0.030249},
{0.003064,-0.041487,0.025317,-0.048539,-0.112709,-0.003517,0.001923,-0.019618,-0.102132,-0.101720,-0.120428,0.077066,0.113376,0.036553,-0.012301,-0.010508},
{-0.017423,-0.016903,-0.009745,-0.010645,-0.028173,-0.018049,-0.012404,-0.067360,-0.067383,-0.012187,-0.042108,-0.057033,0.009880,0.092212,0.087444,0.113955},
{0.041657,0.031738,0.023403,0.026184,0.022001,0.030276,0.020571,0.018276,0.015038,0.026965,0.030438,0.023282,0.016468,0.013996,0.012501,0.004644},
{0.003856,0.001011,-0.007238,-0.009122,-0.005544,-0.014690,-0.018951,-0.024012,-0.001311,-0.001784,-0.000402,-0.000594,0.001700,0.019107,0.002697,-0.009180},
{0.008135,-0.000079,-0.007398,-0.008414,0.020188,0.022015,0.019249,-0.007042,-0.008343,-0.005060,-0.021661,-0.023031,-0.024126,-0.027080,-0.028031,0.000464},
{-0.069313,-0.082239,-0.065330,-0.049895,-0.086862,-0.078753,0.145474,0.121316,0.157743,0.076137,0.054488,0.049600,-0.050853,-0.049263,-0.068347,-0.033760},
{-0.032108,0.022774,-0.019551,-0.010971,-0.000300,0.027494,0.008276,0.015059,0.024287,0.022130,0.020927,-0.007165,-0.013412,-0.012732,-0.006895,-0.006041},
{-0.006356,-0.017039,-0.005385,-0.012018,-0.048103,-0.055514,-0.055681,-0.065602,-0.069019,-0.037122,0.000259,0.000314,0.000336,0.000207,0.000217,0.000334},
{0.000195,0.000180,0.000229,-0.049894,-0.059719,-0.095323,-0.026359,-0.039647,-0.001058,0.066681,0.071976,0.051789,-0.009637,0.006939,-0.014800,-0.003181},
{-0.009251,-0.010976,0.044200,0.036987,0.013348,0.000010,0.001739,0.003025,0.019312,0.006140,0.016357,-0.016949,-0.033213,-0.020010,-0.001622,0.000697},
{0.003160,0.004480,0.005692,0.006384,-0.001948,-0.003626,-0.002406,0.039457,0.027380,0.038962,0.006676,-0.005788,0.000741,0.007859,0.000037,0.004508},
{-0.019080,-0.056599,-0.060971,0.018618,0.054692,0.010194,-0.017174,-0.010755,0.005317,-0.046505,-0.058890,-0.045856,-0.024330,-0.001589,-0.019963,-0.030492},
{-0.048256,-0.035490,0.005023,0.019307,0.024416,-0.016225,-0.024137,0.011796,-0.022873,-0.011196,0.012139,-0.006801,0.004450,0.017052,-0.016782,-0.038613},
{-0.017474,0.015360,-0.007771,-0.031177,0.011774,0.002010,-0.007626,0.030070,-0.008392,-0.040963,0.005956,0.014338,-0.004657,-0.097113,-0.085358,-0.003845},
{0.089547,-0.005891,-0.242549,-0.107473,-0.042119,0.146916,-0.083577,-0.064300,-0.037203,0.161223,0.169523,-0.264684,-0.073633,0.062252,0.092580,-0.005280},
{-0.120713,0.006032,0.051104,-0.076645,-0.132867,0.030556,-0.059153,-0.109764,-0.011181,0.012084,0.027833,0.010749,-0.029353,-0.015893,0.020110,0.018989},
{0.009110,0.183498,0.098982,-0.169384,-0.210159,-0.049792,0.264589,0.010827,-0.105898,-0.205370,0.000029,0.000888,0.000822,0.000185,0.000364,0.000598},
{0.000610,0.001397,0.001262,0.045952,0.102774,-0.018072,-0.123246,-0.034018,0.075867,0.091940,-0.126000,-0.048453,-0.111421,-0.103929,-0.004846,0.047522},
{-0.078775,-0.101189,0.001875,0.053060,-0.014822,0.082655,0.035671,-0.055211,-0.144529,0.079226,0.171778,-0.021667,0.034863,-0.152477,0.013850,0.007624},
{0.003187,-0.006670,-0.010109,-0.016485,-0.016459,-0.014447,-0.009863,-0.051868,0.004554,0.055853,0.001893,-0.059722,-0.122514,-0.005422,-0.008804,-0.011081},
{-0.044482,-0.045191,-0.035523,-0.056009,-0.068200,-0.063504,-0.055374,-0.061612,-0.043193,-0.027044,-0.034307,-0.038642,-0.033171,-0.041460,-0.044901,-0.034086},
{-0.035875,-0.030975,-0.019518,-0.016693,-0.020150,-0.015482,-0.012400,-0.013361,-0.015110,-0.007041,-0.002341,-0.009048,-0.017489,-0.012900,0.007737,-0.019887},
{-0.012795,-0.012248,0.012925,0.051545,-0.004434,-0.007625,-0.013742,-0.001609,-0.005987,-0.012453,-0.008224,-0.006749,-0.002135,-0.025354,-0.053351,-0.086044},
{-0.002009,-0.065464,-0.110200,-0.024309,-0.024326,-0.029123,-0.015011,-0.026460,-0.042612,-0.030939,-0.064573,-0.076997,-0.044405,-0.012745,0.034855,0.044405},
{0.060327,0.039550,0.020159,-0.005018,-0.025181,0.000048,-0.021507,0.049990,-0.004678,-0.004439,-0.010451,0.005527,0.007891,-0.001651,0.004509,0.013478},
{0.020211,-0.019760,-0.052183,-0.058602,-0.013852,-0.061359,-0.095326,-0.040529,-0.034244,-0.019701,0.000644,0.000384,0.000428,0.000557,0.000188,0.000180},
{0.000742,0.000516,0.000681,0.029728,0.022260,0.036841,0.062681,0.000580,-0.014701,0.002180,0.014250,0.002474,0.031745,0.049058,-0.016522,0.016752},
{0.045823,-0.052813,0.004397,0.051620,0.011817,-0.016686,-0.029137,-0.035363,-0.052750,-0.065423,-0.082703,-0.060675,-0.002232,0.039741,-0.009179,-0.002327},
{-0.002152,-0.008919,-0.003743,-0.002610,-0.011898,-0.011892,-0.012812,-0.029438,-0.044728,-0.053769,-0.016723,-0.030524,-0.043782,0.002749,0.005350,0.023599},
{-0.017227,0.001301,-0.015204,-0.025376,-0.010439,-0.004880,-0.022544,-0.012575,-0.007933,-0.038873,-0.050736,-0.028673,-0.058569,-0.081681,-0.049710,-0.020932},
{-0.036296,-0.018786,0.049456,0.058526,0.019321,0.057657,0.081683,0.032328,0.006824,0.041735,0.009678,0.014758,-0.005748,0.007102,0.005407,0.009937},
{0.004490,-0.006768,-0.003598,-0.006992,-0.088038,-0.173293,-0.107163,-0.178391,-0.288248,-0.205483,-0.081027,-0.180747,-0.106865,0.015216,0.008700,0.015547},
{-0.006721,0.004803,0.016473,0.010882,0.015690,0.021547,0.022889,0.031079,0.027633,0.022623,0.018834,0.015548,0.013329,0.011730,0.002659,-0.023621},
{-0.017913,-0.014056,-0.010114,-0.002370,-0.017865,-0.020946,-0.018757,-0.032127,-0.156755,-0.262241,-0.169625,-0.243126,-0.380124,-0.279599,-0.110780,-0.227102},
{-0.150264,0.009140,0.011024,0.012610,0.005229,0.012605,0.026380,0.020221,0.008777,0.040248,0.000970,0.001275,0.001524,0.001629,0.001851,0.001908},
{0.001863,0.002221,0.002363,-0.021734,-0.013364,-0.018072,-0.013591,-0.000277,-0.019563,-0.032258,-0.009273,-0.009984,-0.010507,0.000231,-0.019353,-0.001125},
{-0.017805,-0.152828,-0.020189,-0.004783,-0.157918,0.006643,0.010688,0.003258,-0.001155,0.003756,-0.006406,0.016341,0.005568,0.018577,-0.015369,0.025300},
{-0.000783,0.013611,0.074538,0.041640,-0.040418,0.016591,-0.018539,0.039537,-0.022764,0.004406,0.018926,-0.032421,-0.011888,0.054751,0.037508,0.059000},
{-0.010126,-0.009035,-0.017829,-0.006713,0.001370,-0.007429,-0.013054,0.006180,-0.020948,-0.008206,-0.009750,-0.008496,-0.012062,-0.016849,-0.012864,-0.008180},
{-0.008356,-0.008284,0.000722,-0.002155,-0.004856,-0.001972,-0.007120,-0.005665,-0.004902,-0.004215,0.006187,-0.015624,-0.008906,0.006797,-0.018183,0.019084},
{0.024019,-0.022509,0.005717,0.004120,0.005720,0.000881,0.001389,-0.000318,-0.014214,-0.006407,0.006173,-0.005106,-0.001685,-0.005206,-0.048393,-0.018855},
{-0.000005,-0.021495,0.093623,-0.007504,-0.035646,0.069292,-0.002227,0.000144,-0.001803,-0.019453,0.080009,0.069192,-0.045863,-0.090639,-0.113380,0.057366},
{0.025657,-0.018764,0.022027,-0.003419,-0.022584,-0.057704,-0.055935,0.001877,-0.001405,-0.005682,-0.005615,-0.006943,-0.007310,-0.005818,-0.016605,-0.016585},
{-0.011403,-0.017495,-0.025922,-0.037733,0.028522,0.100492,-0.026941,-0.016741,0.069658,-0.052242,0.000211,0.000441,0.000460,0.000541,0.000918,0.000909},
{0.000522,0.000771,0.000720,-0.026973,-0.008231,-0.027802,-0.052327,-0.025299,-0.042748,0.000471,-0.042139,-0.058414,-0.015281,-0.040937,-0.024653,0.000499},
{-0.046241,-0.006358,-0.015835,-0.069053,-0.019830,-0.022519,-0.023461,-0.000131,-0.045151,0.011560,0.047500,-0.025605,0.134995,0.093222,-0.004724,0.000914},
{-0.001069,-0.005647,0.004479,0.004727,-0.012066,-0.011000,-0.011559,-0.016071,0.012254,0.016951,-0.010862,0.036932,0.060311,-0.029583,-0.030916,-0.016594},
{-0.022273,0.002081,0.022528,-0.020639,0.000734,0.022540,-0.010854,0.013529,0.028495,-0.041279,-0.029913,-0.012875,-0.044968,-0.027392,-0.016065,-0.031623},
{-0.017095,-0.007125,-0.047449,-0.019068,0.020548,-0.065497,-0.023941,0.019943,-0.064076,-0.029023,0.021737,-0.032881,-0.019700,-0.003212,-0.006305,-0.035065},
{0.010137,-0.003010,-0.001517,-0.006782,-0.000480,-0.011990,0.000169,-0.005989,-0.024317,-0.017631,-0.014341,-0.023208,-0.015625,0.066218,0.007337,0.049080},
{0.034998,0.026249,0.042980,0.070344,0.015224,0.033562,0.028291,-0.013305,0.053097,0.027521,-0.026507,0.013648,0.007502,0.002455,0.035396,-0.028788},
{-0.012500,-0.005717,-0.117095,-0.110665,-0.094254,-0.035911,-0.040403,-0.034780,0.016926,0.008369,-0.000611,-0.001810,-0.008514,-0.007514,-0.009559,-0.010961},
{0.003576,-0.114202,-0.224399,-0.070134,-0.133945,-0.401223,-0.136410,-0.051245,-0.269029,-0.126745,0.000839,0.000754,0.000559,0.001168,0.001324,0.001037},
{0.001074,0.001025,0.000842,-0.017276,-0.028546,-0.020835,-0.045664,-0.045710,-0.050983,-0.029471,-0.029719,0.006607,0.070926,0.031577,0.043880,0.045130},
{0.020914,0.043457,0.045958,0.027767,0.060584,-0.025651,0.061051,0.073549,0.051434,-0.021987,0.059075,0.033157,0.044340,0.022300,-0.008799,-0.021659},
{-0.025841,-0.012709,-0.027860,-0.039896,-0.015444,-0.034954,-0.050412,0.023002,0.029593,-0.060938,0.013264,0.013806,-0.056413,0.028055,0.026765,-0.035363},
{-0.006667,-0.013808,-0.024897,0.009052,0.036617,0.023258,0.004786,0.038958,0.030955,-0.062265,-0.067227,-0.071612,-0.010789,-0.009543,-0.017296,0.010531},
{0.020902,0.017811,0.043489,0.059955,0.038740,-0.028212,-0.030348,-0.025427,-0.008657,-0.049675,-0.026386,0.027047,0.011475,-0.006876,-0.017522,-0.021733},
{0.002684,-0.015426,-0.004269,-0.002039,0.012455,0.006304,0.011927,-0.005966,-0.007824,-0.001347,0.006731,-0.013998,-0.004529,-0.045737,0.019391,-0.043474},
{-0.016377,-0.021595,-0.088350,0.014244,0.061501,-0.059418,-0.115325,-0.345545,-0.111103,0.152990,0.526510,0.397440,-0.137911,-0.431263,-0.115772,0.009220},
{-0.048759,-0.087645,0.093731,0.127592,0.036533,-0.049887,-0.097635,-0.092711,0.003641,-0.004449,0.000577,-0.012710,-0.013724,-0.003135,0.013452,0.000057},
{0.009701,0.033583,0.000449,-0.060889,-0.014018,0.017113,-0.047433,-0.018447,0.013156,-0.006592,-0.001309,-0.001158,-0.001237,-0.001659,-0.001619,-0.001396},
{-0.002176,-0.002004,-0.002053,0.144648,0.157126,0.126333,-0.332965,-0.405284,-0.309030,0.132820,0.142379,0.140498,-0.027561,-0.052026,-0.031535,0.006656},
{-0.003893,-0.026266,0.018293,-0.011054,-0.044575,-0.003182,-0.099029,0.065365,-0.054807,-0.231406,0.030345,0.015913,-0.055016,0.096535,0.019930,0.012777},
{0.012289,-0.005136,-0.008036,-0.011277,-0.016992,-0.036138,-0.032760,-0.007426,-0.045644,-0.056660,0.077224,0.083984,0.083644,-0.018568,-0.070328,-0.054070},
{-0.009657,-0.022679,-0.008965,-0.007648,-0.020753,-0.015901,-0.006913,-0.017264,-0.026045,-0.064921,-0.073285,-0.069982,-0.061061,-0.067304,-0.064054,-0.065633},
{-0.065171,-0.067195,-0.013479,-0.019964,-0.032769,-0.019874,-0.012705,-0.020288,-0.026477,-0.005647,0.006053,0.004572,0.000908,-0.015137,0.027486,0.032568},
{-0.018300,0.002542,-0.002175,-0.024744,-0.002018,0.010779,0.018913,-0.006750,-0.009459,0.001885,-0.010969,-0.025321,-0.023540,-0.013861,-0.015976,-0.000506},
{0.006183,0.019579,0.035762,0.012419,0.025821,0.017222,0.016750,0.015438,0.013569,0.031213,0.033378,0.034432,0.000566,0.019032,0.034013,0.033473},
{-0.007234,-0.028591,-0.006844,-0.027647,-0.032138,-0.038991,0.005340,0.013078,0.005550,0.006249,-0.013473,0.008963,0.024930,0.012551,-0.020583,0.007876},
{0.012935,0.006422,-0.012174,0.011076,0.019594,0.026026,-0.004573,0.032587,0.036959,0.013499,0.002439,0.002233,0.002058,0.002115,0.002129,0.001859},
{0.001969,0.002203,0.001911,-0.026914,-0.000535,0.011917,-0.039348,-0.026959,-0.021209,-0.016451,-0.003916,-0.012115,-0.005300,-0.023799,0.005564,-0.019064},
{-0.017733,-0.023274,-0.013846,-0.004097,0.016064,-0.001181,-0.007825,0.005995,-0.001282,0.021754,0.000453,0.017051,0.023190,0.004724,-0.026597,-0.024978},
{-0.006475,-0.034156,-0.044371,-0.027119,-0.017102,-0.036467,-0.025192,0.049987,0.053975,0.006437,0.083491,0.130035,0.066695,0.076294,0.146062,0.134090},
{-0.005704,0.005679,0.017156,-0.007026,0.002387,0.009845,0.033781,0.018127,0.016280,0.069820,0.073832,0.087516,0.067271,0.061142,0.067921,0.088408},
{0.087615,0.076636,0.018303,-0.001417,0.007743,0.038279,0.008489,0.012910,0.053815,0.038659,0.033048,-0.021941,-0.046098,-0.027533,0.030175,-0.037820},
{-0.039965,0.034915,0.013094,0.014492,0.026954,0.023722,0.023523,0.013523,0.003452,0.000111,0.026025,0.011429,0.005074,-0.002269,-0.050068,-0.019961},
{0.084860,-0.071548,-0.080622,0.026167,-0.009415,-0.052957,-0.042239,-0.080279,-0.022755,0.082213,-0.072531,-0.083046,0.013550,0.043004,-0.014757,-0.007453},
{-0.001532,0.013003,-0.035598,-0.003736,0.039854,-0.130025,-0.102932,-0.019705,-0.016897,-0.033663,-0.014724,0.013240,-0.027791,-0.020332,0.058585,0.033863},
{0.014539,-0.028313,-0.097767,-0.107617,0.047244,-0.173195,-0.115722,0.125862,0.129904,0.003809,-0.002833,-0.003254,-0.003278,-0.001204,-0.002256,-0.002424},
{-0.000108,-0.000747,-0.001312,-0.020002,0.017556,0.010602,-0.005735,-0.065808,-0.019056,-0.017774,0.004261,-0.052722,-0.036422,-0.026845,-0.062947,0.007295},
{-0.051537,-0.058542,-0.075042,-0.050003,-0.039809,-0.108310,-0.127140,-0.145708,0.058422,-0.181080,-0.178213,0.127038,0.131726,0.063940,0.039773,0.037783},
{0.022456,0.027292,0.035882,0.024546,-0.019775,0.001865,0.008798,0.014051,-0.046990,-0.066474,0.101316,0.032572,0.016948,-0.012049,0.030706,0.029958},
{-0.013681,0.012316,0.019363,-0.054202,-0.060682,-0.009422,-0.022976,-0.022495,-0.034124,-0.015596,-0.027108,-0.031655,-0.041447,-0.032909,-0.026406,-0.035610},
{-0.032812,-0.023109,-0.052776,-0.025038,-0.007014,-0.025105,-0.056331,-0.035352,0.027041,0.007575,-0.017910,0.011984,0.006829,-0.017219,-0.022689,-0.001888},
{-0.002270,-0.017033,-0.018391,0.011283,-0.009497,-0.009870,-0.031657,-0.017083,-0.000780,-0.002810,-0.017378,-0.019948,-0.015931,0.119529,0.100002,-0.057392},
{-0.185319,-0.045476,0.089384,-0.082700,-0.187264,-0.088679,0.062284,0.170164,-0.022161,-0.235544,0.092253,0.286523,-0.132768,-0.242168,-0.110592,-0.088331},
{-0.010123,0.038857,-0.071923,-0.184493,-0.064981,0.017134,-0.007662,-0.028758,0.007743,0.016581,-0.012761,-0.014484,0.022921,0.027814,-0.025434,-0.014001},
{0.016593,-0.088944,-0.178536,-0.122621,0.087903,0.083354,-0.157634,-0.062445,0.052968,0.151085,0.001950,0.001629,0.001225,0.001192,0.002215,0.002072},
{0.000254,0.000249,0.001462,-0.035462,-0.141012,-0.080104,0.065301,-0.034854,-0.150227,0.006667,0.025305,0.073044,0.108017,0.123076,0.082950,-0.113201},
{-0.006315,0.056713,0.011874,-0.150154,-0.110524,0.011675,-0.185117,-0.116362,0.097749,0.150078,-0.064551,-0.018777,-0.046168,0.038751,-0.019313,-0.019235},
{-0.014162,-0.010835,-0.030701,-0.033914,0.019772,-0.000911,-0.030579,0.038058,0.048147,-0.025629,-0.000532,0.071503,0.036083,-0.082535,-0.081046,0.014700},
{0.006924,-0.002907,0.013754,-0.004394,0.056485,0.041311,-0.028257,0.001180,0.000233,-0.018671,-0.031926,-0.008974,-0.020663,-0.017470,-0.002223,-0.026884},
{-0.025632,-0.027902,0.004246,-0.022179,-0.024237,-0.027929,-0.023344,0.061180,-0.032648,-0.039025,-0.009427,-0.003601,0.094469,-0.008194,-0.014892,0.003488},
{0.011033,0.006802,-0.032287,-0.034684,-0.010717,-0.011595,0.018388,0.000173,-0.003726,-0.013550,0.006790,-0.030143,-0.043288,0.012921,0.063173,0.034672},
{0.046426,0.228576,0.012854,-0.022597,-0.089212,-0.126877,-0.082722,-0.044120,-0.058979,-0.051713,0.148619,0.215768,-0.010263,0.009228,-0.008788,0.010569},
{-0.123436,-0.112140,-0.030464,-0.141205,0.147426,-0.005212,-0.069933,0.073441,0.003008,0.001322,0.004867,-0.015837,-0.007717,0.058252,-0.030872,-0.036236},
{-0.007325,-0.016848,-0.144919,0.116048,-0.009692,-0.089568,0.175202,0.005523,-0.064048,-0.041174,-0.000235,0.001377,0.001014,-0.000309,0.001268,0.001277},
{-0.000235,0.001363,0.001240,0.058405,-0.035900,0.058465,-0.032787,-0.126431,-0.164906,-0.021241,0.037049,-0.015575,0.006964,-0.103070,-0.141058,-0.019950},
{-0.143294,-0.062923,0.034333,0.054851,-0.040675,-0.143819,0.149958,0.156509,-0.114969,0.012387,-0.042262,-0.001688,0.023450,-0.001146,0.005579,-0.032086},
{-0.028772,0.013926,-0.038835,-0.053657,0.032134,-0.002348,-0.015146,0.020512,0.058352,0.070407,0.001015,-0.015078,0.059547,0.001122,-0.031883,-0.036183},
{0.052550,0.062447,0.060198,0.019754,0.017558,0.028085,-0.058460,-0.049474,-0.030018,0.008807,0.001850,0.001533,-0.024377,-0.030202,-0.025764,-0.059410},
{-0.061375,-0.057393,0.017221,0.013819,0.006630,-0.014163,-0.008279,-0.015423,-0.038875,-0.030751,-0.026213,-0.002301,0.012865,0.001443,-0.013338,-0.019624},
{-0.006879,-0.021163,-0.029136,-0.020799,0.011076,0.015194,0.009794,-0.005976,-0.013956,-0.016947,-0.006946,-0.010690,-0.017826,0.010092,0.004615,-0.025680},
{0.023373,-0.062977,-0.007363,-0.005687,-0.006394,0.047643,0.056148,0.056350,0.065025,0.040380,0.015898,0.030731,0.051569,0.028595,0.057896,0.035068},
{0.063847,0.026260,0.041640,0.004068,-0.033798,-0.040359,-0.009022,0.026574,-0.014991,-0.013054,-0.013354,-0.006869,0.001231,0.000399,0.013857,0.026657},
{0.025207,0.022531,0.020398,-0.003954,0.002770,-0.049501,0.014651,0.004387,0.013801,0.007888,0.000069,0.000318,0.000354,0.000852,0.001275,0.001232},
{0.002049,0.002426,0.002470,-0.042934,-0.062397,-0.058489,-0.042748,-0.101540,-0.058167,-0.055833,-0.095821,-0.028906,-0.056894,-0.020661,0.031176,-0.032109},
{-0.011763,0.003593,0.039942,0.012352,-0.065475,-0.022806,-0.029484,-0.039232,-0.247670,-0.363903,-0.287749,-0.187911,-0.281933,-0.143089,-0.031808,-0.037176},
{-0.034986,-0.018179,-0.025760,-0.028221,-0.011287,-0.016799,-0.018139,-0.056574,-0.057318,-0.064496,0.025177,0.035712,-0.011595,0.045506,0.031760,0.026395},
{0.014208,0.018379,0.018300,-0.009405,0.004766,0.007158,0.002015,-0.000355,0.001598,-0.007492,-0.012102,-0.002785,-0.020880,-0.026147,-0.009917,-0.014889},
{-0.014539,0.002342,0.033313,-0.006550,0.016407,-0.023666,-0.125776,-0.068045,-0.031357,-0.142013,-0.118334,-0.044380,-0.014916,-0.012791,-0.205750,0.044114},
{0.025711,0.009393,0.075487,0.053854,-0.043473,-0.023589,-0.023880,0.016905,0.055861,0.048534,0.021948,0.079906,0.091982,-0.014463,-0.003185,-0.008186},
{0.009060,0.011891,-0.003493,0.000292,-0.001030,-0.003252,-0.000882,0.000700,-0.005870,0.009364,0.013049,0.005062,-0.003783,0.003729,-0.002178,-0.006475},
{0.011710,0.004740,-0.019632,-0.003194,0.013157,0.001362,-0.008741,-0.008807,0.012430,-0.034530,-0.008302,-0.039499,-0.127264,-0.071420,-0.014269,-0.089078},
{-0.077807,-0.001502,-0.002301,-0.005523,0.002204,0.007429,0.001630,0.001825,0.006445,0.000309,0.000042,0.000002,0.000137,-0.000931,-0.001418,-0.001181},
{-0.000854,-0.001520,-0.001682,-0.004258,0.001406,0.007326,0.002707,-0.004143,0.001231,-0.003492,-0.009835,-0.005069,0.001819,0.009679,0.002095,-0.003310},
{-0.006883,-0.014936,0.002506,-0.013564,0.000630,-0.002863,-0.003113,-0.009251,0.004757,-0.002364,-0.002045,-0.002521,-0.000605,-0.001762,0.032416,0.053946},
{0.032178,0.072187,0.104357,0.082672,0.046945,0.080758,0.076935,0.034069,-0.018649,0.006591,-0.005282,-0.074903,-0.003228,0.019679,0.006520,0.021140},
{-0.000083,0.030227,-0.022969,-0.019463,0.031823,-0.020915,-0.020527,0.004925,-0.000236,-0.021929,-0.013608,-0.040184,-0.022824,-0.003358,-0.037965,-0.015074},
{-0.008270,-0.008547,0.002810,-0.007470,-0.035850,0.001620,-0.007034,0.002412,-0.001278,0.004307,0.020887,-0.015094,-0.017135,-0.004443,-0.002839,-0.024355},
{-0.017226,0.008450,-0.015275,-0.012315,0.012673,-0.015160,-0.023096,0.029898,-0.000856,-0.022444,0.030284,0.014676,-0.023009,-0.008584,-0.098483,0.035284},
{-0.041679,0.041196,-0.122405,0.050209,0.037091,-0.117488,0.090867,-0.217172,-0.050830,0.080206,-0.068767,-0.207583,0.016245,0.052464,-0.188726,0.012562},
{0.012803,-0.018488,-0.011327,-0.021568,-0.067954,-0.007048,-0.001736,-0.069007,-0.005198,-0.008501,0.025685,0.012280,-0.034593,0.010587,0.030282,-0.013630},
{-0.013623,-0.056383,0.216278,-0.002303,-0.167353,0.093514,0.155365,-0.088691,-0.137763,0.091392,0.000337,0.001247,0.002073,0.000577,0.000752,0.001986},
{0.000801,0.000440,0.001385,-0.054597,0.082826,0.038784,-0.068040,0.029247,0.062102,-0.060117,-0.028008,0.096780,0.035788,-0.101177,-0.100918,0.057868},
{-0.054622,-0.047627,0.117474,-0.003110,-0.054821,-0.131120,0.024060,-0.014225,-0.122685,-0.083589,0.099878,-0.043395,-0.118295,0.137452,0.011748,0.000992},
{-0.007551,0.006292,0.000040,-0.001879,-0.002273,-0.005216,-0.008555,-0.029387,-0.059901,0.148821,0.019584,-0.113401,0.062541,0.049412,-0.042484,-0.056971},
{-0.006674,0.005483,-0.002853,-0.003668,-0.000449,0.001452,0.020447,0.003665,-0.003220,-0.008893,0.000354,-0.013524,-0.004103,0.007571,-0.004252,-0.019104},
{-0.007207,-0.011521,-0.122381,-0.229764,-0.133242,-0.132282,-0.287224,-0.229161,0.023547,-0.114932,-0.147150,-0.098485,-0.003205,0.000163,0.005830,-0.000945},
{-0.003485,0.000434,-0.008195,0.005053,0.042973,0.097627,0.026287,0.053204,0.142277,0.097527,-0.054315,0.061180,0.072113,0.015158,-0.003130,0.005685},
{0.016043,0.005183,-0.003392,-0.004635,-0.005993,-0.003939,0.018102,-0.002716,-0.004761,0.003436,0.000456,0.006745,-0.004890,0.006713,0.014126,-0.012628},
{0.019960,-0.006973,-0.007772,-0.008583,0.005365,-0.004079,0.001488,0.018820,0.055058,0.062755,0.056580,0.102132,0.073049,0.024952,0.115604,0.091109},
{0.017850,0.007797,0.006350,0.016922,0.001535,-0.011648,-0.005311,0.005801,0.006803,0.007996,0.000048,-0.000141,-0.000074,0.000547,-0.000280,-0.000678},
{0.000618,-0.000092,-0.000941,-0.017691,-0.018870,-0.020610,-0.002079,0.005090,-0.015978,-0.003998,-0.000554,-0.013306,-0.009006,0.000163,-0.006478,0.000237},
{0.000432,0.003368,-0.002691,0.004794,0.001907,0.008781,0.000567,0.002356,0.004494,-0.025839,-0.018521,-0.002622,-0.002255,-0.004042,-0.023864,-0.019773},
{-0.001505,-0.059034,-0.039430,0.002956,-0.060789,-0.030809,0.019369,0.001567,-0.050320,-0.000274,0.017531,-0.013934,-0.009248,0.038181,0.021919,0.008566},
{-0.003404,-0.031197,-0.019962,-0.064239,-0.094329,-0.047223,-0.084728,-0.094384,-0.060687,-0.019381,-0.000227,-0.005629,-0.015915,-0.002487,-0.004569,-0.015389},
{-0.014043,-0.017570,-0.014495,-0.004988,-0.008560,-0.006098,-0.024949,-0.026356,-0.011128,-0.026777,-0.014380,0.091491,0.053250,0.007069,0.042981,-0.033995},
{-0.026462,0.005661,-0.042850,-0.055942,0.001057,-0.005717,-0.007400,0.006910,-0.016460,-0.022850,0.002370,-0.020846,-0.031434,0.098280,0.088486,-0.042485},
{0.150779,0.005790,-0.116524,0.128953,-0.077154,-0.112591,-0.034781,-0.055648,0.058476,-0.107050,-0.046365,-0.020454,-0.049582,-0.060492,-0.064484,-0.178539},
{-0.002785,-0.109393,-0.030266,-0.015460,-0.037511,-0.034449,-0.022949,-0.022583,0.013349,0.002962,-0.006422,0.025597,-0.019293,-0.024881,0.021201,-0.012395},
{-0.010009,0.050291,-0.007518,-0.017258,-0.003025,-0.028740,-0.073689,-0.009681,-0.097737,-0.130752,0.001454,0.001063,0.000629,0.001369,0.000491,0.000403},
{0.001337,0.000571,0.000415,-0.013052,0.012083,0.019060,-0.062911,-0.054029,-0.035566,0.038442,0.048186,0.032464,-0.032016,-0.009186,0.012119,0.003501},
{-0.058534,0.038401,0.006573,-0.047200,0.051759,0.113176,0.120917,0.101568,0.047076,-0.035100,-0.040748,0.008037,-0.092899,-0.129873,0.007897,-0.004845},
{-0.009039,-0.006906,-0.020347,-0.020265,-0.015237,-0.022161,-0.023695,0.143505,0.048498,-0.024313,0.126294,-0.075113,-0.091518,0.058138,-0.072305,-0.067638},
{0.005546,0.015319,0.019459,-0.013077,0.010071,0.007878,-0.006195,0.018846,-0.038186,-0.000896,-0.019649,-0.001222,-0.012765,-0.008956,-0.025198,-0.037428},
{-0.010141,-0.066484,-0.000324,-0.012099,0.001783,0.001735,-0.023244,0.013254,0.023185,-0.018778,-0.002541,-0.077536,0.075151,-0.014727,0.050553,-0.018247},
{-0.044890,0.031534,-0.034202,0.004785,-0.008577,0.014254,-0.013086,0.002572,-0.017208,-0.002038,-0.002256,-0.025855,0.019713,-0.081516,-0.021917,0.198488},
{-0.140506,0.176117,-0.274924,0.203073,-0.038142,-0.024042,0.069469,-0.130496,-0.049321,0.070888,-0.430487,0.199429,-0.137397,0.014652,0.038248,0.209225},
{-0.121885,-0.077662,-0.038705,-0.089160,0.163740,-0.170581,0.072283,0.107206,0.002804,0.011778,-0.027943,0.020560,-0.037221,-0.007748,0.015131,-0.034498},
{0.023843,0.022689,0.022609,-0.066432,0.077734,-0.360031,0.126806,-0.124517,0.211983,-0.009323,-0.001684,0.000093,-0.000755,-0.000795,-0.000246,-0.000113},
{-0.000581,-0.000290,0.000951,-0.131364,0.016081,-0.021865,-0.071065,-0.005256,-0.148141,0.081575,-0.068747,-0.154384,-0.087008,0.007530,0.138180,-0.021586},
{0.016768,-0.099122,0.122875,-0.187988,-0.071257,-0.175870,0.085549,-0.029471,-0.185615,0.348693,-0.319412,0.133673,-0.103637,-0.107742,0.000409,-0.009162},
{-0.012175,0.000534,-0.011879,-0.005433,-0.000228,-0.014968,-0.010678,-0.036011,0.088997,-0.111647,0.038907,-0.024391,0.000468,0.033105,-0.114042,0.106210},
{-0.040984,0.010713,0.045201,-0.045773,0.009502,0.043389,-0.053539,0.005403,0.038232,0.020420,0.004628,0.018300,0.007544,0.005083,0.010563,-0.019146},
{-0.001470,-0.004260,-0.052151,0.017561,0.054597,-0.044303,0.009000,0.073453,-0.013592,0.022142,0.087984,-0.030017,-0.000858,0.005576,-0.014324,-0.023096},
{0.009059,0.013707,-0.019645,0.011060,0.015190,0.017649,0.017839,0.004078,-0.004621,0.006325,0.012173,-0.009463,0.008542,-0.010333,0.151607,-0.044925},
{-0.082322,0.065366,-0.087078,0.101374,0.008988,-0.086059,-0.079737,-0.124990,0.033160,0.003451,-0.131074,-0.003788,0.010091,-0.069115,0.002842,0.026747},
{-0.101662,-0.000669,0.000581,-0.157024,0.034472,0.094804,-0.145041,0.042077,-0.023100,0.028621,-0.004951,-0.009609,0.007820,-0.004587,0.028666,0.010315},
{0.023066,0.213545,-0.113035,-0.018686,0.187318,-0.645228,0.024008,0.134033,-0.385882,0.006584,-0.002912,-0.003150,-0.004111,-0.002272,-0.003002,-0.003517},
{-0.001603,-0.002702,-0.002874,-0.015539,-0.042878,-0.026200,0.017430,-0.029277,-0.030397,-0.069892,0.021114,0.046862,-0.195656,0.177026,-0.036064,-0.218824},
{0.094249,-0.048286,-0.160323,0.102042,-0.065062,-0.066500,0.042847,-0.040547,-0.173903,0.052433,-0.078304,-0.142362,0.024006,-0.046550,0.002340,0.021332},
{0.061874,-0.003555,0.025486,0.065523,-0.001016,0.029360,0.061369,-0.027458,0.096724,-0.103993,0.015470,0.044856,-0.089952,0.155968,0.003324,-0.030993},
{0.042944,-0.010181,-0.044883,0.047422,-0.005723,-0.047190,0.041388,-0.006875,-0.049041,0.016252,-0.011713,-0.035633,0.008365,-0.017888,-0.041642,0.011675},
{-0.013215,-0.035906,0.005910,-0.027792,-0.048184,0.016920,-0.011478,-0.042816,0.026326,-0.002520,-0.031682,0.002638,-0.019407,-0.016853,-0.009219,-0.018961},
{-0.004092,-0.019780,-0.012532,0.021472,0.043037,0.004208,-0.014697,0.020242,-0.012538,-0.020619,0.002430,-0.020327,-0.026534,-0.071595,-0.255105,-0.134679},
{-0.098090,-0.297654,-0.150441,-0.125804,-0.249503,-0.090052,0.061829,-0.026972,-0.021424,0.017398,-0.039548,-0.016387,0.006417,0.022190,-0.006452,0.065153},
{-0.001644,-0.048287,0.040217,0.028175,0.017682,-0.030077,-0.003602,0.039304,0.003476,-0.009150,-0.007257,0.006055,-0.009629,-0.011053,0.016915,-0.006253},
{-0.015573,0.080341,0.065193,0.049699,0.057970,0.084041,0.050845,0.085054,0.061085,0.075985,-0.000330,0.000310,0.001135,0.000127,0.000656,0.001290},
{0.000159,0.000622,0.001375,-0.038377,-0.004597,0.017557,-0.025089,-0.011572,-0.030518,0.050253,0.003481,-0.068124,-0.061399,-0.069339,-0.033493,-0.082953},
{-0.094177,-0.078020,-0.070549,-0.090273,-0.047887,0.044351,0.003133,-0.016254,-0.001427,-0.049708,-0.014007,0.026211,0.008585,-0.000740,-0.004556,0.005107},
{0.003960,-0.013259,0.002239,0.005961,-0.028010,-0.007345,0.004109,-0.086396,0.020320,0.064241,-0.082400,0.002051,0.037909,-0.044783,-0.009206,0.067960},
{-0.018555,0.004365,0.021442,-0.020079,-0.010839,0.031414,-0.019466,-0.003974,0.033947,-0.008941,-0.000019,0.020129,-0.002979,0.001075,0.025870,0.001682},
{0.005161,0.034553,0.014052,-0.007660,0.003971,0.000947,-0.011666,0.014140,0.008617,-0.002976,0.032226,0.016847,0.043147,-0.010565,-0.035085,0.057211},
{-0.002606,-0.052601,0.016282,0.048579,0.018976,-0.007843,0.001491,0.024716,0.001018,0.011013,0.033396,0.010720,0.021879,-0.023861,0.077840,0.149798},
{0.012710,-0.020183,0.151897,0.006872,-0.007602,0.208917,-0.038836,-0.154107,-0.079997,-0.078989,-0.166712,-0.067917,-0.107565,-0.169990,-0.071962,0.054623},
{-0.024187,-0.089489,0.056688,-0.024896,-0.132753,0.028607,0.002208,-0.092413,0.002746,-0.036551,0.004922,0.020276,-0.016949,0.016843,0.048502,0.006619},
{0.029802,0.006971,0.107984,0.013446,-0.023269,0.071301,0.034318,0.006131,0.035243,0.089298,-0.002070,-0.000549,-0.000758,-0.002135,-0.000636,-0.000536},
{-0.002100,-0.000727,-0.000418,0.095756,0.025006,0.021104,-0.053133,-0.060837,-0.032057,-0.055529,-0.061871,-0.016521,0.002550,-0.020492,-0.108224,-0.009968},
{-0.036672,-0.109667,0.023728,-0.054489,0.062965,-0.055539,-0.120215,-0.121769,-0.076038,-0.171890,-0.135516,-0.099251,-0.193404,-0.172336,0.031608,0.020055},
{0.018725,0.015001,0.005950,0.009740,0.003973,-0.003724,0.007412,-0.019920,0.020417,0.051942,-0.063546,-0.010951,0.038007,-0.053505,-0.005557,0.033411},
{-0.014722,-0.015954,-0.007933,-0.014886,-0.030329,-0.030090,-0.009167,-0.030998,-0.039144,-0.010448,-0.012484,-0.010259,-0.016609,-0.017904,-0.022723,-0.012386},
{-0.018714,-0.024820,-0.006358,-0.019762,-0.017467,-0.008065,-0.015312,-0.009753,-0.014871,-0.025431,-0.014838,-0.007873,-0.005151,-0.022225,0.017280,0.027669},
{-0.021526,0.046044,0.007103,0.026729,-0.013927,-0.013026,-0.023074,-0.012724,-0.003544,-0.017537,-0.012779,-0.004468,-0.012519,-0.069444,0.120951,-0.032590},
{0.009450,0.222786,-0.051903,0.015339,0.134935,-0.076764,0.079383,-0.018301,-0.007174,0.008019,-0.110534,-0.066460,-0.034825,-0.170370,-0.085064,0.018200},
{-0.238138,0.057408,0.007522,-0.126541,0.038485,0.027958,-0.117099,0.035076,-0.010496,-0.015724,-0.017623,0.003707,-0.006363,-0.005709,0.011865,0.002017},
{0.005588,-0.110463,-0.057209,0.108747,-0.059618,0.027424,0.207910,-0.050686,-0.021499,0.124916,-0.000724,0.000041,0.000110,-0.000352,0.000274,0.000362},
{-0.000150,0.000268,0.000530,0.009149,-0.020168,-0.027638,0.017460,-0.067273,-0.016443,-0.012557,-0.077730,0.013165,0.070216,0.039020,-0.128382,0.073726},
{0.033916,-0.120499,0.014737,0.004246,-0.132996,0.004153,-0.085377,-0.132302,-0.012129,-0.090200,-0.171207,0.054951,-0.019336,-0.063021,0.000538,-0.020610},
{-0.023567,0.001025,-0.017961,-0.017382,-0.010874,-0.029513,-0.022258,0.009355,-0.015241,-0.060253,0.042647,0.014099,-0.027533,0.015966,-0.005751,0.007672},
{-0.064535,0.002814,-0.026373,-0.035713,0.038909,-0.020931,-0.025523,0.032023,0.004919,-0.015553,-0.001541,0.008971,0.011545,0.038655,0.010168,0.023038},
{0.030027,0.012649,0.008840,-0.010679,0.001414,0.000147,-0.018556,0.021002,-0.001369,-0.008917,-0.013852,-0.020501,-0.011298,0.027765,-0.017316,0.001063},
{0.018257,0.036867,0.009960,-0.035587,0.009906,-0.007980,0.001216,0.005542,-0.010185,0.008685,0.013422,0.009741,0.005151,0.039170,-0.000223,-0.088910},
{-0.054881,-0.040088,-0.128510,-0.067481,-0.113854,0.081726,-0.082624,-0.132051,0.090659,-0.085909,0.013110,0.212390,-0.098811,0.117408,0.013363,-0.002356},
{0.009352,0.118349,0.026786,0.125604,0.017952,-0.021074,-0.005749,-0.060373,-0.026179,-0.045917,0.009253,-0.034551,-0.017152,0.047857,-0.009092,0.019588},
{0.012394,-0.102424,-0.171815,-0.028216,-0.121680,0.046266,0.219593,0.028534,0.300316,0.057696,-0.001389,-0.001240,-0.000147,-0.001939,-0.001075,0.000543},
{-0.001661,-0.000071,0.000579,0.096238,-0.046902,-0.033688,0.069584,-0.093278,-0.128107,0.042414,-0.101437,-0.077962,0.035940,0.015128,-0.044482,-0.036158},
{-0.078615,-0.083940,-0.033336,-0.145963,-0.119126,-0.002707,-0.069360,-0.071493,-0.017979,-0.086904,-0.108440,-0.038695,-0.185866,-0.003225,0.026260,-0.004629},
{-0.020243,0.011174,-0.018407,-0.019355,-0.003353,-0.020000,-0.016772,-0.035005,-0.139107,0.022340,-0.085967,-0.066407,0.203503,-0.093889,0.078908,0.103220}
};
