constant half3 weights_10[125*512] = {
{0.023393,0.023393,0.023393},
{0.067800,0.067800,0.067800},
{-0.039436,-0.039436,-0.039436},
{-0.028164,-0.028164,-0.028164},
{0.093200,0.093200,0.093200},
{0.014447,0.014447,0.014447},
{0.005591,0.005591,0.005591},
{-0.068956,-0.068956,-0.068956},
{0.018258,0.018258,0.018258},
{-0.037538,-0.037538,-0.037538},
{0.128430,0.128430,0.128430},
{0.015439,0.015439,0.015439},
{0.037895,0.037895,0.037895},
{-0.003083,-0.003083,-0.003083},
{0.023798,0.023798,0.023798},
{0.016637,0.016637,0.016637},
{0.024097,0.024097,0.024097},
{-0.055422,-0.055422,-0.055422},
{0.029497,0.029497,0.029497},
{-0.037289,-0.037289,-0.037289},
{-0.042972,-0.042972,-0.042972},
{0.008256,0.008256,0.008256},
{0.007940,0.007940,0.007940},
{0.025875,0.025875,0.025875},
{0.022711,0.022711,0.022711},
{-0.015610,-0.015610,-0.015610},
{0.003393,0.003393,0.003393},
{-0.003044,-0.003044,-0.003044},
{0.028763,0.028763,0.028763},
{0.009700,0.009700,0.009700},
{-0.054804,-0.054804,-0.054804},
{0.091650,0.091650,0.091650},
{-0.000896,-0.000896,-0.000896},
{0.001778,0.001778,0.001778},
{-0.045135,-0.045135,-0.045135},
{-0.060676,-0.060676,-0.060676},
{-0.029653,-0.029653,-0.029653},
{0.046290,0.046290,0.046290},
{0.075725,0.075725,0.075725},
{-0.027848,-0.027848,-0.027848},
{0.057554,0.057554,0.057554},
{0.031175,0.031175,0.031175},
{0.040949,0.040949,0.040949},
{0.000391,0.000391,0.000391},
{-0.002154,-0.002154,-0.002154},
{0.042642,0.042642,0.042642},
{-0.017789,-0.017789,-0.017789},
{0.006780,0.006780,0.006780},
{0.010774,0.010774,0.010774},
{-0.027493,-0.027493,-0.027493},
{-0.001277,-0.001277,-0.001277},
{-0.047796,-0.047796,-0.047796},
{0.011339,0.011339,0.011339},
{-0.022848,-0.022848,-0.022848},
{-0.081720,-0.081720,-0.081720},
{-0.012716,-0.012716,-0.012716},
{-0.126555,-0.126555,-0.126555},
{-0.043906,-0.043906,-0.043906},
{0.022772,0.022772,0.022772},
{-0.048143,-0.048143,-0.048143},
{-0.050538,-0.050538,-0.050538},
{0.001744,0.001744,0.001744},
{-0.020906,-0.020906,-0.020906},
{-0.011550,-0.011550,-0.011550},
{-0.067896,-0.067896,-0.067896},
{-0.034705,-0.034705,-0.034705},
{-0.032756,-0.032756,-0.032756},
{0.022293,0.022293,0.022293},
{0.011888,0.011888,0.011888},
{0.059683,0.059683,0.059683},
{0.026040,0.026040,0.026040},
{0.021755,0.021755,0.021755},
{0.033394,0.033394,0.033394},
{-0.018709,-0.018709,-0.018709},
{0.036236,0.036236,0.036236},
{0.030846,0.030846,0.030846},
{-0.083357,-0.083357,-0.083357},
{0.082117,0.082117,0.082117},
{0.018501,0.018501,0.018501},
{-0.002979,-0.002979,-0.002979},
{0.015911,0.015911,0.015911},
{0.003915,0.003915,0.003915},
{-0.002204,-0.002204,-0.002204},
{0.014439,0.014439,0.014439},
{0.024375,0.024375,0.024375},
{-0.001731,-0.001731,-0.001731},
{-0.022613,-0.022613,-0.022613},
{-0.025836,-0.025836,-0.025836},
{-0.024033,-0.024033,-0.024033},
{-0.033428,-0.033428,-0.033428},
{-0.028103,-0.028103,-0.028103},
{-0.001067,-0.001067,-0.001067},
{-0.010609,-0.010609,-0.010609},
{0.014610,0.014610,0.014610},
{-0.004408,-0.004408,-0.004408},
{0.049164,0.049164,0.049164},
{-0.030418,-0.030418,-0.030418},
{0.049842,0.049842,0.049842},
{-0.006126,-0.006126,-0.006126},
{-0.028617,-0.028617,-0.028617},
{0.008225,0.008225,0.008225},
{-0.015900,-0.015900,-0.015900},
{0.039469,0.039469,0.039469},
{0.091868,0.091868,0.091868},
{0.064234,0.064234,0.064234},
{0.007067,0.007067,0.007067},
{0.014861,0.014861,0.014861},
{-0.053737,-0.053737,-0.053737},
{0.011595,0.011595,0.011595},
{0.003068,0.003068,0.003068},
{0.009960,0.009960,0.009960},
{0.000583,0.000583,0.000583},
{-0.083527,-0.083527,-0.083527},
{0.060369,0.060369,0.060369},
{0.008368,0.008368,0.008368},
{0.039400,0.039400,0.039400},
{0.001570,0.001570,0.001570},
{0.020664,0.020664,0.020664},
{0.005865,0.005865,0.005865},
{-0.038754,-0.038754,-0.038754},
{0.059973,0.059973,0.059973},
{-0.029173,-0.029173,-0.029173},
{-0.031808,-0.031808,-0.031808},
{0.031541,0.031541,0.031541},
{0.029734,0.029734,0.029734},
{0.009835,0.009835,0.009835},
{0.085900,0.085900,0.085900},
{0.026409,0.026409,0.026409},
{0.053230,0.053230,0.053230},
{0.050599,0.050599,0.050599},
{0.025143,0.025143,0.025143},
{0.077075,0.077075,0.077075},
{0.008266,0.008266,0.008266},
{-0.014148,-0.014148,-0.014148},
{-0.004917,-0.004917,-0.004917},
{-0.020298,-0.020298,-0.020298},
{0.034598,0.034598,0.034598},
{0.054159,0.054159,0.054159},
{0.017137,0.017137,0.017137},
{0.003975,0.003975,0.003975},
{-0.026633,-0.026633,-0.026633},
{0.005516,0.005516,0.005516},
{0.009887,0.009887,0.009887},
{0.014576,0.014576,0.014576},
{-0.000947,-0.000947,-0.000947},
{0.034385,0.034385,0.034385},
{-0.013231,-0.013231,-0.013231},
{-0.019737,-0.019737,-0.019737},
{0.058495,0.058495,0.058495},
{-0.029395,-0.029395,-0.029395},
{-0.063274,-0.063274,-0.063274},
{0.015294,0.015294,0.015294},
{0.008379,0.008379,0.008379},
{0.025348,0.025348,0.025348},
{-0.031339,-0.031339,-0.031339},
{-0.009615,-0.009615,-0.009615},
{0.002142,0.002142,0.002142},
{0.037886,0.037886,0.037886},
{-0.017059,-0.017059,-0.017059},
{-0.044731,-0.044731,-0.044731},
{0.101158,0.101158,0.101158},
{-0.012235,-0.012235,-0.012235},
{-0.052666,-0.052666,-0.052666},
{-0.027993,-0.027993,-0.027993},
{-0.024160,-0.024160,-0.024160},
{-0.015873,-0.015873,-0.015873},
{0.012757,0.012757,0.012757},
{0.029880,0.029880,0.029880},
{-0.013656,-0.013656,-0.013656},
{-0.010048,-0.010048,-0.010048},
{-0.039125,-0.039125,-0.039125},
{-0.013999,-0.013999,-0.013999},
{-0.109919,-0.109919,-0.109919},
{-0.006724,-0.006724,-0.006724},
{-0.068796,-0.068796,-0.068796},
{-0.022187,-0.022187,-0.022187},
{-0.018486,-0.018486,-0.018486},
{0.005656,0.005656,0.005656},
{-0.022055,-0.022055,-0.022055},
{-0.029053,-0.029053,-0.029053},
{0.014499,0.014499,0.014499},
{-0.042381,-0.042381,-0.042381},
{-0.013118,-0.013118,-0.013118},
{0.042768,0.042768,0.042768},
{-0.034508,-0.034508,-0.034508},
{-0.015273,-0.015273,-0.015273},
{-0.038053,-0.038053,-0.038053},
{-0.012403,-0.012403,-0.012403},
{-0.015272,-0.015272,-0.015272},
{0.033640,0.033640,0.033640},
{0.013189,0.013189,0.013189},
{0.026717,0.026717,0.026717},
{0.008947,0.008947,0.008947},
{-0.042107,-0.042107,-0.042107},
{-0.041177,-0.041177,-0.041177},
{0.065884,0.065884,0.065884},
{-0.101086,-0.101086,-0.101086},
{-0.141139,-0.141139,-0.141139},
{-0.023846,-0.023846,-0.023846},
{-0.014242,-0.014242,-0.014242},
{-0.001134,-0.001134,-0.001134},
{0.004698,0.004698,0.004698},
{0.008026,0.008026,0.008026},
{0.049178,0.049178,0.049178},
{0.010707,0.010707,0.010707},
{0.004359,0.004359,0.004359},
{0.005357,0.005357,0.005357},
{-0.002105,-0.002105,-0.002105},
{0.009289,0.009289,0.009289},
{0.054523,0.054523,0.054523},
{-0.094722,-0.094722,-0.094722},
{-0.088176,-0.088176,-0.088176},
{-0.038105,-0.038105,-0.038105},
{-0.000810,-0.000810,-0.000810},
{0.045248,0.045248,0.045248},
{-0.008698,-0.008698,-0.008698},
{-0.025604,-0.025604,-0.025604},
{0.007408,0.007408,0.007408},
{-0.024361,-0.024361,-0.024361},
{0.034126,0.034126,0.034126},
{0.025732,0.025732,0.025732},
{-0.046383,-0.046383,-0.046383},
{0.031413,0.031413,0.031413},
{0.060734,0.060734,0.060734},
{0.007551,0.007551,0.007551},
{0.032129,0.032129,0.032129},
{0.059413,0.059413,0.059413},
{0.060953,0.060953,0.060953},
{-0.003607,-0.003607,-0.003607},
{-0.025100,-0.025100,-0.025100},
{-0.041566,-0.041566,-0.041566},
{-0.005151,-0.005151,-0.005151},
{0.070238,0.070238,0.070238},
{-0.041557,-0.041557,-0.041557},
{0.008905,0.008905,0.008905},
{0.018312,0.018312,0.018312},
{-0.072909,-0.072909,-0.072909},
{0.033166,0.033166,0.033166},
{-0.026935,-0.026935,-0.026935},
{0.097080,0.097080,0.097080},
{-0.116646,-0.116646,-0.116646},
{-0.014023,-0.014023,-0.014023},
{0.002634,0.002634,0.002634},
{0.044008,0.044008,0.044008},
{0.054902,0.054902,0.054902},
{-0.046572,-0.046572,-0.046572},
{0.049230,0.049230,0.049230},
{-0.042520,-0.042520,-0.042520},
{0.040688,0.040688,0.040688},
{0.031717,0.031717,0.031717},
{-0.000709,-0.000709,-0.000709},
{-0.006992,-0.006992,-0.006992},
{0.004747,0.004747,0.004747},
{-0.018326,-0.018326,-0.018326},
{-0.007192,-0.007192,-0.007192},
{-0.015638,-0.015638,-0.015638},
{-0.093678,-0.093678,-0.093678},
{0.026502,0.026502,0.026502},
{0.032338,0.032338,0.032338},
{-0.055793,-0.055793,-0.055793},
{-0.041286,-0.041286,-0.041286},
{-0.010248,-0.010248,-0.010248},
{0.050514,0.050514,0.050514},
{-0.013074,-0.013074,-0.013074},
{-0.015437,-0.015437,-0.015437},
{0.033937,0.033937,0.033937},
{-0.007870,-0.007870,-0.007870},
{-0.033551,-0.033551,-0.033551},
{0.004001,0.004001,0.004001},
{0.034591,0.034591,0.034591},
{-0.042006,-0.042006,-0.042006},
{0.044240,0.044240,0.044240},
{-0.024770,-0.024770,-0.024770},
{0.034815,0.034815,0.034815},
{0.103504,0.103504,0.103504},
{-0.032700,-0.032700,-0.032700},
{0.003289,0.003289,0.003289},
{0.003047,0.003047,0.003047},
{-0.001462,-0.001462,-0.001462},
{-0.010267,-0.010267,-0.010267},
{-0.003683,-0.003683,-0.003683},
{-0.090374,-0.090374,-0.090374},
{-0.084392,-0.084392,-0.084392},
{-0.010740,-0.010740,-0.010740},
{0.010217,0.010217,0.010217},
{-0.005398,-0.005398,-0.005398},
{-0.040399,-0.040399,-0.040399},
{-0.039024,-0.039024,-0.039024},
{0.054913,0.054913,0.054913},
{-0.002881,-0.002881,-0.002881},
{-0.024299,-0.024299,-0.024299},
{-0.016533,-0.016533,-0.016533},
{-0.034896,-0.034896,-0.034896},
{-0.000558,-0.000558,-0.000558},
{0.032521,0.032521,0.032521},
{0.044496,0.044496,0.044496},
{0.044826,0.044826,0.044826},
{-0.001232,-0.001232,-0.001232},
{0.060349,0.060349,0.060349},
{-0.021200,-0.021200,-0.021200},
{-0.070519,-0.070519,-0.070519},
{0.084648,0.084648,0.084648},
{0.058599,0.058599,0.058599},
{0.103763,0.103763,0.103763},
{0.033423,0.033423,0.033423},
{-0.059372,-0.059372,-0.059372},
{0.031975,0.031975,0.031975},
{-0.008091,-0.008091,-0.008091},
{0.078718,0.078718,0.078718},
{0.001475,0.001475,0.001475},
{0.020031,0.020031,0.020031},
{-0.008259,-0.008259,-0.008259},
{-0.035081,-0.035081,-0.035081},
{0.013033,0.013033,0.013033},
{-0.031843,-0.031843,-0.031843},
{-0.050090,-0.050090,-0.050090},
{0.009408,0.009408,0.009408},
{0.037019,0.037019,0.037019},
{0.040976,0.040976,0.040976},
{-0.019985,-0.019985,-0.019985},
{-0.091077,-0.091077,-0.091077},
{0.017277,0.017277,0.017277},
{-0.034047,-0.034047,-0.034047},
{0.026061,0.026061,0.026061},
{0.005589,0.005589,0.005589},
{0.023017,0.023017,0.023017},
{-0.013663,-0.013663,-0.013663},
{-0.011083,-0.011083,-0.011083},
{0.019220,0.019220,0.019220},
{0.008554,0.008554,0.008554},
{0.020747,0.020747,0.020747},
{0.085844,0.085844,0.085844},
{0.042732,0.042732,0.042732},
{-0.100766,-0.100766,-0.100766},
{-0.001091,-0.001091,-0.001091},
{0.069813,0.069813,0.069813},
{-0.010919,-0.010919,-0.010919},
{-0.030217,-0.030217,-0.030217},
{0.040432,0.040432,0.040432},
{0.084016,0.084016,0.084016},
{0.032726,0.032726,0.032726},
{-0.002965,-0.002965,-0.002965},
{-0.027941,-0.027941,-0.027941},
{0.029707,0.029707,0.029707},
{0.025855,0.025855,0.025855},
{-0.005822,-0.005822,-0.005822},
{0.002095,0.002095,0.002095},
{-0.059752,-0.059752,-0.059752},
{0.044114,0.044114,0.044114},
{0.023884,0.023884,0.023884},
{-0.025485,-0.025485,-0.025485},
{0.003484,0.003484,0.003484},
{0.001643,0.001643,0.001643},
{-0.034935,-0.034935,-0.034935},
{0.010423,0.010423,0.010423},
{0.068976,0.068976,0.068976},
{-0.008143,-0.008143,-0.008143},
{-0.008139,-0.008139,-0.008139},
{-0.008611,-0.008611,-0.008611},
{0.012515,0.012515,0.012515},
{0.007191,0.007191,0.007191},
{0.003759,0.003759,0.003759},
{-0.033807,-0.033807,-0.033807},
{-0.003897,-0.003897,-0.003897},
{0.036077,0.036077,0.036077},
{0.006299,0.006299,0.006299},
{0.001342,0.001342,0.001342},
{0.011600,0.011600,0.011600},
{-0.001050,-0.001050,-0.001050},
{0.005584,0.005584,0.005584},
{-0.006266,-0.006266,-0.006266},
{0.015744,0.015744,0.015744},
{-0.007834,-0.007834,-0.007834},
{-0.005103,-0.005103,-0.005103},
{0.003276,0.003276,0.003276},
{0.016907,0.016907,0.016907},
{-0.017841,-0.017841,-0.017841},
{0.009456,0.009456,0.009456},
{-0.023795,-0.023795,-0.023795},
{-0.007455,-0.007455,-0.007455},
{-0.002904,-0.002904,-0.002904},
{-0.004048,-0.004048,-0.004048},
{-0.028314,-0.028314,-0.028314},
{0.000534,0.000534,0.000534},
{-0.004089,-0.004089,-0.004089},
{0.023236,0.023236,0.023236},
{0.019529,0.019529,0.019529},
{0.017197,0.017197,0.017197},
{-0.003703,-0.003703,-0.003703},
{-0.044677,-0.044677,-0.044677},
{-0.028351,-0.028351,-0.028351},
{0.005199,0.005199,0.005199},
{0.011529,0.011529,0.011529},
{-0.036502,-0.036502,-0.036502},
{-0.013029,-0.013029,-0.013029},
{-0.005094,-0.005094,-0.005094},
{0.014158,0.014158,0.014158},
{-0.003560,-0.003560,-0.003560},
{-0.019528,-0.019528,-0.019528},
{0.011685,0.011685,0.011685},
{-0.040745,-0.040745,-0.040745},
{0.012248,0.012248,0.012248},
{-0.016616,-0.016616,-0.016616},
{-0.000441,-0.000441,-0.000441},
{-0.029088,-0.029088,-0.029088},
{-0.028766,-0.028766,-0.028766},
{0.047854,0.047854,0.047854},
{-0.054030,-0.054030,-0.054030},
{-0.015807,-0.015807,-0.015807},
{0.009711,0.009711,0.009711},
{0.011633,0.011633,0.011633},
{0.027866,0.027866,0.027866},
{-0.007692,-0.007692,-0.007692},
{0.028310,0.028310,0.028310},
{-0.000331,-0.000331,-0.000331},
{0.002546,0.002546,0.002546},
{-0.024454,-0.024454,-0.024454},
{0.017955,0.017955,0.017955},
{0.001680,0.001680,0.001680},
{-0.015665,-0.015665,-0.015665},
{-0.038386,-0.038386,-0.038386},
{0.014317,0.014317,0.014317},
{-0.008678,-0.008678,-0.008678},
{0.013859,0.013859,0.013859},
{0.005175,0.005175,0.005175},
{-0.033546,-0.033546,-0.033546},
{-0.006740,-0.006740,-0.006740},
{-0.027693,-0.027693,-0.027693},
{0.003282,0.003282,0.003282},
{0.008163,0.008163,0.008163},
{0.009421,0.009421,0.009421},
{-0.029137,-0.029137,-0.029137},
{0.014314,0.014314,0.014314},
{-0.001110,-0.001110,-0.001110},
{-0.001694,-0.001694,-0.001694},
{-0.002861,-0.002861,-0.002861},
{0.019222,0.019222,0.019222},
{0.013067,0.013067,0.013067},
{-0.000420,-0.000420,-0.000420},
{-0.031037,-0.031037,-0.031037},
{0.000398,0.000398,0.000398},
{0.029569,0.029569,0.029569},
{0.016058,0.016058,0.016058},
{0.078638,0.078638,0.078638},
{0.001272,0.001272,0.001272},
{-0.011077,-0.011077,-0.011077},
{0.002167,0.002167,0.002167},
{0.002333,0.002333,0.002333},
{-0.005108,-0.005108,-0.005108},
{0.009009,0.009009,0.009009},
{0.017970,0.017970,0.017970},
{0.030697,0.030697,0.030697},
{-0.011790,-0.011790,-0.011790},
{-0.012804,-0.012804,-0.012804},
{-0.009208,-0.009208,-0.009208},
{-0.004545,-0.004545,-0.004545},
{0.002078,0.002078,0.002078},
{0.004653,0.004653,0.004653},
{0.017805,0.017805,0.017805},
{-0.050850,-0.050850,-0.050850},
{0.038890,0.038890,0.038890},
{0.011723,0.011723,0.011723},
{0.002805,0.002805,0.002805},
{0.014392,0.014392,0.014392},
{-0.000187,-0.000187,-0.000187},
{-0.018095,-0.018095,-0.018095},
{0.017389,0.017389,0.017389},
{-0.001451,-0.001451,-0.001451},
{0.012283,0.012283,0.012283},
{-0.031253,-0.031253,-0.031253},
{-0.014029,-0.014029,-0.014029},
{-0.014687,-0.014687,-0.014687},
{-0.015642,-0.015642,-0.015642},
{0.016631,0.016631,0.016631},
{-0.003028,-0.003028,-0.003028},
{0.011671,0.011671,0.011671},
{0.018395,0.018395,0.018395},
{0.021240,0.021240,0.021240},
{0.013894,0.013894,0.013894},
{0.010756,0.010756,0.010756},
{0.023720,0.023720,0.023720},
{-0.016360,-0.016360,-0.016360},
{0.007390,0.007390,0.007390},
{-0.013930,-0.013930,-0.013930},
{-0.014989,-0.014989,-0.014989},
{-0.020789,-0.020789,-0.020789},
{0.021630,0.021630,0.021630},
{-0.007497,-0.007497,-0.007497},
{-0.002187,-0.002187,-0.002187},
{-0.019441,-0.019441,-0.019441},
{-0.042926,-0.042926,-0.042926},
{-0.014577,-0.014577,-0.014577},
{-0.005205,-0.005205,-0.005205},
{0.000552,0.000552,0.000552},
{0.034272,0.034272,0.034272},
{-0.005016,-0.005016,-0.005016},
{0.023027,0.023027,0.023027},
{0.035196,0.035196,0.035196},
{0.031375,0.031375,0.031375},
{0.022335,0.022335,0.022335},
{0.019608,0.019608,0.019608},
{-0.015997,-0.015997,-0.015997},
{-0.010661,-0.010661,-0.010661},
{-0.033274,-0.033274,-0.033274},
{0.002163,0.002163,0.002163},
{-0.007240,-0.007240,-0.007240},
{-0.046463,-0.046463,-0.046463},
{-0.000651,-0.000651,-0.000651},
{-0.020066,-0.020066,-0.020066},
{-0.026307,-0.026307,-0.026307},
{0.035169,0.035169,0.035169},
{0.005777,0.005777,0.005777},
{-0.015858,-0.015858,-0.015858},
{-0.003860,-0.003860,-0.003860},
{-0.017381,-0.017381,-0.017381},
{0.010364,0.010364,0.010364},
{0.046092,0.046092,0.046092},
{-0.008850,-0.008850,-0.008850},
{-0.003593,-0.003593,-0.003593},
{0.009946,0.009946,0.009946},
{-0.007642,-0.007642,-0.007642},
{0.006801,0.006801,0.006801},
{0.037704,0.037704,0.037704},
{-0.017716,-0.017716,-0.017716},
{0.019331,0.019331,0.019331},
{0.014781,0.014781,0.014781},
{-0.009192,-0.009192,-0.009192},
{-0.039987,-0.039987,-0.039987},
{-0.021120,-0.021120,-0.021120},
{-0.017993,-0.017993,-0.017993},
{0.000870,0.000870,0.000870},
{-0.025789,-0.025789,-0.025789},
{-0.024926,-0.024926,-0.024926},
{0.002286,0.002286,0.002286},
{0.005748,0.005748,0.005748},
{-0.001387,-0.001387,-0.001387},
{0.002942,0.002942,0.002942},
{-0.010636,-0.010636,-0.010636},
{0.009771,0.009771,0.009771},
{-0.006385,-0.006385,-0.006385},
{0.023758,0.023758,0.023758},
{-0.018328,-0.018328,-0.018328},
{-0.020269,-0.020269,-0.020269},
{0.018538,0.018538,0.018538},
{-0.006540,-0.006540,-0.006540},
{-0.002802,-0.002802,-0.002802},
{-0.015695,-0.015695,-0.015695},
{-0.014108,-0.014108,-0.014108},
{-0.040462,-0.040462,-0.040462},
{-0.028746,-0.028746,-0.028746},
{-0.006643,-0.006643,-0.006643},
{0.004783,0.004783,0.004783},
{0.028597,0.028597,0.028597},
{0.015956,0.015956,0.015956},
{0.019544,0.019544,0.019544},
{0.015072,0.015072,0.015072},
{-0.003208,-0.003208,-0.003208},
{-0.008619,-0.008619,-0.008619},
{-0.020028,-0.020028,-0.020028},
{0.040141,0.040141,0.040141},
{0.002846,0.002846,0.002846},
{0.052327,0.052327,0.052327},
{-0.005460,-0.005460,-0.005460},
{0.004211,0.004211,0.004211},
{0.014918,0.014918,0.014918},
{-0.011797,-0.011797,-0.011797},
{0.028674,0.028674,0.028674},
{0.000936,0.000936,0.000936},
{0.012640,0.012640,0.012640},
{0.004449,0.004449,0.004449},
{0.006570,0.006570,0.006570},
{0.011112,0.011112,0.011112},
{0.009041,0.009041,0.009041},
{-0.013338,-0.013338,-0.013338},
{-0.007017,-0.007017,-0.007017},
{-0.034085,-0.034085,-0.034085},
{0.010289,0.010289,0.010289},
{0.004465,0.004465,0.004465},
{0.000772,0.000772,0.000772},
{-0.001434,-0.001434,-0.001434},
{0.021897,0.021897,0.021897},
{0.017845,0.017845,0.017845},
{-0.006669,-0.006669,-0.006669},
{-0.027316,-0.027316,-0.027316},
{0.038035,0.038035,0.038035},
{-0.030017,-0.030017,-0.030017},
{0.002364,0.002364,0.002364},
{-0.003006,-0.003006,-0.003006},
{-0.002217,-0.002217,-0.002217},
{-0.001665,-0.001665,-0.001665},
{0.036430,0.036430,0.036430},
{-0.009477,-0.009477,-0.009477},
{0.000661,0.000661,0.000661},
{-0.000250,-0.000250,-0.000250},
{-0.044220,-0.044220,-0.044220},
{-0.058126,-0.058126,-0.058126},
{-0.026839,-0.026839,-0.026839},
{0.001307,0.001307,0.001307},
{-0.004937,-0.004937,-0.004937},
{-0.001839,-0.001839,-0.001839},
{0.004783,0.004783,0.004783},
{-0.033514,-0.033514,-0.033514},
{-0.016949,-0.016949,-0.016949},
{0.008960,0.008960,0.008960},
{0.023350,0.023350,0.023350},
{-0.022428,-0.022428,-0.022428},
{0.024790,0.024790,0.024790},
{-0.013164,-0.013164,-0.013164},
{0.014478,0.014478,0.014478},
{-0.025953,-0.025953,-0.025953},
{0.016892,0.016892,0.016892},
{0.012260,0.012260,0.012260},
{0.008681,0.008681,0.008681},
{-0.017080,-0.017080,-0.017080},
{-0.004542,-0.004542,-0.004542},
{-0.069789,-0.069789,-0.069789},
{-0.034240,-0.034240,-0.034240},
{0.010091,0.010091,0.010091},
{-0.008198,-0.008198,-0.008198},
{-0.020354,-0.020354,-0.020354},
{0.009334,0.009334,0.009334},
{0.016957,0.016957,0.016957},
{-0.001194,-0.001194,-0.001194},
{-0.014918,-0.014918,-0.014918},
{0.002088,0.002088,0.002088},
{-0.021129,-0.021129,-0.021129},
{-0.026052,-0.026052,-0.026052},
{0.000848,0.000848,0.000848},
{-0.012700,-0.012700,-0.012700},
{-0.021404,-0.021404,-0.021404},
{0.003572,0.003572,0.003572},
{-0.036370,-0.036370,-0.036370},
{0.006768,0.006768,0.006768},
{0.017969,0.017969,0.017969},
{0.010753,0.010753,0.010753},
{-0.009874,-0.009874,-0.009874},
{-0.016892,-0.016892,-0.016892},
{0.038140,0.038140,0.038140},
{0.025163,0.025163,0.025163},
{0.082325,0.082325,0.082325},
{0.001764,0.001764,0.001764},
{0.012591,0.012591,0.012591},
{0.007198,0.007198,0.007198},
{-0.065407,-0.065407,-0.065407},
{0.004278,0.004278,0.004278},
{0.001755,0.001755,0.001755},
{0.006893,0.006893,0.006893},
{0.008151,0.008151,0.008151},
{0.003840,0.003840,0.003840},
{-0.016218,-0.016218,-0.016218},
{0.023463,0.023463,0.023463},
{0.059301,0.059301,0.059301},
{0.007031,0.007031,0.007031},
{0.026414,0.026414,0.026414},
{-0.003368,-0.003368,-0.003368},
{0.009979,0.009979,0.009979},
{0.038374,0.038374,0.038374},
{0.003109,0.003109,0.003109},
{0.002730,0.002730,0.002730},
{0.008730,0.008730,0.008730},
{0.013663,0.013663,0.013663},
{-0.002768,-0.002768,-0.002768},
{-0.031928,-0.031928,-0.031928},
{0.005540,0.005540,0.005540},
{-0.012803,-0.012803,-0.012803},
{0.002055,0.002055,0.002055},
{-0.000609,-0.000609,-0.000609},
{0.043105,0.043105,0.043105},
{0.026831,0.026831,0.026831},
{-0.009623,-0.009623,-0.009623},
{0.010372,0.010372,0.010372},
{0.019381,0.019381,0.019381},
{0.001178,0.001178,0.001178},
{0.005734,0.005734,0.005734},
{-0.004725,-0.004725,-0.004725},
{0.012509,0.012509,0.012509},
{0.003731,0.003731,0.003731},
{-0.087178,-0.087178,-0.087178},
{-0.001199,-0.001199,-0.001199},
{-0.008567,-0.008567,-0.008567},
{-0.021933,-0.021933,-0.021933},
{-0.017234,-0.017234,-0.017234},
{-0.009308,-0.009308,-0.009308},
{0.011581,0.011581,0.011581},
{-0.041811,-0.041811,-0.041811},
{-0.012074,-0.012074,-0.012074},
{0.027996,0.027996,0.027996},
{-0.044243,-0.044243,-0.044243},
{-0.153482,-0.153482,-0.153482},
{0.030288,0.030288,0.030288},
{-0.035719,-0.035719,-0.035719},
{-0.024858,-0.024858,-0.024858},
{-0.025978,-0.025978,-0.025978},
{-0.061497,-0.061497,-0.061497},
{-0.059451,-0.059451,-0.059451},
{0.019493,0.019493,0.019493},
{-0.008024,-0.008024,-0.008024},
{0.043781,0.043781,0.043781},
{-0.003131,-0.003131,-0.003131},
{-0.021825,-0.021825,-0.021825},
{-0.038003,-0.038003,-0.038003},
{0.037776,0.037776,0.037776},
{-0.045980,-0.045980,-0.045980},
{-0.031734,-0.031734,-0.031734},
{-0.011574,-0.011574,-0.011574},
{-0.000962,-0.000962,-0.000962},
{-0.075326,-0.075326,-0.075326},
{0.015062,0.015062,0.015062},
{-0.070155,-0.070155,-0.070155},
{-0.009669,-0.009669,-0.009669},
{0.002674,0.002674,0.002674},
{0.033257,0.033257,0.033257},
{-0.024121,-0.024121,-0.024121},
{-0.028111,-0.028111,-0.028111},
{-0.026190,-0.026190,-0.026190},
{0.015626,0.015626,0.015626},
{-0.204584,-0.204584,-0.204584},
{-0.011481,-0.011481,-0.011481},
{0.036345,0.036345,0.036345},
{-0.063906,-0.063906,-0.063906},
{0.017311,0.017311,0.017311},
{-0.147801,-0.147801,-0.147801},
{0.035223,0.035223,0.035223},
{0.003113,0.003113,0.003113},
{-0.020328,-0.020328,-0.020328},
{-0.022408,-0.022408,-0.022408},
{0.012584,0.012584,0.012584},
{-0.040725,-0.040725,-0.040725},
{-0.033918,-0.033918,-0.033918},
{-0.031075,-0.031075,-0.031075},
{-0.057295,-0.057295,-0.057295},
{-0.053936,-0.053936,-0.053936},
{-0.036228,-0.036228,-0.036228},
{-0.001284,-0.001284,-0.001284},
{-0.017636,-0.017636,-0.017636},
{0.054963,0.054963,0.054963},
{0.005697,0.005697,0.005697},
{-0.038164,-0.038164,-0.038164},
{-0.051034,-0.051034,-0.051034},
{-0.044820,-0.044820,-0.044820},
{-0.021411,-0.021411,-0.021411},
{-0.040088,-0.040088,-0.040088},
{0.006084,0.006084,0.006084},
{0.020341,0.020341,0.020341},
{-0.046128,-0.046128,-0.046128},
{-0.018560,-0.018560,-0.018560},
{-0.009603,-0.009603,-0.009603},
{-0.024852,-0.024852,-0.024852},
{-0.035655,-0.035655,-0.035655},
{0.021457,0.021457,0.021457},
{-0.059908,-0.059908,-0.059908},
{0.103184,0.103184,0.103184},
{-0.053825,-0.053825,-0.053825},
{-0.015366,-0.015366,-0.015366},
{-0.142564,-0.142564,-0.142564},
{0.001578,0.001578,0.001578},
{-0.021999,-0.021999,-0.021999},
{-0.033180,-0.033180,-0.033180},
{-0.050893,-0.050893,-0.050893},
{-0.051855,-0.051855,-0.051855},
{0.128870,0.128870,0.128870},
{0.023050,0.023050,0.023050},
{-0.015794,-0.015794,-0.015794},
{-0.065991,-0.065991,-0.065991},
{-0.043766,-0.043766,-0.043766},
{-0.114744,-0.114744,-0.114744},
{-0.029555,-0.029555,-0.029555},
{-0.106373,-0.106373,-0.106373},
{-0.067793,-0.067793,-0.067793},
{-0.080654,-0.080654,-0.080654},
{-0.069254,-0.069254,-0.069254},
{-0.059798,-0.059798,-0.059798},
{-0.016538,-0.016538,-0.016538},
{0.005018,0.005018,0.005018},
{0.042045,0.042045,0.042045},
{0.016931,0.016931,0.016931},
{-0.064365,-0.064365,-0.064365},
{-0.047762,-0.047762,-0.047762},
{-0.017261,-0.017261,-0.017261},
{-0.041291,-0.041291,-0.041291},
{-0.130883,-0.130883,-0.130883},
{0.018131,0.018131,0.018131},
{-0.018178,-0.018178,-0.018178},
{0.042574,0.042574,0.042574},
{0.003311,0.003311,0.003311},
{-0.007862,-0.007862,-0.007862},
{-0.010179,-0.010179,-0.010179},
{0.063164,0.063164,0.063164},
{-0.011057,-0.011057,-0.011057},
{0.052033,0.052033,0.052033},
{-0.038076,-0.038076,-0.038076},
{-0.069207,-0.069207,-0.069207},
{-0.015040,-0.015040,-0.015040},
{-0.089277,-0.089277,-0.089277},
{-0.045633,-0.045633,-0.045633},
{-0.011764,-0.011764,-0.011764},
{-0.061792,-0.061792,-0.061792},
{-0.002840,-0.002840,-0.002840},
{0.027571,0.027571,0.027571},
{0.032417,0.032417,0.032417},
{-0.021512,-0.021512,-0.021512},
{-0.029349,-0.029349,-0.029349},
{-0.045365,-0.045365,-0.045365},
{-0.070293,-0.070293,-0.070293},
{-0.056369,-0.056369,-0.056369},
{-0.087665,-0.087665,-0.087665},
{-0.032225,-0.032225,-0.032225},
{-0.071852,-0.071852,-0.071852},
{-0.041394,-0.041394,-0.041394},
{-0.077752,-0.077752,-0.077752},
{0.044719,0.044719,0.044719},
{-0.009803,-0.009803,-0.009803},
{0.019294,0.019294,0.019294},
{0.003639,0.003639,0.003639},
{-0.008056,-0.008056,-0.008056},
{0.037243,0.037243,0.037243},
{-0.138098,-0.138098,-0.138098},
{-0.018179,-0.018179,-0.018179},
{0.004891,0.004891,0.004891},
{0.008270,0.008270,0.008270},
{-0.001030,-0.001030,-0.001030},
{-0.042663,-0.042663,-0.042663},
{-0.033244,-0.033244,-0.033244},
{0.013795,0.013795,0.013795},
{-0.042940,-0.042940,-0.042940},
{-0.063111,-0.063111,-0.063111},
{0.029481,0.029481,0.029481},
{-0.062088,-0.062088,-0.062088},
{0.012166,0.012166,0.012166},
{0.035564,0.035564,0.035564},
{0.049382,0.049382,0.049382},
{-0.016270,-0.016270,-0.016270},
{-0.051757,-0.051757,-0.051757},
{0.094280,0.094280,0.094280},
{-0.075757,-0.075757,-0.075757},
{0.028977,0.028977,0.028977},
{-0.001409,-0.001409,-0.001409},
{-0.003497,-0.003497,-0.003497},
{0.035995,0.035995,0.035995},
{-0.021217,-0.021217,-0.021217},
{-0.123352,-0.123352,-0.123352},
{-0.109231,-0.109231,-0.109231},
{-0.077643,-0.077643,-0.077643},
{0.040265,0.040265,0.040265},
{0.020866,0.020866,0.020866},
{-0.049491,-0.049491,-0.049491},
{0.038120,0.038120,0.038120},
{0.030094,0.030094,0.030094},
{-0.010333,-0.010333,-0.010333},
{0.007263,0.007263,0.007263},
{-0.038191,-0.038191,-0.038191},
{-0.032295,-0.032295,-0.032295},
{0.024481,0.024481,0.024481},
{0.058881,0.058881,0.058881},
{0.088276,0.088276,0.088276},
{0.016310,0.016310,0.016310},
{0.045993,0.045993,0.045993},
{0.000931,0.000931,0.000931},
{0.030366,0.030366,0.030366},
{0.089154,0.089154,0.089154},
{0.062897,0.062897,0.062897},
{0.072973,0.072973,0.072973},
{-0.098242,-0.098242,-0.098242},
{0.008892,0.008892,0.008892},
{-0.040140,-0.040140,-0.040140},
{-0.044834,-0.044834,-0.044834},
{-0.123445,-0.123445,-0.123445},
{-0.019949,-0.019949,-0.019949},
{0.007578,0.007578,0.007578},
{0.048131,0.048131,0.048131},
{-0.111292,-0.111292,-0.111292},
{-0.109025,-0.109025,-0.109025},
{-0.018651,-0.018651,-0.018651},
{0.009563,0.009563,0.009563},
{-0.020983,-0.020983,-0.020983},
{0.087540,0.087540,0.087540},
{-0.028454,-0.028454,-0.028454},
{0.083205,0.083205,0.083205},
{0.183420,0.183420,0.183420},
{-0.082550,-0.082550,-0.082550},
{0.013592,0.013592,0.013592},
{-0.038311,-0.038311,-0.038311},
{0.068142,0.068142,0.068142},
{-0.028985,-0.028985,-0.028985},
{-0.003013,-0.003013,-0.003013},
{-0.019009,-0.019009,-0.019009},
{-0.058351,-0.058351,-0.058351},
{-0.006013,-0.006013,-0.006013},
{0.079281,0.079281,0.079281},
{0.031936,0.031936,0.031936},
{-0.126489,-0.126489,-0.126489},
{0.085251,0.085251,0.085251},
{0.161300,0.161300,0.161300},
{0.119269,0.119269,0.119269},
{0.097382,0.097382,0.097382},
{-0.034871,-0.034871,-0.034871},
{-0.017325,-0.017325,-0.017325},
{-0.033451,-0.033451,-0.033451},
{0.077371,0.077371,0.077371},
{-0.007501,-0.007501,-0.007501},
{-0.079095,-0.079095,-0.079095},
{-0.034662,-0.034662,-0.034662},
{-0.047614,-0.047614,-0.047614},
{0.066266,0.066266,0.066266},
{0.025643,0.025643,0.025643},
{-0.000027,-0.000027,-0.000027},
{-0.117707,-0.117707,-0.117707},
{-0.018936,-0.018936,-0.018936},
{-0.062614,-0.062614,-0.062614},
{0.085343,0.085343,0.085343},
{-0.089410,-0.089410,-0.089410},
{0.078502,0.078502,0.078502},
{-0.088343,-0.088343,-0.088343},
{-0.044049,-0.044049,-0.044049},
{0.010280,0.010280,0.010280},
{-0.001778,-0.001778,-0.001778},
{-0.036628,-0.036628,-0.036628},
{0.018161,0.018161,0.018161},
{-0.005582,-0.005582,-0.005582},
{-0.060156,-0.060156,-0.060156},
{0.045004,0.045004,0.045004},
{-0.072827,-0.072827,-0.072827},
{0.003887,0.003887,0.003887},
{-0.029387,-0.029387,-0.029387},
{-0.035034,-0.035034,-0.035034},
{-0.037164,-0.037164,-0.037164},
{-0.081239,-0.081239,-0.081239},
{-0.050035,-0.050035,-0.050035},
{-0.010925,-0.010925,-0.010925},
{-0.141291,-0.141291,-0.141291},
{-0.146548,-0.146548,-0.146548},
{0.039360,0.039360,0.039360},
{-0.020351,-0.020351,-0.020351},
{-0.012605,-0.012605,-0.012605},
{0.137785,0.137785,0.137785},
{-0.008732,-0.008732,-0.008732},
{-0.162526,-0.162526,-0.162526},
{-0.108685,-0.108685,-0.108685},
{-0.070373,-0.070373,-0.070373},
{0.002390,0.002390,0.002390},
{-0.046166,-0.046166,-0.046166},
{-0.128904,-0.128904,-0.128904},
{0.045304,0.045304,0.045304},
{-0.043185,-0.043185,-0.043185},
{-0.055655,-0.055655,-0.055655},
{0.050501,0.050501,0.050501},
{0.071305,0.071305,0.071305},
{-0.021450,-0.021450,-0.021450},
{-0.112718,-0.112718,-0.112718},
{0.028268,0.028268,0.028268},
{0.047066,0.047066,0.047066},
{-0.072503,-0.072503,-0.072503},
{-0.092204,-0.092204,-0.092204},
{0.054047,0.054047,0.054047},
{0.031349,0.031349,0.031349},
{0.038382,0.038382,0.038382},
{-0.023295,-0.023295,-0.023295},
{-0.062892,-0.062892,-0.062892},
{-0.045719,-0.045719,-0.045719},
{-0.001731,-0.001731,-0.001731},
{0.052980,0.052980,0.052980},
{0.050733,0.050733,0.050733},
{-0.080478,-0.080478,-0.080478},
{0.147402,0.147402,0.147402},
{-0.068769,-0.068769,-0.068769},
{-0.048161,-0.048161,-0.048161},
{0.149576,0.149576,0.149576},
{-0.055680,-0.055680,-0.055680},
{-0.090555,-0.090555,-0.090555},
{0.011745,0.011745,0.011745},
{-0.010644,-0.010644,-0.010644},
{-0.059811,-0.059811,-0.059811},
{0.012478,0.012478,0.012478},
{-0.091672,-0.091672,-0.091672},
{0.013641,0.013641,0.013641},
{0.037819,0.037819,0.037819},
{-0.160791,-0.160791,-0.160791},
{0.022125,0.022125,0.022125},
{-0.030430,-0.030430,-0.030430},
{0.062474,0.062474,0.062474},
{-0.032695,-0.032695,-0.032695},
{0.010169,0.010169,0.010169},
{-0.044723,-0.044723,-0.044723},
{0.087264,0.087264,0.087264},
{0.152824,0.152824,0.152824},
{-0.093716,-0.093716,-0.093716},
{-0.074312,-0.074312,-0.074312},
{0.113856,0.113856,0.113856},
{0.085958,0.085958,0.085958},
{-0.003851,-0.003851,-0.003851},
{0.119990,0.119990,0.119990},
{0.036588,0.036588,0.036588},
{0.010407,0.010407,0.010407},
{-0.054081,-0.054081,-0.054081},
{-0.181295,-0.181295,-0.181295},
{-0.001566,-0.001566,-0.001566},
{0.087787,0.087787,0.087787},
{0.081720,0.081720,0.081720},
{-0.086860,-0.086860,-0.086860},
{0.028869,0.028869,0.028869},
{0.010169,0.010169,0.010169},
{-0.052153,-0.052153,-0.052153},
{0.036743,0.036743,0.036743},
{0.037921,0.037921,0.037921},
{-0.060304,-0.060304,-0.060304},
{0.021875,0.021875,0.021875},
{-0.056645,-0.056645,-0.056645},
{-0.075390,-0.075390,-0.075390},
{0.097835,0.097835,0.097835},
{-0.019185,-0.019185,-0.019185},
{-0.124483,-0.124483,-0.124483},
{-0.092816,-0.092816,-0.092816},
{0.106462,0.106462,0.106462},
{0.118148,0.118148,0.118148},
{0.027005,0.027005,0.027005},
{-0.023407,-0.023407,-0.023407},
{0.069002,0.069002,0.069002},
{0.012139,0.012139,0.012139},
{0.065409,0.065409,0.065409},
{0.063979,0.063979,0.063979},
{0.076521,0.076521,0.076521},
{-0.032132,-0.032132,-0.032132},
{0.122835,0.122835,0.122835},
{0.020110,0.020110,0.020110},
{0.044496,0.044496,0.044496},
{-0.038466,-0.038466,-0.038466},
{-0.062105,-0.062105,-0.062105},
{-0.010965,-0.010965,-0.010965},
{0.001669,0.001669,0.001669},
{-0.055029,-0.055029,-0.055029},
{0.021898,0.021898,0.021898},
{0.127542,0.127542,0.127542},
{0.046911,0.046911,0.046911},
{-0.038723,-0.038723,-0.038723},
{-0.090876,-0.090876,-0.090876},
{0.095697,0.095697,0.095697},
{-0.021311,-0.021311,-0.021311},
{-0.030108,-0.030108,-0.030108},
{0.112515,0.112515,0.112515},
{-0.094650,-0.094650,-0.094650},
{0.061697,0.061697,0.061697},
{0.124400,0.124400,0.124400},
{0.031432,0.031432,0.031432},
{-0.017441,-0.017441,-0.017441},
{0.050536,0.050536,0.050536},
{0.055462,0.055462,0.055462},
{-0.040606,-0.040606,-0.040606},
{0.123155,0.123155,0.123155},
{0.018213,0.018213,0.018213},
{0.123144,0.123144,0.123144},
{-0.018946,-0.018946,-0.018946},
{-0.039654,-0.039654,-0.039654},
{0.029219,0.029219,0.029219},
{0.129145,0.129145,0.129145},
{0.010527,0.010527,0.010527},
{0.095757,0.095757,0.095757},
{-0.062420,-0.062420,-0.062420},
{0.099290,0.099290,0.099290},
{-0.138367,-0.138367,-0.138367},
{0.049969,0.049969,0.049969},
{0.000361,0.000361,0.000361},
{0.075406,0.075406,0.075406},
{-0.104375,-0.104375,-0.104375},
{0.085155,0.085155,0.085155},
{-0.057962,-0.057962,-0.057962},
{0.001289,0.001289,0.001289},
{-0.040047,-0.040047,-0.040047},
{-0.004279,-0.004279,-0.004279},
{-0.006686,-0.006686,-0.006686},
{-0.084647,-0.084647,-0.084647},
{0.035476,0.035476,0.035476},
{0.076054,0.076054,0.076054},
{-0.062789,-0.062789,-0.062789},
{-0.064062,-0.064062,-0.064062},
{-0.031459,-0.031459,-0.031459},
{0.011549,0.011549,0.011549},
{0.020100,0.020100,0.020100},
{-0.032779,-0.032779,-0.032779},
{0.036534,0.036534,0.036534},
{-0.020008,-0.020008,-0.020008},
{0.005959,0.005959,0.005959},
{0.043354,0.043354,0.043354},
{0.040894,0.040894,0.040894},
{0.064542,0.064542,0.064542},
{-0.006601,-0.006601,-0.006601},
{0.059922,0.059922,0.059922},
{-0.043920,-0.043920,-0.043920},
{0.016803,0.016803,0.016803},
{-0.030482,-0.030482,-0.030482},
{-0.067049,-0.067049,-0.067049},
{-0.072540,-0.072540,-0.072540},
{0.074709,0.074709,0.074709},
{-0.018662,-0.018662,-0.018662},
{0.014299,0.014299,0.014299},
{0.091302,0.091302,0.091302},
{-0.070308,-0.070308,-0.070308},
{0.023811,0.023811,0.023811},
{-0.057879,-0.057879,-0.057879},
{0.043648,0.043648,0.043648},
{-0.068917,-0.068917,-0.068917},
{0.102538,0.102538,0.102538},
{-0.027893,-0.027893,-0.027893},
{-0.064433,-0.064433,-0.064433},
{0.046337,0.046337,0.046337},
{0.023380,0.023380,0.023380},
{-0.012645,-0.012645,-0.012645},
{-0.019415,-0.019415,-0.019415},
{-0.124395,-0.124395,-0.124395},
{0.010438,0.010438,0.010438},
{-0.011313,-0.011313,-0.011313},
{-0.031872,-0.031872,-0.031872},
{-0.074480,-0.074480,-0.074480},
{-0.072199,-0.072199,-0.072199},
{0.007363,0.007363,0.007363},
{-0.149563,-0.149563,-0.149563},
{0.033714,0.033714,0.033714},
{0.090195,0.090195,0.090195},
{0.007622,0.007622,0.007622},
{-0.016085,-0.016085,-0.016085},
{0.015023,0.015023,0.015023},
{-0.015106,-0.015106,-0.015106},
{0.141188,0.141188,0.141188},
{0.016779,0.016779,0.016779},
{-0.034094,-0.034094,-0.034094},
{0.035148,0.035148,0.035148},
{0.031029,0.031029,0.031029},
{-0.129231,-0.129231,-0.129231},
{0.001083,0.001083,0.001083},
{-0.064115,-0.064115,-0.064115},
{0.086156,0.086156,0.086156},
{0.036119,0.036119,0.036119},
{-0.034325,-0.034325,-0.034325},
{0.104558,0.104558,0.104558},
{0.078014,0.078014,0.078014},
{-0.022261,-0.022261,-0.022261},
{0.077081,0.077081,0.077081},
{0.156843,0.156843,0.156843},
{-0.014700,-0.014700,-0.014700},
{-0.027723,-0.027723,-0.027723},
{0.038596,0.038596,0.038596},
{-0.093897,-0.093897,-0.093897},
{-0.045257,-0.045257,-0.045257},
{-0.081117,-0.081117,-0.081117},
{0.037109,0.037109,0.037109},
{-0.053514,-0.053514,-0.053514},
{-0.110579,-0.110579,-0.110579},
{0.045859,0.045859,0.045859},
{0.143167,0.143167,0.143167},
{-0.067963,-0.067963,-0.067963},
{-0.025451,-0.025451,-0.025451},
{-0.028344,-0.028344,-0.028344},
{0.059732,0.059732,0.059732},
{-0.007970,-0.007970,-0.007970},
{-0.064715,-0.064715,-0.064715},
{-0.004696,-0.004696,-0.004696},
{-0.027531,-0.027531,-0.027531},
{-0.025525,-0.025525,-0.025525},
{-0.042299,-0.042299,-0.042299},
{0.016640,0.016640,0.016640},
{-0.004612,-0.004612,-0.004612},
{-0.018835,-0.018835,-0.018835},
{-0.007171,-0.007171,-0.007171},
{0.086411,0.086411,0.086411},
{-0.073615,-0.073615,-0.073615},
{-0.072305,-0.072305,-0.072305},
{0.079663,0.079663,0.079663},
{0.071462,0.071462,0.071462},
{0.069866,0.069866,0.069866},
{0.018336,0.018336,0.018336},
{0.060597,0.060597,0.060597},
{0.000039,0.000039,0.000039},
{-0.028774,-0.028774,-0.028774},
{-0.081598,-0.081598,-0.081598},
{0.010642,0.010642,0.010642},
{-0.144874,-0.144874,-0.144874},
{0.015295,0.015295,0.015295},
{-0.165728,-0.165728,-0.165728},
{0.019692,0.019692,0.019692},
{-0.067671,-0.067671,-0.067671},
{0.027802,0.027802,0.027802},
{-0.089629,-0.089629,-0.089629},
{-0.047704,-0.047704,-0.047704},
{0.090098,0.090098,0.090098},
{-0.054483,-0.054483,-0.054483},
{-0.063278,-0.063278,-0.063278},
{0.009525,0.009525,0.009525},
{-0.005668,-0.005668,-0.005668},
{-0.004859,-0.004859,-0.004859},
{-0.013026,-0.013026,-0.013026},
{0.054294,0.054294,0.054294},
{0.064843,0.064843,0.064843},
{0.078089,0.078089,0.078089},
{-0.034712,-0.034712,-0.034712},
{0.005241,0.005241,0.005241},
{-0.053529,-0.053529,-0.053529},
{-0.128010,-0.128010,-0.128010},
{0.071361,0.071361,0.071361},
{0.011126,0.011126,0.011126},
{0.086777,0.086777,0.086777},
{0.025943,0.025943,0.025943},
{-0.021211,-0.021211,-0.021211},
{0.109207,0.109207,0.109207},
{-0.010728,-0.010728,-0.010728},
{-0.043331,-0.043331,-0.043331},
{-0.033452,-0.033452,-0.033452},
{-0.000893,-0.000893,-0.000893},
{-0.131662,-0.131662,-0.131662},
{0.053079,0.053079,0.053079},
{0.007692,0.007692,0.007692},
{0.061262,0.061262,0.061262},
{0.050774,0.050774,0.050774},
{-0.100473,-0.100473,-0.100473},
{0.105409,0.105409,0.105409},
{-0.069991,-0.069991,-0.069991},
{-0.054892,-0.054892,-0.054892},
{0.016865,0.016865,0.016865},
{-0.048215,-0.048215,-0.048215},
{0.010844,0.010844,0.010844},
{-0.018742,-0.018742,-0.018742},
{-0.027058,-0.027058,-0.027058},
{0.089361,0.089361,0.089361},
{-0.010726,-0.010726,-0.010726},
{-0.026421,-0.026421,-0.026421},
{0.062982,0.062982,0.062982},
{-0.011350,-0.011350,-0.011350},
{-0.047651,-0.047651,-0.047651},
{0.043093,0.043093,0.043093},
{0.020367,0.020367,0.020367},
{0.128818,0.128818,0.128818},
{-0.041625,-0.041625,-0.041625},
{-0.029981,-0.029981,-0.029981},
{0.028690,0.028690,0.028690},
{-0.132308,-0.132308,-0.132308},
{0.094317,0.094317,0.094317},
{-0.003348,-0.003348,-0.003348},
{0.014920,0.014920,0.014920},
{-0.058532,-0.058532,-0.058532},
{0.098427,0.098427,0.098427},
{-0.027886,-0.027886,-0.027886},
{0.026679,0.026679,0.026679},
{-0.106283,-0.106283,-0.106283},
{0.093315,0.093315,0.093315},
{-0.045849,-0.045849,-0.045849},
{-0.039838,-0.039838,-0.039838},
{-0.023314,-0.023314,-0.023314},
{-0.087610,-0.087610,-0.087610},
{-0.075132,-0.075132,-0.075132},
{-0.025920,-0.025920,-0.025920},
{-0.008413,-0.008413,-0.008413},
{0.025804,0.025804,0.025804},
{-0.114992,-0.114992,-0.114992},
{-0.039709,-0.039709,-0.039709},
{0.022621,0.022621,0.022621},
{0.124916,0.124916,0.124916},
{-0.040236,-0.040236,-0.040236},
{0.002031,0.002031,0.002031},
{-0.012049,-0.012049,-0.012049},
{0.045134,0.045134,0.045134},
{0.005278,0.005278,0.005278},
{-0.015207,-0.015207,-0.015207},
{-0.120995,-0.120995,-0.120995},
{0.072977,0.072977,0.072977},
{-0.007764,-0.007764,-0.007764},
{0.097749,0.097749,0.097749},
{-0.098409,-0.098409,-0.098409},
{0.066504,0.066504,0.066504},
{0.051567,0.051567,0.051567},
{0.023611,0.023611,0.023611},
{0.123769,0.123769,0.123769},
{-0.087144,-0.087144,-0.087144},
{-0.091252,-0.091252,-0.091252},
{-0.077393,-0.077393,-0.077393},
{0.028371,0.028371,0.028371},
{0.100578,0.100578,0.100578},
{-0.027671,-0.027671,-0.027671},
{-0.007501,-0.007501,-0.007501},
{0.065189,0.065189,0.065189},
{0.093772,0.093772,0.093772},
{-0.033216,-0.033216,-0.033216},
{0.052875,0.052875,0.052875},
{-0.135673,-0.135673,-0.135673},
{0.069950,0.069950,0.069950},
{-0.054547,-0.054547,-0.054547},
{-0.073570,-0.073570,-0.073570},
{-0.111585,-0.111585,-0.111585},
{-0.025301,-0.025301,-0.025301},
{-0.015010,-0.015010,-0.015010},
{-0.124374,-0.124374,-0.124374},
{-0.080601,-0.080601,-0.080601},
{-0.087374,-0.087374,-0.087374},
{-0.003617,-0.003617,-0.003617},
{-0.041551,-0.041551,-0.041551},
{0.006250,0.006250,0.006250},
{0.055827,0.055827,0.055827},
{-0.050768,-0.050768,-0.050768},
{0.046451,0.046451,0.046451},
{0.089311,0.089311,0.089311},
{0.052435,0.052435,0.052435},
{0.000239,0.000239,0.000239},
{0.048720,0.048720,0.048720},
{-0.008149,-0.008149,-0.008149},
{-0.129649,-0.129649,-0.129649},
{-0.013481,-0.013481,-0.013481},
{-0.108056,-0.108056,-0.108056},
{-0.091587,-0.091587,-0.091587},
{0.077457,0.077457,0.077457},
{0.031550,0.031550,0.031550},
{0.008721,0.008721,0.008721},
{0.002778,0.002778,0.002778},
{-0.091799,-0.091799,-0.091799},
{0.114352,0.114352,0.114352},
{-0.106577,-0.106577,-0.106577},
{-0.067955,-0.067955,-0.067955},
{-0.040831,-0.040831,-0.040831},
{-0.042448,-0.042448,-0.042448},
{-0.021654,-0.021654,-0.021654},
{0.019464,0.019464,0.019464},
{-0.060172,-0.060172,-0.060172},
{-0.000005,-0.000005,-0.000005},
{0.004269,0.004269,0.004269},
{-0.004207,-0.004207,-0.004207},
{-0.001827,-0.001827,-0.001827},
{-0.007749,-0.007749,-0.007749},
{-0.005825,-0.005825,-0.005825},
{-0.075892,-0.075892,-0.075892},
{0.069117,0.069117,0.069117},
{0.002694,0.002694,0.002694},
{0.044053,0.044053,0.044053},
{0.099140,0.099140,0.099140},
{0.012189,0.012189,0.012189},
{-0.104588,-0.104588,-0.104588},
{0.009775,0.009775,0.009775},
{-0.118685,-0.118685,-0.118685},
{0.073393,0.073393,0.073393},
{0.080380,0.080380,0.080380},
{-0.112275,-0.112275,-0.112275},
{-0.066781,-0.066781,-0.066781},
{-0.009910,-0.009910,-0.009910},
{0.038128,0.038128,0.038128},
{-0.138826,-0.138826,-0.138826},
{0.076200,0.076200,0.076200},
{0.070933,0.070933,0.070933},
{-0.007227,-0.007227,-0.007227},
{0.082932,0.082932,0.082932},
{0.033745,0.033745,0.033745},
{-0.098941,-0.098941,-0.098941},
{-0.005724,-0.005724,-0.005724},
{0.254999,0.254999,0.254999},
{0.095923,0.095923,0.095923},
{0.038299,0.038299,0.038299},
{0.035924,0.035924,0.035924},
{0.000586,0.000586,0.000586},
{0.005800,0.005800,0.005800},
{0.031833,0.031833,0.031833},
{0.020753,0.020753,0.020753},
{-0.056521,-0.056521,-0.056521},
{-0.105307,-0.105307,-0.105307},
{0.247635,0.247635,0.247635},
{0.169170,0.169170,0.169170},
{-0.060155,-0.060155,-0.060155},
{-0.017072,-0.017072,-0.017072},
{-0.035688,-0.035688,-0.035688},
{0.025042,0.025042,0.025042},
{0.107241,0.107241,0.107241},
{-0.026125,-0.026125,-0.026125},
{-0.041226,-0.041226,-0.041226},
{-0.079105,-0.079105,-0.079105},
{0.052462,0.052462,0.052462},
{0.070621,0.070621,0.070621},
{-0.122365,-0.122365,-0.122365},
{0.002764,0.002764,0.002764},
{0.091139,0.091139,0.091139},
{0.126007,0.126007,0.126007},
{0.027390,0.027390,0.027390},
{-0.149441,-0.149441,-0.149441},
{0.044001,0.044001,0.044001},
{-0.097627,-0.097627,-0.097627},
{-0.022513,-0.022513,-0.022513},
{0.096907,0.096907,0.096907},
{0.086252,0.086252,0.086252},
{0.059720,0.059720,0.059720},
{-0.010083,-0.010083,-0.010083},
{-0.185475,-0.185475,-0.185475},
{-0.050066,-0.050066,-0.050066},
{0.017090,0.017090,0.017090},
{-0.061507,-0.061507,-0.061507},
{0.032658,0.032658,0.032658},
{-0.001568,-0.001568,-0.001568},
{0.049817,0.049817,0.049817},
{-0.022680,-0.022680,-0.022680},
{0.104233,0.104233,0.104233},
{0.045568,0.045568,0.045568},
{0.136839,0.136839,0.136839},
{0.055428,0.055428,0.055428},
{0.017485,0.017485,0.017485},
{-0.057047,-0.057047,-0.057047},
{-0.115319,-0.115319,-0.115319},
{0.035843,0.035843,0.035843},
{0.034839,0.034839,0.034839},
{-0.062364,-0.062364,-0.062364},
{-0.079535,-0.079535,-0.079535},
{0.082511,0.082511,0.082511},
{0.109346,0.109346,0.109346},
{-0.005654,-0.005654,-0.005654},
{0.068091,0.068091,0.068091},
{-0.053264,-0.053264,-0.053264},
{-0.000569,-0.000569,-0.000569},
{0.096540,0.096540,0.096540},
{-0.015433,-0.015433,-0.015433},
{0.060770,0.060770,0.060770},
{0.025942,0.025942,0.025942},
{-0.131178,-0.131178,-0.131178},
{0.023442,0.023442,0.023442},
{-0.003614,-0.003614,-0.003614},
{-0.054873,-0.054873,-0.054873},
{-0.057937,-0.057937,-0.057937},
{-0.068092,-0.068092,-0.068092},
{0.003295,0.003295,0.003295},
{-0.048554,-0.048554,-0.048554},
{0.062644,0.062644,0.062644},
{-0.011648,-0.011648,-0.011648},
{-0.040652,-0.040652,-0.040652},
{-0.098683,-0.098683,-0.098683},
{0.134224,0.134224,0.134224},
{0.024961,0.024961,0.024961},
{0.033691,0.033691,0.033691},
{-0.054920,-0.054920,-0.054920},
{-0.033468,-0.033468,-0.033468},
{0.064754,0.064754,0.064754},
{0.015885,0.015885,0.015885},
{0.125178,0.125178,0.125178},
{-0.021427,-0.021427,-0.021427},
{-0.031940,-0.031940,-0.031940},
{0.010312,0.010312,0.010312},
{-0.170643,-0.170643,-0.170643},
{-0.040685,-0.040685,-0.040685},
{-0.054656,-0.054656,-0.054656},
{0.042815,0.042815,0.042815},
{-0.104834,-0.104834,-0.104834},
{0.116619,0.116619,0.116619},
{-0.001060,-0.001060,-0.001060},
{0.013537,0.013537,0.013537},
{-0.106824,-0.106824,-0.106824},
{-0.064053,-0.064053,-0.064053},
{0.021666,0.021666,0.021666},
{0.029098,0.029098,0.029098},
{0.002376,0.002376,0.002376},
{0.215959,0.215959,0.215959},
{-0.077317,-0.077317,-0.077317},
{-0.034250,-0.034250,-0.034250},
{0.091686,0.091686,0.091686},
{0.081325,0.081325,0.081325},
{0.037102,0.037102,0.037102},
{0.119225,0.119225,0.119225},
{-0.065601,-0.065601,-0.065601},
{-0.030415,-0.030415,-0.030415},
{-0.062479,-0.062479,-0.062479},
{-0.010235,-0.010235,-0.010235},
{0.052530,0.052530,0.052530},
{-0.005967,-0.005967,-0.005967},
{0.015505,0.015505,0.015505},
{-0.050885,-0.050885,-0.050885},
{0.046517,0.046517,0.046517},
{-0.059309,-0.059309,-0.059309},
{-0.044976,-0.044976,-0.044976},
{-0.039093,-0.039093,-0.039093},
{0.066190,0.066190,0.066190},
{-0.149083,-0.149083,-0.149083},
{0.011606,0.011606,0.011606},
{-0.037189,-0.037189,-0.037189},
{-0.059231,-0.059231,-0.059231},
{-0.000978,-0.000978,-0.000978},
{0.009413,0.009413,0.009413},
{-0.012146,-0.012146,-0.012146},
{-0.064897,-0.064897,-0.064897},
{0.062305,0.062305,0.062305},
{0.017786,0.017786,0.017786},
{0.038242,0.038242,0.038242},
{-0.052592,-0.052592,-0.052592},
{-0.047360,-0.047360,-0.047360},
{0.135682,0.135682,0.135682},
{-0.092379,-0.092379,-0.092379},
{0.010349,0.010349,0.010349},
{0.045369,0.045369,0.045369},
{0.045839,0.045839,0.045839},
{-0.107569,-0.107569,-0.107569},
{-0.019695,-0.019695,-0.019695},
{0.040226,0.040226,0.040226},
{-0.087913,-0.087913,-0.087913},
{0.095663,0.095663,0.095663},
{0.000204,0.000204,0.000204},
{-0.063824,-0.063824,-0.063824},
{0.010091,0.010091,0.010091},
{0.027785,0.027785,0.027785},
{0.072859,0.072859,0.072859},
{0.005395,0.005395,0.005395},
{0.114797,0.114797,0.114797},
{-0.045847,-0.045847,-0.045847},
{-0.057058,-0.057058,-0.057058},
{0.067449,0.067449,0.067449},
{-0.067960,-0.067960,-0.067960},
{0.048089,0.048089,0.048089},
{0.036197,0.036197,0.036197},
{0.030567,0.030567,0.030567},
{-0.059213,-0.059213,-0.059213},
{-0.013358,-0.013358,-0.013358},
{0.015927,0.015927,0.015927},
{-0.010769,-0.010769,-0.010769},
{-0.002326,-0.002326,-0.002326},
{-0.057139,-0.057139,-0.057139},
{0.157070,0.157070,0.157070},
{0.004057,0.004057,0.004057},
{0.000235,0.000235,0.000235},
{-0.005823,-0.005823,-0.005823},
{0.029241,0.029241,0.029241},
{0.013821,0.013821,0.013821},
{-0.081210,-0.081210,-0.081210},
{0.035135,0.035135,0.035135},
{0.048487,0.048487,0.048487},
{-0.000246,-0.000246,-0.000246},
{0.101080,0.101080,0.101080},
{-0.080437,-0.080437,-0.080437},
{-0.046530,-0.046530,-0.046530},
{-0.028300,-0.028300,-0.028300},
{-0.025787,-0.025787,-0.025787},
{-0.026031,-0.026031,-0.026031},
{0.075263,0.075263,0.075263},
{0.018460,0.018460,0.018460},
{0.049200,0.049200,0.049200},
{-0.022085,-0.022085,-0.022085},
{0.022753,0.022753,0.022753},
{-0.053925,-0.053925,-0.053925},
{0.088017,0.088017,0.088017},
{0.028121,0.028121,0.028121},
{-0.119770,-0.119770,-0.119770},
{0.021152,0.021152,0.021152},
{-0.001534,-0.001534,-0.001534},
{-0.003390,-0.003390,-0.003390},
{0.103163,0.103163,0.103163},
{0.013041,0.013041,0.013041},
{0.000343,0.000343,0.000343},
{-0.085128,-0.085128,-0.085128},
{0.002907,0.002907,0.002907},
{-0.092858,-0.092858,-0.092858},
{-0.102856,-0.102856,-0.102856},
{-0.117093,-0.117093,-0.117093},
{-0.013541,-0.013541,-0.013541},
{-0.044515,-0.044515,-0.044515},
{-0.038614,-0.038614,-0.038614},
{-0.033756,-0.033756,-0.033756},
{-0.034297,-0.034297,-0.034297},
{-0.019004,-0.019004,-0.019004},
{0.167998,0.167998,0.167998},
{0.081126,0.081126,0.081126},
{0.081892,0.081892,0.081892},
{-0.010018,-0.010018,-0.010018},
{-0.043201,-0.043201,-0.043201},
{-0.052461,-0.052461,-0.052461},
{-0.077874,-0.077874,-0.077874},
{0.049937,0.049937,0.049937},
{0.047372,0.047372,0.047372},
{0.136780,0.136780,0.136780},
{0.088707,0.088707,0.088707},
{0.112896,0.112896,0.112896},
{0.003540,0.003540,0.003540},
{0.101533,0.101533,0.101533},
{0.099934,0.099934,0.099934},
{-0.056077,-0.056077,-0.056077},
{0.083174,0.083174,0.083174},
{-0.006429,-0.006429,-0.006429},
{0.008250,0.008250,0.008250},
{-0.143830,-0.143830,-0.143830},
{-0.144988,-0.144988,-0.144988},
{0.036720,0.036720,0.036720},
{0.011030,0.011030,0.011030},
{-0.031271,-0.031271,-0.031271},
{0.006054,0.006054,0.006054},
{0.075596,0.075596,0.075596},
{0.115670,0.115670,0.115670},
{-0.009812,-0.009812,-0.009812},
{-0.078100,-0.078100,-0.078100},
{0.022679,0.022679,0.022679},
{-0.002161,-0.002161,-0.002161},
{-0.046502,-0.046502,-0.046502},
{0.036067,0.036067,0.036067},
{0.025631,0.025631,0.025631},
{0.005358,0.005358,0.005358},
{-0.019379,-0.019379,-0.019379},
{-0.009275,-0.009275,-0.009275},
{0.003733,0.003733,0.003733},
{-0.029705,-0.029705,-0.029705},
{-0.093348,-0.093348,-0.093348},
{-0.112303,-0.112303,-0.112303},
{-0.049861,-0.049861,-0.049861},
{0.059342,0.059342,0.059342},
{-0.072073,-0.072073,-0.072073},
{0.038763,0.038763,0.038763},
{-0.055290,-0.055290,-0.055290},
{-0.052575,-0.052575,-0.052575},
{0.018314,0.018314,0.018314},
{-0.044041,-0.044041,-0.044041},
{-0.080537,-0.080537,-0.080537},
{0.002886,0.002886,0.002886},
{-0.073120,-0.073120,-0.073120},
{-0.052048,-0.052048,-0.052048},
{-0.004959,-0.004959,-0.004959},
{-0.070357,-0.070357,-0.070357},
{0.159887,0.159887,0.159887},
{0.043962,0.043962,0.043962},
{0.077259,0.077259,0.077259},
{-0.169425,-0.169425,-0.169425},
{-0.038065,-0.038065,-0.038065},
{-0.032072,-0.032072,-0.032072},
{0.051689,0.051689,0.051689},
{0.025010,0.025010,0.025010},
{0.061562,0.061562,0.061562},
{0.103070,0.103070,0.103070},
{0.084508,0.084508,0.084508},
{0.082318,0.082318,0.082318},
{-0.014584,-0.014584,-0.014584},
{-0.022336,-0.022336,-0.022336},
{-0.038253,-0.038253,-0.038253},
{-0.095045,-0.095045,-0.095045},
{-0.079567,-0.079567,-0.079567},
{-0.081528,-0.081528,-0.081528},
{-0.019021,-0.019021,-0.019021},
{0.041312,0.041312,0.041312},
{0.042114,0.042114,0.042114},
{-0.077569,-0.077569,-0.077569},
{-0.034665,-0.034665,-0.034665},
{-0.031403,-0.031403,-0.031403},
{0.012163,0.012163,0.012163},
{-0.013551,-0.013551,-0.013551},
{-0.108156,-0.108156,-0.108156},
{-0.022649,-0.022649,-0.022649},
{0.056707,0.056707,0.056707},
{-0.079257,-0.079257,-0.079257},
{0.101150,0.101150,0.101150},
{-0.057510,-0.057510,-0.057510},
{0.002941,0.002941,0.002941},
{-0.066827,-0.066827,-0.066827},
{0.006713,0.006713,0.006713},
{-0.064533,-0.064533,-0.064533},
{-0.091011,-0.091011,-0.091011},
{0.083190,0.083190,0.083190},
{-0.161171,-0.161171,-0.161171},
{-0.016903,-0.016903,-0.016903},
{0.076311,0.076311,0.076311},
{0.029243,0.029243,0.029243},
{-0.037304,-0.037304,-0.037304},
{-0.109124,-0.109124,-0.109124},
{-0.013097,-0.013097,-0.013097},
{0.066705,0.066705,0.066705},
{0.067525,0.067525,0.067525},
{0.057916,0.057916,0.057916},
{-0.022633,-0.022633,-0.022633},
{0.001636,0.001636,0.001636},
{-0.044141,-0.044141,-0.044141},
{-0.012569,-0.012569,-0.012569},
{0.055131,0.055131,0.055131},
{0.014225,0.014225,0.014225},
{0.135670,0.135670,0.135670},
{0.116007,0.116007,0.116007},
{-0.053391,-0.053391,-0.053391},
{-0.045728,-0.045728,-0.045728},
{0.068501,0.068501,0.068501},
{0.093667,0.093667,0.093667},
{-0.027400,-0.027400,-0.027400},
{-0.030371,-0.030371,-0.030371},
{-0.029008,-0.029008,-0.029008},
{-0.009846,-0.009846,-0.009846},
{-0.083681,-0.083681,-0.083681},
{-0.012404,-0.012404,-0.012404},
{-0.110508,-0.110508,-0.110508},
{-0.025821,-0.025821,-0.025821},
{0.066082,0.066082,0.066082},
{-0.036331,-0.036331,-0.036331},
{-0.006352,-0.006352,-0.006352},
{0.129825,0.129825,0.129825},
{-0.009628,-0.009628,-0.009628},
{0.030330,0.030330,0.030330},
{0.041263,0.041263,0.041263},
{0.003683,0.003683,0.003683},
{0.080270,0.080270,0.080270},
{0.031741,0.031741,0.031741},
{0.083870,0.083870,0.083870},
{-0.045253,-0.045253,-0.045253},
{0.013054,0.013054,0.013054},
{0.024192,0.024192,0.024192},
{-0.037948,-0.037948,-0.037948},
{-0.053557,-0.053557,-0.053557},
{-0.041372,-0.041372,-0.041372},
{-0.047672,-0.047672,-0.047672},
{0.021251,0.021251,0.021251},
{-0.106565,-0.106565,-0.106565},
{-0.019355,-0.019355,-0.019355},
{-0.046367,-0.046367,-0.046367},
{-0.097997,-0.097997,-0.097997},
{-0.064972,-0.064972,-0.064972},
{0.004707,0.004707,0.004707},
{0.078378,0.078378,0.078378},
{-0.060606,-0.060606,-0.060606},
{-0.088855,-0.088855,-0.088855},
{0.036958,0.036958,0.036958},
{-0.013057,-0.013057,-0.013057},
{0.003041,0.003041,0.003041},
{0.024112,0.024112,0.024112},
{-0.029017,-0.029017,-0.029017},
{0.011729,0.011729,0.011729},
{0.035643,0.035643,0.035643},
{0.029732,0.029732,0.029732},
{0.033963,0.033963,0.033963},
{0.032971,0.032971,0.032971},
{0.042633,0.042633,0.042633},
{-0.007771,-0.007771,-0.007771},
{-0.053944,-0.053944,-0.053944},
{-0.074800,-0.074800,-0.074800},
{0.080871,0.080871,0.080871},
{0.037695,0.037695,0.037695},
{-0.048513,-0.048513,-0.048513},
{0.022689,0.022689,0.022689},
{-0.067306,-0.067306,-0.067306},
{-0.001111,-0.001111,-0.001111},
{-0.017590,-0.017590,-0.017590},
{0.011681,0.011681,0.011681},
{0.120901,0.120901,0.120901},
{0.002165,0.002165,0.002165},
{-0.048966,-0.048966,-0.048966},
{-0.089427,-0.089427,-0.089427},
{-0.046804,-0.046804,-0.046804},
{-0.007403,-0.007403,-0.007403},
{0.010848,0.010848,0.010848},
{0.042327,0.042327,0.042327},
{-0.025633,-0.025633,-0.025633},
{-0.047174,-0.047174,-0.047174},
{0.085962,0.085962,0.085962},
{-0.086077,-0.086077,-0.086077},
{-0.041242,-0.041242,-0.041242},
{-0.060509,-0.060509,-0.060509},
{-0.043667,-0.043667,-0.043667},
{0.005540,0.005540,0.005540},
{-0.057150,-0.057150,-0.057150},
{-0.003071,-0.003071,-0.003071},
{-0.083606,-0.083606,-0.083606},
{-0.030976,-0.030976,-0.030976},
{0.032042,0.032042,0.032042},
{0.013041,0.013041,0.013041},
{0.037326,0.037326,0.037326},
{0.027340,0.027340,0.027340},
{-0.019500,-0.019500,-0.019500},
{-0.083945,-0.083945,-0.083945},
{0.072471,0.072471,0.072471},
{-0.047142,-0.047142,-0.047142},
{0.051110,0.051110,0.051110},
{0.038899,0.038899,0.038899},
{-0.068019,-0.068019,-0.068019},
{0.050484,0.050484,0.050484},
{0.017855,0.017855,0.017855},
{-0.028517,-0.028517,-0.028517},
{-0.044622,-0.044622,-0.044622},
{0.068403,0.068403,0.068403},
{-0.106341,-0.106341,-0.106341},
{-0.002724,-0.002724,-0.002724},
{0.110556,0.110556,0.110556},
{-0.000173,-0.000173,-0.000173},
{0.081001,0.081001,0.081001},
{0.029697,0.029697,0.029697},
{0.016478,0.016478,0.016478},
{-0.038918,-0.038918,-0.038918},
{0.006335,0.006335,0.006335},
{-0.080562,-0.080562,-0.080562},
{-0.046143,-0.046143,-0.046143},
{0.090461,0.090461,0.090461},
{-0.045936,-0.045936,-0.045936},
{-0.004089,-0.004089,-0.004089},
{-0.029503,-0.029503,-0.029503},
{0.031730,0.031730,0.031730},
{0.060094,0.060094,0.060094},
{-0.031529,-0.031529,-0.031529},
{-0.088796,-0.088796,-0.088796},
{-0.061348,-0.061348,-0.061348},
{-0.013679,-0.013679,-0.013679},
{-0.016120,-0.016120,-0.016120},
{-0.063630,-0.063630,-0.063630},
{0.063530,0.063530,0.063530},
{0.048373,0.048373,0.048373},
{0.100542,0.100542,0.100542},
{-0.005960,-0.005960,-0.005960},
{0.058798,0.058798,0.058798},
{-0.060625,-0.060625,-0.060625},
{0.001840,0.001840,0.001840},
{0.043805,0.043805,0.043805},
{-0.104624,-0.104624,-0.104624},
{-0.008354,-0.008354,-0.008354},
{0.040084,0.040084,0.040084},
{0.026476,0.026476,0.026476},
{-0.059784,-0.059784,-0.059784},
{0.009534,0.009534,0.009534},
{0.045950,0.045950,0.045950},
{-0.056606,-0.056606,-0.056606},
{-0.069250,-0.069250,-0.069250},
{-0.043107,-0.043107,-0.043107},
{0.042291,0.042291,0.042291},
{-0.084880,-0.084880,-0.084880},
{-0.005805,-0.005805,-0.005805},
{-0.090871,-0.090871,-0.090871},
{-0.047690,-0.047690,-0.047690},
{0.027227,0.027227,0.027227},
{-0.031267,-0.031267,-0.031267},
{-0.024863,-0.024863,-0.024863},
{-0.011709,-0.011709,-0.011709},
{-0.036318,-0.036318,-0.036318},
{0.031815,0.031815,0.031815},
{-0.017607,-0.017607,-0.017607},
{0.028146,0.028146,0.028146},
{0.045272,0.045272,0.045272},
{0.003347,0.003347,0.003347},
{-0.040061,-0.040061,-0.040061},
{-0.020971,-0.020971,-0.020971},
{-0.122833,-0.122833,-0.122833},
{-0.126432,-0.126432,-0.126432},
{0.145089,0.145089,0.145089},
{-0.056817,-0.056817,-0.056817},
{0.036996,0.036996,0.036996},
{-0.051604,-0.051604,-0.051604},
{0.069387,0.069387,0.069387},
{-0.079339,-0.079339,-0.079339},
{0.085198,0.085198,0.085198},
{-0.056917,-0.056917,-0.056917},
{0.033152,0.033152,0.033152},
{-0.027609,-0.027609,-0.027609},
{-0.032080,-0.032080,-0.032080},
{-0.010372,-0.010372,-0.010372},
{-0.030360,-0.030360,-0.030360},
{-0.100814,-0.100814,-0.100814},
{-0.071472,-0.071472,-0.071472},
{0.038371,0.038371,0.038371},
{-0.014586,-0.014586,-0.014586},
{-0.055426,-0.055426,-0.055426},
{0.020868,0.020868,0.020868},
{0.049120,0.049120,0.049120},
{-0.126466,-0.126466,-0.126466},
{-0.030209,-0.030209,-0.030209},
{-0.155652,-0.155652,-0.155652},
{-0.026546,-0.026546,-0.026546},
{0.084792,0.084792,0.084792},
{-0.033225,-0.033225,-0.033225},
{-0.154215,-0.154215,-0.154215},
{0.077335,0.077335,0.077335},
{-0.013652,-0.013652,-0.013652},
{-0.035545,-0.035545,-0.035545},
{-0.046981,-0.046981,-0.046981},
{0.018690,0.018690,0.018690},
{-0.023878,-0.023878,-0.023878},
{-0.110875,-0.110875,-0.110875},
{0.054932,0.054932,0.054932},
{-0.092926,-0.092926,-0.092926},
{0.026357,0.026357,0.026357},
{-0.055377,-0.055377,-0.055377},
{-0.072369,-0.072369,-0.072369},
{0.115257,0.115257,0.115257},
{-0.124883,-0.124883,-0.124883},
{0.013586,0.013586,0.013586},
{-0.027479,-0.027479,-0.027479},
{0.014852,0.014852,0.014852},
{-0.072545,-0.072545,-0.072545},
{-0.001532,-0.001532,-0.001532},
{-0.037001,-0.037001,-0.037001},
{-0.065022,-0.065022,-0.065022},
{0.052890,0.052890,0.052890},
{-0.015657,-0.015657,-0.015657},
{-0.020782,-0.020782,-0.020782},
{0.060027,0.060027,0.060027},
{-0.038017,-0.038017,-0.038017},
{-0.003373,-0.003373,-0.003373},
{0.111611,0.111611,0.111611},
{0.159925,0.159925,0.159925},
{0.003781,0.003781,0.003781},
{0.038805,0.038805,0.038805},
{0.095087,0.095087,0.095087},
{0.111863,0.111863,0.111863},
{-0.030721,-0.030721,-0.030721},
{-0.038460,-0.038460,-0.038460},
{-0.034375,-0.034375,-0.034375},
{-0.013495,-0.013495,-0.013495},
{0.077888,0.077888,0.077888},
{0.082319,0.082319,0.082319},
{-0.031468,-0.031468,-0.031468},
{0.118101,0.118101,0.118101},
{0.044903,0.044903,0.044903},
{-0.030525,-0.030525,-0.030525},
{0.023151,0.023151,0.023151},
{0.078675,0.078675,0.078675},
{0.005141,0.005141,0.005141},
{-0.057849,-0.057849,-0.057849},
{-0.077079,-0.077079,-0.077079},
{0.076591,0.076591,0.076591},
{-0.038594,-0.038594,-0.038594},
{-0.028543,-0.028543,-0.028543},
{0.138632,0.138632,0.138632},
{0.110946,0.110946,0.110946},
{-0.001508,-0.001508,-0.001508},
{0.008535,0.008535,0.008535},
{-0.022265,-0.022265,-0.022265},
{0.072185,0.072185,0.072185},
{-0.075808,-0.075808,-0.075808},
{-0.017459,-0.017459,-0.017459},
{0.017896,0.017896,0.017896},
{0.078814,0.078814,0.078814},
{-0.162219,-0.162219,-0.162219},
{-0.017193,-0.017193,-0.017193},
{0.007155,0.007155,0.007155},
{-0.036083,-0.036083,-0.036083},
{0.019819,0.019819,0.019819},
{-0.006689,-0.006689,-0.006689},
{0.086732,0.086732,0.086732},
{0.043440,0.043440,0.043440},
{0.063571,0.063571,0.063571},
{-0.014458,-0.014458,-0.014458},
{-0.084842,-0.084842,-0.084842},
{-0.007716,-0.007716,-0.007716},
{-0.004935,-0.004935,-0.004935},
{-0.081697,-0.081697,-0.081697},
{0.049518,0.049518,0.049518},
{-0.009244,-0.009244,-0.009244},
{-0.012443,-0.012443,-0.012443},
{-0.019893,-0.019893,-0.019893},
{0.066939,0.066939,0.066939},
{-0.042530,-0.042530,-0.042530},
{0.100086,0.100086,0.100086},
{0.056855,0.056855,0.056855},
{0.014922,0.014922,0.014922},
{-0.015313,-0.015313,-0.015313},
{-0.004675,-0.004675,-0.004675},
{0.083833,0.083833,0.083833},
{0.065707,0.065707,0.065707},
{0.087328,0.087328,0.087328},
{0.066117,0.066117,0.066117},
{0.038650,0.038650,0.038650},
{-0.119759,-0.119759,-0.119759},
{-0.043315,-0.043315,-0.043315},
{-0.012462,-0.012462,-0.012462},
{0.078326,0.078326,0.078326},
{0.019216,0.019216,0.019216},
{0.041805,0.041805,0.041805},
{0.020096,0.020096,0.020096},
{-0.043068,-0.043068,-0.043068},
{-0.174181,-0.174181,-0.174181},
{-0.046581,-0.046581,-0.046581},
{0.029249,0.029249,0.029249},
{-0.061028,-0.061028,-0.061028},
{0.060041,0.060041,0.060041},
{0.148809,0.148809,0.148809},
{-0.005161,-0.005161,-0.005161},
{-0.133984,-0.133984,-0.133984},
{0.050348,0.050348,0.050348},
{0.038156,0.038156,0.038156},
{0.010477,0.010477,0.010477},
{0.054081,0.054081,0.054081},
{0.008623,0.008623,0.008623},
{-0.011561,-0.011561,-0.011561},
{0.070045,0.070045,0.070045},
{-0.047327,-0.047327,-0.047327},
{-0.117109,-0.117109,-0.117109},
{0.040786,0.040786,0.040786},
{0.015558,0.015558,0.015558},
{-0.053250,-0.053250,-0.053250},
{0.020546,0.020546,0.020546},
{0.065991,0.065991,0.065991},
{0.069858,0.069858,0.069858},
{0.122160,0.122160,0.122160},
{-0.025522,-0.025522,-0.025522},
{-0.022430,-0.022430,-0.022430},
{-0.021922,-0.021922,-0.021922},
{0.005761,0.005761,0.005761},
{0.108451,0.108451,0.108451},
{-0.068752,-0.068752,-0.068752},
{0.025849,0.025849,0.025849},
{0.073485,0.073485,0.073485},
{-0.119388,-0.119388,-0.119388},
{0.014117,0.014117,0.014117},
{-0.057181,-0.057181,-0.057181},
{-0.137495,-0.137495,-0.137495},
{0.070485,0.070485,0.070485},
{-0.060020,-0.060020,-0.060020},
{-0.107973,-0.107973,-0.107973},
{0.061869,0.061869,0.061869},
{0.044451,0.044451,0.044451},
{-0.087936,-0.087936,-0.087936},
{0.027051,0.027051,0.027051},
{-0.025698,-0.025698,-0.025698},
{-0.021159,-0.021159,-0.021159},
{-0.092446,-0.092446,-0.092446},
{-0.061380,-0.061380,-0.061380},
{0.007728,0.007728,0.007728},
{0.081938,0.081938,0.081938},
{-0.011099,-0.011099,-0.011099},
{0.043764,0.043764,0.043764},
{-0.006830,-0.006830,-0.006830},
{-0.094875,-0.094875,-0.094875},
{0.076340,0.076340,0.076340},
{-0.005779,-0.005779,-0.005779},
{-0.022975,-0.022975,-0.022975},
{0.061156,0.061156,0.061156},
{-0.006122,-0.006122,-0.006122},
{0.060237,0.060237,0.060237},
{0.047632,0.047632,0.047632},
{-0.018053,-0.018053,-0.018053},
{-0.044764,-0.044764,-0.044764},
{0.121674,0.121674,0.121674},
{-0.014169,-0.014169,-0.014169},
{0.114642,0.114642,0.114642},
{0.023220,0.023220,0.023220},
{0.044328,0.044328,0.044328},
{0.039613,0.039613,0.039613},
{0.068720,0.068720,0.068720},
{-0.029389,-0.029389,-0.029389},
{-0.089524,-0.089524,-0.089524},
{-0.036480,-0.036480,-0.036480},
{0.039742,0.039742,0.039742},
{-0.063535,-0.063535,-0.063535},
{-0.012563,-0.012563,-0.012563},
{0.099595,0.099595,0.099595},
{-0.069262,-0.069262,-0.069262},
{-0.079376,-0.079376,-0.079376},
{0.043778,0.043778,0.043778},
{0.065498,0.065498,0.065498},
{0.082048,0.082048,0.082048},
{0.076307,0.076307,0.076307},
{-0.099144,-0.099144,-0.099144},
{0.111211,0.111211,0.111211},
{-0.028643,-0.028643,-0.028643},
{-0.013012,-0.013012,-0.013012},
{-0.060654,-0.060654,-0.060654},
{-0.119361,-0.119361,-0.119361},
{0.027476,0.027476,0.027476},
{-0.056511,-0.056511,-0.056511},
{0.019364,0.019364,0.019364},
{-0.025447,-0.025447,-0.025447},
{0.032734,0.032734,0.032734},
{0.057109,0.057109,0.057109},
{0.106721,0.106721,0.106721},
{0.065629,0.065629,0.065629},
{0.027859,0.027859,0.027859},
{-0.033643,-0.033643,-0.033643},
{-0.007619,-0.007619,-0.007619},
{0.059866,0.059866,0.059866},
{0.063222,0.063222,0.063222},
{-0.009947,-0.009947,-0.009947},
{-0.029475,-0.029475,-0.029475},
{0.032175,0.032175,0.032175},
{-0.053966,-0.053966,-0.053966},
{-0.023060,-0.023060,-0.023060},
{0.133601,0.133601,0.133601},
{0.008238,0.008238,0.008238},
{-0.064334,-0.064334,-0.064334},
{0.048327,0.048327,0.048327},
{0.065224,0.065224,0.065224},
{0.039876,0.039876,0.039876},
{-0.099162,-0.099162,-0.099162},
{-0.012799,-0.012799,-0.012799},
{-0.005027,-0.005027,-0.005027},
{0.003689,0.003689,0.003689},
{-0.071542,-0.071542,-0.071542},
{0.072510,0.072510,0.072510},
{-0.065178,-0.065178,-0.065178},
{0.103519,0.103519,0.103519},
{-0.015046,-0.015046,-0.015046},
{-0.011941,-0.011941,-0.011941},
{0.119117,0.119117,0.119117},
{-0.037561,-0.037561,-0.037561},
{-0.013389,-0.013389,-0.013389},
{-0.058291,-0.058291,-0.058291},
{0.011410,0.011410,0.011410},
{0.022790,0.022790,0.022790},
{0.000967,0.000967,0.000967},
{0.042630,0.042630,0.042630},
{-0.037707,-0.037707,-0.037707},
{0.081314,0.081314,0.081314},
{-0.036579,-0.036579,-0.036579},
{0.148144,0.148144,0.148144},
{0.022824,0.022824,0.022824},
{-0.033103,-0.033103,-0.033103},
{-0.106231,-0.106231,-0.106231},
{0.022485,0.022485,0.022485},
{0.053656,0.053656,0.053656},
{-0.006834,-0.006834,-0.006834},
{0.077041,0.077041,0.077041},
{-0.011994,-0.011994,-0.011994},
{-0.091165,-0.091165,-0.091165},
{-0.109571,-0.109571,-0.109571},
{0.033062,0.033062,0.033062},
{0.030507,0.030507,0.030507},
{-0.046665,-0.046665,-0.046665},
{-0.029689,-0.029689,-0.029689},
{-0.057222,-0.057222,-0.057222},
{-0.016819,-0.016819,-0.016819},
{0.050148,0.050148,0.050148},
{-0.113536,-0.113536,-0.113536},
{0.012900,0.012900,0.012900},
{-0.018280,-0.018280,-0.018280},
{0.076243,0.076243,0.076243},
{0.004525,0.004525,0.004525},
{0.025344,0.025344,0.025344},
{0.027480,0.027480,0.027480},
{-0.000935,-0.000935,-0.000935},
{-0.032917,-0.032917,-0.032917},
{-0.087818,-0.087818,-0.087818},
{0.095398,0.095398,0.095398},
{0.069926,0.069926,0.069926},
{0.045590,0.045590,0.045590},
{-0.114429,-0.114429,-0.114429},
{-0.050392,-0.050392,-0.050392},
{-0.114036,-0.114036,-0.114036},
{-0.045267,-0.045267,-0.045267},
{-0.012668,-0.012668,-0.012668},
{0.036344,0.036344,0.036344},
{0.066740,0.066740,0.066740},
{-0.091774,-0.091774,-0.091774},
{-0.014567,-0.014567,-0.014567},
{-0.007128,-0.007128,-0.007128},
{0.039641,0.039641,0.039641},
{0.041580,0.041580,0.041580},
{0.061068,0.061068,0.061068},
{0.038028,0.038028,0.038028},
{0.030665,0.030665,0.030665},
{-0.096336,-0.096336,-0.096336},
{0.002858,0.002858,0.002858},
{0.091339,0.091339,0.091339},
{0.002221,0.002221,0.002221},
{-0.018751,-0.018751,-0.018751},
{-0.031455,-0.031455,-0.031455},
{0.017677,0.017677,0.017677},
{-0.020340,-0.020340,-0.020340},
{-0.024260,-0.024260,-0.024260},
{-0.114520,-0.114520,-0.114520},
{0.048236,0.048236,0.048236},
{0.011030,0.011030,0.011030},
{0.029390,0.029390,0.029390},
{-0.037455,-0.037455,-0.037455},
{-0.058818,-0.058818,-0.058818},
{-0.002857,-0.002857,-0.002857},
{0.080981,0.080981,0.080981},
{-0.022208,-0.022208,-0.022208},
{-0.072499,-0.072499,-0.072499},
{0.082698,0.082698,0.082698},
{-0.033983,-0.033983,-0.033983},
{0.056443,0.056443,0.056443},
{0.051370,0.051370,0.051370},
{-0.020569,-0.020569,-0.020569},
{-0.091485,-0.091485,-0.091485},
{-0.059263,-0.059263,-0.059263},
{-0.047200,-0.047200,-0.047200},
{-0.061568,-0.061568,-0.061568},
{-0.040317,-0.040317,-0.040317},
{-0.006489,-0.006489,-0.006489},
{0.139721,0.139721,0.139721},
{0.020508,0.020508,0.020508},
{-0.010854,-0.010854,-0.010854},
{-0.016442,-0.016442,-0.016442},
{-0.005864,-0.005864,-0.005864},
{0.057856,0.057856,0.057856},
{-0.047726,-0.047726,-0.047726},
{0.032284,0.032284,0.032284},
{-0.132338,-0.132338,-0.132338},
{0.002090,0.002090,0.002090},
{-0.010087,-0.010087,-0.010087},
{-0.013096,-0.013096,-0.013096},
{0.028292,0.028292,0.028292},
{-0.077587,-0.077587,-0.077587},
{-0.001631,-0.001631,-0.001631},
{-0.024382,-0.024382,-0.024382},
{-0.099487,-0.099487,-0.099487},
{-0.055475,-0.055475,-0.055475},
{0.072125,0.072125,0.072125},
{-0.077219,-0.077219,-0.077219},
{0.008763,0.008763,0.008763},
{-0.000134,-0.000134,-0.000134},
{0.053174,0.053174,0.053174},
{0.075035,0.075035,0.075035},
{-0.013503,-0.013503,-0.013503},
{-0.054090,-0.054090,-0.054090},
{0.007453,0.007453,0.007453},
{0.069568,0.069568,0.069568},
{0.133255,0.133255,0.133255},
{-0.008392,-0.008392,-0.008392},
{0.016323,0.016323,0.016323},
{0.021975,0.021975,0.021975},
{0.000924,0.000924,0.000924},
{0.003062,0.003062,0.003062},
{0.046546,0.046546,0.046546},
{0.040560,0.040560,0.040560},
{0.022500,0.022500,0.022500},
{0.095662,0.095662,0.095662},
{-0.094851,-0.094851,-0.094851},
{0.046464,0.046464,0.046464},
{-0.029428,-0.029428,-0.029428},
{0.059682,0.059682,0.059682},
{-0.091892,-0.091892,-0.091892},
{0.126428,0.126428,0.126428},
{-0.119158,-0.119158,-0.119158},
{0.006144,0.006144,0.006144},
{-0.035583,-0.035583,-0.035583},
{-0.045771,-0.045771,-0.045771},
{0.070501,0.070501,0.070501},
{-0.054647,-0.054647,-0.054647},
{0.033420,0.033420,0.033420},
{-0.064886,-0.064886,-0.064886},
{0.010560,0.010560,0.010560},
{-0.106615,-0.106615,-0.106615},
{0.079017,0.079017,0.079017},
{-0.006607,-0.006607,-0.006607},
{-0.037912,-0.037912,-0.037912},
{0.071304,0.071304,0.071304},
{-0.083852,-0.083852,-0.083852},
{-0.021562,-0.021562,-0.021562},
{-0.033172,-0.033172,-0.033172},
{-0.076515,-0.076515,-0.076515},
{-0.006018,-0.006018,-0.006018},
{0.042387,0.042387,0.042387},
{0.031523,0.031523,0.031523},
{0.052254,0.052254,0.052254},
{-0.010192,-0.010192,-0.010192},
{-0.055892,-0.055892,-0.055892},
{0.043520,0.043520,0.043520},
{-0.044727,-0.044727,-0.044727},
{0.106875,0.106875,0.106875},
{0.114833,0.114833,0.114833},
{0.043692,0.043692,0.043692},
{0.088546,0.088546,0.088546},
{0.125946,0.125946,0.125946},
{-0.080969,-0.080969,-0.080969},
{0.016973,0.016973,0.016973},
{0.065392,0.065392,0.065392},
{0.041603,0.041603,0.041603},
{-0.057961,-0.057961,-0.057961},
{0.078992,0.078992,0.078992},
{-0.084531,-0.084531,-0.084531},
{0.062131,0.062131,0.062131},
{-0.090241,-0.090241,-0.090241},
{0.031483,0.031483,0.031483},
{0.022792,0.022792,0.022792},
{-0.012530,-0.012530,-0.012530},
{-0.063831,-0.063831,-0.063831},
{-0.135686,-0.135686,-0.135686},
{0.038724,0.038724,0.038724},
{-0.039873,-0.039873,-0.039873},
{-0.003443,-0.003443,-0.003443},
{-0.025227,-0.025227,-0.025227},
{-0.013615,-0.013615,-0.013615},
{-0.015007,-0.015007,-0.015007},
{0.001910,0.001910,0.001910},
{0.128593,0.128593,0.128593},
{0.044589,0.044589,0.044589},
{0.015453,0.015453,0.015453},
{0.056667,0.056667,0.056667},
{0.094175,0.094175,0.094175},
{-0.020471,-0.020471,-0.020471},
{-0.003885,-0.003885,-0.003885},
{-0.061544,-0.061544,-0.061544},
{0.034845,0.034845,0.034845},
{-0.052364,-0.052364,-0.052364},
{-0.013810,-0.013810,-0.013810},
{0.058625,0.058625,0.058625},
{-0.036278,-0.036278,-0.036278},
{-0.005667,-0.005667,-0.005667},
{0.085800,0.085800,0.085800},
{-0.049305,-0.049305,-0.049305},
{0.005147,0.005147,0.005147},
{-0.028028,-0.028028,-0.028028},
{-0.028448,-0.028448,-0.028448},
{0.056755,0.056755,0.056755},
{-0.060745,-0.060745,-0.060745},
{0.062172,0.062172,0.062172},
{-0.009865,-0.009865,-0.009865},
{0.047433,0.047433,0.047433},
{-0.025799,-0.025799,-0.025799},
{-0.120579,-0.120579,-0.120579},
{-0.008851,-0.008851,-0.008851},
{0.024653,0.024653,0.024653},
{0.006440,0.006440,0.006440},
{0.004499,0.004499,0.004499},
{-0.010637,-0.010637,-0.010637},
{0.079720,0.079720,0.079720},
{-0.032669,-0.032669,-0.032669},
{0.017431,0.017431,0.017431},
{-0.133346,-0.133346,-0.133346},
{0.099757,0.099757,0.099757},
{0.023300,0.023300,0.023300},
{0.024393,0.024393,0.024393},
{-0.034380,-0.034380,-0.034380},
{-0.053032,-0.053032,-0.053032},
{-0.017835,-0.017835,-0.017835},
{0.082325,0.082325,0.082325},
{-0.056799,-0.056799,-0.056799},
{-0.026282,-0.026282,-0.026282},
{-0.032231,-0.032231,-0.032231},
{-0.024689,-0.024689,-0.024689},
{0.011989,0.011989,0.011989},
{0.030174,0.030174,0.030174},
{-0.082533,-0.082533,-0.082533},
{-0.073049,-0.073049,-0.073049},
{0.052263,0.052263,0.052263},
{0.017632,0.017632,0.017632},
{-0.043081,-0.043081,-0.043081},
{-0.034078,-0.034078,-0.034078},
{-0.033441,-0.033441,-0.033441},
{0.104417,0.104417,0.104417},
{0.073145,0.073145,0.073145},
{0.027489,0.027489,0.027489},
{0.012381,0.012381,0.012381},
{-0.070546,-0.070546,-0.070546},
{-0.044707,-0.044707,-0.044707},
{-0.024409,-0.024409,-0.024409},
{-0.029111,-0.029111,-0.029111},
{0.145306,0.145306,0.145306},
{0.122784,0.122784,0.122784},
{0.022947,0.022947,0.022947},
{-0.037638,-0.037638,-0.037638},
{0.010434,0.010434,0.010434},
{0.063421,0.063421,0.063421},
{0.013880,0.013880,0.013880},
{0.127645,0.127645,0.127645},
{-0.016353,-0.016353,-0.016353},
{0.014074,0.014074,0.014074},
{0.049661,0.049661,0.049661},
{0.041633,0.041633,0.041633},
{0.041970,0.041970,0.041970},
{0.026466,0.026466,0.026466},
{0.088382,0.088382,0.088382},
{0.042279,0.042279,0.042279},
{0.128662,0.128662,0.128662},
{0.026511,0.026511,0.026511},
{-0.126534,-0.126534,-0.126534},
{0.164727,0.164727,0.164727},
{0.038805,0.038805,0.038805},
{-0.000559,-0.000559,-0.000559},
{0.003101,0.003101,0.003101},
{-0.016476,-0.016476,-0.016476},
{-0.080235,-0.080235,-0.080235},
{0.074084,0.074084,0.074084},
{0.005485,0.005485,0.005485},
{0.035730,0.035730,0.035730},
{-0.067683,-0.067683,-0.067683},
{0.002461,0.002461,0.002461},
{-0.177881,-0.177881,-0.177881},
{-0.057897,-0.057897,-0.057897},
{0.111264,0.111264,0.111264},
{-0.063987,-0.063987,-0.063987},
{-0.042773,-0.042773,-0.042773},
{-0.017523,-0.017523,-0.017523},
{-0.025053,-0.025053,-0.025053},
{0.004726,0.004726,0.004726},
{-0.009776,-0.009776,-0.009776},
{0.005504,0.005504,0.005504},
{-0.043415,-0.043415,-0.043415},
{0.136105,0.136105,0.136105},
{0.011845,0.011845,0.011845},
{-0.070783,-0.070783,-0.070783},
{-0.077619,-0.077619,-0.077619},
{0.092232,0.092232,0.092232},
{0.113376,0.113376,0.113376},
{0.086865,0.086865,0.086865},
{-0.003090,-0.003090,-0.003090},
{0.056789,0.056789,0.056789},
{-0.045566,-0.045566,-0.045566},
{0.005341,0.005341,0.005341},
{0.106931,0.106931,0.106931},
{0.096376,0.096376,0.096376},
{0.064785,0.064785,0.064785},
{0.036070,0.036070,0.036070},
{-0.079188,-0.079188,-0.079188},
{0.001041,0.001041,0.001041},
{-0.038646,-0.038646,-0.038646},
{-0.063427,-0.063427,-0.063427},
{-0.019937,-0.019937,-0.019937},
{0.044069,0.044069,0.044069},
{0.025484,0.025484,0.025484},
{-0.017251,-0.017251,-0.017251},
{0.030224,0.030224,0.030224},
{-0.012095,-0.012095,-0.012095},
{-0.057421,-0.057421,-0.057421},
{0.045307,0.045307,0.045307},
{0.005658,0.005658,0.005658},
{0.019958,0.019958,0.019958},
{0.013046,0.013046,0.013046},
{0.044474,0.044474,0.044474},
{-0.000355,-0.000355,-0.000355},
{-0.068487,-0.068487,-0.068487},
{0.016431,0.016431,0.016431},
{-0.175252,-0.175252,-0.175252},
{-0.028683,-0.028683,-0.028683},
{0.053960,0.053960,0.053960},
{0.034678,0.034678,0.034678},
{-0.048921,-0.048921,-0.048921},
{-0.008857,-0.008857,-0.008857},
{-0.006144,-0.006144,-0.006144},
{-0.066372,-0.066372,-0.066372},
{0.007389,0.007389,0.007389},
{-0.053676,-0.053676,-0.053676},
{0.002235,0.002235,0.002235},
{0.000001,0.000001,0.000001},
{0.041140,0.041140,0.041140},
{0.028126,0.028126,0.028126},
{-0.048745,-0.048745,-0.048745},
{-0.005977,-0.005977,-0.005977},
{-0.014239,-0.014239,-0.014239},
{0.073213,0.073213,0.073213},
{-0.009300,-0.009300,-0.009300},
{0.031966,0.031966,0.031966},
{-0.051158,-0.051158,-0.051158},
{-0.059358,-0.059358,-0.059358},
{0.006122,0.006122,0.006122},
{0.056266,0.056266,0.056266},
{-0.032337,-0.032337,-0.032337},
{0.046328,0.046328,0.046328},
{0.097751,0.097751,0.097751},
{-0.072416,-0.072416,-0.072416},
{-0.045415,-0.045415,-0.045415},
{0.008775,0.008775,0.008775},
{-0.026721,-0.026721,-0.026721},
{0.031110,0.031110,0.031110},
{0.080424,0.080424,0.080424},
{0.215026,0.215026,0.215026},
{0.098952,0.098952,0.098952},
{0.007459,0.007459,0.007459},
{-0.091570,-0.091570,-0.091570},
{-0.032801,-0.032801,-0.032801},
{-0.070562,-0.070562,-0.070562},
{0.107892,0.107892,0.107892},
{-0.044270,-0.044270,-0.044270},
{-0.143747,-0.143747,-0.143747},
{-0.056749,-0.056749,-0.056749},
{0.024945,0.024945,0.024945},
{0.112169,0.112169,0.112169},
{0.008549,0.008549,0.008549},
{0.026801,0.026801,0.026801},
{0.032826,0.032826,0.032826},
{0.038938,0.038938,0.038938},
{-0.075006,-0.075006,-0.075006},
{-0.072257,-0.072257,-0.072257},
{0.001773,0.001773,0.001773},
{-0.011795,-0.011795,-0.011795},
{0.087283,0.087283,0.087283},
{-0.006595,-0.006595,-0.006595},
{0.042068,0.042068,0.042068},
{-0.033908,-0.033908,-0.033908},
{-0.089738,-0.089738,-0.089738},
{-0.052816,-0.052816,-0.052816},
{0.043897,0.043897,0.043897},
{-0.010588,-0.010588,-0.010588},
{0.092883,0.092883,0.092883},
{-0.037643,-0.037643,-0.037643},
{0.089092,0.089092,0.089092},
{-0.013765,-0.013765,-0.013765},
{-0.016535,-0.016535,-0.016535},
{-0.065949,-0.065949,-0.065949},
{-0.162811,-0.162811,-0.162811},
{-0.019815,-0.019815,-0.019815},
{0.054028,0.054028,0.054028},
{0.063825,0.063825,0.063825},
{-0.032061,-0.032061,-0.032061},
{0.042102,0.042102,0.042102},
{-0.064565,-0.064565,-0.064565},
{-0.154516,-0.154516,-0.154516},
{-0.087636,-0.087636,-0.087636},
{-0.002773,-0.002773,-0.002773},
{-0.015491,-0.015491,-0.015491},
{0.006856,0.006856,0.006856},
{-0.043417,-0.043417,-0.043417},
{0.043586,0.043586,0.043586},
{0.066906,0.066906,0.066906},
{0.090201,0.090201,0.090201},
{-0.030063,-0.030063,-0.030063},
{0.026044,0.026044,0.026044},
{-0.004224,-0.004224,-0.004224},
{-0.124820,-0.124820,-0.124820},
{0.010474,0.010474,0.010474},
{-0.035253,-0.035253,-0.035253},
{0.151148,0.151148,0.151148},
{-0.029948,-0.029948,-0.029948},
{0.018636,0.018636,0.018636},
{-0.011568,-0.011568,-0.011568},
{0.103340,0.103340,0.103340},
{-0.023856,-0.023856,-0.023856},
{-0.036222,-0.036222,-0.036222},
{0.014323,0.014323,0.014323},
{-0.000600,-0.000600,-0.000600},
{-0.044823,-0.044823,-0.044823},
{-0.037099,-0.037099,-0.037099},
{-0.028713,-0.028713,-0.028713},
{-0.023239,-0.023239,-0.023239},
{-0.023435,-0.023435,-0.023435},
{-0.029639,-0.029639,-0.029639},
{-0.085936,-0.085936,-0.085936},
{-0.116575,-0.116575,-0.116575},
{0.161157,0.161157,0.161157},
{-0.102499,-0.102499,-0.102499},
{0.203887,0.203887,0.203887},
{-0.088440,-0.088440,-0.088440},
{-0.024195,-0.024195,-0.024195},
{0.002284,0.002284,0.002284},
{0.057382,0.057382,0.057382},
{-0.027297,-0.027297,-0.027297},
{0.053617,0.053617,0.053617},
{-0.024826,-0.024826,-0.024826},
{0.082084,0.082084,0.082084},
{0.044380,0.044380,0.044380},
{-0.006911,-0.006911,-0.006911},
{0.024365,0.024365,0.024365},
{0.012164,0.012164,0.012164},
{0.052322,0.052322,0.052322},
{-0.026047,-0.026047,-0.026047},
{-0.049571,-0.049571,-0.049571},
{0.010139,0.010139,0.010139},
{-0.028575,-0.028575,-0.028575},
{-0.025366,-0.025366,-0.025366},
{0.059165,0.059165,0.059165},
{0.016484,0.016484,0.016484},
{0.017670,0.017670,0.017670},
{0.033740,0.033740,0.033740},
{-0.003416,-0.003416,-0.003416},
{-0.004769,-0.004769,-0.004769},
{-0.046197,-0.046197,-0.046197},
{0.014020,0.014020,0.014020},
{0.010692,0.010692,0.010692},
{0.020085,0.020085,0.020085},
{0.069426,0.069426,0.069426},
{-0.059895,-0.059895,-0.059895},
{0.022561,0.022561,0.022561},
{0.093469,0.093469,0.093469},
{0.038275,0.038275,0.038275},
{-0.021399,-0.021399,-0.021399},
{0.125800,0.125800,0.125800},
{0.066847,0.066847,0.066847},
{-0.112733,-0.112733,-0.112733},
{-0.060566,-0.060566,-0.060566},
{-0.041865,-0.041865,-0.041865},
{0.070197,0.070197,0.070197},
{0.044067,0.044067,0.044067},
{-0.019980,-0.019980,-0.019980},
{0.065065,0.065065,0.065065},
{-0.012863,-0.012863,-0.012863},
{-0.039827,-0.039827,-0.039827},
{-0.156992,-0.156992,-0.156992},
{0.100343,0.100343,0.100343},
{-0.007957,-0.007957,-0.007957},
{-0.110021,-0.110021,-0.110021},
{-0.017607,-0.017607,-0.017607},
{0.115825,0.115825,0.115825},
{0.010350,0.010350,0.010350},
{-0.095900,-0.095900,-0.095900},
{0.021512,0.021512,0.021512},
{0.053140,0.053140,0.053140},
{-0.082184,-0.082184,-0.082184},
{0.072340,0.072340,0.072340},
{-0.078504,-0.078504,-0.078504},
{0.013096,0.013096,0.013096},
{0.051595,0.051595,0.051595},
{-0.030703,-0.030703,-0.030703},
{0.018934,0.018934,0.018934},
{-0.030913,-0.030913,-0.030913},
{-0.045833,-0.045833,-0.045833},
{-0.019642,-0.019642,-0.019642},
{-0.108797,-0.108797,-0.108797},
{0.145723,0.145723,0.145723},
{0.034388,0.034388,0.034388},
{0.041648,0.041648,0.041648},
{0.070901,0.070901,0.070901},
{-0.001057,-0.001057,-0.001057},
{0.029349,0.029349,0.029349},
{-0.109928,-0.109928,-0.109928},
{-0.015173,-0.015173,-0.015173},
{-0.047352,-0.047352,-0.047352},
{0.010146,0.010146,0.010146},
{0.108996,0.108996,0.108996},
{0.120834,0.120834,0.120834},
{0.036143,0.036143,0.036143},
{-0.099097,-0.099097,-0.099097},
{0.005632,0.005632,0.005632},
{-0.160439,-0.160439,-0.160439},
{0.138743,0.138743,0.138743},
{-0.000663,-0.000663,-0.000663},
{0.086749,0.086749,0.086749},
{-0.037480,-0.037480,-0.037480},
{0.052851,0.052851,0.052851},
{-0.004198,-0.004198,-0.004198},
{0.027055,0.027055,0.027055},
{-0.094946,-0.094946,-0.094946},
{0.003952,0.003952,0.003952},
{-0.050444,-0.050444,-0.050444},
{-0.088562,-0.088562,-0.088562},
{0.081341,0.081341,0.081341},
{-0.060711,-0.060711,-0.060711},
{0.017317,0.017317,0.017317},
{0.117222,0.117222,0.117222},
{0.046107,0.046107,0.046107},
{0.004513,0.004513,0.004513},
{-0.011397,-0.011397,-0.011397},
{-0.021043,-0.021043,-0.021043},
{-0.081073,-0.081073,-0.081073},
{0.001148,0.001148,0.001148},
{0.000673,0.000673,0.000673},
{-0.067410,-0.067410,-0.067410},
{0.103486,0.103486,0.103486},
{0.014800,0.014800,0.014800},
{-0.110168,-0.110168,-0.110168},
{0.016587,0.016587,0.016587},
{-0.011952,-0.011952,-0.011952},
{-0.064987,-0.064987,-0.064987},
{0.133069,0.133069,0.133069},
{-0.085635,-0.085635,-0.085635},
{-0.149695,-0.149695,-0.149695},
{0.060992,0.060992,0.060992},
{-0.180302,-0.180302,-0.180302},
{-0.083191,-0.083191,-0.083191},
{0.071522,0.071522,0.071522},
{-0.027246,-0.027246,-0.027246},
{-0.083951,-0.083951,-0.083951},
{0.014673,0.014673,0.014673},
{-0.090108,-0.090108,-0.090108},
{-0.045783,-0.045783,-0.045783},
{-0.068670,-0.068670,-0.068670},
{-0.003907,-0.003907,-0.003907},
{0.012056,0.012056,0.012056},
{0.025713,0.025713,0.025713},
{0.018396,0.018396,0.018396},
{-0.093691,-0.093691,-0.093691},
{0.008685,0.008685,0.008685},
{-0.100154,-0.100154,-0.100154},
{0.014430,0.014430,0.014430},
{-0.075692,-0.075692,-0.075692},
{-0.102864,-0.102864,-0.102864},
{-0.006038,-0.006038,-0.006038},
{0.043802,0.043802,0.043802},
{-0.016034,-0.016034,-0.016034},
{0.151952,0.151952,0.151952},
{0.009736,0.009736,0.009736},
{0.050924,0.050924,0.050924},
{-0.089368,-0.089368,-0.089368},
{-0.021421,-0.021421,-0.021421},
{-0.015712,-0.015712,-0.015712},
{0.029683,0.029683,0.029683},
{-0.047682,-0.047682,-0.047682},
{0.038528,0.038528,0.038528},
{0.091696,0.091696,0.091696},
{0.039653,0.039653,0.039653},
{0.060112,0.060112,0.060112},
{-0.025105,-0.025105,-0.025105},
{-0.005093,-0.005093,-0.005093},
{0.109079,0.109079,0.109079},
{-0.011909,-0.011909,-0.011909},
{-0.025460,-0.025460,-0.025460},
{-0.122932,-0.122932,-0.122932},
{0.074462,0.074462,0.074462},
{-0.075669,-0.075669,-0.075669},
{0.079689,0.079689,0.079689},
{-0.102517,-0.102517,-0.102517},
{0.028208,0.028208,0.028208},
{-0.064588,-0.064588,-0.064588},
{0.081375,0.081375,0.081375},
{0.080418,0.080418,0.080418},
{-0.039982,-0.039982,-0.039982},
{-0.070512,-0.070512,-0.070512},
{-0.027454,-0.027454,-0.027454},
{-0.004303,-0.004303,-0.004303},
{0.099238,0.099238,0.099238},
{0.058920,0.058920,0.058920},
{-0.008736,-0.008736,-0.008736},
{-0.118459,-0.118459,-0.118459},
{0.037950,0.037950,0.037950},
{0.030889,0.030889,0.030889},
{0.066305,0.066305,0.066305},
{-0.137798,-0.137798,-0.137798},
{0.029467,0.029467,0.029467},
{-0.120250,-0.120250,-0.120250},
{0.066275,0.066275,0.066275},
{0.089172,0.089172,0.089172},
{-0.071010,-0.071010,-0.071010},
{-0.034229,-0.034229,-0.034229},
{0.029955,0.029955,0.029955},
{-0.058108,-0.058108,-0.058108},
{-0.099968,-0.099968,-0.099968},
{0.052258,0.052258,0.052258},
{0.040992,0.040992,0.040992},
{0.007373,0.007373,0.007373},
{-0.056821,-0.056821,-0.056821},
{-0.096854,-0.096854,-0.096854},
{0.002606,0.002606,0.002606},
{0.033822,0.033822,0.033822},
{0.007339,0.007339,0.007339},
{0.045145,0.045145,0.045145},
{-0.063552,-0.063552,-0.063552},
{-0.124256,-0.124256,-0.124256},
{-0.038311,-0.038311,-0.038311},
{-0.139731,-0.139731,-0.139731},
{-0.090683,-0.090683,-0.090683},
{0.008574,0.008574,0.008574},
{-0.085877,-0.085877,-0.085877},
{-0.030402,-0.030402,-0.030402},
{-0.038408,-0.038408,-0.038408},
{-0.009812,-0.009812,-0.009812},
{0.037375,0.037375,0.037375},
{-0.042216,-0.042216,-0.042216},
{0.048290,0.048290,0.048290},
{0.042437,0.042437,0.042437},
{0.007025,0.007025,0.007025},
{-0.066290,-0.066290,-0.066290},
{-0.084464,-0.084464,-0.084464},
{-0.026377,-0.026377,-0.026377},
{0.010360,0.010360,0.010360},
{0.061584,0.061584,0.061584},
{-0.090135,-0.090135,-0.090135},
{-0.101418,-0.101418,-0.101418},
{-0.096430,-0.096430,-0.096430},
{0.124648,0.124648,0.124648},
{-0.078943,-0.078943,-0.078943},
{-0.077360,-0.077360,-0.077360},
{-0.009781,-0.009781,-0.009781},
{0.059084,0.059084,0.059084},
{0.040094,0.040094,0.040094},
{-0.037434,-0.037434,-0.037434},
{-0.155275,-0.155275,-0.155275},
{0.028153,0.028153,0.028153},
{-0.069822,-0.069822,-0.069822},
{-0.002727,-0.002727,-0.002727},
{0.063651,0.063651,0.063651},
{-0.028339,-0.028339,-0.028339},
{-0.065009,-0.065009,-0.065009},
{-0.017623,-0.017623,-0.017623},
{0.060473,0.060473,0.060473},
{-0.008033,-0.008033,-0.008033},
{0.020147,0.020147,0.020147},
{-0.048678,-0.048678,-0.048678},
{-0.034376,-0.034376,-0.034376},
{-0.021279,-0.021279,-0.021279},
{0.004363,0.004363,0.004363},
{-0.009733,-0.009733,-0.009733},
{-0.013052,-0.013052,-0.013052},
{0.032207,0.032207,0.032207},
{0.077219,0.077219,0.077219},
{-0.026174,-0.026174,-0.026174},
{-0.052734,-0.052734,-0.052734},
{0.048027,0.048027,0.048027},
{-0.085456,-0.085456,-0.085456},
{0.027412,0.027412,0.027412},
{0.048465,0.048465,0.048465},
{0.019601,0.019601,0.019601},
{0.038511,0.038511,0.038511},
{-0.048205,-0.048205,-0.048205},
{0.094805,0.094805,0.094805},
{0.073249,0.073249,0.073249},
{0.016006,0.016006,0.016006},
{0.061373,0.061373,0.061373},
{-0.108521,-0.108521,-0.108521},
{-0.098143,-0.098143,-0.098143},
{-0.054972,-0.054972,-0.054972},
{-0.003869,-0.003869,-0.003869},
{0.053144,0.053144,0.053144},
{0.032328,0.032328,0.032328},
{-0.030658,-0.030658,-0.030658},
{-0.005026,-0.005026,-0.005026},
{-0.047683,-0.047683,-0.047683},
{-0.048447,-0.048447,-0.048447},
{0.048361,0.048361,0.048361},
{-0.058226,-0.058226,-0.058226},
{0.021132,0.021132,0.021132},
{0.012208,0.012208,0.012208},
{0.069388,0.069388,0.069388},
{0.084410,0.084410,0.084410},
{0.077829,0.077829,0.077829},
{-0.069737,-0.069737,-0.069737},
{-0.040188,-0.040188,-0.040188},
{0.025882,0.025882,0.025882},
{0.048414,0.048414,0.048414},
{0.008511,0.008511,0.008511},
{0.157133,0.157133,0.157133},
{-0.003959,-0.003959,-0.003959},
{0.008062,0.008062,0.008062},
{-0.091766,-0.091766,-0.091766},
{0.089514,0.089514,0.089514},
{-0.036377,-0.036377,-0.036377},
{0.042003,0.042003,0.042003},
{-0.063059,-0.063059,-0.063059},
{-0.029424,-0.029424,-0.029424},
{-0.020948,-0.020948,-0.020948},
{-0.155350,-0.155350,-0.155350},
{-0.086859,-0.086859,-0.086859},
{0.072514,0.072514,0.072514},
{0.052047,0.052047,0.052047},
{-0.058447,-0.058447,-0.058447},
{-0.005590,-0.005590,-0.005590},
{-0.046411,-0.046411,-0.046411},
{0.017586,0.017586,0.017586},
{0.073603,0.073603,0.073603},
{-0.017720,-0.017720,-0.017720},
{-0.024014,-0.024014,-0.024014},
{-0.016907,-0.016907,-0.016907},
{-0.055498,-0.055498,-0.055498},
{-0.033174,-0.033174,-0.033174},
{0.080418,0.080418,0.080418},
{-0.142681,-0.142681,-0.142681},
{0.003545,0.003545,0.003545},
{-0.002998,-0.002998,-0.002998},
{-0.013967,-0.013967,-0.013967},
{-0.017673,-0.017673,-0.017673},
{0.068940,0.068940,0.068940},
{0.058404,0.058404,0.058404},
{0.009163,0.009163,0.009163},
{-0.085378,-0.085378,-0.085378},
{0.066421,0.066421,0.066421},
{0.031093,0.031093,0.031093},
{0.046995,0.046995,0.046995},
{-0.055294,-0.055294,-0.055294},
{0.007074,0.007074,0.007074},
{-0.042860,-0.042860,-0.042860},
{-0.038746,-0.038746,-0.038746},
{-0.026602,-0.026602,-0.026602},
{-0.083291,-0.083291,-0.083291},
{-0.056604,-0.056604,-0.056604},
{0.004399,0.004399,0.004399},
{0.141114,0.141114,0.141114},
{-0.030202,-0.030202,-0.030202},
{0.020052,0.020052,0.020052},
{0.069593,0.069593,0.069593},
{0.022220,0.022220,0.022220},
{0.043059,0.043059,0.043059},
{0.067822,0.067822,0.067822},
{0.036177,0.036177,0.036177},
{0.007935,0.007935,0.007935},
{-0.020598,-0.020598,-0.020598},
{-0.011997,-0.011997,-0.011997},
{0.032359,0.032359,0.032359},
{-0.080186,-0.080186,-0.080186},
{-0.087707,-0.087707,-0.087707},
{0.042647,0.042647,0.042647},
{0.088473,0.088473,0.088473},
{-0.074817,-0.074817,-0.074817},
{-0.001398,-0.001398,-0.001398},
{-0.066101,-0.066101,-0.066101},
{-0.113618,-0.113618,-0.113618},
{-0.026370,-0.026370,-0.026370},
{-0.036600,-0.036600,-0.036600},
{0.004863,0.004863,0.004863},
{-0.071070,-0.071070,-0.071070},
{-0.081294,-0.081294,-0.081294},
{-0.125892,-0.125892,-0.125892},
{0.094668,0.094668,0.094668},
{0.066921,0.066921,0.066921},
{-0.000356,-0.000356,-0.000356},
{0.035218,0.035218,0.035218},
{0.069641,0.069641,0.069641},
{-0.045928,-0.045928,-0.045928},
{-0.009211,-0.009211,-0.009211},
{-0.000524,-0.000524,-0.000524},
{0.100398,0.100398,0.100398},
{-0.096258,-0.096258,-0.096258},
{0.074908,0.074908,0.074908},
{0.005851,0.005851,0.005851},
{0.022771,0.022771,0.022771},
{0.058017,0.058017,0.058017},
{0.029871,0.029871,0.029871},
{-0.025044,-0.025044,-0.025044},
{0.016659,0.016659,0.016659},
{-0.058901,-0.058901,-0.058901},
{-0.025121,-0.025121,-0.025121},
{0.018211,0.018211,0.018211},
{-0.010148,-0.010148,-0.010148},
{-0.177741,-0.177741,-0.177741},
{-0.053264,-0.053264,-0.053264},
{-0.095987,-0.095987,-0.095987},
{-0.009653,-0.009653,-0.009653},
{-0.032896,-0.032896,-0.032896},
{0.032515,0.032515,0.032515},
{0.022910,0.022910,0.022910},
{0.008901,0.008901,0.008901},
{-0.058561,-0.058561,-0.058561},
{0.145820,0.145820,0.145820},
{-0.043456,-0.043456,-0.043456},
{0.085477,0.085477,0.085477},
{0.021322,0.021322,0.021322},
{-0.033525,-0.033525,-0.033525},
{0.005084,0.005084,0.005084},
{0.175840,0.175840,0.175840},
{-0.041508,-0.041508,-0.041508},
{0.021501,0.021501,0.021501},
{0.012550,0.012550,0.012550},
{0.083891,0.083891,0.083891},
{0.023358,0.023358,0.023358},
{0.121368,0.121368,0.121368},
{0.038729,0.038729,0.038729},
{0.014957,0.014957,0.014957},
{-0.035116,-0.035116,-0.035116},
{-0.034554,-0.034554,-0.034554},
{-0.100512,-0.100512,-0.100512},
{-0.027453,-0.027453,-0.027453},
{0.015595,0.015595,0.015595},
{0.068479,0.068479,0.068479},
{-0.007576,-0.007576,-0.007576},
{0.060479,0.060479,0.060479},
{-0.106956,-0.106956,-0.106956},
{-0.012053,-0.012053,-0.012053},
{-0.018196,-0.018196,-0.018196},
{-0.018704,-0.018704,-0.018704},
{-0.017412,-0.017412,-0.017412},
{-0.066785,-0.066785,-0.066785},
{0.096987,0.096987,0.096987},
{0.044186,0.044186,0.044186},
{-0.053498,-0.053498,-0.053498},
{-0.046614,-0.046614,-0.046614},
{-0.049810,-0.049810,-0.049810},
{-0.138222,-0.138222,-0.138222},
{-0.100330,-0.100330,-0.100330},
{0.013268,0.013268,0.013268},
{-0.062049,-0.062049,-0.062049},
{-0.132579,-0.132579,-0.132579},
{0.022218,0.022218,0.022218},
{-0.059717,-0.059717,-0.059717},
{0.016349,0.016349,0.016349},
{-0.040354,-0.040354,-0.040354},
{-0.093849,-0.093849,-0.093849},
{-0.002499,-0.002499,-0.002499},
{-0.118083,-0.118083,-0.118083},
{0.020469,0.020469,0.020469},
{-0.011923,-0.011923,-0.011923},
{0.049099,0.049099,0.049099},
{-0.084256,-0.084256,-0.084256},
{-0.000240,-0.000240,-0.000240},
{-0.012188,-0.012188,-0.012188},
{0.032091,0.032091,0.032091},
{0.012646,0.012646,0.012646},
{0.125698,0.125698,0.125698},
{-0.033785,-0.033785,-0.033785},
{-0.021775,-0.021775,-0.021775},
{-0.042067,-0.042067,-0.042067},
{0.012373,0.012373,0.012373},
{0.070792,0.070792,0.070792},
{0.063741,0.063741,0.063741},
{0.075279,0.075279,0.075279},
{-0.113808,-0.113808,-0.113808},
{0.040988,0.040988,0.040988},
{-0.059421,-0.059421,-0.059421},
{-0.005117,-0.005117,-0.005117},
{-0.089283,-0.089283,-0.089283},
{0.006458,0.006458,0.006458},
{-0.074903,-0.074903,-0.074903},
{-0.000443,-0.000443,-0.000443},
{-0.104298,-0.104298,-0.104298},
{-0.067524,-0.067524,-0.067524},
{0.026484,0.026484,0.026484},
{0.062788,0.062788,0.062788},
{-0.011052,-0.011052,-0.011052},
{-0.034259,-0.034259,-0.034259},
{0.005407,0.005407,0.005407},
{-0.116785,-0.116785,-0.116785},
{-0.008258,-0.008258,-0.008258},
{-0.024851,-0.024851,-0.024851},
{-0.015023,-0.015023,-0.015023},
{-0.098942,-0.098942,-0.098942},
{-0.062107,-0.062107,-0.062107},
{0.052603,0.052603,0.052603},
{0.009186,0.009186,0.009186},
{-0.058582,-0.058582,-0.058582},
{0.113715,0.113715,0.113715},
{-0.018664,-0.018664,-0.018664},
{0.010688,0.010688,0.010688},
{0.008255,0.008255,0.008255},
{0.017281,0.017281,0.017281},
{0.117186,0.117186,0.117186},
{-0.058165,-0.058165,-0.058165},
{0.049998,0.049998,0.049998},
{-0.123865,-0.123865,-0.123865},
{0.014585,0.014585,0.014585},
{-0.027150,-0.027150,-0.027150},
{0.031771,0.031771,0.031771},
{-0.140843,-0.140843,-0.140843},
{0.008255,0.008255,0.008255},
{-0.042692,-0.042692,-0.042692},
{-0.030041,-0.030041,-0.030041},
{0.042929,0.042929,0.042929},
{-0.007664,-0.007664,-0.007664},
{0.011808,0.011808,0.011808},
{0.020675,0.020675,0.020675},
{0.004886,0.004886,0.004886},
{-0.024032,-0.024032,-0.024032},
{0.054233,0.054233,0.054233},
{0.013353,0.013353,0.013353},
{-0.019778,-0.019778,-0.019778},
{-0.008147,-0.008147,-0.008147},
{0.112389,0.112389,0.112389},
{0.013967,0.013967,0.013967},
{-0.117317,-0.117317,-0.117317},
{0.058676,0.058676,0.058676},
{-0.000358,-0.000358,-0.000358},
{-0.017417,-0.017417,-0.017417},
{0.060529,0.060529,0.060529},
{-0.010310,-0.010310,-0.010310},
{0.007390,0.007390,0.007390},
{-0.063580,-0.063580,-0.063580},
{-0.060048,-0.060048,-0.060048},
{-0.043022,-0.043022,-0.043022},
{0.070005,0.070005,0.070005},
{0.049295,0.049295,0.049295},
{0.010363,0.010363,0.010363},
{-0.059764,-0.059764,-0.059764},
{-0.116359,-0.116359,-0.116359},
{-0.072293,-0.072293,-0.072293},
{-0.062681,-0.062681,-0.062681},
{-0.034812,-0.034812,-0.034812},
{-0.104078,-0.104078,-0.104078},
{0.004741,0.004741,0.004741},
{0.054978,0.054978,0.054978},
{-0.009002,-0.009002,-0.009002},
{0.001672,0.001672,0.001672},
{0.015543,0.015543,0.015543},
{0.078321,0.078321,0.078321},
{-0.002981,-0.002981,-0.002981},
{0.100771,0.100771,0.100771},
{-0.005530,-0.005530,-0.005530},
{-0.003382,-0.003382,-0.003382},
{-0.016503,-0.016503,-0.016503},
{0.053803,0.053803,0.053803},
{0.021972,0.021972,0.021972},
{0.104662,0.104662,0.104662},
{-0.006927,-0.006927,-0.006927},
{0.037954,0.037954,0.037954},
{-0.068977,-0.068977,-0.068977},
{0.020813,0.020813,0.020813},
{-0.099318,-0.099318,-0.099318},
{0.017876,0.017876,0.017876},
{-0.009130,-0.009130,-0.009130},
{0.040381,0.040381,0.040381},
{0.116138,0.116138,0.116138},
{0.055071,0.055071,0.055071},
{-0.082998,-0.082998,-0.082998},
{-0.025882,-0.025882,-0.025882},
{0.043099,0.043099,0.043099},
{-0.050990,-0.050990,-0.050990},
{-0.069036,-0.069036,-0.069036},
{-0.085516,-0.085516,-0.085516},
{-0.041359,-0.041359,-0.041359},
{-0.036431,-0.036431,-0.036431},
{0.013057,0.013057,0.013057},
{0.032407,0.032407,0.032407},
{-0.007416,-0.007416,-0.007416},
{0.021647,0.021647,0.021647},
{-0.080502,-0.080502,-0.080502},
{0.001621,0.001621,0.001621},
{-0.012052,-0.012052,-0.012052},
{-0.028399,-0.028399,-0.028399},
{-0.039785,-0.039785,-0.039785},
{-0.007135,-0.007135,-0.007135},
{0.010725,0.010725,0.010725},
{-0.025140,-0.025140,-0.025140},
{-0.014210,-0.014210,-0.014210},
{-0.047887,-0.047887,-0.047887},
{-0.039426,-0.039426,-0.039426},
{-0.017056,-0.017056,-0.017056},
{0.067431,0.067431,0.067431},
{0.021268,0.021268,0.021268},
{-0.044127,-0.044127,-0.044127},
{-0.069500,-0.069500,-0.069500},
{-0.088137,-0.088137,-0.088137},
{-0.036483,-0.036483,-0.036483},
{-0.053224,-0.053224,-0.053224},
{0.012049,0.012049,0.012049},
{-0.047169,-0.047169,-0.047169},
{0.066868,0.066868,0.066868},
{-0.003151,-0.003151,-0.003151},
{0.094267,0.094267,0.094267},
{0.038609,0.038609,0.038609},
{0.019877,0.019877,0.019877},
{-0.130128,-0.130128,-0.130128},
{0.085837,0.085837,0.085837},
{-0.080367,-0.080367,-0.080367},
{-0.026561,-0.026561,-0.026561},
{0.014334,0.014334,0.014334},
{-0.137389,-0.137389,-0.137389},
{0.019645,0.019645,0.019645},
{0.101267,0.101267,0.101267},
{-0.088571,-0.088571,-0.088571},
{0.027071,0.027071,0.027071},
{0.020839,0.020839,0.020839},
{-0.088695,-0.088695,-0.088695},
{-0.027291,-0.027291,-0.027291},
{-0.058571,-0.058571,-0.058571},
{0.070336,0.070336,0.070336},
{0.065354,0.065354,0.065354},
{-0.032531,-0.032531,-0.032531},
{0.046877,0.046877,0.046877},
{0.064204,0.064204,0.064204},
{-0.042553,-0.042553,-0.042553},
{0.064528,0.064528,0.064528},
{-0.062953,-0.062953,-0.062953},
{-0.005979,-0.005979,-0.005979},
{-0.034198,-0.034198,-0.034198},
{0.037844,0.037844,0.037844},
{-0.037671,-0.037671,-0.037671},
{0.009812,0.009812,0.009812},
{0.065885,0.065885,0.065885},
{-0.040123,-0.040123,-0.040123},
{0.038064,0.038064,0.038064},
{0.011534,0.011534,0.011534},
{-0.094424,-0.094424,-0.094424},
{0.043061,0.043061,0.043061},
{0.068407,0.068407,0.068407},
{-0.043591,-0.043591,-0.043591},
{-0.048517,-0.048517,-0.048517},
{-0.076498,-0.076498,-0.076498},
{-0.119582,-0.119582,-0.119582},
{-0.009038,-0.009038,-0.009038},
{-0.020080,-0.020080,-0.020080},
{0.034280,0.034280,0.034280},
{-0.142194,-0.142194,-0.142194},
{-0.002015,-0.002015,-0.002015},
{-0.027337,-0.027337,-0.027337},
{-0.152883,-0.152883,-0.152883},
{-0.067890,-0.067890,-0.067890},
{-0.026025,-0.026025,-0.026025},
{-0.024621,-0.024621,-0.024621},
{0.057211,0.057211,0.057211},
{-0.057932,-0.057932,-0.057932},
{-0.020015,-0.020015,-0.020015},
{0.057896,0.057896,0.057896},
{-0.025251,-0.025251,-0.025251},
{0.059156,0.059156,0.059156},
{-0.113389,-0.113389,-0.113389},
{0.084785,0.084785,0.084785},
{0.030750,0.030750,0.030750},
{0.110012,0.110012,0.110012},
{-0.063747,-0.063747,-0.063747},
{-0.050270,-0.050270,-0.050270},
{-0.052927,-0.052927,-0.052927},
{-0.026068,-0.026068,-0.026068},
{-0.026586,-0.026586,-0.026586},
{0.042588,0.042588,0.042588},
{-0.045375,-0.045375,-0.045375},
{-0.054988,-0.054988,-0.054988},
{-0.039922,-0.039922,-0.039922},
{0.068429,0.068429,0.068429},
{-0.077201,-0.077201,-0.077201},
{-0.071353,-0.071353,-0.071353},
{0.104515,0.104515,0.104515},
{-0.151253,-0.151253,-0.151253},
{0.061288,0.061288,0.061288},
{0.075832,0.075832,0.075832},
{-0.036644,-0.036644,-0.036644},
{-0.096539,-0.096539,-0.096539},
{-0.059035,-0.059035,-0.059035},
{-0.061867,-0.061867,-0.061867},
{-0.040414,-0.040414,-0.040414},
{-0.049728,-0.049728,-0.049728},
{-0.088982,-0.088982,-0.088982},
{0.052286,0.052286,0.052286},
{0.031874,0.031874,0.031874},
{0.027473,0.027473,0.027473},
{-0.039386,-0.039386,-0.039386},
{-0.051452,-0.051452,-0.051452},
{0.065627,0.065627,0.065627},
{0.010577,0.010577,0.010577},
{0.064223,0.064223,0.064223},
{0.091384,0.091384,0.091384},
{-0.084176,-0.084176,-0.084176},
{-0.015334,-0.015334,-0.015334},
{0.062276,0.062276,0.062276},
